3972 10
noun 1.022032 0.540786 0.849179 0.862917 -0.779743 -1.576544 -0.199633 -1.256718 0.017294 -1.513590
punct 0.623548 -0.183318 0.981828 0.730031 -0.686584 -1.176972 -0.093622 -0.537057 -0.141472 -1.323666
verb 0.651418 0.218660 0.805785 0.647921 -0.620318 -1.141071 -0.187931 -0.927722 -0.294304 -1.155818
adj 0.707110 0.110321 0.991849 0.980751 -0.649312 -1.373534 -0.109430 -0.818592 -0.053756 -1.291651
adp 0.604611 -0.076692 0.885455 0.752122 -0.627991 -1.266601 -0.122863 -0.498730 -0.125745 -1.419006
z:------------- -1.019581 0.738382 -0.244921 0.110486 -0.927345 0.063577 -0.435184 0.018086 -0.322330 -0.176798
adv 0.677828 0.165901 1.025068 0.938831 -0.505405 -1.005611 -0.454867 -0.901173 -0.140461 -1.009214
pron 0.746115 0.177731 1.143859 1.177978 -0.489322 -0.895883 -0.560688 -0.907973 -0.105949 -0.848232
propn 0.485526 -1.201739 1.658891 1.980506 -0.577352 -0.606453 -0.585329 -0.555039 -0.293565 -0.794586
det 0.537691 -0.278029 1.384036 0.919414 -0.418359 -1.114081 -0.441875 -0.384190 -0.201594 -1.326398
conj 0.486219 -0.247659 1.068929 0.883054 -0.540511 -1.093252 -0.194335 -0.481848 -0.176286 -1.189397
num 0.317985 -0.782601 1.478251 1.372792 -0.632582 -0.933953 -0.235433 -0.738591 -0.424719 -1.232648
n 0.309790 -1.831754 0.907025 1.463231 0.007904 -0.579492 -0.067043 -0.496814 -0.753467 -0.332123
v 0.989574 -0.635850 1.380274 1.515908 0.043432 -0.864023 -1.349189 -1.022578 -1.001183 -1.248684
_+_ 0.553178 -0.987158 0.818767 1.971894 0.739413 -0.471812 -1.230339 -0.098675 -0.544894 -0.279744
_ 0.505985 -1.010342 1.275524 2.027056 0.657172 -0.811086 -1.083498 -0.258341 -0.456491 -0.904458
s 0.110626 -1.179407 1.110398 1.904507 0.399213 -1.414326 -0.810815 -0.540427 -1.278319 -1.073694
sconj 0.343373 -0.582221 1.339416 1.126660 -0.347394 -0.750429 -0.476963 -0.448249 -0.343721 -0.828001
aux 0.464980 -0.104059 1.376075 0.990241 -0.290691 -0.628069 -0.679402 -0.682094 -0.154068 -0.510382
j^------------- -0.878489 0.768014 -0.282193 -0.170926 -0.665504 0.009116 -0.272309 0.195069 0.264990 0.022910
db------------- -0.767013 0.161671 -0.895877 0.262099 -0.960857 0.003257 -0.293152 -0.069542 0.416227 0.142341
e 0.819637 -0.787826 1.372469 1.600728 -0.010973 -1.145910 -0.216874 -0.269668 -1.993977 -0.502649
rr--6---------- -1.431351 0.192816 -0.191669 -0.473244 -0.549850 -1.533248 0.033399 -0.762304 0.115453 0.569635
n_sing 1.042427 -0.666756 1.476382 1.171402 -0.137347 -0.929000 -0.437477 -0.919871 -0.998196 -1.318508
vb-s---3p-aa--- -1.160622 -0.041434 -0.558364 0.590167 -0.813917 -0.264214 -0.036597 0.784697 -0.013787 -0.796053
rd 0.325245 -1.654249 1.193039 1.005331 0.182232 -0.031253 -1.067373 0.477090 -1.485767 -1.599625
part 0.921800 -0.041608 1.046927 0.971700 -0.367205 -1.165989 -0.586758 -0.469924 -0.508921 -1.280708
nn 0.376594 -1.655323 -0.361659 -0.339239 -0.438571 -0.572001 -0.256585 -0.995852 1.097715 -0.081849
nnms1-----a---- -0.459709 1.252555 0.632476 1.599256 -1.121164 -0.463363 -0.350857 0.376690 0.226294 1.172401
a 0.722379 -1.133780 1.366700 1.663561 -0.024614 -0.554318 -0.661184 -0.191207 -1.090181 -0.942126
punct+_ 0.187303 -1.208614 1.305479 1.195198 -0.677894 -0.956145 -0.924043 -0.334503 -1.165754 -0.659555
nnfs2-----a---- -1.089159 0.976913 0.121009 -0.388883 -0.239773 -0.149406 -1.018681 0.844064 0.495168 0.215492
nnfs1-----a---- -0.692115 0.289701 0.006278 0.469852 -1.324864 0.488569 -0.305175 -0.566411 0.815853 -0.855924
rr--4---------- -0.364762 0.357537 -0.531290 -0.214289 -0.763534 -1.041991 -0.844262 0.498029 -0.288065 -0.553681
rr--2---------- -0.597891 1.212458 0.100237 -0.351802 -0.498753 -0.486678 -0.834668 -0.394898 -0.197473 -0.292535
c=------------- -1.421592 -0.327737 1.187577 -0.209270 -1.541320 0.449239 -0.716300 -0.445029 -1.100293 0.095224
j,------------- -0.389657 0.125517 -0.777466 0.279481 -1.474414 0.511829 0.082496 0.172115 0.338387 -0.032957
in 0.792996 -0.953230 -0.428853 -0.893135 -0.016425 -1.603900 -0.431827 -1.065993 0.665024 0.770906
vf--------a---- -0.506972 0.086527 -0.829679 0.062071 -0.760329 -0.179680 -0.497675 0.436717 0.311966 0.024620
nnis2-----a---- -1.216994 0.667841 0.792210 0.111920 -0.561999 -0.093211 -0.627409 0.666942 0.348237 -0.538856
nnis1-----a---- -0.603035 0.951874 -0.324576 0.549627 -1.447808 0.485456 -0.439879 -0.082423 0.801882 -0.198929
nnfs4-----a---- -0.264593 0.087023 0.039888 0.007191 -1.100604 -0.446049 -1.113188 0.472877 0.852292 -0.590099
dt 0.271834 -1.562013 -0.512633 -1.264744 0.595281 -0.767160 -1.002897 0.310823 0.796867 0.183254
p7-x4---------- -0.760025 0.226056 -0.962810 0.038084 -0.854060 0.111837 -0.497791 -0.073851 0.217492 0.700116
vpys---xr-aa--- -0.970968 0.154713 -0.138249 0.840249 -0.843077 -0.690694 -0.106739 0.762229 -0.200015 0.072068
dg-------1a---- -0.912898 0.240701 -0.836961 -0.157106 -0.776630 -0.020589 -0.555298 0.037369 0.481102 -0.068941
nnis4-----a---- -0.927565 -0.178442 0.146540 -0.273111 -0.712708 -0.833080 -1.641513 0.559299 0.211824 -0.207815
nnfs6-----a---- -1.496461 -0.514071 0.616697 -0.016577 -0.477631 -0.736085 -0.046896 -0.102000 1.348739 0.318760
cc 0.578526 -1.170583 0.805481 1.336287 0.346205 -0.812677 -0.817407 -0.313000 -1.261185 -0.355979
p 0.495109 -0.409797 1.349642 1.070424 0.014065 -0.899751 -0.252889 -0.460555 -1.008511 -1.163087
pun -0.636435 -2.222739 -0.186599 0.741910 -0.740685 -0.540053 -1.065865 -1.692767 -2.243432 -0.582837
nnfp2-----a---- -0.760032 0.351922 0.816755 -1.132191 -0.995738 -0.044895 -0.731039 -0.202194 0.445038 -0.081201
nnp -0.843824 -1.856067 0.159184 -1.117010 0.382547 -1.303549 -0.115246 -1.194752 0.821769 0.912141
sp 0.461468 -1.841349 1.212643 1.930954 -0.367465 -0.383551 -0.682050 -0.354816 -0.767035 -0.485509
nnns2-----a---- -0.929429 0.757540 0.438601 -0.112662 -0.457601 -0.189776 -0.567577 0.539302 0.566027 -0.463725
prp 0.638485 -1.373625 0.005627 -1.337077 -0.096574 0.260360 -0.959780 -1.078537 0.110265 0.873739
ff 0.958992 -1.112574 1.199529 1.229265 0.289200 -0.816296 -0.857705 -0.194388 -1.143135 -0.662307
jj 0.416684 -1.492207 -0.609367 -1.057755 -0.213642 -1.101036 -0.579924 -1.035395 0.584613 -0.200580
rr--7---------- -0.956328 1.299670 -0.780817 -0.364977 0.085005 -0.512133 -0.464798 0.490345 0.211343 0.060402
con 0.690994 -0.698480 1.356920 0.943834 -0.068886 -0.792431 -0.167217 -0.399947 -0.752605 -1.017330
vb-p---3p-aa--- -0.870774 0.008713 -0.805120 -0.638049 -0.638329 0.084371 -0.479732 0.623231 -0.321003 -0.176460
rb 0.683274 -1.142048 -0.143943 -0.887312 0.088976 -0.249246 -0.960159 -1.007794 0.707717 0.806481
delm 0.648171 -0.979622 1.499446 0.727542 -0.198271 -0.835153 -0.042136 -0.632171 -0.583010 -0.815177
aafs2----1a---- -1.026760 2.372215 0.368795 -0.619927 -0.125769 -0.015729 -0.462560 1.483044 0.567049 0.364716
nnip2-----a---- -0.855984 0.302442 0.606633 -1.065520 -1.265689 0.340404 -0.735298 -0.048302 0.064221 -0.760624
. 0.759354 -1.168241 -0.715356 -1.050361 0.310324 -1.880549 -0.535919 -0.064751 0.516799 1.026641
fs 0.955610 -1.648538 0.660269 1.048333 0.321857 -0.840764 -0.498751 0.081978 -1.368185 -0.216130
nnis6-----a---- -1.458097 -0.438628 0.636516 -0.077462 -0.344581 -0.464696 -0.038147 -0.067432 0.990861 0.361608
c 0.021981 -1.910452 -0.457957 0.208540 0.583562 -0.339736 -0.648155 -0.983503 -1.842085 0.085011
vb 0.524734 -1.220142 -0.765777 -0.476654 0.096220 -0.639816 -1.550533 -1.440842 -0.398910 0.489737
adp+adptype=prep 0.662993 -0.860432 -0.072612 -1.465408 -0.542364 -2.040268 -0.946039 -0.917819 0.638976 0.643197
aafs1----1a---- -0.847445 0.213152 -0.532685 0.029218 -2.551791 0.478117 0.928953 -0.743071 0.342060 -0.956009
nnns1-----a---- -0.897934 0.421263 -0.123797 0.415946 -0.808763 0.159807 -0.658771 0.066758 0.438358 -0.675631
nnns4-----a---- -0.613498 0.407759 0.082986 0.039695 -0.839150 -0.518949 -1.515224 0.598970 0.499554 -0.282692
nns 0.546185 -1.742745 -0.256161 -0.363660 -0.438943 -0.664642 -0.497849 -0.840888 1.046485 0.454033
, 0.329894 -1.273753 -0.839320 -0.915356 0.212446 -1.008158 -0.222238 -0.558425 0.411305 1.239737
nnms2-----a---- -0.909580 0.831935 1.144194 0.661781 -0.447707 -0.037641 -0.197773 0.578554 0.023608 0.379242
b 0.356230 -0.930302 1.297066 1.061750 0.539871 -0.629145 -1.093582 -0.650623 -0.974991 -0.422279
pp 0.409262 -0.227169 0.722676 0.559972 -0.386115 -0.774138 -0.107106 -0.206010 -0.158009 -0.663124
nnns6-----a---- -1.416620 -0.380686 0.786840 -0.242722 0.011653 -0.574287 -0.324938 0.183167 0.888683 0.549250
vpqw---xr-aa--- -1.085762 -0.339788 -0.298514 0.178895 -0.836327 -0.287699 0.186538 0.651199 -0.339609 -0.876811
aais2----1a---- -0.675476 1.341873 1.123666 -0.921010 -0.380250 -0.085743 -0.102242 0.420890 0.139147 -0.860307
nnfs7-----a---- -0.869526 0.922418 -0.372602 -0.045812 -0.353228 0.019762 -1.034718 0.371434 0.854463 -0.392374
n_pl 0.881687 -0.228819 1.457035 0.912436 0.008440 -0.536315 -0.417624 -0.630748 -0.673117 -0.866363
nnmp2-----a---- -0.867365 0.114308 0.708809 -0.503075 -0.930114 -0.003372 -0.530068 0.053596 0.097794 -0.219921
aais1----1a---- -0.594690 1.464995 -0.888484 0.422166 -1.890122 0.680299 0.798126 0.753042 0.614780 -0.462427
nnfp1-----a---- -1.088623 0.233109 -0.437073 -0.599183 -0.984795 0.708116 -0.671429 -1.085684 0.601957 0.687537
rr--3---------- -0.125383 1.186955 -0.784257 -0.066194 -1.071118 -1.309638 -0.024458 -0.421293 0.225216 0.226594
conj+_ 0.305247 -0.811375 1.028967 0.463611 -0.375746 -1.080771 -0.822130 -0.522274 -1.148909 0.063487
nnis7-----a---- -0.894274 0.813742 -0.265536 0.220238 -0.195107 -0.288031 -1.069825 0.221359 1.155630 -0.173365
tt------------- -0.935284 -0.150880 -0.489634 0.173070 -1.011287 -0.071728 -0.635148 0.024177 0.144630 -0.033678
nnfxx-----a---8 -1.125589 0.155697 0.675558 0.394118 -1.165876 0.066696 -0.435298 -0.011078 0.067966 0.282418
vc------------- -0.937123 0.306154 -1.248677 0.462128 -0.115491 0.430958 -0.762787 0.323230 -0.251702 0.590724
aafs4----1a---- 0.218040 0.029251 -0.479337 -0.608843 -1.535510 -1.135214 -0.152408 1.402684 0.241280 -0.498333
nnfp4-----a---- -0.443806 0.089335 -0.367541 -0.345746 -1.026035 -0.526487 -1.615927 0.523984 0.580004 -0.651956
vpmp---xr-aa--- -0.756936 -0.347637 -0.894918 0.164420 -0.619085 -0.776629 -0.569256 0.845252 -0.230815 0.039774
nnmp1-----a---- -0.754898 0.004398 -0.535895 -0.050955 -0.281909 0.051823 -1.207995 0.318682 0.084004 0.599160
adv+_ 0.634054 -1.118562 -0.064255 -1.267955 -0.082811 -0.905074 -1.591674 -0.440333 0.791632 1.115085
v_prs 0.451869 -0.163944 1.413335 0.484370 0.117198 -0.676082 -0.437558 -0.969934 -0.798689 -1.011096
noun+definite=ind+gender=com+number=sing 0.797819 -1.863545 0.139100 -1.112706 -0.812409 -1.437161 -0.777743 -0.761601 1.529319 -0.073221
fb 0.605517 -1.612990 1.149659 1.003304 0.048969 -0.665651 -0.232891 -0.059281 -0.895555 -0.536476
va 0.513540 -0.698325 1.544291 0.796369 0.508566 -0.332144 -1.264580 -0.576958 -1.022268 0.042956
vbd 0.278231 -1.144058 -1.070026 -0.123166 0.325474 -1.081983 -0.828680 -1.197079 0.760871 0.942916
aafp2----1a---- -0.940784 1.141158 1.214219 -1.120876 -1.376574 -0.496633 -0.371554 -0.050577 -0.044532 0.454370
vbp 0.513999 -1.008035 -1.052366 -0.060194 0.496690 -0.704526 -1.070235 -1.203185 0.771417 1.041881
nnip4-----a---- -0.558536 -0.227383 -0.206558 -0.561721 -0.637015 -0.238855 -1.415315 0.621982 0.433645 -0.156668
vpns---xr-aa--- -1.238811 -0.471359 -0.626853 0.320143 -0.654724 -0.468195 -0.286365 0.474168 -0.011980 -0.428242
aais4----1a---- -0.447033 -0.084838 -0.230958 -0.312921 -0.622008 -1.356388 -1.435883 1.254104 0.048945 -0.082918
n,sg,nom -0.569120 -2.460262 -0.195972 0.170928 -0.724500 -0.252710 -0.464842 -1.243013 -1.599912 -0.127256
nnip1-----a---- -0.476025 0.415846 -0.636717 -0.312546 -0.928853 0.984321 -1.637221 -0.198104 0.459156 -0.086286
vb+prs+akt 0.411033 -0.121752 0.611213 0.306999 -0.315254 -0.527778 -0.182869 -0.286058 -0.204523 -0.379993
pro 0.835740 -0.429688 1.134827 0.799797 0.015025 -0.510409 -0.447909 -0.621467 -0.804809 -0.686553
aaip2----1a---- -1.377208 0.068746 0.330216 -2.097380 -0.907001 0.550953 -0.948306 0.230020 -0.913567 -0.551860
vb-s---3p-na--- -1.133264 -0.064177 -0.599839 0.636634 -0.916518 -0.368729 -0.066313 0.798760 0.011775 -0.616532
nn+utr+sin+ind+nom 0.446652 -0.108234 0.576492 0.426296 -0.338980 -0.653619 -0.091704 -0.271174 -0.063025 -0.538940
vbz 0.605652 -1.231985 -0.915374 -0.293887 0.072321 -1.161577 -0.671764 -0.853493 0.745099 0.884907
v,act,ind,pres,sg3 -0.520642 -1.920553 -0.457188 0.698464 -0.405156 -1.132550 -0.673290 -1.421437 -1.779738 0.341767
aans1----1a---- -1.163134 -0.069601 -1.285697 0.267259 -1.346743 0.419981 0.102691 -0.016609 0.314832 -0.284805
aafs6----1a---- -2.111311 -0.060067 0.636294 -0.521707 -0.440356 -1.063321 0.937147 -0.453207 1.615174 1.836762
rv--6---------- -1.455136 0.259881 -0.304823 -0.284915 -0.613012 -1.381837 0.112620 -0.893846 0.340221 0.657616
v_pa 0.479149 -0.198694 1.399746 0.435190 0.059604 -0.633900 -0.502936 -0.873371 -0.690175 -0.921297
pc 0.217404 -0.573651 1.387569 0.777970 0.507797 -0.231304 -1.106298 -0.504609 -1.163871 0.020509
ri 0.475802 -1.265488 0.678418 0.841091 0.673626 -0.031969 -1.195356 0.383418 -1.258093 -0.316383
aans2----1a---- -0.747224 1.058855 0.668390 -0.110857 -0.530582 -0.365149 -0.197783 0.657307 0.308824 -0.910633
mad 0.313091 -0.184361 0.387667 0.202146 -0.237606 -0.465735 -0.119256 -0.131094 -0.190112 -0.293702
propn+_ 0.815678 -1.370986 1.284614 -0.349290 -0.237273 -1.613960 -0.992492 -0.225175 0.741854 1.187894
cd 0.388927 -1.307196 0.225786 -0.717109 0.347599 -1.774730 -0.893097 -0.552815 0.547937 -0.449477
vbn 0.416042 -1.410510 -0.310719 -1.029271 -0.040052 -0.446196 -0.755056 -1.074152 0.264298 0.494449
nnnp2-----a---- -1.261376 -0.239583 0.492415 -0.383920 -1.021972 -0.073851 -1.044638 -0.380573 -0.052744 -0.391629
sconj+_ 0.456136 -1.039910 0.690283 -0.462027 -0.781478 -0.279246 -0.540246 -0.976088 -0.799678 1.011475
nnns7-----a---- -0.446954 0.897399 -0.052869 -0.106440 -0.289274 0.277210 -0.682981 0.304884 0.984638 -0.445750
aams1----1a---- -0.716456 1.454221 0.021567 1.793860 -1.165669 -0.801730 -0.332478 0.325590 0.394451 1.309942
pdns1---------- -0.537621 0.078531 -1.325857 0.149378 -1.371040 0.366735 -0.362727 -0.220281 0.560247 0.323693
aafp1----1a---- -1.182617 1.083416 -1.255136 -1.441571 -1.756770 1.423462 0.124273 -0.368881 0.577302 0.630093
n,sg,gen -0.328292 -2.045773 -0.408027 0.414203 -0.784530 -0.602418 -0.472729 -1.142447 -1.745878 -0.506764
vptp---xr-aa--- -0.873448 -0.124757 -0.707121 -0.736928 -0.643234 0.040119 -0.405406 0.431056 -0.325985 -0.077970
pcle -0.542304 -2.014088 -0.168675 0.131301 -0.480768 -0.345726 -0.831499 -0.985999 -1.641227 -0.026090
vbg 0.446174 -1.435064 -0.408542 -0.966998 0.001642 -0.801610 -0.675584 -0.965371 0.511481 0.212215
adv+degree=pos 0.853245 -1.238039 -0.297507 -1.142636 -0.307555 -0.788596 -1.241891 -0.259231 0.478429 0.878861
md 0.865867 -0.012463 -0.904499 -0.973848 0.812675 -0.891671 -1.274829 -1.310283 0.883661 1.039099
to 1.215971 -0.112624 -0.420402 -1.783231 0.238352 -0.711131 -0.816806 -0.970702 0.981543 0.420525
vb-p---1p-aa--- -1.243950 -0.400778 -0.482285 0.315565 -0.398950 -0.694560 -0.999425 0.816278 -0.113620 0.406350
nnfp6-----a---- -1.359193 -0.414258 0.718206 -0.186987 -0.485920 -0.837669 -0.285093 -0.408782 1.073782 0.406335
aais6----1a---- -2.235644 -1.368584 0.129894 -0.800784 -0.205959 -1.459375 0.480100 -0.553498 0.592548 1.750036
aux+number=sing+person=3+tense=pres 0.909609 -0.710936 0.344625 -0.662816 -0.306330 0.147514 -1.735984 1.061118 -0.983688 1.357378
nnfs3-----a---- -0.164091 0.794929 -0.174357 -0.538023 -1.248929 -0.647266 -0.586143 0.029858 1.318216 0.307271
prp$ 0.271054 -1.539131 -0.760625 -1.399816 0.533498 -0.721494 -1.018056 0.072900 0.472827 -0.065218
ab 0.394920 -0.152299 0.474059 0.292170 -0.264734 -0.431135 -0.185871 -0.244730 -0.147170 -0.297400
adp+case=loc 0.739994 0.310653 -0.168038 -1.280399 -1.696777 -1.235168 -0.580125 -0.492117 -1.069274 0.913238
verb+mood=ind+tense=pres+verbform=fin+voice=act 0.504016 -1.275460 0.135459 -1.051789 -0.515995 -1.037677 -1.572251 -1.399023 0.044681 0.892855
aux+mood=ind+tense=pres+verbform=fin+voice=act 0.791604 -0.876288 -0.818791 -0.987453 -0.176506 -1.401966 -1.785833 -0.884975 -0.199673 0.814003
aafs7----1a---- -0.924864 1.525245 -1.044636 -0.627480 0.189119 0.124363 -0.352326 1.239112 0.892752 -0.053356
nnms7-----a---- -1.150748 0.991828 0.491144 0.903781 0.253685 -0.351569 -1.011444 0.566051 0.557943 1.174097
aans4----1a---- -0.203686 0.413073 0.037650 0.329407 -0.906432 -1.565719 -1.127012 1.030434 0.491109 -0.340624
p7-x3---------- -0.625315 0.041906 -0.926251 0.209463 -0.764900 -0.080261 -0.585759 0.232311 0.107315 0.537232
pcle,cc -0.507588 -1.888356 -0.352458 0.270781 -0.549711 -0.608997 -0.656300 -1.355619 -1.827141 -0.231990
aaip1----1a---- -0.385191 0.287422 -1.256209 -1.242311 -1.210957 1.326763 -0.797054 0.219504 -0.348526 0.518997
x 0.380279 -1.286314 0.671003 0.357038 -0.890181 -1.401983 0.940908 -0.770290 -0.395277 -0.499449
aafp4----1a---- -0.872398 0.548694 -1.178465 -1.225157 -1.126006 -0.772257 -1.412290 1.066948 0.092273 -1.089680
kn 0.329113 -0.179397 0.444228 0.301501 -0.229628 -0.517387 -0.138439 -0.139121 -0.168899 -0.272091
v,act,ind,past,sg3 -0.418870 -1.603379 -0.540268 0.457180 -0.435454 -0.943694 -0.542214 -1.287252 -1.863154 0.421252
nnms4-----a---- -0.229005 0.445326 0.672322 0.928060 -0.663038 -0.277174 -0.964722 0.608880 0.156134 0.560271
pr 0.403113 -0.760711 0.827655 1.002692 0.416700 -0.171825 -1.037775 -0.390884 -0.941037 0.064818
cs 0.430179 -0.627694 1.091446 1.011906 0.382038 -0.337993 -0.852120 -0.442387 -0.850769 0.207003
part+parttype=inf 1.207160 -0.386960 -0.237931 -1.228862 -0.285751 -1.432052 -1.154831 0.052210 1.102059 0.829697
n,sg,par -0.312464 -2.065148 -0.317507 0.211027 -0.677143 -0.510006 -0.500921 -0.733021 -1.571589 -0.205996
nnixx-----a---8 -1.444986 0.115558 0.675622 0.559859 -1.189884 -0.041612 -0.790151 -0.131952 -0.459867 -0.059879
aaip4----1a---- -0.645921 -0.055554 -0.867208 -1.609610 -0.362909 -0.039740 -2.028311 1.735911 0.032150 0.617132
mid 0.367569 -0.193453 0.457866 0.226684 -0.239152 -0.449414 -0.158746 -0.151229 -0.136021 -0.288950
pcle,cs -0.612131 -1.823154 -0.502746 0.097670 -0.432880 -0.263762 -0.568619 -0.947227 -1.773942 0.352664
nn+utr+sin+def+nom 0.358253 -0.177104 0.438317 0.238788 -0.209995 -0.534215 -0.109016 -0.148846 -0.080843 -0.314576
nn+utr+plu+ind+nom 0.335980 -0.142250 0.401478 0.212500 -0.228051 -0.468290 -0.167903 -0.164810 -0.147272 -0.303965
vb-s---1p-aa--- -0.654953 -0.366484 -0.653851 0.533815 -0.673854 -0.331049 -0.747139 0.374764 -0.145404 0.808713
noun+definite=ind+gender=com+number=plur 0.807140 -1.085507 0.302455 -1.307748 -0.867628 -0.994640 -1.408141 -0.482091 1.065431 -0.063820
dg-------2a---- -1.007433 0.001411 -0.760110 0.025080 -0.700691 -0.072151 -0.968642 0.142756 -0.139456 0.109264
sym 0.325294 -2.394535 0.948171 0.584547 0.688861 -1.436608 -0.533367 -1.066561 -0.968309 -1.002220
det+definite=def+prontype=art 0.225380 -1.227772 0.986226 0.895709 -0.904714 -0.748105 -0.907403 -0.247940 -1.229106 -0.863003
nnip6-----a---- -1.301993 -0.707736 0.488612 -0.956989 -0.420288 -0.529547 -0.250705 -0.495933 1.185065 0.524822
vb-s---3f-aa--- -1.568280 -0.273330 -0.642319 0.375174 -0.530366 -0.420373 -0.200994 0.701537 -0.313196 -0.536757
vsys---xx-ap--- -0.663460 0.582544 -0.392870 0.443638 -0.746443 0.105539 -0.117026 0.475829 0.512030 0.524033
pdns4---------- -0.572640 -0.218470 -0.908613 0.478927 -0.957519 0.045958 -0.879751 0.480182 0.297066 0.660804
noun+definite=ind+gender=neut+number=sing 0.598921 -1.538104 0.170308 -0.941508 -0.890363 -1.240968 -1.139943 -0.374029 1.251847 0.052068
noun+definite=def+gender=com+number=sing 1.299356 -1.061194 0.416289 -0.987100 -0.266114 -0.867195 -1.392375 -0.176777 0.946644 0.560039
nnis3-----a---- -0.263208 0.896161 -0.149647 -0.161597 -1.320635 -0.753680 -0.797772 -0.239675 1.230704 0.262705
adp+case=acc 1.084851 0.233905 0.270110 -1.240584 -1.765106 -0.748768 -0.609621 0.677992 -0.669656 -0.194085
aais7----1a---- -0.969848 1.416993 -1.009038 -0.821560 -0.140911 -0.106896 -0.381251 1.009893 0.910612 0.490899
nnis6-----a---1 -1.899933 -0.948945 0.496598 0.288471 -0.189765 -0.414576 -0.523514 -0.191713 0.697952 0.260108
psxxxzs3------- -0.910860 0.604799 -0.105507 -0.064102 -0.482760 0.046780 0.026102 0.760677 0.337703 0.275539
nnmxx-----a---8 -0.635607 0.459886 1.539169 1.328881 -1.590812 0.091288 -0.134520 0.604763 -0.247590 1.606343
nnns3-----a---- -0.228492 1.123474 -0.170573 -0.670684 -1.130383 -0.390077 -0.628215 0.135457 1.111764 -0.249587
aans6----1a---- -2.111334 -0.767188 0.605069 -0.582163 0.127364 -1.204048 0.548733 -0.026472 0.938783 1.143670
aamp2----1a---- -0.676414 0.650038 0.759714 -1.032990 -1.102939 -0.033024 -0.422562 -0.229240 -0.321208 0.251285
verb+verbform=inf+voice=act 0.614469 -1.318325 -0.029586 -1.406189 -0.277046 -0.683891 -1.837037 -1.043017 0.351912 0.561417
aamp1----1a---- -1.191089 -0.077676 -1.650185 -0.053526 -0.652032 0.481573 -0.690375 0.516653 -0.401227 0.570325
propn+case=nom+gender=masc+number=sing 1.509240 0.761996 0.954821 0.274134 -0.783813 -0.263799 -0.880720 1.335876 -0.713682 1.839104
nnmp4-----a---- -0.439210 -0.088104 -0.166004 -0.414970 -0.855951 -0.579823 -1.258584 0.620790 0.532940 -0.342220
clitic 0.594057 -0.357557 1.070521 0.654158 0.138924 -0.515920 -0.305887 -0.091718 -0.448566 -0.558816
aaxxx----1a---- -0.799855 0.319285 0.996944 0.584154 -1.177555 -0.175129 0.446820 0.128458 -0.274747 0.380473
v,act,infa,lat -0.464037 -1.863764 -0.311864 0.173465 -0.515630 -0.351394 -0.792570 -0.844020 -1.463544 0.106834
v_sub 0.459872 -0.181385 1.023038 0.419899 0.075395 -0.493545 -0.367089 -0.584867 -0.586023 -0.659645
vb+inf+akt 0.253297 -0.211097 0.327065 0.208248 -0.187838 -0.360017 -0.160613 -0.168320 -0.148846 -0.184412
p4ys1---------- -0.345918 -0.144246 0.097971 0.764377 -1.397376 -0.034879 0.021602 0.171218 0.578061 0.953376
noun+case=gen+gender=masc+number=sing 0.679946 0.208769 0.868811 -0.173064 -1.294126 -1.294937 -1.591070 0.272182 -0.235916 0.397760
nn+neu+sin+ind+nom 0.338964 -0.180936 0.358492 0.213144 -0.186070 -0.378597 -0.159862 -0.144681 -0.182833 -0.127449
num+numtype=card 0.735207 -0.757823 0.933684 -1.627367 -0.496310 -0.903920 -1.080830 -0.403877 -0.095725 0.127342
noun+case=gen+gender=fem+number=sing 0.859024 -0.143818 1.111393 0.136359 -1.200573 -0.919897 -1.361054 0.180136 -0.501631 0.478236
nnfxx-----a---- -0.954284 0.152554 0.845311 0.668887 -1.303981 0.056421 -0.093582 -0.106700 -0.251094 0.003250
v_pp 0.466633 -0.442252 1.087911 0.377122 0.027076 -0.483619 -0.224251 -0.464293 -0.476137 -0.545120
adp+case=gen 0.935464 0.176849 0.201495 0.283087 -1.770688 -1.153769 -1.065303 0.275253 -1.107376 0.124560
noun+case=nom+gender=masc+number=sing 1.241741 0.176273 0.575470 0.507403 -0.889114 -0.307715 -1.511892 1.177932 -0.286242 0.845849
vsqw---xx-ap--- -1.053251 0.161117 -0.510774 -0.311362 -0.983429 0.144255 0.090705 -0.173767 0.467191 -0.157291
bn 0.378927 -0.737486 0.974441 0.576819 0.346768 -0.353497 -0.918134 -0.566046 -1.100273 -0.030385
nnfp7-----a---- -1.104680 0.315129 0.277013 -0.669287 0.096085 0.400823 -0.977072 0.460852 0.516189 0.072088
adj+case=nom+degree=pos+number=sing+number[psed]=none+number[psor]=none+numtype=none+person[psor]=none+verbform=none 0.133001 -1.122664 1.254411 0.534174 -0.631274 -0.676170 -0.885307 -0.318383 -1.408353 -0.599545
a,sg,nom -0.441544 -1.906923 -0.701189 0.177264 -0.492444 -0.382427 -0.322055 -1.144265 -0.964369 0.260515
verb+mood=ind+tense=past+verbform=fin+voice=act 0.478286 -1.063800 0.193660 -0.880682 -0.357925 -0.954505 -1.512590 -1.107969 -0.025614 1.155582
nnip7-----a---- -0.867233 0.456228 0.134354 -0.473061 0.082879 -0.031123 -1.299415 0.333180 0.664821 -0.157619
n,prop,sg,nom -0.514491 -1.920402 -0.264062 -0.166857 -0.956088 0.040837 0.086956 -1.091141 -1.142785 0.379716
ap 0.662720 -0.569758 0.376153 1.417890 0.161730 -0.203077 -0.477826 -0.003733 -0.874266 0.140301
rv--2---------- -0.523368 1.120413 0.311511 -0.496200 -0.602747 -0.144912 -0.838748 -0.218657 -0.242567 -0.484764
vm 0.338735 -0.510047 0.975273 0.566312 0.381523 -0.194910 -0.809559 -0.329690 -1.097901 0.184255
n,pl,nom -0.001435 -1.814018 -0.014508 0.105325 -0.822975 -0.476230 -0.442869 -0.656399 -1.705412 -0.296639
nnnxx-----a---- -1.058021 0.088316 0.851995 0.443089 -1.072035 0.074616 -0.030291 0.223156 -0.001381 0.324451
aafp6----1a---- -1.893459 0.262768 -0.057543 -1.252211 -0.555814 -0.510189 0.489309 -0.271438 1.679763 1.058669
det+gender=com+number=sing+prontype=ind 0.945121 -1.465248 -0.151107 -1.642335 -0.043469 -1.287466 -1.027174 0.300660 0.206364 0.353693
rv--7---------- -0.806736 1.239850 -0.656769 -0.500443 -0.150852 -0.469623 -0.155773 0.488467 0.302525 0.035976
verb+number=sing+person=3+tense=pres 0.498062 0.098711 -0.100187 -0.344583 -1.168200 -0.707666 -1.491016 1.544440 -0.644343 0.401029
psxxxxp3------- -0.864836 0.657542 -0.348262 -0.586801 -0.798871 -0.087551 -0.170352 0.702336 0.273630 -0.230882
p4fs1---------- -0.523777 -0.172206 -0.255474 0.056279 -1.730256 0.131256 0.353192 -0.052172 0.568578 0.489974
vsns---xx-ap--- -1.343486 0.090640 -0.583885 -0.191450 -0.890061 0.021431 -0.665417 0.011741 0.329531 0.129421
adj+degree=pos+number=plur+variant=long 0.735129 -0.605705 0.559559 -1.894099 -0.484470 -0.716663 -1.280586 -0.470706 0.440043 0.059915
intj -0.356817 -1.643569 0.359824 0.582066 0.121980 0.022116 -0.214967 -1.347659 -0.987292 0.394736
nnxxx-----a---8 -0.943755 -0.228512 1.143694 0.963467 -2.174584 1.063418 0.035247 0.234842 -0.359600 0.818555
nnis2-----a---1 -1.503541 0.493939 0.540810 0.095484 -0.562817 -0.138240 -1.070225 0.092948 0.065387 -0.344681
vpys---xr-na--- -0.710396 -0.061303 -0.582093 0.521868 -1.114015 -0.502549 -0.225302 0.742951 0.031920 0.087889
verb+definite=ind+number=sing+tense=past+verbform=part,trans 0.801292 -0.791070 0.268533 -1.318072 -0.195419 -0.651956 -1.730016 -0.689869 0.615837 0.500659
nnmp7-----a---- -1.030249 0.424210 0.059986 -0.084853 -0.038619 0.159238 -0.940131 0.230227 0.671750 0.115800
jj+pos+utr/neu+plu+ind/def+nom 0.244235 -0.138891 0.233625 0.195131 -0.182643 -0.366470 -0.155711 -0.097322 -0.100223 -0.148209
noun+case=nom+number=sing+number[psed]=none+number[psor]=none+person[psor]=none -0.092102 -1.084659 1.167157 0.442642 -0.426165 -0.899638 -0.599732 -0.165749 -1.341779 -0.346912
nnmp3-----a---- -0.424502 0.260061 -0.400068 -0.057201 -0.860295 -0.073822 -0.630465 0.316017 0.585111 0.266122
noun+case=gen+gender=masc+number=plur 0.367231 -0.037937 0.802875 -0.046368 -1.263745 -1.824407 -1.089684 0.253492 -0.597902 0.453031
noun+case=acc+gender=fem+number=sing 0.972775 0.096145 0.477603 -0.204673 -1.359575 -1.113392 -1.399569 0.775961 0.178776 0.368243
noun+case=nom+gender=fem+number=sing 0.789072 -0.114130 0.297373 0.311190 -1.427998 -0.224331 -1.444137 0.840712 -0.230585 0.779302
nnnxx-----a---8 -1.191039 0.174065 0.688879 0.117012 -1.032087 -0.149091 -0.342575 0.204977 0.068418 0.152975
vstp---xx-ap--- -0.970697 0.234580 -0.748175 -0.825709 -0.474908 0.200989 -0.848572 0.025140 0.698083 0.375953
verb+gender=masc+number=sing+verbform=part 0.781416 0.743646 0.024612 -0.074205 -1.619078 -0.606978 -0.492108 2.192040 0.033996 1.041086
di 0.550595 -0.766662 0.447253 0.751542 0.266274 -0.049132 -0.743762 0.012178 -0.994977 -0.245756
pdzs6---------- -1.563384 -0.895342 -0.232276 0.067178 -0.243190 -0.165620 -0.006994 0.130997 0.771999 1.387174
aaxxx----1a---8 -0.918782 0.156770 0.851661 0.375367 -1.426677 0.501137 -0.092394 0.258636 -0.015390 0.403735
aanp2----1a---- -1.298913 -0.057973 0.851087 -1.100465 -0.597799 -0.002039 -0.699126 -0.201792 -1.103204 -0.198325
vb-p---3p-na--- -0.891341 -0.110995 -0.756330 -0.214205 -0.731089 -0.106366 -0.394532 0.764211 -0.110167 -0.040223
pdzs2---------- -0.875370 0.643715 0.201149 -0.426026 -0.368612 0.151180 -0.382476 0.687916 0.049654 0.019390
rg+nom 0.283331 -0.190318 0.278632 0.194007 -0.212363 -0.306184 -0.147066 -0.105014 -0.071524 -0.131864
noun+definite=ind+gender=neut+number=plur 0.841633 -0.952761 0.407539 -1.042204 -0.789413 -0.951961 -1.229832 -0.493376 0.860700 0.068884
nnnp4-----a---- -0.490402 -0.118951 -0.127605 -0.347885 -0.840315 -0.168072 -1.009802 0.569345 0.092045 -0.261955
verb+verbform=inf 1.028774 -0.257063 -0.334908 -0.675615 -1.782836 -0.185283 -0.989850 0.816706 -0.041967 0.582063
n,pl,par -0.031020 -1.796649 -0.470693 -0.102624 -0.610289 -0.314746 -0.490946 -0.600163 -1.141306 0.164930
noun+animacy=inan+case=acc+gender=masc+number=sing 1.004668 0.133929 0.166391 -0.038637 -1.454564 -0.748208 -1.512733 0.776727 0.419331 0.502648
aans7----1a---- -0.427835 1.486444 -0.424193 0.222482 -0.374961 -0.209694 -0.071639 1.031883 1.070593 -0.297834
nn+neu+sin+def+nom 0.230964 -0.162573 0.254087 0.154475 -0.166392 -0.321635 -0.102106 -0.120494 -0.080125 -0.072177
v,neg,act,sg3 -0.327612 -1.444558 -0.341127 0.520469 -0.266248 -0.388784 -0.746938 -0.875834 -1.365894 0.908868
db------------1 -0.732932 0.073452 -0.667860 0.292368 -0.790010 0.013948 -0.286648 0.126814 0.324056 0.570922
fc 0.569152 -0.771165 0.322318 0.519239 0.219863 -0.199770 -0.441211 0.071709 -0.949648 -0.037202
aams2----1a---- -0.925166 0.990547 1.221557 0.621412 -0.327875 -0.478153 0.059918 0.460347 -0.207564 0.201664
pdzs7---------- -0.857973 0.331130 -0.967522 0.160666 -0.783502 0.559533 -0.841372 0.337967 0.275210 0.436439
nnnp1-----a---- -0.613877 -0.048572 -0.434081 -0.421201 -0.941061 0.675059 -0.606362 -0.249998 0.381734 -0.084201
aaip6----1a---- -1.981162 -0.322851 -0.267559 -1.341921 -0.077202 -0.443015 0.717543 0.410288 0.625566 1.021495
jj+pos+utr+sin+ind+nom 0.210465 -0.130064 0.290633 0.109606 -0.124185 -0.311841 -0.099448 0.010782 -0.149755 -0.117256
pron+case=acc+gender=neut+number=sing+person=3+prontype=prs 1.047300 -0.794982 0.012665 -0.919848 -0.101920 -0.267964 -1.447517 0.132879 0.995248 1.075201
noun+definite=def+gender=neut+number=sing 1.256691 -0.766975 0.556090 -0.996244 -0.412028 -0.691239 -1.247180 0.006736 0.785419 0.595863
dt+utr+sin+ind 0.161934 -0.052884 0.312996 0.089504 -0.123490 -0.320698 -0.126832 -0.032129 -0.134678 -0.088137
n,sg,ill -0.210418 -1.721334 -0.520444 0.040038 -0.668290 -0.516411 -0.173491 -0.484420 -1.082295 -0.110298
propn+case=nom+number=sing+number[psed]=none+number[psor]=none+person[psor]=none 0.157234 -1.041949 0.984365 0.602888 -0.955393 -0.449525 -0.153348 -0.412009 -1.476698 -0.078701
nnms3-----a---- -0.308877 0.300918 0.158017 0.962114 -0.730118 -0.431191 -0.330822 0.318055 0.134467 0.554469
n,prop,sg,gen -0.175707 -1.529205 -0.407815 0.295982 -0.673967 -0.635053 -0.263358 -0.911624 -1.133768 -0.152420
aafs3----1a---- -0.295481 0.932693 -0.680953 -0.547662 -1.443834 -0.971213 -0.033097 0.188656 0.898236 0.502789
nnnp6-----a---- -1.249377 -0.793225 0.528576 -0.278162 -0.190059 -0.825059 -0.675372 -0.324352 0.604042 0.185341
v,act,pcpnut,sg,nom -0.477276 -1.700726 -0.479985 0.100504 -0.383704 -0.246097 -0.569586 -0.700912 -1.168961 0.104425
cn-s4---------- -1.052569 0.025024 0.597359 -1.057044 -1.054678 -0.043989 -1.181878 -0.002993 -0.692715 0.164619
n,sg,ine -0.202990 -1.700401 -0.358878 0.119343 -0.600470 -0.379538 -0.378630 -0.790916 -0.959560 0.103423
nn+neu+plu+ind+nom 0.207745 -0.093459 0.239136 0.054106 -0.173557 -0.240424 -0.199180 -0.064661 -0.078088 -0.138114
adj+definite=def+degree=pos+number=sing+variant=long 0.386937 -1.296875 0.221568 -1.633351 -0.587003 -1.355895 -0.245413 -0.143132 0.605794 0.465410
v,act,ind,pres,conneg -0.243659 -1.323868 -0.955392 0.040835 -0.078982 -0.211078 -0.782806 -0.577189 -1.341502 0.432360
pron,dem,sg,nom -0.273733 -1.655618 -0.609665 -0.153362 -0.536881 -0.026307 -0.481591 -0.806808 -0.783975 0.310801
-rrb- 0.015659 -1.470060 0.067095 -0.677248 0.187937 -1.243162 -0.652552 -0.248879 0.655189 0.409078
pron+case=acc+number=sing+reflex=yes 1.225745 -0.835403 -0.344067 0.039469 -1.545757 0.149580 -1.071016 0.654199 0.067408 1.057912
-lrb- 0.405284 -1.093279 -0.051253 -0.558061 0.359449 -1.745103 -0.581579 -0.335898 0.362381 0.725728
pm+nom 0.251198 -0.193046 0.234684 0.042102 -0.213384 -0.235208 -0.117552 -0.096665 -0.081015 -0.088143
nnfp3-----a---- -0.408067 0.415278 -0.051819 -0.245639 -0.911291 -0.305990 -0.792089 0.380906 0.671733 0.310902
wdt 0.922441 -1.371544 -0.166873 -1.156896 0.184040 -1.134973 -0.513872 -0.409907 0.145274 0.826581
aux+number=plur+person=3+tense=pres 0.730100 -0.790603 -0.479484 -0.914255 -0.995354 -0.408512 -1.823243 0.707438 -0.333894 0.499494
pi 0.091896 -0.573254 0.494517 0.813780 0.258460 -0.191012 -0.649075 -0.219032 -0.720419 -0.222437
sn 0.135280 -0.152907 0.226838 0.106063 -0.154839 -0.240621 -0.178260 -0.108547 -0.118330 -0.036633
dd 0.486829 -0.743498 0.292746 0.692030 0.191723 0.090390 -0.693594 0.091861 -0.940430 -0.259869
aux+mood=ind+tense=past+verbform=fin+voice=act 0.667422 -0.720845 -0.291133 -0.803373 -0.241481 -1.031734 -1.439577 -0.706802 0.132494 0.874536
propn+case=nom+gender=fem+number=sing 0.659379 0.302030 0.229753 0.076865 -1.634491 0.045556 -0.813152 1.317182 -0.350148 1.603073
aaip7----1a---- -0.945783 1.048909 -0.586393 -1.576871 -0.389647 0.024932 -0.175704 0.653901 0.356229 0.240149
vb-p---3f-aa--- -1.094216 -0.095149 -0.969711 -0.317902 -0.336379 -0.053360 -0.497632 0.750657 -0.174028 0.240513
adv+degree=none+prontype=default 0.270383 -0.978736 0.681187 0.440116 -0.449640 -0.684325 -0.735939 -0.148890 -1.055441 -0.253007
p4mp1---------- -0.419807 -0.402195 -0.367905 -0.104418 -1.009598 0.137764 -0.638700 0.248526 0.434128 0.893516
aafp7----1a---- -1.308069 0.737484 -0.269741 -0.859375 -0.113608 0.444404 -0.185514 0.758500 0.280277 -0.029463
vb-p---3p-aa--1 -0.954836 -0.242164 -0.906576 -0.227230 -0.511387 -0.403799 -0.392865 0.788851 -0.177119 0.102726
adj+case=nom+degree=pos+gender=masc+number=sing 1.177494 -0.630333 1.264942 -0.036301 -0.991721 -0.244000 -0.701334 1.465287 -0.809696 1.468353
noun+case=gen+gender=fem+number=plur 0.393945 -0.235707 1.219500 -0.124351 -1.553033 -1.214909 -1.252283 0.209905 -0.370671 0.464575
dq 0.441026 -0.497210 0.168369 0.550290 0.179920 0.041366 -0.555756 0.083673 -0.877756 -0.120579
vpys---xr-aa--1 -0.951684 0.014156 -0.145385 0.741064 -0.935097 -0.560984 -0.171737 0.815798 -0.149954 0.118382
wrb 0.978860 -0.999573 -0.238890 -0.669043 0.249208 -0.694526 -0.626762 -0.821601 0.268660 0.992524
pn+neu+sin+def+sub/obj 0.224948 -0.122172 0.168676 0.112140 -0.119775 -0.242549 -0.139416 -0.074660 -0.091981 -0.013006
: 0.435401 -1.352314 0.052873 -0.608053 0.475307 -1.819978 -0.670321 -0.126761 0.347970 0.464190
pdzs3---------- -0.223616 0.642495 -0.951788 0.040639 -1.109903 0.060693 -0.217570 0.238111 0.741497 0.956852
adv,dem -0.231241 -1.574106 -0.535712 -0.055324 -0.342618 -0.088122 -0.471072 -0.587384 -0.941080 0.179528
adj+definite=ind+degree=pos+gender=com+number=sing+variant=long 1.050164 -0.946672 0.234757 -1.335552 -0.404594 -0.894065 -0.689217 -0.064578 0.261770 0.387429
pdys1---------- -0.650698 0.506799 -0.856406 0.635971 -1.202030 0.338926 -0.160373 0.284353 0.255992 0.243527
propn+case=gen+gender=fem+number=sing 0.873878 0.106708 0.921987 -0.299925 -1.482627 -1.130249 -1.295254 0.845273 -0.781561 0.859874
pq -0.009584 -0.480560 0.640464 0.348706 0.326744 -0.079709 -0.536657 -0.267205 -0.633457 0.301950
no 0.483973 -0.520078 0.333603 0.877989 0.043529 -0.210640 -0.374469 -0.075687 -0.835707 -0.035475
`` 0.517383 -1.124211 -0.267490 -0.683172 0.063229 -1.090064 -0.372104 -0.456148 0.273580 0.628660
v,act,ind,pres,pl3 -0.140163 -1.147905 -0.330330 0.321058 -0.240350 -0.953327 -0.151948 -1.035932 -1.435585 0.288895
rv--3---------- -0.307930 1.162110 -0.509533 -0.346892 -0.668733 -0.856295 -0.184424 -0.095056 0.206368 0.471189
pron+case=nom+gender=com+number=sing+person=3+prontype=prs 0.926110 -0.772008 0.196020 -0.884221 -0.052317 -0.519019 -1.127623 0.205510 1.101233 1.289941
verb+number=plur+person=3+tense=pres 0.567691 -0.376597 -0.518690 -0.825379 -1.402016 -0.540468 -1.362645 1.386687 -0.391264 0.135001
n,sg,ela -0.163055 -1.562899 -0.652393 0.086950 -0.562333 -0.414876 -0.176818 -0.561421 -1.063434 -0.009278
'' 0.080099 -1.351613 -0.134844 -0.749710 0.159678 -1.158058 -0.695232 -0.267380 0.441412 0.630690
vb-p---2p-aa--- -0.742498 -0.232400 -0.474595 0.173520 -0.642979 -0.411958 -0.611719 0.651048 -0.221899 0.273474
det+gender=com+number=sing+prontype=dem 0.884893 -1.345265 0.322111 -0.533371 -0.341092 -1.458303 -0.770641 0.444851 0.048746 0.084972
aais3----1a---- -0.315207 0.743232 -0.282932 -0.605389 -1.148875 -1.138677 -0.095203 0.276253 0.920328 0.316206
clxp2---------- -0.960287 0.633322 0.791784 -1.142636 -1.003201 0.055322 -0.666399 0.125427 -0.429547 0.002394
pd 0.239752 -0.562023 0.561101 0.621443 0.246321 -0.151364 -0.693003 -0.230704 -0.619526 -0.204754
aamp4----1a---- -0.178062 -0.052910 -0.523754 -0.652941 -0.846981 -0.233693 -0.521560 0.775882 -0.406167 0.180670
hp+-+-+- 0.183005 -0.143163 0.213672 0.104930 -0.160812 -0.262667 -0.149706 -0.087614 -0.057324 -0.085999
wp 0.788427 -1.291445 -0.092068 -0.954848 0.220424 -0.532152 -0.600639 -0.620879 0.186897 0.948452
nn+utr+plu+def+nom 0.164365 -0.090178 0.223706 0.055015 -0.131234 -0.236172 -0.148050 -0.058941 -0.115616 -0.089557
rp 0.613844 -0.932179 -0.393780 -0.862308 0.052504 -0.551714 -0.794337 -0.822055 0.611895 0.507983
a,sg,par -0.125523 -1.389260 -0.615306 -0.105348 -0.274796 -0.610533 -0.512786 -0.664975 -0.667594 0.072493
pad 0.152776 -0.096082 0.114310 0.067314 -0.188914 -0.233795 -0.114241 -0.069649 -0.075983 -0.019299
noun+case=acc+gender=neut+number=sing 0.909684 -0.250029 0.474991 0.017162 -1.453739 -1.131027 -1.086957 0.535128 -0.137626 0.255856
ie 0.203202 -0.133093 0.227021 0.074714 -0.116875 -0.262614 -0.120535 -0.032366 -0.061950 -0.034096
adv_time 0.371882 -0.217837 0.648230 0.402342 0.082919 -0.290542 -0.258370 -0.241499 -0.375634 -0.335346
vb+prs+sfo 0.148294 -0.121175 0.162032 0.029827 -0.148190 -0.204082 -0.178623 -0.023459 -0.112762 -0.070856
n,sg,ade -0.211635 -1.494134 -0.286311 0.125796 -0.470611 -0.331553 -0.346500 -0.575706 -0.962287 0.007938
db------------8 -0.599836 0.051352 0.362938 0.218664 -1.702652 0.388093 -0.377590 0.416835 0.019797 0.630978
nnip3-----a---- -0.315330 0.616229 -0.103748 -0.219557 -1.018619 -0.504502 -0.843673 -0.158184 0.844081 0.090429
noun+case=loc+gender=masc+number=sing 1.157347 -0.195847 0.640204 -0.057259 -1.366757 -1.193044 -0.937339 -0.010660 0.175526 0.757426
p4fp1---------- -0.494892 -0.012986 -0.336087 -0.451296 -1.418361 0.107336 -0.365893 0.140457 0.606441 0.749963
n,pl,gen -0.018012 -1.456072 -0.400279 0.216822 -0.589603 -0.398575 -0.309306 -0.687446 -0.838312 -0.095572
propn+case=gen+gender=masc+number=sing 0.891102 0.189680 0.661198 -0.126387 -1.304574 -0.950340 -1.091880 0.716038 -0.861765 1.102713
vpns---xr-na--- -0.729879 -0.480437 -0.703611 0.462883 -0.926684 -0.277844 -0.138974 0.560828 0.007629 -0.170684
noun+case=gen+gender=neut+number=sing 0.976035 -0.143120 0.860228 0.381051 -1.528461 -1.017149 -1.034878 0.012002 -0.694764 0.473971
nnixx-----a---- -0.822523 0.249040 0.847739 0.515503 -1.101474 0.145842 0.189834 0.030091 -0.183959 0.305838
dg-------2a---1 -0.773920 0.164331 -0.619285 -0.046679 -0.954729 0.054539 -0.592686 0.289391 0.085509 0.125785
adp+case=ins 1.066271 -0.173372 0.084638 -0.706245 -1.483307 -0.576918 -0.724918 0.129767 -0.754159 0.466892
verb+gender=fem+number=sing+verbform=part 0.726061 0.132290 -0.197122 -0.462203 -1.576063 -0.410643 -0.716571 1.560376 -0.276337 0.627163
pdfs1---------- -0.934692 0.338022 -0.743078 0.226873 -1.358754 0.396026 0.494108 -0.028241 -0.104663 -0.064245
ab+pos 0.106216 -0.139185 0.167310 0.072195 -0.126987 -0.233066 -0.110344 -0.027018 -0.078199 -0.021751
uh 0.523192 -0.851352 0.180625 -0.718000 0.168069 -0.618955 -0.763941 -0.874728 0.551365 0.570058
pos 0.184552 -1.335896 -0.252880 -0.673636 0.491560 -1.675677 -0.355318 0.060944 0.234916 0.675117
noun+case=loc+gender=fem+number=sing 1.085510 -0.100883 0.831888 0.118464 -1.641724 -1.252532 -1.132558 0.146213 0.164972 0.737214
aams4----1a---- -0.560458 0.276730 0.338060 0.620615 -0.833152 -0.378044 -0.565066 0.664189 -0.433880 0.616439
aanp4----1a---- -0.069299 0.060065 -0.308668 -1.070667 -0.985075 -0.002355 -0.361807 1.061473 -0.504499 -0.514714
hyph 0.308578 -1.336128 -0.240574 -0.626994 0.298151 -1.547753 -0.517581 0.041326 0.374586 0.565526
jj+pos+utr/neu+sin+def+nom 0.083978 -0.148531 0.155538 0.079327 -0.163827 -0.272486 -0.118462 -0.101453 -0.025278 -0.058708
noun+case=nom+gender=masc+number=plur 0.555690 -0.645498 -0.252775 -0.142924 -1.741259 -0.505055 -1.374033 0.733212 0.227268 0.633074
det+number=plur+prontype=dem 0.569584 -0.751330 0.450411 -1.202445 -0.314027 -1.047218 -1.324550 -0.137365 0.325583 -0.167742
dt+utr+sin+def 0.110174 -0.116891 0.107527 0.053252 -0.127190 -0.222669 -0.167712 -0.081048 -0.027598 -0.050648
dg-------3a---- -0.921709 0.094567 -0.550824 -0.082731 -0.843432 -0.001707 -0.612329 -0.015377 0.206773 0.258878
det+gender=neut+number=sing+prontype=ind 0.667477 -0.684938 0.114896 -1.341653 -0.249175 -0.994842 -1.082999 0.164944 0.111453 0.388910
adj+case=nom+degree=pos+gender=fem+number=sing 0.970713 -0.786407 0.452959 -0.253955 -1.093506 0.151049 -0.738991 1.345415 -0.599568 0.933066
adj+case=gen+degree=pos+gender=fem+number=sing 0.860649 -0.509767 0.831470 0.307171 -1.109485 -1.362938 -1.093626 0.478588 -1.089492 0.517339
pq--4---------- -0.489222 -0.129102 -0.807577 0.531802 -1.354357 -0.056539 -0.593022 0.115041 0.425873 0.381086
jj+pos+neu+sin+ind+nom 0.181922 -0.083566 0.139205 0.050761 -0.099976 -0.235938 -0.183812 -0.082438 -0.064388 -0.042513
pron,pers,sg3,nom -0.210595 -1.508035 -0.241389 -0.264050 -0.578901 0.180462 -0.388349 -0.561753 -0.716013 0.227094
pe 0.249775 -0.548007 0.593833 0.535518 0.289780 -0.160917 -0.661874 -0.196110 -0.629761 -0.058551
adj+degree=pos+variant=long 0.702473 -0.744254 0.349857 -1.451153 -0.607921 -0.829231 -0.754052 -0.077611 0.345927 0.108865
noun+definite=def+gender=com+number=plur 1.110179 -0.584273 0.500981 -0.817774 -0.453707 -0.487452 -1.083003 0.047496 0.695196 0.616642
ppxp4--3------- -0.684907 0.072019 -0.965489 0.282544 -0.815159 0.145935 -0.716692 0.093193 0.227350 0.696756
adj+definite=ind+degree=pos+number=sing+variant=long 0.990260 -0.895430 0.187786 -1.176661 -0.454247 -0.793498 -0.845345 -0.107898 0.252213 0.513879
vpqw---xr-na--- -1.025936 -0.124837 -0.656007 0.075681 -1.081088 -0.056216 0.106136 0.577391 -0.077914 -0.268863
aanp1----1a---- -0.476233 0.248030 -0.843571 -0.590667 -0.971170 0.484120 -0.436751 0.593259 -0.031062 -0.043320
v,pass,ind,pres -0.035262 -1.284943 -0.692742 0.272755 -0.193795 -0.640710 -0.261744 -0.573575 -0.997287 -0.016486
adj+case=gen+degree=pos+gender=masc+number=sing 0.236585 0.062102 0.704499 0.230951 -2.047317 -1.424566 -0.988736 0.441896 -1.415375 0.527456
acns------a---- -0.462845 -0.080324 -1.181572 -0.057031 -0.929051 -0.171899 -0.512417 -0.097967 0.433601 0.427955
vb+prt+akt 0.150254 -0.068928 0.119110 0.034642 -0.141656 -0.182691 -0.163445 -0.013773 -0.093428 -0.041335
vpmp---xr-na--- -0.689835 -0.233520 -0.725003 0.057760 -0.878328 -0.409461 -0.300559 0.714535 -0.030605 0.143851
cv------------- -0.749475 -0.138125 -0.439991 0.100676 -0.640457 -0.080543 -0.169989 0.401562 0.213237 0.336968
nnmp1-----a---1 -0.635965 -0.234375 -0.803742 0.015713 -0.379811 -0.053341 -0.963751 0.171575 0.084065 0.359133
v,act,ind,past,sg1 -0.044100 -1.186657 -0.702068 0.120376 -0.287242 -0.557484 -0.377590 -0.456604 -0.775832 0.180147
pdfs2---------- -0.856705 1.366477 0.304200 -0.345107 -0.183114 -0.067970 -0.724302 0.999269 0.330955 0.310068
a,sg,gen 0.046716 -1.432055 -0.609864 0.187310 -0.627216 -0.746234 -0.243386 -0.416310 -0.963443 -0.175670
v,act,ind,pres,sg1 -0.108139 -1.267553 -0.482816 0.194830 -0.315719 -0.421474 -0.582256 -0.547962 -0.730551 0.348760
v_aux 0.299272 -0.284465 0.549245 0.349332 -0.035145 -0.294805 -0.129375 -0.194439 -0.278977 -0.304404
nnnp7-----a---- -0.465105 0.165069 0.150903 0.099782 -0.598620 0.075428 -0.746261 0.024037 0.429629 0.009918
aans3----1a---- 0.293759 1.301894 -0.142056 -0.150951 -1.015717 -0.887619 -0.430750 0.397005 0.873618 0.361405
pdfs4---------- 0.173547 0.264891 -0.578881 -0.120575 -1.080513 -0.654779 -0.365087 1.098455 -0.073802 -0.008596
p4ip1---------- -0.407678 -0.192393 -0.367941 -0.522771 -1.093641 0.377322 -0.499680 0.129714 0.411214 0.616828
cn-s1---------- -1.058791 0.176818 0.522003 -0.603350 -1.099204 0.085995 -0.572488 -0.379896 -0.265767 0.250744
pdxp2---------- -0.844688 0.646063 0.462775 -0.704362 -1.095604 0.121999 -0.548127 0.301484 -0.498922 0.146706
num+numtype=ord 0.246804 0.027791 0.756354 0.052144 -1.891315 -1.121318 -0.803403 0.545977 -1.033725 0.867069
aams7----1a---- -1.102909 0.967308 0.018000 0.606469 0.118876 -0.063170 -0.423262 0.672331 0.222073 1.126053
pp-p3--1------- -0.586147 0.044276 -0.713461 0.381927 -0.899228 0.035055 -0.398270 0.167361 0.348507 0.594659
nnfpx-----a---8 -0.745316 0.111197 0.228539 0.569920 -0.725465 0.193787 -0.315393 0.282440 -0.034882 0.822737
nnipx-----a---- -0.739578 0.099589 0.630008 0.462635 -0.805470 0.114074 -0.256023 0.481327 0.182188 0.484403
pl 0.121639 -0.123729 0.167120 0.090710 -0.102549 -0.234095 -0.175384 -0.056799 -0.107689 -0.071020
x+_ 1.229357 -0.102291 0.677139 -0.234002 -0.197820 -0.923137 -0.913367 0.225138 -0.140110 0.724207
v,act,infma,ill -0.014732 -1.325434 -0.493536 0.001260 -0.354347 -0.523067 -0.326445 -0.536548 -0.866069 0.182876
vpqw---xr-aa--1 -0.983041 -0.003314 -0.143956 0.018029 -0.812585 -0.126325 0.085083 0.541268 -0.039716 -0.276772
pron+case=nom+gender=com+number=sing+person=1+prontype=prs 1.035049 -0.562336 0.155580 -0.801698 -0.186084 -0.479661 -1.072383 0.107526 0.714909 0.974093
adj+case=gen+degree=pos+gender=masc+number=plur 0.387840 -0.366210 1.181454 0.090383 -1.227637 -1.130425 -0.775596 0.453438 -1.001167 0.568750
noun+case=loc+gender=neut+number=sing 1.049667 0.040461 0.839147 0.310379 -1.558693 -1.215655 -0.999152 0.398618 0.202221 0.632860
dt+utr/neu+plu+def 0.128422 -0.071097 0.105379 0.021894 -0.147619 -0.139405 -0.173758 0.008490 -0.038389 -0.043169
pq--1---------- -0.410940 -0.457699 -0.599685 0.315664 -1.198786 0.000331 -0.386008 0.290145 0.427351 0.297830
vsmp---xx-ap--- -0.870784 0.237484 -0.445925 -0.222808 -0.486160 -0.024696 -0.598665 0.499361 0.416409 0.224778
pkm-1---------- -0.348889 -0.170377 -0.539288 0.334950 -1.204180 0.058404 -0.533620 0.060561 0.474132 0.526191
clxp4---------- -0.571219 0.181242 -0.343755 -0.779139 -0.772085 -0.263362 -1.057165 0.909471 -0.331481 0.176372
v,act,cond,sg3 -0.022055 -1.227690 -0.533152 0.259066 -0.286910 -0.639412 -0.397950 -0.705758 -0.804947 0.348697
jjr 0.492800 -1.156804 -0.369547 -0.674789 0.013901 -0.711800 -0.611570 -0.454533 0.192129 0.268829
dt+neu+sin+ind 0.109298 -0.087636 0.152187 0.003170 -0.122891 -0.177196 -0.144380 -0.065562 -0.046067 -0.034416
nnps 0.175102 -1.421423 -0.011582 -0.478946 0.173623 -0.885323 -0.300775 -0.671724 0.283357 0.694820
aafp3----1a---- -0.419552 0.807985 -0.525857 -0.247661 -0.923282 -0.679472 -0.169694 0.586248 0.422585 0.580074
propn+case=loc+gender=fem+number=sing 0.887356 -0.017592 0.710596 0.070634 -1.720422 -1.044357 -0.957963 0.315267 0.360709 1.271158
p4fs4---------- -0.607178 -0.011063 -0.125401 0.175748 -1.375098 0.172053 -0.364569 0.391456 0.347033 0.523277
phzs3--3------- -0.774434 0.119870 -0.706577 0.283871 -0.742854 0.090526 -0.494194 0.190065 -0.037564 0.360740
cn-p2---------- -0.973419 0.283993 0.700246 -0.941534 -0.770403 0.151803 -0.774457 0.106149 -0.246803 0.036711
ha 0.077243 -0.114390 0.155176 0.053095 -0.115358 -0.203349 -0.153733 -0.008746 -0.093650 -0.028762
noun+case=acc+gender=masc+number=plur 0.840254 0.079613 0.244097 -0.137374 -1.598377 -0.973140 -1.175188 0.874406 0.157221 0.595152
verb+gender=masc+number=plur+verbform=part 0.658826 -0.492198 -0.122779 -0.396404 -1.765476 -0.747166 -0.881130 1.076658 -0.128850 0.299459
pdfs6---------- -1.728086 -0.073671 0.321455 -0.028304 -0.223823 -0.532794 0.496206 0.038444 0.997008 0.904481
clyp1---------- -0.657281 0.158138 -0.751722 -0.322939 -0.600402 0.230994 -0.427700 0.534318 -0.211695 0.545034
noun+case=nom+number=plur+number[psed]=none+number[psor]=none+person[psor]=none 0.025488 -0.803014 0.736886 0.030816 -0.261602 -0.611707 -0.571528 -0.088773 -1.056316 -0.100619
aamp3----1a---- -0.501519 0.331831 -0.562546 -0.407539 -0.874872 -0.105508 -0.464144 0.726705 -0.177270 0.152763
pn+utr+sin+ind+sub 0.142322 -0.057508 0.138935 0.078100 -0.134672 -0.131994 -0.155584 -0.092243 -0.050588 -0.000676
det+gender=neut+number=sing+prontype=dem 0.794725 -1.167070 0.183334 -0.565468 -0.273936 -1.344458 -0.682239 0.159863 0.078444 0.061797
vb+sup+akt 0.079970 -0.129720 0.088697 0.056952 -0.121268 -0.160690 -0.148882 -0.086555 -0.028997 -0.009691
adj+definite=ind+degree=pos+gender=neut+number=sing+variant=long 0.764008 -0.830175 0.061479 -1.093594 -0.452462 -0.602455 -0.893398 -0.099745 0.361055 0.575586
noun+case=nom+gender=neut+number=sing 0.663661 -0.409412 0.150757 0.096395 -1.416395 -0.373594 -1.175573 0.687039 -0.186181 0.978785
aanp6----1a---- -1.215205 -0.686140 0.145566 -1.213851 -0.075867 -0.365600 -0.150939 0.182454 0.033618 0.537749
pdis4---------- -0.465785 0.377078 -0.490949 -0.281113 -0.955601 -0.744625 -0.700338 0.859424 -0.149272 0.066795
pe--1---------- -0.284817 -0.032570 -0.137652 -0.122177 -1.553275 0.150047 -0.403694 0.046407 0.535014 0.642031
phzs4--3------- -0.732831 0.019544 -0.914716 0.385221 -0.757204 0.022641 -0.520640 0.244022 0.200509 0.508641
adp+_ 0.238242 -0.669245 0.669822 0.023118 -0.358170 -0.502069 -0.685323 -0.315020 -0.778418 -0.054370
p4ns1---------- -0.405430 -0.143269 -0.184080 0.048618 -1.255006 0.133256 -0.347302 0.176987 0.479707 0.422680
ca--4---------- -0.631804 0.417994 0.183389 -0.490110 -1.001991 0.126594 -0.813628 -0.095671 -0.202948 0.109548
aamp7----1a---- -1.002189 0.575395 -0.227078 -0.462291 0.108111 -0.045549 -0.321339 0.518901 0.274636 0.335404
pron,pers,sg1,nom -0.186853 -1.238632 -0.370365 -0.024048 -0.265273 -0.070377 -0.532770 -0.184246 -0.848705 0.383715
ppfs4--3------- -0.643006 0.213394 -0.824602 0.213956 -0.748533 0.120436 -0.600165 -0.066929 0.156939 0.581739
noun+case=acc+gender=fem+number=plur 0.565441 -0.087937 0.529108 -0.008965 -1.468085 -0.983874 -1.044550 0.718131 -0.135960 0.357237
dg-------1n---- -0.713615 0.122243 -0.292544 0.001422 -0.800965 0.026513 -0.303747 0.129880 0.418575 0.347251
clxs2---------- -1.037355 0.234807 0.744549 -0.254944 -1.135582 -0.185143 -1.005508 -0.363080 -0.641019 -0.288455
ppxp3--3------- -0.494565 0.104714 -0.833755 0.312744 -0.788163 -0.005372 -0.444655 0.244695 0.205138 0.527052
adj+case=gen+degree=pos+gender=fem+number=plur 0.508880 -0.589805 0.956406 -0.133035 -1.509704 -1.189262 -0.579948 0.377357 -0.979724 0.277966
n,sg,ess -0.027388 -1.342448 -0.294747 -0.008685 -0.292065 -0.398204 -0.343940 -0.412081 -0.635856 -0.000448
noun+case=nom+gender=fem+number=plur 0.385128 -0.400617 -0.226987 -0.121432 -1.795760 -0.488280 -0.983786 0.695916 -0.030500 0.518779
num,card -0.120002 -1.223231 -0.497103 -0.039464 -0.325570 -0.549709 -0.273553 -0.577394 -0.608390 -0.008665
num,card,sg,nom -0.166698 -1.148606 -0.492165 -0.119006 -0.221502 -0.655578 -0.446342 -0.703547 -0.445073 0.024182
p4is4---------- -0.378469 0.130433 -0.049672 0.212328 -1.222666 0.067116 -0.232950 0.238417 0.208289 0.500885
pp-p2--1------- -0.942268 -0.054876 -0.046820 -0.007043 -0.648430 0.395600 -0.869804 0.807325 0.370625 0.343796
aaip3----1a---- -0.614951 0.855773 -0.386251 -0.410074 -0.883517 -0.300432 -0.590437 0.454680 -0.078854 -0.008919
a,pl,par 0.079202 -1.271992 -0.502721 -0.070005 -0.391584 -0.399043 -0.311073 -0.423385 -0.707418 0.082263
adj+case=acc+degree=pos+gender=fem+number=sing 0.855005 0.073200 0.457348 -0.550984 -1.737263 -0.704411 -0.667449 0.964679 -0.532657 0.193674
clyp4---------- -0.353006 0.089390 -0.314174 -0.686423 -0.691632 -0.059476 -1.140354 0.988981 -0.117462 0.487251
acys------a---- -0.305920 0.005551 -0.895337 0.441105 -0.922185 -0.071901 -0.492161 0.111714 0.154759 0.535813
noun+case=nom+number=sing+number[psed]=none+number[psor]=sing+person[psor]=3 0.130828 -0.710836 0.633131 0.121069 -0.379240 -0.454737 -0.539485 -0.194058 -0.960710 -0.156121
vb-s---1p-na--- -0.405434 -0.378362 -0.240945 0.378029 -1.108691 -0.213918 -0.441510 0.553166 0.024322 0.261252
noun+case=acc+number=sing+number[psed]=none+number[psor]=none+person[psor]=none 0.158254 -0.739810 0.585333 0.099219 -0.345350 -0.583945 -0.505925 -0.142114 -0.839439 -0.105183
n,sg,all -0.021171 -1.197237 -0.454611 -0.140413 -0.450075 -0.423696 -0.220202 -0.361260 -0.636930 0.166938
p5xp2--3------- -0.826301 -0.193694 -0.158062 -0.107807 -0.653936 0.520127 -0.711511 0.709416 0.359460 0.403593
pron,qnt,sg,nom -0.195676 -1.238401 -0.447616 0.015153 -0.260075 -0.211297 -0.352093 -0.494395 -0.620944 0.360765
jjs 0.549309 -1.176454 -0.375459 -0.501827 -0.161959 -0.937221 -0.320324 -0.402049 0.183160 0.147605
crfs6---------- -1.582830 0.047128 0.308421 -0.182243 -0.250869 -0.709212 0.253234 -0.023398 0.793079 0.729912
adv+degree=sup 0.935097 -0.538366 0.168441 -0.567441 -0.689731 -0.718614 -0.722208 0.515847 0.025596 0.428874
adj+case=nom+degree=pos+gender=masc+number=plur 0.598299 -0.614639 -0.072068 -0.246950 -1.537604 -0.442437 -0.989147 1.013066 -0.158003 0.501053
vb-p---1p-na--- -0.557193 -0.128155 -0.358243 -0.010260 -0.870007 -0.269120 -0.499296 0.635456 -0.063492 0.231560
pron+case=nom+gender=com+number=plur+person=1+prontype=prs 0.923598 -0.450297 0.061486 -0.754587 -0.214511 -0.455698 -0.954449 0.153091 0.768219 0.941744
v,act,ind,past,pl3 -0.150410 -0.945837 -0.329214 0.127592 -0.251001 -0.655345 -0.193660 -0.593622 -1.015106 0.200164
pron,dem,sg,gen -0.061231 -1.241499 -0.439587 0.025918 -0.212049 -0.282133 -0.253281 -0.317329 -0.681202 0.024185
plmp1---------- -0.635419 -0.207224 -0.673549 0.140045 -0.631526 -0.097392 -0.635182 0.413762 -0.010227 0.440182
plxp2---------- -0.795969 0.638123 0.701252 -0.710395 -0.809815 -0.126240 -0.548641 -0.015283 -0.323777 -0.059003
a,pl,nom 0.067203 -1.097973 -0.282108 -0.050892 -0.419099 -0.697208 -0.089365 -0.480534 -0.884089 0.054105
p8zs2---------- -0.613817 0.825949 0.750864 -0.165494 -0.327371 -0.135457 -0.335047 0.380094 0.006325 -0.123397
p8is4---------- -0.321933 0.284522 -0.246452 -0.343402 -0.990223 -0.634881 -0.644581 0.632434 -0.042917 0.035180
ab+an 0.067365 -0.129724 0.093704 0.006539 -0.111298 -0.170773 -0.128959 -0.059244 -0.090229 -0.050343
vpmp---xr-aa--1 -0.750697 -0.050830 -0.383735 0.110676 -0.623430 -0.289910 -0.369708 0.630665 -0.043303 0.175131
ex 0.646287 -1.084140 -0.017513 -0.911091 -0.121325 -0.279424 -0.396459 -0.381319 0.039117 0.602410
verb+aspect=none+definite=ind+mood=ind+number=sing+person=3+tense=past+verbform=fin+voice=act 0.175404 -0.657424 0.486433 0.230923 -0.419676 -0.424686 -0.484846 -0.227077 -0.985282 -0.013955
p8fs4---------1 0.028800 0.318768 -0.361621 -0.115902 -0.987294 -0.552602 -0.409646 0.756613 0.078925 0.105904
adj_cmpr 0.281260 -0.181704 0.390506 0.225132 0.010095 -0.219364 -0.145056 -0.138485 -0.234221 -0.238323
vc-p---1------- -0.503684 0.128053 -1.105435 0.366290 -0.219947 0.272179 -0.873659 0.480709 -0.400797 0.522345
pn+utr+sin+def+sub 0.126215 -0.125417 0.145892 0.019232 -0.083060 -0.129845 -0.141938 -0.055921 -0.015830 0.052826
v,pass,pcpnut,sg,nom -0.049319 -1.270850 -0.615226 -0.051326 -0.312116 -0.297754 -0.253071 -0.369776 -0.510757 0.136259
ph-s3--1------- -0.594676 0.047374 -0.677457 0.296683 -0.848671 0.027507 -0.320603 0.196978 0.094193 0.547660
vc-s---1------- -0.217531 0.215839 -0.890385 0.485124 -0.556457 0.269643 -0.721197 0.307376 -0.251079 0.558147
clys1---------- -0.592557 0.234814 0.073586 0.283909 -0.797140 0.163554 -0.351921 0.375608 0.193373 0.475504
rv--4---------- -0.452614 0.517515 -0.082581 -0.239426 -1.012163 -0.630263 -0.445122 0.366484 -0.366987 -0.048181
symb -0.051673 -1.188106 0.084988 -0.165402 0.093976 -0.254194 -0.259307 -0.410165 -0.733604 -0.116792
verb+aspect=none+definite=ind+mood=ind+number=sing+person=3+tense=pres+verbform=fin+voice=act 0.152957 -0.629356 0.486816 0.101344 -0.370808 -0.428444 -0.642157 -0.175918 -0.850230 -0.061129
ca--1---------- -0.785851 0.293594 0.140649 -0.367123 -0.892956 0.060078 -0.477564 -0.065096 -0.177314 0.379719
clxp6---------- -1.184459 -0.194464 0.128481 -0.808503 -0.172982 -0.370991 0.203775 -0.027167 0.540809 0.751497
vptp---xr-na--- -0.509678 0.098844 -0.377728 -0.193039 -0.720388 -0.084398 -0.438093 0.557365 -0.018639 0.019424
jj+kom+utr/neu+sin/plu+ind/def+nom 0.120813 -0.097228 0.128987 0.056661 -0.121935 -0.155431 -0.116605 -0.077265 -0.028345 -0.008942
pp-p4--1------- -0.583532 0.091320 -0.470654 0.115868 -0.896621 0.170094 -0.735299 0.506429 0.163425 0.341704
clxp1---------- -0.568043 0.218876 -0.625776 -0.368348 -0.736269 0.300002 -0.243998 0.469392 -0.064568 0.300513
nfp 0.278006 -0.780399 0.110127 -0.634353 0.124045 -0.882483 -0.626039 -0.243551 0.356662 0.422039
noun+case=ins+gender=masc+number=sing 0.683645 -0.039895 0.489375 0.159461 -1.542589 -0.944207 -0.890953 0.625096 -0.254802 0.513024
pron+case=acc+gender=com+number=sing+person=3+prontype=prs 1.009319 -0.575989 0.162722 -0.565956 -0.259835 -0.480153 -0.997966 0.118534 0.588487 0.615074
aux+verbform=inf+voice=act 0.871897 -0.530875 0.050158 -0.897584 -0.266788 -0.627534 -1.136051 -0.328722 0.273054 0.558386
vb-s---3f-na--- -0.883456 0.064743 -0.436651 0.145794 -0.618942 -0.185560 -0.395266 0.587828 -0.159275 0.022175
nnxxx-----a---- -0.691487 0.351243 0.610520 0.469467 -0.780743 0.046381 -0.080099 0.123118 -0.019242 0.299762
pron+case=nom+number=plur+person=3+prontype=prs 0.830835 -0.575514 0.300728 -0.730792 -0.197551 -0.394845 -1.009338 0.129948 0.725772 0.852981
vb+inf+sfo 0.086066 -0.113396 0.093296 0.056699 -0.127542 -0.144054 -0.065187 -0.043217 -0.008592 0.036701
crfs2---------- -0.773257 1.168529 0.636446 -0.482573 -0.279709 -0.032449 -0.679698 0.590882 0.250306 0.245355
n,pl,ela 0.077175 -1.122355 -0.328642 -0.166600 -0.414291 -0.453258 -0.324846 -0.338096 -0.625327 0.071342
pron+case=nom+gender=com+prontype=ind 0.911505 -0.481154 0.122449 -0.721012 -0.204336 -0.491427 -0.985259 0.168045 0.499144 0.867802
pc+prs+utr/neu+sin/plu+ind/def+nom 0.091803 -0.035849 0.092231 0.028315 -0.110848 -0.167096 -0.122905 -0.070898 0.002397 -0.027206
aafs1----2a---- -0.693012 0.190438 -0.314883 0.059298 -1.063105 0.269871 0.058828 0.230729 0.001329 -0.036177
nnms3-----a---1 -0.163649 0.438291 0.252014 0.719389 -0.678880 -0.474048 -0.002506 0.507691 0.126599 0.714466
nn+neu+plu+def+nom 0.065688 -0.059333 0.127511 0.023909 -0.100680 -0.185159 -0.079148 -0.026977 -0.049071 -0.030815
p4fp4---------- -0.426856 0.195561 -0.116017 -0.062975 -1.275774 0.027011 -0.221208 0.231488 0.202546 0.317432
adj+case=acc+definite=ind+degree=pos+gender=masc+number=sing 1.023412 -0.074810 0.057259 -0.860409 -1.227125 -0.696624 -0.710057 1.145915 -0.177433 0.227080
clhp1---------- -0.617281 0.323934 -0.623728 -0.414446 -0.858677 0.242948 -0.198711 0.284257 0.072801 0.282450
aafs1----1n---- -0.832335 0.224151 -0.230028 0.198994 -1.291545 0.277508 0.192130 0.140358 0.081491 0.053317
p8xp2---------- -0.586735 0.577065 0.565699 -0.729558 -0.763645 -0.173199 -0.579118 0.387683 -0.349877 0.048308
p4yp4---------- -0.421145 -0.038304 -0.150143 -0.120812 -1.172331 0.272202 -0.498659 0.452887 0.113816 0.394355
c}------------- -0.858944 0.216565 0.693701 0.353925 -1.055625 0.061100 0.054058 0.305259 0.132907 0.418201
pron+case=acc+person=3+prontype=prs+reflex=yes 0.914360 -0.532291 -0.001743 -0.789679 -0.166586 -0.558564 -1.062631 -0.036262 0.581221 0.599612
pron,dem,sg,par -0.047848 -1.082694 -0.507015 -0.067323 -0.269060 -0.323719 -0.511539 -0.350150 -0.582295 0.305841
adv_i 0.259071 -0.211925 0.375811 0.153048 -0.023385 -0.196543 -0.136650 -0.148047 -0.272226 -0.210602
propn+case=gen 0.767560 -0.659122 0.616522 -0.690696 -0.229991 -0.967108 -0.675572 0.061053 -0.036328 0.416462
t 0.291768 -0.272541 0.191747 0.729906 0.143848 -0.169604 -0.389915 -0.010671 -0.487819 0.066079
num+case=nom+number=sing+number[psed]=none+number[psor]=none+numtype=card+person[psor]=none 0.118558 -0.743167 0.458816 0.135304 -0.357252 -0.413663 -0.651035 -0.149785 -0.868974 -0.175390
p8yp4---------1 -0.265013 0.170128 -0.357882 -0.487831 -0.707033 -0.202175 -0.873242 0.731455 -0.174780 0.476494
gw 0.753069 -0.395467 0.665801 -0.941053 0.210175 -1.210507 -1.016210 -0.084646 0.895589 -0.194653
v,pass,ind,past 0.030470 -0.934958 -0.557586 0.150467 -0.235876 -0.522290 -0.312878 -0.309239 -0.657380 0.099592
a2--------a---- -0.644607 0.249779 0.420989 0.064461 -0.913393 -0.010862 -0.379864 0.290603 0.431948 0.076458
n,prop,sg,ine 0.023836 -1.153712 -0.348669 -0.156573 -0.411689 -0.295848 -0.331665 -0.355889 -0.494153 0.185259
add 0.220431 -0.736995 0.268102 -0.388961 0.101778 -0.857957 -0.379316 -0.370724 0.460875 0.200159
adj_sup 0.193349 -0.098626 0.385461 0.186336 -0.012035 -0.190427 -0.059605 -0.032060 -0.258809 -0.175732
v,act,ind,past,sg,conneg 0.001732 -1.083655 -0.614840 -0.077999 -0.261988 -0.162220 -0.409699 -0.311908 -0.796201 0.426171
adv_neg 0.254456 -0.151036 0.350074 0.226669 -0.035233 -0.145235 -0.113671 -0.123644 -0.221113 -0.210996
clxp7---------- -0.728381 0.547775 -0.168153 -0.523788 -0.456460 0.135417 -0.221947 0.441122 0.154922 0.300801
propn+case=loc+gender=masc+number=sing 0.783898 -0.003958 0.742092 0.299549 -1.459671 -0.926193 -1.016338 0.565886 0.353738 1.081167
clhp4---------- -0.516371 0.305093 -0.474115 -0.513411 -0.709625 -0.391596 -0.573215 0.637669 -0.373797 -0.192450
aufs1m--------- -0.750231 0.212376 0.280356 0.314113 -1.390065 0.412416 0.247397 -0.101860 -0.339969 -0.132506
fw 0.332517 -0.693260 0.385098 -0.314658 0.087912 -0.582910 -0.153113 -0.119867 0.220440 0.124667
nn+utr+sin+def+gen 0.064197 -0.097738 0.133437 0.008323 -0.076448 -0.168799 -0.081483 -0.033877 -0.081691 0.001096
rbr 0.584081 -0.977750 -0.220542 -0.491041 0.080370 -0.540433 -0.537483 -0.310190 0.207022 0.499803
nn+an 0.119275 -0.047670 0.120159 0.018912 -0.089103 -0.173832 -0.120156 -0.030208 -0.021025 -0.057783
pc+prf+utr+sin+ind+nom 0.062518 -0.054868 0.093997 0.028275 -0.096394 -0.126722 -0.122422 0.007255 -0.076116 -0.048584
psfsxfs3------- -0.633858 0.474166 0.055416 -0.113056 -0.710540 -0.049380 -0.005724 0.418090 0.241012 0.060943
p8zs6---------- -1.346174 -0.093976 0.118368 -0.170298 -0.155609 -0.617405 0.166166 -0.010415 0.640748 0.505822
dt+neu+sin+def 0.085973 -0.056316 0.032303 -0.032192 -0.132404 -0.103383 -0.090849 -0.010625 -0.045343 0.032103
pz--4---------- -0.351162 0.012866 -0.360963 0.131634 -0.666434 -0.014038 -0.666103 0.187362 0.268065 0.132538
rr--x---------- -0.537787 0.508372 0.557091 0.558610 -0.979113 -0.097986 -0.000079 0.112978 -0.357486 0.369302
adv,interr 0.076519 -1.007558 -0.429042 -0.005499 -0.216920 -0.259431 -0.292793 -0.286684 -0.595992 0.342182
v,neg,act,sg1 0.044543 -0.945312 -0.362995 0.013368 -0.121948 -0.152320 -0.430257 -0.414684 -0.559407 0.547953
pc+prf+utr/neu+plu+ind/def+nom 0.091073 -0.029533 0.059429 0.022864 -0.100182 -0.133970 -0.094503 -0.051746 -0.058171 0.006273
aux+verbform=inf 0.673669 -0.420521 0.298914 -0.313296 -1.263134 -0.406166 -1.048712 0.833189 -0.191058 0.850545
vb-s---1p-aa--1 -0.326784 -0.031768 -0.299609 0.212605 -0.691467 -0.210363 -0.453491 0.437549 -0.004631 0.278975
$ 0.356767 -1.064732 0.251619 -0.201473 0.018862 -1.085883 -0.705524 -0.318488 0.469372 0.210855
crfs1---------- -0.654932 0.204243 -0.081966 0.050775 -0.996135 0.447708 0.065486 0.140714 -0.039075 -0.031549
pdmp1---------- -0.469412 -0.150130 -0.468392 0.038597 -0.714309 0.073017 -0.288055 0.400733 -0.019541 0.146423
vf--------a---1 -0.419707 -0.057873 -0.547666 0.282281 -0.932520 -0.098141 -0.459957 0.299643 0.081044 0.307047
aafs4----2a---- 0.025436 0.326152 -0.419825 -0.172856 -0.916282 -0.518989 -0.196140 0.705952 0.010245 0.055319
aux+definite=ind+number=sing+tense=past+verbform=part,trans 0.758231 -0.502938 0.085944 -0.957065 -0.221809 -0.457349 -1.053204 -0.109823 0.360104 0.375582
aams3----1a---- -0.175615 0.300274 0.064822 0.438383 -0.767254 -0.306116 -0.064416 0.375056 -0.087120 0.563894
aais1----2a---- -0.608422 0.300290 -0.480867 0.190223 -0.848725 0.209495 -0.229707 0.323078 -0.194818 0.270029
pwm-1---------- -0.479940 -0.026664 -0.563550 0.221044 -0.773594 0.107498 -0.644089 0.337779 0.169581 0.214746
adj+case=nom+degree=pos+gender=fem+number=plur 0.367436 -0.422197 0.047555 -0.254184 -1.677658 -0.386483 -0.643308 0.986964 -0.298834 0.518229
part+negative=neg 0.770811 -0.177380 -0.090899 0.011385 -1.555073 -0.181291 -0.813641 0.737432 -0.072401 0.747116
pdfp1---------- -0.524324 0.356093 -0.630260 -0.313517 -0.972074 0.211730 -0.140876 0.176128 0.283539 0.401852
vi-p---1--a---- -0.321616 -0.124960 -0.196636 0.186277 -0.796673 -0.212826 -0.440940 0.406034 0.046047 0.146840
aans1----1n---- -0.459091 -0.007579 -0.249645 0.120027 -0.957101 0.072748 -0.317563 0.249611 0.266545 0.286781
pw--4---------- -0.431519 0.133742 -0.403747 0.080150 -0.583337 0.121361 -0.458086 0.088803 0.256267 -0.034059
vpns---xr-aa--1 -0.859174 -0.037506 -0.169377 -0.060200 -0.662389 -0.115274 -0.210790 0.527850 -0.108099 -0.084953
adj+case=nom+degree=pos+gender=neut+number=sing 0.628567 -0.586525 0.083773 0.021506 -1.387191 -0.200445 -0.861322 1.168476 -0.291775 0.871552
adv+degree=none+prontype=neg 0.186636 -0.616917 0.319614 0.193066 -0.423928 -0.403734 -0.506069 -0.112416 -0.698990 -0.054291
pcle,interj -0.018871 -0.932463 -0.389283 -0.145746 -0.223897 -0.311612 -0.292288 -0.396604 -0.331238 0.293613
aais1----1n---- -0.500378 0.217969 -0.186436 0.108666 -0.963296 0.031301 -0.086387 0.414060 0.135719 0.237548
pzxp2---------- -0.530190 0.516082 0.480271 -0.624500 -0.731259 0.110132 -0.500755 0.258082 -0.199365 -0.079104
nnmxx-----a---- -0.527281 0.493207 0.648973 0.640982 -0.665794 -0.158683 0.009506 0.335638 0.028082 0.777527
noun+case=gen+definite=def+gender=com+number=sing 0.835464 -0.532395 0.435301 -0.949907 -0.273696 -0.809005 -0.670535 0.126407 0.008275 0.254982
agfs1-----a---- -0.760554 0.231878 -0.008481 0.032038 -0.960564 0.095015 0.236450 0.371630 -0.023165 -0.071056
aux+number=sing+person=3+tense=past 0.499317 -0.597767 -0.313955 -0.379530 -0.940386 0.331239 -1.210430 0.818924 -0.414670 0.797118
noun+case=ine+number=sing+number[psed]=none+number[psor]=none+person[psor]=none 0.178553 -0.545129 0.383537 0.080058 -0.311494 -0.475928 -0.434163 -0.118775 -0.608849 -0.048465
adj+case=acc+degree=pos+gender=masc+number=plur 0.670962 -0.211729 0.219228 -0.196034 -1.474833 -0.615884 -0.818611 0.922163 -0.188697 0.573454
noun+case=ins+gender=fem+number=sing 0.681034 -0.143132 0.354613 -0.066525 -1.320907 -0.841055 -0.796271 0.641643 -0.166133 0.574354
crns6---------- -1.383420 -0.055015 0.330545 -0.261067 -0.137300 -0.425747 0.169199 0.001811 0.520066 0.262170
n,sg,tra 0.108542 -0.994430 -0.367704 -0.269085 -0.393300 -0.441542 -0.230344 -0.304379 -0.421843 0.127559
plys1---------- -0.402402 0.223143 -0.234183 0.452210 -0.751672 -0.145638 -0.385045 0.253785 -0.009082 0.554072
ppzs4--3------2 -0.476966 0.099521 -0.355002 0.271835 -0.884834 0.148624 -0.338467 0.212528 0.132339 0.375340
pzm-1---------- -0.172782 -0.013984 -0.553426 0.217265 -0.863268 -0.011651 -0.529309 0.218097 0.112664 0.340004
n,pl,ine 0.173156 -1.092953 -0.347253 -0.212040 -0.419933 -0.350595 -0.217398 -0.294370 -0.539058 0.168723
aans1----2a---- -0.542012 -0.078639 -0.467434 0.246385 -0.841119 0.091559 -0.330789 0.303149 0.201841 0.208188
verb+mood=ind+tense=pres+verbform=fin+voice=pass 0.707868 -0.521039 0.384073 -0.819987 -0.321782 -0.581009 -0.863099 -0.231434 0.078364 0.482019
ab+kom 0.025058 -0.078033 0.052890 0.015240 -0.057584 -0.125157 -0.123788 -0.021402 0.007678 -0.018651
n,sg,gen,px3 0.022451 -1.083982 -0.274003 -0.148901 -0.358062 -0.290154 -0.119553 -0.350092 -0.582199 0.276869
verb+gender=neut+number=sing+verbform=part 0.558181 -0.115969 -0.005549 -0.212509 -1.546996 -0.324614 -0.717063 1.035621 -0.307975 0.504266
nnms6-----a---- -0.584587 -0.055838 0.293985 -0.035527 -0.629250 -0.142862 -0.270901 0.198136 0.202823 0.363635
pn+utr/neu+sin/plu+def+obj 0.015059 -0.058758 0.063885 0.048856 -0.057301 -0.111883 -0.066883 0.009731 -0.054600 -0.004484
v,act,ind,pres,sg2 -0.043802 -0.851161 -0.408362 -0.035956 -0.087984 -0.418045 -0.293093 -0.409067 -0.433277 0.332103
pn+utr/neu+plu+def+sub 0.051578 -0.046578 0.085949 -0.016328 -0.078785 -0.071065 -0.080083 0.002716 -0.003260 -0.033964
cn-p6---------- -1.002486 -0.141892 0.164092 -0.610191 -0.220156 -0.298534 0.025409 0.050412 0.172128 0.518596
adj+case=nom+degree=none+number=sing+number[psed]=none+number[psor]=none+person[psor]=none+verbform=partpres 0.077536 -0.558473 0.339717 0.098296 -0.361593 -0.372340 -0.467812 -0.144954 -0.713928 -0.044915
p8zs7---------- -0.747168 0.661515 -0.137098 0.035881 -0.373927 -0.130927 -0.092088 0.455254 0.368114 0.079954
pron,qnt,sg,par 0.084833 -1.040314 -0.336594 -0.152476 -0.254721 -0.326866 -0.450356 -0.436822 -0.428635 0.228866
pp-s1--1------- -0.307256 -0.023180 -0.501778 0.365861 -0.826166 0.014745 -0.391253 0.440792 0.139532 0.222687
pron,dem,sg,ela 0.041190 -0.969555 -0.293990 -0.100139 -0.294853 -0.308522 -0.299455 -0.346930 -0.415219 0.233979
crfs4---------- -0.075963 0.422749 -0.084237 -0.095502 -0.888867 -0.462116 -0.319003 0.688178 -0.055850 -0.008408
pron,pers,sg2,nom -0.251257 -0.926068 -0.269219 0.105485 -0.188753 -0.196876 -0.483649 -0.269688 -0.697276 0.306258
adj+case=acc+degree=pos+gender=fem+number=plur 0.589847 -0.394416 0.256841 -0.206638 -1.486873 -0.642284 -0.511225 1.042414 -0.523955 0.370559
aufs2m--------- -0.688358 0.790782 0.335808 -0.179654 -0.409050 0.010622 -0.299821 0.519533 0.184579 0.128335
p8fs2---------1 -0.465617 0.670417 0.312808 -0.195641 -0.421429 -0.254582 -0.373255 0.645721 0.172412 0.069902
nnmpx-----a---- -0.613818 0.252843 0.583805 0.413967 -0.871104 -0.030551 -0.156903 0.143571 -0.036976 0.493268
v,act,imprt,sg2 0.064502 -0.758315 -0.342732 -0.087409 -0.212544 -0.435951 -0.247936 -0.261078 -0.293935 0.233500
cris4---------- -0.309763 0.125766 -0.044604 -0.164343 -0.784121 -0.546229 -0.642456 0.727593 -0.024831 0.074445
acmp------a---- -0.366177 0.010010 -0.370814 -0.018512 -0.719316 -0.120212 -0.449191 0.336597 0.125135 0.237616
adj+case=nom+degree=pos+gender=masc+number=sing+verbform=part 0.653268 -0.146909 0.493166 0.006475 -1.202118 -0.591959 -0.669297 0.901348 -0.065027 0.826901
ca--2---------- -0.730359 0.456039 0.513299 -0.544007 -0.724254 0.028872 -0.378010 0.187099 -0.135136 0.127811
pdip1---------- -0.283316 0.221233 -0.564563 -0.272020 -0.614567 0.206441 -0.493762 0.245518 0.068894 0.348009
foreign -0.221946 -0.861009 -0.235469 0.003440 -0.082964 -0.392411 0.100067 -0.280560 -0.782554 -0.294894
rf------------- -0.259213 0.397928 -0.365898 -0.227545 -0.866086 -0.228623 -0.316011 0.447868 0.466576 0.267374
adv,cmp 0.060942 -0.962993 -0.391256 -0.116569 -0.245335 -0.426221 -0.405351 -0.361774 -0.395097 0.218280
cris1---------- -0.456599 0.380877 -0.089416 0.135137 -0.865021 0.177959 -0.083207 0.370261 0.065129 0.130815
propn+case=acc+gender=fem+number=sing 0.609947 -0.029515 0.357213 0.027288 -1.319413 -0.531803 -0.959267 0.937290 0.019359 0.850156
psxp2-p1------- -0.704744 0.504313 0.648213 -0.461754 -0.776510 -0.086608 -0.455912 0.279838 -0.114863 0.140250
pron,dem,pl,nom 0.093058 -1.016475 -0.122059 -0.183277 -0.333282 -0.375382 -0.171371 -0.394991 -0.582535 0.217631
vi-p---2--a---- -0.314428 0.013727 -0.146321 0.004517 -0.761872 -0.204217 -0.285633 0.556871 -0.133538 0.101360
p8ns4---------1 -0.254040 0.098072 -0.261294 0.074433 -0.708131 -0.516360 -0.605454 0.478878 0.062424 0.087500
adj+degree=comp+variant=long 0.641480 -0.574047 0.282437 -0.905482 -0.357466 -0.562597 -0.744035 0.002102 0.177104 0.338404
adv_comp 0.152531 -0.120062 0.311963 0.161636 -0.004175 -0.173017 -0.060828 -0.039663 -0.164480 -0.117683
p1xxxxp3------- -0.455200 0.327318 -0.112240 -0.197368 -0.946994 0.065079 0.009179 0.449427 0.146161 0.242213
adj+case=loc+degree=pos+gender=fem+number=sing 0.758592 0.037177 0.594650 -0.357175 -1.416698 -1.071783 -0.683770 0.012158 -0.426070 0.832372
pzmp1---------- -0.665496 0.088889 -0.621811 -0.020967 -0.581917 0.019973 -0.414082 0.374134 -0.080034 0.305350
auis1m--------- -0.496835 0.485217 -0.244726 0.175185 -0.861487 0.235326 0.015017 0.363567 0.117215 0.024327
agis1-----a---- -0.485152 0.307626 -0.214876 0.003181 -0.876292 -0.138373 -0.277603 0.483603 0.067080 0.105276
plyp4---------- -0.299072 0.036198 -0.168752 -0.188483 -0.695783 -0.192922 -0.536712 0.504428 0.051333 0.248761
pron,rel,sg,nom 0.071005 -1.195319 -0.469195 -0.300505 -0.330033 -0.361589 -0.259482 -0.215964 -0.416889 0.285395
propn+animacy=inan+case=acc+gender=masc+number=sing 0.654842 0.109441 0.359073 -0.014234 -1.246530 -0.467537 -0.840041 0.959182 0.188814 0.876869
pdxp6---------- -1.064208 0.037433 0.066852 -0.401854 -0.304927 -0.217045 0.169516 0.150151 0.456654 0.600591
v,act,pcpnut,pl,nom 0.061781 -0.960608 -0.115876 -0.044087 -0.413732 -0.469286 -0.299331 -0.339590 -0.631804 -0.006478
pn+utr+plu+def+sub 0.057581 -0.045488 0.044656 -0.012798 -0.059756 -0.092337 -0.104583 -0.009019 -0.021130 0.008431
clfs4---------- -0.302295 0.166195 -0.006158 -0.134513 -0.854159 -0.435820 -0.363953 0.704638 0.058288 -0.027184
pn+utr+sin+def+sub/obj 0.028602 -0.079188 0.035419 0.037021 -0.066798 -0.044005 -0.065286 0.011757 -0.066361 -0.006812
num+number=plur+numtype=card 0.304598 -0.323551 0.417619 0.044721 -1.397570 -0.581391 -0.916250 0.650667 -0.317288 0.650745
vptp---xr-aa--1 -0.671599 0.205236 -0.248428 -0.235899 -0.609052 0.114793 -0.205540 0.182931 0.111324 0.115832
n,pl,ill 0.159482 -0.935875 -0.374730 -0.057521 -0.312063 -0.479977 -0.251146 -0.341806 -0.489659 0.215785
adj+case=nom+degree=pos+gender=fem+number=sing+verbform=part 0.644564 -0.207247 0.306962 -0.111784 -1.175373 -0.537520 -0.745899 1.037443 -0.179350 0.771710
nnfsx-----a---- -0.641722 0.130740 0.572681 0.387443 -0.762269 0.149981 -0.180443 0.197016 -0.062223 0.252853
crms1---------- -0.494093 0.177191 0.089373 0.576542 -0.733147 -0.015151 -0.251909 0.376578 0.046278 0.571914
adj_ino 0.123176 -0.092523 0.308833 0.203676 -0.001306 -0.185920 -0.092711 -0.121452 -0.152266 -0.100418
clfs1---------- -0.620649 0.173711 0.057381 -0.024029 -0.807675 0.222269 -0.100230 0.224812 0.115917 0.097959
adv,px3 0.122983 -1.019895 -0.362932 -0.143517 -0.395929 -0.347278 -0.251836 -0.254567 -0.516517 0.143532
aafs1----3a---- -0.625466 0.191184 0.085761 0.136937 -1.050353 0.420233 0.046217 0.100109 -0.004346 -0.329615
pdfp4---------- -0.351299 0.198638 -0.469609 -0.205574 -0.811739 -0.309957 -0.497778 0.578430 -0.115761 -0.006276
clzs2---------- -0.642565 0.434372 0.498478 -0.131728 -0.305222 -0.129017 -0.301181 0.490033 0.139120 0.009274
crns4---------- -0.205445 0.213250 -0.035902 -0.043718 -0.748272 -0.414503 -0.655901 0.693841 0.080215 -0.075032
adj+case=gen+degree=pos+gender=neut+number=sing 0.889063 0.018683 0.769790 0.209015 -1.262714 -1.062442 -0.681311 0.023053 -0.246780 0.579695
agfs4-----a---- -0.205578 0.216640 0.121562 -0.191760 -0.803759 -0.350840 -0.225768 0.575705 0.010624 0.127068
agms1-----a---- -0.481484 0.292399 0.059025 0.611539 -0.782565 -0.147789 -0.288700 0.491419 0.140187 0.395752
adj+case=nom+degree=none+number=sing+number[psed]=none+number[psor]=none+person[psor]=none+verbform=partpast 0.089134 -0.598207 0.387088 0.078243 -0.314583 -0.388872 -0.509651 -0.133108 -0.624131 -0.035072
p5zs2--3------- -0.760401 -0.017326 0.032633 -0.025756 -0.576186 0.445211 -0.586697 0.632443 0.334779 0.317839
pron+case=nom+gender=masc+number=sing+prontype=ind 0.701554 0.016095 0.221666 0.040661 -1.459541 -0.175070 -0.506499 1.129452 -0.245594 1.042969
pron+case=nom+gender=masc+number=plur+prontype=ind 0.473034 -0.332763 0.053471 -0.161409 -1.539683 -0.471743 -0.630681 0.688752 -0.189853 0.488879
num,card,sg,gen 0.128520 -0.825067 -0.383993 -0.091450 -0.331297 -0.490366 -0.119991 -0.216156 -0.386191 -0.063221
pp-p1--1------- -0.254666 -0.112890 -0.377811 0.168636 -0.758341 -0.100175 -0.411941 0.346081 0.015254 0.317773
adv+degree=cmp 0.579729 -0.306267 0.221064 0.036037 -1.377032 -0.506455 -0.873934 0.650142 -0.059040 0.664875
adv+degree=comp 0.626353 -0.555470 0.110400 -0.767633 -0.315178 -0.550456 -0.827496 -0.053044 0.328709 0.392509
ph-s4--1------- -0.324652 0.148926 -0.397434 0.171343 -0.736669 0.047646 -0.384833 0.157839 0.197057 0.403977
v,act,pcpva,sg,gen 0.071699 -0.953199 -0.412797 -0.042136 -0.375506 -0.415666 -0.245301 -0.135797 -0.493107 0.065361
p9zs6---------- -0.487187 -0.353599 -0.057090 0.208254 -0.526031 0.246786 -0.213647 0.426985 0.638395 0.349879
clzs7---------- -0.610637 0.182686 0.111476 -0.215490 -0.608173 0.161238 -0.506912 0.470508 0.204595 0.180580
pszs2-p1------- -0.517497 0.545553 0.307038 -0.207666 -0.407987 -0.221343 -0.254438 0.241604 0.056345 -0.092766
adv,qnt 0.036835 -0.941217 -0.260050 -0.191903 -0.286134 -0.325702 -0.327296 -0.362199 -0.432198 0.192954
clis4---------- -0.357749 0.141909 0.007551 -0.205761 -0.760470 -0.248745 -0.534069 0.474465 -0.071260 0.087966
pszs1fs3------- -0.633735 0.382970 -0.111902 0.607802 -0.927818 0.154516 -0.042289 0.378328 0.119361 0.369474
verb+aspect=none+definite=def+mood=ind+number=sing+person=3+tense=past+verbform=fin+voice=act 0.122854 -0.455966 0.361659 0.049369 -0.408251 -0.364069 -0.311906 -0.189610 -0.724229 0.055945
pshs1-p1------- -0.589996 0.205817 -0.228182 0.080947 -0.855688 0.196559 0.160228 0.095734 -0.049497 0.055093
cn-p7---------- -0.634613 0.396646 0.097522 -0.316279 -0.434044 0.058950 -0.235934 0.533713 0.333509 0.194293
agfp2-----a---- -0.530866 0.399330 0.366924 -0.248096 -0.804131 -0.219548 -0.397747 0.260979 0.003265 0.025202
pdt 0.550370 -0.726066 -0.330392 -0.336114 -0.087225 -0.600085 -0.321011 -0.479015 0.207959 0.370974
vb-p---3p-na--1 -0.431740 0.030820 -0.270152 0.011960 -0.744839 -0.330671 -0.321222 0.556902 -0.000931 0.184585
vf--------n---- -0.426644 0.195606 -0.086227 -0.028233 -0.771122 -0.234965 -0.321775 0.385977 0.037553 0.065285
rr--1---------- -0.615115 0.578594 0.489429 0.515808 -0.823382 -0.129543 0.045831 0.107289 -0.236071 0.458102
verb+verbform=inf+voice=pass 0.813943 -0.445530 0.262928 -0.722830 -0.311366 -0.359071 -0.915900 -0.066848 0.286201 0.437898
p5zs6--3------- -0.639407 -0.206749 -0.081456 0.169093 -0.436466 0.141709 -0.289412 0.228040 0.350961 0.326993
interj -0.201512 -0.529853 -0.088173 -0.175086 0.076804 -0.068604 -0.231723 -0.354687 -0.468572 -0.009417
p8fp4---------1 -0.397085 0.408374 -0.418430 -0.507667 -0.664864 -0.427336 -0.419807 0.587067 -0.220485 -0.141716
nnnp3-----a---- -0.330933 0.136476 0.079594 -0.040983 -0.783011 -0.052645 -0.605408 0.294893 0.068714 0.275965
adj+case=loc+degree=pos+gender=masc+number=sing 0.742902 0.032732 0.535105 -0.211042 -1.385926 -0.832994 -0.729032 0.355566 -0.068175 0.808652
v,act,ind,pres,sg3,ko 0.047367 -0.706610 -0.241439 -0.142328 -0.152197 -0.400274 -0.300005 -0.257965 -0.273566 0.295269
agfs2-----a---- -0.561391 0.564087 0.238192 -0.039488 -0.374909 -0.198334 -0.485667 0.407547 0.143855 0.060015
noun+definite=def+gender=neut+number=plur 0.721121 -0.472985 0.404617 -0.570279 -0.372148 -0.334617 -0.710132 0.100843 0.379538 0.309152
rbs 0.520378 -0.726800 -0.184154 -0.349044 0.003394 -0.514545 -0.430765 -0.302495 0.239209 0.474001
p8fs6---------1 -1.172573 -0.006427 0.156617 0.031086 -0.372533 -0.358651 0.088370 0.036000 0.654845 0.319675
agmp2-----a---- -0.513641 0.204482 0.106844 -0.203002 -0.661212 -0.181042 -0.258639 0.407298 -0.135272 0.121703
ppxp2--3------- -0.557775 -0.064830 -0.384658 0.016952 -0.641869 -0.043646 -0.325565 0.011451 0.051961 0.250253
p5xp4--3------- -0.326162 -0.157191 -0.179782 -0.100650 -0.874995 -0.112127 -0.775260 0.570574 0.277816 0.005548
aux+negative=neg+number=sing+person=3+tense=pres 0.525817 -0.298074 0.143153 -0.217202 -1.023492 -0.163659 -1.081736 0.734563 -0.338756 0.650034
n,pl,ade 0.217876 -0.819777 -0.256995 -0.191078 -0.247745 -0.504434 -0.168194 -0.198936 -0.244068 0.198575
nnmp6-----a---- -0.716424 0.025123 0.131354 -0.100393 -0.406194 -0.068344 -0.229166 0.179501 0.430440 0.173593
noun+case=loc+gender=fem+number=plur 0.607244 0.040871 0.519398 0.115437 -1.154731 -0.793805 -0.817452 0.361629 -0.090453 0.687461
verb+gender=fem+number=plur+verbform=part 0.435273 -0.217479 -0.071406 -0.230896 -1.429116 -0.381263 -0.724398 0.823979 -0.226643 0.513177
propn+case=ins+gender=masc+number=sing 0.711888 0.269438 0.551209 -0.040761 -1.201507 -0.730615 -0.714568 0.435928 -0.204140 0.881923
pron,pers,sg3,gen 0.034231 -0.869271 -0.240957 -0.064166 -0.406363 -0.204147 -0.356937 -0.285994 -0.429910 0.107009
adj+case=acc+degree=pos+gender=neut+number=sing 0.590464 0.035702 0.243256 -0.239808 -1.379987 -0.754576 -0.776288 0.657429 -0.014549 0.535544
pron+animacy=inan+case=nom+gender=neut+person=3+prontype=ind 0.493152 -0.066934 -0.024205 -0.146991 -1.441212 -0.256688 -0.753894 0.881533 -0.223371 0.738013
p5xp7--3------- -0.606433 0.054055 0.017085 0.049704 -0.528150 0.200873 -0.472085 0.470697 0.399780 0.265053
pron+case=nom+gender=neut+number=sing+prontype=dem 0.407872 -0.201073 -0.155643 -0.198426 -1.472549 -0.150242 -0.542694 1.116171 -0.086728 0.806183
p4ns4---------- -0.294342 0.021348 0.020089 0.266071 -0.913827 -0.053315 -0.270273 0.357409 0.212193 0.386176
aafs4----1n---- -0.104892 0.158149 -0.097422 -0.168016 -0.751047 -0.376475 -0.438995 0.739803 0.053989 -0.016079
noun+case=acc+number=sing+number[psed]=none+number[psor]=sing+person[psor]=3 0.129706 -0.399410 0.345404 0.058116 -0.344013 -0.318869 -0.402952 -0.103878 -0.549091 -0.021976
cris6---------- -0.900405 -0.089157 0.020974 -0.081630 -0.408331 -0.448208 0.040040 -0.005481 0.326423 0.468995
vb+imp+akt 0.070348 -0.063642 0.020669 -0.003022 -0.077984 -0.033576 -0.064130 -0.022538 0.030122 -0.028740
a,sg,ess 0.106646 -0.920751 -0.402815 -0.210277 -0.358137 -0.353762 -0.218824 -0.249129 -0.484931 0.228341
aanp7----1a---- -0.559466 0.156196 0.018701 -0.395803 -0.660974 -0.103944 -0.342774 0.207802 -0.159427 0.065386
ab+suv 0.058787 -0.040001 0.075442 -0.027255 -0.087272 -0.098579 -0.084121 0.008400 0.002145 -0.011285
nnisx-----a---- -0.465631 0.289271 0.464536 0.194044 -0.794215 -0.084519 -0.148984 0.193522 -0.059546 0.302688
pron,qnt,sg,gen 0.115958 -0.847365 -0.339539 -0.072588 -0.250255 -0.387020 -0.195680 -0.275196 -0.433085 -0.013277
ppfs3--3------- -0.339151 0.131457 -0.466561 0.139654 -0.684855 -0.069935 -0.335870 0.156528 0.121518 0.276473
agis4-----a---- -0.274575 0.085936 -0.021724 -0.180452 -0.636975 -0.489774 -0.368979 0.615713 -0.171525 -0.060095
aais4----1n---- -0.194459 0.219181 -0.073064 -0.061727 -0.873010 -0.470953 -0.424563 0.633624 -0.021963 0.121737
acqw------a---- -0.455562 0.092753 -0.314170 -0.001335 -0.720346 -0.001847 -0.278173 0.173485 0.213595 0.164799
pron,qnt,nom 0.102035 -0.873761 -0.295639 -0.125841 -0.200536 -0.363426 -0.213474 -0.232903 -0.358721 0.225645
nnfpx-----a---- -0.448075 0.243635 0.562458 0.380468 -0.749269 -0.041385 -0.077616 -0.047157 -0.112657 0.322838
pw--1---------- -0.371235 0.039965 -0.319413 0.103203 -0.727919 0.002256 -0.338765 0.228455 0.155403 -0.003667
pdip4---------- -0.270617 0.176204 -0.246585 -0.247725 -0.643114 -0.033181 -0.583489 0.571098 -0.104405 0.213702
ps+utr+sin+def 0.021390 -0.008388 0.024183 -0.025143 -0.062569 -0.064587 -0.106129 -0.025043 -0.047018 0.009638
part+_ 0.595464 -0.257403 0.111871 0.025214 -1.106520 -0.399299 -0.640520 0.529661 -0.138029 0.468446
psfs2-p1------- -0.480441 0.706274 0.309681 -0.205785 -0.489458 -0.172841 -0.400955 0.429721 0.165477 0.109678
verb+mood=imp+verbform=fin 0.629183 -0.353020 0.230577 -0.478059 -0.378563 -0.505414 -0.594123 -0.099544 0.123765 0.436761
a,sg,tra 0.140185 -0.841079 -0.320723 -0.242432 -0.276300 -0.317620 -0.202554 -0.252376 -0.424991 0.175635
n,prop,sg,par 0.115762 -0.827327 -0.214192 -0.220497 -0.272059 -0.293764 -0.172292 -0.248927 -0.301198 0.165744
aafp2----1n---- -0.573570 0.452219 0.382067 -0.170059 -0.867179 -0.044271 -0.523095 0.371848 -0.081746 0.338254
det+number[psor]=sing+person=3+poss=yes+prontype=prs 0.687434 -0.501497 0.312077 -0.718699 -0.254734 -0.557988 -0.618578 0.074783 0.005513 0.400737
plns1---------- -0.394177 -0.044406 -0.450926 -0.050864 -0.648897 0.041937 -0.343330 0.229269 0.044333 0.197554
jj+suv+utr/neu+sin/plu+def+nom 0.071085 -0.088306 0.051030 0.006547 -0.083778 -0.089788 -0.086504 0.025108 0.013526 -0.032036
pc+prf+neu+sin+ind+nom 0.014352 -0.043860 0.044600 -0.011965 -0.079790 -0.044523 -0.064710 -0.042397 -0.047873 -0.008764
adv+degree=none+prontype=dem 0.110731 -0.389383 0.193173 -0.038058 -0.279657 -0.328864 -0.338582 -0.132425 -0.563577 -0.014040
pron+gender=neut+number=sing+prontype=ind 0.765154 -0.487021 0.172012 -0.611303 -0.224468 -0.404944 -0.818980 0.073654 0.295170 0.339773
verb+tense=pres+verbform=part 0.473845 -0.533300 0.398088 -0.916001 -0.269111 -0.616631 -0.593137 0.019656 0.096288 0.134851
aais4----2a---- -0.258500 0.129382 -0.063029 -0.053827 -0.701667 -0.384014 -0.351572 0.560091 -0.170461 0.131929
verb+aspect=none+mood=n+number=none+person=none+verbform=inf+voice=act 0.086661 -0.386963 0.173540 -0.008274 -0.328508 -0.352204 -0.295402 -0.102860 -0.457034 -0.009292
aais1----3a---- -0.408081 0.318407 -0.111448 0.139089 -0.819887 0.112973 -0.072270 0.320510 -0.000451 0.208778
jj+pos+utr/neu+sin/plu+ind/def+nom 0.016534 -0.072117 -0.004241 -0.036178 -0.059076 -0.096071 -0.088823 -0.026231 -0.027058 0.020631
agip2-----a---- -0.441426 0.281058 0.163899 -0.483072 -0.664781 0.035022 -0.451587 0.328746 -0.242148 -0.040020
vb-p---1f-aa--- -0.538468 -0.126243 -0.417996 0.012677 -0.435917 -0.409492 -0.267524 0.377768 0.012268 0.076172
plns1---------1 -0.404672 0.019176 -0.406468 0.090653 -0.635343 0.052251 -0.357916 0.142914 0.185686 0.250906
p4zs7---------- -0.442277 0.220053 -0.111234 0.092266 -0.756920 0.053009 -0.129033 0.279749 0.274395 0.377385
det+gender=com+number=sing+number[psor]=sing+person=3+poss=yes+prontype=prs+reflex=yes 0.665401 -0.502122 0.291525 -0.560956 -0.264481 -0.685525 -0.610439 0.101783 0.022076 0.426229
j^------------8 -0.184463 -0.073185 0.385498 0.057625 -1.160564 0.031520 -0.506497 0.439681 0.147652 0.342497
noun+case=sup+number=sing+number[psed]=none+number[psor]=none+person[psor]=none 0.116302 -0.469321 0.367284 0.038475 -0.324864 -0.425845 -0.413747 -0.131219 -0.531678 -0.023725
v,act,cond,conneg 0.086847 -0.836844 -0.408685 -0.070094 -0.210635 -0.191589 -0.407953 -0.184604 -0.499749 0.324669
noun+case=gen+gender=neut+number=plur 0.481174 -0.099200 0.479059 -0.032019 -1.251454 -0.827481 -1.027537 0.451802 -0.047668 0.423754
pz--1---------- -0.378029 0.091485 -0.232447 0.139622 -0.614989 -0.048236 -0.487404 0.116737 0.345243 0.111377
noun+case=acc+gender=neut+number=plur 0.523661 0.003543 0.357072 0.038538 -1.149332 -0.670052 -0.751684 0.594050 0.014289 0.541754
crns2---------- -0.618091 0.353925 0.417765 -0.219153 -0.423071 -0.128166 -0.245818 0.361310 0.088211 -0.063001
noun+case=ins+gender=masc+number=plur 0.544524 0.069758 0.342578 0.013820 -1.197980 -0.751481 -0.763267 0.524468 -0.005063 0.624241
adj+case=ess+degree=pos+number=sing+number[psed]=none+number[psor]=none+numtype=none+person[psor]=none+verbform=none 0.125330 -0.446425 0.249498 0.037443 -0.354295 -0.336804 -0.397999 -0.105759 -0.523216 -0.020367
pjzs2---------- -0.386280 0.227695 0.102144 0.054313 -0.780415 0.016169 -0.179663 0.246180 0.047983 0.172305
pron+case=nom+gender=fem+number=sing+prontype=ind 0.621777 -0.038752 0.184788 0.003216 -1.396237 -0.341743 -0.477330 0.755345 -0.190877 0.602756
j*------------- -0.468664 0.088711 0.470882 0.311210 -1.068798 -0.100037 -0.847213 -0.272698 -0.574043 -0.025780
pron,pers,sg1,gen 0.101457 -0.883009 -0.295529 -0.165748 -0.259704 -0.185985 -0.286339 -0.223956 -0.246594 0.233711
vb+sup+sfo 0.072082 -0.047638 0.089029 0.053568 -0.106961 -0.042199 -0.113297 -0.044213 -0.034288 -0.004440
pq--7---------- -0.195541 -0.059816 -0.329996 0.079769 -0.866096 -0.056930 -0.325139 0.222398 0.099829 0.161930
p5zs7--3------- -0.519433 0.204784 -0.184117 0.075368 -0.503756 0.157228 -0.486543 0.290792 0.475277 0.238085
p5xp6--3------- -0.456036 -0.172301 -0.045715 0.106898 -0.431167 0.037777 -0.352080 0.329809 0.393881 0.309658
aufs4m--------- -0.082553 0.353437 -0.095003 -0.005768 -0.814707 -0.453182 -0.065540 0.552657 -0.201515 0.120372
n,sg,abl 0.215151 -0.849913 -0.256673 -0.233161 -0.276979 -0.422997 -0.162576 -0.208957 -0.314259 0.215048
psys1-p1------- -0.478792 0.350800 -0.189223 0.445876 -0.941678 -0.013746 -0.005617 0.285816 -0.071473 0.357311
n,prop,sg,ill 0.133871 -0.973682 -0.354379 -0.172563 -0.203738 -0.348997 -0.113365 -0.196453 -0.372184 0.206196
aafp2----3a---- -0.531226 0.418528 0.591699 -0.353923 -0.831055 -0.109381 -0.611199 0.268331 -0.042931 0.188935
aafs2----1n---- -0.471634 0.730906 0.234802 -0.065455 -0.463034 -0.163044 -0.434680 0.440653 0.166473 0.128449
adj+case=nom+degree=pos+gender=neut+number=sing+verbform=part 0.534861 -0.156830 0.128298 -0.076769 -1.236452 -0.483489 -0.729331 0.929322 -0.078876 0.694643
p6-x7---------- -0.378213 0.025652 -0.132777 0.005439 -0.559716 -0.000665 -0.450927 0.469207 0.383160 0.138318
propn+case=gen+gender=neut+number=sing 0.370764 -0.119779 0.451342 0.111462 -1.132196 -0.529467 -0.833418 0.653467 -0.250907 0.893755
adv_loc 0.109090 -0.152067 0.217700 0.112123 -0.036041 -0.109929 -0.099415 -0.086541 -0.151947 -0.089943
pron,qnt,par 0.101033 -0.775089 -0.347306 -0.155557 -0.204920 -0.320834 -0.410937 -0.265601 -0.247535 0.260273
plfp1---------- -0.475704 0.275008 -0.403473 -0.218096 -0.715555 0.094716 -0.328793 0.206312 0.079058 0.238077
aafp1----2a---- -0.390340 0.212112 -0.370375 -0.091990 -0.727921 0.012557 -0.270006 0.297804 0.049760 0.183750
clfs2---------- -0.628221 0.825791 0.289563 -0.242095 -0.426482 -0.034076 -0.262767 0.526209 0.118872 0.191823
crnp2---------- -0.611612 0.248794 0.395373 -0.388937 -0.618765 0.016616 -0.233861 0.334372 -0.269488 0.097999
vb-p---3f-na--- -0.575845 -0.070323 -0.425189 -0.006208 -0.634704 -0.163960 -0.303878 0.399200 -0.086857 0.167849
pron+case=nom+gender=com+number=sing+person=2+prontype=prs 0.724364 -0.288189 0.242314 -0.462256 -0.274282 -0.316161 -0.621282 0.180405 0.499904 0.513169
pdxp3---------- -0.355359 0.179243 -0.130941 -0.056037 -0.839381 -0.160606 -0.387040 0.335491 0.101724 0.237384
clfs7---------- -0.597254 0.133086 0.018407 -0.043435 -0.618720 0.109819 -0.473015 0.468584 0.284756 0.195821
p5fs6--3------- -0.559901 -0.161366 -0.083677 0.016524 -0.474911 0.060527 -0.144047 0.365995 0.249683 0.334424
noun+case=loc+gender=masc+number=plur 0.610127 -0.020345 0.460541 0.004045 -1.169202 -0.702631 -0.705935 0.435745 0.012628 0.641015
pm+gen 0.035800 -0.054209 0.087236 0.003837 -0.044372 -0.090799 -0.066324 -0.045645 0.000085 0.021251
aaip2----1n---- -0.563632 0.260534 0.235399 -0.348738 -0.625825 -0.003600 -0.363536 0.211215 -0.180126 -0.055484
noun+case=dat+gender=masc+number=sing 0.602949 0.045301 0.312808 0.042613 -1.112051 -0.501108 -0.775518 0.593619 -0.288599 0.626347
aafs4----3a---- -0.168594 0.185552 0.011780 -0.144410 -0.593608 -0.303092 -0.389556 0.474380 -0.107996 0.024084
p9xp2---------- -0.417338 -0.104255 0.095821 -0.038032 -0.761347 0.233994 -0.438719 0.434406 0.150121 0.288785
adj+numtype=ord 0.635497 -0.437876 0.322584 -0.613418 -0.311506 -0.630889 -0.547475 0.033163 0.091220 0.320434
ca--6---------- -0.732631 0.047735 0.142914 -0.395334 -0.317265 -0.180578 -0.059714 0.139393 0.188890 0.452844
a,sg,ill 0.121391 -0.913521 -0.350264 0.009893 -0.255787 -0.314091 -0.267581 -0.191334 -0.316528 0.059715
cris2---------- -0.509362 0.473330 0.451282 -0.185917 -0.458573 -0.151972 -0.262675 0.199977 -0.038719 0.053967
pron,pers,pl1,nom 0.107723 -0.586522 -0.131275 -0.024958 -0.251246 -0.207604 -0.268960 -0.213906 -0.270880 0.121567
v,neg,act,pl3 0.144581 -0.707962 -0.102945 -0.001040 -0.151541 -0.458516 -0.305722 -0.342132 -0.487417 0.430238
n,pl,all 0.066356 -0.822102 -0.377665 -0.218051 -0.188354 -0.333366 -0.151334 -0.231000 -0.296643 0.143526
noun+case=ins+gender=neut+number=sing 0.637895 -0.020764 0.473424 0.002361 -1.114054 -0.833083 -0.726696 0.550853 -0.223643 0.582791
p6-x4---------- -0.225508 -0.043811 -0.065388 -0.052882 -0.572250 0.004558 -0.537637 0.416827 0.160109 0.167215
aafp4----2a---- -0.297241 0.219282 -0.299940 -0.201803 -0.628277 -0.217259 -0.441582 0.457721 -0.079054 0.109671
p1xxxzs3------- -0.398727 0.127482 0.099534 -0.061254 -0.642367 -0.012179 -0.053144 0.325287 0.158694 0.287274
noun+case=dat+gender=fem+number=sing 0.536561 -0.075313 0.379528 0.057778 -1.069576 -0.599205 -0.844070 0.525239 -0.234252 0.594274
aafp1----1n---- -0.401203 0.060999 -0.237252 -0.143912 -0.748628 0.098762 -0.199601 0.277578 0.057670 0.260625
verb+number=plur+tense=past+verbform=part 0.560622 -0.286976 0.347188 -0.790472 -0.325718 -0.513146 -0.590116 -0.094793 0.130354 0.295607
pron,dem,sg,ine 0.074764 -0.951904 -0.331373 -0.215351 -0.239087 -0.282899 -0.352608 -0.353455 -0.271758 0.204619
n,prop,sg,ela 0.195706 -0.806164 -0.265930 -0.198230 -0.190947 -0.302371 -0.178959 -0.131187 -0.300589 0.195353
verb+aspect=none+definite=ind+mood=ind+number=plur+person=3+tense=pres+verbform=fin+voice=act 0.090986 -0.404589 0.188484 -0.028868 -0.250163 -0.345094 -0.355199 -0.096679 -0.527762 0.070398
plxp6---------- -0.871379 0.168702 -0.055000 -0.241098 -0.379105 -0.298154 0.023238 0.005543 0.382680 0.340440
adj+definite=def+degree=sup+variant=long 0.418764 -0.497817 0.180880 -0.856198 -0.289262 -0.576608 -0.545283 -0.050243 0.075961 0.247087
p8fs7---------1 -0.588928 0.414049 -0.098328 -0.110747 -0.445088 -0.050454 -0.111541 0.320966 0.206735 -0.080884
v,act,infe,ins 0.081627 -0.775970 -0.289701 -0.070523 -0.196625 -0.373781 -0.285379 -0.278539 -0.269368 0.135483
nnip2-----a---1 -0.507712 0.059819 0.183633 -0.008730 -0.621144 -0.079463 -0.408508 0.079044 0.046364 0.002772
pron+gender=com+number=sing+prontype=ind 0.619970 -0.399275 0.402476 -0.534123 -0.288265 -0.320513 -0.672056 -0.009708 0.358669 0.318425
n,prop,sg,ade 0.082588 -0.790561 -0.234211 -0.253894 -0.342893 -0.325349 -0.305235 -0.183339 -0.304516 0.191142
agfp1-----a---- -0.387341 0.136778 -0.189804 -0.239823 -0.769416 0.021379 -0.217006 0.375240 0.058431 0.140846
v_imp 0.074981 -0.074232 0.176054 0.066435 -0.023815 -0.065715 -0.070713 -0.050041 -0.086187 -0.089334
det+number=plur+prontype=ind 0.490197 -0.341729 0.332815 -0.754027 -0.270216 -0.464400 -0.637441 -0.083264 0.117012 0.158372
pun,quo,ini 0.081957 -0.676984 -0.052667 -0.076211 -0.353926 -0.364848 -0.115561 -0.262163 -0.268139 0.118157
pun,quo,fin 0.190829 -0.856848 -0.247706 -0.229379 -0.216276 -0.363612 -0.166183 -0.178566 -0.259081 0.244673
p9fs6---------- -0.428446 -0.240888 -0.033801 0.204302 -0.488762 0.211185 -0.117509 0.449279 0.318841 0.316953
p4np1---------- -0.244909 0.018357 -0.221781 -0.101545 -0.840811 0.063271 -0.242843 0.208292 0.204211 0.222606
pjys1---------- -0.233658 0.042153 0.099919 0.108972 -0.744085 -0.013971 -0.283211 0.128450 0.194192 0.475111
a,sg,ine 0.182968 -0.836316 -0.226181 -0.125229 -0.309314 -0.335928 -0.270320 -0.290927 -0.305458 0.032505
aais4----3a---- -0.194184 0.120863 -0.009038 -0.189818 -0.751357 -0.406444 -0.420527 0.638821 -0.083954 -0.039793
p8xp6---------- -0.835909 0.013429 -0.037715 -0.193233 -0.395680 -0.220453 0.014254 0.123987 0.348701 0.373467
verb+aspect=none+definite=def+mood=ind+number=sing+person=3+tense=pres+verbform=fin+voice=act 0.083459 -0.395475 0.373630 0.017315 -0.356884 -0.287210 -0.331965 -0.136254 -0.530285 -0.030973
nn+neu+sin+def+gen 0.017148 -0.000195 0.081132 0.033441 -0.045628 -0.042631 -0.035804 -0.012276 -0.067744 -0.017226
noun+case=sub+number=sing+number[psed]=none+number[psor]=none+person[psor]=none 0.048724 -0.370653 0.297974 -0.032510 -0.262657 -0.335487 -0.296461 -0.104798 -0.437184 0.062819
a,pl,gen 0.060943 -0.721078 -0.229697 -0.063652 -0.259958 -0.259137 -0.233449 -0.276793 -0.202210 0.013095
v,act,pcpva,sg,nom 0.076521 -0.680357 -0.215846 -0.065628 -0.260243 -0.276743 -0.152969 -0.253914 -0.244884 0.097773
pp-p3--2------- -0.323311 -0.072762 -0.396377 0.146593 -0.580650 -0.063383 -0.383489 0.259514 -0.112568 0.094623
pron,dem,sg,ade 0.022910 -0.815587 -0.312992 -0.115742 -0.236283 -0.228497 -0.311875 -0.246646 -0.378326 0.171773
pron+number=sing+prontype=int,rel 0.712121 -0.327841 0.280919 -0.499619 -0.399817 -0.314725 -0.629417 -0.021219 0.325701 0.524799
auis2m--------- -0.470783 0.306314 0.242164 -0.131621 -0.450465 -0.077209 -0.276488 0.289427 0.092413 -0.008016
aafs7----3a---- -0.663083 0.595229 -0.020722 -0.292979 -0.296031 -0.028794 -0.019265 0.414793 0.318134 0.078834
pron,interr,par 0.041779 -0.713964 -0.264733 -0.287411 -0.116423 -0.344243 -0.293646 -0.295380 -0.187288 0.166592
ls 0.155588 -0.603005 0.047240 -0.332959 -0.021654 -0.525563 -0.330974 -0.275730 0.278018 0.170015
v,act,ind,pres,pl1 0.151745 -0.553178 -0.222114 0.011485 -0.191139 -0.321208 -0.213589 -0.079069 -0.351219 0.118154
pron,pers,pl3,nom 0.134682 -0.663397 -0.172751 -0.024117 -0.317655 -0.324122 -0.240302 -0.155327 -0.370348 -0.018052
pdfs7---------- -0.435865 0.433588 -0.085310 -0.101057 -0.401959 -0.105064 -0.144727 0.359388 0.154650 0.080004
agmp1-----a---- -0.456503 -0.005907 -0.243751 -0.013875 -0.499921 0.009644 -0.260507 0.307968 0.025046 0.190508
plfp4---------- -0.319259 0.238432 -0.374584 -0.234411 -0.611535 -0.293960 -0.500235 0.474005 0.046292 -0.065929
p5zs2--3------1 -0.380166 -0.018825 -0.077626 -0.118808 -0.626426 0.180329 -0.454753 0.390714 0.242924 0.296067
p4zs6---------- -0.667532 -0.109369 0.083118 0.065902 -0.471701 -0.083085 -0.083543 0.136107 0.388995 0.347736
plfs1---------- -0.348623 0.158239 -0.151408 0.080200 -0.758884 0.120070 -0.201301 0.131274 0.097441 0.140645
pzyp4---------- -0.221163 0.102072 -0.191334 -0.273667 -0.515395 -0.170542 -0.576045 0.502526 -0.097525 0.176041
noun+case=ins+number=sing+number[psed]=none+number[psor]=none+person[psor]=none 0.088025 -0.461762 0.293809 0.070178 -0.318350 -0.331952 -0.404582 -0.119008 -0.537889 0.019774
ps+utr/neu+plu+def 0.042028 -0.031070 0.030135 0.018184 -0.023635 -0.081102 -0.062901 -0.036059 -0.065047 0.010842
noun+case=acc+number=plur+number[psed]=none+number[psor]=none+person[psor]=none 0.045668 -0.408387 0.242031 -0.040345 -0.251831 -0.286306 -0.385066 -0.015119 -0.466807 0.037302
v,pass,pcpva,sg,nom 0.095299 -0.875913 -0.365098 -0.123584 -0.259282 -0.315795 -0.192485 -0.235441 -0.286210 0.103475
nnfs1-----a---1 -0.383310 0.315708 0.040519 -0.063388 -0.634984 -0.164642 -0.181093 0.056145 -0.026913 0.117356
p9xp6---------- -0.360182 -0.168359 0.034808 0.099973 -0.573468 0.106965 -0.206752 0.234662 0.328734 0.382341
aais7----3a---- -0.491662 0.349017 -0.145515 -0.243234 -0.473230 -0.198386 -0.135848 0.249706 0.164783 0.155857
pzfp1---------- -0.421196 0.279126 -0.269927 -0.178345 -0.704666 0.058168 -0.179111 0.177956 0.039053 0.243532
a,sup,sg,nom 0.121937 -0.808240 -0.390888 -0.218910 -0.176477 -0.365681 -0.200358 -0.235705 -0.279188 0.221716
plip1---------- -0.283262 0.230658 -0.350118 -0.196038 -0.530063 0.128541 -0.408277 0.282383 -0.124108 0.389266
pszs6-p1------- -0.594013 -0.053681 0.180472 -0.123607 -0.271051 -0.270867 -0.026765 0.160362 0.238114 0.385839
ppys1--3------- -0.264602 -0.038831 -0.319522 0.198372 -0.646835 -0.063431 -0.376086 0.216741 -0.102728 0.402694
n,sg,par,px3 0.186571 -0.836901 -0.312355 -0.092857 -0.273333 -0.349685 -0.113119 -0.159359 -0.329906 0.176524
adj+case=ins+degree=pos+gender=masc+number=sing 0.633526 -0.054948 0.319018 -0.237312 -1.238491 -0.678083 -0.609673 0.388825 -0.185321 0.654910
p5fs2--3------- -0.354387 -0.021239 0.016670 -0.055750 -0.554000 0.136264 -0.443469 0.465943 0.139249 0.193262
