4322 10
noun 1.233802 1.208051 -0.631821 0.039706 0.460601 -0.642737 0.454253 0.511500 0.640451 -1.387599
punct 1.391888 1.074439 -0.192159 0.080737 0.486878 -0.631827 0.549752 0.770739 0.759715 -1.132383
verb 0.966810 0.959072 -0.332585 0.084435 0.431375 -0.811248 0.247080 0.322811 0.502632 -0.978087
adj 1.266632 1.131140 -0.260016 0.098211 0.620930 -0.851469 0.489502 0.675192 0.608337 -1.289388
adp 1.120532 1.037301 0.024439 0.097380 0.560331 -0.725495 0.480243 0.681509 0.600418 -0.974140
z:------------- 0.459385 -0.744002 0.054388 -0.499336 0.875025 0.269432 -0.067074 -0.156199 0.212680 0.512483
adv 1.118739 0.982095 -0.396243 0.000566 0.499569 -0.705602 0.291426 0.372351 0.582799 -1.186123
pron 1.071769 0.988613 -0.563186 -0.063268 0.625041 -0.825131 0.231747 0.295333 0.599186 -1.483597
propn 2.099077 1.614968 0.082894 -0.698266 0.596521 -1.355579 0.682680 0.037315 0.918836 -1.839061
det 1.026463 1.388184 0.237559 -0.255162 0.665394 -1.240394 0.385666 0.499368 0.815547 -1.326359
conj 1.167680 1.208508 -0.107806 -0.063195 0.673470 -0.749495 0.414654 0.581592 0.568883 -1.204382
num 1.240543 1.295206 0.105463 -0.432364 0.790133 -1.269155 0.446688 0.459172 0.545620 -1.410835
n 1.062567 1.412420 0.390368 -0.222518 0.394040 -0.713849 0.226546 -0.286104 0.033912 -1.408158
v 1.598923 1.123162 -0.374690 -1.069810 0.608073 -1.685547 -0.247699 0.663933 0.799719 -2.117810
_+_ 1.524234 1.283912 0.542763 -0.844371 0.598155 -0.145397 -0.164047 1.049837 0.061832 -1.769854
_ 1.516997 1.270873 0.600994 -1.065086 0.652953 -0.266874 0.186082 1.359349 0.376352 -1.931497
s 1.744290 1.693091 0.006810 -1.181351 0.843547 -1.225624 0.182673 0.484576 -0.207282 -1.589169
sconj 1.413066 1.171672 -0.293986 -0.354658 0.495041 -0.723313 0.236297 0.497578 0.691689 -1.474340
aux 1.022638 1.013350 -0.449132 0.093061 0.316921 -0.658927 0.172909 0.196576 0.600705 -1.102156
j^------------- 0.101575 -0.663313 -0.195400 0.156015 1.002449 0.402776 0.089439 -0.256166 0.093279 0.565960
db------------- 0.324751 -0.576022 -0.396231 0.250014 1.063708 0.272550 -0.291552 -0.447966 0.040177 -0.077471
e 1.051384 1.409467 -0.049109 -0.273500 0.972695 -1.847195 -0.721107 0.119330 -0.440953 -1.659640
rr--6---------- -0.894286 -0.036669 1.044536 0.109472 1.688488 -0.276319 0.286367 -0.754249 0.337110 -0.244956
n_sing 1.266503 1.379198 -0.099613 -0.984938 0.478539 -1.464774 0.018363 0.908083 0.495912 -1.848606
vb-s---3p-aa--- 0.182945 -0.896745 -0.063035 0.006514 0.695672 1.362314 0.441161 0.122902 0.573995 -0.139804
rd 0.369581 1.805125 0.375694 -1.617188 0.231520 -1.125359 -0.342949 -0.684345 0.535870 -1.808391
part 0.967737 1.447166 0.393253 -0.305145 0.881021 -0.838601 0.077035 0.572088 0.053384 -1.158387
nn 0.257630 1.078191 0.384695 1.376885 0.630090 -0.565662 0.838077 -1.145767 0.263595 -0.260801
nnms1-----a---- -0.019953 -0.272832 -0.412145 -1.952225 0.674528 0.481936 -0.491056 -1.309671 0.914899 0.148698
a 1.144341 1.650465 -0.104172 -0.500511 0.924939 -1.011535 -0.193554 -0.053241 0.110408 -2.049558
nnfs2-----a---- 0.070598 -0.194735 -0.504116 -0.188634 1.021804 0.490276 0.745188 -0.586356 0.569308 1.235931
nnfs1-----a---- 0.054283 -0.807394 -1.100800 -0.798435 1.217712 0.497594 0.211430 0.541092 -0.649236 0.219993
rr--4---------- -0.429538 -0.405794 0.324898 0.082152 1.321089 0.815309 -0.295354 0.557995 0.376799 0.470391
rr--2---------- -0.146066 -0.326287 0.245429 -0.424026 1.238292 0.063562 0.209271 -0.086929 -0.262738 0.794387
c=------------- 0.419269 -0.733647 -0.068598 -1.012957 1.469332 -0.791375 0.393605 0.844885 1.562531 -0.106392
j,------------- -0.003371 -0.746753 -0.603304 -0.273127 1.119438 0.366987 -0.773079 -0.028481 0.152011 -0.338382
in 0.203381 0.461138 0.950970 0.927182 0.624313 -0.111583 0.632599 -2.160734 -0.009298 0.032648
vf--------a---- 0.121892 -0.434666 -0.496090 0.321017 1.038011 0.613861 -0.310731 -0.243474 0.116008 0.013259
nnis2-----a---- -0.416816 -0.183719 -0.795512 -0.541599 0.853179 0.421428 0.645159 -0.146821 0.445714 0.885049
nnis1-----a---- 0.039543 -0.813240 -0.741892 -0.830404 1.418104 0.217859 -0.301695 -0.576722 -0.384774 0.491958
dt 0.798980 0.211751 0.888033 1.620728 -0.477097 0.258765 1.045908 -1.210189 0.776785 0.564455
nnfs4-----a---- -0.251214 0.160344 -0.951772 -0.056943 1.828759 0.758973 -0.049015 0.092927 0.200518 0.616219
p7-x4---------- 0.279049 -0.595541 -0.282585 0.205510 1.205418 0.054402 -0.511778 -0.859769 -0.175815 0.090143
vpys---xr-aa--- 0.206611 -0.381793 0.000719 -0.612745 0.701426 1.180556 0.221664 -0.592175 0.958269 -0.296996
dg-------1a---- 0.342672 -0.444349 -0.271608 0.164333 1.268110 0.314937 -0.201185 -0.555910 -0.053001 0.178363
nnis4-----a---- 0.264560 0.104593 -0.482930 0.139866 1.535407 0.634274 0.424055 0.617263 0.616248 0.472700
r 0.537990 1.776821 0.864862 -0.644705 0.680260 0.105554 -0.354756 0.549297 -0.135540 0.493596
cc 1.227543 1.209611 0.243805 -0.615882 0.571802 -1.052082 -0.555507 -0.073549 -0.045980 -1.341097
nnfs6-----a---- -0.148931 0.513346 -0.656104 0.270522 1.209483 -0.083016 1.345738 -0.717104 0.593312 -0.351810
p 0.709035 1.323528 0.348497 -0.602586 0.610553 -1.030547 0.075743 1.217195 0.354165 -1.158258
pun 1.239728 1.985855 -0.276226 -0.771252 -0.137203 -1.586510 -0.142950 -2.678210 -0.225199 0.810065
nnfp2-----a---- -0.090587 -0.349161 -0.596030 0.337551 1.428302 -0.414063 0.578058 0.389591 0.310927 1.139660
punct+_ 1.169097 1.679794 -0.546308 -0.534653 0.889591 -1.270050 -0.305632 -0.016486 0.682652 -1.092443
nnp 1.063076 0.842866 0.868966 0.642882 0.433714 0.059674 1.250453 -1.652541 1.300926 -1.208400
sp 1.718245 1.446936 0.298939 -0.581249 0.131720 -1.227287 0.440215 -0.297668 0.327176 -1.769304
nnns2-----a---- -0.238834 -0.278543 -0.633582 -0.370523 0.618699 0.159921 0.506083 -0.377249 0.196818 1.084357
prp 1.577907 -0.219444 -0.222303 1.237378 -0.254814 -0.532935 0.284247 -1.620491 0.183149 0.076598
ff 1.097474 1.133673 0.450547 -0.614234 0.468082 -1.544942 -0.381195 0.368363 0.541800 -1.391330
jj 0.013265 0.655680 0.655023 1.536367 0.191375 -0.685935 0.290823 -1.729453 0.583693 0.059403
rr--7---------- -0.338031 -0.390983 0.581860 0.067248 0.713000 0.552646 0.017117 -1.114193 -0.056229 1.152466
con 0.970057 1.286337 0.058216 -0.594152 0.402031 -0.870406 0.049549 0.916119 0.419601 -1.375792
vb-p---3p-aa--- 0.454397 -0.392638 0.129426 0.678268 0.865985 0.660487 0.109106 -0.409291 0.962688 0.044793
rb 1.238745 0.204892 0.409085 1.188208 0.316577 -0.224024 0.500348 -1.471519 -0.092253 -0.023320
delm 1.332143 1.162464 -0.099473 -0.516791 0.184644 -0.833498 0.222802 0.844832 0.544721 -1.202222
aafs2----1a---- -0.433747 -0.527917 -0.597733 -0.257877 1.028494 0.690275 0.281137 -0.939523 0.610877 2.425290
nnip2-----a---- -0.196129 -0.304323 -0.430940 0.172498 1.205548 -0.592418 0.421681 0.953142 0.418539 0.943927
. 0.163299 0.375507 1.111932 0.859558 0.109061 0.318815 0.606324 -2.348075 0.426523 0.528920
fs 1.073555 1.258954 1.051740 -0.520404 0.617911 -1.361721 -0.634047 -0.245550 0.209739 -1.079687
nnis6-----a---- 0.301976 0.108179 -0.558793 0.007176 1.287852 -0.114711 1.269671 -0.969966 0.181348 -0.288732
c 0.988353 1.671043 0.326473 -0.331664 -1.032144 -1.154998 -0.178317 -1.198884 -0.555839 0.604076
vb 0.692417 0.449785 -0.312878 1.956418 0.283460 0.343633 0.022625 -1.930313 -0.327526 -0.300527
aafs1----1a---- -0.402615 -1.657630 -1.053685 -0.678535 1.771407 1.072984 -0.062102 0.457739 -0.605366 -0.107746
nnns1-----a---- 0.057318 -0.564166 -0.453170 -0.435960 1.625673 0.718976 0.148467 0.151752 -0.232593 0.138040
nnns4-----a---- 0.449113 -0.159123 -0.547336 0.053943 1.406771 0.827489 0.528636 0.259141 0.031025 1.076598
nns 0.672295 1.112717 -0.000627 1.100626 0.096117 -0.540335 0.788511 -1.338846 0.145288 0.218961
, 0.424555 0.440101 0.369204 0.952137 -0.109672 0.210983 0.779008 -2.126170 0.236636 0.050301
nnms2-----a---- -0.491152 -0.186289 -0.442648 -1.316440 0.543391 0.255993 0.480301 -0.395444 0.890648 0.615133
b 1.344929 1.415631 -0.328599 -0.654786 0.265780 -1.007221 -0.331501 0.221091 0.420707 -1.372747
pp 0.706360 0.795722 -0.043916 0.037788 0.345012 -0.546618 0.166310 0.334710 0.433420 -0.755138
nnns6-----a---- 0.058663 0.446207 -0.486724 0.013287 0.841256 -0.229209 1.378140 -0.822208 0.739715 0.074475
vpqw---xr-aa--- -0.150569 -0.785587 0.044599 0.022334 1.089495 1.256113 0.540450 0.226696 0.605234 -0.122399
aais2----1a---- -1.357074 -0.469911 -0.473882 0.014018 0.566306 0.048262 0.617701 0.157815 0.399579 1.485950
nnfs7-----a---- 0.717227 -0.115799 -0.562262 -0.311213 0.878489 0.584663 0.497650 -1.063650 -0.085682 1.420307
n_pl 0.556124 0.961197 -0.055940 -0.608983 0.547522 -1.021489 -0.024694 1.059060 0.381573 -1.327043
nnmp2-----a---- -0.183859 -0.327310 -0.355980 -0.337301 1.251385 -0.451465 0.468999 0.334136 0.567332 0.630690
aais1----1a---- -0.564469 -2.131320 -1.175007 -0.466120 0.352987 0.194593 -1.071300 -0.345894 -0.218702 0.717526
nnfp1-----a---- 0.897491 0.109947 0.042085 0.268357 1.504708 -0.742767 -0.253046 -1.500961 0.885330 0.407607
rr--3---------- -0.590360 0.154089 0.559028 -0.118097 1.486380 0.365141 -0.426546 -0.565672 0.145920 0.565314
nnis7-----a---- 0.303641 0.160538 -0.471929 -0.183134 1.254843 0.375061 0.628716 -0.854218 -0.358337 0.564361
tt------------- 0.286251 -0.759507 -0.496300 0.059055 1.252046 0.387206 0.053997 -0.134856 0.279133 0.052572
nnfxx-----a---8 0.032011 -0.655015 -0.663304 -0.909783 1.321080 0.001995 0.456339 -0.004953 0.883769 0.283826
vc------------- 1.246911 -0.791998 0.432452 0.093437 0.969963 0.641843 -0.317934 -0.760228 -0.059113 0.003858
aafs4----1a---- -1.443222 -0.159072 -0.922358 0.635518 1.216393 1.055621 -0.696066 0.571220 0.743025 0.555118
nnfp4-----a---- 0.559825 -0.055486 -0.908845 0.459120 1.338392 0.951360 0.221852 0.356827 0.124704 0.918737
vpmp---xr-aa--- 0.331408 -0.286380 -0.059186 0.591058 1.026996 0.890057 0.003753 -0.119741 0.774286 -0.122661
nnmp1-----a---- 0.911224 -0.218244 -0.119673 0.328233 0.910342 0.055637 -0.400949 -0.598215 0.310977 0.321864
v_prs 0.670679 0.800106 -0.192826 -0.619610 0.463266 -1.431728 0.087430 1.108481 0.317885 -0.792007
fb 0.917956 1.329359 0.697374 -0.294338 0.373558 -1.300863 0.122684 -0.034387 0.479359 -1.102684
va 1.270438 1.167302 -0.455242 -0.387671 -0.118929 -0.946223 -0.729855 0.272239 0.647272 -1.187510
vbd 0.584857 1.061795 0.434185 1.252932 0.133946 0.582981 0.297245 -2.178003 -0.224109 -0.322896
aafp2----1a---- -0.457198 -0.777040 0.148129 0.185086 0.736442 -1.129156 0.511860 0.041881 1.308039 1.768956
vbp 0.912461 0.944534 0.723971 0.870122 0.013154 0.627762 -0.017699 -2.125555 -0.526414 -0.151086
nnip4-----a---- 0.327099 0.181260 -0.547671 0.945351 1.391151 0.238261 0.362045 0.601900 0.466599 0.439050
vpns---xr-aa--- 0.181699 -0.607196 0.107621 0.417373 1.279785 0.912126 0.496220 0.047682 0.693085 -0.424906
aais4----1a---- -0.446924 -0.231560 -0.532476 0.717096 1.041103 1.293494 -0.086113 0.567444 0.873402 0.674950
n,sg,nom 1.522725 1.800204 -0.410055 -0.017319 -0.194192 -1.151039 0.585396 -1.650921 0.279852 0.823332
nnip1-----a---- 1.278184 0.019485 -0.330361 0.204852 1.127869 0.047677 -0.131955 -0.675173 0.299796 1.150040
vb+prs+akt 0.521034 0.657378 -0.060413 0.037920 0.182778 -0.492798 -0.037726 0.121241 0.360346 -0.578665
pro 0.734920 0.835893 -0.021249 -0.565125 0.492175 -1.079055 -0.130139 0.742116 0.266862 -1.204284
aaip2----1a---- 0.350784 -0.787352 0.278648 0.650059 1.170809 -0.566941 0.738906 1.041565 1.063569 1.414752
vb-s---3p-na--- 0.244865 -0.725343 -0.220231 0.057444 0.983904 1.433350 0.454520 -0.019387 0.638523 -0.143711
nn+utr+sin+ind+nom 0.508687 0.729524 -0.206856 -0.053047 0.187671 -0.508790 0.097513 0.170545 0.356948 -0.642427
vbz 0.332561 0.949849 0.567730 0.983418 0.164413 0.319708 0.739186 -1.966463 -0.119809 -0.220926
v,act,ind,pres,sg3 0.167567 1.744423 -0.251495 -0.120837 -0.143431 -1.075060 -0.345852 -2.274547 -0.247735 1.133480
aans1----1a---- -0.105685 -1.245293 -0.462482 0.284932 1.696208 0.761075 -0.310019 -0.015694 0.046778 -0.578187
aafs6----1a---- -0.837254 0.224877 -0.096496 0.709389 1.164042 -0.509288 1.241073 -2.729207 1.475459 -0.404766
rv--6---------- -0.937610 0.058075 0.840974 -0.063810 1.779369 -0.149670 0.343801 -0.870193 0.479489 -0.189177
v_pa 0.583518 0.712667 -0.121411 -0.550035 0.524664 -1.361922 0.190905 1.017190 0.404454 -0.800687
pc 1.131618 1.118116 -0.557769 -0.555379 -0.121286 -0.942354 -0.726877 0.127532 0.414012 -1.087415
ri 0.613518 1.513611 0.509355 -0.982587 0.149318 -0.414487 -0.940690 -0.144706 0.486743 -1.176226
aans2----1a---- -0.813444 -0.432334 -0.359552 -0.275460 0.633886 0.588544 0.683161 -0.085667 0.280635 1.391355
mad 0.378027 0.529339 -0.000543 0.028463 0.199253 -0.298868 -0.016007 0.155012 0.220753 -0.342593
cd 0.001758 0.742776 1.005343 0.879221 -0.161921 -0.733417 0.476835 -1.791064 1.336426 -0.015898
vbn 0.971704 0.351630 0.145843 1.317538 0.025604 -0.369015 0.400456 -1.771342 0.228222 -0.137769
nnnp2-----a---- 0.297726 -0.312948 -0.115488 -0.161255 1.473649 -0.216811 0.538556 0.706132 0.553988 0.388601
ncmsi 0.535024 1.789416 0.236166 -0.926992 -0.024202 0.377848 -0.817333 -0.194575 1.279576 0.182428
cs 1.292538 1.091910 -0.351721 -0.126107 0.153513 -0.453202 -0.821204 0.403453 0.189585 -1.145483
ncfsi 0.119963 2.309862 0.046987 -0.313253 0.405160 0.851232 -0.380627 -0.712857 1.087408 -0.437624
nnns7-----a---- 0.152729 -0.218760 -0.708079 -0.110570 0.873096 0.234115 0.322512 -0.712349 -0.117461 0.938909
aams1----1a---- -0.152208 -0.308059 -0.229086 -1.838578 0.781349 0.911398 -0.689082 -1.933766 0.750662 0.110362
pdns1---------- 0.292314 -0.935688 -0.663351 0.402885 1.544960 0.270747 -0.934685 -0.342242 -0.288884 -0.458505
conj+_ 1.029070 1.095533 -0.191100 -0.236724 0.689318 -1.397380 -0.694803 0.122064 0.444204 -0.353076
aafp1----1a---- 0.717517 -0.791453 -0.236523 0.928608 1.540985 -0.455506 -1.193750 -1.801296 0.914872 0.490339
n,sg,gen 0.952068 1.674113 -0.286380 -0.357912 -0.198671 -1.161076 0.239010 -1.536258 0.252332 0.676180
vptp---xr-aa--- 0.278909 -0.287707 0.384312 0.987484 1.277437 0.375194 0.157243 -0.587077 1.119098 0.149184
pcle 1.151044 1.338002 -0.147090 -0.079313 -0.280712 -1.089225 -0.220084 -1.854914 -0.188844 1.022155
vbg 0.602629 0.543855 0.207453 1.382087 0.123597 -0.098547 0.394937 -1.685344 0.284826 -0.218077
md 1.142543 0.117572 1.349429 1.231680 0.506493 0.116764 -0.200244 -1.983286 -0.869126 -0.463035
to 1.146908 -0.471768 1.367983 1.508004 0.761217 -0.601737 0.234036 -1.312941 -0.628295 0.329444
vb-p---1p-aa--- 0.587640 -0.372461 0.224857 0.469227 1.192071 0.748388 0.441735 -0.406297 0.845455 -0.176554
nnfp6-----a---- -0.047352 0.605948 -0.376129 -0.084596 1.487248 -0.479851 1.507212 -0.744594 0.396573 -0.169536
aais6----1a---- -0.185023 0.420923 0.473695 0.954214 1.727351 -1.346493 1.251096 -1.603868 1.100365 -0.909613
aux+number=sing+person=3+tense=pres 1.054923 0.697577 -0.443569 1.383955 0.733227 -0.744240 -1.477732 0.112715 1.395177 0.038999
nnfs3-----a---- 0.061859 0.283350 -0.700294 0.489097 1.192132 0.095443 0.079187 -0.769785 0.348932 0.885600
prp$ 0.432564 0.165771 0.807830 1.827840 -0.443553 0.152125 0.461867 -1.322523 0.927027 0.414198
ab 0.456220 0.563669 -0.079919 0.004642 0.171512 -0.392821 -0.040356 0.121451 0.237404 -0.464894
adp+case=loc 0.036723 0.129176 0.000429 -0.186498 1.515499 -0.630132 -1.931980 -0.376533 0.037014 1.485372
aafs7----1a---- -0.474691 -0.178372 -0.055404 0.056324 0.870780 0.715249 0.455716 -2.186501 0.452134 1.678038
nnms7-----a---- 0.470836 -0.041957 -0.079602 -0.781413 0.508155 0.242673 0.244808 -1.493674 0.639951 1.058832
aans4----1a---- -0.380637 -0.277723 -0.511988 0.049236 1.543551 1.308907 0.237806 0.730614 0.508797 0.752396
p7-x3---------- 0.569410 -0.523865 0.038350 0.139812 1.183916 0.441441 -0.627787 -0.452441 0.025693 -0.113150
pcle,cc 0.985414 1.634577 -0.119541 -0.093658 -0.061165 -1.351720 -0.247327 -1.793564 -0.190288 0.816939
cp 0.359736 1.463743 0.713659 -0.045423 0.278523 0.488505 -1.012632 0.619555 0.542532 1.021980
aaip1----1a---- 0.509750 -0.335162 0.207654 1.103097 0.889879 -0.359252 -1.059068 -0.925602 1.663064 0.461543
aafp4----1a---- 0.881403 -0.850688 -0.102258 0.864695 1.100931 1.479918 -0.195866 0.169354 0.853519 1.485174
kn 0.453058 0.558926 -0.068295 -0.005597 0.204616 -0.356345 0.004675 0.142401 0.253331 -0.436976
v,act,ind,past,sg3 0.198198 1.547212 -0.264628 0.062449 -0.149967 -0.969970 -0.370663 -2.045609 -0.105248 0.837011
nnms4-----a---- 0.434877 -0.122648 -0.251762 -0.647963 0.650837 0.430248 -0.141759 -0.511588 1.012517 0.100812
pr 1.097813 1.027676 -0.141038 -0.340902 0.071003 -0.580360 -0.692046 0.216831 0.247258 -1.114668
tx -0.631414 1.395422 0.673509 1.094080 0.981681 1.713354 -0.949583 0.595848 0.822034 1.269584
n,sg,par 1.123427 1.546584 -0.127708 -0.103883 -0.207516 -1.039288 0.154144 -1.319264 -0.015783 1.356958
nnixx-----a---8 0.573302 -0.749700 -0.164788 -1.177703 1.221646 -0.216594 0.564542 0.440011 0.838626 0.353440
aaip4----1a---- 0.246772 -0.576361 -0.424027 1.797910 1.400319 0.077721 -0.526819 1.004435 0.864185 0.846948
mid 0.431658 0.522899 -0.063096 -0.009595 0.174544 -0.356472 -0.009337 0.155559 0.292496 -0.435887
pcle,cs 1.225170 1.148918 -0.046501 0.279967 -0.233803 -1.068942 -0.425982 -1.529898 -0.134913 0.735527
nn+utr+sin+def+nom 0.452123 0.522253 -0.088289 -0.049442 0.103951 -0.362597 -0.089820 0.135951 0.244726 -0.478167
nn+utr+plu+ind+nom 0.431584 0.507192 -0.108045 -0.091857 0.145888 -0.377117 -0.047964 0.128441 0.219987 -0.419529
vb-s---1p-aa--- 0.825528 -0.231393 0.000336 -0.134319 1.144022 0.758883 -0.140267 -0.785195 0.525524 -0.311843
x -0.367633 1.261918 1.476075 -0.255958 -0.059036 -1.011396 0.424474 -0.450136 1.039332 -0.439415
dg-------2a---- 0.737521 -0.641234 0.117346 0.211975 1.402828 0.241267 -0.220237 -0.197591 0.266549 0.248888
det+definite=def+prontype=art 0.868687 1.701313 -0.331383 -0.543696 0.838420 -1.408237 -0.398992 0.089658 0.709044 -1.044710
sym 0.956400 1.670194 1.294975 -0.489793 -0.429007 -1.775764 0.812967 -1.078480 0.228105 -0.178813
nnip6-----a---- 0.371758 0.638456 -0.311641 0.592711 1.503552 -0.413718 1.206370 -0.447022 0.574871 -0.067267
intj 1.179808 1.074785 0.238558 -0.132567 -0.466818 -1.135543 0.171533 -0.683433 0.100767 -0.414539
vb-s---3f-aa--- 0.423582 -0.914826 -0.005754 0.146432 0.920202 1.316262 0.587164 -0.167457 0.709930 -0.176365
vsys---xx-ap--- 0.097261 -0.689959 -0.299251 -0.343350 0.733290 0.180483 -0.217540 -0.948930 0.210305 0.290723
pdns4---------- 0.721214 -0.586614 -0.624415 -0.011809 1.028209 0.375838 -0.610287 -0.405038 0.375813 -0.329077
ncnsi 0.013429 1.915220 0.251733 -0.807633 -0.589451 1.104203 -0.158836 0.362188 0.864541 0.950661
nnis3-----a---- 0.171634 0.337300 -0.407769 -0.318677 1.659491 0.232443 0.343410 -0.683215 0.135139 0.695127
adp+case=acc 0.375438 -0.501287 0.060228 0.351312 1.443249 0.122126 -1.514119 0.491948 0.923272 1.468201
aais7----1a---- -0.786715 -0.512674 -0.754907 0.958350 0.893269 0.491206 -0.358134 -1.500300 0.223113 1.203133
nnis6-----a---1 0.680797 -0.078394 -0.202147 -0.123893 1.327697 -0.020280 1.497706 -0.782008 0.403644 -0.159295
psxxxzs3------- -0.235503 -0.658284 -0.327719 0.033106 0.633725 0.290895 -0.085946 -0.626612 0.567296 0.616214
nnmxx-----a---8 0.062685 -0.257982 -0.395288 -2.103251 0.467465 -0.251860 -0.265761 -0.644431 2.101258 0.004280
adv+degree=pos 0.960369 0.321087 -0.001558 0.247631 1.084242 0.577481 -1.030990 0.025309 1.214052 0.730846
nnns3-----a---- 0.124275 0.288219 -0.538134 0.243348 1.579058 0.144857 0.428818 -0.593418 0.260252 1.155878
aans6----1a---- -0.981229 0.625546 0.003183 0.559736 1.154433 -0.032282 1.753052 -1.904408 1.297699 -0.775808
aamp2----1a---- -0.310561 -1.014669 -0.290459 -0.060419 1.563962 -0.526770 0.173625 0.591317 0.746948 0.941403
aamp1----1a---- 0.983990 -0.713177 0.025965 0.885516 0.675354 0.407092 -0.761281 -0.799430 0.544566 -0.001159
propn+case=nom+gender=masc+number=sing 0.184466 0.271481 0.506485 0.339304 0.331146 0.161424 -1.999382 -0.469963 2.338476 -0.436340
sconj+_ 0.743851 1.217616 0.119948 0.325537 0.625880 -0.509038 -0.939605 0.225376 0.431196 0.038475
nnmp4-----a---- 0.252921 -0.055117 -0.686140 0.176591 1.521940 0.436660 0.190619 0.472247 0.431282 0.535335
clitic 0.392816 0.821076 0.214383 -0.398820 0.382636 -0.522455 0.089982 0.767368 0.270231 -0.874823
aaxxx----1a---- -0.665731 -0.389069 -0.236866 -1.324217 0.664487 -0.106998 0.162287 0.011938 1.133188 -0.133259
v,act,infa,lat 0.940963 1.319134 -0.123291 0.113848 -0.128406 -1.024745 -0.012525 -1.424668 -0.072223 0.903866
ncfsd 0.237988 1.881914 -0.330719 -0.379907 -0.338136 1.082320 -0.819736 0.147745 0.443698 0.779008
v_sub 0.468815 0.556411 -0.056575 -0.398596 0.398397 -0.984680 0.073114 0.761334 0.312345 -0.672678
vb+inf+akt 0.375746 0.493627 -0.095581 0.003051 0.137829 -0.349503 -0.070194 0.018182 0.186478 -0.327956
p4ys1---------- 0.025016 -0.088772 -0.968916 -0.977573 1.033038 -0.002196 -0.708937 -0.663988 0.498361 -0.560534
noun+case=gen+gender=masc+number=sing 0.897680 0.297628 -0.598276 -0.449963 0.709743 -0.583562 -1.257409 -0.085583 1.398620 1.097144
npmsi -0.518493 1.195519 -0.052991 -1.379745 -0.270649 1.173196 -1.603434 1.051995 0.761215 0.146323
nn+neu+sin+ind+nom 0.400939 0.440051 -0.064709 -0.012750 0.098760 -0.295936 -0.068786 0.004375 0.176943 -0.326330
ppxta 0.422928 1.342661 -1.142103 0.673676 0.785807 1.336999 -0.885204 1.250268 0.541758 0.951687
noun+case=gen+gender=fem+number=sing 0.605178 0.417565 -0.904566 -0.304857 0.489267 -0.558784 -1.420827 0.511891 1.719511 0.888365
nnfxx-----a---- -0.168260 -0.706537 -0.358982 -1.244693 0.902381 0.007776 0.194843 0.428286 0.899367 -0.193838
v_pp 0.595684 0.638329 -0.052460 -0.315891 0.232268 -0.851147 0.090589 0.686472 0.445273 -0.683708
adp+case=gen 0.580706 0.107779 0.007535 -0.261973 1.203075 -0.488748 -1.122493 0.517584 1.209339 1.276262
noun+case=nom+gender=masc+number=sing 0.362034 0.217940 -0.154711 0.096512 0.343254 -0.162389 -1.167375 0.510352 2.060654 0.151044
vsqw---xx-ap--- -0.068025 -0.759794 -0.583755 0.075526 1.198918 0.353744 -0.037960 -0.328647 -0.063977 0.172786
bn 0.770796 1.032742 -0.329986 -0.303257 0.038736 -0.847714 -0.594775 0.139955 0.436022 -0.968670
nnfp7-----a---- 0.879018 0.444323 -0.278771 0.062300 0.906816 0.113225 0.773805 -0.853963 0.314717 1.103953
adj+case=nom+degree=pos+number=sing+number[psed]=none+number[psor]=none+numtype=none+person[psor]=none+verbform=none 1.221605 1.366068 -0.193288 -0.332615 0.794528 -1.422994 -0.421683 0.268078 0.689190 -0.790052
a,sg,nom 0.603357 1.289855 -0.128392 0.365728 -0.244739 -1.160518 0.029400 -1.565843 0.638996 0.454836
nnip7-----a---- 0.302736 0.502109 -0.549138 0.383930 0.938705 0.074371 0.763764 -0.545780 0.352073 0.900548
n,prop,sg,nom 0.967778 1.325454 -0.713658 0.409288 -0.427862 -1.026435 -0.034734 -1.203102 0.747384 0.252609
ap 0.687644 0.866596 0.342258 -0.071929 0.640934 -0.332839 -0.739164 0.103668 -0.413528 -1.220963
rv--2---------- -0.162361 -0.239937 0.210773 -0.357905 1.182906 -0.111143 0.314619 0.132572 0.022229 1.342525
vm 0.810305 0.955980 -0.239603 -0.246079 -0.055142 -0.732847 -0.826352 0.005906 0.177940 -0.825054
ncmpi 0.545262 1.901030 -0.331971 -0.419081 0.155765 0.822418 -0.545798 -0.463627 0.725607 0.973743
ncfpi 0.364225 1.874877 0.003340 -0.416125 -0.066725 0.648144 -0.464026 -0.699201 0.863455 0.815619
n,pl,nom 0.968542 1.482531 -0.359156 0.232320 0.039215 -1.119031 0.094281 -0.974158 0.030562 0.834567
nnnxx-----a---- -0.104778 -0.439863 -0.507785 -0.803032 0.776655 -0.247488 0.483304 0.023684 0.811546 0.067351
aafp6----1a---- -0.938154 -0.537484 -0.537801 0.873765 1.393318 -0.978661 1.245940 -1.523517 0.403525 0.349569
npfsi 0.190829 1.759039 -0.159528 -0.773369 -0.314318 0.621766 -1.808240 0.150208 0.704513 -0.346438
rv--7---------- -0.393175 -0.426433 0.369835 0.086472 0.716876 0.449482 0.128623 -1.006750 0.020545 0.980033
verb+number=sing+person=3+tense=pres 0.954039 -0.131842 -0.269282 0.965304 0.386920 0.461804 -1.407598 0.080667 1.210594 1.141579
ncmsh -0.125280 1.990764 -0.064531 -0.863627 -0.507416 0.783740 -0.827139 0.056196 0.551945 0.986520
dd 0.580952 1.374219 0.398531 -0.239921 -0.079502 0.290212 -0.875315 0.315174 0.091819 -0.896132
psxxxxp3------- -0.192629 -0.817348 -0.391521 0.409143 0.734493 0.240457 -0.038246 -0.222108 0.475158 0.772766
ncnsd 0.200412 2.173661 -0.133568 -0.439390 -0.264839 0.596596 -0.660405 0.154012 0.740802 1.096519
p4fs1---------- -0.380535 -0.536233 -1.057342 -0.293755 1.502895 -0.070477 -0.585288 -0.101485 0.314509 -0.484737
vpitf-r3s 0.701916 1.342435 0.950178 0.182020 -0.596333 1.242113 -1.020508 0.462614 0.361094 0.485455
vsns---xx-ap--- 0.310635 -0.687904 -0.237852 0.289736 1.649397 -0.066803 0.076626 -0.271658 0.143801 -0.085617
vxitf-r3s 0.764959 1.551207 0.826916 0.459163 -0.198912 0.376777 -1.066797 0.215104 0.608308 0.701007
nnxxx-----a---8 0.240991 -1.019576 -0.900886 -1.657907 1.056617 -0.621211 -0.222234 0.250873 1.833541 -0.662054
nnis2-----a---1 -0.007514 -0.286904 -0.113961 -0.612266 1.302380 0.079439 0.776590 0.305185 0.415009 0.646951
vpys---xr-na--- -0.028042 -0.284274 -0.218462 -0.039952 0.867350 1.034233 -0.435707 -0.365556 0.888693 -0.296681
nnmp7-----a---- 0.398095 -0.019754 -0.531096 0.051905 0.921486 -0.083750 0.497154 -0.520330 0.152824 0.889010
jj+pos+utr/neu+plu+ind/def+nom 0.395924 0.325833 -0.093838 0.041822 0.112460 -0.278157 -0.076100 0.040554 0.173705 -0.276090
noun+case=nom+number=sing+number[psed]=none+number[psor]=none+person[psor]=none 1.251382 1.401953 -0.059743 -0.295413 0.685417 -1.150183 -0.135271 0.456854 0.543396 -0.435001
dq 0.388343 1.395115 0.470825 -0.193760 -0.107544 0.096154 -1.058762 0.248066 0.052479 -0.733843
nnmp3-----a---- 0.368640 -0.156437 -0.514853 -0.135509 1.162116 0.332800 0.045820 -0.152083 0.412898 0.382639
noun+case=gen+gender=masc+number=plur 1.415567 0.249417 -0.414771 -0.566745 0.598966 -0.363560 -0.618337 -0.296944 1.431023 1.369585
noun+case=acc+gender=fem+number=sing 0.935624 0.105573 -1.365256 -0.381741 0.876390 0.233072 -1.334182 0.000214 1.074232 0.835297
hmsi -0.527618 1.971917 0.303565 -0.642879 -0.322620 1.064319 -1.749588 1.188322 0.946212 -0.650934
noun+case=nom+gender=fem+number=sing 0.234805 0.341203 -0.636163 0.445708 0.991350 0.089293 -0.984880 0.471352 1.739434 0.258483
nnnxx-----a---8 0.055387 -0.608212 -0.494297 -0.552791 1.054684 -0.057015 0.407105 0.027320 0.865626 0.279728
vstp---xx-ap--- 0.417043 -0.239411 -0.225935 0.703051 0.968195 -0.061490 -0.540186 -1.163390 0.829562 0.612220
verb+gender=masc+number=sing+verbform=part 0.494792 0.002538 0.137985 0.050724 0.512638 1.304784 -1.250454 0.038976 1.862337 0.515287
di 0.516138 0.975915 0.274859 -0.366375 0.191270 -0.375861 -0.714119 -0.068957 0.193103 -1.012275
pdzs6---------- 0.467926 -0.252934 -0.521647 0.588260 1.021934 -0.338245 0.502346 -1.331791 0.799833 -0.634796
aaxxx----1a---8 0.023044 -0.698017 -0.516324 -0.959122 1.053715 -0.242651 0.263921 0.036086 1.238109 0.191175
a-pi 0.085579 1.712206 -0.149500 -0.059594 0.334298 0.008082 -1.651397 -0.642474 -0.212505 1.405876
aanp2----1a---- 0.137278 -0.509903 0.589248 0.051549 0.795791 -0.616499 0.447894 0.813412 1.494636 0.558262
vb-p---3p-na--- 0.303997 -0.483796 0.063766 0.521765 0.947811 0.567165 -0.174861 -0.164821 1.010386 0.089492
pdzs2---------- -0.218738 -0.673312 -0.466887 -0.056824 0.768178 0.014796 0.127833 -0.227352 0.478605 0.777085
rg+nom 0.393184 0.367945 -0.015473 -0.008632 0.119569 -0.188195 -0.013091 0.045922 0.176405 -0.259338
nnnp4-----a---- 0.598582 0.228425 -0.748494 0.113665 1.398139 0.380328 0.153217 0.293180 0.395326 0.599036
verb+verbform=inf 0.355890 0.177489 -0.516061 0.722447 1.386297 0.540893 -1.164057 -0.051085 0.872884 1.042959
n,pl,par 0.937292 1.263375 -0.145324 0.411200 -0.341391 -0.793522 -0.071893 -1.105767 0.301311 0.700687
vpptf-o3s 0.211547 1.282921 0.867759 -0.313069 -0.458323 1.074601 -1.207182 0.628893 0.446677 0.158501
noun+animacy=inan+case=acc+gender=masc+number=sing 1.005252 0.202032 -0.992255 0.143979 0.798850 0.510108 -0.976186 -0.523018 1.084500 1.015171
aans7----1a---- -0.537032 -0.040624 -0.913974 0.241555 0.095910 0.680147 -0.019240 -0.920545 0.294202 1.407066
nn+neu+sin+def+nom 0.310956 0.331068 -0.053972 0.020233 0.100748 -0.230168 -0.058444 0.067452 0.158245 -0.197234
v,neg,act,sg3 0.667938 1.199944 -0.068038 0.253903 -0.129951 -0.424800 -0.416127 -1.748720 -0.233310 0.825703
db------------1 0.462907 -0.780739 -0.425076 0.080223 1.058442 0.204800 -0.329273 -0.414972 0.197689 -0.021511
fc 0.380238 0.808612 0.379272 -0.206377 0.144156 -0.519418 -0.664606 -0.207767 0.035784 -0.677027
aams2----1a---- -0.280642 -0.302796 0.069066 -1.221008 0.388512 0.212020 0.688434 -0.554869 1.048699 0.576901
pdzs7---------- 0.585859 -0.387399 -0.723079 0.046212 1.070380 0.370153 -0.588721 -0.710534 0.551329 0.045276
nnnp1-----a---- 0.703074 -0.261553 -0.642125 -0.070802 1.121914 0.085163 -0.070927 -0.017104 0.458047 0.422636
aaip6----1a---- -0.482289 -0.391301 0.175151 1.362294 0.839130 -0.772909 0.925836 -0.958884 1.248112 -0.086086
jj+pos+utr+sin+ind+nom 0.178294 0.329232 0.022747 0.015681 0.154875 -0.223312 -0.013814 0.062796 0.215422 -0.182326
dt+utr+sin+ind 0.211198 0.402520 0.021417 0.026736 0.131603 -0.165273 -0.048904 0.074496 0.188482 -0.240950
n,sg,ill 0.836006 1.441294 -0.049768 0.309756 -0.321079 -0.640061 -0.055741 -0.967701 0.385969 0.676648
afsi 0.123403 2.422899 0.432756 0.039676 0.407730 0.605976 -1.114710 -0.358121 -0.509639 0.539091
propn+case=nom+number=sing+number[psed]=none+number[psor]=none+person[psor]=none 1.134205 1.722357 -0.345003 -0.462901 0.587818 -0.633780 -0.170563 -0.181435 0.325792 -0.470751
nnms3-----a---- 0.289379 -0.022562 -0.435169 -1.097808 0.704375 0.609215 -0.075310 -0.648722 0.216127 0.099262
n,prop,sg,gen 0.493980 1.416709 -0.052961 0.245327 -0.228206 -0.948154 0.029799 -1.126207 0.378718 0.297907
aafs3----1a---- -0.623222 0.079112 -0.183478 0.516722 1.526500 0.870432 -0.423020 -1.059655 0.297756 0.760669
nnnp6-----a---- 0.244516 0.604239 -0.224170 0.300673 1.300593 -0.275025 0.956672 -0.367560 0.377350 -0.269564
v,act,pcpnut,sg,nom 0.960379 1.251048 -0.202542 0.220624 -0.366594 -0.818453 -0.032570 -1.181661 0.198221 0.588025
cn-s4---------- 0.545471 -0.501016 0.196118 0.160984 1.212900 -0.597500 0.211897 0.849514 1.180525 0.539713
n,sg,ine 0.896901 1.377562 0.130339 0.326609 -0.219991 -0.706515 0.029771 -0.991292 0.226894 0.606843
nn+neu+plu+ind+nom 0.259092 0.312482 -0.032387 -0.050097 0.130036 -0.200279 -0.069816 0.000612 0.119242 -0.152810
v,act,ind,pres,conneg 0.797605 0.953875 -0.243634 0.397865 -0.228968 -0.462651 -0.356482 -1.605704 0.146546 0.617320
pron,dem,sg,nom 0.943821 0.937402 -0.069989 0.603816 -0.343772 -0.804585 0.113436 -1.232400 0.630229 0.479893
-rrb- 0.226248 0.677272 0.806709 0.695580 -0.083829 -0.158471 0.584035 -1.575253 0.717508 0.012188
amsi -0.105899 1.900809 0.412310 -0.450853 -0.211083 0.646434 -1.688467 -0.063748 -0.340528 0.402982
pron+case=acc+number=sing+reflex=yes 0.428749 0.791829 -0.480133 1.207181 1.642088 0.391993 -1.013817 -0.020898 1.090586 0.213886
-lrb- 0.064180 0.562971 0.954171 0.518382 -0.088542 0.163487 0.618794 -1.989100 0.619596 0.077306
pm+nom 0.266947 0.340059 -0.040807 -0.057709 0.131652 -0.176953 -0.073204 0.062254 0.190068 -0.247109
ncmpd 0.414690 1.759032 -0.316016 -0.512251 -0.221036 1.119770 -0.919339 0.050906 0.605662 0.860495
mc-pi 0.314037 1.440317 -0.413432 -0.663461 0.490964 -0.392289 -1.706674 -0.395174 0.372182 1.597362
nnfp3-----a---- 0.580548 0.243779 -0.274850 -0.005340 0.960899 0.283210 0.279742 -0.675424 0.442954 0.599294
wdt 0.332679 -0.127829 0.366645 1.032738 0.034822 -0.202404 0.612883 -2.075552 0.325306 0.126604
tn 0.446409 1.465173 0.010846 0.737043 0.680181 1.112475 -1.320758 0.439012 0.468318 0.126385
aux+number=plur+person=3+tense=pres 1.720460 0.494047 -0.050016 0.869824 1.295155 0.048492 -0.771873 0.017781 0.789906 0.882836
pi 0.667006 0.825810 0.017634 -0.499954 0.104520 -0.466782 -0.333774 0.033361 0.066695 -0.752313
sn 0.271434 0.284547 0.007259 0.021691 0.137331 -0.142926 -0.100133 0.017422 0.109509 -0.144404
propn+case=nom+gender=fem+number=sing 0.271480 0.711320 -0.339087 0.620135 0.669148 0.557437 -2.094586 -0.296126 1.433211 0.356734
aaip7----1a---- -0.630216 -0.591014 -0.478477 0.859116 0.954440 -0.240610 -0.030839 -0.942110 0.188185 1.597889
vb-p---3f-aa--- 0.575140 -0.503525 0.210781 0.843171 0.944421 0.599597 0.001402 -0.711159 0.816618 0.033178
adv+degree=none+prontype=default 0.992710 1.259353 -0.065067 -0.241030 0.515105 -0.891640 -0.465989 0.117057 0.531943 -0.478830
p4mp1---------- 0.636626 -0.102244 -0.719502 0.266536 1.341505 -0.241549 -0.488454 -0.151314 0.912486 -0.252544
aafp7----1a---- 0.383158 0.061036 0.191857 0.331699 0.448377 -0.253320 -0.078185 -1.634813 1.328192 1.570630
afsd 0.129887 2.648231 0.379331 -0.097526 -0.020909 0.452085 -1.139156 -0.107923 -0.676212 0.968544
dm 0.472782 1.357993 -0.129441 0.289213 0.608398 0.913678 -1.313819 0.215423 0.758880 0.517361
a-pd 0.078128 1.791926 -0.148776 -0.318278 0.094785 0.119815 -1.621305 -0.267943 -0.355927 1.414516
vb-p---3p-aa--1 0.466267 -0.334851 0.097046 0.610920 0.725111 0.784792 0.004788 -0.567220 0.777175 0.027888
adj+case=nom+degree=pos+gender=masc+number=sing 0.636044 1.434554 0.356624 0.954523 0.104037 -0.363652 -0.989715 -0.184155 2.142789 0.298373
noun+case=gen+gender=fem+number=plur 1.112739 0.453466 -0.801919 -0.468356 1.049792 -0.327638 -0.416005 -0.431879 1.427943 1.244405
ncmsf 0.251459 1.691968 -0.219951 -0.136924 0.142572 0.965434 -1.201761 0.446300 0.676864 0.311801
vpys---xr-aa--1 -0.150489 -0.457963 -0.193135 -0.236850 0.636116 0.786024 0.126616 -0.337452 0.988172 -0.130110
wrb 0.611952 0.044530 0.410220 1.007468 0.179020 0.114086 0.437839 -1.843166 -0.118533 0.005289
pn+neu+sin+def+sub/obj 0.236511 0.280584 -0.017964 0.033613 0.091899 -0.108852 -0.099902 0.006185 0.128856 -0.159103
vpitf-r3p 0.867320 1.493543 0.817251 0.481210 -0.275531 0.937614 -1.324103 0.421658 0.259149 0.499548
: -0.016406 0.389530 0.854614 0.554715 -0.097546 0.035489 0.853310 -1.834452 0.568798 0.379258
pdzs3---------- 0.616077 -0.385761 -0.704510 0.299162 1.059958 0.453278 -0.735009 -0.775463 0.257135 0.222483
adv,dem 0.851584 1.072680 -0.095734 0.257095 -0.313580 -0.722795 0.016753 -1.147820 0.147902 0.629618
pdys1---------- 0.170806 -1.148854 -0.537078 -0.372283 0.565901 0.253297 -0.736863 -0.457421 -0.017434 -0.185631
propn+case=gen+gender=fem+number=sing 0.229656 0.577289 -0.590535 -0.366492 0.402960 -0.443775 -1.359709 -0.227120 1.748346 1.011218
pq 0.689982 0.727189 -0.106612 -0.043831 -0.190538 -0.394890 -0.526744 -0.014304 0.011025 -0.317466
no 0.577749 0.655861 0.266125 -0.107211 0.415023 -0.380212 -0.538623 -0.011931 -0.302698 -0.831438
`` 0.155982 0.323459 0.542170 0.872797 0.146674 0.063723 0.593322 -1.668549 0.247416 -0.136992
v,act,ind,pres,pl3 0.364915 1.459252 -0.113309 0.083317 -0.157346 -0.665385 -0.231979 -1.233899 -0.269418 0.605813
rv--3---------- -0.579686 0.008610 0.404516 0.081144 1.268323 0.346764 -0.263715 -0.682228 0.183984 0.733949
verb+number=plur+person=3+tense=pres 1.284794 0.052925 -0.284864 0.856420 0.805395 0.575428 -0.926933 0.142410 0.791060 1.357352
n,sg,ela 0.868545 1.278129 -0.098534 0.381571 -0.275254 -0.708950 0.087031 -0.876158 0.208161 0.679108
'' 0.303922 0.404710 0.534129 0.806455 -0.083029 -0.117036 0.611869 -1.626771 0.688207 -0.172138
vb-p---2p-aa--- 0.530948 -0.242055 -0.110436 0.164630 1.003323 0.638877 -0.161228 -0.317280 0.692028 -0.233276
aais3----1a---- -0.141602 0.093522 -0.025278 -0.015722 1.602567 0.526903 -0.072574 -0.947368 0.621742 0.880372
clxp2---------- 0.011083 -0.567926 0.135450 0.118602 0.969077 -0.767034 0.455939 0.403314 0.869011 1.156609
pd 0.738356 0.786995 0.002463 -0.447201 -0.017370 -0.448224 -0.434203 -0.029391 0.203968 -0.649348
aamp4----1a---- -0.032948 -0.458507 -0.196704 0.439536 0.528735 0.505645 -0.408123 0.347811 0.974162 0.406213
hp+-+-+- 0.248748 0.267272 -0.034852 0.039058 0.102576 -0.168719 -0.091532 -0.040936 0.158280 -0.171291
wp 0.750934 -0.117158 0.121187 0.999181 0.109273 -0.283612 0.325130 -1.817480 0.192460 0.065598
nn+utr+plu+def+nom 0.202351 0.222436 -0.055841 -0.006388 0.117053 -0.169892 -0.087538 -0.002834 0.111324 -0.123510
rp 0.797386 0.269008 0.514015 1.126263 0.389194 -0.193727 0.152408 -1.512060 -0.032757 0.030602
a,sg,par 0.566876 1.251483 0.155710 0.507661 -0.319393 -0.553712 -0.212833 -1.111076 0.327988 0.569204
pad 0.223193 0.287777 -0.041154 -0.002434 0.128742 -0.147148 -0.011128 0.040213 0.149255 -0.090690
noun+case=acc+gender=neut+number=sing 0.716813 0.377443 -0.905918 -0.238292 0.549862 0.133087 -1.337891 -0.109134 1.197767 1.119752
ie 0.177866 0.312395 -0.054298 0.078805 0.088789 -0.123183 -0.117636 -0.059621 0.121800 -0.165616
adv_time 0.300905 0.520518 0.043175 -0.269662 0.224915 -0.456691 0.014107 0.458580 0.187952 -0.554916
vb+prs+sfo 0.185104 0.263367 -0.047093 0.025241 0.067349 -0.189467 -0.060091 -0.016430 0.205598 -0.143718
n,sg,ade 0.858709 1.198379 -0.071001 0.402842 -0.154862 -0.666459 -0.068645 -0.991876 0.312880 0.624926
db------------8 0.038211 -0.537269 -0.746978 -0.447462 1.132075 -0.228421 -0.322672 -0.028737 1.122198 0.091699
nnip3-----a---- -0.086084 0.322305 -0.384910 -0.221065 1.672055 0.203195 0.018541 -0.022646 0.317979 1.018712
noun+case=loc+gender=masc+number=sing -0.039871 0.666116 -1.294362 -0.535831 1.154128 -0.421724 -1.104407 -0.097233 1.246210 0.839676
p4fp1---------- 0.307501 -0.033040 -0.715630 0.095002 1.196758 -0.261967 -0.788576 -0.504695 1.107590 -0.055227
n,pl,gen 0.533910 1.309595 0.041140 0.304094 -0.253338 -0.734778 0.024791 -0.918118 0.410233 0.339413
propn+case=gen+gender=masc+number=sing 0.332814 0.525180 -0.201676 -0.241861 0.274417 -0.391346 -1.401693 -0.464036 1.517875 1.013729
vpns---xr-na--- 0.113037 -0.358837 -0.219470 0.262023 1.134820 0.765339 -0.020762 -0.054020 0.612953 -0.317690
noun+case=gen+gender=neut+number=sing 0.272441 0.587633 -0.607120 -0.557907 0.400686 -0.557694 -0.757944 -0.179653 1.303692 1.261282
nnixx-----a---- -0.226608 -0.507925 -0.380447 -1.132357 0.631222 -0.183822 0.025071 -0.034887 0.959843 -0.010899
dg-------2a---1 0.488336 -0.604284 -0.648810 0.242446 1.181275 0.336204 -0.426426 -0.337918 0.176461 0.177153
adp+case=ins 0.306338 0.166380 -0.064104 -0.003210 0.926735 -0.419126 -1.377807 -0.420126 0.439315 1.313200
verb+gender=fem+number=sing+verbform=part 0.252386 -0.112077 -0.241588 0.642826 0.706745 0.708822 -1.393656 0.015725 1.498020 0.952250
pdfs1---------- -0.105052 -1.230285 -0.570937 -0.170423 0.994943 0.541018 -0.394568 -0.162066 -0.047305 -0.149784
ab+pos 0.205787 0.222775 -0.058135 0.011660 0.115505 -0.083778 -0.077984 -0.028591 0.109484 -0.108473
uh 0.810435 0.184503 0.431236 0.602336 0.145657 -0.406483 0.318780 -1.451218 0.026994 -0.278138
pos -0.283093 0.149338 0.950096 0.806925 -0.054783 0.295828 0.848435 -1.814420 0.766139 0.103861
ncnpi 0.271687 1.754550 -0.028720 -0.460948 -0.043697 0.620827 -0.600989 -0.346383 0.727821 0.968814
noun+case=loc+gender=fem+number=sing 0.121441 0.669991 -1.385740 -0.714312 1.061605 0.036026 -0.984774 -0.113245 1.380005 0.499443
aams4----1a---- 0.246042 -0.426465 0.006274 -0.489981 0.379645 0.460590 -0.130611 -0.523036 1.100163 -0.065497
aanp4----1a---- 0.024751 -0.432724 -0.398024 0.525533 0.859848 -0.028352 -0.499575 0.580721 0.773673 0.788390
jj+pos+utr/neu+sin+def+nom 0.214569 0.240060 -0.046720 0.051752 0.081882 -0.127458 -0.033489 -0.013414 0.148792 -0.079375
hyph -0.158320 0.387265 0.822709 0.719485 0.067664 0.182888 0.851451 -1.816275 0.498196 0.257941
noun+case=nom+gender=masc+number=plur 0.801309 1.147357 -0.432417 0.227389 1.182270 0.399145 -1.088450 0.156162 0.674779 0.749941
dt+utr+sin+def 0.208853 0.254943 -0.061158 0.018052 0.087049 -0.059294 -0.072257 -0.004734 0.087050 -0.106267
ansi 0.413335 1.849752 0.218195 -0.503010 -0.008285 0.701955 -1.177746 -0.139923 -0.205374 0.540099
dg-------3a---- 0.403409 -0.650254 -0.254673 0.235625 1.010588 0.064995 -0.123126 -0.144794 0.298044 0.162014
vpptf-r3s 1.293255 1.444270 0.436328 0.426499 -0.462346 1.592033 -1.199411 0.678599 0.190923 0.473572
adj+case=nom+degree=pos+gender=fem+number=sing 0.181426 0.663321 -0.439166 1.224866 0.736202 0.315714 -0.949252 -0.224179 1.463098 0.758664
adj+case=gen+degree=pos+gender=fem+number=sing -0.120582 0.548845 -0.420566 -0.410494 0.366913 -0.387446 -0.965277 0.411361 1.793554 1.345520
pq--4---------- 0.371701 -0.271077 -0.715648 0.028886 1.230051 0.379321 -0.530318 -0.329656 0.233178 -0.495007
jj+pos+neu+sin+ind+nom 0.235333 0.222112 0.000189 0.021168 0.093693 -0.162070 -0.108263 0.001474 0.117406 -0.133743
pron,pers,sg3,nom 1.082896 0.886354 -0.239302 0.611551 -0.297574 -0.606111 0.179760 -0.776803 0.823040 0.227178
pe 0.691881 0.806802 0.015498 -0.349078 0.004885 -0.445245 -0.429425 0.071288 0.199997 -0.628623
ppxp4--3------- 0.613197 -0.425027 -0.331307 0.190110 1.050919 0.316283 -0.538783 -0.531918 0.211514 -0.106073
vpqw---xr-na--- -0.122335 -0.818973 -0.404056 0.155062 1.050613 0.733647 0.001557 -0.039546 0.610610 -0.096913
aanp1----1a---- 0.158982 -0.427732 -0.334300 0.619884 1.311482 0.113785 -0.286290 -0.310417 0.876969 -0.150810
amsh -0.238254 2.133053 0.243763 -0.566011 -0.939514 0.729615 -1.403219 0.104140 -0.630426 0.907546
ncmt -0.008858 1.957683 0.310008 -0.498133 -0.152371 -0.311615 -0.903918 -0.822028 0.943316 0.699008
v,pass,ind,pres 0.500689 1.231184 0.281482 0.245571 -0.199255 -0.507170 -0.196247 -1.096960 0.068301 0.592283
adj+case=gen+degree=pos+gender=masc+number=sing 0.792627 0.816697 0.179864 -0.560201 0.372816 -0.545576 -1.378491 0.680161 1.256927 1.574954
ncfpd 0.310085 1.817099 -0.337271 -0.404392 -0.190109 1.055073 -0.817400 -0.099551 0.469518 0.703420
num+numtype=card 0.995978 0.750133 0.042624 -0.283846 0.521082 -0.245282 -0.707505 0.080574 1.366359 1.374982
acns------a---- 0.441491 -0.438044 -0.502443 0.681600 1.188593 0.448667 -0.491070 -0.363899 -0.149628 -0.101897
vb+prt+akt 0.169955 0.241774 -0.048912 -0.033372 0.119242 -0.149093 -0.027525 -0.043415 0.103479 -0.070281
vpmp---xr-na--- 0.240815 -0.514009 -0.392066 0.379589 0.950387 0.680759 -0.104102 -0.182763 0.755523 -0.049813
cv------------- 0.338353 -0.463924 -0.430381 0.232535 0.920677 0.098713 -0.106382 -0.321310 0.491108 -0.130530
nnmp1-----a---1 0.761120 -0.176943 -0.128298 0.437132 0.924336 0.120491 -0.457857 -0.550423 0.306033 0.086263
v,act,ind,past,sg1 0.517285 1.155629 0.216847 0.306860 -0.304428 -0.192755 -0.311585 -1.028173 0.129629 0.616913
pdfs2---------- -0.038473 -0.604945 -0.460063 -0.105708 0.873866 -0.005100 -0.027206 -0.656457 0.696050 1.775339
a,sg,gen 0.494292 1.663169 0.116350 0.290983 -0.322405 -0.382745 0.030139 -0.712329 0.332681 0.385590
v,act,ind,pres,sg1 0.521907 1.182422 0.135681 0.240279 -0.252035 -0.320723 -0.197900 -1.100301 0.208706 0.555058
v_aux 0.266548 0.481959 -0.024978 -0.196780 0.220245 -0.399905 0.013830 0.374928 0.219649 -0.465033
nnnp7-----a---- 0.396287 0.140729 -0.317149 -0.121577 1.068762 -0.229784 0.223953 -0.163622 0.443787 0.388488
aans3----1a---- -0.622388 0.540594 -0.410732 0.369012 0.839564 0.353677 0.134973 -0.814337 0.334812 1.100149
pdfs4---------- -0.298972 -0.415434 -0.290093 0.548913 0.799128 0.811398 -0.824249 -0.067583 0.678906 0.546953
p4ip1---------- 0.205472 -0.138114 -0.509457 0.284444 1.156179 -0.236630 -0.673958 -0.195563 0.838415 0.005928
cn-s1---------- 0.369565 -0.661170 0.146871 0.058962 1.411591 -0.644553 0.136661 0.329408 0.645342 0.392587
pdxp2---------- 0.046991 -0.704614 -0.012331 0.125702 0.881570 -0.358743 0.127004 0.237705 0.815294 0.865529
num+numtype=ord 0.293955 1.207232 0.143891 -0.455559 0.726667 -0.096975 -1.344074 0.597332 1.409316 1.434679
aams7----1a---- 0.220330 -0.509445 0.017604 -0.564770 0.355047 0.356880 0.142520 -1.337522 0.724160 0.906171
pp-p3--1------- 0.473286 -0.471241 -0.262536 -0.049181 1.025789 0.102555 -0.426950 -0.573407 0.260236 -0.104433
nnfpx-----a---8 0.553242 -0.477008 -0.398282 -0.705931 0.761776 0.005032 -0.099770 -0.499114 0.827384 -0.148132
nnipx-----a---- 0.031784 -0.558398 -0.804660 -0.464626 0.624821 -0.158721 0.130503 -0.213103 0.936249 0.150435
pl 0.229183 0.202157 0.004853 -0.010554 0.081549 -0.106626 -0.095074 -0.046993 0.151923 -0.143748
v,act,infma,ill 0.578777 1.213437 0.050105 0.470643 -0.313624 -0.596905 -0.023046 -0.915956 0.322049 0.544330
vpqw---xr-aa--1 -0.162166 -0.815871 -0.256737 -0.044720 0.781236 0.565109 0.165503 -0.005898 0.595118 0.112347
adj+case=gen+degree=pos+gender=masc+number=plur 0.915726 0.680682 -0.192873 -0.398173 0.440937 -0.643818 -0.466268 -0.182384 1.342713 1.450023
noun+case=loc+gender=neut+number=sing -0.046545 0.885652 -1.155445 -0.701821 0.714979 0.165907 -0.919578 -0.025494 1.382645 0.688196
dt+utr/neu+plu+def 0.157721 0.169946 -0.009889 0.018890 0.106957 -0.104166 -0.104019 -0.017099 0.095817 -0.018369
vsmp---xx-ap--- 0.414242 -0.250218 -0.282751 0.368400 0.995553 0.122312 -0.148120 -0.605500 0.484019 0.205932
pq--1---------- 0.108986 -0.177428 -0.753986 0.109166 1.143659 0.336810 -0.593203 -0.268547 0.194015 -0.412337
pkm-1---------- 0.407255 -0.103491 -0.857664 -0.136882 1.052001 0.114236 -0.658716 -0.240240 0.277443 -0.288977
clxp4---------- 0.193719 -0.690390 -0.085455 0.726015 0.926114 0.188539 -0.330723 0.217459 0.698512 0.791328
vxitf-r3p 0.658793 1.458951 0.499438 0.358494 0.220546 0.111131 -1.006395 -0.020281 0.528634 1.066357
v,act,cond,sg3 0.398870 1.128210 0.090891 0.265165 -0.210474 -0.435918 -0.094878 -1.230098 0.254735 0.432923
jjr 0.285866 0.302508 0.233420 1.128541 0.021395 -0.266659 0.304783 -1.445894 0.224472 -0.077289
dt+neu+sin+ind 0.206173 0.155150 -0.062452 -0.046418 0.078151 -0.128970 -0.072666 0.016666 0.089629 -0.020344
nnps 0.288897 0.453271 0.253084 0.565579 0.189585 -0.117385 0.829318 -1.529557 0.474627 -0.291992
aafp3----1a---- -0.207900 0.216012 0.085596 0.044561 0.872829 0.630322 -0.080644 -1.024435 0.757171 0.594007
propn+case=loc+gender=fem+number=sing 0.146925 1.221080 -1.172650 -0.627682 0.720159 0.211003 -1.130040 -0.508324 1.431413 0.647410
p4fs4---------- -0.025769 -0.647763 -0.711105 -0.410581 0.976417 0.002671 -0.441177 -0.257595 0.557407 -0.127691
phzs3--3------- 0.481477 -0.539641 -0.169927 0.081042 0.901795 0.383631 -0.486651 -0.430398 0.081773 -0.188405
cn-p2---------- 0.103739 -0.447600 0.089582 0.084767 1.028438 -0.771130 0.480495 0.423248 1.135341 0.898688
ha 0.175763 0.159303 0.012021 0.038884 0.106305 -0.112925 -0.050222 -0.027430 0.132831 -0.037463
ansd 0.286240 1.865423 0.101254 -0.667181 -0.172026 0.482987 -1.030560 -0.167506 -0.194297 0.823090
noun+case=acc+gender=masc+number=plur 0.716499 0.427864 -1.177633 -0.282648 0.694857 0.552326 -1.458173 0.068965 0.704529 1.123445
verb+gender=masc+number=plur+verbform=part 0.582026 0.403738 -0.630748 0.750213 0.962362 0.849987 -1.035234 0.291241 0.936748 1.163562
pdfs6---------- -0.180559 -0.539078 -0.300473 0.401443 0.767653 -0.484409 0.734438 -1.539767 0.803994 -0.201149
clyp1---------- 0.423853 -0.569890 -0.077483 0.522235 0.682787 0.053987 -0.574702 -0.519715 0.754723 0.373427
noun+case=nom+number=plur+number[psed]=none+number[psor]=none+person[psor]=none 0.983281 1.039699 0.081447 -0.095016 0.332509 -0.773243 -0.340579 0.185528 0.325998 -0.117016
aamp3----1a---- 0.579478 -0.055129 -0.305289 0.164938 0.880091 0.458788 -0.233448 -0.553517 0.883646 1.016954
pn+utr+sin+ind+sub 0.191807 0.143539 -0.044578 0.031353 0.106507 -0.116139 -0.100051 0.033606 0.114446 -0.124386
vb+sup+akt 0.145048 0.208761 -0.048853 0.057716 0.120242 -0.091630 -0.084272 -0.042925 0.088331 -0.110317
noun+case=nom+gender=neut+number=sing 0.792128 0.760681 -0.249592 0.316240 0.891676 0.443691 -0.995644 -0.043945 1.100155 0.643586
aanp6----1a---- -0.184362 0.258685 -0.042198 0.961252 0.643415 -0.554290 0.732394 -0.403783 1.110421 0.082614
pdis4---------- -0.059846 -0.426764 -0.198600 0.571068 1.177770 0.476198 -0.401998 0.009708 0.584213 0.446489
pde-os-n 0.385763 1.455143 -0.200338 -0.015370 0.012810 1.013964 -1.072749 0.187349 0.207146 0.565482
pe--1---------- 0.073068 -0.430076 -0.861156 -0.302710 1.260427 -0.390823 -0.334244 -0.105509 0.241480 -0.253387
phzs4--3------- 0.581254 -0.551367 -0.223226 0.205056 0.939617 0.388955 -0.443597 -0.685522 0.115304 -0.052952
p4ns1---------- 0.107956 -0.394260 -0.905676 -0.044309 1.206015 -0.110287 -0.421344 -0.117804 0.451649 -0.249268
ca--4---------- 0.229483 -0.538628 -0.138917 0.083466 1.093918 -0.279649 0.041365 0.042780 0.435803 0.566420
aamp7----1a---- 0.116537 -0.206863 -0.336298 0.347775 0.223779 0.073924 -0.015582 -0.773634 0.531402 0.880504
ppfs4--3------- 0.619009 -0.475541 -0.224700 0.122031 1.040480 0.262802 -0.390676 -0.517130 0.050577 0.040892
pron,pers,sg1,nom 0.774233 0.956895 -0.195712 0.381921 -0.421869 -0.307607 -0.036317 -0.918839 0.215275 0.759377
noun+case=acc+gender=fem+number=plur 0.645156 0.541088 -0.626657 -0.222092 0.338705 0.644390 -1.112750 -0.235450 0.827329 0.925798
vpiif-r3s 0.763343 1.423426 0.327109 0.208329 -0.299712 1.149693 -1.212964 0.587862 0.120070 0.464173
dg-------1n---- -0.052727 -0.359199 -0.421339 0.044675 0.913119 0.082974 -0.209440 -0.398804 0.240678 0.193033
clxs2---------- 0.524650 -0.625546 0.280124 -0.371121 1.327749 -0.557178 0.411028 0.880544 0.840081 0.625494
ppxp3--3------- 0.352138 -0.549663 -0.312951 0.108400 0.857512 0.350932 -0.471874 -0.368304 0.284628 -0.083061
adj+case=gen+degree=pos+gender=fem+number=plur 0.505512 0.879830 -0.330129 -0.445756 0.431416 -0.905632 -0.522440 0.483807 1.231525 1.813955
n,sg,ess 0.645244 1.170480 -0.013304 0.307761 -0.214490 -0.355917 0.084892 -0.871012 0.309547 0.455308
noun+case=nom+gender=fem+number=plur 0.935105 0.597046 -0.697421 0.543858 0.958361 0.371175 -0.927381 -0.345268 0.526239 1.112589
num,card 0.434889 1.265557 0.126983 0.300717 -0.263219 -0.489173 -0.059333 -0.976461 0.325852 0.475278
num,card,sg,nom 0.363511 1.214512 0.277630 0.355640 -0.398745 -0.474672 -0.197366 -0.941063 0.448746 0.317886
p4is4---------- -0.003393 -0.501341 -0.652503 -0.291896 0.784380 -0.144024 -0.428864 -0.175962 0.576265 -0.017178
pp-p2--1------- 0.487265 -0.774265 -0.841990 0.102032 0.806866 0.011522 -0.021303 -0.401217 0.734384 0.222423
aaip3----1a---- 0.231094 -0.280164 0.076300 -0.196256 1.072118 0.421387 -0.094686 0.115522 0.652072 1.116003
a,pl,par 0.689234 1.050207 0.149128 0.629617 -0.256052 -0.558865 -0.088018 -0.768389 0.233823 0.705552
adj+case=acc+degree=pos+gender=fem+number=sing 0.370222 0.152555 -0.630650 0.335629 0.751605 0.623987 -1.332203 0.671676 1.043085 0.902872
clyp4---------- 0.180331 -0.636542 -0.175565 0.955166 0.753623 0.055388 -0.271679 0.265042 0.672399 0.546617
acys------a---- 0.040512 -0.487219 -0.396059 -0.187033 0.877234 0.332080 -0.494198 -0.501282 0.403259 -0.199471
noun+case=nom+number=sing+number[psed]=none+number[psor]=sing+person[psor]=3 0.706536 1.031673 0.006244 -0.247838 0.311707 -0.818367 -0.325988 0.075198 0.487123 -0.129400
vb-s---1p-na--- 0.344384 -0.294058 -0.315074 -0.076768 0.760016 0.490283 -0.214750 -0.091078 0.699281 -0.150541
noun+case=acc+number=sing+number[psed]=none+number[psor]=none+person[psor]=none 0.882618 0.989697 0.046100 -0.033283 0.308590 -0.611825 -0.346335 0.132267 0.324942 -0.096254
vpptcv--p-i 0.443677 1.479804 -0.039169 -0.252111 -0.240839 0.695527 -0.994301 -0.107694 0.302225 0.748471
n,sg,all 0.560188 1.195417 0.027423 0.460159 -0.152195 -0.413966 0.018356 -0.674009 0.347662 0.390831
p5xp2--3------- 0.522320 -0.475170 -0.818484 0.101930 0.663982 -0.073719 -0.106985 -0.275852 0.704979 0.332912
pron,qnt,sg,nom 0.583473 0.909693 0.109157 0.538801 -0.147853 -0.424256 -0.003649 -0.941612 0.380407 0.364462
jjs -0.205468 0.318555 0.340483 0.902293 0.288922 -0.181064 0.523096 -1.391958 0.197319 0.035533
crfs6---------- -0.374148 -0.249489 -0.283464 0.377840 0.857415 -0.337782 0.587958 -1.225160 0.893581 -0.224438
adj+case=nom+degree=pos+gender=masc+number=plur 0.768935 0.787137 -0.128228 0.641390 0.788844 0.651331 -0.809911 0.024679 0.760451 0.881973
vb-p---1p-na--- 0.264145 -0.196244 -0.324542 0.247497 0.894037 0.607840 -0.219499 -0.114299 0.718067 0.039859
psxto 0.552201 1.912283 0.311403 -0.635022 0.269425 0.649895 -0.769086 0.364199 0.297511 0.678900
v,act,ind,past,pl3 0.380055 1.298679 -0.105338 0.326689 -0.180064 -0.362529 -0.270419 -0.789502 -0.045460 0.469396
pron,dem,sg,gen 0.542905 1.140996 0.037815 0.392132 -0.312718 -0.389146 -0.021448 -0.760649 0.203846 0.403544
plmp1---------- 0.717488 -0.378782 -0.149735 0.402910 0.911619 0.221886 -0.500820 -0.320616 0.417722 -0.169893
plxp2---------- 0.027089 -0.606309 0.006618 0.067114 0.824952 -0.481411 0.282780 0.318158 0.693790 0.843497
a,pl,nom 0.444350 1.197410 -0.069075 0.407410 -0.204264 -0.553959 -0.023068 -0.677518 0.056089 0.504345
p8zs2---------- -0.271524 -0.373421 -0.164855 -0.270552 0.524905 -0.138516 0.448290 -0.294485 0.565154 0.890573
p8is4---------- -0.052356 -0.422389 -0.279601 0.423614 0.941598 0.484187 -0.368721 0.082910 0.660112 0.533697
ab+an 0.165910 0.203727 -0.036398 0.019688 0.129921 -0.091242 -0.046803 -0.005587 0.103343 -0.079319
vpmp---xr-aa--1 -0.079812 -0.313391 -0.147732 0.273865 0.718036 0.360784 -0.090271 -0.298211 0.694213 0.010053
ex 0.454498 -0.006151 0.001743 0.874432 0.025050 -0.519538 0.416309 -1.323158 0.197091 0.037544
vpptf-o3p 0.398389 1.495016 0.637738 -0.179506 -0.016667 0.616610 -0.977317 0.418778 0.179263 0.557974
p8fs4---------1 -0.513872 -0.270503 -0.375264 0.262000 0.815072 0.542287 -0.624908 -0.091259 0.515343 0.581204
verb+aspect=none+definite=ind+mood=ind+number=sing+person=3+tense=past+verbform=fin+voice=act 0.699204 0.948781 -0.079518 -0.134988 0.298927 -0.738853 -0.384974 0.070631 0.351424 -0.031246
adj_cmpr 0.186547 0.359957 0.000357 -0.141177 0.130389 -0.320033 -0.030675 0.250547 0.147733 -0.347794
vc-p---1------- 0.978741 -0.382316 0.367890 0.234350 0.872835 0.328832 -0.563950 -0.436451 0.150883 -0.090410
pn+utr+sin+def+sub 0.148852 0.198823 -0.042168 0.013046 0.076838 -0.089382 -0.107137 -0.044995 0.063833 -0.096620
v,pass,pcpnut,sg,nom 0.633034 0.983640 0.095688 0.694806 -0.210056 -0.489201 0.045768 -0.663289 0.314287 0.330305
ph-s3--1------- 0.205592 -0.555458 -0.305195 0.269825 0.943445 0.294634 -0.412480 -0.476959 0.097124 -0.140026
vc-s---1------- 0.639893 -0.295011 0.001787 -0.102965 0.808913 0.138513 -0.728980 -0.551017 0.253974 -0.049600
clys1---------- 0.378438 -0.636484 -0.516243 -0.426862 0.624516 0.036971 0.009853 -0.209774 0.746468 0.333391
rv--4---------- -0.306070 -0.483357 0.245114 -0.024465 0.956783 0.393223 -0.041975 0.077636 0.501056 0.480457
symb 0.722999 0.691909 -0.043583 0.016652 -0.531936 -0.645434 0.222380 -0.587968 0.170117 0.384633
adp+_ 0.723826 0.863094 -0.118528 -0.198145 0.266738 -0.762707 -0.354043 -0.058295 0.383887 -0.206736
verb+aspect=none+definite=ind+mood=ind+number=sing+person=3+tense=pres+verbform=fin+voice=act 0.684001 0.910237 -0.092592 -0.130383 0.251463 -0.723950 -0.417402 0.016534 0.409676 -0.056302
ca--1---------- 0.250863 -0.652060 -0.071137 0.211909 1.121206 -0.526543 -0.036276 0.013776 0.532756 0.268364
clxp6---------- -0.262956 -0.148208 -0.041036 0.375663 0.671102 -0.458547 0.517134 -0.590794 0.596040 0.279627
vptp---xr-na--- 0.121772 -0.265405 -0.171014 0.304916 0.860356 0.307477 -0.332719 -0.340915 0.787486 0.282123
jj+kom+utr/neu+sin/plu+ind/def+nom 0.119586 0.106158 -0.010718 0.033782 0.048179 -0.092724 -0.032881 -0.037012 0.131829 0.005593
pp-p4--1------- 0.305390 -0.602665 -0.617748 0.063152 0.854027 0.130650 -0.319323 -0.313013 0.324536 0.065764
clxp1---------- 0.264575 -0.479569 -0.081272 0.415717 0.740203 -0.014615 -0.482438 -0.430698 0.728786 0.395113
nfp 0.226601 0.264469 0.485252 0.466083 -0.000842 -0.137906 0.352236 -1.148257 0.428630 0.049612
noun+case=ins+gender=masc+number=sing 0.513903 0.578847 -0.687881 -0.312979 0.772253 -0.181585 -1.217137 -0.267945 0.848210 0.750434
vnitf-r3s 0.770904 1.368849 0.332828 0.347385 -0.148334 0.813613 -1.127402 0.341435 -0.034619 0.428815
t 0.425811 0.850773 0.196907 -0.130023 0.153712 0.102447 -0.632209 0.137855 -0.252216 -0.474004
amsf -0.042718 1.732000 0.330391 -0.180183 -0.300576 0.597980 -1.300699 0.391136 -0.581413 0.197268
vb-s---3f-na--- 0.206977 -0.629126 -0.165164 0.075657 0.854923 0.759665 0.019767 -0.240949 0.250463 -0.028583
ppe-os3m 0.427910 1.167485 -0.215121 0.097666 0.259629 0.853019 -1.164204 0.532657 0.357558 0.368223
ncnpd 0.268031 1.864250 -0.335487 -0.532151 -0.500244 0.684313 -0.867709 -0.127633 0.392997 0.725970
nnxxx-----a---- 0.002692 -0.397475 -0.548302 -0.655155 0.696439 -0.172199 0.025092 -0.198081 0.979381 0.160471
vb+inf+sfo 0.148441 0.146250 -0.053128 0.013097 0.107651 -0.080534 -0.066666 -0.035483 0.078874 -0.105636
vxitf-t3s 0.504991 1.307157 0.470715 0.089758 0.287810 0.343979 -1.147610 0.375933 0.600475 0.646876
crfs2---------- 0.081457 -0.417227 -0.392893 -0.196140 0.747577 -0.194764 0.266659 -0.471285 0.776571 1.265326
vpptf-r3p 1.037149 1.319629 0.304897 0.168828 -0.254464 1.090384 -1.057260 0.462149 0.118037 0.605746
n,pl,ela 0.747538 1.060080 -0.006019 0.416596 -0.078145 -0.406723 0.008711 -0.627108 0.358734 0.423546
pc+prs+utr/neu+sin/plu+ind/def+nom 0.099731 0.146100 -0.063173 -0.008898 0.086850 -0.032900 -0.074323 -0.009028 0.100216 -0.026600
aafs1----2a---- 0.203532 -0.901299 -0.530715 -0.122438 0.910222 0.182850 -0.191763 -0.268187 0.230062 -0.006029
nn+neu+plu+def+nom 0.141145 0.092904 -0.033333 0.020610 0.116447 -0.036095 -0.069955 -0.035658 0.051557 -0.008205
nnms3-----a---1 0.048875 -0.021351 -0.104518 -0.790958 0.414863 0.337479 -0.073856 -0.613849 0.536964 0.249877
p4fp4---------- 0.047638 -0.594396 -0.549857 -0.101883 0.930159 -0.106941 -0.396216 -0.073783 0.563310 0.108702
adj+case=acc+definite=ind+degree=pos+gender=masc+number=sing 0.371871 0.061345 -0.428167 0.414356 0.504093 0.653268 -1.097608 0.048483 0.745397 1.033930
clhp1---------- 0.299330 -0.523478 -0.042293 0.449934 1.004373 -0.039573 -0.507429 -0.657441 0.665010 0.292455
aafs1----1n---- -0.124564 -0.909274 -0.524850 -0.256589 0.724077 0.081960 -0.266602 -0.067761 0.263635 0.087073
p8xp2---------- 0.040596 -0.601374 0.058886 0.206957 0.904636 -0.493621 0.301904 0.261223 0.840270 1.061134
vpptcv--smi 0.294560 1.466936 0.165855 -0.304780 -0.355713 0.953740 -1.108860 0.131583 0.072126 0.447972
p4yp4---------- 0.148121 -0.590977 -0.563077 -0.044667 0.986848 -0.173000 -0.389440 -0.015951 0.604278 0.056408
c}------------- -0.000353 -0.412014 -0.674675 -0.746770 0.714020 -0.198568 0.210180 -0.286027 0.997883 -0.052082
adv_i 0.263331 0.283997 -0.041144 -0.153111 0.098251 -0.279222 -0.081002 0.183276 0.137261 -0.288643
pron,dem,sg,par 0.539477 0.917792 0.056025 0.455482 -0.282124 -0.346022 -0.185925 -0.791818 0.313247 0.423359
num+case=nom+number=sing+number[psed]=none+number[psor]=none+numtype=card+person[psor]=none 0.606518 0.920510 -0.205754 -0.195443 0.189803 -0.688527 -0.389206 -0.068400 0.448081 -0.143736
p8yp4---------1 0.211219 -0.481367 -0.113671 0.640958 0.781592 0.149616 -0.396941 0.035706 0.644607 0.489035
gw 0.361397 0.125739 1.446356 0.838818 0.078625 -0.196506 -0.156962 -1.181102 0.713335 0.369392
v,pass,ind,past 0.409333 1.027526 0.170729 0.302617 -0.121733 -0.445138 -0.116796 -0.763171 0.063847 0.382410
a2--------a---- -0.056020 -0.185158 -0.627193 -0.267208 0.794370 -0.102558 0.305389 -0.105646 0.622530 0.386780
n,prop,sg,ine 0.485367 1.017562 0.125380 0.601160 -0.161604 -0.353125 -0.022604 -0.580626 0.288587 0.492316
vpitf-r1s 0.626425 1.285987 0.132914 0.236681 -0.211854 1.193305 -1.238491 0.138045 0.230207 0.187627
add 0.216656 0.289230 0.580584 0.411031 0.027991 -0.159311 0.298203 -0.877850 0.570961 0.068143
adj_sup 0.179595 0.304467 0.085002 -0.098139 0.169327 -0.229801 0.036914 0.243625 0.148703 -0.329399
v,act,ind,past,sg,conneg 0.554688 0.776566 -0.017397 0.535849 -0.184138 -0.330583 -0.213919 -0.870563 0.270423 0.451509
adv+degree=sup 0.659314 0.323729 -0.173551 -0.141300 0.608404 0.534383 -1.204165 0.284735 0.966582 0.731711
adv_neg 0.139179 0.325338 0.015186 -0.152680 0.128655 -0.288395 -0.053032 0.209007 0.123755 -0.252681
clxp7---------- -0.114392 -0.160475 -0.106746 0.142535 0.593150 -0.072746 -0.071972 -0.554818 0.653357 0.776118
vppif-o3s 0.471299 1.529323 0.286011 -0.174003 -0.250064 0.859298 -1.127516 0.190037 0.247565 0.432236
propn+case=loc+gender=masc+number=sing 0.032868 1.371007 -0.777894 -0.467280 0.551508 0.263730 -1.005613 -0.096773 1.186992 0.551843
clhp4---------- 0.211064 -0.398642 -0.168897 0.423971 0.788209 0.351361 -0.176824 0.151942 0.881550 0.770227
aufs1m--------- -0.007802 -0.988610 -0.501517 -0.548306 0.817808 -0.141901 0.007702 0.177816 0.509985 -0.101291
fw 0.142487 0.361521 0.245086 0.346111 0.020818 -0.193781 0.382191 -0.576134 0.325879 -0.147837
nn+utr+sin+def+gen 0.099300 0.109267 -0.030642 -0.043968 0.039384 -0.043272 -0.072705 -0.039549 0.126611 -0.004007
rbr 0.243537 0.191687 0.331334 0.840258 0.075859 -0.155601 0.438438 -1.237181 0.037967 0.170114
nn+an 0.127665 0.094003 0.001542 0.007658 0.084353 -0.075908 -0.059041 -0.007635 0.086752 0.007193
pc+prf+utr+sin+ind+nom 0.082186 0.170513 -0.006677 -0.035721 0.101875 -0.078173 -0.064965 0.002493 0.074388 -0.037336
psfsxfs3------- -0.246809 -0.485696 -0.325310 -0.019014 0.763040 0.294995 -0.108584 -0.300061 0.471032 0.481054
p8zs6---------- -0.283885 -0.193168 -0.258674 0.210470 0.729422 -0.350132 0.650894 -0.880989 0.595161 -0.195549
ti 0.361933 1.386994 0.026161 0.418993 0.394424 0.938241 -0.979252 0.453033 0.308607 0.515175
vpiif-r3p 0.914957 1.442789 0.230357 0.112900 -0.475175 0.995952 -0.968224 0.263622 0.025549 0.686532
dt+neu+sin+def 0.077929 0.148891 0.003806 0.002549 0.045187 0.008159 -0.076066 -0.046265 0.085321 -0.024702
pz--4---------- 0.300239 -0.270309 -0.562691 0.301737 0.843696 0.089395 -0.181545 -0.011524 0.305909 0.120528
rr--x---------- -0.163089 -0.325782 -0.099681 -1.149264 0.640037 0.050007 -0.173935 -0.056925 0.773157 0.185628
adv,interr 0.497647 0.840597 0.019094 0.571108 -0.162764 -0.202916 -0.157641 -0.634139 0.202947 0.430298
v,neg,act,sg1 0.589583 0.760358 0.012160 0.509524 -0.257147 -0.006129 -0.279711 -0.825250 -0.059668 0.481652
pc+prf+utr/neu+plu+ind/def+nom 0.110298 0.124143 -0.025820 0.032778 0.064511 -0.057377 -0.096140 -0.063330 0.085596 -0.057732
aux+verbform=inf 0.444868 0.566704 -0.382077 0.590043 0.710695 0.425332 -1.001996 0.007630 1.094906 0.633259
vb-s---1p-aa--1 0.245429 -0.237395 -0.349485 0.140304 0.799199 0.419926 -0.237350 -0.111439 0.615173 0.032861
$ 0.339148 0.448558 0.376812 0.186718 0.060190 -0.238173 0.774800 -1.150568 0.159023 0.288976
crfs1---------- -0.140273 -0.895472 -0.428934 -0.258095 0.775902 0.108321 -0.183836 -0.031743 0.286149 0.154335
pdmp1---------- 0.369112 -0.260853 -0.227232 0.105168 0.653637 0.299511 -0.345360 -0.239100 0.409559 0.083579
vf--------a---1 0.341145 -0.277717 -0.291542 0.007297 0.882064 0.139775 -0.382871 -0.410375 0.410164 -0.043095
aafs4----2a---- -0.158413 -0.406838 -0.250391 0.237242 0.729205 0.321734 -0.409363 0.044544 0.658625 0.436695
hfsi 0.026017 1.372936 0.228013 -0.633576 -0.145856 0.411720 -1.251293 0.397747 0.591673 -0.225794
aams3----1a---- 0.020850 0.024987 -0.204667 -0.543528 0.524656 0.351506 -0.196363 -0.450274 0.402879 0.234491
aais1----2a---- 0.180362 -0.709163 -0.267829 -0.118826 0.533577 0.090956 -0.387864 -0.231384 0.399746 0.173988
pwm-1---------- 0.235192 -0.510234 -0.382178 0.157379 0.758132 0.243818 -0.309216 -0.280176 0.243761 -0.100780
adj+case=nom+degree=pos+gender=fem+number=plur 0.846712 0.798654 -0.299274 0.552808 0.623698 0.492377 -0.659286 -0.267356 0.706304 1.077704
part+negative=neg 0.316794 0.885558 -0.219898 0.372451 0.813962 0.575948 -1.090114 0.082054 0.839559 0.555599
pdfp1---------- 0.319030 -0.434722 -0.215561 0.334321 0.896200 -0.021016 -0.629036 -0.492619 0.681684 0.262602
vi-p---1--a---- 0.360029 -0.288741 -0.246428 0.029912 0.786162 0.324778 -0.165710 0.076604 0.668773 -0.075997
aans1----1n---- 0.150606 -0.485753 -0.522026 -0.188776 0.853353 0.026261 -0.390163 -0.157191 0.325355 -0.141617
pw--4---------- 0.212919 -0.247321 -0.142974 -0.061676 0.685287 0.293214 -0.230253 -0.286796 0.000293 0.251568
vpns---xr-aa--1 0.109120 -0.449745 -0.210656 0.014437 0.666842 0.202897 0.205896 0.041320 0.534762 0.141816
x+_ 0.510127 0.722893 0.250538 -0.394581 -0.133145 0.099639 -1.118337 -0.402846 1.594396 0.564464
adj+case=nom+degree=pos+gender=neut+number=sing 0.461458 0.709616 -0.342679 0.661146 0.421109 0.480794 -1.209216 0.046792 0.811177 0.637698
adv+degree=none+prontype=neg 0.570745 0.820636 -0.052284 -0.056552 0.258378 -0.418354 -0.297160 -0.032556 0.342494 -0.046444
pcle,interj 0.494886 0.785048 0.134719 0.620557 -0.197248 -0.221251 0.037887 -0.667323 0.259292 0.367187
aais1----1n---- -0.051441 -0.695914 -0.500066 -0.099245 0.525379 0.016356 -0.231047 -0.209658 0.304915 0.105256
pzxp2---------- -0.000075 -0.517071 -0.061899 0.077947 0.753997 -0.292280 0.155685 0.142346 0.465629 0.805994
nnmxx-----a---- -0.005170 -0.376534 -0.285440 -1.095658 0.453429 -0.106349 -0.097931 -0.586716 1.062487 0.162876
agfs1-----a---- -0.078742 -0.776497 -0.386601 -0.073999 0.674196 0.354404 -0.165830 0.006992 0.524209 0.121886
aux+number=sing+person=3+tense=past 0.669913 0.451208 -0.113934 1.111175 0.782585 0.082399 -0.863279 0.117459 0.859829 0.332547
noun+case=ine+number=sing+number[psed]=none+number[psor]=none+person[psor]=none 0.633926 0.812383 0.035522 -0.143260 0.251562 -0.458181 -0.331199 0.076053 0.300882 -0.013138
adj+case=acc+degree=pos+gender=masc+number=plur 0.801824 0.676699 -0.288586 0.215531 0.499186 0.601153 -1.384710 -0.043305 0.562941 1.096868
crns6---------- -0.313503 -0.186798 -0.177843 0.269914 0.844500 -0.246337 0.765226 -0.761789 0.517223 0.045517
noun+case=ins+gender=fem+number=sing 0.407333 0.869668 -0.405605 -0.173217 0.721382 0.034921 -1.014196 -0.154161 0.710035 0.739665
n,sg,tra 0.428319 1.095859 0.168528 0.567764 -0.188073 -0.305661 -0.028102 -0.444104 0.278939 0.497974
plys1---------- 0.234238 -0.504731 -0.335888 -0.537173 0.645836 0.271680 -0.270558 -0.544344 0.443176 0.043516
ppzs4--3------2 0.390561 -0.461641 -0.258139 0.070836 0.786720 0.107086 -0.324528 -0.317836 0.154936 0.143001
pzm-1---------- 0.392576 -0.293678 -0.302837 0.001906 0.853032 0.248639 -0.348283 -0.360178 0.272112 -0.028097
n,pl,ine 0.489073 0.940989 0.033472 0.504476 -0.183959 -0.317661 -0.100789 -0.459824 0.330444 0.396332
aans1----2a---- 0.339838 -0.592138 -0.237680 0.098721 0.785323 0.291659 -0.380397 -0.116186 0.215997 -0.141494
ab+kom 0.117410 0.147273 -0.023894 0.036968 0.067267 -0.011079 -0.023451 0.022529 0.063424 0.008268
vniif-r3s 0.887209 1.006642 0.093701 0.443426 -0.253953 1.080215 -1.126285 0.484271 0.087356 0.310246
n,sg,gen,px3 0.477226 0.920167 -0.090311 0.320720 -0.270797 -0.438894 -0.015962 -0.586435 0.332438 0.384567
verb+gender=neut+number=sing+verbform=part 0.381378 0.514758 -0.065736 0.263898 0.472686 0.624679 -1.006834 0.128849 0.872246 0.786574
nnms6-----a---- 0.221122 0.070211 -0.307247 -0.240233 0.684142 -0.093733 0.031245 -0.266149 0.650920 0.084377
pn+utr/neu+sin/plu+def+obj 0.127423 0.147794 -0.050441 -0.021471 0.065092 -0.063602 -0.065391 0.015254 0.077147 -0.022823
v,act,ind,pres,sg2 0.358941 0.965000 0.149291 0.462116 -0.157975 -0.241678 -0.146560 -0.717582 0.112331 0.489506
md-pi 0.307802 1.428200 0.117945 0.127516 0.161368 0.706799 -0.984639 0.123818 -0.050184 0.699548
pn+utr/neu+plu+def+sub 0.115765 0.091804 -0.006957 -0.020638 0.061185 -0.048670 -0.027653 -0.011986 0.057150 -0.059882
mofsi 0.060355 1.840302 0.189134 -0.489477 -0.176729 0.666691 -1.112604 -0.147230 -0.456797 0.520685
cn-p6---------- -0.180295 -0.116870 -0.045483 0.457830 0.568914 -0.476521 0.327952 -0.367487 0.668157 0.273116
adj+case=nom+degree=none+number=sing+number[psed]=none+number[psor]=none+person[psor]=none+verbform=partpres 0.574946 0.830097 -0.085897 -0.111010 0.242756 -0.537094 -0.304902 -0.050552 0.261414 -0.014328
p8zs7---------- -0.161413 -0.247273 -0.409986 -0.041686 0.637290 0.265834 -0.122123 -0.502054 0.401669 0.513823
pron,qnt,sg,par 0.425669 0.929868 0.156482 0.382709 -0.168668 -0.281495 -0.056078 -0.619276 0.255011 0.440154
pp-s1--1------- 0.202884 -0.166208 -0.139884 0.033953 0.839053 0.263919 -0.342673 -0.488880 0.405384 -0.116405
pron,dem,sg,ela 0.483457 0.845893 -0.049159 0.485968 -0.208922 -0.369954 0.069279 -0.616081 0.236385 0.389817
adj+case=acc+degree=pos+gender=fem+number=plur 0.658392 0.705119 -0.262162 0.226175 0.348253 0.599341 -1.046608 -0.182835 0.622776 1.286927
crfs4---------- -0.114496 -0.260632 -0.411178 0.105332 0.713816 0.336019 -0.424225 0.027751 0.490307 0.481103
pron,pers,sg2,nom 0.570892 0.724604 0.162113 0.189931 -0.154784 -0.270777 -0.182434 -0.922895 0.160955 0.456298
pre-op 0.496911 1.088958 -0.157323 -0.287262 -0.042795 0.982667 -1.230527 0.115910 0.282106 0.314173
pdt 0.128113 0.807128 0.386531 0.725247 0.205036 0.046253 0.105643 -1.075472 -0.014739 0.063912
aufs2m--------- -0.227300 -0.470054 -0.331665 -0.250739 0.725934 -0.065540 0.105062 -0.444413 0.622240 1.030373
p8fs2---------1 -0.231158 -0.324203 -0.164646 -0.172656 0.654764 0.044961 0.035417 -0.374789 0.587695 0.865965
vpptcv--sfi 0.527484 1.451892 0.063055 -0.205408 -0.146195 0.899243 -0.936708 -0.065700 0.103609 0.494720
nnmpx-----a---- 0.025130 -0.288104 -0.273998 -0.720151 0.618146 -0.109603 -0.067641 -0.254322 0.759241 0.099277
v,act,imprt,sg2 0.302097 0.708921 0.076767 0.339709 0.015989 -0.204415 -0.062976 -0.448755 0.239707 0.341442
cris4---------- -0.062981 -0.291812 -0.158017 0.408137 0.767529 0.359647 -0.209220 0.158204 0.772195 0.467902
acmp------a---- 0.310181 -0.238962 -0.189775 0.376892 0.807494 0.123948 -0.395518 -0.191251 0.244320 0.040329
adj+case=nom+degree=pos+gender=masc+number=sing+verbform=part 0.415834 0.818051 -0.071308 0.180701 0.287928 0.317039 -0.897033 -0.108543 1.291983 0.497504
ca--2---------- 0.105407 -0.412042 -0.184007 0.155280 0.639505 -0.284761 0.303285 0.099000 0.635966 0.666075
pdip1---------- 0.182995 -0.177186 -0.173288 0.250596 0.667614 0.096441 -0.599910 -0.361087 0.631895 0.345195
vpptcao-smi 0.335524 1.274926 0.255841 0.140332 -0.100752 0.721492 -1.037702 0.343623 0.292817 0.216264
foreign 0.284380 0.899419 0.391387 0.128867 -0.338201 -0.694008 -0.029047 -0.575303 0.060376 0.548163
rf------------- 0.078686 0.012688 -0.449117 0.176318 0.914040 0.233750 -0.207828 -0.447326 0.446938 0.350864
adv,cmp 0.509898 0.931899 0.125139 0.439585 -0.257536 -0.329981 -0.066837 -0.699148 0.289596 0.369574
cris1---------- 0.023668 -0.598423 -0.398786 -0.127680 0.414440 0.017932 -0.320170 -0.123064 0.233558 0.170267
propn+case=acc+gender=fem+number=sing 0.569973 0.830542 -0.603509 -0.039470 0.396720 0.542787 -1.152475 -0.050986 1.003062 0.536318
psxp2-p1------- -0.081205 -0.533148 -0.235026 -0.002534 0.707891 -0.394509 0.207213 0.041101 0.626568 0.729165
vi-p---2--a---- 0.068345 -0.226622 -0.335265 0.004285 0.631672 0.268265 -0.082328 -0.062827 0.526330 0.188461
p8ns4---------1 -0.082758 -0.188775 -0.205436 0.191516 0.852901 0.410260 -0.038173 0.138244 0.436783 0.540023
pron,dem,pl,nom 0.479611 0.872033 -0.006959 0.564628 -0.153106 -0.275441 0.042895 -0.542567 0.190494 0.493535
npnsi 0.133680 1.231874 -0.098286 -0.683131 -0.413873 0.804302 -1.158681 0.162406 0.216497 0.132223
adv_comp 0.103771 0.220791 -0.001510 -0.110270 0.094374 -0.164025 -0.029269 0.116048 0.078688 -0.174347
p1xxxxp3------- -0.048255 -0.413464 -0.446920 0.053508 0.707510 -0.127652 -0.290407 -0.151698 0.667817 0.159369
adj+case=loc+degree=pos+gender=fem+number=sing -0.128962 1.093603 -0.457897 -0.541400 0.861780 -0.364700 -0.998078 -0.077492 0.561088 0.879862
pzmp1---------- 0.372533 -0.333415 -0.242404 0.200047 0.572576 0.025254 -0.388972 -0.311458 0.380140 0.100587
auis1m--------- -0.025388 -0.817571 -0.388011 -0.214082 0.381043 0.130411 -0.275216 -0.280820 0.097576 0.312101
vpitf-m3s 0.552990 1.390818 0.468988 0.129223 -0.108672 1.017013 -1.021392 0.391261 0.258847 0.289917
agis1-----a---- -0.057311 -0.449947 -0.362070 -0.004802 0.520115 0.158263 -0.210650 0.018299 0.443555 0.322018
plyp4---------- 0.205399 -0.428849 -0.203414 0.446575 0.639498 0.282551 -0.354359 -0.017035 0.569820 0.545775
pron,rel,sg,nom 0.515670 0.887439 0.041095 0.758177 -0.154311 -0.344374 0.043677 -0.511940 0.485896 0.329285
pdxp6---------- -0.223844 -0.395153 -0.181271 0.367847 0.471592 -0.383167 0.174826 -0.542531 0.541916 0.195790
propn+animacy=inan+case=acc+gender=masc+number=sing 0.457612 0.693710 -0.399394 0.168324 0.191178 0.667278 -1.109606 0.021956 0.991454 0.383989
v,act,pcpnut,pl,nom 0.345900 1.025677 -0.043743 0.393852 -0.182243 -0.229683 -0.067588 -0.535132 0.043467 0.425518
pn+utr+plu+def+sub 0.038766 0.100441 -0.036175 0.013896 0.076101 -0.076881 -0.043614 0.020219 0.084770 -0.026292
clfs4---------- -0.000492 -0.192202 -0.367033 0.227166 0.778452 0.276000 -0.134425 0.126951 0.624858 0.498145
ppetas3m 0.375949 1.277457 -0.046625 0.103135 -0.007047 0.980537 -1.069523 0.262778 0.367740 0.538473
pn+utr+sin+def+sub/obj 0.074143 0.045632 -0.035860 -0.023914 0.044957 -0.003532 -0.064257 -0.003653 0.053812 -0.053300
num+number=plur+numtype=card 0.583287 0.777740 -0.286040 -0.143681 0.454046 0.056590 -0.735152 -0.024194 0.844991 1.004230
vptp---xr-aa--1 0.091851 -0.218869 -0.125420 0.245963 0.671071 0.161659 -0.017812 -0.188126 0.578473 0.146095
n,pl,ill 0.387223 0.934112 0.050544 0.511083 -0.018826 -0.253841 -0.039385 -0.563389 0.316298 0.459621
adj+case=nom+degree=pos+gender=fem+number=sing+verbform=part 0.302729 0.805110 -0.274792 0.399241 0.545562 0.390314 -0.870045 -0.109014 0.954535 0.738328
nnfsx-----a---- 0.068893 -0.475340 -0.360837 -0.677314 0.478456 -0.137584 0.076544 -0.222693 0.582725 0.231333
adj_ino 0.165742 0.264045 0.061906 -0.092834 0.098342 -0.198282 0.019719 0.216516 0.130857 -0.256359
crms1---------- 0.217422 -0.393077 -0.257009 -0.648965 0.590247 -0.049078 -0.187646 -0.477264 0.458437 0.137574
clfs1---------- 0.114144 -0.623520 -0.335953 -0.131446 0.689397 0.021948 -0.012238 0.022472 0.371198 0.209162
adv,px3 0.493607 0.857993 0.034699 0.567903 -0.088138 -0.316036 -0.010382 -0.517379 0.305290 0.401827
aafs1----3a---- 0.050545 -0.870694 -0.519012 -0.233339 0.688036 0.129850 -0.095889 0.064180 0.113307 0.107270
pdfp4---------- 0.308896 -0.475888 -0.321700 0.281837 0.826498 0.325516 -0.143455 -0.024683 0.619382 0.525467
clzs2---------- -0.194899 -0.385640 -0.248276 -0.140565 0.606084 -0.137962 0.272439 -0.090989 0.606517 0.586990
crns4---------- 0.081519 -0.312615 -0.277507 0.220386 0.722322 0.270183 -0.025728 0.129998 0.491441 0.440505
psot--3--m 0.417273 1.514802 0.245739 -0.354631 -0.069868 0.702354 -0.818020 0.401659 0.171317 0.381937
adj+case=gen+degree=pos+gender=neut+number=sing 0.193649 0.811184 -0.350165 -0.561586 0.601536 -0.258980 -0.574221 -0.309635 1.069728 1.093505
agfs4-----a---- -0.121987 -0.222463 -0.254597 0.297108 0.647000 0.232199 -0.194704 -0.090378 0.558667 0.456503
agms1-----a---- 0.092905 -0.482160 -0.408011 -0.439583 0.526271 0.109238 -0.076412 -0.539299 0.535531 0.090804
p5zs2--3------- 0.363708 -0.472153 -0.764787 0.109400 0.565146 -0.083146 -0.109799 -0.236423 0.437222 0.322631
adj+case=nom+degree=none+number=sing+number[psed]=none+number[psor]=none+person[psor]=none+verbform=partpast 0.613104 0.696031 -0.026707 -0.091401 0.215708 -0.556118 -0.250873 -0.051463 0.362082 -0.041152
pron+case=nom+gender=masc+number=sing+prontype=ind 0.199728 0.759060 0.166900 0.196572 0.538188 0.501150 -1.050420 0.121356 0.997199 0.538326
pron+case=nom+gender=masc+number=plur+prontype=ind 0.513920 0.691740 -0.327781 0.262560 0.714283 0.555046 -0.935436 0.140231 0.630134 0.889911
num,card,sg,gen 0.313941 1.113232 0.139778 0.359809 -0.225555 -0.287327 0.091194 -0.424046 0.226691 0.372722
pp-p1--1------- 0.123631 -0.207878 -0.330166 0.195729 0.746468 0.265643 -0.243204 -0.114598 0.378154 0.045993
adv+degree=cmp 0.478723 0.736377 -0.269342 0.210009 0.573193 0.398304 -0.941075 0.031918 0.981514 0.739258
ph-s4--1------- 0.216402 -0.432275 -0.365748 -0.166401 0.685209 0.165579 -0.307240 -0.276540 0.264056 0.058858
v,act,pcpva,sg,gen 0.457682 0.859668 0.127755 0.357108 -0.032326 -0.372076 -0.065009 -0.561838 0.158572 0.425938
p9zs6---------- 0.368719 -0.316137 -0.748987 0.060370 0.480713 -0.006690 0.008273 -0.464952 0.490409 -0.272165
clzs7---------- 0.221794 -0.255657 -0.249241 -0.017357 0.667400 -0.200987 0.015115 -0.174936 0.488654 0.515316
pszs2-p1------- -0.236659 -0.446187 -0.168330 -0.280920 0.519030 -0.065855 0.246827 -0.020267 0.436432 0.640968
adv,qnt 0.461460 0.807539 0.099175 0.513354 -0.163621 -0.334054 0.024779 -0.526504 0.247505 0.388308
clis4---------- 0.030568 -0.291885 -0.248173 0.237703 0.808285 0.272870 -0.121466 0.109370 0.710362 0.398499
pszs1fs3------- 0.107901 -0.682945 -0.336955 -0.427848 0.380082 0.117450 -0.268058 -0.368350 0.410259 0.133066
verb+aspect=none+definite=def+mood=ind+number=sing+person=3+tense=past+verbform=fin+voice=act 0.478044 0.750125 0.012413 -0.090961 0.159726 -0.483985 -0.328147 -0.020138 0.293124 0.064411
pshs1-p1------- 0.075895 -0.799103 -0.319935 -0.070325 0.670617 0.227720 -0.227612 -0.079715 0.202379 -0.049836
cn-p7---------- 0.010634 -0.056663 -0.154674 0.160803 0.712045 -0.202710 0.009308 -0.352028 0.589616 0.600618
agfp2-----a---- -0.038364 -0.372496 -0.170639 0.133784 0.621937 -0.079012 0.113857 -0.050862 0.648155 0.500397
vb-p---3p-na--1 0.245281 -0.293780 -0.175339 0.323871 0.673751 0.372396 -0.182649 -0.179432 0.542358 -0.045421
vpitf-r1p 0.517928 1.266381 0.092869 0.163281 -0.303129 0.830539 -0.924447 0.099460 0.044780 0.403081
vppif-r3s 0.862753 1.265718 0.173690 0.137793 -0.365857 1.117540 -0.889720 0.231567 0.162042 0.287569
vf--------n---- 0.082481 -0.242153 -0.458350 0.055157 0.654970 0.164331 -0.172686 -0.006238 0.588782 0.266267
rr--1---------- -0.048612 -0.423274 -0.074191 -0.751014 0.467574 -0.017234 -0.007128 -0.279295 0.549854 0.306286
p5zs6--3------- 0.471063 -0.240650 -0.528238 0.245006 0.496743 0.067790 0.308357 -0.345438 0.428976 0.003144
interj 0.430189 0.334518 0.002726 -0.033894 -0.314906 -0.458268 0.021976 -0.471107 -0.100436 0.336177
p8fp4---------1 0.206471 -0.381179 -0.055861 0.418031 0.602872 0.363418 -0.223281 -0.087928 0.522017 0.636992
nnnp3-----a---- 0.203993 0.009984 -0.293922 -0.111192 0.814535 0.133530 -0.145599 -0.050721 0.549587 0.353019
adj+case=loc+degree=pos+gender=masc+number=sing -0.167963 0.958457 -0.646179 -0.416257 0.779099 0.015544 -0.854428 0.016451 0.777438 0.718554
v,act,ind,pres,sg3,ko 0.302052 0.785715 0.054228 0.443514 -0.027955 -0.169204 -0.035130 -0.585265 0.162032 0.385963
agfs2-----a---- -0.075323 -0.152589 -0.245801 -0.101858 0.785049 0.229263 0.034370 -0.267968 0.555315 0.719695
rbs 0.198657 0.196700 0.286692 0.576659 0.067340 -0.022121 0.288960 -1.276967 -0.015394 0.102836
p8fs6---------1 -0.189820 -0.140692 -0.185164 0.138500 0.772116 -0.279716 0.570498 -0.817092 0.529284 -0.154437
momsi -0.077154 1.378826 0.158006 -0.534561 -0.499758 0.506328 -1.053996 -0.037894 -0.273488 0.543043
agmp2-----a---- -0.036691 -0.537839 -0.314123 -0.088878 0.713942 -0.140271 0.148396 -0.075866 0.467226 0.450416
ppxp2--3------- 0.259486 -0.492664 -0.263075 0.048215 0.734838 -0.102538 -0.212126 -0.278905 0.225318 -0.006686
p5xp4--3------- 0.358153 -0.301666 -0.611064 0.161078 0.648147 0.202267 -0.209215 0.074564 0.498055 0.298573
aux+negative=neg+number=sing+person=3+tense=pres 0.560573 0.685284 -0.020428 1.000602 0.418400 0.145165 -0.849037 0.032048 0.916935 0.342818
n,pl,ade 0.391012 0.872210 0.107541 0.448809 -0.097155 -0.228928 -0.069481 -0.433059 0.346717 0.363676
nnmp6-----a---- 0.241520 -0.101554 -0.336134 -0.023223 0.533666 -0.121182 0.054613 -0.305659 0.625543 0.160691
noun+case=loc+gender=fem+number=plur 0.409861 0.891945 -0.431629 -0.267341 0.293493 0.207381 -0.823190 -0.027765 0.861458 0.593222
verb+gender=fem+number=plur+verbform=part 0.514105 0.476134 -0.320717 0.429953 0.600555 0.426071 -0.973993 0.067597 0.630384 0.944330
propn+case=ins+gender=masc+number=sing 0.422327 0.631644 -0.155526 -0.210022 0.526729 0.074335 -1.236133 -0.353287 0.916728 0.593325
adj+case=acc+degree=pos+gender=neut+number=sing 0.559410 0.672431 -0.367050 -0.082808 0.615383 0.515370 -0.930519 0.013318 0.756796 0.724996
pron,pers,sg3,gen 0.476836 0.744791 0.008240 0.384437 -0.150272 -0.321902 -0.013240 -0.499699 0.326711 0.339611
pron+animacy=inan+case=nom+gender=neut+person=3+prontype=ind 0.243542 0.759203 -0.060945 0.542993 0.730514 0.734447 -0.981394 0.215551 0.843156 0.333249
p5xp7--3------- 0.451875 -0.253832 -0.564768 0.044880 0.521995 -0.180830 -0.124879 -0.350735 0.336897 0.315388
ppe-os3f 0.392960 1.215738 0.093653 -0.014041 0.076801 0.803786 -0.952226 0.272888 0.200582 0.327368
noun+case=acc+number=sing+number[psed]=none+number[psor]=sing+person[psor]=3 0.412857 0.660483 -0.032646 -0.098358 0.180938 -0.424123 -0.270927 0.017457 0.213513 0.088067
pron+case=nom+gender=neut+number=sing+prontype=dem 0.440305 0.634605 -0.012239 0.450363 0.567201 0.761365 -0.879673 0.097369 0.826535 0.448556
p4ns4---------- 0.062686 -0.378765 -0.448849 -0.257233 0.689175 0.002488 -0.266190 -0.153646 0.483600 0.021746
aafs4----1n---- -0.121961 -0.109870 -0.389746 0.224093 0.754979 0.258049 -0.241401 -0.134586 0.541255 0.375755
vpptcao-p-i 0.451846 1.345566 0.152359 0.093716 0.046940 0.656854 -0.906635 0.185270 0.175067 0.522475
vb+imp+akt 0.076127 0.049855 0.023559 0.045399 0.083755 -0.042195 0.029663 -0.042524 0.073256 -0.028517
cris6---------- -0.162686 -0.305393 -0.212401 0.243684 0.781222 -0.319818 0.561120 -0.701717 0.569679 -0.042971
a,sg,ess 0.422301 0.932135 -0.002716 0.429722 -0.201698 -0.223767 -0.096418 -0.449863 0.313860 0.386325
aanp7----1a---- 0.063358 -0.031920 0.058180 0.065813 0.819311 -0.062678 0.001954 -0.071028 0.520479 0.230505
ppxtd 0.256935 1.191073 -0.076745 0.157977 0.331884 0.651175 -0.887788 0.239023 0.224128 0.565947
ab+suv 0.079278 0.133846 0.026223 -0.024486 0.028596 -0.021695 -0.080663 -0.010870 0.096977 0.014594
nnisx-----a---- 0.043845 -0.326318 -0.362719 -0.496917 0.551300 -0.186863 0.037311 -0.118718 0.571389 0.261822
ppfs3--3------- 0.336650 -0.400736 -0.151999 0.026185 0.706066 0.149680 -0.379099 -0.328816 0.181033 0.035722
pron,qnt,sg,gen 0.330971 0.935765 0.042897 0.337595 -0.177716 -0.227346 -0.004168 -0.427368 0.260791 0.329489
agis4-----a---- -0.094703 -0.176695 -0.184847 0.173489 0.700901 0.329058 -0.144043 0.109972 0.640707 0.411679
aais4----1n---- -0.041403 -0.142951 -0.274926 0.283741 0.634222 0.392441 -0.189273 0.187797 0.810289 0.443631
acqw------a---- 0.086003 -0.393973 -0.315246 -0.042764 0.657366 0.065630 -0.188050 -0.208496 0.219966 0.190855
pron,qnt,nom 0.367740 0.733865 -0.005103 0.402715 -0.120628 -0.269437 -0.040669 -0.483965 0.212495 0.331986
nnfpx-----a---- 0.059912 -0.291409 -0.249515 -0.805289 0.443628 -0.136391 -0.040320 -0.139816 0.686415 0.142507
pw--1---------- 0.163755 -0.186219 -0.326589 -0.063028 0.685265 0.205153 -0.129440 -0.098538 0.103241 0.067800
pdip4---------- 0.165485 -0.384103 -0.239147 0.430482 0.637727 0.133098 -0.289826 -0.001210 0.607775 0.483851
ps+utr+sin+def 0.030146 0.085032 -0.010550 0.005152 0.054368 -0.034552 -0.048336 -0.061934 0.083436 -0.046058
part+_ 0.422883 0.806253 -0.149327 0.267202 0.415613 0.117343 -0.811657 0.090560 0.589131 0.417563
psfs2-p1------- -0.051326 -0.239736 -0.123921 -0.119168 0.543626 -0.061628 0.104881 -0.347561 0.503021 0.796662
a,sg,tra 0.345100 0.826664 0.151388 0.375442 -0.197001 -0.173053 -0.029234 -0.471817 0.323995 0.473614
n,prop,sg,par 0.401297 0.788261 0.039526 0.433760 -0.162782 -0.297614 0.037672 -0.517534 0.231851 0.342269
aafp2----1n---- 0.016011 -0.463912 -0.119343 0.014466 0.680563 -0.326714 0.144321 -0.136829 0.515518 0.523698
plns1---------- 0.273388 -0.457911 -0.284281 0.066359 0.734208 0.128905 -0.344842 -0.198254 0.193316 -0.118783
jj+suv+utr/neu+sin/plu+def+nom 0.064518 0.086653 0.008635 -0.027571 0.062105 -0.064405 -0.059821 -0.015801 0.105189 -0.014180
pc+prf+neu+sin+ind+nom 0.054062 0.070102 0.019212 -0.007556 0.045177 0.009762 -0.035647 -0.008507 0.090795 0.015401
adv+degree=none+prontype=dem 0.473832 0.712330 0.018479 -0.016069 0.174876 -0.379761 -0.300207 -0.011785 0.281880 0.059856
aais4----2a---- -0.113948 -0.221623 -0.173238 0.188685 0.763021 0.365129 -0.180425 0.161981 0.720898 0.533779
pre-os-m 0.406201 1.033135 -0.229585 -0.313519 -0.059971 0.888215 -1.043619 -0.005193 0.157936 0.149226
verb+aspect=none+mood=n+number=none+person=none+verbform=inf+voice=act 0.415892 0.619964 0.034002 0.024875 0.195317 -0.312790 -0.285764 -0.003222 0.225492 0.069646
vpptcv--sni 0.323565 1.262387 0.031617 -0.196326 -0.184244 0.825787 -1.022952 -0.099045 0.097559 0.299581
aais1----3a---- -0.011118 -0.565888 -0.417498 -0.197412 0.443515 0.087289 -0.330091 -0.199315 0.193012 0.260891
jj+pos+utr/neu+sin/plu+ind/def+nom 0.036070 0.105945 -0.023269 0.021819 0.028514 0.004964 -0.050295 0.003140 0.042884 0.023504
vyptf-r3s 1.001767 1.036783 0.092163 0.221508 -0.126174 0.868405 -1.038433 0.228042 0.335778 0.501934
agip2-----a---- 0.038269 -0.280192 -0.076867 0.162704 0.710773 -0.032938 0.071566 0.212969 0.599965 0.626607
vb-p---1f-aa--- 0.219677 -0.254478 -0.049108 0.239317 0.608895 0.350771 -0.147050 -0.104542 0.493391 0.201130
plns1---------1 0.196174 -0.265436 -0.142377 0.079434 0.708292 0.010161 -0.254570 -0.203025 0.133668 0.037765
p4zs7---------- 0.026565 -0.281668 -0.616462 -0.005248 0.683120 -0.022464 -0.272401 -0.273467 0.425348 0.085512
pdm 0.431349 1.184797 -0.053972 0.048932 -0.161679 0.560804 -0.914359 0.097684 0.263065 0.210343
j^------------8 0.261329 -0.053534 -0.665827 -0.362981 0.629696 -0.120206 -0.128502 -0.000988 0.758201 -0.021035
noun+case=gen+gender=neut+number=plur 0.376813 0.680887 -0.274278 -0.421944 0.553886 -0.005252 -0.941321 -0.018001 0.875066 0.741277
noun+case=sup+number=sing+number[psed]=none+number[psor]=none+person[psor]=none 0.547316 0.627618 0.030662 -0.081134 0.221905 -0.341419 -0.223507 0.016628 0.228464 0.005615
v,act,cond,conneg 0.423382 0.682159 0.055251 0.448435 -0.018047 -0.157992 -0.107328 -0.662289 0.275323 0.324311
pz--1---------- 0.257231 -0.217349 -0.265862 0.044283 0.731278 0.031806 -0.225965 -0.218766 0.154183 0.073620
noun+case=acc+gender=neut+number=plur 0.789908 0.378722 -0.489557 0.010385 0.665760 0.193004 -0.808184 -0.178752 0.907368 0.698569
crns2---------- -0.166262 -0.367160 -0.233833 -0.175709 0.586112 -0.000344 0.295262 -0.148125 0.313027 0.744877
noun+case=ins+gender=masc+number=plur 0.539929 0.542943 -0.319645 -0.337230 0.495088 -0.108109 -0.867901 0.072395 0.658612 0.705306
pde-os-f 0.110394 1.334395 0.136822 -0.181256 -0.267210 0.467192 -0.933248 -0.066075 -0.200101 0.520633
adj+case=ess+degree=pos+number=sing+number[psed]=none+number[psor]=none+numtype=none+person[psor]=none+verbform=none 0.485065 0.548840 -0.000978 -0.038770 0.224992 -0.344012 -0.216312 -0.050543 0.263979 0.025820
pjzs2---------- -0.022159 -0.427741 -0.331975 -0.216694 0.610956 -0.064567 -0.235335 -0.127982 0.560972 0.190904
pron+case=nom+gender=fem+number=sing+prontype=ind 0.203954 0.752003 -0.072122 0.128810 0.761633 0.474340 -1.058014 0.110085 0.820612 0.517875
j*------------- 0.323669 -0.438069 0.182017 -0.529143 0.865212 -0.442223 0.165999 0.442698 0.420639 0.267297
pron,pers,sg1,gen 0.440667 0.642420 0.083860 0.302242 -0.028235 -0.128135 -0.028361 -0.515125 0.262181 0.205962
vb+sup+sfo 0.107767 0.080341 0.009568 0.018944 0.046777 -0.011200 -0.067991 -0.048079 0.063125 -0.026718
pq--7---------- 0.171553 -0.264765 -0.404634 0.061258 0.726310 0.103159 -0.328003 0.050722 0.249201 -0.119825
p5zs7--3------- 0.320112 -0.296966 -0.553328 0.120047 0.483574 0.104166 -0.103410 -0.399053 0.280508 0.237534
p5xp6--3------- 0.357699 -0.284424 -0.554228 0.312723 0.461054 0.049290 0.040247 -0.417017 0.283911 0.019598
aufs4m--------- 0.011302 -0.342523 -0.189420 -0.013543 0.481238 0.232137 -0.423664 -0.118209 0.507250 0.385903
n,sg,abl 0.410476 0.685548 0.166459 0.437855 -0.116555 -0.207602 0.031824 -0.450416 0.254530 0.274635
psys1-p1------- 0.054927 -0.514072 -0.284589 -0.232228 0.465491 0.074326 -0.317449 -0.418429 0.293675 0.067372
n,prop,sg,ill 0.366873 0.885489 0.032850 0.489384 -0.079786 -0.300857 -0.065380 -0.506999 0.276728 0.406597
aafp2----3a---- 0.063546 -0.286554 -0.255498 0.084040 0.624547 -0.266831 0.219892 -0.071402 0.587246 0.662415
aafs2----1n---- -0.055232 -0.207332 -0.252116 -0.233856 0.503888 0.057840 0.070190 -0.283191 0.512795 0.792626
propn+case=gen+gender=neut+number=sing 0.172569 0.953175 -0.012291 -0.114791 0.210923 0.332818 -1.123029 -0.007161 0.782962 0.483812
adj+case=nom+degree=pos+gender=neut+number=sing+verbform=part 0.536526 0.708915 -0.146258 0.161255 0.487550 0.414680 -0.876665 -0.011012 0.964042 0.717642
p6-x7---------- 0.273876 -0.190029 -0.450404 0.175293 0.642018 0.024109 -0.059255 -0.330385 0.371880 0.315074
adv_loc 0.123970 0.191426 -0.044997 -0.100753 0.149623 -0.178085 0.000255 0.145702 0.055638 -0.127822
pron,qnt,par 0.407731 0.709920 0.118372 0.460967 -0.100249 -0.170920 -0.070227 -0.621174 0.125299 0.473838
plfp1---------- 0.250855 -0.257079 -0.018537 0.289139 0.724329 0.012895 -0.247428 -0.448247 0.500049 0.213231
pde-os-m 0.022471 1.302754 0.145836 -0.256525 -0.375677 0.444081 -1.069765 0.003782 -0.243634 0.545541
aafp1----2a---- 0.196914 -0.240818 -0.194241 0.182020 0.772325 0.060005 -0.319593 -0.357986 0.545613 0.308010
clfs2---------- 0.003686 -0.351050 -0.314774 -0.163199 0.502860 -0.020381 0.018900 -0.173513 0.577129 0.602561
crnp2---------- -0.023686 -0.463880 0.071645 -0.061606 0.533933 -0.394004 0.214336 0.010048 0.865839 0.456220
vb-p---3f-na--- 0.210459 -0.312649 -0.030019 0.241498 0.666033 0.380224 -0.155437 -0.270798 0.514064 0.086317
pdxp3---------- 0.109417 -0.019326 -0.213420 -0.004867 0.665362 0.116891 -0.138701 -0.116206 0.535315 0.421156
clfs7---------- 0.174172 -0.325766 -0.380544 0.009009 0.600434 -0.113999 -0.037577 -0.269473 0.429339 0.396742
prt 0.383244 1.099310 0.181147 -0.146687 0.129520 0.673693 -0.856668 0.333985 0.263891 0.327009
p5fs6--3------- 0.252418 -0.223666 -0.500136 0.212245 0.444424 -0.037599 -0.028679 -0.396659 0.390405 0.112397
dl 0.342036 1.163957 0.065880 -0.254314 -0.066934 0.587852 -0.810362 0.020353 0.165365 0.333175
noun+case=loc+gender=masc+number=plur 0.231899 0.747172 -0.569152 -0.282269 0.455486 0.138674 -0.901644 -0.031027 0.837242 0.546500
pm+gen 0.053849 0.109795 -0.035430 -0.019738 0.049499 -0.037393 0.003992 -0.011209 0.034069 -0.029270
aaip2----1n---- 0.089395 -0.329406 -0.086643 0.171882 0.621076 -0.212540 -0.045733 0.225559 0.500276 0.645911
noun+case=dat+gender=masc+number=sing 0.274376 0.531031 -0.388813 -0.140836 0.631451 0.158200 -0.854834 -0.014044 0.866152 0.665714
aafs4----3a---- -0.231721 -0.205928 -0.131879 0.079285 0.572300 0.242526 -0.274521 -0.001874 0.501000 0.433396
p9xp2---------- 0.342216 -0.278857 -0.574500 0.006279 0.533897 0.004707 -0.081816 -0.135693 0.637233 0.205528
ca--6---------- -0.078626 -0.238147 -0.156855 0.229497 0.419806 -0.276026 0.234886 -0.357664 0.516578 0.174244
a,sg,ill 0.241847 0.790806 0.047451 0.282429 -0.025165 -0.278014 -0.066936 -0.568176 0.127519 0.204483
cris2---------- -0.209716 -0.303714 -0.103659 -0.158944 0.504213 -0.132237 0.109747 -0.084720 0.525845 0.555847
pron,pers,pl1,nom 0.465987 0.640687 0.062864 0.334404 -0.100224 -0.219074 -0.150725 -0.423116 0.126103 0.309855
v,neg,act,pl3 0.360420 0.723090 0.023807 0.397597 -0.088428 -0.060683 -0.165432 -0.597215 -0.021426 0.349445
n,pl,all 0.340436 0.739232 0.065958 0.330545 -0.015776 -0.215723 -0.100682 -0.400633 0.282957 0.368707
noun+case=ins+gender=neut+number=sing 0.274973 0.636947 -0.146233 -0.304246 0.516443 0.096911 -0.871902 0.055741 0.820988 0.765739
p6-x4---------- 0.249359 -0.208112 -0.411753 0.188412 0.649013 0.119014 -0.204433 -0.006489 0.415665 0.262181
aafp4----2a---- 0.087730 -0.388082 -0.031899 0.283646 0.556742 0.341330 -0.148075 -0.015965 0.493638 0.561388
p1xxxzs3------- -0.114130 -0.370284 -0.296050 -0.196789 0.504241 0.111684 -0.106903 -0.204209 0.574384 0.214151
noun+case=dat+gender=fem+number=sing 0.242044 0.475313 -0.238632 -0.173741 0.615419 0.203910 -1.022447 -0.112128 0.911395 0.583858
aafp1----1n---- 0.211339 -0.212299 -0.333662 0.088716 0.636136 -0.030107 -0.323064 -0.279623 0.521683 0.264837
ppe-op3 0.353078 1.067205 -0.017586 0.051578 0.222593 0.633345 -0.888683 0.265400 0.188606 0.431825
pron,dem,sg,ine 0.387525 0.630267 0.114727 0.551067 -0.097130 -0.244150 -0.012261 -0.566121 0.274826 0.211232
n,prop,sg,ela 0.357113 0.777122 -0.005295 0.437922 -0.174202 -0.344966 -0.011117 -0.458850 0.257282 0.425737
verb+aspect=none+definite=ind+mood=ind+number=plur+person=3+tense=pres+verbform=fin+voice=act 0.391385 0.571003 0.018509 -0.101852 0.156831 -0.357557 -0.298537 -0.032926 0.277749 0.073559
plxp6---------- -0.221614 -0.293224 -0.121278 0.212433 0.623056 -0.345046 0.369535 -0.503036 0.463382 0.189047
p8fs7---------1 -0.199248 -0.251019 -0.169704 0.013553 0.524929 0.257068 -0.084478 -0.484350 0.566216 0.337160
v,act,infe,ins 0.301437 0.779429 0.078303 0.398576 -0.243887 -0.283035 -0.087017 -0.494702 0.144201 0.266344
nnip2-----a---1 0.101242 -0.121865 -0.278503 -0.119021 0.644045 -0.036829 0.091379 0.145280 0.549832 0.203999
n,prop,sg,ade 0.285847 0.647022 0.063307 0.391647 -0.097167 -0.162129 0.001447 -0.389068 0.253321 0.319582
agfp1-----a---- 0.104206 -0.134335 -0.165604 0.187824 0.617217 0.077920 -0.215585 -0.189028 0.544965 0.430468
v_imp 0.056204 0.112162 -0.033439 -0.087743 0.091464 -0.115256 -0.070103 0.101926 0.091286 -0.126431
pun,quo,ini 0.336305 0.786512 0.087198 0.267086 -0.078633 -0.283869 -0.082908 -0.519561 0.283936 0.275740
pun,quo,fin 0.285681 0.695840 0.132445 0.479268 -0.086671 -0.203964 -0.042717 -0.372854 0.262990 0.349054
p9fs6---------- 0.321434 -0.259354 -0.650593 -0.009389 0.422561 -0.064140 -0.037885 -0.312847 0.440243 0.004156
p4np1---------- 0.265745 -0.102321 -0.409618 -0.014261 0.618024 -0.116919 -0.243070 -0.085811 0.449022 0.102152
pjys1---------- 0.101166 -0.195718 -0.376191 -0.312320 0.633338 -0.038349 -0.268320 -0.311152 0.463541 0.073342
te 0.280692 1.171727 0.101557 0.068807 -0.031828 0.667144 -0.872950 0.246850 0.167478 0.370924
a,sg,ine 0.270447 0.750493 0.085838 0.401938 -0.172753 -0.274457 -0.005644 -0.517007 0.307075 0.298948
p8xp6---------- -0.051715 -0.221152 -0.216470 0.023777 0.481466 -0.245707 0.202972 -0.428727 0.421440 0.175346
aais4----3a---- 0.110463 -0.149771 -0.281915 0.262256 0.602792 0.185051 -0.171468 0.138317 0.489849 0.445007
verb+aspect=none+definite=def+mood=ind+number=sing+person=3+tense=pres+verbform=fin+voice=act 0.421576 0.582789 0.013086 -0.081131 0.153050 -0.339382 -0.272688 -0.013291 0.292930 0.109428
nn+neu+sin+def+gen 0.054489 0.055444 -0.021415 0.034682 0.032616 -0.011264 -0.058058 0.014831 0.066858 0.016153
noun+case=sub+number=sing+number[psed]=none+number[psor]=none+person[psor]=none 0.497756 0.564095 -0.017514 -0.024943 0.174598 -0.318991 -0.312101 -0.033706 0.232789 0.091942
a,pl,gen 0.278040 0.740837 0.080754 0.377895 -0.110911 -0.112802 0.002096 -0.447900 0.180848 0.220714
vpptf-r1s 0.515135 1.148444 -0.001712 0.018842 -0.127454 0.924312 -0.968350 0.212454 0.090281 0.358234
v,act,pcpva,sg,nom 0.243710 0.637293 0.133059 0.387027 0.016665 -0.288155 -0.054659 -0.552643 0.292244 0.142280
pp-p3--2------- 0.093289 -0.231147 -0.320373 0.021022 0.576741 0.172719 -0.344549 -0.240438 0.265054 0.035485
pron,dem,sg,ade 0.353846 0.617684 0.130743 0.446680 -0.072050 -0.190441 -0.089868 -0.515312 0.225608 0.298147
pde-op 0.151291 1.245384 0.112898 -0.102254 -0.132438 0.384877 -1.063425 -0.016342 -0.204396 0.646891
auis2m--------- -0.238428 -0.251833 -0.123792 -0.120147 0.546102 -0.003389 0.215145 -0.111039 0.424851 0.536666
aafs7----3a---- -0.120807 -0.238093 -0.180600 -0.004013 0.547660 0.109752 0.013646 -0.530528 0.474347 0.517921
pron,interr,par 0.307688 0.609274 0.059294 0.349197 -0.154222 -0.187048 -0.132436 -0.473344 0.168935 0.324901
ls 0.173631 0.330338 0.231840 0.353783 0.222664 -0.167778 0.386705 -0.702053 0.371085 -0.000971
v,act,ind,pres,pl1 0.190124 0.776878 0.076296 0.293360 -0.082204 -0.125049 -0.185915 -0.489886 0.236241 0.318054
nc-li 0.165545 1.242158 0.155499 -0.168200 -0.195261 0.491876 -0.751158 -0.027625 0.281223 0.488200
pce-op 0.202596 1.279392 0.142827 -0.166186 -0.120478 0.431654 -0.941877 0.001783 -0.003618 0.657205
pron,pers,pl3,nom 0.264435 0.643851 -0.094497 0.344979 -0.084463 -0.213192 -0.038127 -0.313777 0.164063 0.364361
agmp1-----a---- 0.246061 -0.304167 -0.247744 0.305277 0.443225 0.213506 -0.183824 -0.149640 0.366743 0.085778
plfp4---------- 0.163184 -0.253474 -0.204261 0.254808 0.558145 0.234466 -0.089688 0.047484 0.552293 0.591384
p5zs2--3------1 0.305645 -0.389110 -0.520710 0.029231 0.539215 -0.038797 -0.043193 -0.085253 0.512098 0.185445
pdl 0.268768 0.989492 0.032914 0.111616 0.023876 0.615519 -0.719351 0.236476 0.112329 0.285088
pdfs7---------- -0.221752 -0.267746 -0.152551 0.103063 0.588025 0.260317 -0.084176 -0.483225 0.498981 0.415480
p4zs6---------- 0.181693 -0.163181 -0.523797 0.018082 0.444165 -0.039764 0.072677 -0.411337 0.479482 -0.099213
plfs1---------- 0.092791 -0.249568 -0.344436 -0.065815 0.565256 0.136226 -0.281117 -0.099172 0.224715 0.131649
pzyp4---------- 0.093416 -0.229589 -0.157906 0.171200 0.551442 0.160325 -0.189463 -0.015054 0.343656 0.337701
noun+case=ins+number=sing+number[psed]=none+number[psor]=none+person[psor]=none 0.400766 0.602440 -0.010762 -0.070350 0.172865 -0.292545 -0.201054 -0.037924 0.246348 0.023618
ps+utr/neu+plu+def 0.036962 0.097552 0.027990 -0.043856 0.011703 -0.041388 -0.073181 -0.057590 0.024717 -0.023303
noun+case=acc+number=plur+number[psed]=none+number[psor]=none+person[psor]=none 0.372468 0.553154 0.041999 -0.046847 0.156688 -0.291914 -0.284526 -0.028565 0.193959 0.077684
v,pass,pcpva,sg,nom 0.438563 0.693596 -0.006300 0.326001 -0.155083 -0.267244 -0.016937 -0.454338 0.280882 0.224144
prc 0.253325 0.993741 0.061550 -0.277629 -0.047383 0.615668 -0.877799 0.039608 0.145790 0.171527
p9xp6---------- 0.279179 -0.256199 -0.586965 0.000751 0.512329 -0.095891 -0.067725 -0.321577 0.272546 -0.001472
aais7----3a---- -0.125442 -0.250285 -0.320954 0.066409 0.569827 -0.054117 -0.161269 -0.359222 0.299788 0.385601
nnfs1-----a---1 0.072342 -0.376069 -0.214138 -0.186631 0.579127 -0.088119 0.035028 -0.068060 0.438960 0.185695
pzfp1---------- 0.227563 -0.266244 -0.066470 0.172481 0.583758 -0.019427 -0.418926 -0.362351 0.532492 0.331400
a,sup,sg,nom 0.291487 0.714057 0.129008 0.399519 -0.046164 -0.267268 0.000680 -0.475110 0.364466 0.217305
plip1---------- 0.133433 -0.168902 -0.165304 0.245753 0.547060 -0.078897 -0.394772 -0.302077 0.494043 0.286575
pszs6-p1------- -0.076856 -0.235947 -0.243187 0.130671 0.528682 -0.281187 0.301407 -0.412546 0.505970 0.049871
ppys1--3------- 0.207032 -0.154321 -0.186950 -0.037393 0.582486 0.145901 -0.258698 -0.162642 0.475658 0.052106
n,sg,par,px3 0.390321 0.660665 0.057742 0.364291 -0.115327 -0.198860 0.007123 -0.393213 0.238840 0.325067
p5fs2--3------- 0.348490 -0.306109 -0.539798 0.028503 0.550052 0.073772 -0.168592 -0.322482 0.539941 0.094782
adj+case=ins+degree=pos+gender=masc+number=sing 0.388399 0.642253 -0.233140 -0.155563 0.627266 0.127683 -0.966800 -0.115299 0.509649 0.612271
verb+number=plur+person=1+tense=pres 0.442045 0.588162 -0.171565 0.050641 0.395342 0.467636 -0.855272 0.101906 0.649611 0.571194
adv+degree=pos+prontype=default 0.367332 0.549431 0.013942 -0.040336 0.139112 -0.285757 -0.227783 -0.079018 0.215172 0.087136
aafp4----1n---- 0.113403 -0.287137 -0.279431 0.178514 0.586118 0.207305 -0.139221 0.024612 0.577429 0.497915
noun+case=ins+gender=fem+number=plur 0.359299 0.479984 -0.485907 -0.205743 0.579256 0.133523 -0.714252 -0.266048 0.693386 0.834502
vxitf-t3p 0.194922 1.146395 0.221568 -0.105198 -0.006351 0.336427 -0.846360 0.112789 0.337728 0.485008
nnfs2-----a---1 0.097842 -0.163675 -0.259199 -0.203232 0.546326 -0.072471 0.057764 -0.249610 0.478662 0.384926
