168 25
noun 1.005444 0.792152 0.273418 0.120933 -0.026747 -0.191760 0.238263 -0.568892 -0.610680 0.857078 -1.266798 0.140861 0.768650 -0.170668 -0.785653 0.882472 0.185563 1.813015 0.880536 -1.260818 -0.413393 -0.266215 -0.694748 -0.429355 -0.291699
. 1.299086 -0.278317 0.082591 0.516349 0.700854 -0.483358 0.060628 0.051966 -0.307900 1.252669 -0.231579 0.023612 0.955097 -0.275270 -0.805097 1.021021 -0.191639 1.634544 0.626609 -0.499474 -0.646751 0.531259 -0.797223 -0.383953 -0.077889
verb 0.560739 0.791463 0.471918 0.653890 0.292711 0.101146 0.411730 0.174357 -0.630432 0.789271 0.131855 0.074729 0.772708 -0.471328 -0.040561 1.184834 0.489607 1.206620 0.429088 -1.281336 -0.852603 0.434745 -0.903369 -0.315621 0.706920
adp 0.001707 -0.435767 0.122212 0.318279 0.194865 -0.431437 0.209249 -0.585112 -0.896702 0.398323 -0.468298 -0.549026 0.756492 -0.092185 -0.556688 0.768718 0.374072 0.758175 1.333100 -1.308855 -0.563453 0.637695 -1.317338 -0.412211 0.441830
det 0.905231 -0.149449 0.300733 0.082333 0.528127 0.197105 0.232137 -0.276735 -0.347594 -0.399111 -1.343511 0.418627 1.009283 0.230980 -0.968483 0.481882 0.119245 1.039631 0.909614 -0.523840 -0.554679 0.505583 -0.795039 0.264326 0.228493
adj 0.427677 0.281339 0.103282 0.291385 0.140236 -0.248482 0.459303 -1.032018 -0.369869 0.192000 -0.719973 -0.019398 0.809158 0.086995 -0.492047 1.019558 0.470527 1.106816 0.959716 -1.152031 -0.408576 0.208222 -0.695244 -0.081137 -0.311164
nc+fr 0.384482 0.466822 0.136148 -0.447626 -0.521373 0.198979 -0.726124 -0.427289 -0.364648 0.580954 0.737400 -0.105497 -0.866344 0.258719 -0.664792 -0.519576 -0.802468 -0.631656 0.576776 -0.123044 -0.607130 0.164998 -0.017386 -0.386970 -0.246589
n+hu 0.078144 0.633335 -0.644103 -0.173587 -0.368991 -0.087747 0.244742 -0.792028 -0.741147 0.464380 0.153718 0.082640 0.193345 -0.215346 -0.020791 -0.057436 0.674162 0.669617 -0.067261 0.727592 0.129912 0.682832 0.748668 -0.309855 0.235145
adv 0.482028 0.298539 0.294446 0.501771 0.125185 -0.544677 0.212876 -0.403374 -0.056964 0.629155 -0.526092 0.336082 0.337112 -0.360360 -0.573732 0.640520 -0.130144 1.009954 0.796140 -0.851589 -0.643964 0.545033 -0.783982 0.158359 0.214092
pron 0.438729 0.531255 0.267986 0.666970 0.499006 -0.523204 0.195473 -0.627214 0.146751 0.362296 -0.816352 0.715196 0.457660 -0.164296 -0.705231 0.752010 -0.122106 1.310231 0.687134 -0.810543 -0.797634 0.715916 -0.882058 -0.219355 0.167779
det+fr 0.171355 0.652707 -0.676237 -0.848715 0.138775 0.629185 0.147306 -0.196007 -1.019222 -0.049563 0.223326 -0.501341 -0.113655 0.658143 -0.412230 -0.615837 -0.015822 0.268020 0.638101 0.413695 -0.764445 0.374855 -0.647296 0.073096 0.318186
conj -0.029754 0.352831 0.332514 -0.039439 -0.000530 -0.173638 0.309415 -0.309584 -0.533300 0.267244 -0.547465 -0.153251 0.390431 -0.337738 -0.537713 0.670966 0.318108 1.051981 1.046712 -1.123528 -0.492449 0.561770 -1.110197 0.150481 0.778616
ponct+fr 0.730741 0.452383 -0.374171 -0.278459 0.502931 0.697483 0.175715 0.114896 -0.428229 0.360577 0.899732 0.211365 -0.258575 0.220156 -0.110902 -0.264395 -0.358280 0.087788 0.020670 0.477972 -0.856144 0.334088 -0.191096 0.014618 -0.385754
p+fr 0.489223 0.471045 -0.416570 -0.352499 0.241732 0.834446 0.521276 -0.307104 -0.539335 0.010809 0.758655 0.241620 -0.241315 0.257660 0.399471 0.036396 -0.163112 -0.441852 0.252126 -0.324122 -0.729559 -0.161214 -0.451339 0.428492 -1.039666
nn+sv 0.440149 0.541735 -0.032301 0.115890 -0.528055 -0.485476 0.509915 -1.567309 -0.477886 0.341667 -0.792977 -0.503322 0.642846 0.130819 -0.155858 0.458859 0.798202 1.251949 0.816877 -0.700261 -0.500146 -0.083376 -0.487661 0.186334 -0.661770
nn+de 0.753176 0.853022 0.153558 0.032084 -0.364592 -0.243803 0.064376 -0.560490 -0.586803 0.644940 -1.251616 0.097613 0.620299 -0.058725 -0.772019 0.621159 0.116532 1.371955 0.884905 -1.156589 -0.091167 -0.329114 -0.446188 -0.155358 -0.067270
subst+pl 0.523418 0.201494 0.172998 0.088543 -0.687080 -0.341103 0.350021 -1.347198 -0.424546 0.392267 -0.020376 -1.000105 0.537950 0.045519 -0.214795 -0.260987 1.104540 1.375905 0.414813 0.608555 -0.707990 0.505201 0.070982 0.118064 0.144270
a+hu -0.252188 0.471101 -1.071934 -0.275560 0.104279 0.177175 0.475200 -0.450955 -0.659782 -0.023879 0.463503 0.271843 0.197312 0.080314 0.093022 0.059337 0.498520 0.105386 -0.159000 0.907200 0.492653 0.841471 0.807433 0.092307 0.320761
t+hu -0.126288 0.113246 -0.530217 -0.486707 0.018465 0.439255 -0.011273 0.276305 -0.830877 -0.252911 0.207848 -0.266314 0.571957 0.097374 -0.397132 -0.371993 0.649952 0.476461 -0.191906 1.293786 0.470597 0.894646 0.686324 -0.244749 1.377969
vb+sv 0.644385 0.351131 0.823953 0.764481 -0.696579 -0.191238 0.369940 -1.117910 -0.182085 0.253383 0.350655 -0.343256 0.600218 -0.203337 -0.132583 0.462352 0.682222 0.708445 0.790929 -0.739112 -0.974791 0.622144 -0.441040 0.601610 0.203134
adj+fr -0.064520 0.183949 -0.837662 -0.942507 0.101781 0.534758 0.159620 -0.392727 -0.496552 -0.301802 0.566180 0.055376 -0.613356 0.531575 -0.255739 -0.426642 -0.454986 -0.749236 0.507207 0.477213 -0.101038 0.393750 -0.012785 0.488055 -0.378255
v+hu -0.642608 0.885887 -0.741272 0.018143 -0.235180 -0.179809 0.457544 -0.488749 -0.835699 0.238330 0.285689 0.245920 0.061947 -0.307448 0.144511 0.219213 0.572671 0.296456 0.197312 0.118579 0.177753 1.042285 0.246547 -0.076719 0.951791
art+de 0.762110 -0.097453 0.273434 0.247050 0.320322 0.169518 0.274473 -0.266055 -0.312953 -0.274180 -0.829024 0.214481 0.986911 0.203777 -0.653684 0.510628 0.208248 0.805852 0.755910 -0.557696 -0.369043 0.309082 -0.625897 0.316361 0.224722
r+hu -0.297004 0.527425 -0.710264 -0.073639 0.114518 -0.414086 0.416705 -0.378832 -0.622502 0.557278 -0.057421 -0.101011 0.001217 -0.256220 -0.085471 -0.197643 0.536144 1.026712 0.041238 0.784455 -0.197907 0.985255 0.136185 -0.336167 0.738211
pp+sv 0.271872 -0.573501 0.234562 0.472207 -0.104650 -0.548634 0.281447 -1.203329 -0.207392 -0.004175 0.185343 -0.904843 0.603606 0.354821 -0.336937 0.264554 0.532209 0.505331 1.079071 -0.290512 -0.893684 0.834809 -0.802272 0.361371 0.054703
interp+pl 0.355660 -0.254897 -0.146553 0.470418 -0.077103 -0.581656 0.064456 -0.986225 -0.198104 0.254154 0.302376 -0.658433 0.753175 0.265114 -0.563772 0.065759 0.681763 0.919652 0.421781 0.811904 -0.407386 1.271303 0.164442 -0.080380 0.546844
v+fr 0.442231 -0.293434 -1.067773 -0.091914 1.010169 0.085678 0.035807 -0.069763 -0.822492 0.710628 0.471307 0.349044 0.158478 0.375477 -0.551342 0.406039 -0.583843 -0.022289 0.507877 0.021142 -0.391025 0.654933 -0.336418 -0.688132 -0.534181
,+hu 0.017686 0.251609 -0.845268 -0.062718 0.405476 -0.157016 -0.060897 0.030912 -0.550424 0.575772 0.265607 0.756678 0.255045 -0.412807 -0.588963 0.242120 0.027856 0.676775 -0.211071 0.995374 0.587247 1.311007 0.879001 -0.665825 0.815077
appr+de 0.285733 -0.019902 0.222495 0.405829 -0.090156 -0.448295 0.112957 -0.612016 -0.342895 0.324296 -0.278121 -0.478622 0.709946 0.096451 -0.477236 0.584452 0.295744 0.790237 0.893579 -0.803701 -0.373979 0.299809 -0.708549 -0.103017 0.217347
c+hu -0.624460 0.534703 -0.907456 -0.686459 -0.140588 -0.037149 0.589495 -0.513355 -0.893172 0.272374 0.176117 -0.006407 -0.417237 -0.464964 0.260922 -0.546182 0.599038 0.482112 -0.034563 0.988699 0.023127 0.882915 0.321675 0.010558 0.600821
num 0.636341 -0.088296 0.301956 0.331410 -0.076558 -0.030220 0.457096 -0.974361 -0.184249 -0.073754 -0.475618 0.388209 0.721350 -0.132060 -0.154097 0.685402 0.358621 0.528347 0.757566 -0.834609 -0.519351 0.256501 -0.561050 0.559866 -0.570824
adv+fr 0.002909 1.082961 -0.424974 -0.523315 0.204454 0.080476 0.071919 -0.057835 -0.365704 0.450386 -0.114747 0.534463 -0.818437 0.057095 -0.446322 -0.158767 -0.748373 0.184243 0.583776 -0.349675 -0.571602 0.313961 -0.593826 0.026092 0.008277
npp+fr 0.468675 0.718274 -0.975739 -0.527806 -0.160385 0.023577 0.084015 -0.998494 -0.696449 0.662627 0.402663 -0.164312 -0.487357 0.507130 -0.111786 -0.557181 -0.030254 0.140713 0.152357 0.794647 -0.569175 0.257032 0.368162 -0.382937 -1.018145
ne+de 0.522402 0.278895 0.117204 0.175211 0.174837 -0.147490 0.173437 -0.085707 -0.373973 0.390172 -0.635093 0.041710 0.574446 -0.053105 -0.498518 0.541632 0.030318 1.022987 0.657482 -0.735797 -0.334205 0.098940 -0.683731 -0.028795 0.190776
adja+de 0.334585 0.164695 0.159922 0.423833 -0.108627 -0.338482 0.239190 -0.891727 -0.152134 -0.018889 -0.461048 -0.262378 0.800098 0.356469 -0.371151 0.593100 0.398198 0.676679 0.744935 -0.719624 -0.217259 0.149337 -0.427270 0.062702 0.010010
jj+sv 0.214615 -0.001913 0.017181 0.384271 -0.336416 -0.401200 0.822740 -1.473032 0.000420 -0.162932 -0.070119 -0.476649 0.536087 0.163920 0.297944 0.267203 0.871262 0.591877 0.565265 -0.135820 -0.585513 0.350319 -0.310882 0.850737 -0.423698
prep+pl 0.135847 -0.242257 -0.259642 0.252333 -0.306289 -0.383591 0.152315 -1.212603 -0.536464 -0.096607 0.166604 -0.711600 0.986106 0.375236 -0.603805 0.307894 0.855153 0.641599 0.776757 0.388192 0.001329 1.145464 0.196560 0.106022 0.653182
ab+sv 0.424018 0.161460 0.631760 0.377529 -0.648528 -0.527500 0.176283 -0.972905 -0.100805 0.467137 -0.299553 -0.469047 0.160373 -0.348000 -0.147323 -0.013233 0.539631 0.941817 0.623676 -0.388718 -0.869999 0.281658 -0.488182 0.221880 -0.069201
adj+pl 0.365607 -0.255193 -0.002759 0.218454 -0.335844 -0.204026 0.567010 -1.172283 -0.193732 0.150686 0.529741 -0.566119 0.404059 -0.185170 0.141170 -0.235036 1.022201 0.758737 0.107899 0.998475 -0.582635 0.914930 0.368806 0.498146 0.075459
p+d+fr 0.426116 0.148116 -0.212159 -0.857378 0.565904 0.951955 0.676092 0.115074 -0.762770 0.106515 0.547169 -0.229849 -0.595788 -0.130884 0.151865 -0.884349 -0.005418 0.388830 0.327069 0.612815 -1.606000 0.336113 -1.073989 0.587618 -0.200706
.+hu 0.006591 0.125838 -0.905114 0.194294 0.632029 -0.082315 0.064237 0.077082 -0.512061 0.046682 0.633045 -0.532659 0.676305 0.840957 -0.542632 -0.014480 0.281606 0.487239 0.119991 1.095222 0.014540 1.295655 0.258703 -0.380391 1.094272
mad+sv 0.297860 -0.605630 0.357837 0.551426 -0.213915 -0.379093 0.266748 -0.918293 0.029483 -0.216373 0.135884 -0.804451 0.910955 0.207475 -0.144742 0.093048 0.861615 0.646808 0.442518 0.284396 -0.524484 0.669150 -0.201659 0.313922 0.342134
p+hu -0.288084 0.718978 -0.767840 -0.195187 0.201020 -0.055104 0.564907 -0.124049 -0.588668 0.429677 0.192498 0.199467 -0.100027 -0.314925 0.201338 -0.181916 0.528516 0.777187 -0.293446 0.846222 -0.023823 0.828696 0.374425 -0.133899 0.599668
$.+de 0.528547 -0.125050 -0.017570 0.183749 0.276346 -0.179788 0.092368 -0.115033 -0.242391 0.378852 -0.189895 -0.041319 0.517052 0.001663 -0.525922 0.434259 -0.016114 0.757133 0.537683 -0.246235 -0.338034 0.361578 -0.460683 -0.045565 0.118739
$,+de 0.683839 -0.253901 0.137205 0.277496 0.193653 -0.351287 -0.104884 -0.283545 -0.213502 0.548129 -0.262687 -0.131280 0.548384 0.009696 -0.774419 0.456616 -0.161479 0.792060 0.779846 -0.392603 -0.396686 0.454680 -0.564824 -0.118132 0.071820
vpp+fr 0.119953 1.530764 -0.683025 -0.544868 0.029780 0.337251 0.006344 -0.234081 -0.446315 0.034933 0.099296 0.311473 -0.480239 0.749201 -0.555969 -0.115749 -0.688209 -0.040892 0.663350 -0.250868 -0.329602 0.272591 -0.354035 0.195156 0.096561
dt+sv 0.499250 0.178333 0.345903 0.282575 -0.460101 -0.260860 0.381816 -0.933183 -0.257410 0.037953 -0.430398 -0.708968 0.742270 0.080117 -0.196667 -0.096260 0.936418 1.242005 0.451636 0.149388 -0.607837 0.316453 -0.217874 0.295849 0.281127
adv+de 0.398284 0.197017 0.282924 0.314115 -0.017425 -0.270821 0.080902 -0.369806 -0.103212 0.338963 -0.314098 0.128220 0.347440 -0.114817 -0.474970 0.491282 0.007452 0.643948 0.625662 -0.663744 -0.394504 0.307839 -0.499857 0.065403 0.078031
pn+sv 0.386272 0.289299 0.377450 0.415089 -0.233363 -0.483625 0.291304 -0.926953 -0.039242 0.500968 -0.124364 -0.233721 0.042392 -0.372640 0.080329 -0.274829 0.602429 1.176137 0.175185 0.190626 -1.246320 0.528732 -0.423336 -0.054675 -0.123979
vvfin+de 0.168325 0.403004 0.168785 0.354972 0.060716 -0.143280 0.269252 -0.255299 -0.281593 0.221358 -0.258072 0.031817 0.465235 -0.153301 -0.162366 0.495189 0.317459 0.773089 0.473989 -0.635913 -0.435516 0.345375 -0.597178 -0.012601 0.405641
m+hu -0.311710 0.012566 -0.961617 -0.492658 0.111165 -0.070700 0.439899 -0.537684 -0.641857 -0.046751 -0.173883 0.279676 0.205980 -0.103918 -0.135486 0.034634 0.445847 0.370247 0.102900 0.782132 0.533597 0.829751 0.518711 0.096508 0.325787
praet+pl 0.069136 0.497863 0.301379 0.632179 -0.697064 -0.107486 0.206042 -0.974731 -0.468650 -0.032099 0.710162 -0.554718 0.531572 0.006525 0.101798 -0.021585 0.978253 0.352123 0.375958 0.096337 -0.663819 1.017278 0.002462 0.267146 0.809551
cc+fr 0.516449 0.452325 -0.627323 -0.510586 0.485719 0.677333 0.030824 0.054818 -0.648953 0.447039 0.886919 0.273624 -0.487303 0.330779 -0.231196 -0.289942 -0.627590 -0.278276 0.219622 0.317063 -0.703063 0.345477 -0.238071 -0.157534 -0.432386
kn+sv 0.259977 -0.193189 0.306995 0.448531 -0.288749 -0.343876 0.340466 -0.829903 -0.190140 -0.049529 0.028514 -0.740169 0.689483 0.125100 -0.153622 0.086716 0.742514 0.704210 0.601043 -0.015506 -0.602825 0.594525 -0.421564 0.406408 0.366920
prt 0.747639 0.218280 0.320950 0.237851 0.366198 -0.112057 0.396894 -0.053019 -0.303653 0.545572 -0.472907 0.087146 0.567317 -0.410957 -0.330236 0.388757 0.353894 1.551694 0.388304 -0.268670 -1.026465 0.416125 -0.856334 -0.001517 0.131152
$lrb+de 0.423900 0.133364 0.114129 0.190301 0.069125 -0.069218 0.183426 -0.164206 -0.376864 0.262676 -0.282369 -0.142514 0.600597 -0.019468 -0.393801 0.402681 0.205990 0.774734 0.534347 -0.428646 -0.275514 0.228653 -0.475347 0.024725 0.303676
vinf+fr 0.128862 1.442867 -0.718952 -0.247248 -0.066478 0.202932 -0.340965 -0.290338 -0.616379 0.195002 0.300871 0.207978 -0.189654 0.943742 -0.733720 0.191077 -0.768215 -0.303292 0.825022 -0.622133 -0.092208 0.312527 -0.276949 -0.291016 0.170963
k+hu -0.226775 0.397447 -0.733388 0.007878 -0.116697 -0.273700 0.130670 -0.590199 -0.605983 0.300374 0.380782 -0.105768 0.165761 0.060545 -0.192793 0.004158 0.426663 0.337954 0.128096 0.682818 0.192664 1.060427 0.529240 -0.280180 0.673174
qub+pl 0.206550 -0.176368 0.300149 0.263420 -0.482954 -0.738912 -0.032991 -1.095491 -0.141980 0.520969 0.023140 -0.403483 0.076937 -0.448365 -0.373113 -0.323298 0.585025 0.945555 0.372428 0.643460 -0.693554 1.063227 0.113413 -0.111981 0.442243
mid+sv 0.417910 -0.277719 0.227676 0.508736 -0.153887 -0.374000 0.322718 -0.928751 -0.077840 0.036151 0.241732 -0.614041 0.710373 0.202013 -0.207371 0.139821 0.605838 0.706173 0.596214 0.076369 -0.720134 0.698870 -0.406894 0.356740 0.152626
fin+pl 0.052210 0.569708 0.116906 0.474151 -0.595857 -0.093737 0.323562 -0.926864 -0.454193 0.009807 0.592919 -0.620716 0.510017 0.107864 0.174835 -0.100064 0.978902 0.473275 0.260587 0.278177 -0.598760 0.835438 0.028314 0.215189 0.667334
vafin+de 0.265000 0.285837 0.168730 0.256521 0.013402 -0.101533 0.206379 -0.241767 -0.253259 0.226303 -0.242880 0.092917 0.449073 -0.156960 -0.272598 0.484268 0.225924 0.670236 0.431189 -0.517715 -0.338058 0.362871 -0.420174 0.035461 0.330155
kon+de 0.357508 -0.058597 0.119031 0.191627 0.038700 -0.122786 0.148925 -0.328726 -0.241245 0.052255 -0.224553 -0.146838 0.567838 0.094604 -0.339668 0.338033 0.213678 0.575401 0.501614 -0.353011 -0.253886 0.287485 -0.374734 0.085416 0.199347
vvpp+de 0.321743 0.264604 -0.057018 0.290631 0.252087 -0.009830 0.288192 -0.181379 -0.295805 0.140870 -0.083137 -0.020798 0.607462 0.092782 -0.173142 0.444937 0.309881 0.677959 0.336267 -0.317154 -0.347629 0.355185 -0.391449 -0.051076 0.235388
adv+pl -0.008778 0.215278 0.205881 0.176315 -0.609015 -0.532783 0.026576 -0.912976 -0.268576 0.293843 0.035958 -0.567848 0.140106 -0.168250 -0.204512 -0.304054 0.682306 0.782145 0.332966 0.464153 -0.553473 0.782111 0.006412 -0.030392 0.588607
s+hu -0.456915 0.064155 -0.876918 -0.240890 -0.057824 -0.141738 0.267918 -0.595278 -0.649205 0.014940 0.434858 -0.069846 0.095414 0.033712 -0.130522 -0.056478 0.463064 0.043418 0.176024 0.805897 0.374084 1.106311 0.561074 -0.021893 0.609420
cls+fr -0.365847 1.644151 -0.758353 -0.796875 -0.161782 0.061632 0.701166 -0.653715 -0.792319 0.494573 -0.039371 0.862488 -1.004088 -0.568260 -0.072019 -0.131549 -0.104100 0.499480 0.520543 -0.061257 -0.398964 0.927064 -0.209907 0.459071 0.276093
x -0.212401 0.844356 -0.306491 0.479187 -0.395828 -0.966345 0.173097 -0.876390 0.238065 0.427480 -0.277390 -0.916301 -0.228162 0.628316 0.428059 -0.295397 0.246499 0.497254 -0.001705 0.038787 -0.458209 -0.395139 -0.185330 -0.319648 -0.465859
adjd+de 0.287231 0.190133 0.128973 0.208805 0.027804 -0.120403 0.153883 -0.265825 -0.185244 0.152075 -0.228640 0.046556 0.363028 -0.030690 -0.285052 0.345269 0.117465 0.530019 0.459969 -0.425590 -0.288076 0.249186 -0.377183 0.048898 0.110692
apprart+de 0.306213 -0.206310 0.156677 0.281382 0.065325 -0.087545 0.199562 -0.323161 -0.148507 -0.127824 -0.241312 -0.242482 0.725854 0.124484 -0.265984 0.267120 0.372185 0.538999 0.388391 -0.185658 -0.231252 0.286919 -0.307799 0.112448 0.262698
prorel+fr -0.120845 0.876990 -0.744374 -0.522952 0.297120 0.267734 0.595995 -0.152792 -0.559253 0.554791 0.480981 0.773854 -0.899158 -0.446658 0.226026 -0.210297 -0.257197 0.053772 0.023904 0.275027 -0.451787 0.634657 -0.040157 0.146063 -0.204561
card+de 0.338711 -0.027142 0.233061 0.237259 0.051750 -0.070556 0.153461 -0.362037 -0.080472 -0.097149 -0.328153 -0.036070 0.497499 0.069862 -0.284826 0.315152 0.207043 0.439529 0.445080 -0.376764 -0.306834 0.223963 -0.374551 0.166147 0.078179
pper+de 0.276252 0.128039 0.130449 0.173689 0.006389 -0.225583 0.051162 -0.330207 -0.056294 0.292617 -0.170008 0.054114 0.181617 -0.050970 -0.324257 0.299696 -0.033595 0.500910 0.450395 -0.347053 -0.296867 0.229658 -0.365998 -0.011091 -0.029972
rg+sv 0.233218 0.023216 0.112879 0.389346 -0.414502 -0.300833 0.473472 -1.052158 -0.081669 -0.021031 0.020696 -0.503814 0.582215 0.080629 0.172928 0.087971 0.811794 0.620897 0.308087 0.090052 -0.418918 0.304821 -0.061264 0.393165 -0.047921
cs+fr 0.289996 0.476243 -0.613263 -0.252279 0.534612 0.338187 0.025866 0.197127 -0.388541 0.630820 0.560741 0.792180 -0.551914 -0.016643 -0.227330 0.156376 -0.820762 -0.286174 0.141719 -0.116142 -0.239514 0.270282 -0.031470 -0.290854 -0.466865
vvinf+de 0.275771 0.270510 0.073135 0.154764 0.097544 0.118192 0.281087 -0.238131 -0.283973 0.077550 -0.028503 0.083895 0.362206 -0.020369 -0.153031 0.325689 0.236122 0.495992 0.365912 -0.344813 -0.399538 0.296241 -0.412804 0.083857 0.161213
conj+pl 0.040685 -0.081768 -0.143805 0.086663 -0.372136 -0.283717 0.245357 -0.893741 -0.305031 0.027820 0.178618 -0.569197 0.468226 0.037157 -0.139121 -0.118076 0.833501 0.590340 0.228849 0.702988 -0.101859 0.749460 0.337414 0.173196 0.416958
pc+sv 0.190950 -0.038162 0.160894 0.370343 -0.278793 -0.308492 0.445811 -0.946509 0.000225 -0.046533 -0.032141 -0.449451 0.450374 0.057735 0.176217 0.112270 0.706498 0.559056 0.329854 -0.009253 -0.461027 0.250796 -0.173708 0.424034 -0.156517
pm+sv 0.277520 0.348258 -0.047244 0.170122 -0.272455 -0.294979 0.323377 -0.917658 -0.296896 0.188065 -0.229126 -0.452780 0.492251 0.177279 -0.131023 0.120602 0.570899 0.899777 0.444452 -0.048741 -0.412101 0.263758 -0.260619 0.118250 -0.066728
sn+sv 0.184411 0.002939 0.515679 0.343033 -0.315197 -0.178180 0.277719 -0.575485 -0.075812 -0.002709 0.060273 -0.299794 0.347976 -0.234127 -0.010619 0.126767 0.536238 0.544074 0.407163 -0.240862 -0.650763 0.454602 -0.403318 0.325028 0.296165
hp+sv 0.150864 -0.131267 0.510076 0.384403 -0.235284 -0.259908 0.201998 -0.558570 0.010632 0.115675 0.022080 -0.324414 0.220221 -0.314122 0.096757 -0.067962 0.575741 0.587802 0.188868 0.015053 -0.775234 0.446663 -0.329116 0.092413 0.165926
pro+fr -0.093905 0.879025 -0.777504 -0.536931 -0.050427 -0.057060 -0.070933 -0.440348 -0.573790 0.512487 0.271756 0.217601 -0.633050 0.234462 -0.486480 -0.342471 -0.396722 0.063907 0.382819 0.432497 -0.137186 0.684615 0.179040 -0.276149 0.188977
clr+fr 0.182636 1.391040 -0.579181 -0.436537 0.175629 0.361625 0.515223 -0.184289 -0.668087 0.479419 0.211605 0.511955 -0.485671 -0.149105 -0.001793 -0.186425 -0.061866 0.641636 0.198244 0.102070 -0.696910 0.513057 -0.299123 0.161574 0.089887
ie+sv 0.228545 -0.011239 0.379881 0.237638 -0.256832 -0.270911 0.135201 -0.539310 -0.066205 0.205596 -0.259411 -0.347165 0.184396 -0.343303 0.103616 -0.285902 0.682811 0.916067 -0.045519 0.359773 -0.688466 0.252560 -0.115144 -0.124658 0.076985
vmfin+de 0.195519 0.177130 0.075684 0.167290 -0.001910 -0.067062 0.154602 -0.228761 -0.195246 0.095767 -0.131125 -0.085290 0.346499 0.007489 -0.169775 0.227808 0.234235 0.509061 0.279278 -0.223879 -0.224473 0.201085 -0.269703 0.051518 0.192485
pad+sv 0.233356 -0.027040 0.062793 0.430966 -0.208123 -0.374221 0.279615 -0.775950 -0.014260 0.057193 -0.046018 -0.442729 0.561133 0.167630 -0.029693 0.207132 0.512122 0.578921 0.324432 -0.028145 -0.309356 0.310414 -0.136070 0.210895 0.022099
inf+pl 0.102782 0.148049 0.090597 0.249209 -0.408874 -0.296906 0.132061 -0.757678 -0.236265 0.273647 0.275744 -0.416258 0.198956 -0.164087 -0.006049 -0.197558 0.653286 0.588294 0.131473 0.470711 -0.462904 0.673735 0.120912 0.033346 0.367406
ppron3+pl 0.205421 -0.098378 0.136665 0.147176 -0.345547 -0.238155 0.220811 -0.741047 -0.235902 0.240069 0.094580 -0.187992 0.278208 -0.395592 -0.043515 -0.086259 0.679404 0.694775 0.110211 0.477015 -0.348977 0.687932 0.253400 0.083032 0.224817
kous+de 0.043001 0.338479 0.097239 0.190005 -0.143340 -0.114870 0.141050 -0.333414 -0.197842 0.083315 -0.207207 -0.060739 0.273604 -0.043848 -0.085664 0.207543 0.300386 0.500020 0.230575 -0.287895 -0.176286 0.165877 -0.196767 -0.031254 0.268426
comp+pl -0.089137 0.146075 0.008087 -0.096337 -0.556504 -0.237627 0.272239 -0.780956 -0.151659 -0.008011 0.135873 -0.677822 0.005885 -0.032265 0.193275 -0.457416 0.714209 0.462477 0.077606 0.664714 -0.273095 0.330865 0.201552 0.321761 0.254186
clo+fr 0.122872 1.384968 -0.513110 -0.359863 0.086634 0.228741 0.405057 -0.173452 -0.567855 0.482145 0.173382 0.612628 -0.439271 -0.219444 -0.084724 -0.060209 -0.098759 0.606358 0.202313 0.018279 -0.535245 0.559919 -0.189326 0.091727 0.211175
et+fr 0.157430 0.374845 -0.537404 -0.071612 0.021333 -0.313103 -0.064424 -0.471954 -0.062379 0.548058 0.620053 -0.756659 -0.551296 0.567348 0.099000 -0.935689 -0.036625 0.193349 -0.199408 1.174437 -0.825769 0.254862 0.121050 -0.448416 -0.340365
piat+de 0.166355 -0.039207 0.099875 0.174700 0.012583 -0.086419 0.130354 -0.274220 -0.093545 -0.053683 -0.117632 -0.147296 0.398193 0.087519 -0.141632 0.193281 0.255506 0.352717 0.281164 -0.147290 -0.178716 0.190467 -0.190783 0.101693 0.116792
pposat+de 0.218785 -0.056989 0.130572 0.215073 0.033740 -0.050082 0.137217 -0.275675 -0.084125 -0.112149 -0.195596 -0.078947 0.429269 0.110745 -0.163524 0.187692 0.221772 0.357389 0.257395 -0.145204 -0.145713 0.187009 -0.216550 0.128261 0.114491
prels+de 0.125980 0.321462 0.046866 0.152692 -0.067111 -0.049068 0.156227 -0.302455 -0.147707 0.035394 -0.226459 0.043482 0.258761 -0.002325 -0.113907 0.193303 0.187295 0.397304 0.278202 -0.273926 -0.178316 0.158021 -0.190279 0.046490 0.142351
pl+sv 0.230507 0.047087 0.266589 0.290415 -0.206279 -0.240400 0.216408 -0.596010 -0.035160 0.153838 -0.086629 -0.312535 0.207492 -0.161116 0.084394 -0.127572 0.515682 0.711259 0.123594 0.163039 -0.623185 0.279744 -0.192540 0.040935 -0.015844
vpr+fr 0.242211 0.432641 -0.490757 -0.345878 0.069397 0.210990 -0.217062 -0.238584 -0.486709 0.256026 0.420801 -0.081162 -0.316988 0.535506 -0.385977 -0.201073 -0.465872 -0.312974 0.422885 0.039857 -0.330341 0.157018 -0.121942 -0.255638 -0.260890
ptkvz+de 0.121323 0.206148 0.033448 0.115763 0.017580 -0.000627 0.195454 -0.192895 -0.187155 0.041187 -0.084334 -0.026975 0.278279 -0.022345 -0.067854 0.201942 0.263675 0.410543 0.185656 -0.170465 -0.218188 0.213478 -0.205361 0.015073 0.186744
ha+sv 0.170384 -0.080667 0.323554 0.293255 -0.232252 -0.165760 0.192210 -0.509972 -0.052177 0.023902 0.043380 -0.306997 0.276699 -0.140227 0.023469 0.030680 0.463886 0.424591 0.256410 -0.077394 -0.503110 0.374114 -0.279848 0.167128 0.172148
:+hu -0.113898 0.259261 -0.757222 -0.064080 0.101660 -0.300994 0.090682 -0.469161 -0.467194 0.383593 0.277764 -0.008127 0.031330 0.069909 -0.331063 -0.063908 0.198949 0.416172 0.166687 0.701907 0.058527 0.936410 0.330899 -0.315832 0.451337
prf+de 0.211193 0.072036 0.081604 0.112409 -0.078149 -0.132233 0.059025 -0.280391 -0.077802 0.110109 -0.132579 -0.002536 0.192940 -0.014379 -0.231730 0.192556 0.056370 0.308210 0.296839 -0.220950 -0.182146 0.160041 -0.191253 0.058760 0.000073
ppas+pl 0.184143 -0.018195 0.104763 0.192647 -0.315059 -0.189667 0.285172 -0.696033 -0.180439 0.180722 0.207338 -0.264237 0.254397 -0.254098 0.106910 -0.108367 0.735176 0.623840 -0.005245 0.518320 -0.340209 0.520599 0.264946 0.147400 0.165132
ps+sv 0.146941 -0.094718 0.104861 0.274413 -0.157520 -0.198622 0.244671 -0.578159 -0.058973 -0.095178 -0.041731 -0.422777 0.480415 0.084101 0.002688 -0.014292 0.590990 0.536567 0.166346 0.251434 -0.298798 0.328970 -0.058173 0.164996 0.167905
ptkneg+de 0.161560 0.039330 0.107777 0.114383 -0.034399 -0.066386 0.084084 -0.214025 -0.094559 0.090185 -0.008556 -0.027628 0.168741 -0.051160 -0.131609 0.140423 0.101271 0.280926 0.253122 -0.177696 -0.247231 0.223729 -0.186592 0.077251 0.091098
num+pl 0.097231 -0.075762 -0.077834 0.220712 -0.205480 -0.182560 0.312481 -0.653076 -0.184935 0.053925 0.212635 -0.312833 0.440898 -0.052774 0.040567 0.028930 0.708180 0.537227 0.037400 0.536712 -0.136508 0.589607 0.306490 0.158234 0.259238
pis+de 0.159905 0.112506 0.073309 0.114413 -0.040015 -0.089313 0.071907 -0.249184 -0.096468 0.105216 -0.099670 -0.035296 0.190312 -0.001803 -0.158622 0.136259 0.106741 0.306449 0.266111 -0.195792 -0.209755 0.167268 -0.178525 0.020540 0.030460
proav+de 0.145445 0.106208 0.048362 0.127607 -0.019444 -0.087531 0.116691 -0.222282 -0.125864 0.105191 -0.026210 -0.020115 0.178978 -0.017942 -0.139210 0.178051 0.098775 0.289860 0.223492 -0.163410 -0.229758 0.205988 -0.177811 0.035473 0.073990
ptkzu+de 0.222546 -0.023583 0.004509 0.006323 0.033468 -0.017602 0.086919 -0.118684 -0.203277 0.106088 -0.082446 -0.197468 0.305520 0.030310 -0.224352 0.045138 0.160591 0.430292 0.223192 0.042287 -0.221435 0.218572 -0.174708 0.052347 0.192259
aglt+pl 0.070384 -0.068546 0.123075 -0.102902 -0.424682 -0.243478 0.081197 -0.691535 -0.283221 0.231609 -0.115415 -0.174445 0.055889 -0.396849 -0.194138 -0.179291 0.468577 0.595819 0.265609 0.353341 -0.274864 0.575467 0.092898 0.071636 0.269860
ger+pl 0.242105 -0.034104 0.006336 0.231332 -0.232225 -0.101090 0.306295 -0.612297 -0.211179 0.131432 0.209286 -0.389911 0.449639 -0.067266 0.123590 -0.071929 0.750554 0.613210 -0.054486 0.527984 -0.230276 0.412165 0.284834 0.079495 0.110984
pds+de 0.127550 0.072861 0.045666 0.043270 -0.011360 -0.069162 0.064370 -0.204891 -0.066973 0.092103 -0.012967 -0.007714 0.087650 -0.009587 -0.132226 0.072889 0.032312 0.187030 0.210376 -0.088334 -0.180203 0.151418 -0.120712 0.031278 -0.000214
x+hu -0.160542 0.216381 -0.539494 -0.253691 -0.158483 0.005457 0.048405 -0.349550 -0.440498 0.122637 0.264783 -0.008594 0.018600 -0.004867 -0.130913 -0.137645 0.248370 0.035195 -0.014981 0.612172 0.284555 0.543557 0.596109 -0.152344 0.316545
vainf+de 0.157105 0.187344 -0.066163 0.051637 0.007021 -0.019256 0.129703 -0.238787 -0.167283 0.118202 -0.060087 0.082470 0.197703 -0.005899 -0.134708 0.177489 0.095825 0.275703 0.188437 -0.117863 -0.146262 0.200249 -0.097218 0.043954 0.065399
pred+pl -0.052038 0.068430 -0.076516 0.147781 -0.264923 -0.230195 0.136087 -0.517311 -0.178994 0.049068 0.129896 -0.357169 0.239589 0.007584 -0.020352 -0.102068 0.539600 0.391661 0.085278 0.433677 -0.110358 0.508719 0.203876 0.082606 0.358703
ppron12+pl 0.132666 0.017412 0.071986 0.082994 -0.282767 -0.194097 0.164196 -0.548416 -0.181735 0.180110 0.088302 -0.233159 0.185709 -0.206728 -0.064614 -0.110709 0.498220 0.544131 0.109768 0.408185 -0.277974 0.498567 0.154629 0.058742 0.225214
pdat+de 0.116266 -0.032401 0.060512 0.113338 0.018602 -0.035689 0.082399 -0.210741 -0.059615 -0.043744 -0.057388 -0.087666 0.250900 0.053894 -0.091443 0.122933 0.191315 0.213542 0.152459 -0.060785 -0.114226 0.130630 -0.085001 0.077093 0.070524
kokom+de 0.104832 0.048969 0.037470 0.064352 -0.058445 -0.053898 0.068722 -0.194047 -0.088006 0.076158 -0.031700 -0.077644 0.151285 -0.002655 -0.079575 0.088397 0.120153 0.227609 0.184235 -0.065352 -0.134288 0.129088 -0.079301 0.033148 0.062220
pwav+de 0.023195 0.144178 0.004836 0.046182 -0.037307 -0.028219 0.091042 -0.189250 -0.113417 0.041986 -0.076100 -0.027682 0.151295 0.018956 -0.035093 0.100743 0.134913 0.200685 0.133551 -0.100271 -0.086619 0.097032 -0.070773 0.001729 0.077104
vapp+de 0.104231 0.126538 -0.051045 0.066676 0.014163 -0.004686 0.070095 -0.131747 -0.115501 0.079594 -0.019028 -0.002940 0.137945 0.012445 -0.075796 0.088361 0.093858 0.224090 0.134690 -0.056590 -0.081085 0.167897 -0.054858 0.021568 0.059196
vvizu+de 0.056103 0.070652 0.013619 0.084834 0.028067 -0.027318 0.087922 -0.152073 -0.097545 0.016630 -0.052763 -0.046453 0.163420 0.030775 -0.027957 0.063953 0.149283 0.196030 0.122754 -0.021994 -0.102840 0.141739 -0.090482 0.040424 0.081911
pact+pl 0.078057 0.025722 -0.017181 0.133771 -0.228985 -0.089333 0.202415 -0.454223 -0.130355 0.040546 0.188577 -0.275339 0.264546 -0.051279 0.070514 -0.063780 0.511152 0.381189 -0.002227 0.365537 -0.111774 0.334748 0.243789 0.131478 0.180130
brev+pl -0.018585 0.211083 -0.025508 0.041245 -0.302695 -0.118550 0.191289 -0.516330 -0.118863 0.046472 0.079553 -0.336888 0.082794 0.016280 0.113555 -0.172538 0.447173 0.345819 0.045713 0.323728 -0.192402 0.211162 0.135391 0.167349 0.153263
bedzie+pl -0.013317 0.062327 -0.083124 0.086220 -0.229082 -0.174403 0.084983 -0.489614 -0.239236 0.071888 0.141185 -0.250950 0.235084 0.003446 -0.095373 -0.028327 0.403413 0.326536 0.149909 0.335332 -0.092742 0.495847 0.155373 0.006791 0.330700
?+hu -0.051535 0.110547 -0.394297 -0.055830 0.127204 -0.004112 0.079395 -0.123786 -0.246640 0.038992 0.219728 0.001618 0.097786 0.149092 -0.139972 -0.016355 0.114922 0.078671 0.043309 0.372210 0.119184 0.438321 0.182768 -0.059593 0.242375
imps+pl 0.043036 0.018939 -0.059708 0.111685 -0.154535 -0.102288 0.147129 -0.374502 -0.148078 -0.000350 0.134115 -0.215501 0.260133 0.013179 0.013366 0.003855 0.437065 0.284912 0.022036 0.324441 -0.039728 0.332132 0.199764 0.049694 0.206089
vs+fr 0.202734 0.279227 -0.350233 -0.214063 0.261193 0.291556 0.016991 0.038012 -0.313834 0.228812 0.331393 0.202571 -0.205012 0.166740 -0.184392 -0.025113 -0.339543 -0.100239 0.226588 -0.060774 -0.351693 0.189498 -0.227740 -0.048170 -0.203848
o+hu -0.114731 0.261459 -0.334206 -0.181828 -0.041065 0.007912 0.185563 -0.171004 -0.330564 0.127599 0.090754 0.043121 -0.031199 -0.113323 0.052386 -0.106775 0.261454 0.244621 -0.056919 0.358588 0.044593 0.340317 0.238649 -0.074575 0.233447
trunc+de 0.043873 0.049172 0.019800 0.030053 -0.040798 -0.044734 0.048956 -0.142300 -0.071911 0.050411 -0.066527 -0.044168 0.074735 0.029911 -0.061358 0.052653 0.068692 0.151098 0.087822 -0.046993 -0.049132 0.054327 -0.040133 0.003037 0.005853
xy+de 0.000216 0.031675 -0.014006 0.017710 0.001230 0.004646 0.015459 -0.034942 -0.037435 0.021988 0.002888 0.000779 0.029830 0.011426 -0.006573 0.000091 0.026371 0.043255 0.027494 -0.002980 -0.031597 0.023066 -0.011389 -0.005855 0.022894
ro+sv 0.064418 -0.048137 -0.015805 0.103161 -0.094674 -0.103755 0.166469 -0.359489 -0.082677 -0.034291 0.021340 -0.242716 0.229022 0.078721 0.001301 0.055785 0.305884 0.230411 0.173471 0.084916 -0.132352 0.202999 -0.042273 0.151942 0.043755
impt+pl -0.057921 0.144223 -0.020015 0.041353 -0.193680 -0.108169 0.084578 -0.309129 -0.095945 0.044806 0.041853 -0.179531 0.056277 -0.042721 0.032991 -0.107484 0.279466 0.205194 0.057203 0.206206 -0.083801 0.239005 0.090628 0.080518 0.211643
pref+fr 0.249420 0.153365 -0.168628 -0.256235 0.091051 0.355630 -0.017131 -0.069739 -0.234666 0.092109 0.420873 -0.024393 -0.201692 0.229148 -0.069739 -0.171977 -0.217628 -0.234111 0.148431 0.077918 -0.361691 0.009828 -0.125526 0.030936 -0.308496
siebie+pl 0.062972 0.031392 0.050878 0.058570 -0.175611 -0.081773 0.153252 -0.333472 -0.121125 0.084626 0.069737 -0.163515 0.118227 -0.109887 0.024753 -0.079443 0.366266 0.294594 0.032833 0.238001 -0.158645 0.210444 0.111619 0.059116 0.095268
koui+de 0.030382 0.102704 -0.011378 0.054540 -0.039054 -0.039338 0.027432 -0.143597 -0.057770 0.014080 -0.041488 -0.045339 0.081765 0.026419 -0.053232 0.044018 0.109152 0.139583 0.083422 -0.041111 -0.041871 0.077888 -0.036722 0.002659 0.066251
z+hu -0.086834 0.189523 -0.330644 -0.115682 -0.040471 0.010773 0.062416 -0.189120 -0.259477 0.095945 0.144832 -0.003873 -0.003801 0.024385 -0.061222 -0.065624 0.161580 0.077440 0.006100 0.299616 0.082410 0.314859 0.235194 -0.081893 0.207818
i+hu -0.099104 0.240624 -0.296452 -0.059739 -0.025809 -0.041802 0.150390 -0.129114 -0.279642 0.112391 0.077121 0.048178 -0.004796 -0.068299 -0.001468 -0.050199 0.195358 0.179896 -0.013640 0.239788 0.013200 0.293959 0.133418 -0.080676 0.227766
pws+de 0.063685 0.058659 -0.032733 0.032838 -0.005273 -0.008976 0.040132 -0.094750 -0.056394 0.038224 0.007150 -0.009501 0.048900 0.002386 -0.032854 0.007614 0.060307 0.118688 0.071605 -0.041807 -0.086702 0.068705 -0.029188 0.009508 0.013629
hd+sv 0.062155 -0.051740 0.021999 0.087299 -0.069338 -0.058902 0.088375 -0.210034 -0.039829 -0.042495 0.017220 -0.166924 0.205364 0.040572 -0.008482 -0.006563 0.208907 0.184101 0.081433 0.090419 -0.093484 0.159387 0.008815 0.057687 0.093630
vminf+de 0.043104 0.043489 0.001919 -0.013192 -0.011670 0.002930 0.046416 -0.040254 -0.079586 0.046061 -0.018219 -0.014825 0.045799 0.017565 -0.024689 0.013497 0.030382 0.082848 0.030623 -0.013565 -0.065491 0.039744 -0.022794 -0.000170 0.019764
;+hu -0.043358 0.128442 -0.242357 -0.089906 0.013300 -0.012243 0.085078 -0.115777 -0.179900 0.069630 0.104615 0.027953 0.007659 0.037346 -0.080912 -0.027007 0.067436 0.098086 0.036957 0.210661 0.040388 0.290690 0.143651 -0.065445 0.160004
uo+sv 0.031668 0.087923 -0.062050 0.029747 -0.097636 -0.072625 0.014934 -0.198471 -0.093002 0.067939 0.035923 -0.104424 0.064900 0.050822 -0.048168 -0.024229 0.107701 0.151288 0.078659 0.080610 -0.085602 0.112726 0.032336 -0.029735 0.058128
advwh+fr 0.083783 0.290986 -0.169604 -0.201791 -0.012649 0.156719 0.031784 -0.110532 -0.204670 0.095814 0.187369 0.053903 -0.198569 0.097156 -0.055799 -0.140205 -0.167423 -0.078114 0.161186 0.054047 -0.238157 0.112016 -0.071538 0.029768 -0.126226
appo+de 0.037761 -0.020949 0.013492 0.018499 0.013193 -0.024862 0.025773 -0.076571 -0.017881 -0.007903 0.008000 -0.047502 0.077203 0.029930 -0.008092 0.035417 0.044092 0.077631 0.035948 0.005641 -0.025198 0.061063 -0.029096 0.036947 0.011119
!+hu -0.001898 0.115024 -0.156150 -0.018169 0.022662 -0.012471 0.052451 -0.074356 -0.155304 0.054737 0.065073 -0.036072 0.050075 0.021571 -0.018277 -0.029686 0.113894 0.116071 -0.008964 0.182818 0.019553 0.166227 0.089156 -0.048790 0.136116
fm+de 0.042361 0.051287 -0.025294 -0.023365 -0.015030 0.010865 0.049604 -0.069705 -0.074710 0.038080 0.003709 -0.025103 0.021399 0.011781 -0.011350 0.010198 0.044303 0.090771 0.031683 0.035752 -0.064176 0.045748 -0.018442 -0.012336 0.018448
prowh+fr 0.085057 0.177283 -0.156784 -0.101122 0.096153 0.101659 0.042185 -0.036198 -0.178484 0.079074 0.140335 0.064448 -0.107741 0.065125 -0.032740 -0.036421 -0.074576 -0.000103 0.095187 0.034798 -0.135154 0.123943 -0.054908 -0.006707 -0.027518
winien+pl 0.025912 0.023656 -0.055776 0.008362 -0.068909 -0.043095 0.040530 -0.188918 -0.105670 0.022329 0.076100 -0.045363 0.071257 -0.023974 -0.062517 -0.010215 0.150313 0.101835 0.056696 0.147827 -0.036019 0.215424 0.053945 -0.002932 0.105085
vimp+fr 0.042652 0.119644 -0.089770 -0.080215 -0.024975 0.057668 -0.030024 -0.087581 -0.101865 0.091203 0.115971 0.038437 -0.150362 0.047767 -0.066116 -0.095554 -0.091989 -0.072717 0.079565 0.041406 -0.079136 0.066922 0.024526 -0.039606 -0.082554
ptka+de 0.007104 0.017583 -0.008095 0.008290 -0.009876 -0.013163 -0.004461 -0.013662 -0.008430 0.027142 -0.008326 0.012614 0.033365 -0.007126 -0.022555 0.008758 0.003372 0.022894 0.008985 0.021523 -0.016487 0.048998 0.000872 0.001895 0.028427
p+pro+fr 0.060524 0.209563 -0.149186 -0.160701 -0.000946 0.079797 0.023505 -0.103555 -0.142936 0.112175 0.168306 0.058060 -0.193846 0.042255 -0.088163 -0.131010 -0.127622 -0.029009 0.096629 0.083534 -0.131648 0.125003 0.000776 0.000091 -0.069820
prelat+de 0.028854 -0.000699 0.008734 -0.002300 0.006677 -0.002348 0.007060 -0.030323 -0.013733 0.016571 -0.009322 -0.022065 0.059523 0.019340 -0.034555 0.011959 0.048369 0.048939 0.023430 0.007663 -0.036481 0.021477 -0.027337 0.027710 0.026530
apzr+de 0.005440 0.018182 0.016560 -0.009490 0.009796 0.008124 0.015181 -0.031747 -0.009883 0.014987 -0.000857 -0.007987 0.030701 0.014345 -0.027189 0.024119 0.036390 0.047495 0.043429 0.008611 -0.028356 0.040893 -0.005690 0.018202 0.031708
vvimp+de 0.014062 0.019906 -0.020878 -0.004047 -0.018867 -0.025958 -0.001132 -0.042150 -0.027065 0.018047 -0.007730 -0.004520 0.005816 0.014064 -0.037671 0.014405 0.015232 0.044075 0.016521 -0.016218 -0.017732 0.049446 -0.026525 0.008055 0.023647
pwat+de 0.002128 0.020455 0.002040 0.006235 -0.007973 0.006169 0.009949 -0.034028 -0.000235 0.004905 -0.018428 -0.015715 0.053637 0.026144 -0.027187 -0.004761 0.020694 0.043340 0.029629 0.006224 -0.027867 0.053666 -0.009417 0.006533 0.023689
adja+pl -0.008820 0.022646 -0.020535 -0.004343 -0.048714 -0.050287 0.054078 -0.152199 -0.036395 0.000508 0.038926 -0.058000 0.031872 -0.003341 -0.005077 -0.017030 0.138121 0.080774 0.025154 0.095152 -0.001661 0.113684 0.066256 0.040137 0.075306
in+sv 0.020148 0.040832 0.003559 0.007093 -0.045373 -0.023937 0.007279 -0.077782 -0.041657 0.028342 -0.012415 -0.024009 0.010970 -0.008687 -0.012462 -0.023457 0.065688 0.058824 0.028077 0.026757 -0.023901 0.063004 -0.006292 -0.015646 0.021286
adjp+pl 0.034537 -0.000409 0.074675 0.076527 -0.119015 -0.033878 0.074343 -0.156056 -0.059294 0.037541 0.039434 -0.086773 0.082998 -0.108031 0.054701 -0.051884 0.212708 0.193086 -0.014777 0.122941 -0.083443 0.115526 0.063478 0.034573 0.044250
y+hu 0.008709 0.011150 -0.094652 -0.049787 0.008701 0.002129 0.015450 -0.045342 -0.040155 0.021292 0.067205 -0.004930 -0.003747 0.013656 -0.011634 -0.027558 -0.013000 -0.013756 0.016579 0.056961 -0.001934 0.068817 0.032679 0.014165 0.011865
hs+sv -0.008160 0.005110 0.012728 0.012834 -0.007588 -0.018440 0.014694 -0.048033 -0.034981 0.004443 -0.024077 -0.033113 0.033575 0.001915 0.009162 0.004014 0.070138 0.072896 0.031980 0.021158 -0.027727 0.036254 0.010766 0.019429 0.014867
ptkant+de 0.000712 -0.007358 -0.015532 -0.006738 -0.014150 0.014614 -0.014250 -0.019697 0.003893 0.020815 -0.007136 -0.020235 0.020458 0.006163 -0.011683 0.001290 0.005813 0.001944 0.023583 0.004117 0.007297 0.001832 0.010084 0.001598 0.007769
adjwh+fr 0.068834 0.170080 -0.143857 -0.104394 0.027108 0.090491 0.045707 -0.078567 -0.146550 0.074029 0.133488 0.041167 -0.139046 0.066755 -0.051618 -0.071659 -0.066382 0.018068 0.089400 0.052045 -0.151177 0.088298 -0.054365 -0.002193 -0.031107
i+fr 0.010406 0.051293 -0.057158 -0.060100 -0.015976 0.028920 0.004650 -0.069254 -0.064563 0.028468 0.058455 -0.010857 -0.062979 0.047359 -0.033010 -0.045414 -0.011705 -0.006917 0.004696 0.045142 -0.058712 0.032264 0.007313 -0.023415 -0.044670
detwh+fr 0.012874 0.005130 0.018252 0.003597 -0.012087 -0.002827 -0.006530 0.019678 -0.004791 0.019708 0.000752 -0.013109 -0.017017 -0.005188 -0.015063 0.005381 -0.003443 0.019637 0.017198 -0.014031 -0.004205 -0.001537 0.002438 0.011215 -0.000512
itj+de 0.018557 -0.000707 -0.008886 0.000120 0.005757 -0.015603 0.010389 0.013614 0.013528 0.015946 -0.004600 -0.002228 -0.015946 -0.010902 0.018456 -0.008551 0.016150 0.015982 0.017464 -0.013924 0.014576 0.005706 -0.011984 -0.006119 -0.013734
depr+pl 0.018664 -0.013837 0.015803 -0.007559 0.001940 0.007283 -0.010541 -0.013291 0.000339 0.011675 0.007697 -0.015241 0.016030 -0.000810 0.017867 0.002137 -0.016608 -0.011901 0.014170 0.008237 0.015798 -0.006834 0.001120 0.006016 0.003772
pposs+de 0.017324 0.007995 -0.009549 -0.009469 0.005257 -0.014212 0.003110 0.000250 -0.013882 -0.011443 -0.022214 -0.016829 0.020073 -0.014134 -0.014895 -0.015553 0.011977 -0.003083 0.003020 -0.018088 -0.006914 0.000106 -0.002247 -0.002216 -0.014159
-+hu -0.006638 0.034761 -0.031226 -0.026393 -0.001729 0.014161 0.020974 -0.030802 -0.029362 0.030195 0.026394 0.009174 -0.002575 0.001625 -0.001533 -0.009036 0.018268 0.035199 -0.010716 0.046693 0.006918 0.048585 0.025529 -0.012839 0.035946
adjc+pl -0.000587 0.013812 0.000491 0.026597 0.005872 -0.011773 0.023858 -0.002377 -0.002788 -0.001103 -0.007296 0.011776 -0.000786 0.002788 0.006655 0.013918 0.038508 0.007028 -0.003311 0.017819 -0.014306 -0.014137 0.000231 0.019637 -0.014597
