153 50
noun -1.023480 -0.326423 -0.123047 -0.389412 0.371332 -0.107958 0.287376 -0.940745 -0.897229 -0.768504 0.362931 0.512319 -0.446673 0.406079 0.511537 -0.111825 0.737013 -0.088777 -0.561603 0.040341 0.093499 0.163413 0.015134 0.296458 0.048051 -0.372248 -0.055090 -0.398811 -0.375165 0.308672 0.813990 -0.480206 0.993544 0.512130 0.793644 0.609344 -0.098390 -0.281731 -0.528440 -0.326259 -0.075093 -0.111634 -0.189607 0.987925 -0.504461 -0.194830 0.318968 -0.465982 -0.024762 0.068672
. -0.612099 -0.724535 -0.424056 -0.500847 0.572163 0.032476 -0.076633 -0.524707 -0.232055 -0.506304 0.059603 0.123834 -0.070271 0.463301 0.138032 -0.118240 0.984380 -0.698199 -0.352400 0.497969 0.196509 0.254046 0.365756 0.469316 0.091537 -0.571861 0.223226 -0.246486 -0.398275 0.763462 0.840943 -0.658706 1.376792 0.260829 0.654355 0.228052 0.270492 -0.141493 -0.511768 -0.488809 0.036670 -0.058687 -0.298129 0.408856 -0.138628 -0.053790 0.333032 -0.310891 0.231189 -0.021338
det -0.524837 -0.409913 -0.089678 -0.490700 0.639627 0.086953 0.354532 -1.001656 -0.311922 -0.454640 0.361143 0.407429 -0.369393 0.177906 0.135487 0.314395 0.642599 -0.281991 -0.519983 -0.044955 -0.585029 0.053328 -0.216021 0.420902 0.383462 0.080464 0.045707 -0.452769 -0.308113 0.390127 0.956113 -0.211841 0.833041 0.172845 0.896165 0.505386 0.033185 0.251069 -0.288572 0.100424 0.190537 -0.208516 -0.458781 0.764191 -0.325839 -0.091754 0.628793 -0.403591 0.152439 -0.025171
adj -0.896600 -0.308177 -0.281173 -0.313220 0.288341 -0.105274 0.295424 -0.899993 -0.520119 -0.609371 0.178272 0.172264 -0.559203 0.447814 0.421607 -0.021709 0.404469 -0.157360 -0.369988 0.062673 -0.009611 0.283968 0.237279 0.191434 0.027532 -0.125307 -0.006073 -0.076787 -0.401695 0.411472 0.844504 -0.340388 0.844948 0.362931 0.753958 0.417520 -0.002005 -0.239923 -0.457539 0.000999 0.157640 0.011407 -0.512252 0.709149 -0.429203 -0.053984 0.368306 -0.278028 0.075016 -0.368984
verb -0.742892 -0.418824 0.009066 -0.405024 0.284882 0.126915 0.335657 -0.871086 -0.427465 -0.939084 0.293844 0.154036 -0.192893 0.389934 -0.308024 -0.385929 0.942646 -0.270538 -0.256002 0.099362 0.448176 0.191084 0.581360 0.470018 -0.075759 -0.113713 -0.051325 -0.503676 -0.351700 0.078036 0.333127 -0.216033 1.169027 0.786094 0.722240 0.144569 0.130977 -0.293847 -0.897087 0.039808 0.177764 0.075003 0.476750 0.960137 -0.553784 -0.305987 0.433918 -0.303886 0.103878 -0.011948
adp -0.918105 -0.291758 -0.514004 -0.201935 0.261191 -0.334062 0.434697 -0.917269 -0.522098 -0.545685 0.091478 0.189690 -0.402264 0.252185 0.571337 0.377533 0.346136 -0.485418 0.202390 0.415501 -0.151960 0.542880 -0.187043 0.008459 -0.031688 -0.136877 -0.090938 -0.058925 -0.193859 -0.002053 0.959115 -0.264051 0.923958 0.448948 1.016550 0.235652 0.112562 -0.456468 -0.676062 -0.385297 0.048278 0.298810 -0.438176 0.643257 -0.648048 -0.081563 0.294878 -0.253590 0.480003 -0.342971
adv -0.990055 -0.248710 -0.271747 -0.378219 0.673479 0.075594 0.377236 -0.638614 -0.438520 -0.514292 0.156114 -0.024530 -0.102713 0.305409 0.337419 0.133835 0.595378 -0.202929 -0.338216 -0.009471 0.011891 -0.076839 0.132409 -0.054599 0.014775 -0.057808 0.037687 -0.305316 -0.177369 0.363538 0.931830 -0.374455 0.684720 0.462324 0.855342 0.158493 0.044157 -0.273447 -0.609971 -0.079388 -0.153144 0.140778 -0.195353 0.573647 -0.289162 -0.106850 0.368910 -0.347167 0.208373 -0.100192
nn -0.943395 -0.286111 -0.099584 -0.359736 0.225069 -0.129758 0.292319 -0.831804 -0.875769 -0.619439 0.272408 0.532731 -0.534492 0.379340 0.623502 0.010305 0.478729 0.011170 -0.664012 0.105064 -0.056171 0.082962 -0.080549 0.229819 0.109441 -0.356163 -0.130976 -0.434763 -0.265712 0.369641 0.792609 -0.429854 0.747824 0.348713 0.710145 0.713031 -0.177378 -0.161485 -0.366897 -0.332969 0.018677 -0.030758 -0.229676 0.717067 -0.529196 -0.194842 0.350865 -0.392729 -0.029258 0.027485
nc -0.091020 0.174896 -0.169601 -0.194732 -0.144643 -0.169478 -0.029837 0.348287 -0.060070 0.228611 0.085075 0.406786 -0.091101 0.116558 -0.297270 -0.137484 -0.205156 -0.100761 -0.558120 -0.059591 -0.167040 -0.652138 0.348561 0.031394 -0.083246 -0.724841 -0.315365 -0.351579 0.318727 -0.131544 -0.221678 -0.071622 -0.226279 0.125195 0.071897 0.004572 0.117069 0.116711 0.247250 -0.483223 -0.550870 0.301360 0.246998 -0.196235 0.090219 -0.280570 0.211661 0.201676 -0.206327 -0.212704
n -0.149952 0.122965 0.143889 -0.241804 0.104570 -0.585978 -0.037781 0.087633 0.331267 -0.156008 0.191491 -0.093216 -0.206504 -0.386279 0.220911 -0.424735 -0.138081 -0.029118 0.492618 -0.105468 0.493285 -0.149488 0.328554 0.516553 -0.397380 -0.449472 -0.007682 -0.200981 -0.108405 -0.510877 0.189099 -0.532334 -0.263207 -0.067192 -0.309733 0.088712 -0.068773 0.183762 0.063915 -0.109244 -0.016897 -0.783905 -0.283875 -0.141974 -0.061890 0.032238 -0.183265 0.187663 0.076050 0.516457
p -0.117791 0.231448 0.237714 -0.351408 0.021479 -0.441222 0.299190 -0.398456 0.337814 -0.358924 0.372990 -0.017271 -0.443440 -0.450889 -0.036450 -0.258347 -0.208132 0.026830 0.576975 -0.167259 0.228750 -0.081718 0.270414 0.768989 -0.280967 -0.231899 -0.195494 -0.364085 -0.162746 -0.771449 0.148086 -0.273857 -0.065552 0.089740 0.016948 0.142467 -0.005818 0.177104 -0.190532 0.288083 0.095326 -0.763560 -0.233635 0.210423 -0.439256 -0.135544 -0.013362 0.045141 0.157076 0.303475
pron -0.853781 -0.424981 -0.144900 -0.415147 0.852953 0.242857 0.351820 -0.747389 -0.186011 -0.589334 0.417803 0.007272 -0.085936 0.202407 0.168194 -0.017774 0.808408 -0.372940 -0.678214 -0.106265 0.085675 -0.125661 0.409395 0.127091 0.094579 -0.056661 0.097503 -0.521651 -0.216356 0.385116 1.039960 -0.438056 0.827164 0.514273 0.766141 0.239639 -0.013023 -0.022969 -0.590868 0.181483 -0.154933 0.013785 -0.243537 0.715405 -0.089422 -0.251212 0.474800 -0.493373 0.182142 -0.212921
conj -0.801291 -0.186109 -0.207748 -0.332701 0.449980 0.116713 0.452949 -0.752141 -0.264125 -0.452731 0.216792 0.112868 -0.131672 0.132685 0.300194 0.282564 0.532521 -0.338378 -0.163058 0.218581 0.021296 0.144987 0.063722 0.136130 0.135068 -0.091813 -0.057506 -0.403768 -0.085450 0.204865 0.923445 -0.233430 0.844697 0.393318 0.855534 0.177883 0.042066 -0.249405 -0.673202 -0.182119 -0.010401 0.212455 -0.232259 0.496451 -0.384929 -0.463886 0.428296 -0.477338 0.279146 -0.120495
ponct -0.057586 0.366437 -0.328269 -0.452014 -0.071976 -0.006203 0.071386 0.375234 -0.088845 0.313096 0.037716 0.284567 0.028918 0.084401 -0.421401 0.170882 -0.359479 -0.093676 -0.102470 -0.356129 -0.310893 -0.439671 0.071923 0.260153 -0.134355 -0.667232 -0.031410 -0.037256 0.139802 -0.046407 -0.200954 -0.127862 0.087574 0.103195 0.241796 -0.401576 0.388116 -0.187577 0.024859 -0.314021 -0.735330 0.105288 -0.145399 -0.040177 0.139368 -0.124763 -0.127921 0.067803 -0.026772 -0.115105
v -0.389279 0.176004 0.082350 -0.289587 0.344317 -0.600063 0.163494 -0.129206 0.500828 -0.263648 0.078828 -0.493117 -0.265043 -0.246113 -0.028041 -0.490815 -0.106225 0.036468 0.751527 -0.376618 0.469410 -0.214085 0.672580 0.384107 -0.504119 -0.017420 0.041208 -0.058897 -0.209173 -0.424928 0.276021 -0.356288 -0.339715 0.045916 -0.064216 -0.165358 0.086090 0.091904 -0.026959 0.335038 0.188404 -0.722107 -0.336103 0.020560 -0.160732 0.190098 0.117953 0.360343 0.106343 0.296107
subst -0.367428 0.107956 0.388734 -0.427539 -0.490436 -0.093565 -0.006520 -0.344671 0.206210 -0.511450 -0.077160 -0.212680 -0.773896 0.305071 0.171981 -0.019211 0.024942 0.350610 -0.180406 0.648027 0.131719 -0.433767 0.658633 0.249750 -0.208129 -0.592610 -0.314897 -0.638317 0.031216 0.381177 0.880426 0.062648 0.070879 -0.039729 0.348217 0.310892 -0.199539 -0.086813 -0.554180 -0.009147 0.813827 -0.024037 -0.136929 -0.804755 -0.557287 -0.469659 0.502434 0.131978 0.040015 -0.209874
a 0.024746 0.170739 0.167376 -0.250999 -0.111033 -0.698839 -0.095784 -0.145505 0.357831 -0.186863 0.112268 -0.029273 -0.493824 -0.199665 -0.021242 -0.325746 -0.234622 0.048801 0.660900 -0.081842 0.090454 -0.058904 0.244608 0.515349 -0.370978 -0.363982 -0.052149 0.013172 -0.216110 -0.461874 0.214289 -0.185572 -0.246971 -0.157291 -0.102715 0.045495 0.047574 0.145182 0.089361 0.017322 0.295245 -0.806097 -0.502883 -0.134184 -0.161106 0.177546 -0.037750 0.386528 0.052881 0.261749
t 0.230637 0.074470 0.093571 -0.224686 0.449510 -0.500986 0.095448 -0.042745 0.641227 0.087800 0.294679 -0.064077 -0.012417 -0.659564 -0.070136 0.011019 -0.142108 -0.256736 0.741077 -0.285918 -0.154123 -0.087705 -0.150009 0.579992 -0.141541 0.025849 0.044818 -0.191948 -0.044837 -0.738029 0.143164 -0.313996 -0.298941 -0.214908 -0.108419 -0.034446 0.086313 0.497801 0.258454 0.183637 -0.047467 -0.844642 -0.440119 0.046186 0.053327 0.182191 -0.021657 0.193888 0.276856 0.505051
vb -0.396224 -0.351258 0.225726 -0.127128 0.124531 -0.220302 -0.036643 -0.546321 0.409959 -0.667590 -0.030996 -0.448213 -0.445299 0.375540 -0.065528 -0.213264 0.602960 -0.091802 -0.029218 0.597056 0.101062 -0.289251 0.750179 -0.061299 -0.223443 -0.007655 -0.300284 -0.590685 -0.024531 0.173357 0.808970 0.099914 0.208512 0.233208 0.558419 0.227626 -0.075161 0.050307 -0.485002 0.204774 0.826342 0.134688 0.136989 -0.310678 -0.409778 -0.123958 0.857061 0.334460 0.205210 -0.412217
art -0.424186 -0.215983 -0.066392 -0.392620 0.375168 0.156002 0.328997 -0.786152 -0.237320 -0.357057 0.234946 0.217067 -0.314074 0.116379 0.190870 0.365028 0.374239 -0.155411 -0.269569 0.024141 -0.451993 0.129914 -0.218302 0.357025 0.294690 0.100341 0.025458 -0.302051 -0.249580 0.314877 0.775931 -0.146659 0.706231 0.108604 0.721580 0.344279 0.026022 0.070166 -0.357257 0.182952 0.180447 -0.137541 -0.468433 0.502319 -0.315600 -0.091446 0.392249 -0.381003 0.167018 -0.079764
r -0.298536 0.129628 0.112671 -0.424374 0.384548 -0.291867 0.250097 -0.156511 0.500877 -0.257586 0.341902 -0.281938 -0.166607 -0.488564 0.183384 -0.101038 -0.025791 -0.154063 0.498797 -0.060751 0.331120 -0.244320 0.306517 0.658672 -0.312739 -0.286427 -0.097939 -0.492387 -0.042285 -0.564246 0.463331 -0.593035 0.033331 0.069032 0.075309 0.064136 -0.005299 0.159716 -0.290034 0.230565 -0.128046 -0.670536 -0.319766 -0.037406 -0.219102 -0.122706 -0.048798 -0.029132 0.316888 0.317358
pp -0.283921 -0.085893 -0.032771 -0.250179 -0.168693 -0.116771 0.153179 -0.571299 0.353587 -0.417984 -0.119884 -0.350655 -0.573208 0.247614 0.051332 0.321709 0.101992 -0.159444 0.303783 0.717568 -0.265219 0.007731 0.308833 0.163711 -0.077446 -0.080037 -0.301450 -0.322872 0.001901 0.136941 0.792825 0.129127 0.425147 0.030188 0.716663 0.109778 0.090754 -0.136309 -0.568655 0.152333 0.698470 0.227456 -0.287761 -0.424087 -0.593666 -0.167642 0.553446 0.169810 0.407858 -0.572861
interp -0.212683 -0.264003 0.047331 -0.544360 -0.047972 -0.053265 -0.087177 -0.240629 0.596438 -0.417001 -0.073186 -0.469619 -0.588471 0.323005 -0.018801 0.150289 0.244235 -0.191350 -0.049131 0.793874 -0.113672 -0.431199 0.675852 0.561242 -0.243898 -0.499667 -0.320416 -0.771935 0.036069 0.347656 0.795118 -0.331492 0.526737 -0.039606 0.566695 0.258514 0.119269 0.104057 -0.461417 0.182312 0.602286 0.050515 -0.213512 -0.792058 -0.453396 -0.147970 0.676014 0.333330 0.404184 -0.476145
, 0.135018 -0.385820 0.223360 -0.445820 0.243923 -0.593317 -0.359977 -0.036993 0.599290 -0.425042 0.331551 -0.171961 -0.413200 -0.089341 -0.100080 -0.320523 0.322140 -0.290390 0.269153 0.220041 -0.049030 -0.384714 0.343345 0.990487 -0.461053 -0.550207 -0.241609 -0.722797 -0.132603 -0.512153 0.140408 -0.783668 0.342371 -0.018041 0.073050 0.440252 0.090290 0.444607 0.034660 0.179296 0.118457 -0.877789 -0.194059 -0.141910 -0.149821 0.409700 0.218278 0.588737 0.300511 0.138892
appr -0.542870 -0.203890 -0.193701 -0.167217 0.105761 -0.058176 0.216874 -0.704524 -0.297115 -0.448619 0.139641 0.127849 -0.343506 0.198080 0.398606 0.269935 0.354883 -0.286286 -0.013447 0.487452 -0.120396 0.302367 -0.111768 0.035125 0.044087 -0.186404 -0.139706 -0.207399 -0.106020 0.107536 0.818074 -0.110069 0.719642 0.269801 0.707239 0.271369 0.004070 -0.303621 -0.579988 -0.211718 0.140604 0.213434 -0.295461 0.284275 -0.460916 -0.204626 0.223692 -0.300344 0.306415 -0.280418
num -0.506486 -0.123439 -0.073877 -0.440412 0.214885 0.356755 0.267159 -0.579828 -0.241658 -0.187810 -0.009834 0.115728 -0.247061 0.227483 0.101073 0.302887 0.289341 -0.076108 -0.381378 -0.000889 -0.111931 0.166065 0.203581 0.047296 0.245550 -0.107783 0.334785 -0.043754 -0.253542 0.915198 1.060014 0.104901 0.516358 0.034558 0.556473 -0.092512 0.048448 -0.125208 -0.442801 -0.031478 0.359764 0.057891 -0.591466 0.173508 -0.124786 -0.414290 0.381277 -0.511503 0.042510 -0.067212
c -0.342855 0.471292 0.389377 -0.400926 0.241230 -0.701516 0.175327 -0.197091 0.509430 -0.222109 0.278729 -0.211520 -0.475002 -0.430168 0.223016 -0.183113 -0.270494 0.321254 0.590604 -0.367497 0.035207 -0.590702 0.267828 0.373637 -0.391632 -0.233956 -0.136389 -0.375237 -0.028674 -0.611116 0.706056 -0.250179 -0.714817 -0.151152 0.062388 0.099975 -0.152602 0.285176 0.027538 0.192296 0.222935 -0.971926 -0.630322 -0.271814 -0.141513 -0.029129 0.169439 0.304860 0.053223 0.460994
npp -0.228685 0.473483 -0.196499 -0.157735 -0.045280 -0.372834 -0.088560 0.151465 -0.443934 0.128746 0.178338 0.761497 0.174140 0.125736 -0.387545 -0.573112 0.055873 -0.082315 -0.073943 -0.480632 0.183338 -0.230110 0.094242 -0.114133 -0.012895 -0.877335 0.063118 0.415272 -0.100827 -0.227654 -0.141733 0.082187 -0.063125 0.244363 0.017509 -0.377552 0.267802 -0.364723 0.066587 -0.935455 -0.795094 -0.236231 -0.125809 0.423353 0.404983 -0.236790 -0.394256 -0.157872 -0.472486 0.307380
ne -0.575824 -0.207628 0.036218 -0.259022 0.331322 0.166526 0.205547 -0.552919 -0.375166 -0.455200 0.262760 0.186871 -0.106510 0.078829 0.411517 0.094547 0.550837 -0.103466 -0.297267 0.149978 0.154501 0.142807 -0.060113 0.220333 0.124749 -0.153148 0.054901 -0.354048 -0.188575 0.262154 0.736545 -0.317545 0.694742 0.245882 0.449065 0.333562 -0.122454 -0.134001 -0.511881 -0.130626 0.030589 -0.114309 -0.169038 0.436757 -0.246128 -0.303150 0.124890 -0.494602 0.122711 0.174058
adja -0.526546 -0.118879 0.035584 -0.220229 0.038440 0.006629 0.210396 -0.693342 -0.327766 -0.464306 0.084918 0.076690 -0.455773 0.280425 0.344958 0.189408 0.279443 0.077261 -0.200711 0.157893 -0.142738 0.149108 -0.009631 0.029049 0.041109 -0.031913 -0.002305 -0.164849 -0.205466 0.351719 0.818210 0.015599 0.471012 0.158553 0.581565 0.283366 -0.112553 -0.197879 -0.467987 0.045478 0.377916 0.018297 -0.373752 0.256842 -0.391721 -0.148075 0.314949 -0.228000 0.094173 -0.184568
jj -0.299717 -0.078536 0.248767 -0.231799 -0.282723 -0.110522 -0.038054 -0.496222 0.204507 -0.519006 -0.118642 -0.328789 -0.695755 0.363044 0.218651 0.067663 0.132368 0.213286 0.039942 0.552416 -0.054279 -0.090779 0.412895 0.084358 -0.162675 -0.161970 -0.181343 -0.303139 -0.126044 0.402497 0.890207 0.104861 0.182270 -0.050651 0.448211 0.256224 -0.150741 -0.099778 -0.469199 0.203160 0.888490 -0.041853 -0.371659 -0.501334 -0.450268 -0.127393 0.482290 0.184886 0.139170 -0.364787
prep -0.091112 -0.192055 0.131483 -0.429012 -0.120460 -0.384552 -0.197349 -0.133987 0.666359 -0.277308 -0.171068 -0.390780 -0.653341 0.288400 -0.072889 0.073333 0.093749 -0.085722 0.087387 0.639440 -0.297511 -0.529194 0.633484 0.339455 -0.283394 -0.428494 -0.322903 -0.669105 0.098586 0.285623 0.757005 -0.115691 0.039332 -0.204151 0.431084 0.235908 0.058319 0.245076 -0.110234 0.056572 0.772897 -0.052661 -0.266358 -0.927387 -0.343494 -0.037293 0.825697 0.628570 0.269354 -0.371731
ab -0.383276 -0.157788 0.231137 -0.285517 0.081314 0.076549 0.019327 -0.352102 0.297137 -0.504212 0.020630 -0.417809 -0.370295 0.233127 0.181517 0.139706 0.405037 0.020063 -0.146071 0.648917 -0.011542 -0.395956 0.406880 0.055051 -0.140678 -0.182083 -0.297900 -0.684493 0.092992 0.224541 0.886488 -0.082232 0.280439 0.131093 0.562071 0.270093 -0.124826 -0.049752 -0.593846 0.161620 0.519437 0.146021 0.006360 -0.526697 -0.388407 -0.270058 0.559948 0.086122 0.270543 -0.313816
p+d 0.311021 0.261958 -0.334453 -0.329805 -0.257978 0.221393 0.026806 0.240091 0.015324 0.514067 -0.046875 0.453729 0.035247 0.072276 -0.500609 0.580971 -0.364386 -0.262082 -0.145671 0.025371 -0.768259 -0.154879 -0.286467 0.037615 0.215773 -0.534481 -0.021215 0.094181 0.238380 0.202725 -0.000748 0.340838 0.138077 -0.090866 0.359005 -0.475025 0.390023 -0.117396 -0.003099 -0.407866 -0.431223 0.438434 -0.240545 -0.280777 0.149607 -0.305006 -0.032240 -0.112983 0.057287 -0.364095
mad 0.085372 -0.218717 0.112454 -0.343490 -0.121207 0.034390 -0.103236 -0.507906 0.472106 -0.357451 -0.040889 -0.250798 -0.546153 0.274579 -0.128485 0.320815 0.292057 -0.165025 0.094983 0.715466 -0.515745 -0.087833 0.155051 0.358549 0.052392 -0.154630 -0.216970 -0.396002 -0.066661 0.334655 0.764679 0.136851 0.535709 -0.134033 0.627589 0.212863 0.121797 0.088847 -0.424346 0.252688 0.776036 -0.001267 -0.373277 -0.516858 -0.375552 -0.068385 0.545080 0.154341 0.320179 -0.494942
$. -0.246003 -0.365633 -0.112978 -0.318647 0.227925 0.044410 -0.072394 -0.328070 -0.087100 -0.323318 0.071974 0.065019 -0.135648 0.234695 0.076520 0.104243 0.498067 -0.306526 -0.146933 0.334700 -0.077867 0.088504 0.032818 0.311186 0.015217 -0.289771 0.065701 -0.269301 -0.177389 0.342768 0.533984 -0.310891 0.770915 0.121439 0.458749 0.166141 0.123101 -0.072110 -0.380662 -0.155112 0.102922 -0.069510 -0.199517 0.137122 -0.145987 -0.008607 0.187099 -0.120753 0.228055 -0.055178
$, -0.478385 -0.423632 -0.224561 -0.232974 0.393639 -0.026273 0.054218 -0.405872 -0.138924 -0.356369 0.142595 0.047380 -0.104081 0.138165 0.392128 0.113964 0.557949 -0.429429 -0.235683 0.443216 0.039737 0.122966 0.045042 0.210127 0.048594 -0.275483 -0.033869 -0.346433 -0.095455 0.224544 0.701849 -0.473031 0.751871 0.196278 0.491053 0.350986 0.021381 -0.032732 -0.373616 -0.253690 -0.000116 0.061474 -0.180065 0.200486 -0.216128 -0.081828 0.218373 -0.221693 0.278228 -0.077745
vpp -0.206311 0.256779 -0.297334 -0.497269 0.085601 -0.385722 0.247406 -0.009459 0.277261 0.062510 0.274288 0.299203 -0.278471 -0.144562 -0.473529 -0.201215 -0.276598 -0.365992 -0.013850 -0.139043 -0.135591 -0.585214 0.547557 0.567655 -0.183991 -0.789712 -0.402746 -0.448149 0.159331 -0.558805 -0.063227 -0.261851 0.011645 0.216121 0.309237 -0.083000 0.340570 0.160160 0.052668 -0.266640 -0.579167 -0.059733 -0.028266 0.042373 -0.187730 -0.341468 0.266100 0.173027 0.037363 -0.191309
dt 0.150357 -0.170650 0.406004 -0.340526 -0.103471 -0.033952 -0.139857 -0.569030 0.420965 -0.389205 0.112805 0.007840 -0.565032 0.136096 -0.082786 0.232382 0.401108 -0.024388 -0.092671 0.694805 -0.541659 -0.266398 0.005023 0.347166 0.186764 -0.232099 -0.301063 -0.594365 -0.032807 0.230564 0.873041 0.205079 0.289724 -0.203795 0.531493 0.429157 -0.066333 0.303751 -0.332157 0.100021 0.838768 -0.242927 -0.263128 -0.533381 -0.339146 -0.208448 0.593472 0.066649 0.173651 -0.157863
pn -0.405182 -0.128056 0.375167 -0.342595 0.196678 0.079189 0.038637 -0.409280 0.368122 -0.570653 0.240743 -0.326237 -0.358534 0.023164 0.322738 -0.047212 0.470583 0.026057 -0.217190 0.614036 0.216909 -0.400781 0.450349 0.253410 -0.090589 -0.328006 -0.293012 -0.794434 0.031693 0.105700 0.996662 -0.286862 0.249477 0.097262 0.350956 0.417286 -0.257199 0.090163 -0.615420 0.173389 0.448853 -0.156719 -0.072288 -0.488384 -0.325963 -0.406392 0.385850 -0.134344 0.201044 -0.086185
vvfin -0.462940 -0.072383 0.035475 -0.227885 0.159013 0.170641 0.264041 -0.555581 -0.161261 -0.473290 0.196319 -0.008578 -0.189436 0.096078 0.161057 0.108568 0.367994 -0.070626 -0.075343 0.188816 0.120448 0.108166 0.086237 0.194295 0.019463 -0.051845 -0.064914 -0.325669 -0.108365 0.073073 0.567705 -0.123781 0.581913 0.312658 0.497623 0.159027 -0.041292 -0.215674 -0.596732 0.080653 0.124001 0.051471 -0.061504 0.294930 -0.368436 -0.291795 0.154825 -0.328111 0.172107 -0.066446
m 0.206522 0.046758 0.195608 -0.328566 -0.022334 -0.532491 -0.056184 -0.104468 0.616640 -0.107982 0.156475 -0.045614 -0.258065 -0.432190 -0.149770 -0.151136 -0.066827 -0.250327 0.771623 0.142351 0.136839 0.051924 0.240397 0.604213 -0.275758 -0.402376 0.057379 -0.155289 -0.118449 -0.455638 0.380269 -0.156967 -0.118347 -0.168970 -0.119301 -0.153384 0.087364 0.249977 -0.075138 -0.061018 0.327907 -0.750210 -0.438571 -0.293639 -0.102716 -0.056519 -0.020447 0.196142 0.260860 0.383368
praet -0.460637 0.117270 0.064441 -0.368534 -0.135655 -0.299678 0.194399 -0.407361 0.457194 -0.430541 -0.281680 -0.531947 -0.587961 0.387156 -0.425052 -0.227184 0.017192 0.124452 0.295302 0.231680 0.066862 -0.435850 1.050534 0.009169 -0.336634 -0.080989 -0.242144 -0.349803 -0.036620 0.232111 0.593645 0.350545 -0.131774 0.132194 0.519997 -0.193278 0.164691 -0.078134 -0.370982 0.230825 0.809543 0.144661 -0.009168 -0.462667 -0.538504 -0.232768 0.880815 0.475006 0.111329 -0.380143
cc -0.142711 0.502096 -0.266378 -0.342440 -0.137241 0.016413 0.189336 0.329702 -0.159616 0.381034 0.019246 0.367851 0.034997 0.061639 -0.422451 0.141567 -0.432275 0.020345 -0.205538 -0.424081 -0.307261 -0.493815 0.099396 0.005312 -0.027691 -0.573287 -0.057439 0.018520 0.234748 -0.024673 -0.144474 0.126902 -0.183435 0.107485 0.232184 -0.446658 0.302651 -0.180867 0.056296 -0.381730 -0.678985 0.242553 -0.065283 -0.041941 0.151363 -0.309002 -0.046156 -0.011323 -0.160900 -0.118660
kn -0.146298 -0.124199 0.177978 -0.311237 -0.076767 0.027684 -0.003561 -0.536953 0.340724 -0.440305 -0.012914 -0.256957 -0.488996 0.286458 -0.076591 0.235933 0.312672 -0.034320 0.068604 0.570260 -0.334017 -0.157988 0.245062 0.154210 -0.017897 -0.131185 -0.182383 -0.382831 -0.058839 0.325981 0.867693 0.192014 0.401458 0.007101 0.646983 0.128884 0.030711 -0.059723 -0.540544 0.220420 0.698653 0.029659 -0.299610 -0.399451 -0.367030 -0.158185 0.539870 0.081896 0.259275 -0.410623
prt -0.390483 -0.291621 -0.048389 -0.283984 0.254999 0.310883 0.171623 -0.533208 -0.059971 -0.406233 0.275835 0.174082 -0.137007 0.201453 0.041593 0.066331 0.635152 -0.339167 -0.547804 0.509138 -0.027595 -0.102313 0.190063 0.297361 0.248900 -0.269299 -0.278006 -0.582288 -0.001542 0.221971 0.546898 -0.235538 0.823939 0.298046 0.587268 0.366303 0.019331 0.011460 -0.529117 -0.068198 0.036964 0.273513 0.156686 0.134531 -0.254326 -0.408823 0.374287 -0.375274 0.114688 -0.278683
$lrb -0.349687 -0.237635 0.022409 -0.208066 0.090787 0.106695 0.044004 -0.413067 -0.254786 -0.409563 0.119090 0.100006 -0.147572 0.195954 0.236722 0.132685 0.469974 -0.124016 -0.166982 0.361352 0.033962 0.139917 -0.055517 0.197961 0.038504 -0.208606 -0.029872 -0.295979 -0.119318 0.246130 0.522943 -0.198184 0.690120 0.200592 0.429903 0.244971 -0.026236 -0.189404 -0.491090 -0.158419 0.156701 0.019057 -0.057525 0.189032 -0.270494 -0.172991 0.123566 -0.250865 0.155030 0.015365
vinf -0.294781 0.227387 -0.478385 -0.284175 0.177355 -0.525175 0.294078 0.141126 0.307815 0.199391 0.057714 0.097032 -0.181843 -0.124738 -0.372527 -0.412760 -0.430612 -0.318520 0.060039 -0.294063 0.098667 -0.532670 0.765656 0.410767 -0.226768 -0.456494 -0.338332 -0.251066 0.148675 -0.524814 -0.393580 -0.328812 -0.288584 0.133057 0.031049 -0.066017 0.331771 0.274167 0.432340 -0.188181 -0.547875 0.046415 0.080686 0.091088 -0.147040 -0.130110 0.364281 0.373089 -0.058037 -0.162766
k -0.182276 0.109903 -0.039643 -0.336067 0.359591 -0.460818 -0.010807 -0.040680 0.360329 -0.158519 0.152100 -0.288611 -0.160731 -0.184764 0.091715 -0.143645 -0.071449 -0.057521 0.624578 -0.231960 0.080369 -0.148648 0.122530 0.489690 -0.356196 -0.230271 0.061367 -0.029634 -0.207869 -0.344985 0.294170 -0.499554 0.040380 -0.042403 0.078830 -0.059264 0.159209 0.009655 -0.048159 0.152039 -0.096578 -0.743891 -0.560725 0.010495 -0.001355 0.294608 -0.161909 0.233465 0.221396 0.253938
qub -0.471695 0.045375 0.237907 -0.470729 0.103526 -0.130926 0.126084 -0.403949 0.551516 -0.472622 0.079414 -0.405454 -0.486629 0.055730 0.143209 0.033245 0.228911 -0.026483 0.070626 0.559456 0.083108 -0.501940 0.640743 0.214743 -0.172683 -0.426506 -0.289617 -0.679271 0.079753 0.111577 1.148717 -0.113065 0.068434 0.036513 0.509955 0.158945 -0.079172 0.038233 -0.600659 0.077251 0.568673 -0.125280 -0.298410 -0.693788 -0.378587 -0.419739 0.549052 0.066809 0.270799 -0.196583
mid -0.138352 -0.172811 0.149855 -0.346239 -0.010353 0.005431 -0.056814 -0.432757 0.429075 -0.402938 0.010730 -0.302932 -0.508128 0.246521 -0.049158 0.122211 0.303548 -0.082558 -0.033779 0.591368 -0.218998 -0.229635 0.400252 0.285408 -0.054522 -0.221273 -0.210134 -0.484143 -0.053082 0.301432 0.816302 0.008524 0.369894 -0.026100 0.524226 0.217079 0.031298 0.082089 -0.428014 0.215074 0.654962 -0.036892 -0.282889 -0.489551 -0.338855 -0.147246 0.546184 0.136043 0.246804 -0.386723
fin -0.324269 0.161341 0.125609 -0.367744 -0.218596 -0.399917 0.134847 -0.482098 0.486277 -0.389421 -0.235205 -0.355164 -0.715034 0.371066 -0.432617 -0.119481 -0.055956 0.127094 0.323531 0.259061 -0.221904 -0.459835 0.847158 0.023179 -0.278473 -0.166081 -0.302265 -0.321834 -0.023603 0.184049 0.699195 0.468268 -0.202849 0.030099 0.616114 -0.130615 0.158210 -0.031286 -0.307233 0.170850 0.855880 0.060719 -0.207910 -0.500041 -0.519042 -0.223618 0.908899 0.505726 0.086403 -0.443798
vafin -0.409834 -0.170986 -0.001042 -0.204199 0.124055 0.116245 0.157484 -0.441500 -0.177053 -0.397630 0.108862 0.002929 -0.180202 0.187798 0.123886 0.061993 0.364752 -0.083513 -0.165438 0.215684 0.066108 0.072548 0.123707 0.131873 0.019506 -0.093974 -0.054732 -0.268268 -0.117773 0.174288 0.478345 -0.113451 0.542129 0.246597 0.442603 0.164893 -0.014182 -0.171367 -0.468276 0.020363 0.148043 0.092782 -0.023846 0.216349 -0.311232 -0.202598 0.206262 -0.215310 0.136545 -0.133652
x -0.183550 -0.138583 0.694428 -0.009710 -0.186888 -0.496576 -0.511005 -0.497681 -0.454913 -0.802326 0.206440 0.404118 -0.435663 0.562164 -0.134736 -0.487320 0.791113 0.359991 -0.168045 0.087974 -0.101109 -0.172716 -0.059302 -0.419028 -0.270698 -0.481049 -0.017526 -0.042087 -0.302138 0.110274 0.770426 0.432543 0.019752 0.305067 0.374515 0.157240 -0.243640 -0.358789 -0.500537 -0.377642 0.555531 -0.488016 -0.064495 0.173419 -0.013048 0.114692 0.142470 0.209760 -0.267155 0.194496
kon -0.290908 -0.185960 -0.032421 -0.214671 0.103269 0.106034 0.131919 -0.445921 -0.114952 -0.322275 0.077472 0.024995 -0.216573 0.165047 0.151564 0.208975 0.309677 -0.146123 -0.119636 0.273592 -0.125925 0.127465 -0.031481 0.165723 0.088171 -0.060636 -0.040919 -0.237456 -0.099259 0.223926 0.525930 -0.091004 0.560475 0.131161 0.471442 0.200694 0.017931 -0.116866 -0.396534 0.022923 0.191671 0.076034 -0.160049 0.152957 -0.281794 -0.131427 0.212370 -0.202475 0.192198 -0.150749
vvpp -0.325628 -0.179162 0.120637 -0.192517 0.069309 0.034216 0.032152 -0.414233 -0.100536 -0.499080 0.139348 -0.049811 -0.241154 0.217921 0.077015 0.005925 0.436881 -0.039253 -0.126642 0.287779 0.037150 -0.028202 0.138465 0.115230 -0.091292 -0.147493 -0.111006 -0.347942 -0.097428 0.112601 0.490881 -0.099286 0.481982 0.261430 0.445096 0.181777 -0.048118 -0.162505 -0.500789 0.053894 0.232303 0.021633 0.031216 0.118854 -0.296256 -0.101842 0.226272 -0.073852 0.158549 -0.135483
s 0.016133 0.102125 0.057579 -0.313017 0.103973 -0.623085 -0.172375 0.085645 0.536847 -0.018081 0.034525 -0.255816 -0.327963 -0.276518 0.208351 -0.040578 -0.231060 -0.075319 0.726643 0.009238 -0.010085 -0.125001 0.092631 0.463275 -0.378828 -0.349667 0.061335 -0.011350 -0.124516 -0.298765 0.459242 -0.414187 -0.228821 -0.304624 -0.071409 -0.027958 0.071400 0.173334 0.106933 -0.008476 0.200712 -0.786276 -0.739864 -0.438503 0.008483 0.281144 -0.080063 0.389191 0.239196 0.284224
cls -0.437455 0.427501 0.027447 -0.560551 -0.042418 -0.385775 0.346472 -0.495643 0.091386 -0.440097 0.424295 0.315488 -0.445144 -0.063797 -0.483265 -0.468458 -0.002339 -0.136140 0.252961 -0.166671 0.209444 -0.356113 0.632134 0.562938 -0.261689 -0.847008 -0.291401 -0.287455 -0.143803 -0.594399 0.325321 -0.033049 0.175804 0.439027 0.435686 -0.186197 0.253354 -0.215761 -0.533937 -0.183033 -0.285269 -0.418797 -0.161542 0.332051 -0.375899 -0.492252 0.056260 -0.109243 -0.049646 -0.018622
adjd -0.374503 -0.139021 0.005947 -0.186152 0.156004 0.072673 0.142497 -0.404461 -0.153719 -0.343899 0.095926 0.025638 -0.194767 0.169284 0.132204 0.064057 0.324060 -0.064610 -0.185441 0.151645 -0.011458 -0.002717 0.093614 0.087642 0.034998 -0.093082 -0.041586 -0.238093 -0.106299 0.193238 0.486593 -0.091274 0.412882 0.192884 0.414772 0.170736 -0.026568 -0.116637 -0.363596 0.010173 0.131920 0.055978 -0.085930 0.172367 -0.232782 -0.129875 0.241668 -0.159860 0.108793 -0.113797
apprart -0.109277 -0.168954 0.029459 -0.178545 0.048567 0.088025 0.075901 -0.466963 0.025157 -0.297933 0.059017 -0.045053 -0.263940 0.140974 0.057568 0.274660 0.248231 -0.104523 0.037861 0.288036 -0.267374 0.139397 -0.111191 0.186598 0.092979 0.063186 -0.063223 -0.182080 -0.105919 0.173277 0.482181 0.024798 0.491335 0.050385 0.459194 0.169498 0.038666 -0.056015 -0.361104 0.168927 0.317571 0.012503 -0.219888 0.046429 -0.279822 -0.031186 0.216351 -0.091084 0.221410 -0.218784
prorel -0.185120 0.537964 -0.052431 -0.504650 -0.326972 -0.096678 0.389786 -0.224197 -0.033319 -0.076486 0.258219 0.404230 -0.330135 -0.187782 -0.329950 0.012375 -0.382940 -0.054679 0.230854 -0.104407 0.002884 -0.137005 0.195393 0.473253 -0.091833 -0.759807 -0.177327 -0.135685 0.012955 -0.387631 0.191931 0.099688 0.137867 0.213898 0.310270 -0.300498 0.220966 -0.264274 -0.455729 -0.264912 -0.322812 -0.151309 -0.218417 0.083877 -0.339274 -0.601126 -0.169404 -0.278655 0.021990 0.009124
card -0.305104 -0.080380 0.036451 -0.207791 0.065880 0.146751 0.137140 -0.442546 -0.140429 -0.290840 0.020015 -0.023732 -0.242720 0.185767 0.118338 0.209651 0.200015 0.049550 -0.123266 0.107604 -0.143354 0.089612 -0.010194 0.035013 0.059523 0.049952 0.053869 -0.112110 -0.145723 0.333689 0.561921 0.046103 0.365974 0.083141 0.430398 0.088588 -0.017070 -0.139031 -0.356653 0.113130 0.281239 0.042459 -0.245002 0.122229 -0.218634 -0.102250 0.215971 -0.172417 0.093764 -0.137559
pper -0.398601 -0.149641 -0.015899 -0.208790 0.285689 0.065283 0.130256 -0.314480 -0.069616 -0.293074 0.137806 -0.053653 -0.121703 0.081076 0.204878 0.069877 0.323595 -0.088042 -0.181034 0.120007 0.027743 -0.082755 0.109201 0.075949 -0.004505 -0.088449 -0.015026 -0.301257 -0.054743 0.166250 0.552063 -0.230795 0.345831 0.167357 0.376970 0.163371 -0.041364 -0.058308 -0.322560 0.015190 0.044707 -0.002636 -0.132918 0.124504 -0.155113 -0.133809 0.206252 -0.167290 0.143304 -0.041235
rg -0.129164 -0.192663 0.186619 -0.221525 -0.083994 0.011298 -0.107159 -0.414027 0.209028 -0.387704 -0.095909 -0.246494 -0.453885 0.326228 0.043184 0.120583 0.296137 0.045771 -0.078645 0.478839 -0.207474 -0.091100 0.262332 0.059499 -0.026318 -0.087806 -0.097505 -0.277717 -0.112917 0.474468 0.782592 0.135095 0.284610 -0.070218 0.439271 0.197236 -0.057163 -0.008181 -0.363416 0.160978 0.721200 -0.012005 -0.298178 -0.382166 -0.273685 -0.089540 0.494391 0.111060 0.136631 -0.319281
cs -0.330060 0.562008 -0.154532 -0.565556 -0.099372 -0.060686 0.409769 0.044605 0.085043 0.100786 0.083683 0.037401 -0.257762 -0.065606 -0.340236 0.159475 -0.507839 0.074253 0.118015 -0.389636 -0.147004 -0.490625 0.360413 0.289757 -0.233098 -0.507683 -0.135806 -0.195980 0.129067 -0.170801 0.146682 0.004890 -0.138387 0.170206 0.372783 -0.412090 0.278599 -0.199834 -0.232750 0.003309 -0.396311 0.030759 -0.211704 -0.114503 -0.203943 -0.368601 0.082936 0.007726 0.050214 -0.150716
vvinf -0.289007 -0.211143 0.017266 -0.137513 0.051985 -0.030368 0.049238 -0.379436 -0.112538 -0.378833 0.051839 -0.008313 -0.211728 0.256055 -0.025718 -0.091484 0.351325 -0.071221 -0.136404 0.165621 0.030811 0.011586 0.236682 0.073023 -0.060876 -0.057321 -0.074554 -0.229188 -0.124075 0.152722 0.322747 -0.007598 0.397345 0.228749 0.367859 0.136306 0.018995 -0.114183 -0.324789 -0.001586 0.243328 0.081606 0.062032 0.189622 -0.236534 -0.079057 0.316925 -0.008465 0.061618 -0.163224
pc -0.129505 -0.102399 0.276032 -0.204736 -0.149103 -0.040727 -0.078972 -0.405270 0.231338 -0.405963 -0.032943 -0.245269 -0.480141 0.237052 0.103231 0.104508 0.200132 0.140619 0.012926 0.455733 -0.148723 -0.129828 0.202499 0.108042 -0.076841 -0.102825 -0.143276 -0.305087 -0.078834 0.280130 0.728315 0.099788 0.178811 -0.064587 0.363062 0.220359 -0.112729 -0.028987 -0.399890 0.199594 0.690609 -0.109332 -0.271489 -0.411344 -0.298980 -0.083233 0.374810 0.126287 0.142024 -0.233417
pm -0.313193 -0.051108 0.112658 -0.357096 -0.117987 0.072650 0.062553 -0.455474 0.133002 -0.319292 -0.034302 -0.112739 -0.537778 0.227702 0.144782 0.063155 0.126839 0.070386 -0.173674 0.382232 -0.009910 -0.078894 0.416786 0.230251 0.032526 -0.287239 -0.066761 -0.300634 -0.139461 0.546512 0.841232 0.039565 0.290001 -0.073908 0.379177 0.209922 -0.064799 -0.018448 -0.351148 0.044636 0.600827 -0.048969 -0.403607 -0.336390 -0.334496 -0.364301 0.446868 -0.107530 0.038790 -0.214940
sn -0.189256 -0.207115 0.169738 -0.138601 0.158308 -0.013616 -0.013139 -0.304833 0.409211 -0.365569 -0.031025 -0.453357 -0.227167 0.116503 0.109417 0.112036 0.338862 -0.064222 0.071414 0.491757 -0.044546 -0.201467 0.306600 0.031792 -0.089526 0.087261 -0.190986 -0.454354 0.049383 0.135523 0.665726 -0.049209 0.172728 0.015325 0.388691 0.183117 -0.066632 0.063830 -0.364029 0.245874 0.548772 0.039623 -0.059520 -0.409061 -0.254986 -0.063651 0.484499 0.161989 0.281465 -0.244494
hp -0.135452 -0.189614 0.201031 -0.176223 0.185338 0.029741 -0.011735 -0.325503 0.454939 -0.353895 0.032710 -0.423014 -0.235160 0.020211 0.174177 0.179714 0.339202 -0.072040 0.132259 0.535566 -0.070134 -0.166024 0.185029 0.147013 -0.055973 0.053457 -0.161566 -0.459499 0.012178 0.097912 0.737703 -0.097693 0.228759 -0.022911 0.382284 0.219326 -0.082494 0.105431 -0.398258 0.280616 0.533498 -0.073382 -0.166269 -0.422714 -0.255300 -0.090067 0.385126 0.081177 0.319379 -0.164059
pro -0.237485 0.232071 -0.073958 -0.387652 0.030409 -0.468956 -0.032560 0.046622 0.020060 -0.117861 0.256553 0.340786 -0.230942 0.099025 -0.439630 -0.452719 -0.015835 -0.106436 -0.078884 -0.256030 0.013069 -0.584011 0.491639 0.337052 -0.290672 -0.839346 -0.267827 -0.257035 0.000006 -0.416799 -0.056379 -0.199644 -0.042518 0.281699 0.191758 -0.088213 0.243343 -0.024590 0.016656 -0.379056 -0.496375 -0.270238 -0.014111 0.139775 0.014299 -0.132906 0.097016 0.250731 -0.164813 0.000302
clr -0.199345 0.314504 -0.211930 -0.560203 0.049274 -0.180232 0.314943 -0.109776 0.039385 -0.098977 0.368282 0.356627 -0.180147 -0.138973 -0.491610 -0.183134 -0.156790 -0.264152 0.060133 -0.259202 -0.010941 -0.378951 0.357079 0.677025 -0.178255 -0.767585 -0.270177 -0.352891 0.005191 -0.569982 -0.140444 -0.281747 0.323642 0.353177 0.341847 -0.170085 0.362420 -0.093027 -0.230439 -0.180877 -0.692392 -0.205663 -0.010115 0.356549 -0.199683 -0.340107 -0.030928 -0.068082 0.058707 -0.038975
ie -0.044056 -0.191564 0.283838 -0.145752 0.098080 0.073853 -0.045916 -0.346571 0.370787 -0.353531 0.120100 -0.241248 -0.264552 -0.038027 0.288406 0.158290 0.349259 -0.050164 -0.045377 0.652319 -0.067999 -0.166617 0.062862 0.242619 0.060990 -0.077904 -0.248829 -0.553819 0.034553 0.069382 0.692122 -0.148064 0.237993 -0.107636 0.262697 0.425640 -0.192834 0.191817 -0.364907 0.175095 0.512043 -0.143720 -0.124987 -0.464508 -0.265323 -0.163681 0.297972 -0.043946 0.244374 -0.088982
vmfin -0.232874 -0.109539 0.031223 -0.150875 0.029364 0.043294 0.081335 -0.345506 -0.045716 -0.305763 0.084720 0.006008 -0.213030 0.125328 0.077512 0.050639 0.233575 -0.052044 -0.091439 0.234441 -0.027365 0.020688 0.098327 0.114241 0.019721 -0.100285 -0.101283 -0.233132 -0.063279 0.103859 0.399102 -0.045457 0.342477 0.131979 0.344578 0.153204 -0.015533 -0.073401 -0.324541 0.014712 0.182758 0.046703 -0.054009 0.060164 -0.244993 -0.138218 0.194050 -0.103705 0.107548 -0.120196
pad -0.065971 -0.174266 0.109588 -0.211859 -0.094970 0.069000 -0.053517 -0.356140 0.197249 -0.316451 -0.047814 -0.191795 -0.370303 0.251314 -0.006660 0.202038 0.239730 -0.041290 -0.030205 0.462987 -0.237040 -0.043130 0.145067 0.149671 0.015041 -0.103525 -0.113490 -0.268950 -0.066923 0.332370 0.573202 0.090035 0.379210 -0.031832 0.439101 0.152160 0.016033 -0.021415 -0.352347 0.147589 0.540867 0.043854 -0.212376 -0.309162 -0.280569 -0.078885 0.386969 0.057952 0.189234 -0.302996
inf -0.351588 0.117717 0.181754 -0.344146 -0.098982 -0.188162 0.100379 -0.329835 0.318341 -0.381964 -0.011120 -0.258587 -0.488647 0.135877 -0.030747 -0.065518 0.029093 0.121170 0.120297 0.298400 0.073942 -0.344236 0.571833 0.171026 -0.204803 -0.313400 -0.214126 -0.396378 -0.000080 0.090690 0.671763 0.049390 -0.033506 0.055217 0.357270 0.048503 -0.025534 -0.034961 -0.400711 0.090136 0.501708 -0.112502 -0.178672 -0.424828 -0.379131 -0.286760 0.446289 0.146380 0.114688 -0.143284
ppron3 -0.276226 0.099633 0.220594 -0.338156 -0.171264 -0.109340 0.116129 -0.410297 0.315671 -0.417346 0.033890 -0.223223 -0.521896 0.071194 0.053180 -0.054341 0.053352 0.093491 0.119198 0.419603 0.115172 -0.251743 0.509004 0.288525 -0.143723 -0.333520 -0.250253 -0.437559 -0.032521 0.058679 0.688203 0.014160 0.095045 0.019812 0.325942 0.153358 -0.055688 -0.023929 -0.453926 0.110255 0.558510 -0.156619 -0.194483 -0.439051 -0.430321 -0.339612 0.376658 0.056412 0.125904 -0.154296
kous -0.237403 -0.017793 0.043256 -0.184855 0.053209 0.062415 0.140149 -0.333746 0.015056 -0.255191 0.078943 -0.045205 -0.202873 0.092081 0.033011 0.076480 0.160180 -0.041546 -0.048181 0.143642 -0.027861 -0.048083 0.138019 0.102753 -0.004051 -0.084018 -0.070676 -0.215380 -0.038335 0.091144 0.417176 -0.001493 0.256248 0.118453 0.328742 0.083957 0.003191 -0.082369 -0.322731 0.070041 0.157507 0.027056 -0.091339 0.025097 -0.209161 -0.180546 0.216349 -0.120993 0.100902 -0.123174
comp -0.259618 0.102374 0.344829 -0.244721 -0.098526 -0.248701 0.020504 -0.398370 0.299103 -0.409698 0.058166 -0.150324 -0.505398 0.090879 0.085448 -0.041418 0.121993 0.180596 0.092621 0.350489 -0.048910 -0.319216 0.331712 0.048992 -0.119136 -0.261076 -0.233534 -0.389919 -0.009824 0.044890 0.820261 0.150212 -0.136844 -0.025718 0.341123 0.181019 -0.156452 0.020155 -0.368501 0.041797 0.612354 -0.221515 -0.268053 -0.450439 -0.300006 -0.264938 0.423429 0.126474 0.060988 -0.087050
clo -0.325819 0.405055 -0.151568 -0.580737 0.076702 -0.260274 0.359443 -0.153011 0.122467 -0.140366 0.306891 0.207890 -0.247122 -0.141160 -0.463042 -0.191627 -0.216623 -0.145551 0.195060 -0.367058 0.014837 -0.437523 0.462920 0.596756 -0.249102 -0.660547 -0.238311 -0.304595 -0.012182 -0.536078 0.037619 -0.215160 0.146456 0.326513 0.380666 -0.243700 0.346474 -0.114318 -0.268438 -0.065436 -0.547926 -0.259211 -0.117251 0.268769 -0.245044 -0.320710 0.037388 -0.001322 0.037431 -0.034634
et -0.236861 0.465778 0.379259 -0.563406 -0.276334 -0.191042 -0.314692 0.044820 -0.593291 -0.398610 0.314323 0.552957 -0.354258 0.616769 -0.594240 -0.091532 0.183702 0.500540 -0.396217 -0.529271 -0.552636 -0.870689 -0.098804 -0.018295 -0.416431 -1.027653 -0.126135 -0.212579 -0.048246 -0.045254 0.274817 0.193680 0.120693 0.453710 0.677355 -0.250905 0.180180 -0.605831 -0.522249 -0.316629 -0.513507 -0.332477 -0.117593 0.176403 0.145177 0.019681 -0.137380 0.259600 -0.280811 -0.036389
piat -0.128421 -0.107928 0.063238 -0.131307 0.040106 0.056374 0.060960 -0.310529 0.027287 -0.230441 0.035239 -0.088626 -0.201866 0.100452 0.069233 0.126548 0.178936 -0.030793 -0.014377 0.176864 -0.119293 0.052670 0.026770 0.109057 0.033271 0.043419 -0.022563 -0.162421 -0.078010 0.154333 0.383124 0.003244 0.285692 0.049535 0.306025 0.125732 -0.012257 -0.028262 -0.254257 0.143800 0.268597 -0.019161 -0.145089 0.016356 -0.199166 -0.030915 0.182983 -0.053931 0.128212 -0.138004
pposat -0.117811 -0.105028 0.066216 -0.126731 0.056197 0.071840 0.062725 -0.332958 0.036424 -0.229773 0.043373 -0.083948 -0.195374 0.090872 0.068734 0.152213 0.178051 -0.004728 -0.024340 0.154059 -0.122435 0.065988 -0.012043 0.112519 0.059609 0.094797 -0.022952 -0.160398 -0.098043 0.162913 0.383721 0.006816 0.275486 0.020869 0.286287 0.128890 -0.026861 0.003583 -0.257742 0.187132 0.299056 -0.037051 -0.169358 0.023701 -0.186601 -0.033672 0.196436 -0.080504 0.122575 -0.115863
prels -0.218060 0.011961 0.063041 -0.176670 0.050001 0.071757 0.159456 -0.324827 0.012345 -0.242692 0.085877 -0.035777 -0.206307 0.089852 -0.000994 0.078097 0.130842 0.010837 -0.055662 0.089470 -0.066897 -0.050826 0.143013 0.081109 0.005400 -0.019473 -0.063470 -0.204430 -0.043362 0.097350 0.414020 0.048437 0.193201 0.101718 0.319451 0.063836 -0.018477 -0.061560 -0.290479 0.124645 0.182864 0.004040 -0.116960 0.050525 -0.194845 -0.172634 0.223429 -0.101027 0.065688 -0.137617
pl -0.142850 -0.184495 0.208571 -0.147319 0.054130 -0.003310 -0.041661 -0.299758 0.273996 -0.331281 0.045978 -0.242854 -0.289254 0.058722 0.263809 0.079036 0.276220 -0.024415 -0.048807 0.521235 0.002754 -0.126379 0.167178 0.172054 -0.010363 -0.070752 -0.192885 -0.437970 0.009507 0.132787 0.615019 -0.144119 0.203481 -0.063444 0.245414 0.354053 -0.158436 0.118429 -0.307540 0.141836 0.483441 -0.088926 -0.126456 -0.392548 -0.260609 -0.139212 0.331915 0.018369 0.187767 -0.121732
vpr -0.189476 0.299585 -0.346147 -0.224846 0.046731 -0.269413 0.088928 0.321157 0.040801 0.332684 -0.011384 0.259282 -0.024307 0.100193 -0.379656 -0.159461 -0.316185 -0.131277 -0.236131 -0.319515 -0.179520 -0.591070 0.397993 -0.018703 -0.105879 -0.514837 -0.185842 -0.072041 0.222520 -0.115563 -0.220549 -0.027966 -0.325379 0.091555 0.125503 -0.223562 0.276893 0.076551 0.345308 -0.395526 -0.579851 0.229448 0.038572 -0.091363 0.140694 -0.147037 0.236259 0.261450 -0.189419 -0.189459
ptkvz -0.172782 -0.126865 0.085694 -0.086212 0.036613 0.053189 0.042525 -0.275966 -0.015117 -0.273604 0.069194 -0.065626 -0.159452 0.088053 0.101221 0.050985 0.232042 -0.016774 -0.047089 0.215563 0.012324 0.042384 0.058308 0.070655 0.011042 -0.001661 -0.061032 -0.200536 -0.059570 0.098516 0.337245 -0.024851 0.276805 0.083898 0.240113 0.145054 -0.066414 -0.054110 -0.289158 0.062322 0.228367 0.008286 -0.025649 0.015583 -0.177090 -0.091256 0.150480 -0.081234 0.101391 -0.070229
ha -0.114533 -0.140975 0.161564 -0.163517 0.082898 -0.025896 -0.018472 -0.278320 0.330340 -0.304364 0.000123 -0.296733 -0.266139 0.100594 0.048942 0.107997 0.251033 -0.024716 0.099530 0.386721 -0.102054 -0.150164 0.195120 0.127051 -0.068081 -0.007522 -0.130516 -0.349876 -0.012109 0.123532 0.575355 -0.004402 0.169747 -0.007476 0.320554 0.152538 -0.031841 0.065864 -0.307956 0.191668 0.466908 -0.061242 -0.120996 -0.313348 -0.214547 -0.063558 0.368204 0.110466 0.225177 -0.158893
: -0.127097 0.093852 0.036665 -0.412696 0.181387 -0.461251 -0.077734 0.012718 0.418920 -0.158229 0.150328 -0.217459 -0.290100 -0.181500 0.057112 -0.122002 -0.077975 -0.101860 0.511440 -0.024625 0.067411 -0.244069 0.257952 0.578081 -0.381479 -0.461119 -0.031402 -0.213776 -0.114479 -0.330645 0.362495 -0.497575 0.047682 -0.055275 0.091748 -0.005411 0.137722 0.073913 -0.093074 0.038430 -0.020878 -0.675733 -0.506422 -0.222706 -0.067998 0.150452 -0.058944 0.284845 0.241066 0.176970
prf -0.218188 -0.134326 0.016212 -0.111620 0.133328 0.035918 0.069369 -0.270205 -0.003703 -0.224268 0.074112 -0.056206 -0.117369 0.070737 0.160808 0.069557 0.226928 -0.061957 -0.085670 0.170546 0.001833 0.017907 0.062080 0.065910 0.011481 -0.011256 -0.035853 -0.195146 -0.039864 0.125088 0.391164 -0.098425 0.265039 0.086358 0.258278 0.161837 -0.038517 -0.026780 -0.248328 0.046241 0.145111 0.009517 -0.076730 0.027225 -0.146037 -0.092251 0.169698 -0.101837 0.119660 -0.064944
ppas -0.125607 0.010248 0.236044 -0.276458 -0.233035 -0.198800 0.024181 -0.388283 0.312937 -0.392942 -0.001777 -0.180657 -0.563650 0.091554 -0.025402 -0.080466 0.038462 0.070270 0.179464 0.402365 0.041632 -0.149540 0.429839 0.341419 -0.143594 -0.259630 -0.228658 -0.345622 -0.071819 0.041118 0.515715 0.053400 0.095409 -0.040593 0.245115 0.176313 -0.030788 0.041892 -0.317254 0.131871 0.626352 -0.186558 -0.184933 -0.372827 -0.433257 -0.211656 0.365137 0.161003 0.106882 -0.153168
ps 0.002051 -0.159715 0.177797 -0.157742 -0.033012 0.000804 -0.063393 -0.340004 0.284530 -0.276816 0.015463 -0.191108 -0.328097 0.077994 0.066557 0.134753 0.219238 -0.033679 0.069028 0.421755 -0.169310 -0.015795 0.089313 0.198475 0.035226 -0.014554 -0.105720 -0.250840 -0.086287 0.187615 0.548876 0.024313 0.251613 -0.100134 0.280945 0.207068 -0.054096 0.104972 -0.255306 0.182187 0.550366 -0.124665 -0.241614 -0.305672 -0.223717 -0.056232 0.285262 0.038022 0.192092 -0.156082
ptkneg -0.176062 -0.090670 0.005947 -0.114289 0.066813 0.055512 0.069605 -0.228569 -0.014672 -0.200582 0.036799 -0.056323 -0.118524 0.102783 0.049889 0.069047 0.172692 -0.057434 -0.062572 0.169540 -0.030136 0.003102 0.069447 0.069123 0.013065 -0.048045 -0.045751 -0.173190 -0.026077 0.106498 0.296589 -0.049064 0.250450 0.090084 0.266241 0.087806 0.013210 -0.058889 -0.233033 0.056215 0.120654 0.047699 -0.046123 0.020217 -0.156307 -0.082472 0.146923 -0.064759 0.106838 -0.109482
pis -0.203313 -0.068430 0.039346 -0.102916 0.043080 0.027030 0.065957 -0.244368 -0.029865 -0.211095 0.041479 -0.038752 -0.167690 0.098716 0.088901 0.034199 0.156165 -0.004745 -0.072453 0.119201 -0.016043 -0.015827 0.094706 0.048439 -0.004760 -0.036755 -0.041000 -0.162062 -0.058345 0.119302 0.321801 -0.030583 0.188599 0.077644 0.228105 0.111318 -0.032966 -0.050083 -0.204442 0.056416 0.188909 0.024151 -0.073045 0.018065 -0.155326 -0.082295 0.178386 -0.061695 0.069266 -0.077717
proav -0.191957 -0.085523 0.010359 -0.132671 0.118741 0.027922 0.063437 -0.237024 0.010954 -0.186546 0.063621 -0.048127 -0.126721 0.059878 0.083551 0.062251 0.185494 -0.066626 -0.056403 0.136169 -0.009897 -0.024399 0.093765 0.084070 0.000426 -0.051899 -0.044556 -0.185932 -0.043551 0.091233 0.344298 -0.091128 0.220646 0.078256 0.246208 0.113525 -0.018788 -0.023910 -0.216153 0.038290 0.119886 0.004990 -0.090902 0.011568 -0.134276 -0.082958 0.158913 -0.075292 0.109044 -0.073419
ptkzu -0.108975 -0.091820 0.032588 -0.140981 0.005338 0.030885 0.019199 -0.213452 -0.015988 -0.182979 0.054019 0.041576 -0.162286 0.106748 0.015523 0.079966 0.189743 -0.070296 -0.085130 0.219845 -0.104308 -0.030036 0.028358 0.116539 0.027809 -0.137770 -0.076730 -0.194427 -0.033434 0.100010 0.297640 -0.028691 0.280893 0.050213 0.266029 0.129365 0.008833 -0.029302 -0.223472 -0.013750 0.139643 0.025838 -0.054622 -0.029675 -0.141793 -0.083123 0.154318 -0.050957 0.091049 -0.100546
aglt -0.236930 0.089451 0.199813 -0.327382 -0.045742 -0.177496 0.064564 -0.241250 0.372612 -0.295759 0.071224 -0.216987 -0.400035 -0.032748 0.119087 -0.032460 0.032411 0.027585 0.144708 0.355922 0.116734 -0.284439 0.399852 0.280666 -0.154893 -0.360421 -0.184863 -0.429629 0.011542 -0.021734 0.667930 -0.101248 -0.011565 -0.040152 0.226135 0.136214 -0.068770 0.045990 -0.349240 0.026469 0.395733 -0.219784 -0.238986 -0.468939 -0.281608 -0.272070 0.277348 0.079330 0.151162 -0.023170
ger -0.082189 0.028579 0.168290 -0.295370 -0.290859 -0.281550 -0.009084 -0.286732 0.329413 -0.294669 -0.000318 -0.087618 -0.557223 0.105900 -0.087053 -0.124921 -0.034997 0.029667 0.139291 0.396592 0.002091 -0.202273 0.479479 0.373186 -0.166743 -0.381896 -0.256339 -0.370230 -0.037920 0.004213 0.413660 0.019916 0.042304 -0.072577 0.198908 0.181803 0.000334 0.092844 -0.184449 0.031997 0.555017 -0.176023 -0.161604 -0.431383 -0.386330 -0.193399 0.392033 0.244285 0.075927 -0.148031
pds -0.154954 -0.063466 0.027450 -0.106210 0.070809 0.011762 0.045858 -0.180994 0.023406 -0.166306 0.041653 -0.047279 -0.113068 0.070698 0.067960 0.046931 0.139395 -0.026138 -0.040193 0.120067 -0.026624 -0.037133 0.068671 0.067021 -0.013281 -0.037014 -0.022156 -0.148879 -0.029587 0.078399 0.282911 -0.061414 0.160983 0.065907 0.199871 0.076012 -0.012125 -0.027268 -0.184627 0.033924 0.111542 -0.025470 -0.076152 0.005306 -0.102630 -0.053646 0.126643 -0.041668 0.089404 -0.051970
vainf -0.160683 -0.099268 0.024861 -0.085811 0.023856 -0.025364 0.031232 -0.183709 -0.015595 -0.202703 0.024223 -0.034947 -0.136601 0.116939 0.013091 -0.052135 0.171118 -0.041947 -0.069159 0.132844 0.043564 -0.019193 0.174813 0.071016 -0.038074 -0.071054 -0.034542 -0.135008 -0.051709 0.105558 0.222884 -0.024022 0.177271 0.086926 0.173920 0.087890 -0.012226 -0.033828 -0.170388 0.004205 0.160230 0.024201 -0.000311 0.028932 -0.135001 -0.067027 0.166588 -0.005955 0.035921 -0.083169
pred -0.197916 0.045419 0.107515 -0.283907 -0.047291 -0.204337 0.024831 -0.197993 0.319559 -0.260909 -0.013001 -0.212593 -0.368056 0.086055 -0.038864 -0.071747 0.026847 0.007459 0.143786 0.256052 0.022267 -0.261973 0.436311 0.225974 -0.187395 -0.277975 -0.168237 -0.320546 -0.012402 0.026340 0.473899 -0.039815 0.013634 -0.003206 0.250579 0.061104 0.035924 0.040796 -0.221769 0.052841 0.363568 -0.136141 -0.167160 -0.350033 -0.259885 -0.131098 0.344241 0.200275 0.126647 -0.107013
ppron12 -0.179248 0.026952 0.200819 -0.214235 -0.113949 -0.133043 0.029276 -0.291371 0.243755 -0.317246 0.028923 -0.182838 -0.405125 0.046944 0.069003 -0.069115 0.048898 0.085463 0.112725 0.310155 0.078781 -0.162861 0.348760 0.223651 -0.128388 -0.200383 -0.175867 -0.313672 -0.037068 0.038104 0.501006 -0.012967 0.048841 -0.023278 0.210391 0.153076 -0.067904 0.015585 -0.295925 0.099256 0.456291 -0.165335 -0.166355 -0.324773 -0.315492 -0.180567 0.273154 0.100802 0.098766 -0.075615
pdat -0.067744 -0.063837 0.057214 -0.068741 0.025469 0.028147 0.017030 -0.195110 0.041783 -0.144980 0.018744 -0.079648 -0.120114 0.059922 0.027584 0.068974 0.104842 -0.009335 -0.001955 0.123075 -0.065639 0.026675 0.025467 0.071399 0.011298 0.032587 -0.009385 -0.095574 -0.045720 0.102430 0.233597 0.003497 0.144591 0.008688 0.175013 0.065987 -0.016216 -0.010312 -0.150442 0.119222 0.191324 -0.023750 -0.098731 -0.014412 -0.104839 -0.013591 0.136536 -0.022187 0.091905 -0.079621
kokom -0.127355 -0.040882 0.032526 -0.098633 0.023778 0.010574 0.053548 -0.181015 0.003636 -0.143589 0.032422 -0.011424 -0.133358 0.059218 0.039561 0.045633 0.098730 -0.006727 -0.031683 0.102811 -0.034051 -0.022615 0.055587 0.067402 -0.005508 -0.045019 -0.042540 -0.123752 -0.024191 0.081467 0.247537 -0.019128 0.161030 0.050037 0.188196 0.076870 -0.020121 -0.031948 -0.171666 0.028586 0.114810 0.014398 -0.061674 -0.007091 -0.122775 -0.073628 0.117594 -0.043687 0.065415 -0.056753
pwav -0.126359 -0.020995 0.033336 -0.098721 0.006560 0.020025 0.055279 -0.169836 0.018608 -0.152158 0.043822 -0.027807 -0.128121 0.050035 0.006794 0.025815 0.086124 -0.018643 -0.011416 0.101087 -0.017646 -0.017781 0.092717 0.072548 -0.008621 -0.039922 -0.053245 -0.116732 -0.032235 0.056349 0.233246 0.000205 0.131862 0.054074 0.186975 0.048760 -0.005155 -0.022984 -0.171545 0.049666 0.126733 -0.005087 -0.066576 -0.002801 -0.120017 -0.081853 0.126262 -0.033105 0.061108 -0.071278
vapp -0.105361 -0.061045 0.042174 -0.074553 0.004989 -0.004873 0.010816 -0.150823 -0.021870 -0.165353 0.029081 -0.023825 -0.123030 0.083949 0.026545 0.016865 0.134389 -0.012204 -0.038994 0.109562 -0.003695 -0.011140 0.073453 0.072166 -0.026021 -0.069959 -0.044840 -0.130239 -0.045587 0.075975 0.185203 -0.030582 0.169444 0.067104 0.146634 0.071665 -0.006074 -0.039022 -0.170967 0.011710 0.123244 -0.007402 -0.015531 0.004289 -0.114399 -0.049336 0.101076 -0.011448 0.044848 -0.055582
vvizu -0.064726 -0.055257 0.044310 -0.046555 -0.013745 0.009718 0.015784 -0.148316 0.024708 -0.138089 0.010929 -0.055087 -0.103908 0.060439 0.024492 0.035989 0.090174 0.007532 0.009876 0.120286 -0.025264 0.006167 0.041357 0.037123 -0.009604 0.008174 -0.027419 -0.089222 -0.035565 0.060056 0.185884 0.007873 0.127922 0.037584 0.130835 0.067413 -0.016332 -0.019459 -0.150575 0.063009 0.172874 -0.004726 -0.037867 -0.034882 -0.107129 -0.031295 0.111557 -0.011035 0.061574 -0.059316
pact -0.069266 -0.011911 0.135284 -0.161449 -0.091025 -0.192511 -0.017877 -0.204126 0.229267 -0.209337 0.001426 -0.122912 -0.331845 0.041695 -0.009911 -0.078413 0.016641 0.027316 0.144725 0.206987 0.028248 -0.129293 0.280044 0.199113 -0.116492 -0.161772 -0.125841 -0.223984 -0.051775 -0.009127 0.313231 -0.014205 0.002798 -0.050673 0.120965 0.108998 -0.014207 0.069353 -0.126418 0.069083 0.378141 -0.170869 -0.139528 -0.248047 -0.224917 -0.072161 0.234694 0.161140 0.061231 -0.051761
brev -0.121883 0.064853 0.190541 -0.149825 -0.122990 -0.186399 -0.017468 -0.174811 0.143044 -0.221530 -0.002334 -0.073769 -0.307066 0.073571 0.030954 -0.064580 0.010075 0.125696 0.070024 0.176213 0.004002 -0.183430 0.214662 0.083313 -0.111011 -0.191901 -0.110854 -0.192133 -0.018945 0.017867 0.383498 0.051642 -0.092893 -0.037497 0.146299 0.100391 -0.076770 0.016352 -0.157616 0.006949 0.340549 -0.151067 -0.142872 -0.268774 -0.181060 -0.103142 0.208060 0.121284 0.018459 -0.031100
bedzie -0.134998 0.019325 0.067691 -0.203058 -0.019349 -0.167139 0.014781 -0.160282 0.268520 -0.182607 -0.004443 -0.138363 -0.275480 0.050021 -0.041199 -0.044505 0.030369 -0.026162 0.095322 0.202804 -0.015853 -0.201628 0.311010 0.171502 -0.126422 -0.195964 -0.148522 -0.258069 -0.006967 -0.007372 0.358455 -0.034292 0.003909 -0.022655 0.194783 0.062599 0.017203 0.055505 -0.145390 0.047182 0.280116 -0.093266 -0.137615 -0.260808 -0.186134 -0.089005 0.280873 0.164282 0.101674 -0.109044
? -0.030865 0.098310 0.044135 -0.208440 0.059563 -0.280890 -0.009075 -0.045975 0.237725 -0.083075 0.090158 -0.110715 -0.184165 -0.123719 -0.020651 -0.044713 -0.108783 -0.008972 0.375887 -0.101348 -0.020092 -0.096599 0.086510 0.315949 -0.201252 -0.170529 -0.001903 -0.060766 -0.100906 -0.233231 0.152118 -0.172686 -0.035012 -0.056593 0.031570 -0.042752 0.076859 0.058749 -0.036499 0.095734 0.051822 -0.426743 -0.302733 -0.057379 -0.074799 0.108723 -0.041265 0.155895 0.110087 0.131491
imps -0.063432 0.008521 0.069148 -0.183930 -0.067670 -0.187930 0.003193 -0.132092 0.255835 -0.156698 -0.016651 -0.127784 -0.282991 0.041997 -0.071153 -0.076600 -0.011141 -0.009840 0.142689 0.176439 -0.004865 -0.149333 0.310958 0.210796 -0.127607 -0.160451 -0.118904 -0.193790 -0.018293 -0.011771 0.245080 -0.029203 -0.012503 -0.031197 0.133051 0.051876 0.027447 0.077077 -0.080419 0.046123 0.281111 -0.113424 -0.125453 -0.246032 -0.196829 -0.062734 0.251455 0.182727 0.072248 -0.078654
vs -0.107079 0.270973 -0.199929 -0.263721 -0.000389 -0.085658 0.181372 0.048826 0.074940 0.149815 0.022301 0.095463 -0.078001 0.011197 -0.321027 0.057107 -0.250721 -0.067613 0.052983 -0.233269 -0.195506 -0.267801 0.194557 0.122632 -0.075813 -0.268586 -0.074956 -0.004635 0.068789 -0.081879 -0.020293 0.070502 -0.071877 0.084643 0.226817 -0.284483 0.254125 -0.070976 0.009858 -0.077542 -0.273223 0.092268 -0.116912 0.004553 -0.044012 -0.142576 0.118996 0.062924 -0.013305 -0.168582
o -0.007171 0.066957 0.129332 -0.178756 0.055612 -0.314015 0.007617 -0.048740 0.238839 -0.110843 0.115723 -0.084689 -0.175012 -0.188934 -0.009410 -0.129798 -0.063779 -0.001235 0.382336 -0.102740 0.077067 -0.061857 0.113735 0.340379 -0.203644 -0.137467 0.012362 -0.106844 -0.103761 -0.299110 0.123608 -0.183627 -0.111426 -0.055765 -0.052487 0.004223 0.024102 0.120660 0.008823 0.098568 0.093416 -0.483562 -0.224909 -0.015106 -0.082517 0.085303 -0.031171 0.156497 0.091188 0.228978
trunc -0.096558 -0.025296 0.023982 -0.071633 0.002675 -0.032990 0.023121 -0.134574 0.008896 -0.130666 0.022071 -0.017998 -0.111754 0.051611 0.048196 0.027588 0.071909 0.004277 -0.001513 0.086174 -0.030666 0.000908 0.045009 0.037641 -0.011737 -0.030187 -0.043677 -0.074079 -0.036101 0.049836 0.198032 -0.007562 0.093107 0.030889 0.132024 0.066716 -0.011903 -0.015841 -0.116679 0.014164 0.123116 -0.018689 -0.073968 -0.006072 -0.108979 -0.028048 0.095596 -0.009066 0.039514 -0.062814
xy -0.028058 -0.017412 0.001624 -0.020591 0.006007 -0.004005 0.007310 -0.023868 0.000812 -0.031357 0.001320 -0.006965 -0.018243 0.005417 0.010012 0.013414 0.033321 -0.007341 0.003888 0.026403 -0.000998 0.002622 0.011944 0.007877 -0.008252 -0.021198 0.000573 -0.027222 -0.011752 0.022966 0.052248 -0.002895 0.034411 0.016088 0.021395 0.023301 -0.005055 -0.002419 -0.024519 0.009883 0.030645 -0.006338 -0.005368 -0.004623 -0.028483 -0.014992 0.024662 -0.011683 0.022394 -0.003617
ro -0.039764 -0.068372 0.106996 -0.089894 -0.028594 -0.037192 -0.017633 -0.204980 0.137488 -0.173486 -0.009689 -0.117441 -0.213469 0.089330 0.053029 0.041977 0.102948 0.013288 0.041052 0.221625 -0.057690 -0.032900 0.103083 0.076045 -0.016105 -0.026849 -0.071821 -0.139797 -0.055790 0.113017 0.324476 0.034326 0.100550 -0.038272 0.159434 0.108378 -0.035078 0.028213 -0.162038 0.096141 0.335434 -0.061782 -0.136325 -0.178918 -0.152208 -0.027436 0.189635 0.064156 0.090612 -0.106797
impt -0.099870 0.031827 0.077309 -0.119187 -0.023716 -0.098076 0.032043 -0.125376 0.158576 -0.139385 -0.009309 -0.119950 -0.205848 0.031534 -0.000466 -0.046417 0.008323 0.041900 0.101569 0.100729 0.033375 -0.102226 0.222220 0.107041 -0.103969 -0.079914 -0.073096 -0.149348 -0.025803 0.003139 0.237808 -0.008298 -0.009817 0.007738 0.112054 0.037300 -0.009567 0.009375 -0.114988 0.070382 0.221192 -0.090960 -0.079972 -0.147142 -0.157510 -0.057859 0.167811 0.085255 0.047355 -0.023999
pref 0.035163 0.169116 -0.157364 -0.163223 -0.093934 -0.096721 -0.056948 0.217091 -0.050277 0.209191 0.019296 0.302897 0.004164 0.082579 -0.258501 0.005948 -0.158401 -0.089081 -0.166054 -0.101420 -0.219882 -0.266035 0.025947 0.037299 -0.017393 -0.447329 -0.066552 0.001529 0.105660 -0.028178 -0.103379 0.023249 -0.047252 0.028846 0.094014 -0.154392 0.177129 -0.026464 0.134350 -0.342388 -0.363950 0.105722 -0.033118 -0.063510 0.143881 -0.105635 -0.004105 0.082145 -0.093741 -0.075164
siebie -0.122730 0.031150 0.128130 -0.150318 -0.080800 -0.075746 0.034481 -0.155734 0.157007 -0.184629 0.008985 -0.097287 -0.254163 0.018566 0.025211 -0.041796 0.017820 0.056574 0.059427 0.183400 0.061419 -0.127489 0.244928 0.140038 -0.082062 -0.165624 -0.111459 -0.223019 -0.009952 0.014297 0.310304 -0.001030 0.007400 0.002984 0.127281 0.079665 -0.032977 0.016427 -0.186606 0.053829 0.262749 -0.093617 -0.095032 -0.217377 -0.196943 -0.133806 0.172216 0.054751 0.056882 -0.038206
koui -0.055351 -0.030344 0.037023 -0.066858 -0.001047 0.004416 0.030176 -0.127084 0.034625 -0.107949 0.030335 -0.024631 -0.100024 0.047785 0.018109 0.041174 0.055578 -0.012923 -0.006702 0.089502 -0.032828 -0.012497 0.048110 0.049564 -0.012851 -0.037020 -0.044301 -0.091215 -0.017594 0.040299 0.159607 0.004859 0.085385 0.023601 0.121391 0.046246 -0.009840 -0.021609 -0.111485 0.042499 0.100114 -0.006324 -0.053738 -0.026321 -0.096415 -0.046432 0.085274 -0.001671 0.045854 -0.057797
i -0.071036 0.107175 0.081853 -0.157414 0.069134 -0.251267 0.039178 -0.057600 0.164759 -0.082191 0.102369 -0.037934 -0.139687 -0.135568 -0.031401 -0.116841 -0.059168 0.016687 0.240730 -0.113361 0.024165 -0.144141 0.108925 0.198712 -0.141302 -0.131310 -0.031329 -0.096508 -0.050074 -0.249441 0.128809 -0.105172 -0.140530 0.000277 0.015912 -0.002769 0.021589 0.079079 -0.004314 0.053800 0.011636 -0.337113 -0.169394 -0.016673 -0.061860 0.006104 0.035273 0.105673 0.034932 0.148761
z -0.048713 0.102529 0.076738 -0.138014 0.055693 -0.228844 0.031185 -0.042740 0.181391 -0.068609 0.079423 -0.065436 -0.138294 -0.149160 0.029537 -0.076291 -0.081227 0.013499 0.257088 -0.093687 0.050569 -0.091758 0.095279 0.199083 -0.139293 -0.102987 -0.007868 -0.069197 -0.047751 -0.217935 0.124659 -0.130815 -0.113894 -0.041222 -0.018067 -0.003371 0.000433 0.073516 0.013245 0.055198 0.028540 -0.334436 -0.192835 -0.045136 -0.056765 0.045092 -0.019413 0.107469 0.062269 0.150193
hd -0.008641 -0.056886 0.070406 -0.039142 -0.020995 -0.004379 -0.029751 -0.135796 0.098365 -0.117280 -0.000289 -0.094933 -0.140792 0.033317 0.038225 0.057041 0.080014 0.013004 0.031547 0.164052 -0.055458 -0.010189 0.031413 0.066760 -0.001780 0.015194 -0.041918 -0.112612 -0.028948 0.070666 0.221039 0.014494 0.069923 -0.033991 0.108423 0.090135 -0.025531 0.027194 -0.105923 0.077838 0.228996 -0.037720 -0.090611 -0.129716 -0.092353 -0.014556 0.118581 0.036113 0.081381 -0.068262
pws -0.058654 -0.012585 0.027555 -0.042212 0.030087 -0.006990 0.012081 -0.067246 0.034121 -0.061183 0.029820 -0.038289 -0.053109 0.012707 0.019741 0.024149 0.038114 -0.013389 0.018786 0.054379 0.003603 -0.020604 0.045726 0.038626 -0.018867 -0.028159 -0.017809 -0.080235 -0.003230 0.015843 0.119724 -0.027053 0.052039 0.009420 0.080392 0.018872 0.005349 0.000145 -0.085335 0.030551 0.057024 -0.023452 -0.032050 -0.017210 -0.059440 -0.033090 0.049502 -0.012911 0.031454 -0.031726
vminf -0.031261 -0.022796 0.002228 -0.044137 0.013067 -0.003075 0.018542 -0.052479 0.010014 -0.065545 0.023062 0.000685 -0.051726 0.024523 -0.001448 0.009599 0.055037 -0.025926 -0.017153 0.059501 -0.027077 -0.031139 0.022138 0.044570 -0.007802 -0.036460 -0.036327 -0.071614 -0.005322 0.008880 0.097052 -0.020038 0.065582 0.014306 0.080463 0.030487 0.004135 0.002891 -0.074342 0.014086 0.027263 -0.015204 -0.025715 -0.006491 -0.048105 -0.024034 0.041446 -0.014200 0.031172 -0.019912
; -0.054592 0.091339 0.016277 -0.170336 0.064954 -0.190566 0.027950 -0.014464 0.158801 -0.042960 0.071829 -0.059599 -0.116173 -0.108256 -0.026261 -0.060889 -0.083248 -0.019580 0.217247 -0.086481 0.029567 -0.109749 0.109388 0.225673 -0.135831 -0.158912 -0.033640 -0.085977 -0.042116 -0.182126 0.104203 -0.143824 -0.044509 -0.001726 0.027944 -0.026016 0.057250 0.047276 -0.023281 0.034850 -0.035538 -0.264469 -0.181594 -0.035661 -0.055550 0.016769 -0.018318 0.088815 0.064019 0.094585
uo -0.043879 -0.010732 0.061929 -0.083800 0.001798 -0.096411 -0.008018 -0.106366 0.100839 -0.112622 0.014285 -0.049939 -0.128761 0.016401 -0.002496 -0.032936 0.059299 -0.012650 0.053939 0.105428 0.000125 -0.072930 0.123458 0.083647 -0.068726 -0.085623 -0.056719 -0.120676 -0.014794 -0.004149 0.189603 -0.022392 0.010666 -0.006706 0.083102 0.045424 -0.003554 0.026391 -0.085847 0.023259 0.137838 -0.077812 -0.069911 -0.096826 -0.083150 -0.041929 0.111077 0.064540 0.040076 -0.029689
advwh -0.055330 0.142002 -0.083663 -0.166062 -0.010612 -0.029963 0.078390 0.059709 -0.005048 0.056394 0.040706 0.096519 -0.028697 0.005187 -0.158988 0.020800 -0.120059 -0.022382 -0.001786 -0.123186 -0.090008 -0.163264 0.089595 0.077377 -0.054703 -0.213126 -0.035063 -0.027068 0.045753 -0.062902 -0.022060 -0.002410 -0.006966 0.055120 0.104151 -0.125925 0.115560 -0.055566 -0.023197 -0.080080 -0.208960 0.013421 -0.038171 0.002314 0.007518 -0.090592 0.004800 0.017981 -0.022902 -0.041811
appo -0.020961 -0.027419 0.024105 -0.010959 -0.002566 -0.010725 -0.009678 -0.048375 0.005455 -0.043963 0.013735 -0.018806 -0.038346 0.022075 0.011568 0.016925 0.037958 0.002739 0.007251 0.032868 -0.003271 0.001289 0.010490 0.007675 0.003679 -0.000702 -0.012032 -0.026054 -0.017482 0.013024 0.062785 0.002629 0.030079 0.010445 0.044155 0.033843 -0.005202 -0.007353 -0.041507 0.019136 0.048776 -0.006728 -0.006761 -0.017719 -0.022614 -0.001319 0.037374 0.006802 0.017953 -0.007750
! -0.035728 0.058360 0.010094 -0.107875 0.051446 -0.152449 0.002842 0.000118 0.123576 -0.026659 0.051680 -0.043651 -0.067183 -0.089896 0.001159 -0.065129 -0.051455 -0.024463 0.162469 -0.057165 0.037099 -0.063320 0.076289 0.159943 -0.100788 -0.108179 -0.017161 -0.059399 -0.039376 -0.135323 0.066482 -0.112933 -0.053242 -0.025231 0.004819 -0.016675 0.041286 0.037560 0.015118 0.007963 -0.002094 -0.195665 -0.125526 -0.032327 -0.033209 0.031049 -0.015523 0.082162 0.046905 0.080333
prowh -0.056878 0.107411 -0.080929 -0.147052 0.019027 -0.086299 0.042022 0.043583 0.030137 0.055393 0.051604 0.095758 -0.039513 -0.005373 -0.136513 -0.029767 -0.074682 -0.049865 0.005993 -0.097412 -0.055517 -0.174652 0.088408 0.092893 -0.066356 -0.198417 -0.061537 -0.044800 0.035654 -0.096424 -0.034072 -0.050450 -0.019389 0.057967 0.084757 -0.093101 0.109277 -0.008897 0.015679 -0.082610 -0.188248 -0.028539 -0.031773 0.013108 0.011899 -0.038309 0.033322 0.054787 -0.006783 -0.018107
fm -0.027543 -0.001911 -0.010414 -0.041742 -0.005425 -0.019777 0.012519 -0.031528 0.003088 -0.023761 0.009039 0.006531 -0.022163 0.007998 -0.014480 0.005741 0.004222 -0.015162 -0.017566 0.008622 -0.010410 -0.029826 0.025881 0.025200 0.001742 -0.044222 -0.004404 -0.022273 -0.000773 -0.001846 0.045653 0.001583 0.020790 0.012334 0.036107 0.000847 0.004226 -0.009398 -0.016983 -0.001601 0.008384 -0.001683 -0.007340 -0.014234 -0.024109 -0.026161 0.017534 0.000267 0.012117 -0.005553
vimp -0.050346 0.119696 -0.066485 -0.113553 -0.022308 -0.067821 0.032270 0.049430 -0.010571 0.057620 0.032124 0.101921 -0.048480 0.031887 -0.134835 -0.034226 -0.089021 -0.036494 -0.026366 -0.081207 -0.071596 -0.138848 0.088085 0.047649 -0.027349 -0.205702 -0.052441 -0.021343 0.041876 -0.049006 -0.027848 0.021758 -0.036969 0.036795 0.066531 -0.083477 0.086338 -0.032661 0.014437 -0.113204 -0.154362 0.033417 -0.025635 -0.002509 0.013796 -0.073114 0.019294 0.043980 -0.035439 -0.046201
winien -0.067017 0.005339 0.027517 -0.094052 0.021700 -0.091964 0.023367 -0.065212 0.132058 -0.078153 0.006614 -0.086430 -0.104290 -0.010162 0.000471 -0.032685 0.003563 -0.020531 0.090683 0.066235 0.019607 -0.080909 0.139097 0.094451 -0.077986 -0.083056 -0.046070 -0.111818 -0.005172 -0.024265 0.169688 -0.043650 -0.000790 -0.003494 0.069776 0.004919 0.014274 0.033243 -0.067101 0.023717 0.106558 -0.088135 -0.072221 -0.125381 -0.073094 -0.045201 0.099921 0.076056 0.068420 -0.005155
ptka -0.043540 -0.018027 0.001360 -0.041380 0.016714 -0.018215 0.017896 -0.062375 0.006910 -0.040820 0.003402 -0.008579 -0.045707 0.022972 0.018192 0.000296 0.028852 -0.020452 -0.004213 0.025373 -0.004299 -0.019817 0.048408 0.023254 -0.004490 -0.021822 -0.022733 -0.056671 -0.003630 0.002553 0.086174 -0.030028 0.045085 0.006525 0.051885 0.016466 0.011532 -0.002482 -0.056114 -0.002256 0.032315 -0.013796 -0.035234 -0.017670 -0.033803 -0.029814 0.040402 -0.003977 0.020983 -0.013992
p+pro -0.011801 0.136325 -0.115687 -0.179949 0.007881 -0.060478 0.073740 0.031584 0.038735 0.083732 0.067058 0.161609 -0.026931 -0.018655 -0.215233 0.027717 -0.115569 -0.097855 0.011652 -0.103815 -0.150235 -0.157883 0.059652 0.123254 -0.026064 -0.255604 -0.062766 -0.034589 0.044883 -0.111093 -0.023859 0.010193 0.027324 0.054286 0.147046 -0.141332 0.157878 -0.032437 -0.005634 -0.133917 -0.252511 -0.000805 -0.079767 0.025940 0.018245 -0.097955 0.006815 0.004711 0.000301 -0.050355
prelat -0.008317 -0.006204 0.012592 -0.012959 -0.004368 -0.004073 0.002436 -0.037138 0.028871 -0.030578 -0.002141 -0.017214 -0.031617 0.012337 -0.009045 0.007268 0.013831 -0.006943 0.014853 0.025329 -0.010583 -0.000227 0.011089 0.019199 -0.010879 -0.008896 -0.004049 -0.034812 -0.016214 0.019050 0.046044 0.005524 0.027062 -0.002476 0.034126 0.017949 0.006725 -0.003697 -0.039360 0.020694 0.051106 -0.004008 -0.025542 -0.011210 -0.022419 -0.007590 0.033088 -0.002754 0.023971 -0.027018
apzr -0.005330 -0.010764 0.013245 0.001490 -0.011319 -0.008613 -0.000640 -0.013376 0.008178 -0.029419 -0.001210 -0.005554 -0.014081 0.006689 -0.001478 0.008108 0.011350 0.006119 0.000992 0.025309 -0.008279 0.008045 -0.005845 0.012117 0.002694 0.001806 0.002059 -0.019985 -0.007106 -0.000536 0.033807 0.004584 0.021499 -0.001214 0.009834 0.020727 -0.005453 0.002287 -0.015437 0.001530 0.030565 0.005464 0.001001 -0.010906 -0.006807 -0.008870 0.021224 -0.006749 0.007928 -0.001549
vvimp -0.018322 -0.014255 -0.003039 -0.023605 0.007074 0.004128 0.011439 -0.028546 0.001715 -0.030750 0.004060 0.003313 -0.007421 0.001616 -0.001244 0.001663 0.007309 -0.011361 -0.002465 0.004983 -0.009089 0.001086 0.003782 0.007290 -0.000354 -0.012634 0.001908 -0.015650 -0.004525 0.011478 0.030906 -0.011192 0.034801 0.012755 0.035604 0.000290 0.009989 0.001111 -0.030066 -0.001340 0.017562 -0.009613 -0.013818 -0.006611 -0.006919 -0.008053 0.023715 -0.002309 0.008831 0.002485
pwat -0.021066 -0.002530 0.000225 -0.023195 0.001389 0.005976 0.017101 -0.030785 0.013984 -0.029256 -0.003015 -0.008215 -0.017605 0.002973 0.004156 0.002049 0.004758 -0.000128 -0.012110 0.017491 -0.004099 0.001626 0.018809 0.012910 -0.008724 -0.004049 -0.013791 -0.015490 -0.003571 0.005457 0.043827 -0.000264 0.021318 0.010425 0.021042 0.007603 -0.007620 0.003127 -0.028118 0.014845 0.016436 0.003921 -0.013902 0.000926 -0.024581 -0.015996 0.030667 0.004419 0.007813 -0.003137
in -0.015740 -0.025738 0.034092 -0.031959 -0.011596 -0.000003 -0.005243 -0.045636 0.021044 -0.045917 0.006399 -0.027502 -0.056353 0.028126 0.021598 0.008813 0.035962 0.020127 -0.007516 0.071324 -0.011944 -0.020155 0.037411 0.009938 -0.004060 -0.021829 -0.023786 -0.051955 -0.008987 0.029374 0.095572 0.011227 0.020979 -0.011602 0.032433 0.040750 -0.013295 -0.006118 -0.055487 0.025153 0.090371 -0.013184 -0.028267 -0.046949 -0.050978 -0.018000 0.043074 0.013906 0.009690 -0.026096
adjp -0.040772 0.009716 0.051607 -0.061405 -0.020833 -0.056265 -0.003156 -0.060414 0.091240 -0.070283 0.004263 -0.056043 -0.094952 -0.001882 0.011761 -0.038915 -0.001161 0.012181 0.065760 0.063495 0.029100 -0.021529 0.088981 0.077021 -0.046580 -0.039858 -0.028564 -0.078852 -0.028480 -0.022065 0.110674 -0.032671 0.005563 -0.021664 0.021775 0.044486 -0.020652 0.025434 -0.051304 0.043275 0.109203 -0.088934 -0.045078 -0.067551 -0.064022 -0.011259 0.047795 0.035409 0.035318 0.015686
y -0.006486 0.026539 0.006672 -0.055587 0.021162 -0.080444 -0.005557 -0.001309 0.063968 -0.011356 0.024745 -0.014190 -0.054283 -0.046936 -0.007512 -0.024453 -0.035524 -0.005552 0.096430 -0.023924 0.006283 -0.032092 0.046215 0.075055 -0.064974 -0.055381 0.004539 -0.020630 -0.026974 -0.063492 0.025080 -0.063182 -0.034877 -0.006635 -0.014107 -0.008980 0.018887 0.011434 0.000478 0.018012 -0.009568 -0.099285 -0.075864 -0.009874 -0.015226 0.021142 -0.017711 0.036178 0.016521 0.034284
hs 0.012465 -0.023838 0.024937 -0.006859 0.003551 0.007473 0.002065 -0.045220 0.037645 -0.026722 -0.014984 -0.048126 -0.030981 0.003507 0.006185 0.031060 0.026544 0.003178 0.019607 0.048024 -0.018288 0.015517 0.008791 0.028060 -0.004092 0.031042 0.003837 -0.022983 -0.013399 0.008623 0.052780 0.000440 0.029783 -0.013096 0.038007 0.011988 0.001932 0.012848 -0.027022 0.041187 0.067680 -0.013012 -0.032540 -0.027411 -0.028446 0.003686 0.040785 0.017652 0.040956 -0.025496
ptkant -0.001316 -0.009740 -0.007834 -0.008435 -0.002197 0.004312 -0.008941 -0.010422 -0.007165 0.007981 0.007437 -0.002003 -0.007297 -0.002497 0.008819 0.002884 0.000033 -0.001934 0.007794 0.009927 0.005611 0.006605 -0.003539 0.009114 -0.001080 -0.006817 0.001851 0.003178 -0.001496 -0.002112 0.005081 -0.004932 0.004486 0.001748 -0.002606 0.003805 -0.009182 0.000729 0.001141 -0.004281 -0.002314 0.007100 0.002156 0.002808 -0.008368 -0.005486 0.004803 0.003885 -0.000887 -0.009305
adjwh -0.021482 0.101775 -0.060541 -0.094331 -0.019807 -0.048515 0.019300 0.047437 0.002043 0.067235 0.031234 0.099547 -0.029926 0.016317 -0.121119 -0.009878 -0.069412 -0.032984 -0.016466 -0.080688 -0.073000 -0.126904 0.066969 0.048736 -0.035269 -0.169771 -0.043425 -0.016515 0.029565 -0.035045 -0.034947 0.003277 -0.006523 0.041403 0.076307 -0.090855 0.091743 -0.030541 0.016241 -0.095152 -0.142112 0.019641 -0.031162 0.001212 0.015443 -0.061635 0.006183 0.031902 -0.024529 -0.037523
detwh 0.008012 0.002674 -0.028049 -0.010131 0.012819 -0.026809 0.000311 0.016922 0.009948 0.020632 0.006732 0.027664 -0.002849 0.001728 -0.040495 0.005506 -0.006989 -0.026127 -0.011632 -0.009269 -0.030961 -0.035866 -0.001957 0.021131 0.004488 -0.033502 -0.020595 -0.012539 0.020186 -0.028751 -0.015350 0.005733 -0.001447 -0.001059 0.007283 -0.010308 0.035334 0.022170 0.019079 -0.029680 -0.033992 -0.003881 0.001784 -0.004843 0.024105 -0.011781 0.011687 0.013070 -0.001705 -0.016998
itj -0.010752 0.003087 -0.005668 -0.005690 0.000093 -0.008958 0.001397 -0.008107 0.001183 0.002815 -0.007823 -0.001594 0.003157 -0.000881 -0.008628 0.000784 0.004446 0.000219 0.008590 0.002291 0.008170 -0.007182 -0.006855 0.006784 -0.002254 -0.007658 0.008797 -0.003611 0.004380 0.005675 0.009518 0.001938 0.006670 -0.002623 -0.003360 0.008263 -0.001349 0.008688 0.001988 0.001977 -0.007075 0.008521 -0.001753 0.001876 -0.002426 -0.005539 0.008542 0.001114 -0.009678 0.002510
pposs 0.009230 0.001241 -0.000535 0.006300 -0.005538 0.005056 -0.006155 0.001463 0.002364 -0.001627 0.007482 0.000758 -0.000615 -0.001558 -0.008707 -0.002751 -0.007928 0.001248 0.002948 0.005641 0.002553 -0.006524 0.005259 0.001384 -0.008206 -0.009926 -0.004229 0.003308 0.008580 0.009212 0.005962 -0.004370 0.002741 -0.005260 0.005476 -0.006483 0.005149 0.007360 -0.000029 -0.008625 -0.000762 0.006439 -0.006687 -0.009393 0.004317 0.001196 -0.008882 0.009846 0.001637 0.001611
depr 0.009182 0.001067 0.003055 -0.000185 0.002933 0.002105 -0.007097 -0.003306 -0.000791 -0.007444 -0.002739 -0.005437 0.006950 -0.003171 -0.005464 -0.001836 0.003661 -0.008688 -0.006385 0.003886 0.005045 0.002355 0.007584 -0.006624 0.004071 0.008345 -0.006985 -0.005125 0.000934 -0.003118 0.003813 -0.008849 -0.006785 0.004325 0.009412 0.008591 0.008021 -0.007445 -0.007081 -0.008555 0.000851 0.007650 0.000636 0.005634 -0.006231 0.007262 -0.006252 -0.008905 -0.001570 0.001102
adjc 0.009558 -0.004985 -0.003328 0.009084 0.006174 0.008007 -0.009768 -0.002405 -0.005290 -0.004081 0.004760 0.004482 -0.000764 -0.002695 0.001694 0.000674 0.001012 0.002310 -0.002087 0.005434 -0.004976 0.003115 0.009208 -0.009929 0.004467 -0.007820 0.000876 0.002538 -0.005141 0.008277 0.002446 -0.005366 0.005403 -0.007890 0.001105 -0.008101 0.001620 -0.004940 0.002989 0.004317 0.000484 0.003150 0.006266 0.006150 0.002394 -0.000978 -0.001841 0.007495 0.004059 -0.006301
- -0.005039 0.001186 0.006213 -0.006946 0.000803 0.002206 -0.006259 0.002738 -0.008649 0.005591 -0.003481 -0.000344 -0.002354 -0.003460 0.009754 0.007580 -0.003954 -0.006787 0.000586 -0.007239 0.002996 -0.005341 -0.008069 -0.009560 0.007181 -0.007146 -0.001941 -0.008129 -0.007642 -0.002504 -0.006692 0.004379 -0.007483 0.004777 0.006828 -0.008346 -0.009198 -0.000129 0.002015 0.003680 -0.000435 0.000863 0.000992 0.004276 -0.006877 -0.009565 0.000161 0.009074 -0.009497 0.002256
