4492 25
noun 0.267802 -0.101961 -0.242768 1.061679 -0.545713 1.240382 -1.189565 0.962476 0.045476 -0.408540 -0.152556 0.719619 -0.057964 0.160872 -1.425171 0.220053 -0.283257 0.810900 -1.188352 1.054743 -0.348060 -0.609073 -0.077891 0.573985 -0.673494
punct -0.103930 0.449697 -0.195925 0.613869 -0.204379 1.289058 -0.928876 0.883217 -0.041555 -0.655292 0.122518 0.311674 -0.897443 0.537376 -0.997396 0.163150 -0.093125 0.848552 -1.395839 0.943109 -0.192971 -0.315233 -0.058441 0.192253 -0.394083
verb 0.097814 -0.110164 -0.538044 0.550471 -0.435178 1.213095 -0.964555 0.362905 -0.105930 -0.369683 0.098699 0.443943 -0.247326 0.402705 -0.767043 0.108733 -0.316092 0.662668 -1.212901 0.831604 -0.289651 -0.569758 -0.196460 0.216009 -0.265610
adp 0.011403 0.471117 -0.477317 0.968953 -0.338742 0.990603 -0.917002 0.541575 -0.154770 -0.426688 -0.221844 0.575262 -0.306505 0.432023 -0.695442 -0.015351 -0.063906 0.829859 -1.343280 0.690574 0.189882 -0.258875 0.097623 0.405164 -0.441321
adj 0.146147 0.398915 -0.332434 0.814651 -0.427887 1.337585 -1.078570 0.831924 -0.271870 -0.364825 -0.260464 0.514460 -0.416589 0.419237 -0.539272 -0.087329 0.018501 0.905246 -1.552984 1.023851 0.010514 -0.466380 0.013799 0.435719 -0.438707
z:------------- -0.082957 0.217403 0.015900 -0.342274 -0.177654 0.728835 0.157265 -0.039657 -0.069765 0.665244 -0.489678 0.296195 -0.523421 0.186655 -0.302520 0.199018 0.033076 -0.418557 0.510909 0.066104 0.457646 -0.387310 0.250929 -0.011411 -0.245534
adv -0.045118 -0.028886 -0.614093 0.315197 -0.375139 1.096342 -1.081616 0.606426 -0.504500 -0.338892 0.252062 0.509015 -0.214750 0.313343 -0.524186 -0.233859 -0.320101 0.578250 -1.283563 0.876828 -0.119628 -0.625593 -0.207896 0.310378 -0.415415
pron -0.345129 -0.013913 -0.680652 0.395094 -0.599584 1.145936 -1.200121 0.395783 -0.659788 -0.273919 0.422594 0.581550 -0.428318 0.385182 -0.593578 -0.174063 -0.452850 0.625522 -1.401139 0.769539 -0.236023 -0.786630 -0.042058 0.783307 -0.523165
propn -0.479130 1.111899 -0.721647 -0.101266 -0.181320 1.010293 -1.122411 1.233995 -0.924317 -0.542284 0.201754 0.796552 -0.851283 0.750833 0.506557 -0.259976 -0.465827 0.049602 -0.917004 0.586312 -0.222371 -0.030010 0.135812 0.919146 -0.682714
det -0.254477 0.329715 -0.767531 0.561099 -0.478983 1.106407 -0.934438 0.741621 -0.108945 -0.430463 -0.027537 0.651130 -0.691210 0.352235 -0.178542 0.016865 -0.694105 0.564777 -1.301972 0.915880 0.392702 -0.384252 0.234576 0.482465 -0.466010
conj -0.256361 0.307660 -0.722482 0.539470 -0.298966 1.167081 -0.568905 1.000795 -0.256717 -0.319411 -0.008505 0.639464 -0.617422 0.374141 -0.394762 -0.084540 -0.417284 0.714196 -1.468106 0.775031 -0.078503 -0.621611 -0.006435 0.342180 -0.223024
num -0.099343 1.286021 -0.662575 0.265020 -0.651577 1.358112 -0.768951 1.179939 -0.151698 -0.553891 0.105073 0.589218 -0.324359 0.226042 0.016125 0.070607 -0.228046 0.386022 -1.257486 0.927544 0.108220 -0.142792 -0.393712 0.285858 -0.733379
n -0.326859 0.875189 -0.215828 0.188724 -0.684840 1.112517 -0.009655 0.958657 0.159679 -1.073584 -0.307885 1.179890 -0.124745 0.181165 1.151181 -0.380701 -0.357472 -0.566546 -0.365623 0.012542 -0.316220 0.768788 -0.343676 0.143950 0.238821
v -0.500719 0.352879 -1.112778 -0.085186 -0.287246 1.796190 -0.661794 0.587726 -0.487366 -0.670209 0.867715 1.573231 0.186559 0.065853 0.567872 -0.543397 -0.430249 -0.148411 -1.193343 0.247363 0.095034 0.352393 0.024071 0.532714 -0.232566
_+_ -1.133699 1.170159 -0.365505 -0.743846 -0.263652 0.986973 -1.143635 0.955610 -0.163883 -0.434627 0.471136 0.690427 0.612901 0.076814 0.863064 -0.103810 0.464055 0.340490 -1.341234 -0.362050 0.507824 0.287408 -0.378998 0.402168 0.696960
_ -1.155914 0.984381 -0.410879 -0.674498 -0.288979 1.125586 -1.129558 1.060505 -0.278178 -0.641977 0.674465 0.875644 0.310096 -0.076484 0.461565 -0.005549 0.512018 0.598478 -1.614410 0.207459 0.355165 0.021596 -0.251378 0.494084 0.622207
sconj -0.838658 0.230457 -0.873543 0.332527 -0.130456 1.074883 -0.891385 0.680199 -0.518349 -0.360631 0.346890 0.583447 -0.574773 0.338127 0.108718 -0.272206 -0.119582 0.371297 -1.620693 0.813573 -0.071709 -0.549707 -0.408791 0.211738 -0.506402
s -0.779785 1.019905 -0.752060 -0.015869 0.078721 1.811083 -0.717098 0.950761 -0.058262 -0.734022 0.039188 1.113597 -0.033760 0.598443 0.693897 -0.471139 -0.417877 0.714827 -0.848953 0.137475 -0.266053 -0.250705 -0.211603 1.050954 -0.637253
aux -0.250262 0.061029 -0.544443 0.002000 0.067053 1.119859 -0.720469 0.736193 -0.502352 -0.499317 0.258613 0.583957 -0.204724 -0.269440 -0.228029 -0.430756 -0.603023 0.087256 -1.257232 0.805237 -0.042770 -0.330050 0.100620 0.257369 -0.422031
j^------------- -0.072631 -0.368257 -0.397919 -0.245289 0.100768 0.367890 0.000061 -0.549825 -0.331604 0.510851 -0.517308 0.080178 -0.434397 0.343127 -0.753597 -0.162631 0.326749 -0.143684 0.081679 0.088773 0.140234 -0.609404 0.225894 -0.359435 -0.504021
db------------- 0.119686 0.030256 -0.282344 -0.554770 0.041760 0.150426 0.434362 -0.509180 -0.387943 0.158049 0.059622 0.356835 -0.239482 -0.004152 -0.673026 0.063255 0.461756 -0.121741 0.212094 -0.202415 0.528673 -0.473636 0.163649 -0.072864 -0.634071
e -0.366121 0.797935 -0.778074 -0.155951 0.181340 1.294413 -0.588172 0.718922 0.287585 0.017148 -0.182592 1.305186 -0.350347 -0.104545 0.627678 -0.220025 -0.391861 0.084331 -1.686410 -0.053087 -0.454803 0.073798 -0.306454 1.044867 -0.302941
rr--6---------- 0.856772 -0.096349 -0.295557 0.203376 0.483815 0.597036 0.401016 -0.384287 -0.553365 0.379414 -0.208731 0.250835 -0.020438 -0.368372 -0.936583 0.117327 1.037681 -0.823160 0.316011 -0.232303 -0.282376 -0.175121 0.009976 -0.884085 0.487574
n_sing -0.623256 0.406266 -0.659082 0.441611 -0.548351 1.406018 -0.844788 0.599215 0.114260 -0.815049 0.309112 0.480392 0.048451 0.150034 -0.424570 0.281670 -0.666451 0.933709 -1.281834 0.689048 -0.392971 -0.443691 -0.335296 0.730145 -0.730755
vb-s---3p-aa--- -0.396941 0.064856 -0.084540 -0.331702 0.550972 0.611030 -0.169794 -0.320430 -0.554707 0.015223 -0.379397 0.411877 -0.716376 -0.377312 -0.031445 -0.844927 0.579421 -0.307247 0.222970 0.640137 0.513435 -0.028310 0.744332 -0.094503 -0.439475
rd -0.515895 0.588441 -1.250018 -0.100201 -0.364458 1.207791 -0.636911 0.496752 0.176120 -0.931928 -0.026815 0.925845 -0.393113 0.438117 0.371741 -0.470457 -1.456205 0.231953 -0.809385 0.004296 0.592553 0.331212 -0.120271 0.808831 0.389318
part -0.694279 0.564114 -0.598975 0.206590 -0.095474 1.137341 -0.931933 0.587540 -0.043850 -0.382732 0.432059 0.915861 0.010640 0.222697 0.003433 0.475510 -0.694989 0.130629 -0.994211 -0.024258 0.348564 -0.577293 -0.454474 0.699450 -0.540710
nn 0.557236 0.219120 0.495066 1.017595 -0.147819 0.465465 -0.054830 -0.032834 -0.572364 -0.542221 -0.508333 0.072788 0.006675 -0.054123 0.423664 -0.254043 -0.584599 -0.301343 -0.680586 -1.444693 -0.057689 -0.532463 0.477369 -0.684341 0.476955
nnms1-----a---- 0.614356 0.133995 -0.044737 -1.578627 -0.690089 0.704955 0.210558 0.710814 0.024893 0.676388 -0.358236 0.206759 -0.600548 -0.175708 -0.855984 -0.191663 1.203897 0.674478 0.226038 0.241325 -0.720778 0.352359 0.555765 0.669808 -0.668443
a -0.337129 1.136678 -0.814977 -0.168407 -0.485357 1.665358 -0.274200 0.293692 -0.174750 -0.834231 -0.279641 1.037607 -0.063876 0.082871 1.181852 -0.351373 -0.407100 -0.215287 -0.942517 0.209421 -0.032385 0.548433 0.075986 0.766262 0.105704
punct+_ -0.430437 0.882324 -0.028770 -0.361659 -0.463945 1.804686 -0.959564 0.672981 -0.393177 -0.777218 0.337688 1.339739 -0.736047 -0.159777 -0.043997 -0.243494 -0.474916 -0.027157 -1.076495 0.332761 0.147270 -0.048260 -0.377141 0.162982 -0.485941
nnfs2-----a---- -0.105138 -0.471549 -0.453444 -0.800178 -0.601235 0.309411 0.072731 -0.565611 0.010333 0.312879 -0.863782 0.006545 -0.100721 -0.073214 0.164183 0.402480 0.762220 -0.034452 0.308948 0.500016 1.156913 0.241643 0.271689 -0.638743 0.305866
nnfs1-----a---- 0.051393 -0.231541 -0.260451 -0.085179 0.314902 0.496760 0.352856 -0.665265 -0.492905 -0.147302 0.705432 0.115821 -1.641336 0.319771 0.112540 0.482454 1.004165 0.004308 -0.104766 -0.053740 1.135231 -0.262672 0.808735 0.200659 0.059121
rr--4---------- -0.740231 -0.068954 -0.549871 -0.289134 0.077264 0.081900 -0.515282 -0.211703 -0.182562 -0.571963 -0.831570 0.887568 -0.200442 0.166774 -0.980292 0.290459 0.718877 -0.242466 0.400616 0.198199 0.107180 -0.805699 0.159502 0.441926 -0.064901
rr--2---------- 1.151001 -0.091971 -0.542209 -0.613528 -0.495447 -0.362922 0.155524 -0.393980 -0.518221 0.230863 -1.037843 0.534274 -0.939182 0.054596 -0.337082 0.230790 0.587644 -0.245747 -0.333786 0.436252 0.460768 -0.266877 0.085544 -0.104376 0.149866
c=------------- 0.305361 -0.376756 -0.599210 -0.381082 -0.419348 0.229658 0.597633 0.961056 0.262466 0.599182 0.333839 0.843705 -1.003021 0.674799 0.143993 -0.365740 0.506003 -0.300539 1.044474 -0.311564 0.552399 -0.645869 0.518585 -0.506963 0.178831
j,------------- 0.038795 -0.254131 -0.207123 -0.389113 0.230276 0.135482 -0.355830 -0.000117 -0.556555 0.847537 0.121528 0.309684 -0.291404 0.373515 -0.231673 -0.062349 0.825413 -0.097635 -0.134360 -0.260374 0.359290 -0.439316 -0.074870 -0.107501 -1.104195
in 0.651455 0.059484 1.119092 0.852908 -0.029495 0.009530 -0.339667 -0.086926 -0.381181 -0.245064 -0.360731 -0.042624 0.041222 -0.584150 0.566502 0.749430 -0.359202 -0.167565 -0.528494 -1.445691 -0.153268 -0.889901 0.174392 -0.340268 -0.032916
vf--------a---- -0.235878 0.042303 -0.259274 -0.406730 0.325803 0.068370 -0.017747 -0.695350 -0.391934 -0.130620 -0.228166 0.210844 -0.082660 -0.046556 -0.570561 -0.053393 0.489439 0.023880 0.486470 -0.095784 0.364556 -0.755713 0.198097 0.019381 -0.739045
nnis2-----a---- 0.404228 -0.645597 0.535185 -0.191543 -0.653828 0.056579 0.331985 0.381519 -0.784939 0.214101 -0.578135 -0.002783 -0.420341 0.216466 -0.385431 0.072847 1.144585 0.024470 0.869578 0.636746 0.806438 0.348750 0.138812 0.429382 -0.161045
nnis1-----a---- 0.301157 0.308862 -0.049858 -0.270105 0.228650 0.908714 -0.062521 0.723333 0.037063 0.771330 -0.639228 0.226093 -0.460039 -0.574055 -0.320564 0.462583 0.693653 0.471663 -0.396787 0.075789 1.012018 -0.962981 1.156292 0.202934 -0.350892
dt 0.285470 -0.082353 0.625523 1.007877 -0.502691 0.596715 -0.328341 -0.210189 -0.865303 -0.724376 0.046612 -0.114407 0.439089 -0.835190 0.383673 0.094379 -0.438179 0.707248 -0.911550 -0.461328 0.491192 -1.000644 -0.022282 -0.367049 0.555989
nnfs4-----a---- -0.058688 -0.079298 -0.446264 -0.195235 0.460747 0.624086 -0.045194 -0.142976 0.010184 0.456506 -0.852975 1.237855 0.215886 0.874335 -0.159841 -0.130070 0.872656 0.599955 0.302730 0.030971 0.948325 0.231686 -1.179247 -0.037897 -0.206380
p7-x4---------- 0.231438 0.471310 -0.299252 -0.274704 -0.174288 0.310973 0.496224 -0.768495 -0.545151 0.990086 -0.222400 0.181073 -0.027426 -0.219553 -0.390648 0.051446 0.336993 -0.011394 0.377616 -0.286616 0.833828 -0.189548 -0.091679 -0.194360 -0.444946
vpys---xr-aa--- -0.473216 0.255313 -0.095431 -0.414818 0.183547 0.769484 -0.011308 0.447805 -0.363002 0.600188 -0.831180 0.773063 -0.086169 -0.515686 -0.191774 -0.921808 0.857294 -0.133977 0.459560 0.353609 -0.423157 0.302768 0.538080 0.074213 -0.411872
dg-------1a---- 0.082526 -0.079231 -0.390089 -0.262405 0.101916 0.229054 0.153563 -0.390112 -0.235879 -0.066121 -0.132141 0.249825 -0.144925 0.009075 -0.694071 0.234058 0.478655 -0.018228 -0.020554 -0.186401 0.616870 -0.701690 0.216307 -0.125508 -0.640300
nnis4-----a---- 0.384202 0.667078 -0.663021 -0.282121 -0.431155 1.078611 0.565639 -0.096227 -0.078993 -0.312973 -0.299018 0.644837 -0.102513 0.652773 -0.372847 -0.444124 0.355217 0.853179 0.899490 0.785084 0.817458 -0.814768 -0.192848 -0.561119 0.291355
r 0.549249 -0.484203 -0.627500 0.387135 0.008333 0.029578 -0.652184 -0.422357 0.536299 -0.594542 0.129512 0.295384 -0.606279 -1.088153 0.149363 0.175300 -0.220681 0.096983 0.585880 -0.053967 -0.733662 -0.032163 -0.748512 -0.110931 0.023389
cc -0.295750 0.491470 -0.601191 -0.554106 -0.247521 1.065480 -0.510181 0.763799 -0.343030 -0.682334 -0.237459 1.067233 -0.083292 0.105490 0.633354 0.221132 -0.489734 0.120495 -0.883322 -0.217187 -0.316023 0.009368 -0.444385 0.828930 0.429950
nnfs6-----a---- 0.269224 -0.372214 -0.907272 0.711724 0.236816 0.126074 0.901099 -0.654087 0.279804 0.169048 -0.671198 0.534597 -0.048475 0.544799 -0.054038 0.174690 0.570609 -0.423276 0.508588 -0.663292 0.150328 0.825904 0.776562 -0.233379 -1.159013
p -0.667918 0.453510 -0.585595 0.266266 -0.172468 1.119428 -0.535381 0.712678 0.244063 -0.637001 0.178968 0.603682 0.147443 0.267348 -0.067215 0.139495 -0.413257 0.870275 -0.894394 0.351232 0.203882 -0.211178 -0.292649 0.766395 -0.416960
pun -0.179422 0.047541 -0.792694 -0.010762 -1.496358 1.905237 -0.091848 -0.319360 0.488009 -1.243057 -0.621278 2.076697 -0.003156 -0.108874 0.452872 -0.578139 -0.950724 -1.519228 -0.296216 -0.069267 0.161542 0.892962 -0.417650 -0.238623 0.454100
nnfp2-----a---- -0.487226 -0.224705 -0.794767 -0.356624 -1.024852 -0.239356 -0.257443 0.291446 0.302093 -0.462312 -0.565598 -0.587651 -0.666969 0.050816 -0.225225 0.379567 1.036542 -1.035245 0.618913 0.070751 0.847687 -0.161925 0.253946 -0.726961 -0.337598
nnp 0.449071 0.002481 1.040462 1.152636 0.017716 0.789093 -0.911258 0.336640 -0.732442 -0.292217 -0.321688 -0.926909 -0.385076 -0.517627 0.241393 -0.113564 0.227681 -0.060990 -0.932578 -1.038314 -0.230224 -0.154922 1.079936 -0.868971 0.770065
sp -0.491267 1.047217 -0.626046 0.036380 -0.033599 1.096144 -0.687228 1.252524 -0.949980 -0.802458 -0.266472 0.764044 -0.578301 0.097848 0.817553 -0.132947 -0.518207 0.019979 -0.581396 -0.391747 -0.316763 0.544492 -0.173174 0.945593 -0.181279
nnns2-----a---- 0.261486 -0.331786 -0.433050 -0.705013 -0.034751 -0.537684 0.651112 0.148464 0.010769 0.393617 -0.843470 -0.468926 -0.456109 -0.255615 0.037833 -0.354056 1.168500 0.090864 -0.094358 0.718944 0.523002 -0.255167 -0.278725 -0.209478 -0.159139
prp 0.088126 -0.095703 0.803467 0.227647 -0.378609 1.003212 0.335947 0.200660 -0.305815 -0.930829 -0.014166 -0.753616 0.036335 -0.463010 0.544571 0.376187 -0.561168 -0.282944 -1.141626 -0.792957 0.342735 -0.368795 0.208100 -0.938425 -0.042872
ff -0.364369 0.601981 -0.679148 -0.252555 -0.233690 1.302837 -0.631352 0.733047 0.255467 -0.702939 0.198292 1.050669 -0.292247 -0.137990 0.394045 -0.369894 -0.535987 0.130723 -1.266149 -0.055805 -0.087820 0.246221 0.104669 0.507060 0.101588
jj 0.434303 -0.254069 0.630008 1.139481 -0.519105 0.390488 0.004630 0.152443 -0.481407 -0.773061 -0.222110 0.068558 0.587509 -0.343461 0.311326 0.062306 -0.742364 -0.019755 -0.389865 -1.185468 -0.244756 -0.693368 0.566428 -0.888795 -0.264680
rr--7---------- -0.420799 -1.072144 0.064572 -0.273523 -0.354289 0.633785 0.304524 -0.599112 -0.706324 0.255721 -1.365556 0.082775 -0.240245 -0.149018 -0.475580 -0.692969 0.296657 -0.176684 0.207703 -0.850786 -0.254599 -1.015262 0.308205 0.065389 -0.015318
con -0.634726 0.414367 -0.410457 0.402408 -0.321333 1.061569 -0.649893 0.750948 0.000512 -0.560813 0.237348 0.480998 -0.171946 0.229263 -0.127145 0.087580 -0.519793 0.829892 -1.135455 0.445133 -0.125804 -0.161986 -0.378999 0.509928 -0.331813
vb-p---3p-aa--- 0.101796 -0.061707 0.753210 -0.578543 0.427726 0.198069 -0.461810 -0.215166 -0.595368 -0.055006 -0.864321 0.473410 0.035759 -0.023598 -0.636990 -0.290357 -0.210069 -0.668512 0.700802 0.220882 0.323414 -0.219272 0.069828 -0.949286 -0.877280
rb 0.254195 -0.331787 0.581536 0.355640 -0.049048 0.615906 -0.125716 0.177522 -0.590795 -0.836979 0.014545 -0.263501 0.097077 -0.771721 1.009797 0.155946 -0.481745 -0.283483 -0.823078 -1.071208 0.545213 -0.686981 0.486536 -0.224596 -0.027312
delm -0.633658 0.379719 -0.190550 0.536490 -0.353556 1.083542 -0.557787 0.869782 -0.184587 -0.503047 0.378320 0.502627 -0.434209 0.263978 -0.241955 0.161887 -0.439431 0.877332 -1.066100 0.551545 -0.327322 0.000153 -0.408124 0.365280 -0.391333
aafs2----1a---- -0.129678 0.143032 -0.479076 -0.951203 -1.002462 -0.205080 0.219674 -0.690360 -1.011946 0.913446 -1.778006 -0.221347 -0.758942 0.231535 -0.208121 0.515426 0.376127 0.943052 0.099909 0.572948 0.727835 0.163711 0.246405 -1.533991 0.785541
nnip2-----a---- 0.538704 -0.538047 -0.633697 0.095616 0.079818 -0.672773 0.308764 0.096409 0.678204 -0.037983 -1.157581 1.241290 -0.907620 -0.189378 -0.508205 0.034184 0.661694 -0.570277 0.445288 0.580307 0.990089 -0.271695 0.034415 -0.186646 -0.823743
. 0.500608 -0.191521 0.924177 0.658713 -0.345373 0.264652 -0.728539 -0.287772 -0.855080 -0.944696 -0.242692 -0.003190 0.377188 -0.747919 0.010792 1.394032 -0.420015 -0.282727 -0.508269 -1.197911 0.227981 -0.653733 0.025544 -0.548743 0.681164
fs -0.183057 0.588723 -0.388866 -0.099446 -0.334289 0.804088 -0.414919 0.649243 0.295050 -0.642134 -0.428265 1.275009 -0.331994 -0.168389 0.256611 -0.380972 -0.441526 0.270500 -1.386544 -0.314233 -0.618152 0.554909 -0.218189 0.420207 0.570486
nnis6-----a---- 0.248446 0.865600 -0.539749 0.158527 -0.201962 -0.174385 1.473405 0.052812 -0.796709 -0.111563 -0.908679 -0.135762 -0.830369 0.515256 -0.512066 0.558487 0.270096 0.052684 0.294112 -0.705272 0.070999 0.848067 0.501178 -0.682214 -0.719473
c 0.215812 0.092151 -0.121778 -0.133878 -1.355860 0.914687 -0.058219 0.103925 0.476520 -0.830534 -0.677226 0.939915 0.164732 -0.165454 0.724930 -0.842755 -0.838458 -1.129760 0.006065 -0.500798 -0.652656 0.471528 -0.543726 0.008947 0.456167
vb 0.272312 -0.233932 0.822312 0.577135 0.613069 0.358593 -0.065611 -0.064886 -0.808850 -0.546224 -0.350176 -0.138627 0.070567 -1.009405 0.828113 0.521641 -0.876404 -0.435795 -1.318688 -0.988665 0.075584 0.205260 0.014876 -1.086351 -0.244212
adp+adptype=prep 0.613065 -0.185949 1.037758 0.696559 -0.124040 0.637855 0.016042 -0.214489 -0.588582 -0.999989 -0.655622 -0.036452 -0.259450 -0.442850 -0.092351 0.361912 -0.240425 -0.379441 -0.693764 -2.144934 0.441992 -1.170172 0.139313 -0.609484 0.150354
aafs1----1a---- 0.723287 0.177494 0.119066 -0.397570 1.217163 0.061323 -0.418073 -1.493577 -0.765793 0.386303 0.440838 -0.434565 -2.514940 0.597159 -0.248318 -0.101604 0.967995 0.261639 0.190367 -0.166195 1.280389 -0.665785 1.030292 0.430467 0.493661
nnns1-----a---- -0.110984 -0.282200 -1.047286 -0.250153 -0.844891 0.354420 -0.064793 -0.782325 -0.250953 0.216805 -0.274010 0.632235 -0.563552 -0.423084 0.768142 0.451580 1.009291 -0.466799 0.141644 -0.124398 0.792092 -0.354866 0.886507 0.062029 -0.547263
nnns4-----a---- -0.129795 -0.195047 -0.956582 -0.853552 0.235351 0.630681 0.580168 0.315919 -0.406699 -0.193529 -0.420642 -0.274446 -0.440913 0.313849 -0.881849 0.139928 0.760725 0.419958 0.765118 0.711865 0.820790 -0.219336 -1.255099 -0.087514 -0.025163
nns 0.096445 0.080265 0.878039 0.523441 -0.105796 0.861713 -0.132288 -0.108213 -0.575517 -0.851254 -0.542722 0.011181 -0.035929 -0.143116 0.558818 -0.205336 -0.611409 -0.315309 -0.544025 -1.419487 0.048155 -0.349621 -0.101917 -0.506904 0.487703
, -0.176057 -0.272265 1.023018 0.555550 -0.564092 0.178365 -0.835630 -0.415261 -0.583201 -1.091018 -0.346426 -0.331960 0.381280 -0.826402 0.101569 0.802437 -0.141138 -0.516925 -0.614264 -1.396335 0.405042 -0.429989 0.358976 -0.589864 0.372888
nnms2-----a---- 0.478134 -1.316898 0.052172 -0.693004 -0.162377 0.301521 0.800871 -0.943335 0.229763 1.114931 -0.463215 0.780770 -0.029130 -0.538166 0.946134 0.625197 0.695200 0.560871 1.058457 1.089478 0.570073 -0.112122 1.052674 -0.336383 0.335127
b -0.601363 0.214865 -0.849930 -0.309085 -0.544971 1.047571 -0.675598 0.542720 -0.220836 -0.877643 0.020296 0.896454 0.020556 -0.263668 0.633280 -0.522088 -0.346289 -0.018127 -0.884260 0.213204 -0.170060 0.020906 -0.302438 0.727481 -0.127256
pp -0.276762 0.118992 -0.218781 0.349760 -0.250858 0.630622 -0.598985 0.615320 -0.214263 -0.246265 -0.050938 0.306042 -0.118617 0.101292 -0.223877 -0.088063 -0.116491 0.361712 -0.711049 0.358092 0.048312 -0.180360 -0.029114 0.130582 -0.139399
nnns6-----a---- 0.058440 -0.001582 -0.451398 0.570327 0.190949 -0.140697 1.440188 -0.043997 -0.190180 -0.311844 -0.801123 -0.146150 -0.500265 -0.065687 -0.508273 1.144190 0.592821 -0.280860 0.431376 -0.090358 0.191321 0.808228 0.348020 -0.673725 -0.827531
vpqw---xr-aa--- -0.038610 -0.031031 0.109386 -0.277817 1.125591 0.105837 -0.214660 -0.536852 -0.904365 -0.146096 -0.300188 0.052456 -1.285286 0.554600 0.233936 -0.697786 0.642115 -0.538594 0.793584 0.241395 0.653611 0.115333 0.416705 0.189809 0.208044
aais2----1a---- 0.040509 -1.022062 0.264059 1.393607 -1.102585 -0.468376 0.572961 -0.044047 -1.354577 0.924490 -0.487263 0.078197 -0.495882 -0.144882 -0.745054 0.135755 0.886512 0.154205 0.456267 0.827365 1.080909 0.725701 -0.111073 0.812717 -0.133965
nnfs7-----a---- -0.363839 -1.418864 0.475809 -0.660312 -0.013611 0.756903 0.813666 -0.198643 -0.011772 -0.364857 -0.807724 -0.114581 -0.547678 0.026118 -0.301831 -0.325123 0.513516 0.120158 0.205106 -0.633099 1.001664 -0.858522 -0.369390 0.165167 0.106637
n_pl -0.360266 0.219907 -0.631413 0.129287 -0.211787 0.970140 -0.663832 0.503555 0.195836 -0.623895 0.225491 0.203775 0.162760 -0.045642 -0.072071 0.221925 -0.507732 0.651312 -1.034778 0.300270 0.003873 -0.277487 -0.132711 0.659869 -0.422767
nnmp2-----a---- -0.029182 -0.741739 -0.311998 -0.058780 -0.166064 -0.061625 -0.234506 0.299856 -0.114865 0.086875 -0.419111 0.011477 -0.732791 -0.152308 0.006967 0.937729 0.550799 -0.277593 1.150324 0.142435 0.913987 -0.664390 0.334481 -0.418733 -0.111266
aais1----1a---- -0.675618 0.348171 -0.357979 0.614607 0.236752 0.751638 0.714066 0.713679 -0.659349 1.437170 0.205431 0.224325 -0.665802 -1.365918 -0.368519 0.593261 0.419956 0.272006 -1.401966 0.144937 1.482036 -1.054641 1.786751 -0.092781 -0.572248
nnfp1-----a---- 1.481875 -0.533407 1.102317 -0.528739 -0.651476 0.870279 -0.663175 0.165990 -1.216331 0.192445 -0.253205 0.218782 0.373569 0.248894 -0.606280 0.549112 -0.146030 -0.686235 0.874115 -0.272232 1.103361 -0.033559 0.462789 -0.702298 -0.901908
rr--3---------- -0.084798 0.598355 -0.844278 -0.199536 0.342610 -0.040921 -0.327973 0.053762 -0.847458 0.266674 -1.365154 -0.141979 -0.114283 -0.293060 -0.196664 0.995025 0.534764 0.105120 0.933749 -0.697732 -0.239604 -0.689979 0.963663 -0.326694 0.322774
conj+_ -0.281924 0.335112 -0.329760 -0.341854 -0.037643 1.166517 -0.637221 0.488099 -0.505265 -0.818175 0.109953 1.347591 -0.237140 -0.132782 -0.120119 -0.344799 -0.313583 0.032501 -1.203768 -0.265033 0.182509 -0.100105 -0.320249 0.293501 -0.405776
nnis7-----a---- 0.038403 -0.359364 0.158993 -0.276963 -0.517634 0.598482 0.721499 -0.671392 -0.246330 -0.256127 -1.374835 0.256359 -0.476535 0.329036 0.515068 -0.498847 0.792004 0.167122 0.068897 -1.034465 0.363058 -0.566860 0.454046 0.180812 -0.127844
tt------------- -0.047340 0.007011 -0.499624 -0.413082 -0.008903 0.105554 0.423716 -0.191915 -0.394299 0.187590 -0.022674 0.509298 -0.070335 0.077002 -0.337025 -0.043821 0.400441 -0.059730 0.653223 -0.062138 0.474865 -0.879781 0.169821 -0.213815 -0.555052
nnfxx-----a---8 -0.094546 -0.378970 0.027298 -0.642813 -0.054526 0.293877 0.652902 0.174307 -0.180069 0.448614 -0.089613 0.449783 -0.842028 0.682123 -0.099866 0.208226 0.855654 -0.124472 0.738845 -0.072368 0.322791 -0.110905 0.365291 -0.297910 -0.123141
vc------------- -0.000218 -0.174759 -0.710604 -1.765195 0.334281 0.408000 -0.072914 -0.444759 -0.540180 0.363291 -0.042136 -0.127657 0.087120 -0.607775 -0.700424 -0.060687 -0.088485 -0.753185 0.092857 0.004199 0.769607 0.556398 0.538254 0.315110 -0.222730
aafs4----1a---- -1.657761 0.023619 -0.576270 0.324803 0.627310 -0.283470 -0.124993 -0.798933 0.360353 0.418599 -0.658815 1.977579 0.605996 0.721421 -0.319147 0.905203 0.757610 0.857708 1.079515 0.157418 0.305200 -0.415689 -0.552657 0.072111 -0.212319
nnfp4-----a---- -0.042922 -0.387305 0.486991 0.197885 0.142625 1.091223 -0.043091 -0.085079 0.660377 -0.071324 -0.309634 0.359145 -0.264746 0.420882 -0.926007 -0.642902 0.837220 -0.375349 0.719916 -0.269224 1.321859 -0.297843 -1.163368 0.071316 -0.473431
vpmp---xr-aa--- -0.472184 0.379774 0.167727 -0.671735 0.264905 -0.448064 0.263606 -0.358758 -0.665975 0.031572 -1.058242 0.562834 -0.333628 -0.106496 -0.309392 -0.506228 0.496588 -0.333113 0.953034 0.118037 -0.246136 -0.212850 -0.766029 -0.820811 -0.837407
nnmp1-----a---- -0.180746 -0.325430 0.467435 -1.367437 -0.103386 -0.583385 0.033531 -0.383877 -0.111386 -0.031366 -0.827432 0.621729 -0.403665 0.016384 -0.475095 0.833152 0.203190 -0.614161 0.522920 -0.382941 0.494555 -0.138732 -0.833237 -0.745214 -1.153575
adv+_ 0.344748 -0.009002 0.825730 0.292976 0.162830 0.694256 -0.296452 0.145053 -0.927120 -0.731437 -0.071581 -0.096412 -0.126632 -0.532085 0.172827 0.198565 -0.581824 -0.182941 -0.845385 -1.431174 0.915586 -1.121064 0.073058 -0.649891 -0.584068
v_prs -0.391537 0.255252 -0.877733 -0.015760 -0.497988 1.051872 -0.398410 0.659032 0.129011 -0.691782 0.376239 0.120455 0.164675 0.062519 -0.091697 0.377903 -0.463771 0.402190 -0.813686 0.291324 0.124358 -0.400543 0.024515 0.346179 -0.404625
noun+definite=ind+gender=com+number=sing 0.265684 0.075185 1.187173 1.158226 -0.156715 0.874920 0.390429 -0.216630 -1.086054 -1.311600 -0.507713 -0.402000 -0.524316 -0.371568 0.183879 -0.241159 0.104471 0.672075 -0.723804 -1.429673 0.730789 -1.043467 0.724744 -0.080388 -0.127851
fb 0.179117 0.728967 -0.465590 -0.239104 -0.394067 1.013350 -0.476239 1.010613 -0.055749 -0.774719 -0.118465 0.857916 -0.501485 0.061187 0.414139 -0.326791 -0.498702 0.131206 -0.881499 -0.046652 -0.487048 0.215163 0.074763 0.428606 0.197026
va -0.488985 0.012778 -0.660150 -0.780193 -0.388228 0.957045 -0.634104 0.548606 -0.113251 -0.992679 -0.018959 0.756339 -0.101866 -0.445579 0.520249 -0.489054 -0.358889 -0.387188 -1.026608 0.122674 0.020355 0.287861 -0.153781 0.532703 -0.282027
vbd 0.525243 0.275528 0.871011 0.411214 0.393580 0.204257 -0.429048 -0.360354 -0.714376 -0.853148 -0.353720 0.117452 0.797429 -0.817429 0.656160 -0.026854 -0.229090 -0.411187 -0.577091 -1.292370 0.295498 -0.235871 0.062337 -0.520853 0.021932
aafp2----1a---- -0.020028 -0.955640 -1.193091 -0.321491 -1.532241 -0.075205 -0.906408 0.675659 0.260302 0.507847 -0.691695 -0.729822 -0.482689 -0.349477 -1.377334 -0.505686 0.847124 -0.554932 0.334847 0.536855 0.208742 0.130473 0.352717 -0.658466 -0.584244
vbp 0.387276 0.031930 0.865351 0.114225 0.462682 0.039700 -0.427511 -0.338909 -0.909946 -0.968943 -0.406599 0.008186 1.075178 -0.917970 0.823838 -0.106655 -0.066001 -0.482712 -0.413288 -1.273097 0.511167 -0.320601 -0.113072 -0.531653 0.037726
nnip4-----a---- 0.020968 0.928284 -0.689429 -0.429099 -0.009453 0.307674 0.202275 -0.242834 1.582825 -0.521464 -0.621865 0.731911 -0.379490 0.359531 -0.851464 -1.071003 0.525501 0.284875 0.025781 0.240824 0.400986 -0.865533 -0.064788 -0.943158 -0.483163
vpns---xr-aa--- -0.499299 -0.155412 -0.871819 -0.206982 -0.158368 0.121826 -0.002924 -0.048639 -1.331460 0.030787 -0.514472 0.504872 -0.419961 -0.281721 0.606159 -0.761308 0.717092 -0.771358 0.542139 0.346195 0.229959 -0.148349 0.263391 -0.437016 -0.356744
aais4----1a---- 0.469234 0.411899 -0.363002 -0.213807 -0.820650 0.598553 -0.714950 -0.331187 -0.762586 -0.480467 -0.535786 1.042930 0.563860 0.954404 -1.843748 -0.757890 0.661983 1.554273 1.659189 0.249253 0.307789 -0.642802 0.491969 0.770052 0.119279
n,sg,nom -0.654752 0.296178 -0.248698 0.315576 -1.451981 1.382828 -0.006200 -0.435625 0.142276 -1.234345 -0.951197 1.188367 -0.125766 -0.029599 0.267641 -0.709617 -0.458608 -1.390371 -0.092633 -0.464482 -0.578609 0.909155 -0.338044 -0.246213 0.028982
nnip1-----a---- 0.321789 -0.095257 1.448954 -0.911035 -0.599595 0.464789 -0.166358 0.007221 -0.250662 -0.036240 -0.925694 0.452193 -0.293870 0.639797 -0.542787 0.249286 -0.167659 -0.740541 -0.188720 -0.543634 0.861857 -0.286322 -0.422744 -1.345056 -0.987671
vb+prs+akt -0.110712 0.047623 -0.188962 0.182267 -0.198326 0.528337 -0.445877 0.342183 -0.084647 -0.297300 -0.062018 0.208815 -0.148537 -0.085231 -0.182852 -0.089627 -0.166538 0.248491 -0.619094 0.258984 -0.015292 -0.120294 -0.083687 0.141604 -0.098992
pro -0.414516 0.347220 -0.555524 0.167881 -0.220186 0.928355 -0.636612 0.291593 -0.027105 -0.569754 0.248404 0.210408 0.029270 0.028329 -0.049289 0.232505 -0.587275 0.619900 -0.864864 0.175295 -0.055227 -0.099323 -0.232086 0.606458 -0.447475
aaip2----1a---- 0.747275 -0.052385 -0.376677 0.677800 -0.820253 -0.743774 0.063946 0.000832 0.642094 -0.272795 -0.357043 0.498665 -0.778194 -0.277573 -0.665853 -0.819216 0.048426 -0.612461 0.535662 0.933440 1.587152 -0.958015 0.608825 -1.356254 0.466809
vb-s---3p-na--- -0.274218 0.157974 0.025425 -0.523397 0.399276 0.538655 -0.182453 -0.492035 -0.515629 -0.101075 -0.176001 0.711932 -0.775329 -0.670828 -0.163171 -0.706256 0.728766 -0.346894 0.346788 0.593932 0.394103 -0.331755 0.920298 -0.485033 -0.541301
nn+utr+sin+ind+nom -0.125569 0.014252 -0.164738 0.277496 -0.141928 0.446454 -0.467080 0.578464 -0.072006 -0.235809 -0.037343 0.365779 -0.131063 -0.009408 -0.158090 -0.127218 -0.165385 0.277002 -0.466266 0.368156 -0.076430 -0.139528 -0.016008 0.078180 -0.204760
vbz 0.582321 0.184242 1.109578 0.610896 0.071188 0.319347 -0.416414 -0.515310 -0.487724 -0.523936 -0.309112 0.022649 0.772441 -0.766196 0.258212 -0.045486 -0.353799 -0.260295 -0.823330 -1.589882 0.194682 -0.031380 0.017939 -0.343771 0.165544
v,act,ind,pres,sg3 0.002114 0.078574 -0.246070 -0.048738 -1.242319 1.259216 -0.307549 0.199752 -0.070738 -0.690264 -0.757751 2.111069 0.348217 -0.153966 0.746222 -0.916618 -0.520950 -1.116593 -0.307061 -0.098020 -0.420258 0.439685 -0.466162 -0.802249 0.024453
aans1----1a---- -0.746957 -0.464195 -1.056961 0.097649 -1.201599 0.348334 0.189365 -1.125889 -1.098243 0.422022 0.926343 0.817801 -0.734271 -0.920401 0.511238 0.205905 1.133868 -0.566128 -0.412850 -0.223422 1.026262 -0.434423 0.775479 -0.354795 -0.715686
aafs6----1a---- 0.710738 -0.595800 -0.511446 1.135733 0.088825 1.002521 0.944415 -0.485203 -1.111617 0.690861 -0.440717 -0.045949 0.631810 0.219955 -1.546648 -0.782028 0.872737 -0.484813 1.246795 -1.201988 -0.184874 1.211819 1.196401 -0.579803 -0.993924
rv--6---------- 0.799928 -0.210820 -0.432551 0.191240 0.325988 0.664916 0.432050 -0.228050 -0.452119 0.257629 -0.168173 0.330331 0.016746 -0.263263 -1.078542 0.147687 1.192862 -0.904243 0.638895 -0.427447 -0.379248 -0.024057 -0.111796 -0.970638 0.446163
v_pa -0.421267 0.323370 -0.768925 0.028381 -0.414042 0.938403 -0.387066 0.574374 0.035590 -0.659927 0.420627 0.087275 0.178242 0.096208 0.030900 0.337978 -0.465525 0.439581 -0.753681 0.298333 0.203704 -0.258084 0.038818 0.327147 -0.357728
pc -0.441723 0.045111 -0.781019 -0.565633 -0.565568 0.919313 -0.649145 0.470647 -0.096906 -0.876881 -0.091013 0.538478 -0.045940 -0.366769 0.381557 -0.469623 -0.468589 -0.347546 -0.875371 0.102027 -0.104487 0.151747 -0.172143 0.642831 -0.316383
ri -0.496583 0.519234 -0.660606 -0.443605 -0.384767 0.651829 -0.508806 0.221231 0.166076 -1.017801 -0.251991 0.604087 -0.157669 -0.319868 0.350960 -0.396618 -0.565804 0.305277 -0.831661 0.008487 0.085170 0.552465 -0.396404 0.492071 0.772944
aans2----1a---- 0.278310 -0.254174 -0.327341 -0.567658 0.205921 -0.711463 0.475760 -0.656532 0.285256 0.782311 -1.421586 -1.102695 -1.462394 -0.069699 -0.145519 -1.172201 1.211721 0.539886 -0.160780 0.645424 0.207523 -0.469910 -0.384647 0.010579 0.442501
mad -0.139115 0.064580 -0.088675 0.189154 -0.161930 0.383443 -0.297791 0.307178 -0.085538 -0.199929 -0.028440 0.160557 -0.099214 -0.008869 -0.080205 -0.032506 -0.080407 0.177757 -0.378688 0.075800 0.018283 -0.056045 -0.039818 0.036868 -0.064222
propn+_ 0.146790 -0.072452 1.627803 0.536842 0.040114 1.310224 -0.156084 0.822397 -0.589358 -0.325616 -0.347281 -0.447964 -0.470913 -0.432958 -0.060674 0.079468 -0.295318 0.493229 -1.297082 -1.461158 -0.016905 -0.550516 0.438837 -0.379153 -0.587115
cd 0.657142 0.204441 1.211785 1.120245 -0.429684 0.481598 -0.491840 0.586832 -0.840576 -1.061188 -0.053333 0.144338 0.047131 -0.269512 -0.017684 0.140814 0.005241 -0.470184 0.007880 -0.809626 -0.023174 -0.816239 0.219036 -0.828317 0.207453
vbn 0.268052 0.161738 0.690129 0.641698 -0.367123 0.788970 -0.216456 0.062465 -0.378908 -0.523393 0.228686 -0.236158 0.343547 -0.433483 0.708613 0.210060 -0.467624 -0.143493 -0.595975 -1.280080 0.417548 -0.405602 0.306237 -0.770018 -0.056541
nnnp2-----a---- 0.298534 -0.634964 -0.631218 -0.524003 -0.362201 -0.875376 0.457763 0.361683 0.062383 -0.293945 -0.883954 1.005914 -0.689453 0.162458 0.009597 0.386914 0.642802 -0.614634 0.511644 -0.226721 0.404596 -0.625447 0.094190 -0.578719 -0.761635
ncmsi 0.779898 0.134420 -0.160158 -0.305996 0.174109 0.211837 -0.350332 0.474445 0.030434 -0.595123 -0.218757 0.108027 -1.330978 -1.089628 0.124852 -0.102298 -0.997928 0.249834 0.318178 0.028151 -0.201091 0.817411 -0.464952 -0.245938 -0.263649
sconj+_ -0.378718 0.344382 -0.273170 -0.290558 -0.147258 0.627275 -0.954333 0.349701 -0.856830 -0.492882 -0.005379 0.686900 -0.056538 -0.007843 0.292765 -0.415947 0.013293 0.234659 -1.454781 -1.288028 -0.012043 -0.398672 0.190488 -0.265074 -0.571525
cs -0.307922 0.277599 -1.026143 -0.517268 -0.530953 0.920106 -0.787658 0.490834 0.204593 -0.593063 0.416789 0.436249 -0.201487 -0.681719 1.193390 -0.083470 0.214514 0.167000 -0.429677 -0.212360 -0.486481 0.527375 -0.592131 0.272074 -0.185690
ncfsi 0.406510 -0.019351 -0.615903 -0.614459 -0.795249 0.252396 -0.367573 0.408545 0.832644 -0.584902 -0.620661 0.405947 -0.283837 -1.473909 0.120898 0.600212 -0.440573 0.460178 0.978556 0.095137 -0.639139 1.018745 -0.761264 -0.123895 -0.391670
nnns7-----a---- -0.520718 -0.874745 0.173684 -0.168759 -1.095463 0.727759 0.548954 -0.661865 0.032790 -0.158181 -0.688042 -0.239800 -0.890594 -0.036585 -0.122090 -0.383167 0.802026 -0.114016 -0.110633 -0.525464 0.654029 -0.386451 0.143904 -0.151321 -0.070037
aams1----1a---- 0.616585 0.194625 0.017375 -1.399446 -0.906650 0.895081 0.326852 0.699340 -0.605643 1.012877 -0.516612 0.326452 -0.300811 -0.630575 -1.164346 -0.444751 1.034388 0.839770 0.115818 0.452132 -0.786178 0.225896 0.530659 0.810317 -0.697739
pdns1---------- -0.139691 0.482643 -0.601573 -0.309795 -0.464618 0.048708 0.062207 -0.994299 -0.503271 0.325611 0.518634 0.592359 -0.036666 -0.693301 -0.018120 0.452544 0.988511 0.051350 0.149325 -0.477589 1.120575 -0.850327 0.418316 0.164796 -0.769107
aafp1----1a---- 1.250612 0.022078 1.178259 -0.631607 0.193791 0.401877 -0.848921 0.373663 -1.533476 1.152694 -0.933807 -0.097994 0.196378 -0.119982 -0.946421 0.381268 -0.503392 -0.107843 0.665897 -0.592521 1.572790 -0.955852 1.011392 -0.986728 -0.964889
n,sg,gen -0.132459 0.549971 -0.308355 0.297405 -1.569414 1.120817 0.237453 -0.228464 0.168640 -0.959213 -0.484760 1.361332 -0.357122 -0.225172 0.883906 -0.566580 -0.071567 -1.278587 0.051744 -0.284102 -0.184590 0.714179 -0.259489 -0.407486 0.018154
vptp---xr-aa--- 0.190266 0.262247 0.519536 -0.428446 0.505375 0.165878 -0.256767 -0.013694 -0.790664 0.105873 -0.950792 0.436051 0.222258 0.240603 -0.356695 -0.444409 -0.153826 -0.689374 0.487157 0.019250 0.630758 -0.086115 0.273520 -1.040240 -0.618922
pcle -0.630891 -0.011748 -0.408664 0.054429 -1.226524 1.400828 -0.253799 -0.136809 0.449445 -1.074601 -0.640198 1.346694 -0.042889 -0.163524 0.335625 -0.614045 -0.433858 -1.247072 -0.221558 -0.464982 -0.385235 0.498706 -0.461389 -0.286710 0.122206
vbg 0.351404 0.189568 0.563896 0.863869 -0.106267 0.567964 -0.261358 0.015810 -0.407086 -0.659390 -0.084623 -0.115876 0.339212 -0.425016 0.716176 0.067178 -0.520456 -0.105980 -0.566865 -1.120728 0.204585 -0.347780 0.103285 -0.813695 -0.020125
adv+degree=pos 0.094909 -0.128062 0.755053 0.306695 -0.035557 0.480267 -0.168173 0.056241 -0.947044 -0.511858 -0.052642 -0.034762 0.162314 -0.402117 0.152480 0.219201 -0.327745 -0.010554 -0.693843 -1.520641 0.784389 -0.574765 0.055857 -0.685779 -0.232499
md 0.072022 0.082144 0.769592 0.527656 0.898634 -0.280320 -0.186866 0.237734 -0.695939 -1.437321 0.070117 0.062576 0.544851 -0.613724 0.348542 0.368756 -0.493438 0.085296 -0.613714 -1.232743 0.952520 -0.656597 0.292311 0.141455 -0.552286
to 0.196341 -0.128609 0.474459 0.839431 0.340759 -0.091349 0.240828 0.239756 -0.324127 -0.991081 -0.143117 -0.494042 -0.043216 -0.256805 0.581972 0.570645 -0.909009 0.243324 -0.709052 -1.405813 0.896707 -1.155083 0.229766 0.127101 -0.069843
vb-p---1p-aa--- -0.376024 -0.097529 -0.352191 -1.015915 0.490161 -0.054436 0.473830 -0.157637 -0.499366 -0.469554 -0.623153 0.956156 -0.142093 -0.299595 -0.666506 -0.541052 0.387391 -0.436287 1.166922 -0.217257 0.421106 0.169262 0.044202 -0.248331 -0.451001
nnfp6-----a---- 1.261293 0.041559 -0.082955 0.568755 0.743663 0.247319 0.792649 -0.397145 -0.058083 0.123734 -0.302551 -0.546894 -1.252969 0.342943 -0.480810 0.052433 0.741231 -0.453679 0.434548 -0.855092 0.623060 0.668240 0.275985 -0.325208 -0.840534
aais6----1a---- 0.757633 1.404509 -0.305130 0.998739 0.231072 0.489592 1.838250 -0.686499 -0.702956 0.135890 0.085164 0.704654 -0.103808 0.779414 -0.652885 -0.194106 0.817305 -0.103807 0.692717 -0.832482 0.078470 1.265054 0.655453 -2.060684 0.289740
aux+number=sing+person=3+tense=pres -1.071785 -0.283667 -0.592373 -0.156047 0.133854 0.041527 -0.618409 0.237232 -0.158778 -0.592574 -0.045821 1.236807 -0.107495 -0.483970 -0.817525 0.108958 -0.582926 0.066637 0.000343 -1.330548 0.386102 0.841647 -0.151933 -1.190844 -0.210518
nnfs3-----a---- -0.215384 0.307744 -0.277146 -0.357901 1.000567 0.181703 -0.407854 0.645376 0.091975 0.554034 -1.521752 -0.608432 0.027172 -0.108401 -0.030338 0.705279 0.736130 0.366396 0.804482 -0.524345 0.372329 -0.774735 0.623653 -0.576276 -0.078923
prp$ 0.016430 -0.074029 0.661336 1.264015 -0.676147 0.383945 -0.247881 -0.131972 -0.784750 -0.780831 -0.108507 -0.074979 0.278752 -0.714596 0.396045 0.119514 -0.793899 0.654228 -0.506889 -0.535370 0.363142 -0.769292 -0.238321 -0.776504 0.443179
ab -0.169871 -0.001594 -0.137427 0.105253 -0.172822 0.391326 -0.400828 0.318937 -0.112237 -0.204874 -0.024499 0.240468 -0.099941 -0.002337 -0.107328 -0.104473 -0.156823 0.187803 -0.434399 0.136817 -0.024596 -0.121589 -0.090201 0.079229 -0.120216
adp+case=loc -0.511676 -0.875511 -0.263624 0.650216 0.458860 0.188411 0.124757 0.095785 -0.731237 -0.150930 -0.125695 0.527143 -0.379101 -1.805164 -0.784064 0.335223 0.593416 0.300126 0.410126 -1.463158 0.349064 -0.439774 -0.021175 -0.185147 0.235762
verb+mood=ind+tense=pres+verbform=fin+voice=act 0.236883 -0.071796 0.809647 -0.013393 0.067098 0.521577 -0.412037 -0.196248 -1.222718 -0.807871 -0.730964 0.193988 -0.387809 -0.719843 0.182166 0.151088 -0.500850 -0.652558 -1.240807 -1.509135 0.301118 -0.377350 0.536249 -0.688784 -0.141909
aux+mood=ind+tense=pres+verbform=fin+voice=act 0.487834 -0.462579 0.434458 -0.175395 0.413200 0.490298 -0.255830 -0.043918 -1.344297 -0.902870 -0.729939 -0.118817 0.242409 -0.663646 -0.082878 0.403661 -0.809115 -0.523346 -0.771626 -1.710626 0.840695 -0.714547 0.462277 -0.491646 -0.217141
aafs7----1a---- -0.260224 -2.476276 0.598307 -0.387830 -0.523147 1.379005 0.409021 -0.500368 -1.230044 0.246023 -0.521909 -0.077553 -0.128832 -0.248141 -0.826458 -1.562266 0.514471 0.232545 0.312439 -0.974876 0.469572 -1.350300 0.272901 -0.195656 0.063073
nnms7-----a---- -0.765791 -1.338752 0.574461 -0.963982 -0.114216 0.577056 1.694501 -0.357731 0.234455 0.392474 -1.181733 0.521690 -0.492620 -0.106575 0.204655 -0.190361 0.717627 0.583398 0.431444 -0.913871 0.127101 -0.125210 -0.270059 0.271526 0.327021
aans4----1a---- -1.509621 0.181329 -0.798419 -0.212807 0.872189 -0.011152 0.481030 0.456964 0.117795 -0.459455 -0.186900 -0.141790 0.407069 -0.597208 -1.331084 1.056882 1.131857 0.285782 1.484442 0.807312 0.272434 -0.875784 -0.791632 0.357938 -0.299159
p7-x3---------- -0.078836 0.686464 -0.150847 -0.582137 -0.020662 0.356147 0.419668 -0.651230 -0.324918 0.591201 -0.122442 0.515601 -0.292300 -0.274366 -0.522312 -0.199492 0.343262 -0.046651 0.462193 -0.093970 0.328636 -0.379779 -0.645585 0.015069 -0.684989
pcle,cc -0.173392 0.142477 -0.513631 0.178919 -1.361823 1.337225 0.003774 0.126143 0.276939 -0.824987 -0.732305 1.503024 -0.278503 -0.163236 0.674909 -0.559757 -0.556149 -1.359851 -0.409202 -0.256095 -0.256069 0.574640 -0.338940 -0.436467 0.259156
cp 0.564269 -0.516988 -0.320689 0.236674 -0.242048 0.373299 -0.981373 -0.539307 0.070611 -0.357328 0.013257 0.349025 -0.678581 -1.260461 0.000717 -0.362567 -0.390812 1.034880 0.361742 -0.667799 -0.601987 -0.062514 -0.687201 -0.731760 -0.554239
aaip1----1a---- 0.212258 0.449451 1.505262 -1.066919 -0.291081 -0.011494 -0.149160 -0.239116 -0.401309 0.118018 0.151381 0.678998 0.050543 0.703455 -1.158342 -0.203447 -0.229664 -0.883569 -0.673569 -0.500472 1.020280 -0.278540 -0.449631 -2.483556 -0.135731
x -0.383540 1.150478 -0.942944 1.243273 -0.690045 1.571920 -0.656285 1.498122 0.548387 -0.401258 -1.247110 0.790440 1.080233 -0.796336 -0.299541 0.819861 -0.548589 -0.547752 -0.198692 0.871554 -0.395094 0.646876 0.601052 -0.544151 0.120827
aafp4----1a---- -1.178778 -0.974208 0.490862 -0.041235 0.723188 0.438359 0.233451 0.080870 0.405219 0.312324 -0.809929 1.092527 -0.534846 0.146525 -1.174625 -0.995597 0.336036 -0.423387 1.070158 -0.667090 1.304652 -0.986480 -1.501518 0.242951 -0.118204
kn -0.138931 0.037053 -0.134111 0.179703 -0.156510 0.390557 -0.336229 0.358817 -0.080998 -0.212277 -0.030021 0.191198 -0.116925 0.005569 -0.074233 -0.043543 -0.086313 0.177231 -0.389691 0.105898 0.017831 -0.083280 -0.034887 0.047102 -0.097439
v,act,ind,past,sg3 0.069837 0.225024 -0.166546 0.070561 -1.325443 1.296420 -0.106126 0.293073 0.003850 -0.505872 -0.600712 1.739785 0.114356 -0.251370 0.791829 -0.806392 -0.463369 -0.947001 -0.471708 -0.026827 -0.290047 0.731953 -0.440691 -0.760602 0.001320
nnms4-----a---- -0.581943 0.320094 -0.219289 -1.267671 -1.193697 1.142357 -0.017191 -0.239107 0.234676 -0.331199 -0.023137 -0.059395 -0.017464 1.153813 -0.323996 0.105126 1.063360 -0.155464 1.257581 -0.331883 -0.025131 0.060718 -0.434992 -0.359420 0.267750
pr -0.594403 0.235850 -0.540104 -0.451052 -0.250508 0.610378 -0.553508 0.459878 -0.101960 -0.661385 -0.175961 0.731099 -0.055560 -0.318377 0.473894 -0.449151 -0.062684 -0.082285 -0.861042 -0.035078 -0.063943 0.408451 -0.391928 0.484180 0.142950
part+parttype=inf 0.148802 -0.067624 0.796325 0.773628 0.477206 0.251808 -0.180658 0.372563 -1.054911 -0.460659 -0.270138 -0.191568 0.096362 -0.291684 -0.010089 0.648303 -0.679231 0.425636 -0.566561 -1.471359 0.747901 -1.332940 0.108985 -0.562093 -0.446717
tx 0.402395 -0.023905 -1.154492 0.901826 -0.022755 0.767747 -1.105360 0.577642 -0.364032 -0.176801 0.032588 0.426532 -0.268395 -1.541807 0.143765 0.140391 0.245045 0.507753 0.166781 -0.673576 0.192228 0.313778 -1.159008 -0.977620 0.424620
n,sg,par -0.523825 0.156926 -0.096278 -0.042322 -1.171288 0.827715 -0.105773 -0.283942 0.541116 -1.269094 -0.873132 1.255830 0.051003 -0.254027 0.567633 -0.785587 -0.089944 -1.241440 -0.341812 -0.487415 -0.113945 0.655341 -0.718331 -0.469900 0.021757
nnixx-----a---8 -0.317417 -0.532034 -0.052932 -0.622942 -0.293944 0.296687 0.848457 1.055744 -0.181381 0.276251 -0.167683 0.767991 -0.816975 0.363494 -0.147801 -0.016266 0.672725 -0.344244 0.773170 -0.364595 0.679044 -0.322692 0.143831 -0.061667 0.009513
aaip4----1a---- -1.239997 0.781881 -0.981888 -1.134370 -0.563089 -0.168210 -0.956183 -0.287897 1.531253 -0.630649 -0.047091 0.086966 -0.141288 -0.015928 -1.530542 -0.609305 0.639929 -0.347298 0.689999 0.055290 0.880172 -0.549291 -0.424296 -1.288960 -0.338727
mid -0.125402 0.032783 -0.127410 0.202417 -0.154077 0.367728 -0.352445 0.318736 -0.066533 -0.237843 -0.039206 0.191111 -0.108581 -0.019418 -0.073846 -0.052438 -0.101037 0.205047 -0.408643 0.150225 -0.002574 -0.087296 -0.063724 0.023932 -0.094193
pcle,cs -0.455537 0.104085 -0.535489 0.073736 -1.172319 1.322288 -0.405360 -0.087701 0.271747 -0.429809 -0.519972 1.186045 -0.134104 -0.084910 0.526017 -0.669510 -0.282528 -1.292395 -0.432757 -0.790433 -0.399117 0.416480 -0.579539 -0.118578 0.130760
nn+utr+sin+def+nom -0.124848 -0.016305 -0.153456 0.199468 -0.210440 0.373404 -0.364738 0.379911 -0.054392 -0.170384 -0.023978 0.227800 -0.144489 -0.019701 -0.026202 -0.072160 -0.112877 0.200011 -0.364615 0.155818 -0.054767 -0.141326 -0.051480 0.082634 -0.123556
nn+utr+plu+ind+nom -0.089218 0.006978 -0.164101 0.133438 -0.187764 0.366125 -0.349335 0.320317 -0.015781 -0.213356 -0.047360 0.189820 -0.116707 -0.055262 -0.109886 -0.018717 -0.052378 0.197269 -0.360903 0.151989 -0.001004 -0.065689 -0.080379 0.081428 -0.124803
vb-s---1p-aa--- -0.302285 0.281822 -0.348556 -1.190636 0.413490 -0.147316 0.348852 0.114371 -0.315040 -0.294200 -0.123369 0.468773 0.160185 -0.559937 -0.649114 -0.686098 0.641291 0.138841 0.528244 -0.264614 0.163310 -0.045130 0.310236 0.232873 -0.685729
noun+definite=ind+gender=com+number=plur 0.585677 -0.311998 1.201152 0.930539 -0.346152 0.626129 -0.554634 0.087224 -0.934608 -0.595882 -0.775709 0.157994 -0.224785 -0.340150 0.984150 -0.312347 -0.276219 0.250108 -0.448281 -1.543018 1.096334 -0.466445 -0.212824 -0.522096 0.206371
dg-------2a---- -0.228623 0.315906 -0.477426 -0.607180 -0.043640 0.315785 0.016051 -0.254493 -0.253966 -0.160486 -0.259391 0.438521 0.060262 -0.015631 -0.574916 -0.186555 0.415319 -0.530870 0.496465 -0.381329 0.982467 -0.328943 0.195287 -0.056824 -0.416747
intj -0.387836 0.093510 -0.878900 -0.440476 -0.701968 0.914869 -0.419376 0.993968 -0.015137 -0.761865 -0.327933 0.499497 0.298164 0.293706 0.719266 -0.247545 0.173433 -0.614702 -0.520739 -0.307774 -0.543189 0.441227 0.183298 0.364774 -0.006377
sym -0.113331 0.090359 1.134834 0.645873 -0.815181 1.095316 -0.115092 1.748395 0.175009 -1.177928 -0.352909 1.626279 0.187105 0.185154 0.260306 -0.162421 -0.849921 -1.653512 0.064088 -0.461489 -0.167399 -0.209296 -0.841658 0.862973 0.925703
det+definite=def+prontype=art -0.267272 0.991517 -0.664011 -0.372266 -0.477669 1.477668 -0.787240 0.241252 -0.428489 -0.567766 0.119751 1.087321 -0.578376 -0.230573 0.246245 -0.228782 -0.411783 0.094920 -1.195656 0.178352 -0.028968 -0.013739 -0.201364 0.107530 -0.467161
nnip6-----a---- 0.569745 -0.047149 -0.439137 0.798254 0.074435 0.454784 1.467767 0.047618 0.437412 0.043298 -0.716210 -0.285080 -0.227849 -0.373217 -0.039229 -0.008361 0.980130 -0.871530 0.675436 -0.901301 0.567000 0.183871 0.303434 -0.562269 -1.008370
vb-s---3f-aa--- -0.229883 -0.081512 -0.238958 -0.384416 0.556863 0.716796 0.472307 -0.495726 -0.684331 -0.164885 -0.056549 0.619915 -0.693980 -0.344099 -0.257083 -0.922330 0.261312 -0.294032 0.212134 0.523430 0.821959 0.085015 0.859023 -0.320973 -0.102872
vsys---xx-ap--- -0.237822 0.254524 -0.377113 -0.023325 0.055421 0.744813 0.788042 0.149278 -0.101956 0.820129 -0.283259 0.175969 0.195228 -0.769870 -0.373080 -0.415652 0.518032 0.575452 0.063477 -0.105260 0.511953 -0.682370 0.571180 0.182307 -0.335997
pdns4---------- -0.302957 0.726302 -0.305987 -0.815535 0.387098 0.268523 0.314050 0.041637 -0.232248 0.406383 0.184349 0.495866 -0.153444 -0.230145 -0.811262 -0.281172 0.516647 0.442407 0.653283 -0.093565 0.676626 -0.341706 -0.483998 0.109305 -0.677057
ncnsi 0.638221 -0.145766 -0.237767 0.251196 -0.045048 0.463287 -0.503980 0.106253 0.268894 -0.411203 -0.534808 0.077896 -0.873227 -1.397524 -0.172814 -0.218065 -0.692909 1.153077 0.889060 -0.061476 -0.199378 0.847168 -0.787417 -0.264884 -0.051749
noun+definite=ind+gender=neut+number=sing 0.449410 0.186451 0.824089 0.895871 -0.120496 0.961976 -0.105164 0.095033 -1.422736 -0.781209 -0.462566 -0.116612 -0.215240 0.223365 0.569378 -0.249050 -0.316232 0.390353 -0.506916 -1.270005 0.475848 -0.882536 0.235673 -0.645816 -0.144046
noun+definite=def+gender=com+number=sing 0.070412 -0.130209 0.884761 0.651808 -0.029226 0.689303 -0.007403 0.313944 -0.864384 -0.444917 -0.163521 -0.154141 -0.567797 -0.188642 0.131327 0.127124 -0.427539 0.332164 -1.003420 -1.348212 0.863278 -0.720197 0.239213 -0.474533 -0.657061
nnis3-----a---- 0.704632 0.343586 -0.031035 -0.201889 0.969017 0.589732 -0.398832 0.154309 0.085390 0.631519 -1.334403 -0.403768 -0.617398 -0.275257 0.102096 0.289127 1.067114 0.381743 0.852793 -0.599321 0.775757 -0.715066 0.624370 -0.127217 -0.115938
adp+case=acc -0.107764 -0.465384 -0.569359 0.303444 0.310817 0.540949 -0.106197 0.328367 -0.598252 0.288740 -0.101154 0.563289 -1.508924 -0.778928 -0.173475 -0.212383 0.367061 0.964355 -0.277898 -0.756375 1.003830 0.249677 -0.014102 -0.773105 0.640053
aais7----1a---- -0.550880 -0.341146 0.926692 -0.287470 -0.231477 -0.054981 0.502000 -0.625124 -0.393730 0.338628 -2.083669 -0.380128 -0.391751 -0.001028 -0.087641 -1.339089 0.656428 0.557438 -0.320533 -1.480043 0.601881 -1.379315 0.824714 -0.287336 0.277185
nnis6-----a---1 -0.063082 0.406402 -0.445910 0.096151 0.301965 0.178277 1.820029 0.331204 -0.790341 -0.028022 -0.871273 0.338824 -0.819796 0.606368 -0.280461 0.451933 0.031487 -0.268113 0.625231 -0.793109 0.298018 0.701127 0.561301 -0.625470 -0.637173
psxxxzs3------- -0.423519 -0.046538 0.041808 -0.205065 -0.109258 0.088903 0.194190 -0.399160 -0.258949 0.772223 -0.610747 -0.097504 -0.165937 0.012001 -0.534050 0.058798 0.582522 0.206207 0.370027 0.281044 0.512552 -0.206388 0.265295 -0.151979 -0.046987
nnmxx-----a---8 0.203762 -0.644038 0.383001 -1.595712 -0.748746 0.725459 0.609787 0.617286 0.415027 1.211542 0.089802 0.477252 -0.449825 0.255324 0.236360 -0.089859 1.423247 0.434645 0.872656 -0.211100 -0.486827 0.096211 0.862293 -0.305822 -0.217381
nnns3-----a---- 0.545230 -0.009319 -0.631209 -0.050862 0.758879 0.355891 -0.680597 0.005950 0.207699 0.523433 -1.926906 -0.527769 -0.083301 -0.130555 -0.102288 0.038206 0.721738 0.248653 0.680667 -0.263019 0.737198 -0.502496 0.631629 -0.325679 -0.412429
aans6----1a---- 0.459172 -0.121546 0.003555 0.791678 0.847147 -0.141981 2.303159 -0.651251 -0.059782 0.339160 0.032813 -0.151177 -0.124884 -0.775102 -0.917678 0.460283 0.327359 -0.280557 0.870888 0.088142 -0.234612 0.844054 0.473044 -1.825021 -0.244068
aamp2----1a---- 0.271092 -0.694185 -0.301635 0.103295 -0.305243 -0.223446 -0.216048 0.871730 -0.814599 0.819760 -0.639067 -0.243631 -1.257121 -0.358730 -0.261871 0.676375 0.387306 -0.268844 1.121223 0.402605 0.810285 -0.988642 -0.053729 -0.831316 0.063099
verb+verbform=inf+voice=act 0.106883 0.058607 0.604829 0.239460 -0.102111 0.800581 -0.379587 -0.391488 -0.633198 -1.126281 -0.353678 -0.292318 -0.408735 -0.280685 0.517877 0.189375 -0.252571 -0.773652 -1.144105 -1.334735 0.966304 -0.529456 0.240497 -0.899077 -0.216112
aamp1----1a---- -0.934205 -0.168918 0.564902 -1.662792 0.013876 -0.795111 0.212009 -0.162598 -0.910328 0.282852 -0.281153 0.421566 -0.363136 -0.430508 -0.916508 0.454479 -0.090624 -0.633347 0.880731 -0.155916 0.490685 -0.481628 -1.460646 -0.889565 -1.060501
propn+case=nom+gender=masc+number=sing -0.879364 -0.460245 0.001607 -0.448999 -0.652398 0.400271 -0.110875 0.060297 -0.039772 0.307422 -0.400289 0.933476 -0.218152 -0.860509 -0.936289 0.270986 0.091096 1.321726 -0.480473 -0.866997 -0.726502 0.631830 -0.197912 -1.635331 -0.488812
nnmp4-----a---- -0.316712 0.052836 -0.442357 -0.422143 0.150820 0.164111 -0.048605 -0.420100 0.471691 -0.539777 -0.575568 0.381453 -0.815925 0.374192 -0.695896 -0.527263 0.742554 0.675235 0.529566 0.186974 0.617732 -0.892963 -0.308490 0.305717 -0.649047
clitic -0.407681 0.276395 -0.362646 0.170393 -0.079349 0.625736 -0.531642 0.462178 0.073753 -0.535279 0.166113 0.120597 0.068819 0.027286 0.041954 0.121833 -0.418983 0.618429 -0.636103 0.075021 0.092275 -0.043090 -0.272858 0.405277 -0.143154
aaxxx----1a---- -0.095102 -0.345701 0.100952 -0.263372 0.106634 0.589548 0.275562 0.249179 0.044849 0.349295 0.587061 0.696663 -1.437190 -0.005155 -0.184733 0.703633 0.385394 0.225434 0.612490 -0.452569 -0.487480 0.047985 0.920488 -0.687915 0.321557
v,act,infa,lat -0.321825 0.046828 -0.371911 0.137806 -1.032866 1.332303 -0.114767 -0.071057 0.468057 -0.871630 -0.551150 1.199718 -0.077079 -0.048822 0.355848 -0.521851 -0.482521 -1.002115 -0.325629 -0.565068 -0.323792 0.447333 -0.309039 -0.449383 0.052208
ncfsd 0.018100 -0.043146 -0.479646 0.057511 -0.138036 0.225509 -0.820141 -0.028403 -0.005483 -0.484884 -0.299933 -0.184412 -1.091682 -1.324810 0.300294 0.208448 -0.397745 0.758403 0.742414 -0.425171 -0.065381 0.622055 -0.647090 -0.224308 -0.185088
v_sub -0.385758 0.245383 -0.590034 0.048347 -0.309447 0.736533 -0.269319 0.505650 0.005898 -0.535376 0.300356 0.095669 0.136712 0.063116 -0.002083 0.243748 -0.377803 0.352055 -0.643511 0.157768 0.158751 -0.183742 -0.006620 0.259308 -0.242097
vb+inf+akt -0.135197 0.024328 -0.101169 0.098112 -0.151362 0.297446 -0.307668 0.231849 -0.105303 -0.170206 -0.034616 0.232480 -0.105921 -0.034889 -0.062239 -0.082208 -0.167960 0.152287 -0.331048 0.087399 -0.041711 -0.065542 -0.115008 0.029524 -0.077277
p4ys1---------- -0.230701 -0.180339 -0.047707 -0.902007 0.041701 -0.009880 0.508690 0.413452 -0.068082 0.491858 0.282386 0.393675 0.023126 -0.133812 -0.224266 -0.001345 1.616012 0.837062 0.257317 -0.617995 -0.302906 -0.603816 0.488287 0.156535 -0.589200
noun+case=gen+gender=masc+number=sing 0.128061 -0.418321 0.208994 -0.009876 -0.144663 0.098695 0.612545 0.409840 0.104936 -0.235722 -0.544339 0.822557 -0.928702 -1.000619 -0.383526 -0.009841 -0.260216 0.506510 0.358813 -0.859163 0.828601 0.257046 -0.323787 -0.850561 -0.480620
npmsi 0.174370 0.430215 0.108720 0.158991 0.384036 0.501748 -0.085593 -0.255245 0.301560 -0.458940 0.089221 -0.651380 -1.725214 -0.933592 0.387508 -0.196644 -0.504102 1.128204 -0.186961 -0.593875 -0.786843 0.786631 -0.728520 -0.825315 -0.462099
nn+neu+sin+ind+nom -0.087727 0.014920 -0.093390 0.165018 -0.138236 0.321153 -0.310818 0.303973 -0.017668 -0.221497 -0.061153 0.217136 -0.093900 -0.082842 -0.037794 -0.044435 -0.088853 0.168433 -0.277127 0.088817 -0.019736 -0.087139 -0.076142 0.039826 -0.073413
ppxta -0.234532 -0.204763 -0.604437 0.187676 -0.610487 0.480023 -1.222088 -0.193999 -0.457060 -0.514235 0.134881 -0.357936 -0.715947 -1.493321 0.935304 -0.561007 0.285420 0.824549 0.724534 -0.888276 0.698363 0.270173 -0.612083 -0.649730 -0.409796
num+numtype=card 0.686942 -0.703750 1.030089 1.149123 -0.107633 0.168762 -0.282627 0.652291 -0.728771 -0.774346 -0.048840 0.549995 -0.532326 -0.241049 -0.211569 -0.176475 -0.752836 -0.110599 -0.537945 -1.173833 0.864454 -0.338012 0.310706 -0.491469 -0.282445
noun+case=gen+gender=fem+number=sing -0.286037 -0.535591 0.152122 0.265271 -0.106029 0.169846 0.380672 0.610215 0.178923 -0.722145 -0.361815 0.604285 -1.150381 -1.012103 -0.385525 -0.520775 -0.361661 0.889524 -0.139111 -1.266002 0.154328 0.377763 -0.024121 -0.552207 -0.388216
nnfxx-----a---- -0.394346 -0.435864 0.077530 -0.572209 0.341530 0.281088 0.515719 0.452963 0.010063 0.157261 0.338960 0.673838 -1.444344 0.257233 0.003506 0.664999 0.572015 0.237614 0.812997 -0.288891 0.105228 -0.230798 0.699597 -0.199004 0.388318
v_pp -0.381427 0.222041 -0.376056 0.149151 -0.210337 0.649506 -0.312748 0.508668 -0.036422 -0.507433 0.276320 0.130517 -0.060077 0.093491 -0.021775 0.165649 -0.371476 0.446582 -0.646443 0.204543 0.073280 -0.022533 -0.117302 0.262981 -0.164904
adp+case=gen 0.463232 -0.357889 0.050677 0.026636 0.108162 0.130884 0.258231 0.367870 -0.229788 -0.090264 -0.277481 0.996216 -1.224877 -0.988843 -0.750804 -0.540502 -0.499354 0.683717 -0.267831 -1.127412 0.653700 -0.198987 -0.552124 -0.516868 -0.165308
noun+case=nom+gender=masc+number=sing -0.566383 -0.478137 -0.461638 -0.504680 -0.555815 0.114750 -0.424814 0.142749 -0.175163 -0.002109 -0.793821 1.231023 -1.049064 -0.312761 -1.288221 -0.075994 -0.162488 1.323181 0.174690 -0.778897 -0.150520 0.279352 -0.089442 -0.421054 -0.508235
vsqw---xx-ap--- 0.323372 -0.327770 -0.081167 0.052640 0.625655 0.119129 0.417345 -1.002332 -0.358613 0.266891 0.261346 -0.099615 -0.592517 0.399233 -0.313995 -0.170577 0.544529 0.310057 0.722522 0.000576 0.859510 -0.533132 0.508808 0.106735 -0.049220
bn -0.265788 0.083750 -0.468049 -0.499488 -0.296861 0.692088 -0.634633 0.289025 0.030847 -0.689670 -0.009171 0.696847 -0.022805 -0.417253 0.472506 -0.389267 -0.291016 -0.186326 -0.777662 -0.028809 -0.158423 0.154320 -0.310085 0.342224 -0.095292
nnfp7-----a---- 0.454131 -0.724341 0.407024 -0.474304 -0.310274 0.487467 0.343075 -1.092734 0.517096 -0.441533 -0.951645 -0.080596 -0.120936 0.228550 0.209341 -0.709495 0.267830 -0.411589 0.644745 -0.806394 0.608379 -0.814301 0.286887 -0.032849 -0.363880
adj+case=nom+degree=pos+number=sing+number[psed]=none+number[psor]=none+numtype=none+person[psor]=none+verbform=none -0.571519 0.669021 -0.685441 -0.332683 -0.324544 1.501018 -0.506618 0.352681 -0.310261 -0.714494 -0.010220 0.916990 -0.613553 -0.169360 0.375465 -0.246808 -0.518410 -0.105289 -1.060928 0.132196 0.133657 -0.177460 -0.167024 0.179812 -0.544162
a,sg,nom -0.293501 0.349772 -0.355772 0.217309 -1.337715 1.214278 -0.270199 0.210251 -0.182829 -0.785148 -0.456240 1.050345 -0.041714 0.202930 0.602227 -0.538783 -0.329729 -0.867459 0.026261 -0.432721 -0.475996 0.564084 -0.010743 -0.662215 0.029713
verb+mood=ind+tense=past+verbform=fin+voice=act -0.008574 -0.089833 0.643559 0.199264 0.188961 0.434051 -0.418821 0.012689 -0.883823 -0.719339 -0.722055 0.109136 -0.459795 -0.618491 -0.103343 -0.027512 -0.458587 -0.565779 -1.200732 -1.569270 0.314622 -0.555866 0.544905 -0.576191 -0.308207
nnip7-----a---- -0.016531 -0.921751 0.151611 -0.539073 -0.438767 0.828906 0.741728 -0.175663 0.351119 -0.446093 -0.893224 -0.465269 -0.170757 -0.089812 0.224865 -0.499251 0.412618 -0.531460 -0.296023 -0.824722 0.376470 -0.980260 -0.134652 -0.766510 -0.202558
n,prop,sg,nom -0.518281 0.325502 -0.299884 0.475322 -1.054112 0.993657 0.009673 0.106554 0.028294 -0.945456 -0.677801 0.738552 -0.463025 0.178152 0.709234 -0.729435 -0.231757 -0.778717 -0.427770 -0.458255 -0.320086 0.900769 -0.101154 -0.507326 0.230802
ap -0.419107 0.639787 -0.260409 -0.201033 0.111701 0.734027 -0.480424 0.414375 0.190156 -0.191848 -0.081018 0.628450 -0.022609 -0.238536 0.575193 -0.036558 -0.065691 0.119471 -0.811568 -0.422874 -0.282373 0.501235 -0.310927 0.502183 0.330273
rv--2---------- 0.594162 -0.361338 -0.722074 -0.304286 -0.643413 -0.111275 0.163318 -0.006168 -0.404560 0.153798 -1.069183 0.289181 -0.900712 0.034671 -0.728372 0.428817 0.336193 -0.110932 0.026593 0.419735 0.739845 -0.241817 -0.009200 0.040058 0.056881
vm -0.394490 0.008518 -0.559500 -0.422211 -0.370696 0.639323 -0.561634 0.321892 0.083515 -0.589777 -0.190418 0.599372 -0.003433 -0.424635 0.390437 -0.418840 -0.224739 -0.352780 -0.787949 -0.038748 -0.235337 0.282777 -0.273054 0.488902 -0.173393
ncmpi 0.912212 0.120271 0.088764 0.055852 -0.332338 0.173222 -0.560281 0.250474 0.131447 -0.302345 0.013964 -0.107174 -0.353773 -1.129044 0.319477 0.149511 -0.340345 0.820272 1.208602 -0.220899 -0.388979 0.492903 -1.124384 -0.280689 -0.773546
ncfpi 1.204450 0.092948 -0.012266 0.091135 -0.242361 0.372847 -0.597890 0.258881 0.019843 -0.187907 0.013446 0.177440 -0.217677 -1.207106 -0.051686 0.024324 -0.216659 0.805255 1.161691 -0.022110 -0.374494 0.380718 -1.308668 -0.435203 -0.822933
n,pl,nom -0.476169 0.366885 -0.483179 0.275288 -0.754559 0.986092 0.180236 -0.303507 0.314236 -1.007502 -0.989895 1.120455 -0.174370 -0.524636 0.607265 -0.505801 -0.212351 -0.908104 -0.312401 -0.187507 -0.287956 0.469569 -0.558351 -0.568197 0.352409
nnnxx-----a---- -0.220594 -0.280448 0.061002 -0.275028 -0.109244 0.336685 0.770316 0.357734 0.185201 0.361448 -0.069816 0.236866 -1.003427 0.084431 -0.049290 0.395497 0.832245 -0.115365 0.607877 -0.310474 0.270389 -0.033517 0.516792 -0.421534 -0.091687
aafp6----1a---- 1.320028 0.381148 0.340906 1.156724 0.822017 -0.329662 1.100074 -0.168963 -0.750344 0.855603 -0.863372 -0.780151 -1.233025 -0.322697 -1.177906 0.096294 0.675815 -0.505458 1.228088 -1.147920 0.688615 0.343850 -0.169509 -1.187566 -0.647903
npfsi 0.195220 0.071402 -0.196263 -0.179442 -0.142892 -0.021600 -0.393791 -0.019900 0.299326 -0.543906 0.017376 -0.254398 -1.518557 -1.345259 0.266475 0.655172 -0.417725 0.629320 0.195508 -0.624215 -0.942069 0.405359 -0.995471 -0.412418 -0.573859
det+gender=com+number=sing+prontype=ind -0.072927 -0.563938 0.645794 0.915313 -0.277550 0.661427 0.050950 0.098462 -1.108616 -0.706402 -0.053705 -0.309294 -0.171519 -0.050847 -0.646701 0.271609 -0.470653 -0.053538 -1.134355 -1.419829 0.968853 -0.688171 -0.428988 -0.488855 0.172240
rv--7---------- -0.281595 -1.140464 0.122354 -0.264651 -0.517527 0.595503 0.330571 -0.595267 -0.517018 0.302283 -1.297311 0.038937 -0.261487 -0.191787 -0.787462 -0.470442 0.373656 0.007565 0.325757 -0.425954 -0.025403 -0.823551 0.294914 0.052172 -0.061880
verb+number=sing+person=3+tense=pres -0.601487 -0.057496 -0.346707 -0.508749 -0.126184 0.544345 -0.483931 0.187854 -0.624599 -0.134360 -0.562262 0.680306 -0.571580 -1.096526 -0.253751 -0.266938 -0.345468 0.423437 -0.081116 -0.886127 0.746685 0.362414 0.444505 -1.221095 -0.265108
ncmsh 0.174501 -0.232402 -0.308107 0.056521 -0.212250 0.093325 -0.913153 -0.126839 0.019142 -0.591553 -0.369714 0.061567 -1.171449 -1.386807 -0.008186 -0.087455 -0.722957 0.816095 0.698966 -0.334589 -0.221855 0.518607 -0.748826 -0.241224 -0.325731
dd 0.060513 0.500782 -0.870051 0.024924 -0.104339 0.495777 -1.097942 0.141782 0.146941 -0.397641 0.151428 0.086199 -0.100576 -0.598284 0.522496 0.038255 -0.564339 0.530536 -0.132624 -0.137794 -0.245226 0.793754 -0.858264 0.099754 0.417660
psxxxxp3------- -0.491392 -0.003937 0.055932 0.049493 -0.064080 -0.092057 -0.171939 -0.373405 -0.223327 0.522259 -0.492321 -0.055309 -0.259297 0.101666 -0.883225 -0.001816 0.465478 -0.139279 0.234060 0.114764 0.832726 -0.241237 0.306569 -0.295129 0.035788
ncnsd 0.184374 -0.176897 -0.261495 0.005292 -0.184663 -0.000687 -0.925875 -0.055087 -0.024341 -0.573416 -0.475909 -0.054774 -1.327745 -1.406713 -0.005088 0.105803 -0.853628 0.938684 1.117366 -0.262982 -0.184089 0.740747 -0.746541 -0.204593 -0.379060
p4fs1---------- -0.075778 -0.238215 -0.058195 -0.290674 0.461152 -0.374641 0.157512 -0.328659 -0.374393 0.299736 0.634000 0.352060 -0.311581 0.505483 -0.005820 0.169885 1.472828 0.662233 0.424196 -0.530007 0.376336 -0.549096 0.470699 -0.291455 -0.161224
vpitf-r3s 0.703286 0.253373 -0.782746 0.061086 0.185749 0.808850 -1.189609 -0.636328 0.357419 -0.084661 -0.178201 0.030614 -0.446796 -0.684750 0.359766 -0.048736 -0.942331 0.956887 0.168849 -0.644260 -0.496402 0.545009 -0.566785 -0.396561 -0.073003
vsns---xx-ap--- -0.050662 -0.340480 -0.945342 -0.066565 -0.685004 0.151402 0.470465 -0.419748 -0.698657 0.142162 -0.073447 0.589363 -0.249685 -0.476048 0.071019 -0.207704 0.654032 -0.354508 0.232889 -0.275238 0.949918 -0.485187 0.265261 -0.322583 -0.261173
adj+degree=pos+number=plur+variant=long 0.838172 -0.361082 0.805784 1.294403 -0.080588 0.168238 -0.615369 0.276224 -0.552284 -0.680169 -0.245535 0.506088 -0.506719 0.062344 0.100499 -0.246333 -0.870152 -0.191208 -0.498324 -0.977383 0.969347 -0.580843 0.381399 -0.942512 -0.322484
vxitf-r3s 0.199124 -0.151561 -0.918989 -0.154898 0.058445 0.438220 -1.267369 -0.549068 0.110067 -0.258760 -0.183078 0.433088 -0.459578 -0.727138 0.000952 0.009216 -0.817420 0.523217 0.270057 -0.799052 -0.072224 0.323622 -0.356902 -0.263344 -0.064124
nnxxx-----a---8 -0.289159 -0.264723 0.590068 -1.160687 -0.218998 0.199210 0.065134 0.851705 0.074521 0.910905 0.889719 0.432618 -1.433973 0.475921 0.191180 0.265202 1.347386 0.123776 0.623153 -0.722625 0.595416 -0.333079 0.893896 -0.558637 -0.115402
nnis2-----a---1 0.175580 -0.788042 0.090674 -0.028349 -0.400670 -0.161625 0.931797 0.887847 -0.824398 0.154990 -0.736266 0.463341 -0.334416 0.122638 -0.228914 -0.040788 1.057742 -0.111171 0.934837 0.336550 0.841414 -0.036670 -0.125129 0.453968 0.064176
vpys---xr-na--- -0.284753 0.291874 -0.029146 -0.467028 0.139835 0.400719 -0.091619 -0.007693 -0.492955 0.301975 -0.192617 0.743006 -0.158933 -0.383724 -0.188545 -0.493207 0.836249 -0.058880 0.294990 0.269164 0.036190 -0.237461 0.460524 -0.253349 -0.417899
verb+definite=ind+number=sing+tense=past+verbform=part,trans 0.170770 -0.139509 0.582454 0.349422 0.320568 0.654115 -0.275496 -0.135159 -0.587822 -0.538081 -0.163713 -0.110708 -0.285576 -0.433934 0.316202 0.213609 -0.488782 -0.188877 -1.097358 -1.219536 0.873951 -0.640690 0.145047 -0.757900 -0.445748
nnmp7-----a---- 0.160592 -0.807310 0.289301 -0.587806 -0.384278 0.462066 0.449029 -0.177583 0.130279 -0.602080 -1.073059 0.320681 -0.518677 0.231747 -0.556366 -0.519901 0.399641 0.138867 0.159606 -0.798759 0.535037 -0.505685 0.112497 -0.051511 -0.444620
jj+pos+utr/neu+plu+ind/def+nom -0.097336 0.025703 -0.090998 0.102483 -0.115056 0.277528 -0.239718 0.199384 -0.043675 -0.141210 -0.063794 0.169548 -0.095217 -0.052981 -0.021432 -0.030587 -0.010417 0.124816 -0.231353 0.021857 -0.042697 -0.046949 -0.068534 0.007638 -0.077607
noun+case=nom+number=sing+number[psed]=none+number[psor]=none+person[psor]=none -0.659800 0.539235 -0.606858 -0.160534 -0.208652 1.354212 -0.621410 0.434135 -0.245497 -0.820312 -0.248290 0.861633 -0.324587 -0.150120 0.372688 -0.495461 -0.317339 -0.077347 -0.684783 -0.003028 0.049042 -0.060433 -0.284362 0.064943 -0.488812
dq 0.232330 0.231741 -0.775330 0.098233 -0.109381 0.221897 -1.054793 0.160446 0.233280 -0.577666 0.311238 0.123320 -0.016831 -0.807939 0.508139 0.198516 -0.647702 0.436652 -0.003996 -0.202981 -0.474140 0.663325 -1.045676 0.078251 0.188352
nnmp3-----a---- 0.246642 -0.331571 0.012846 -0.536641 0.353977 0.409029 0.144777 0.001627 -0.005224 0.046646 -0.348933 0.167131 -0.344376 -0.354107 -0.348488 0.196825 0.432130 0.198907 0.741602 0.040100 0.766607 -0.639230 0.196294 -0.414178 -0.408365
noun+case=gen+gender=masc+number=plur -0.101753 -0.483053 0.405156 -0.087418 -0.247336 -0.291168 0.194502 0.467800 -0.397446 -0.439524 -0.512771 0.665920 -0.705170 -1.531455 -0.408166 0.033039 -0.499002 0.812163 0.752291 -0.932994 0.800987 -0.022518 -0.049369 -0.260868 -0.426582
noun+case=acc+gender=fem+number=sing 0.267497 0.177432 -0.133558 -0.231457 0.042944 0.538147 0.107450 0.333619 0.012652 0.173848 -0.849709 0.810093 -0.643085 -0.742805 -0.440188 0.011956 -0.369602 1.189064 0.425912 -1.015551 0.835445 0.484706 0.023809 -0.940021 -0.160198
hmsi 0.430373 0.371003 -0.498994 -0.209604 -0.198886 0.428552 -0.405202 0.156781 0.599918 -0.673459 -0.050083 -0.182403 -1.626280 -1.511839 0.553971 0.241110 -0.582531 0.635227 -0.664464 -0.608368 -1.032733 0.594275 -1.136613 -0.531160 -0.329876
noun+case=nom+gender=fem+number=sing -0.310910 0.288442 -0.199451 -0.064814 -0.310009 -0.010531 -0.263304 0.915130 -0.461179 -0.266585 -0.317805 0.651883 -0.760125 -0.465375 -0.355167 -0.053635 -0.001809 0.613790 0.186648 -1.447655 0.220996 0.055697 -0.067420 -0.935131 -0.499953
nnnxx-----a---8 -0.224051 -0.348192 -0.006989 -0.339355 -0.074430 0.379167 0.643349 0.533215 -0.234152 0.728281 -0.098986 0.425677 -0.852690 0.305801 -0.074374 0.111798 0.670784 -0.217791 0.621305 -0.148183 0.401758 -0.045286 0.464095 -0.317887 -0.075860
vstp---xx-ap--- 0.379495 -0.063551 0.649134 -0.316037 -0.218900 0.093745 -0.036229 -0.226562 -0.613829 0.132875 -0.574525 0.169042 0.591478 0.165204 -0.973199 -0.153635 -0.028123 -0.155246 0.233534 -0.497209 0.732658 -0.654865 0.078992 -1.290322 -0.649435
verb+gender=masc+number=sing+verbform=part -0.481250 -0.209995 -0.397322 -0.697525 -0.524768 0.506600 -0.518904 -0.217109 -0.534543 0.567675 -0.637864 0.453576 -1.130911 -0.884106 -0.231264 0.405335 0.377070 1.252080 -0.087313 -0.830200 -0.421591 0.339616 0.444561 -1.499333 -0.104796
di -0.308842 0.442237 -0.495155 -0.216795 -0.192184 0.488100 -0.474180 0.217099 0.108791 -0.567873 -0.186167 0.396450 -0.133256 -0.273323 0.307203 -0.232328 -0.416820 0.062596 -0.778253 -0.129376 0.007674 0.568251 -0.305707 0.351844 0.496007
pdzs6---------- -0.108402 0.846295 -0.407662 0.355230 0.386840 0.304628 1.314101 -0.453048 -0.321652 0.529503 0.313587 0.221739 0.029977 -0.127699 -0.592105 0.115166 0.349359 -0.119612 0.453190 -0.601487 0.454746 0.745892 0.490755 -0.935957 -0.887311
aaxxx----1a---8 0.074416 -0.084031 0.208978 -0.452102 -0.204101 0.405397 0.232486 0.592259 0.091554 0.643030 0.177086 0.252538 -1.073043 0.605037 -0.172868 0.084106 0.909324 0.017424 0.379180 -0.073053 0.517076 -0.075965 0.579234 -0.455450 -0.075050
a-pi 0.722362 -0.090851 0.047463 0.513910 -0.195034 -0.282404 -1.206095 -0.422940 -0.484542 -0.020131 0.084058 -0.112969 -0.235469 -0.619247 -0.097162 0.390320 -0.461816 0.743549 1.167272 -0.633367 -0.429310 -0.440331 -0.952538 -0.286599 -0.761442
aanp2----1a---- 0.687701 -1.042459 -0.371555 0.037425 -0.466074 -1.112519 0.392103 -0.124097 0.318544 0.490740 -0.126311 1.165539 -0.359997 -0.050109 0.049711 -0.269811 -0.093840 -0.487128 1.114187 0.357770 0.730113 -0.657645 0.249095 -0.644111 -0.019321
vb-p---3p-na--- -0.079515 -0.019136 0.398322 -0.484126 0.177941 -0.043957 -0.269547 -0.027016 -0.691522 0.086136 -0.630917 0.481675 -0.127912 0.001572 -0.666152 -0.268978 0.173191 -0.489445 0.477654 -0.012672 0.349763 -0.384461 0.067869 -0.893154 -0.816002
pdzs2---------- -0.104569 -0.302691 -0.079009 0.140261 -0.533455 -0.413241 0.580439 -0.164902 -0.506464 0.901172 -0.501287 0.095240 -0.386529 -0.191094 -0.247743 -0.191970 0.726045 0.064919 0.279760 0.517172 0.892692 0.049033 -0.199749 0.231172 0.002831
rg+nom -0.096226 0.041661 -0.071454 0.095915 -0.091106 0.265504 -0.245244 0.237524 -0.041561 -0.163127 -0.041849 0.183724 -0.105117 -0.053909 -0.055361 -0.065408 -0.041048 0.165552 -0.250604 0.030352 -0.034810 -0.040955 -0.085234 0.034955 -0.092174
noun+definite=ind+gender=neut+number=plur 0.455936 -0.250567 0.976267 0.791120 -0.294186 0.610793 -0.460095 0.151883 -0.871695 -0.460193 -0.684831 0.107803 -0.309082 -0.425390 0.697653 -0.210756 -0.330023 0.247740 -0.552513 -1.274056 0.807805 -0.560236 0.019717 -0.451470 0.056716
nnnp4-----a---- 0.119346 -0.336549 -0.917720 -0.717897 -0.237114 0.359184 -0.569393 -0.181820 0.153693 -0.206951 -0.697461 0.283487 -0.268445 0.171993 -0.140001 0.050050 0.388999 0.289858 0.827026 -0.092064 0.958800 -0.043479 -0.435390 -0.297148 -0.343246
verb+verbform=inf -0.435866 0.116374 -0.478380 0.105056 0.036234 0.428430 -0.398998 0.416576 -0.653541 0.013715 -0.317872 0.246525 -0.790555 -0.609829 -0.084887 0.004276 0.227874 0.731907 0.262773 -1.176819 0.874709 0.197639 -0.028771 -0.683241 -0.172323
n,pl,par -0.420029 0.224025 -0.139737 0.135973 -0.994396 0.844036 0.023350 -0.045304 0.173326 -0.771998 -0.784156 0.957255 -0.088643 -0.256583 0.456135 -0.441414 -0.071812 -0.829246 -0.454247 -0.325537 -0.284722 0.539741 -0.426624 -0.447078 0.036541
vpptf-o3s 0.484322 0.196886 -0.426573 0.181481 0.219390 0.568071 -0.707555 -0.459316 0.425870 -0.198715 0.039893 -0.164567 -0.790443 -0.656993 0.464981 0.032189 -0.688142 0.881902 -0.123402 -0.775571 -0.728274 0.417645 -0.500594 -0.456023 -0.064439
noun+animacy=inan+case=acc+gender=masc+number=sing 0.152660 0.113556 -0.043093 -0.133440 0.036589 0.537144 0.294826 0.431280 -0.108382 0.150606 -0.505650 0.600208 -0.758267 -0.755987 -0.228205 -0.069148 -0.107389 0.984607 0.351350 -1.138707 0.803960 0.422237 -0.000862 -1.020860 -0.390360
aans7----1a---- -0.653881 -1.090411 0.500074 -0.132076 -1.345326 0.618670 0.137641 -0.887671 -0.660005 -0.183204 -1.112578 0.255314 -0.509517 0.040056 -1.001620 -1.021613 0.703847 0.781433 0.112062 -0.920437 0.190357 -0.374128 0.508738 0.410267 -0.406533
nn+neu+sin+def+nom -0.070068 -0.000399 -0.073682 0.089064 -0.092059 0.238487 -0.190190 0.190903 -0.045100 -0.092701 -0.043441 0.143013 -0.104947 -0.051818 -0.028621 -0.032458 -0.079954 0.127999 -0.180363 0.018331 -0.018068 -0.022802 -0.067533 0.010221 -0.050054
v,neg,act,sg3 -0.298628 -0.122056 -0.119453 -0.063553 -0.861003 1.373550 -0.277139 0.432021 0.155492 -0.423477 -0.411968 1.244150 0.142950 -0.407649 0.235845 -0.620048 -0.424517 -0.724381 -0.390693 -0.252049 -0.377611 0.739091 -0.554799 -0.079928 0.249341
db------------1 -0.184606 0.106038 -0.007404 -0.695421 -0.075561 0.151706 0.397908 -0.093127 -0.454305 0.272623 -0.022646 0.316727 -0.080984 -0.136493 -0.618574 0.106575 0.393379 0.046516 0.147520 -0.308958 0.633499 -0.319058 0.174706 -0.046095 -0.515430
fc -0.149787 0.333326 -0.261412 -0.134221 -0.149911 0.464102 -0.344459 0.225556 0.182257 -0.379784 -0.243338 0.527600 -0.166248 -0.262303 0.270260 -0.168713 -0.338874 0.040606 -0.650697 -0.227572 -0.241079 0.334545 -0.253636 0.280166 0.296083
aams2----1a---- 0.273433 -1.150056 0.043564 -0.624200 -0.202865 0.337846 0.688795 -0.664870 0.201879 0.596894 -0.494313 0.709124 -0.034906 -0.529462 0.460395 0.646614 0.340885 0.224668 0.905280 0.944722 0.127109 0.036781 0.699365 -0.277445 0.377423
pdzs7---------- -0.373514 0.197396 0.388787 -0.951052 -0.244984 0.335964 0.144356 -0.258496 -0.363149 0.336246 -0.315899 0.204904 -0.208534 -0.107383 -0.349263 -0.602969 0.598593 0.182334 -0.051805 -0.889783 0.702627 -0.675344 0.012992 0.053262 -0.288340
nnnp1-----a---- 0.854003 -0.350426 0.060331 -0.778356 0.153864 0.197228 -0.189141 -0.893059 0.033691 0.043282 0.157107 0.193163 -0.488084 0.168680 -0.365921 0.460272 0.119796 -0.505830 0.679724 0.140700 0.792223 -0.227420 -0.067501 -0.474722 -1.114035
aaip6----1a---- -0.340099 -0.390985 -1.040435 1.033780 0.050934 -0.090378 1.003423 -0.661521 -0.248889 0.241591 -0.180370 -0.382449 0.376716 -1.142730 -0.314084 -0.213616 0.818327 -0.864643 0.566086 -1.008080 0.641702 0.344268 1.071079 -0.781109 -0.528379
jj+pos+utr+sin+ind+nom -0.114074 0.035427 -0.003708 0.114939 -0.086506 0.210709 -0.171088 0.206693 -0.040770 -0.133262 -0.047726 0.114565 -0.091170 -0.050794 -0.024969 -0.044303 -0.086223 0.160266 -0.213952 0.012440 0.023874 -0.024785 -0.030500 0.022012 -0.026022
pron+case=acc+gender=neut+number=sing+person=3+prontype=prs 0.088252 0.088395 0.840584 0.152671 -0.210073 0.511782 -0.267468 0.029880 -0.541325 -0.080038 0.071107 -0.433157 -0.094017 -0.306483 0.269148 0.183889 -0.449468 0.493770 -1.025030 -1.127318 0.957942 -0.694848 -0.338626 -0.832144 -0.569326
noun+definite=def+gender=neut+number=sing -0.011818 -0.285685 0.721995 0.721895 0.003096 0.613774 -0.118048 0.364209 -0.691052 -0.436829 -0.218852 -0.367114 -0.540960 -0.181551 0.266674 0.128288 -0.507881 0.475348 -0.882775 -1.182036 0.824649 -0.451335 0.133306 -0.400674 -0.481672
dt+utr+sin+ind -0.121752 0.008746 -0.039374 0.101615 -0.098262 0.228556 -0.176374 0.194779 -0.032704 -0.136449 -0.043468 0.114565 -0.075749 -0.062039 -0.041771 -0.039793 -0.127449 0.129116 -0.204067 0.044119 0.055607 -0.029786 -0.057054 0.027242 -0.034431
n,sg,ill -0.254007 0.303912 -0.089964 0.275930 -1.225248 0.751455 -0.184770 0.020344 0.163565 -0.788576 -0.681273 0.994726 -0.101470 -0.220189 0.391012 -0.437531 -0.003063 -0.778634 -0.237593 -0.583711 -0.317691 0.453115 -0.324624 -0.432127 0.131042
afsi -0.123007 -0.419361 -0.601737 0.381184 -0.103384 -0.037373 -0.980752 -0.278975 -0.135697 -0.320832 -0.583426 -0.125062 -1.027113 -1.370829 -0.541950 0.785506 -0.267036 0.588050 0.734398 -0.091855 -0.741512 0.218177 -0.799743 0.104131 -0.000811
propn+case=nom+number=sing+number[psed]=none+number[psor]=none+person[psor]=none -0.904824 0.914231 -0.318747 -0.152198 -0.464103 1.123374 -0.217866 0.302145 -0.521547 -0.582853 -0.025506 0.891590 -0.540964 -0.164014 0.578913 -0.320914 -0.588189 0.179957 -0.479902 0.069128 0.138199 0.466765 -0.474051 -0.017779 -0.398734
nnms3-----a---- -0.070248 0.557944 0.149573 -0.840130 0.461326 0.745857 0.261689 -0.037540 0.196802 0.558706 -0.096841 0.102122 0.007773 0.135523 -0.114435 0.490829 0.759380 0.252244 0.746006 0.009882 -0.266361 -0.325939 0.448209 -0.091667 -0.101854
n,prop,sg,gen -0.105006 0.416452 -0.250392 0.285062 -1.169863 0.892911 0.029573 0.149421 -0.094469 -0.630755 -0.523393 1.014025 -0.231573 -0.121315 0.612835 -0.416095 -0.124980 -0.831553 -0.181834 -0.210170 -0.345248 0.621196 -0.042466 -0.489276 0.089867
aafs3----1a---- -0.079300 1.058542 -0.279087 -0.521621 0.795970 0.177327 -0.157889 0.149013 -0.998950 0.488578 -1.718655 -0.143821 -0.226200 0.005018 -0.401064 0.834662 0.572752 0.788326 0.925763 -0.813166 0.002885 -0.511252 0.917584 -1.241305 0.313374
nnnp6-----a---- 0.539511 -0.255739 -0.241337 0.410829 0.183883 0.587747 0.771184 -0.177329 -0.221309 -0.362333 -0.294949 -0.375667 -0.480680 0.293151 0.184428 -0.133161 0.402813 -0.564446 0.719442 -1.199208 0.374957 0.118544 0.260167 -0.293217 -0.453485
v,act,pcpnut,sg,nom -0.418203 0.049917 -0.281759 0.184049 -1.117379 1.126496 -0.018291 -0.084515 0.233469 -0.698314 -0.365335 0.873897 -0.318838 0.121742 0.454254 -0.401531 -0.213720 -0.847397 -0.236107 -0.525782 -0.465046 0.472028 -0.251506 -0.475405 0.101257
cn-s4---------- 0.374522 -0.168984 -0.797761 0.037978 -0.421402 -0.278488 -0.078978 0.513710 0.489482 0.188050 0.000208 0.886864 -0.304019 0.359082 -0.529217 -0.387158 0.008894 -0.150092 0.942791 0.365588 0.823484 -0.563807 0.039610 -0.472420 -0.140441
n,sg,ine -0.241117 0.277368 -0.085762 0.156824 -1.141352 0.806172 -0.055556 -0.089508 0.224735 -0.782225 -0.661140 0.869866 -0.093351 -0.102530 0.454795 -0.492399 -0.040348 -0.869627 -0.291820 -0.472675 -0.171702 0.440320 -0.275857 -0.408729 0.079916
nn+neu+plu+ind+nom -0.048644 0.008531 -0.074442 0.075831 -0.108260 0.216883 -0.177101 0.155842 -0.014692 -0.119941 -0.058884 0.116479 -0.097185 -0.082249 -0.044980 -0.008906 -0.056514 0.098769 -0.144146 0.001829 0.012844 -0.019160 -0.059693 -0.010984 -0.075776
adj+definite=def+degree=pos+number=sing+variant=long 0.127941 -0.301422 1.143774 1.427145 0.054805 0.486832 -0.369855 -0.504516 -0.979317 -0.144943 -0.233164 -0.640180 -0.710391 -0.262146 -0.228224 0.439256 -0.070946 0.195265 -0.595791 -1.342641 0.059966 -0.632255 0.083870 -0.587338 0.140544
v,act,ind,pres,conneg -0.369460 -0.031258 -0.341247 0.068360 -0.768699 1.036028 -0.181342 0.125801 0.127802 -0.572154 -0.271150 1.268059 0.088896 -0.374367 0.229630 -0.646698 -0.155518 -0.779405 -0.511166 -0.539481 -0.331180 0.192947 -0.253843 -0.218032 0.432860
pron,dem,sg,nom -0.483627 0.214236 -0.200432 0.181569 -1.050802 1.096678 -0.149907 0.108524 -0.026907 -0.725142 -0.296764 0.652536 -0.108418 0.121158 0.259863 -0.340804 -0.121897 -0.675136 -0.144021 -0.644815 -0.368212 0.576915 -0.112500 -0.466129 0.190430
-rrb- 0.175203 0.129574 0.840109 0.845439 -0.315606 0.389393 -0.693848 0.183228 -0.421509 -0.599761 -0.171170 0.020010 0.061252 -0.545620 0.111333 0.085682 -0.316839 -0.118898 -0.267258 -0.838140 -0.169905 -0.249754 0.220336 -0.518409 0.559496
amsi 0.480140 0.254438 -0.551640 0.073365 0.284013 0.289584 -0.964655 -0.674672 -0.012309 -0.297268 -0.147125 -0.459913 -1.193829 -1.041081 -0.002656 0.490786 -0.436774 0.578802 0.688617 -0.179278 -0.541604 0.177965 -1.166188 -0.152857 -0.484234
pron+case=acc+number=sing+reflex=yes -0.812794 0.356727 -0.620831 -0.108910 0.070157 0.531798 -0.602559 0.042471 -0.572017 -0.054098 -0.265281 0.377495 -0.106099 -0.290759 -0.514281 -0.272880 0.188667 0.827218 0.120884 -1.474826 0.880115 0.297174 -0.529325 -0.654363 -0.614065
-lrb- 0.237608 0.210984 1.065433 0.792527 -0.120095 0.322451 -0.664916 0.016730 -0.483378 -0.519516 -0.316986 -0.070232 0.252325 -0.674351 -0.007493 0.588019 -0.119627 -0.252025 -0.293747 -0.912759 -0.159821 -0.282446 0.231250 -0.390275 0.341732
pm+nom -0.047388 0.011717 -0.090502 0.093134 -0.094584 0.221376 -0.204826 0.180329 -0.009844 -0.112229 -0.032461 0.133086 -0.104413 -0.050199 -0.000754 -0.049445 -0.038950 0.118864 -0.161063 0.053108 -0.005825 -0.081326 -0.006253 -0.009116 -0.087607
ncmpd 0.147384 -0.061596 -0.255489 -0.044134 -0.344437 0.103313 -0.926534 0.026692 -0.162765 -0.404118 -0.253169 -0.087565 -0.895014 -1.245605 0.192878 0.146823 -0.487479 0.848107 0.977731 -0.452149 -0.011683 0.586803 -0.746981 -0.315824 -0.454749
mc-pi 0.651812 -0.359862 0.195665 0.487878 -0.154364 -0.908285 -1.017909 0.221474 -0.417668 -0.613742 0.492752 0.119183 -1.101941 -0.768118 0.091785 0.307731 -0.825570 0.088205 1.186835 -0.383390 -0.280571 -0.125157 -0.889767 -0.628588 -0.551937
nnfp3-----a---- 0.650598 0.165066 0.133485 -0.129996 0.329613 0.510187 -0.134602 -0.114553 -0.140759 0.530794 -1.349740 -0.158360 0.112221 -0.094286 0.236979 0.312961 0.101756 0.336973 0.923406 -0.155178 0.537718 -0.523808 0.504456 -0.397919 -0.435492
wdt 0.201341 -0.133537 0.625160 0.797573 -0.496274 0.267902 -0.402955 0.080905 -0.307868 -0.447798 0.088305 -0.406227 0.223384 -0.643211 0.451256 0.645052 -0.426318 0.117028 -0.783141 -1.000552 -0.071512 -0.636950 0.037435 -0.397002 -0.011097
tn 0.043603 0.042183 -0.743192 0.225482 -0.454436 0.452177 -1.018009 0.148640 -0.058437 -0.282310 -0.019933 -0.074558 -0.271259 -1.137836 0.538853 0.358587 -0.122875 0.604694 0.067363 -0.893011 -0.095135 0.298043 -0.714543 -0.416891 -0.026740
aux+number=plur+person=3+tense=pres -0.170252 -0.281491 -0.870976 -0.204808 0.449711 0.453351 -0.739278 0.099868 -0.519870 -0.048692 0.020806 0.998561 -0.309570 -0.830734 -0.378377 0.024005 -0.573568 0.560512 0.568834 -1.430558 1.135840 0.464870 -0.014645 -0.173322 0.188961
pi -0.417708 0.262697 -0.425212 -0.204058 -0.216251 0.641637 -0.500576 0.227355 0.031634 -0.468915 -0.025885 0.371057 0.049043 -0.083556 0.343687 -0.278127 -0.358390 0.035868 -0.442985 -0.108627 -0.083002 0.167694 -0.262058 0.436897 -0.108482
sn -0.075234 0.003944 -0.044268 0.025225 -0.088710 0.216973 -0.199444 0.096293 -0.067275 -0.095832 -0.024003 0.126782 -0.065054 -0.057522 -0.031047 -0.040225 -0.069393 0.098245 -0.148319 -0.038006 0.021378 -0.054733 -0.032124 -0.038743 -0.047214
aux+mood=ind+tense=past+verbform=fin+voice=act 0.244890 -0.315708 0.605320 -0.119647 0.208301 0.414041 -0.203715 0.016560 -0.827084 -0.644025 -0.594466 -0.115812 0.068045 -0.442129 -0.053196 0.188070 -0.505809 -0.364375 -0.892823 -1.532519 0.537797 -0.562883 0.372817 -0.622076 -0.269015
propn+case=nom+gender=fem+number=sing -0.898306 0.337323 -0.120738 -0.150859 -0.494468 0.103012 -0.595840 0.791907 -0.777437 -0.367618 -0.130111 0.274111 -0.590419 -0.834808 -0.187679 0.154721 -0.092271 0.957028 -0.418602 -1.671520 0.243990 0.410846 -0.451478 -1.136653 -0.739782
aaip7----1a---- 0.078920 -0.633338 0.423776 -0.201739 -0.094779 0.588265 -0.204428 -0.084887 0.325536 0.544215 -1.605828 -0.559654 -0.661446 -0.501310 -0.379658 -0.801149 0.018567 0.153034 -0.231668 -1.086223 0.459860 -1.501196 0.271809 -1.178748 0.056709
vb-p---3f-aa--- -0.090473 0.026580 0.282658 -0.630409 0.357409 -0.021482 -0.120431 -0.215438 -0.498267 0.021321 -0.571687 0.488591 0.036599 -0.067410 -0.646109 -0.407283 -0.062076 -0.327291 0.199295 0.054548 0.500009 -0.176449 0.117196 -0.843755 -0.279823
adv+degree=none+prontype=default -0.410061 0.420535 -0.515206 -0.358840 -0.313165 1.163699 -0.616184 0.441455 -0.222648 -0.523908 -0.016366 0.765810 -0.315596 -0.197877 0.268407 -0.385191 -0.286562 -0.001088 -0.725737 -0.088142 0.144446 0.092301 -0.335720 -0.032022 -0.337889
p4mp1---------- -0.179848 -0.388887 -0.040879 -0.862199 0.093024 -0.361246 0.016976 0.171223 -0.376867 0.135869 0.191662 0.431675 -0.184408 0.053170 -0.295256 0.102940 0.536979 0.009869 0.638801 -0.542791 0.521363 -0.627300 -0.598197 -0.559729 -0.906303
aafp7----1a---- 0.542253 -1.059420 0.024286 -0.341822 -0.936360 0.872106 -0.095536 -1.001748 0.027561 0.322602 -1.027714 -0.410687 0.344691 0.016765 -0.405740 -1.150409 0.729846 -0.168841 0.755270 -0.997163 0.173239 -0.925088 0.501459 -0.259108 -0.197570
afsd -0.396601 -0.430797 -0.497086 0.532928 -0.007922 -0.137244 -1.055627 -0.322438 -0.454709 -0.270426 -0.758145 -0.355296 -1.274132 -1.361430 -0.803334 0.651850 -0.284680 0.607279 0.649437 0.135749 -0.590400 0.134643 -0.885533 0.128543 0.047015
dm 0.184850 -0.057396 -0.608873 0.129345 -0.237912 0.276303 -0.776204 0.159308 -0.001987 -0.404531 0.093180 -0.045998 -0.716150 -1.254863 0.601948 0.386380 -0.181778 0.538431 0.596477 -0.883223 -0.000003 0.436859 -0.650479 -0.358302 -0.105768
a-pd 0.303286 -0.216246 0.171191 0.700280 0.008404 -0.430194 -1.145615 -0.379152 -0.634572 -0.121909 -0.136094 -0.253091 -0.790154 -0.677782 -0.379575 0.413827 -0.640832 0.836314 1.033716 -0.588090 -0.393204 -0.290629 -0.808044 -0.325933 -0.545306
vb-p---3p-aa--1 -0.255199 0.255512 0.091413 -0.458699 0.343026 0.133853 0.005353 -0.171033 -0.514627 -0.021408 -0.407378 0.488817 -0.047351 -0.194278 -0.612314 -0.530842 -0.018149 -0.343551 0.476887 0.125436 0.523021 -0.199321 0.063569 -0.779227 -0.534868
adj+case=nom+degree=pos+gender=masc+number=sing -0.942469 -0.873330 0.182463 -0.492650 -0.476381 -0.033243 -1.041863 -0.726006 -0.310091 0.284791 -0.372009 0.829479 -0.004308 -0.479849 -1.056814 -0.309161 -0.420853 1.198964 0.533974 -0.652142 -0.366193 0.534040 -0.078343 -1.072734 -0.632187
noun+case=gen+gender=fem+number=plur 0.398303 -0.616607 0.067570 0.195823 -0.277561 0.054011 -0.156736 0.920969 -0.603895 -0.177672 -0.402014 0.832764 -0.697896 -1.054208 -0.500433 -0.156548 -0.167316 1.217688 0.781304 -0.719132 0.864675 0.307459 -0.207692 -0.293992 -0.234795
ncmsf 0.027550 0.083699 -0.315926 0.041489 -0.277991 0.136226 -0.700241 0.077234 -0.018845 -0.559520 -0.136730 -0.373004 -1.218178 -1.305738 0.480657 0.166255 -0.390902 0.665600 0.289863 -0.462655 -0.247160 0.520082 -0.802807 -0.383488 -0.275498
vpys---xr-aa--1 -0.406734 0.124955 -0.025843 -0.306365 0.054522 0.362859 0.333640 0.149560 -0.466699 0.328108 -0.272883 0.517060 -0.361230 -0.337909 -0.328743 -0.519509 0.586550 0.000298 0.576431 0.342655 0.061061 0.066857 0.379970 -0.356999 -0.188451
wrb 0.025807 0.127134 0.478559 0.434611 -0.046910 0.230059 -0.512738 -0.051482 -0.461776 -0.639816 0.084092 -0.132661 0.276759 -0.618067 0.636901 0.393425 -0.232333 -0.144473 -0.842443 -1.015440 0.204704 -0.468973 -0.068109 -0.310266 -0.209045
pn+neu+sin+def+sub/obj -0.081947 0.000769 -0.061681 0.042707 -0.099521 0.172995 -0.185513 0.090537 -0.056432 -0.108853 -0.024316 0.128391 -0.079185 -0.035345 -0.046303 -0.036943 -0.070317 0.106498 -0.150130 -0.045261 0.007149 -0.029485 -0.049661 -0.021377 -0.047805
vpitf-r3p 0.767077 0.120796 -0.657370 0.288824 0.043121 0.606677 -1.117515 -0.592669 0.240529 -0.102697 -0.055632 -0.125442 -0.258373 -0.774081 0.364540 0.150637 -0.576324 0.870632 0.513363 -0.565007 -0.481777 0.258628 -0.752245 -0.218252 -0.157655
: 0.311792 -0.072460 1.171150 0.933315 -0.369897 0.484606 -0.687647 0.203345 -0.397846 -0.532378 -0.244663 -0.001996 0.090382 -0.643548 -0.112586 0.586540 -0.205304 -0.021764 -0.311316 -0.811175 -0.172374 -0.413778 -0.115122 -0.213054 0.491946
pdzs3---------- -0.077837 0.687329 -0.211637 -0.541672 0.596359 0.499368 -0.194430 -0.008229 -0.336027 0.827760 -0.854254 -0.245087 -0.026081 -0.630768 -0.207423 0.166941 0.498379 0.502230 0.592056 -0.799602 0.680923 -0.670079 0.306366 -0.371747 -0.584689
adv,dem -0.470643 0.041524 0.008992 0.060552 -0.900103 0.969776 -0.136669 0.012531 0.184963 -0.716654 -0.315641 0.770945 0.032966 -0.087870 0.265357 -0.415171 -0.069395 -0.784378 -0.276646 -0.580713 -0.290301 0.387043 -0.293292 -0.375267 0.241692
adj+definite=ind+degree=pos+gender=com+number=sing+variant=long -0.040482 -0.522096 0.542969 0.869746 0.048258 0.302547 -0.077527 -0.050106 -0.817694 -0.629222 -0.238513 -0.722914 -0.606861 -0.163244 -0.167089 0.176423 -0.336342 0.264699 -1.198694 -1.170816 0.577278 -0.469339 0.024763 -0.503894 0.127339
pdys1---------- -0.510680 0.402725 -0.168317 -0.271563 0.048463 0.511414 0.310997 0.203224 -0.517530 0.993806 0.028791 0.221600 -0.262564 -0.521781 -0.400943 0.195946 0.585071 0.195704 -0.269586 -0.020280 0.709596 -0.435686 0.698476 0.252551 -0.547376
propn+case=gen+gender=fem+number=sing -0.359670 -0.548503 0.287486 0.032244 -0.257837 0.109992 0.291810 0.567654 -0.059990 -0.374645 -0.299588 0.631444 -0.935584 -1.413927 -0.433032 -0.340028 -0.130932 1.079736 -0.061021 -0.755160 0.107020 0.562982 -0.174357 -0.784792 -0.210457
pq -0.319050 0.076626 -0.178364 -0.349741 -0.230173 0.376446 -0.384862 0.184635 0.095453 -0.497831 -0.182460 0.186379 -0.036195 -0.332299 0.286799 -0.274115 -0.226942 -0.028887 -0.556331 -0.194886 -0.161241 0.000414 -0.263926 0.362258 -0.208502
no -0.283970 0.444427 -0.311511 -0.160046 -0.001173 0.609135 -0.413029 0.327400 0.151204 -0.209074 -0.086515 0.528491 -0.080401 -0.119854 0.375233 -0.100117 -0.197160 0.066774 -0.627917 -0.265975 -0.194461 0.360760 -0.283387 0.430616 0.175002
`` 0.147218 0.123495 0.567307 0.803902 -0.094533 0.212877 -0.548496 -0.108248 -0.383182 -0.573413 -0.104310 -0.163136 -0.027571 -0.434372 0.288376 0.523656 -0.124934 -0.207480 -0.513252 -1.023525 -0.020977 -0.194763 0.049556 -0.518857 0.357995
v,act,ind,pres,pl3 -0.019795 0.329134 -0.215164 0.371092 -0.848183 0.844529 -0.177721 -0.132537 0.061912 -0.443578 -0.524618 1.367680 -0.309076 -0.353724 0.508167 -0.381277 -0.152158 -0.699619 -0.467126 -0.149090 -0.392068 0.471757 -0.413962 -0.232093 0.179685
rv--3---------- -0.097377 0.297687 -0.696800 0.133012 0.311612 0.210779 -0.090238 -0.077770 -0.603721 0.469935 -1.167226 -0.147512 -0.155872 -0.529832 -0.529022 0.651099 0.442248 0.016259 0.655121 -0.393554 -0.041468 -0.466052 0.556174 -0.331737 0.301050
pron+case=nom+gender=com+number=sing+person=3+prontype=prs 0.111503 0.002937 0.900678 0.214185 -0.367685 0.251374 -0.250491 0.234848 -0.589021 -0.147528 0.101983 -0.224130 -0.010357 -0.401055 0.150876 0.164952 -0.545686 0.568340 -1.021582 -1.183387 0.592748 -0.717857 -0.292681 -0.632589 -0.468095
verb+number=plur+person=3+tense=pres -0.202074 -0.133440 -0.604340 -0.352971 0.196250 0.517022 -0.542348 0.053958 -0.584217 -0.107631 -0.363228 0.625093 -0.791241 -0.846368 -0.200378 -0.342419 -0.219149 0.606418 0.448584 -0.779861 1.069775 0.379570 0.283915 -0.630536 -0.098858
n,sg,ela -0.161998 0.261971 -0.041194 0.133476 -1.023693 0.664294 -0.167819 -0.139421 0.130097 -0.686738 -0.523254 0.864112 -0.113911 -0.128724 0.325972 -0.433804 -0.073826 -0.859020 -0.233677 -0.525407 -0.302446 0.402943 -0.195169 -0.445325 0.079201
'' 0.172053 0.076023 0.741206 0.790231 -0.232625 0.618185 -0.676707 0.164885 -0.372086 -0.461144 -0.173329 -0.129903 0.010101 -0.613247 0.258612 0.157362 -0.259766 0.264920 -0.427005 -0.701402 -0.186130 -0.338820 0.244869 -0.566832 0.163244
vb-p---2p-aa--- -0.535822 0.241448 -0.224201 -0.626518 0.270319 0.146446 0.176177 -0.113720 -0.369584 0.019403 -0.265827 0.734824 -0.119798 -0.316672 -0.601547 -0.360961 0.402962 0.009026 0.455602 -0.122837 0.388302 0.042409 0.046272 -0.129202 -0.287121
det+gender=com+number=sing+prontype=dem -0.214027 -0.547244 0.869310 0.768406 0.266054 1.110978 0.007953 0.231242 -0.844052 -0.485334 -0.215225 -0.280947 -0.362592 0.059677 -0.358437 0.176191 -0.362055 0.291555 -0.800079 -1.056327 0.480386 -0.375553 -0.278356 -0.076509 0.247090
aais3----1a---- 0.314588 0.326750 -0.211939 0.350517 0.519037 0.494524 -0.235228 -0.062221 -0.546281 0.782860 -1.560802 -0.462485 -0.493625 -0.733006 -0.047257 0.351578 0.731343 0.617595 1.111795 -1.079504 0.404467 -0.262789 0.728963 -0.607628 -0.221023
clxp2---------- 0.343970 -0.563351 -0.434571 0.122190 -0.677072 -0.368914 -0.155598 0.332953 0.268058 0.503460 -0.529035 0.064101 -0.460134 -0.102053 -0.494902 -0.314354 0.162334 -0.241419 0.714133 0.525750 0.603341 -0.246235 0.156340 -0.668472 0.092938
pd -0.376699 0.205302 -0.402914 -0.259496 -0.217242 0.596869 -0.419238 0.227263 -0.034748 -0.552975 -0.037290 0.415751 0.007929 -0.211936 0.254793 -0.289955 -0.310086 0.059319 -0.467376 -0.042817 -0.053851 0.110285 -0.196722 0.392317 -0.081736
aamp4----1a---- -0.993171 -0.455055 -0.344318 -0.228430 0.106758 -0.581969 -0.548393 -0.674574 0.438999 -0.097778 -0.197967 0.452365 -0.493369 0.072811 -0.774403 -0.086243 0.326432 0.314982 0.904679 0.137341 0.083070 -0.689803 -0.753199 0.101627 -0.635702
hp+-+-+- -0.062166 0.022097 -0.056859 0.034284 -0.097351 0.197525 -0.170724 0.118367 -0.068928 -0.108736 -0.023637 0.135527 -0.073094 -0.018791 -0.016299 -0.027682 -0.077639 0.087621 -0.128254 -0.029599 0.021768 -0.067848 -0.025461 -0.041767 -0.081249
wp -0.042011 0.081234 0.407808 0.550074 -0.264399 0.347361 -0.366907 -0.007068 -0.299103 -0.534445 0.087435 -0.359739 0.186128 -0.526425 0.646506 0.407521 -0.269245 -0.098092 -0.955243 -0.876800 0.206472 -0.492890 0.093472 -0.415176 -0.171455
nn+utr+plu+def+nom -0.051312 -0.019707 -0.039321 0.031071 -0.069451 0.185463 -0.164125 0.127919 -0.033460 -0.083441 -0.051690 0.110144 -0.066675 -0.076567 -0.040053 -0.033573 -0.048709 0.067068 -0.144782 -0.021687 0.004250 -0.042168 -0.030199 -0.010349 -0.051254
rp 0.186089 0.071756 0.541197 0.606384 -0.071005 0.272471 -0.166779 0.018038 -0.361003 -0.608521 -0.168611 -0.256177 0.107322 -0.440088 0.479758 0.108334 -0.543074 0.017082 -0.606300 -0.932095 0.358645 -0.439610 0.161272 -0.520672 -0.100531
a,sg,par -0.067699 -0.054401 0.097603 0.301592 -1.098872 0.647342 -0.222817 0.020347 0.183259 -0.695032 -0.306982 0.725369 -0.120370 -0.221354 0.305593 -0.351657 -0.087613 -0.624441 -0.298081 -0.468993 -0.190551 0.355343 -0.175850 -0.650069 0.131158
pad -0.048975 0.009216 -0.030600 0.086498 -0.062268 0.195520 -0.145805 0.134035 -0.073161 -0.094342 -0.058511 0.107268 -0.098466 -0.045497 -0.014131 -0.005967 -0.034962 0.099006 -0.108920 -0.021782 0.017483 -0.023154 -0.070810 -0.029557 -0.043127
noun+case=acc+gender=neut+number=sing 0.113555 -0.287357 0.106923 -0.100108 -0.075698 0.451452 0.162098 0.232931 -0.078481 0.116938 -0.643357 0.495082 -0.879187 -0.947044 -0.379708 -0.418017 -0.222074 1.138398 0.414800 -0.769993 0.717557 0.403084 -0.089727 -0.617427 -0.255150
ie -0.042026 -0.008393 -0.021804 0.064675 -0.075604 0.198688 -0.137115 0.135360 -0.050494 -0.121748 -0.026048 0.104826 -0.060120 -0.098959 0.003374 -0.024942 -0.055720 0.098917 -0.126436 -0.024972 0.041578 -0.021918 -0.040441 0.005035 -0.049458
adv_time -0.213579 0.216880 -0.218376 0.116394 -0.095781 0.418055 -0.321889 0.212172 -0.005619 -0.415267 0.111862 0.042583 0.090791 -0.004303 0.068103 0.098381 -0.317869 0.314209 -0.439475 0.063541 -0.001617 -0.023602 -0.143103 0.233419 -0.155117
vb+prs+sfo -0.048430 0.017569 -0.022299 0.057626 -0.083333 0.202794 -0.152483 0.103717 -0.067992 -0.117600 -0.053152 0.067825 -0.086128 -0.081267 -0.037615 -0.010887 -0.057433 0.092419 -0.139890 -0.041705 0.022601 -0.016691 -0.026458 -0.001226 -0.036277
n,sg,ade -0.238248 0.200302 0.000332 0.164236 -0.898638 0.565901 -0.033572 -0.157915 0.044583 -0.801384 -0.546685 0.808602 -0.162330 -0.063982 0.391811 -0.464701 -0.021692 -0.767968 -0.251077 -0.448503 -0.166958 0.287975 -0.204708 -0.468454 0.130194
db------------8 -0.124409 -0.247340 0.092953 -0.582688 -0.019539 -0.013702 0.031901 0.374581 -0.056096 0.569539 0.209548 0.475096 -0.639645 0.269591 -0.204237 -0.152802 0.992384 0.038867 0.374372 -0.236755 0.680998 -0.372069 0.356835 -0.589200 -0.444380
nnip3-----a---- 0.588805 0.356899 -0.188648 -0.045540 0.497558 0.206881 -0.084963 0.028029 -0.345170 0.069307 -1.144544 -0.334467 -0.538121 -0.377412 -0.251201 0.357301 0.759569 0.290804 0.536362 0.171265 0.754183 -0.578829 0.009656 -0.583533 -0.504411
noun+case=loc+gender=masc+number=sing -0.295331 0.069376 0.037386 0.107378 0.208903 0.308347 0.549008 0.530232 -0.060461 -0.324375 -0.458602 0.514350 -0.871387 -1.060932 -0.570314 0.006597 0.523492 0.903477 1.092647 -0.598957 0.512700 0.479666 -0.568850 -0.221830 -0.527321
p4fp1---------- 0.208753 -0.356408 0.261661 -0.458901 -0.198744 -0.101394 -0.270953 0.269409 -0.362964 0.403099 0.019401 0.240485 0.279706 0.207252 -0.618143 0.067123 0.625269 0.139334 0.350411 -0.626956 0.598724 -0.558665 0.019967 -0.879730 -0.794254
n,pl,gen -0.118286 0.278182 -0.053631 0.225097 -1.022477 0.741489 -0.119635 0.085756 -0.105138 -0.648799 -0.432601 0.888609 -0.070219 -0.135791 0.371421 -0.370986 -0.128355 -0.648318 -0.117148 -0.279033 -0.294995 0.503307 -0.055968 -0.396988 0.193878
propn+case=gen+gender=masc+number=sing -0.370868 -0.446792 0.190818 -0.047712 -0.146518 0.009252 0.127044 0.497110 -0.377346 -0.399877 -0.237823 0.613494 -1.066806 -1.627587 -0.649975 0.051868 -0.192893 0.808418 0.052314 -0.954087 0.142016 0.434042 -0.531051 -0.829997 -0.432173
vpns---xr-na--- -0.208477 0.169314 -0.269439 -0.338002 0.102977 0.159501 -0.061403 -0.237202 -0.641424 -0.065305 -0.337212 0.599198 -0.241046 -0.431856 -0.011935 -0.482066 0.664239 -0.233369 0.255171 0.102365 0.513742 -0.310507 0.354045 -0.471445 -0.561835
noun+case=gen+gender=neut+number=sing -0.124244 -0.413583 0.159143 0.097035 -0.253090 -0.069341 0.113434 0.497930 -0.000015 -0.444769 -0.364996 0.712005 -0.808687 -1.270656 -0.439897 -0.380917 -0.168800 0.753333 0.493470 -0.570844 0.459652 0.169758 -0.668009 -0.351395 -0.402003
nnixx-----a---- -0.285032 -0.293905 0.254295 -0.469277 -0.073260 0.289117 0.529170 0.462365 0.090536 0.501218 0.287915 0.378778 -1.071187 -0.118881 -0.011269 0.578806 0.661853 0.186916 0.562868 -0.307676 0.139180 -0.043090 0.650534 -0.286139 -0.037704
dg-------2a---1 -0.285308 0.253710 -0.309991 -0.356396 0.199281 0.192359 0.026063 -0.409253 -0.459373 0.293527 -0.171637 0.268670 -0.187308 -0.193381 -0.466587 0.046986 0.455600 0.003887 0.265291 -0.185645 0.958845 -0.442297 0.243385 -0.014292 -0.464054
adp+case=ins -0.496603 -0.468517 -0.168260 0.229891 0.004215 0.115409 0.062715 0.452649 -0.554134 -0.266614 -0.139818 0.400591 -0.797727 -1.228033 -0.291486 -0.008795 0.278765 0.454086 -0.023851 -0.946604 0.947647 -0.030368 -0.362169 -0.381688 -0.008095
verb+gender=fem+number=sing+verbform=part -0.275943 -0.030630 -0.058452 -0.355406 -0.395223 0.196435 -0.311212 0.221067 -0.764130 0.076434 -0.252501 0.347828 -1.115535 -0.604116 -0.004662 -0.125516 0.111779 0.865514 -0.233032 -1.185724 0.389589 -0.097619 0.327521 -1.112521 -0.446206
pdfs1---------- -0.050351 0.182459 -0.042140 -0.406879 0.626036 0.239169 -0.128037 -1.040732 -0.626087 0.708005 0.302086 -0.234544 -1.141592 0.135872 -0.310571 0.005157 0.724276 0.231576 0.217663 -0.283668 0.736984 -0.279865 0.554298 0.288914 0.036124
ab+pos -0.056816 -0.016164 -0.027949 0.061436 -0.078825 0.175875 -0.121427 0.110250 -0.061682 -0.101024 -0.034140 0.106431 -0.082984 -0.087841 -0.044555 -0.046085 -0.043978 0.069196 -0.112025 -0.030452 -0.003041 -0.029496 -0.047721 -0.027050 -0.049969
uh 0.060922 -0.087319 0.455879 0.439002 0.174898 0.439548 -0.345271 0.538094 -0.423469 -0.685497 -0.116704 -0.142044 0.016706 -0.468482 0.351060 0.028571 -0.281053 0.245484 -0.608697 -0.854594 0.040460 -0.226427 0.424985 -0.168800 -0.085238
pos 0.282329 0.010070 0.849102 1.205148 -0.075431 0.192761 -0.786070 -0.147729 -0.527762 -0.411773 -0.092694 -0.325819 -0.132366 -0.779235 0.107214 0.450131 -0.194395 0.336754 -0.344495 -0.779283 -0.464509 -0.189969 0.069208 -0.551845 0.542099
ncnpi 0.729605 -0.161315 -0.093898 0.025068 -0.325607 0.067953 -0.682340 0.188382 0.053141 -0.288462 -0.221912 0.298669 -0.413517 -1.099120 -0.180980 0.101958 -0.487333 0.740050 1.138061 -0.162922 -0.306654 0.403633 -0.923815 -0.283969 -0.582217
noun+case=loc+gender=fem+number=sing -0.126641 0.159732 -0.159161 0.026552 0.118427 0.307853 0.250127 0.643993 -0.033347 -0.310072 -0.493129 0.520475 -0.660347 -1.219158 -0.430667 0.144249 0.215675 0.842036 0.899830 -0.659191 0.481526 0.694797 -0.596359 -0.255041 -0.188645
aams4----1a---- -0.567572 0.089668 0.203601 -0.962330 -0.744349 0.699379 0.016040 -0.118505 -0.146359 0.306327 -0.183762 0.541926 0.084045 0.749210 -0.298301 -0.245188 0.590951 -0.248722 1.025486 -0.234794 0.290555 -0.184494 -0.176633 -0.205156 0.306391
aanp4----1a---- 0.044922 -0.472787 -0.115276 -0.117993 0.144772 -0.642916 -0.330429 -0.845222 -0.187938 -0.439581 -0.399078 0.540810 -0.960037 0.039625 -0.756399 0.444967 0.238492 -0.253450 1.242402 0.033401 0.752362 -0.400812 -0.282412 -0.431548 -0.709535
hyph 0.407851 -0.060039 0.906884 0.927477 -0.144271 0.210974 -0.562905 -0.035641 -0.521400 -0.420316 -0.193792 -0.245562 -0.032762 -0.716696 0.118754 0.466568 -0.236344 0.158530 -0.286627 -0.915616 -0.196151 -0.293192 -0.069936 -0.226963 0.608974
jj+pos+utr/neu+sin+def+nom -0.034947 0.035344 -0.040224 0.075443 -0.067346 0.188298 -0.142630 0.097727 -0.096068 -0.097722 -0.056712 0.075739 -0.079680 -0.038925 -0.012534 -0.023061 -0.026593 0.073847 -0.095933 -0.053957 0.003361 -0.039581 0.006473 -0.045100 -0.042707
noun+case=nom+gender=masc+number=plur -0.056929 0.226733 -0.442275 -0.000441 0.057820 0.555378 -0.543074 -0.033229 -0.245359 -0.130775 -0.439431 0.306261 -0.678960 -0.718363 -0.242686 -0.345124 -0.586828 1.019903 0.244782 -1.367381 0.729910 0.121220 -0.495225 -0.048184 -0.433717
