4448 25
noun -0.481376 0.695409 0.098360 -0.534726 -1.348019 0.351513 -0.859157 0.855871 0.840279 -0.370684 0.387231 0.011182 1.271140 -0.811904 0.063312 0.906423 0.007560 0.524850 1.132278 -1.194314 -0.003013 -1.146094 0.533286 -0.041054 -0.412906
punct -0.112450 0.124009 0.397721 -0.504169 -1.216115 0.050441 -1.031600 0.498233 0.065873 -0.811557 0.396021 -0.471755 0.816344 -0.463248 -0.358975 0.465208 -0.041891 0.224779 0.811093 -1.276080 0.284906 -0.445723 0.292978 -0.527189 -0.479959
verb -0.113213 0.122772 0.191887 -0.287433 -1.127139 0.387363 -0.615084 0.529058 0.255705 -0.474494 0.271544 -0.478259 0.882130 -0.556472 -0.352190 0.598004 0.340829 0.131713 1.213929 -1.105812 0.514098 -0.073156 -0.034335 -0.720554 -0.156913
adj -0.309883 -0.216983 0.422255 -0.705130 -1.314235 0.266990 -0.855226 0.733646 0.090442 -0.694377 0.331090 -0.177237 1.041227 -0.758426 -0.318939 0.296585 0.194220 0.096582 1.210549 -1.034323 0.062113 -0.563771 0.255692 -0.609473 -0.640211
adp -0.044452 0.107475 0.236817 -0.174567 -1.203092 0.222694 -0.637155 0.485825 0.230436 -0.748865 0.294992 -0.070467 1.060456 -0.665622 -0.750984 0.417831 0.205708 0.453593 0.785830 -1.179900 0.201686 -0.410048 0.404751 -0.411811 -0.344123
z:------------- -0.439673 -0.014971 0.372284 0.570180 -0.023161 -0.080894 -0.317458 0.260598 -0.635345 -0.124557 0.305138 0.700174 0.508429 0.417687 0.494610 -0.118256 0.106041 -0.090302 -0.017732 -0.151118 0.684004 -0.023509 0.023396 0.674590 -0.053935
adv 0.092721 -0.061300 0.116023 -0.523393 -1.043101 -0.053279 -0.727134 0.389912 0.205102 -0.644520 0.217227 -0.197821 0.716218 -0.744024 -0.168901 0.493407 0.173378 0.098278 1.410739 -0.873178 0.368933 -0.109128 -0.141268 -0.700398 -0.319620
pron -0.241747 -0.221383 -0.036173 -0.313700 -1.028383 -0.385545 -0.765751 0.600013 0.179900 -0.526178 0.074763 0.010428 0.946111 -0.784624 -0.443262 0.542653 0.433839 0.178108 1.515302 -0.785330 0.240018 -0.160380 -0.262552 -0.887831 -0.525691
propn 0.621397 -1.400741 0.036493 -0.372881 -1.733238 -0.825186 -1.320499 -0.172698 -0.211467 -0.727458 0.231004 0.335267 0.880703 -0.195789 0.078373 0.347097 0.109392 0.120662 1.307223 -1.181698 -0.155587 -0.077459 -0.083852 -0.611805 -0.769034
det 0.024563 -0.652212 0.434609 -0.884560 -1.715196 -0.358429 -0.774805 0.661098 0.270716 -0.720363 -0.042652 0.276478 1.135811 -0.306553 -0.196788 0.210708 0.215646 -0.319723 0.999160 -0.700026 0.136246 -0.587241 0.037225 -0.488146 -0.576361
conj 0.158719 -0.055191 0.037152 -0.581110 -1.384543 -0.308289 -0.801642 0.513833 -0.176960 -0.818372 0.357876 -0.129315 0.941586 -0.406183 -0.460330 0.509449 0.085503 -0.183075 0.877234 -0.710909 0.379306 -0.138306 -0.001176 -0.724620 -0.548650
num 0.270476 -1.025771 0.882430 -0.921582 -1.628868 -0.695472 -1.002630 0.098320 0.561185 -1.237467 0.431963 0.448798 0.564797 -0.227448 -0.389585 0.043485 -0.019881 -0.223248 1.250622 -0.590605 -0.116619 -0.057470 -0.008274 -0.409235 -0.596465
n 0.187438 -0.535729 -0.047943 -0.971485 -0.886623 -0.822425 -1.047256 -0.860810 -0.020391 -0.406584 0.579363 0.115961 -0.134874 0.835892 -0.345836 -0.142511 0.298418 0.436444 0.256982 -0.163529 -0.224121 -0.066029 -0.541871 -0.341537 -0.843767
v 0.699173 -0.653315 -0.516069 -1.482939 -1.312413 -0.731306 -0.471352 -0.103974 -0.220980 -0.175014 0.181688 0.577891 0.417735 0.347101 -0.520539 -0.536220 0.560522 0.197631 1.098796 -1.095065 -0.171261 0.648708 -0.390942 -1.263969 -0.475536
_+_ 0.257551 -1.062142 -0.686693 -0.908317 -1.020184 -1.387102 -0.634775 -0.127265 -0.518233 -0.503249 0.646955 0.556364 0.070132 -0.423072 -0.568404 -0.867719 -0.455717 -0.655426 -0.103127 -0.421735 -1.604293 -0.075054 -0.892256 -1.055709 -0.355138
_ 0.258464 -1.010435 -0.684244 -0.911323 -1.571377 -1.182003 -0.779899 -0.187061 -0.268613 0.010567 0.618307 0.301617 0.149615 -0.726032 -0.660769 -0.599577 -0.435610 -0.557337 0.148086 -0.249819 -0.682985 -0.182317 -0.637521 -1.186741 -0.438403
s 0.579560 -0.194715 -0.126712 -1.088810 -1.119729 -1.116062 -1.248808 -0.078356 0.073209 0.041567 0.590535 0.750073 0.522928 -0.018902 -0.746725 0.193106 -0.036312 0.142341 0.850827 -0.884947 -0.619695 -0.331062 -0.276961 -1.049648 -1.138954
sconj 0.106184 -0.398414 -0.356022 -0.563557 -1.122708 -0.169942 -1.040400 0.348250 -0.307062 -0.564089 0.336044 0.050492 0.468849 -0.892161 -0.584313 0.378907 0.393582 -0.086244 1.141551 -0.625633 0.346021 0.125321 -0.257222 -0.887207 -0.543328
j^------------- -0.363919 0.074485 -0.034964 0.264253 0.368493 0.052722 0.058032 0.183961 -0.592506 -0.316754 0.048316 0.191731 0.037134 -0.179172 0.794756 -0.250924 0.143541 0.254855 -0.109513 -0.602690 1.042156 -0.249739 -0.097006 0.242537 0.040293
aux 0.143027 -0.493568 -0.406686 -0.428357 -1.071080 -0.048360 -0.730887 0.423324 -0.345736 -0.294454 0.494224 -0.214751 0.719583 -0.348341 -0.235988 0.229626 0.343661 0.251431 1.221760 -0.733546 0.331375 0.577075 -0.034156 -0.977590 -0.132426
db------------- -0.664437 0.018450 0.091514 0.271755 0.178390 0.147428 0.262696 -0.071592 -0.381642 -0.172510 -0.219599 0.511458 0.266001 -0.238267 0.305809 -0.177795 -0.165795 0.424403 -0.065506 -0.270704 0.798542 0.175196 -0.466629 0.545872 0.092214
e 0.770687 0.122327 -0.665881 -0.564270 -0.863387 -1.069514 -0.600101 0.216940 -0.186907 -0.572580 0.913853 -0.045891 0.685066 0.106830 -1.000250 -0.147557 0.449185 0.804735 0.838599 -0.904244 -0.474957 -0.366596 -0.691536 -0.994411 -0.840667
rr--6---------- -0.300644 0.345106 0.523687 0.682752 -0.400339 -0.027440 0.522330 -0.268318 -0.788768 0.860233 -0.525688 0.663079 0.122731 0.612784 1.104864 0.143962 -0.269512 0.271796 -0.019961 -0.014282 0.359121 -1.027761 -0.378766 -0.033527 0.244675
n_sing -0.149911 -0.014529 0.033694 -0.862188 -1.602254 -0.118463 -1.264588 0.343393 0.630000 0.066097 -0.092222 0.528948 0.771033 -0.515072 -0.941090 0.579795 0.007716 0.095766 1.025471 -0.523672 -0.282779 -0.014318 -0.140938 -0.737425 -0.846156
vb-s---3p-aa--- -0.415381 0.712014 0.793755 -0.041880 -0.527186 -0.351126 0.455558 0.574421 -1.045142 -0.514967 -0.363917 0.541077 0.567156 0.188857 0.019644 -0.208972 0.221697 -0.187973 0.088284 -0.680107 0.775336 0.151058 0.165322 -0.017121 0.743484
rd 0.810107 -0.329528 -0.512644 -0.693423 -1.141274 -0.799959 -0.892957 0.033176 0.440725 0.202136 0.230407 0.573183 0.719032 0.312633 0.155779 -0.333394 0.807375 -0.640457 1.052037 -0.831353 -0.504950 -0.547871 -1.030175 -0.517995 -0.340549
part 0.269526 -0.807761 -0.493359 -0.474682 -1.454452 -0.150747 -0.980600 0.553388 0.090597 -0.022411 0.588776 0.348535 0.699331 -0.624531 -0.820282 0.486828 -0.338783 0.498997 0.350744 -0.495621 0.130478 0.385737 -0.376198 0.018680 -0.713488
nnms1-----a---- -0.324362 0.697261 0.945370 -0.361184 1.030586 -0.326877 -0.427332 1.019969 -0.713769 0.276103 -0.289217 0.646676 -0.157062 0.068907 0.074742 -0.368825 -0.433425 0.629042 0.884098 0.623806 0.272781 -0.004669 -0.490141 1.311859 -0.365611
a 0.421461 -0.555684 -0.450682 -0.891828 -0.875401 -0.656663 -1.284599 0.079822 -0.035328 -0.342909 0.534816 0.386547 -0.070703 0.409047 -0.647556 -0.377801 0.739677 0.246818 0.639761 -0.768931 -0.331990 -0.227851 -0.578948 -0.513128 -1.055806
punct+_ 0.500866 -0.513339 -0.620203 -0.713295 -1.551944 -0.511877 -1.875827 0.530038 0.031186 -0.791061 0.636567 1.068844 0.774139 -0.183149 -0.297256 0.164518 -0.123216 0.072242 0.854166 -0.632106 -0.029220 0.029500 -0.350911 -0.519083 -0.204770
nnfs2-----a---- -0.496705 0.318518 -0.227839 0.171299 0.497594 -0.640107 0.057647 0.110197 -0.963245 0.294466 -0.043110 0.822929 -0.692668 0.228682 0.216435 -1.169804 -0.410010 -0.070801 -0.718103 0.150163 0.580659 0.346469 0.374687 -0.319122 0.545376
nnfs1-----a---- -0.248719 -0.715444 0.258096 -0.282726 -0.357210 0.894629 0.761271 0.597735 -1.057482 -0.188556 -0.574961 0.773842 0.438256 0.698513 -0.048963 -0.124620 0.464129 0.038010 -0.416586 -0.040501 1.147527 0.774173 -0.187100 0.172466 -0.046680
rr--4---------- -1.053931 0.588844 -0.435897 0.256261 -0.033530 0.554897 0.101870 -0.081185 -0.989641 -0.084350 0.198965 0.291175 0.106750 -0.727908 0.581672 -0.401292 -0.356923 -0.244124 0.640289 -0.686122 0.580696 -0.076086 0.248901 0.591284 -0.409871
rr--2---------- -0.658566 0.201905 0.390512 0.381908 0.498412 0.779532 -0.028523 0.600055 -0.645345 0.201912 0.135749 -0.009202 -0.277711 0.008280 0.979304 -1.083003 0.083965 -0.401850 -0.179111 0.185823 0.534100 0.061732 -0.792904 0.020426 0.573235
c=------------- -0.033710 -0.169093 1.066965 0.047890 -0.106146 0.415947 0.504012 -0.301550 -0.935067 -1.202842 0.785091 0.770447 0.237329 0.551105 1.081290 -0.400890 -0.313663 0.557761 0.362818 0.991640 0.551963 -0.116695 -0.025547 0.360975 0.054961
j,------------- -0.548204 -0.242591 0.155022 0.405196 0.807918 -0.193031 0.800539 -0.041447 -0.372216 -0.705907 -0.615229 0.475187 0.299182 -0.121164 0.299326 -0.354602 0.449789 0.391500 0.306288 -0.274080 0.289363 -0.388112 -0.452646 0.459417 -0.340426
vf--------a---- -0.792697 -0.148185 -0.190137 0.094265 0.163601 0.066642 0.240351 -0.300090 -0.557755 -0.209844 -0.074035 0.347219 0.230854 -0.663768 0.111745 -0.299401 -0.471801 0.158546 -0.001425 -0.469697 0.675142 0.164752 0.230125 0.391189 0.298244
nnis2-----a---- -0.467164 0.401893 0.979910 0.719294 0.713722 0.597589 -0.000152 0.012315 -0.579674 -0.099228 -0.739605 0.671602 0.416537 -0.081729 0.167836 -0.944676 -0.126204 0.624687 -0.254601 0.450098 0.270619 0.020801 0.868792 0.100835 0.056957
nnis1-----a---- -1.513536 0.255607 0.180949 -0.397794 0.303043 -0.531295 0.119900 0.528012 -0.636618 -0.222448 0.376093 0.451382 0.892610 0.480242 -0.019286 -0.303277 0.242465 0.249777 -0.261286 0.649509 0.750314 -0.748404 -0.590986 -0.077946 -0.312894
nnfs4-----a---- -0.509583 -0.667793 0.557210 0.115535 0.115652 -0.020013 -0.143515 -0.595129 -0.321535 -0.563231 -0.499359 0.762026 0.517548 -0.065918 0.596671 -0.937589 -0.935623 -1.074726 -0.123537 -0.206496 0.375285 -0.131667 -0.295218 0.418596 -0.570968
p7-x4---------- -0.300724 -0.572747 0.343286 0.632779 0.298049 -0.240998 0.104218 0.003676 -0.178128 0.070628 -0.095395 0.438578 0.349039 -0.032724 0.090278 -0.143570 -0.556901 0.355901 -0.387790 -0.155033 0.803427 0.220600 -0.627390 0.442474 0.555903
vpys---xr-aa--- -0.202688 0.658485 0.884289 -0.244750 -0.139909 -1.034756 -0.052945 0.412170 -0.979095 -0.207326 0.185176 0.477550 0.046957 -0.388029 -0.056866 -0.601913 -0.181564 0.094192 0.698103 -0.626777 0.391691 -0.435009 -0.031770 0.281003 0.133376
dg-------1a---- -0.874802 0.068315 -0.057009 0.146125 0.054572 0.204677 0.245264 0.044106 -0.347301 -0.149454 -0.201050 0.583872 0.178786 -0.138861 0.494884 0.024612 -0.166219 0.434488 -0.353533 -0.469676 0.739557 0.075009 -0.276705 0.399628 0.154127
nnis4-----a---- -1.176398 -1.021941 0.459125 -0.461601 -0.696550 0.068130 0.027607 -0.015060 0.038980 0.062667 0.374718 0.427930 0.452676 -0.026645 0.884941 -1.665941 -0.969135 0.178931 0.497463 -0.319214 0.836131 0.164589 0.346534 0.214528 0.046126
r 0.336812 0.343624 -0.445148 0.086092 -0.071595 1.108871 -0.945981 -0.710587 0.757213 0.278460 -0.074732 0.022149 0.118205 0.687440 -0.182107 -0.483937 0.213629 -0.149219 0.734638 -0.229592 -0.475881 -0.641795 -0.523188 -0.015573 0.654830
nnfs6-----a---- 0.791026 0.762345 0.604005 -0.170663 -0.132186 0.379515 0.550460 -0.163364 -0.168269 0.234548 0.427777 0.078474 0.526413 -0.060947 0.408471 -0.205194 -0.882189 -0.330056 -1.337584 -0.338384 1.479472 -0.698388 -0.607594 0.477476 -0.186081
p 0.115257 0.036939 -0.111615 -0.784006 -1.485097 -0.397670 -0.971441 0.141402 0.270217 -0.002139 0.033207 0.581114 0.465062 -0.701145 -0.907275 -0.019822 0.136163 0.117588 0.457779 -0.616808 -0.176225 0.136711 -0.179890 -0.530106 -0.822395
pun -0.915771 0.822034 -0.740837 -1.256340 -0.997682 -0.350812 -1.082746 -1.272109 -0.639604 -0.311128 0.744122 0.926862 0.025500 1.160491 0.434878 0.702736 0.970904 0.592239 -0.659823 -0.520971 -0.381832 -0.068923 -1.113672 0.052644 1.376613
nnfp2-----a---- -0.408699 0.951392 0.039496 0.655647 0.791970 0.437626 0.196547 0.094050 -0.809368 -0.932921 0.010882 0.387510 -0.346619 0.650125 0.551957 -0.503620 -1.041416 -0.079233 -0.593947 0.084080 0.620354 0.446454 0.156553 -0.205687 0.072724
sp 0.800604 -1.280879 -0.560156 -0.649402 -1.227949 -0.697510 -1.007151 -0.774022 -0.185383 -0.133450 0.254622 0.376780 0.287186 -0.028057 -0.090126 0.113202 0.138924 0.401065 0.724537 -1.303574 -0.581724 -0.197468 -0.507554 -0.541790 -0.778594
nnns2-----a---- -0.647874 0.391040 0.560316 0.351675 0.599816 -0.091857 -0.542655 0.065560 -0.490016 -0.357495 -0.770977 -0.151196 0.131922 -0.294353 0.417201 -1.037049 -0.344753 0.106265 -0.088173 0.714829 1.035968 0.244303 -0.024133 -0.652262 -0.196497
ff 0.878860 -0.281582 -0.471945 -0.682684 -1.357386 -0.765851 -0.807344 -0.068403 -0.230848 -0.013991 0.656373 0.188918 0.593121 0.363680 -0.263921 -0.495696 0.183478 0.300901 0.708613 -0.707982 -0.304497 0.082049 -0.483834 -0.901270 -0.413686
rr--7---------- -0.566418 0.176572 0.136902 0.583387 0.399161 -0.129983 -0.992269 -0.690728 -1.289645 -0.178342 -0.036024 -0.215840 -0.118421 -0.106585 0.527484 -0.180540 0.174061 0.979377 -0.448617 -0.724940 0.915525 -0.225537 0.515435 0.554135 0.600719
con 0.081900 -0.138475 -0.136131 -0.797014 -1.303005 -0.188916 -1.198496 0.262592 0.173796 -0.126628 0.059548 0.228311 0.392896 -0.611124 -0.854573 0.405608 0.007110 -0.082809 0.530114 -0.571536 -0.135656 0.024380 -0.099030 -0.519078 -0.806383
vb-p---3p-aa--- -0.018081 0.742011 0.171494 0.601758 -0.139311 -0.104157 -0.165873 -0.001015 0.306555 -0.840524 -0.083907 1.097344 -0.114485 -0.612579 0.697472 -0.219399 -0.107732 0.104968 -0.045848 -0.997098 0.384979 -0.257075 0.049481 -0.000481 0.555065
delm 0.030172 -0.141880 -0.063788 -0.890898 -1.112343 -0.134547 -1.332928 0.054863 -0.001733 -0.173002 0.055150 -0.045649 0.262884 -0.432897 -0.961548 0.533922 -0.049252 0.000608 0.662240 -0.699988 -0.052861 0.017797 0.091235 -0.463310 -0.720065
aafs2----1a---- 0.006266 -0.369511 -0.647000 0.364315 0.761581 -0.842903 -0.333813 0.973620 -1.101146 0.142640 0.395658 0.862127 -0.795877 0.156396 0.684102 -1.351865 0.080615 -0.918294 -0.653391 0.650205 0.768653 -0.286315 0.463033 -0.695898 0.953230
nnip2-----a---- -0.735234 0.798611 0.079480 0.992497 -0.296678 1.223664 0.190908 0.528358 0.068492 -0.634690 0.518198 0.528243 -0.505899 -0.189218 -0.049417 -1.095685 -0.297303 0.188083 -0.187216 0.497093 1.575084 0.325008 0.079530 -0.248058 0.212173
fs 0.635349 0.068290 -0.537402 -0.908244 -1.299566 -0.984956 -0.555797 -0.546247 -0.209020 0.015992 0.782748 -0.328266 0.253738 0.470950 -0.336125 -0.476338 0.046814 0.780003 0.608006 -0.396557 -0.309604 -0.644380 -0.554933 -0.547404 0.034871
nnis6-----a---- 0.721692 0.155651 0.414952 0.112110 -0.156390 0.255094 0.652893 0.710770 -0.110763 0.524626 0.045372 0.563601 0.958239 0.232178 0.641071 -0.560376 -0.637389 0.398529 -0.799958 -0.102663 1.251292 -0.363401 -0.576178 -0.199288 -0.202534
c -0.275255 0.692929 -0.613375 -0.558534 -0.546665 -0.445929 -0.735633 -1.050570 -0.487797 -0.301033 0.356026 0.165074 -0.624257 0.717936 -0.518751 0.388386 1.111818 0.452739 -0.402896 -0.146109 -0.572341 -0.022903 -0.938251 -0.055025 0.902712
adp+adptype=prep 0.506307 0.179659 -1.312409 -0.091755 -0.808976 0.909931 -1.665776 -0.240275 0.063593 -0.649792 0.559771 0.565335 -0.001169 0.504150 0.160129 0.753532 -0.513830 1.116763 -0.899238 -0.204846 0.131494 -0.450365 -0.672968 -0.169758 0.507620
aafs1----1a---- -0.112797 -1.347371 -0.354002 0.532550 -0.543833 0.564685 0.878889 1.163774 -1.571570 -0.411284 -1.358596 0.680473 0.641914 0.899267 0.265574 0.451049 0.686037 -0.006150 -0.330745 0.205923 1.410978 0.781882 -0.291248 -0.053015 0.735782
nnns1-----a---- -0.436811 0.601664 0.055382 -0.065670 0.063692 0.643960 0.548291 0.616853 -1.175837 -0.730164 0.284914 0.100414 0.135123 -0.087349 -0.349301 -0.304235 -0.281467 -0.635086 -1.215192 0.382797 0.596386 -0.003082 -0.826671 0.974968 0.371893
nnns4-----a---- -0.734721 -0.468848 0.727682 -0.431312 0.178816 0.974297 -0.447874 -0.003880 -0.204270 -0.216219 -0.193504 0.762052 0.377511 -0.787720 0.610030 -0.729684 -0.478036 -1.204571 -0.026721 -0.035444 0.701539 -0.144307 -0.128608 -0.194310 -0.453018
nnms2-----a---- 0.454822 0.467740 0.042727 -0.312288 0.239162 -0.030266 -0.436245 -0.488505 -1.068478 -0.080125 -0.179592 0.326902 0.915289 -0.379855 0.581149 -1.123629 0.168159 -0.349478 -0.340133 1.486967 1.101715 0.336249 -0.053532 0.621714 0.467580
b 0.378862 -0.165466 -0.618272 -0.914308 -1.040900 -0.480847 -0.895793 -0.216800 0.100341 -0.087210 0.259525 0.488497 0.199902 -0.030509 -0.405694 -0.302192 0.258494 0.239255 0.951917 -0.416898 -0.319703 0.345325 -0.710909 -1.000481 -0.496185
pp 0.211599 -0.145041 -0.044357 -0.320352 -0.666735 -0.003278 -0.524941 0.220810 0.025765 -0.481547 0.156671 -0.004194 0.387305 -0.311484 -0.413513 0.295256 0.074888 0.207895 0.532904 -0.747591 0.133831 -0.174274 0.185815 -0.313427 -0.248225
nnns6-----a---- 0.561641 0.454319 0.566387 0.426075 -0.297293 0.290592 0.608299 0.355556 -0.271117 0.791823 0.235960 0.535479 -0.014632 0.027248 -0.010151 -0.627971 -0.879950 0.513388 -0.505189 -0.233644 1.423681 -0.233064 -0.220619 -0.471329 -0.663167
vpqw---xr-aa--- 0.443266 -0.169328 0.489693 0.250329 -1.012811 0.402750 0.460900 0.323385 -1.424008 -0.462347 -0.664309 0.714783 0.920771 -0.092125 0.161439 -0.214019 0.224785 0.015539 0.202097 -0.678071 0.545159 0.510520 0.272518 -0.080849 0.591149
cc 0.521251 -0.128993 -0.831680 -0.946991 -1.004135 -0.829275 -0.632600 -0.495049 -0.075039 0.024008 0.373396 0.066423 0.353947 0.486453 -0.838412 -0.220247 0.198290 0.266971 0.691466 -0.689547 -0.484675 -0.171497 -0.358621 -0.521807 -0.427164
aais2----1a---- -0.251945 -0.388625 1.837894 0.835104 1.439361 1.079970 0.618965 0.250635 -0.199737 0.277772 -0.208876 0.121974 0.119192 -0.134916 -0.009520 -1.161447 0.001655 -0.249292 -0.182671 0.477649 0.443068 -0.147999 1.466787 -0.052767 0.708235
nnfs7-----a---- -0.532914 -0.468379 0.455835 -0.107288 0.044471 0.535243 -1.061205 -0.855280 -1.054764 -0.208650 -0.058290 0.459054 -0.193720 -0.247364 0.102302 -0.492853 0.307332 -0.042341 -0.761864 -0.199019 1.809609 -0.135226 0.164583 0.066846 -0.001914
n_pl 0.104064 -0.177332 -0.167816 -0.860416 -1.242245 -0.083393 -0.834016 0.200403 0.342051 0.074189 -0.040241 0.338585 0.483149 -0.411128 -0.660087 0.123035 -0.153878 0.165339 0.655765 -0.210584 -0.247323 0.132217 -0.202722 -0.612732 -0.817947
nnmp2-----a---- -0.148140 0.562898 -0.150333 0.902815 0.100261 0.308702 0.377420 0.185063 -0.781354 -0.752101 -0.132871 0.606501 -0.145777 0.381584 -0.055645 -0.436059 -0.859800 0.760262 0.056412 0.412586 0.633574 0.434463 0.230130 -0.446626 -0.235736
aais1----1a---- -2.065705 -0.097723 0.684697 -0.618858 0.642141 -1.091581 1.234282 0.200646 -0.411299 0.031040 0.731323 0.299844 0.702568 1.130141 -0.661311 -0.099062 1.090736 -0.143287 -0.001486 0.382436 1.434416 -0.807942 -0.095968 0.156475 0.455313
nnfp1-----a---- -0.493673 0.917924 0.156072 0.426848 0.275039 0.538363 -0.258845 0.263826 0.658774 -0.600502 -0.748713 1.794749 -0.259388 0.152973 1.118835 -0.438333 -0.032645 0.520418 -0.966695 -0.086126 -0.157251 -0.839756 -0.494611 1.268599 0.745453
rr--3---------- 0.200742 -0.049600 -0.820794 1.107919 0.022842 0.915344 -0.273539 0.852823 -1.288559 -0.055243 0.130217 0.449273 0.993269 -0.631595 0.411121 -0.325999 -0.559192 0.645138 0.289149 -0.353996 0.264770 -0.508403 -0.305909 0.123876 0.324317
conj+_ 0.484432 -0.547651 -0.818738 -0.164388 -1.091647 0.120924 -1.691634 0.370509 0.168485 -0.689625 0.790036 0.830199 0.189190 -0.239124 -0.106831 -0.146004 0.001382 0.124976 0.333658 -0.104096 0.310986 -0.148607 -0.721517 -0.636315 -0.164794
nnis7-----a---- -0.169662 -0.446579 0.498518 -0.210332 0.004170 0.726455 -0.929398 0.128501 -1.071990 -0.334000 0.534167 0.214246 0.741648 -0.758433 -0.002237 -0.596566 0.264959 0.574987 -1.043622 -0.386505 0.938260 -0.613071 -0.259721 0.179321 0.212397
tt------------- -0.659663 0.045150 0.306265 0.296089 -0.119073 0.034217 0.317431 -0.155501 -0.331642 -0.449912 0.043722 0.374080 0.086497 -0.331491 0.185263 -0.227060 -0.424961 0.223043 -0.183847 -0.283183 0.984250 0.286692 -0.203197 0.412906 0.070774
nnfxx-----a---8 0.099137 -0.099947 0.405621 0.068046 0.109447 0.064700 0.364565 -0.055938 -0.745949 -0.237707 0.075599 0.936170 -0.149045 -0.103813 0.749692 -0.436738 0.027407 0.043966 -0.125296 0.407712 0.919938 0.131712 -0.009108 0.474112 -0.471786
vc------------- -0.658630 0.650904 0.112923 0.084685 0.749586 -0.351756 -0.003353 -0.171424 -0.853245 0.173115 0.084232 1.195994 0.825356 -0.065142 0.556491 0.429765 0.021114 0.232859 -0.129217 -0.456322 0.020822 0.938329 -0.801722 -0.593801 0.558753
aafs4----1a---- -1.024726 0.750373 -0.969485 0.033348 -0.569891 -0.477690 0.181581 -1.158490 -0.285756 -0.451765 -0.422095 0.526582 1.025429 -1.271373 0.634290 -0.248028 -1.282272 -1.318820 0.821546 0.397101 0.576527 0.274296 0.248874 0.293389 -0.741130
nnfp4-----a---- -0.418072 -0.578979 0.467120 -0.085433 -0.238857 0.301008 -0.600751 -0.339136 -0.762074 -0.902411 0.156122 0.766665 -0.244275 0.063684 0.039146 0.172563 -0.921386 -0.347153 -0.286581 -1.004844 0.898926 -0.668222 -0.178129 0.301427 -1.028935
vpmp---xr-aa--- -0.059539 0.373245 0.536977 0.665565 -0.029036 -0.395404 -0.199020 -0.468085 -0.324804 -0.824707 -0.121577 0.630097 0.002275 -1.134583 0.221582 -0.671358 -0.283222 -0.133618 0.365709 -0.565023 0.557612 -0.254448 -0.489004 -0.139111 0.331558
nnmp1-----a---- -0.423496 0.580057 -0.607133 0.824882 -0.123386 -0.197023 -0.339855 -0.844137 0.196517 -0.279246 -0.021051 1.889242 -0.029525 -0.747106 0.494022 -0.718314 0.031909 0.026511 -0.192747 0.033056 0.784516 -0.006319 -0.751167 -0.061343 0.081834
adv+_ -0.333089 0.012504 -1.419029 0.275716 -0.235687 0.682206 -1.169099 -0.263160 0.358391 -1.021260 0.640070 0.958194 -0.320011 0.868401 0.287818 0.400416 0.175106 0.870537 -0.509979 -0.070173 -0.289265 -0.240349 -0.863281 -0.674370 0.324536
v_prs 0.286927 -0.068104 -0.123926 -0.807407 -1.185875 -0.108218 -0.600071 0.215609 0.445604 0.095544 -0.011653 0.294861 0.522144 -0.076430 -0.699444 -0.036879 -0.133729 0.219640 0.623326 -0.521152 -0.110901 0.148685 -0.131493 -0.888486 -0.502538
noun+definite=ind+gender=com+number=sing -0.223256 -0.468249 -1.008046 -0.219158 -1.080388 0.107310 -1.500677 -0.187040 0.227897 -1.251220 -0.470309 0.978634 0.056229 0.613559 -0.145010 0.662405 -0.015232 1.156973 -0.930008 0.368983 0.129209 -0.349874 -0.528439 -0.870990 0.564481
fb 0.604622 -0.460242 -0.191559 -0.874117 -1.269329 -0.465281 -0.898582 -0.354182 -0.133405 -0.174260 0.700907 0.058845 0.328749 0.423232 0.117513 0.018280 0.021251 0.387341 0.671810 -0.518484 -0.415844 -0.256200 -0.602917 -0.365280 -0.482206
va 0.645626 -0.289906 -0.875996 -0.617477 -1.046715 -0.198343 -0.766948 0.100370 0.008097 -0.156295 0.383141 0.243429 0.181343 0.004981 -0.287701 -0.427929 0.199780 0.269154 0.763611 -0.287373 -0.332243 0.730888 -0.626628 -1.243518 -0.175182
aafp2----1a---- -0.609925 1.297706 0.552710 0.298930 1.057543 0.685568 -0.629572 0.989800 -0.361134 -0.894830 -0.500077 -0.062670 -0.934252 0.420827 0.995870 0.844788 -1.592539 0.527958 0.463761 0.350080 0.514714 0.525147 0.633367 -0.019129 0.329868
nnip4-----a---- -0.724000 -0.380394 0.494780 -0.400553 -0.025371 0.506990 0.137175 -0.013366 0.141398 -0.433953 -0.696324 0.679212 -0.395887 0.315398 1.339484 -0.246697 -0.856254 0.051365 0.654204 -1.154593 0.959516 0.416349 -0.081107 -0.341407 -0.517539
vpns---xr-aa--- 0.059940 0.635617 0.595518 0.232217 -0.230764 0.170760 0.778897 -0.054400 -0.993860 -0.809434 -0.064182 0.432196 0.688044 -0.656666 -0.068640 -0.585358 -0.111147 -0.362051 -0.310816 -0.470090 0.026513 0.090566 0.052740 0.153874 1.187250
aais4----1a---- -1.623223 -0.300759 0.538477 -0.568701 -0.088789 0.596484 0.334022 -0.031006 0.017217 0.648016 0.409883 0.822864 0.744161 -0.915430 0.602594 -0.578876 -1.235937 0.587018 0.798947 -0.300649 0.016959 -0.155450 1.809104 1.678735 0.459557
n,sg,nom -0.571644 0.737522 -0.388733 -0.441338 -0.895017 0.228631 -1.299326 -1.381118 -0.629412 -0.721303 -0.038024 0.666232 -0.458629 0.317152 -0.102407 0.968765 0.678140 0.611944 -0.749796 0.096518 -0.642428 -0.681228 -1.000070 0.250815 0.760668
nnip1-----a---- -0.321621 0.118653 0.017326 0.627843 0.044346 0.789941 -0.676057 0.613303 0.575201 -0.740212 -0.321151 2.242174 -0.936631 -0.823957 0.623280 -0.220310 -0.094686 0.340475 -0.181563 -0.686236 0.263807 -0.328614 -0.529051 0.085049 -0.170859
vb+prs+akt 0.103545 -0.088634 -0.122381 -0.238197 -0.587759 0.066331 -0.425245 0.180798 -0.018752 -0.330380 0.146942 -0.095873 0.305999 -0.188958 -0.303547 0.269405 0.082760 0.110056 0.531536 -0.504609 0.034090 -0.124973 -0.002239 -0.230414 -0.095130
pro 0.104780 -0.120497 -0.172548 -0.729404 -0.985465 -0.162919 -0.812485 0.195503 0.319976 0.011477 -0.076381 0.355013 0.499594 -0.271071 -0.745977 0.187423 0.093772 -0.032585 0.726325 -0.336963 -0.250961 0.000202 -0.150366 -0.560863 -0.609540
aaip2----1a---- -1.040961 0.204667 0.480963 0.882964 -0.734782 1.120136 0.387530 0.171523 0.673749 -0.385275 0.926038 0.537402 -0.423190 0.112878 0.863091 -1.099034 -0.541237 0.227195 0.472890 0.553134 1.779921 -0.010860 1.055263 -0.842659 1.044460
vb-s---3p-na--- -0.514467 0.586593 0.560762 -0.315243 -0.421660 -0.237751 0.431763 0.438768 -0.685087 -0.419114 -0.518531 0.642570 0.465893 -0.319346 0.288367 -0.069757 0.040967 -0.504152 0.296183 -0.494508 0.896940 -0.018609 0.017079 0.394841 0.905431
nn+utr+sin+ind+nom 0.160086 -0.049442 -0.113187 -0.277671 -0.553098 0.016491 -0.403032 0.178130 0.039148 -0.256590 0.238906 -0.004730 0.403048 -0.233764 -0.151472 0.386413 0.021182 0.038038 0.557053 -0.483239 0.014722 -0.230329 0.145520 -0.174580 -0.184829
v,act,ind,pres,sg3 -0.476607 0.467150 -0.861324 -0.925065 -0.951490 -0.330448 -0.574734 -1.092131 -0.253994 -0.712740 0.239832 0.827850 -0.224418 0.509539 0.560588 0.326147 0.906830 0.914311 0.062187 0.051412 -0.473372 -0.388595 -0.936438 -0.242971 1.258010
aans1----1a---- -0.756323 0.159105 0.336565 0.115391 0.672559 0.909573 2.018296 0.406970 -1.207784 -0.124168 0.299038 0.491060 0.057841 -0.352752 -0.729791 0.498095 0.458712 -0.368544 -0.945667 -0.200220 0.803590 -0.028152 -0.621590 0.934297 0.819692
aafs6----1a---- 0.836022 1.496126 1.423907 0.047900 0.136537 -0.002531 0.665651 -0.235120 0.150154 1.045142 -0.386329 0.533050 0.476553 0.147631 0.712559 0.368536 -1.497545 0.562933 -1.469802 -0.420312 0.982372 -1.838208 -0.082962 1.291744 0.636251
rv--6---------- -0.265046 0.391365 0.402790 0.689977 -0.448625 0.193925 0.304765 -0.444307 -0.874925 0.925560 -0.496025 0.539120 0.150478 0.518941 1.260694 0.270119 -0.479673 0.378432 -0.027040 0.107140 0.572544 -1.103757 -0.392313 0.008737 0.195788
v_pa 0.294279 -0.211806 -0.086101 -0.813633 -1.121613 -0.122708 -0.585939 0.130429 0.400077 0.052002 -0.054211 0.292125 0.465999 -0.116671 -0.700606 -0.082280 -0.106068 0.202470 0.555508 -0.457198 -0.097948 0.112827 -0.008227 -0.761139 -0.441843
pc 0.453134 -0.187931 -0.710125 -0.565709 -0.791076 -0.075767 -0.833039 0.133583 0.129452 -0.039863 0.328293 0.338162 0.239102 0.099075 -0.330780 -0.321757 0.450656 0.259825 0.700194 -0.222461 -0.423604 0.617246 -0.840179 -1.090876 -0.376471
ri 0.359661 -0.000170 -0.795941 -0.640642 -0.883718 -0.568068 -0.771711 -0.280115 0.202058 0.228736 0.261372 0.084563 0.006052 0.290641 -0.309454 -0.785535 0.411912 -0.259383 0.666639 -0.113831 -0.441296 -0.407778 -0.936434 -0.617192 -0.218716
aans2----1a---- 0.038445 -0.355302 1.029652 0.801175 0.563736 -0.088703 -1.041694 0.878334 -1.038092 -0.646694 -1.173693 -0.525576 0.448481 -0.401793 0.695433 -0.206935 -0.384165 -0.728839 -0.046159 0.560052 1.375688 -0.103044 -0.384154 -1.236019 0.023421
mad 0.142387 -0.101193 -0.085448 -0.209672 -0.376365 0.005749 -0.334551 0.058149 0.022402 -0.274891 0.097677 0.039115 0.188049 -0.068235 -0.253273 0.127949 0.054604 0.145110 0.273829 -0.362031 0.031578 -0.128791 0.034220 -0.227005 -0.136665
propn+_ 0.688811 -0.092134 -1.334292 -0.458259 -0.060363 0.339431 -1.953610 0.449835 0.537627 -1.143185 0.210850 0.820673 -0.139462 0.794189 -0.126867 0.346101 -0.017363 0.328987 -0.378600 0.599571 0.102101 -0.591267 -0.727972 -0.434311 -0.212665
nnnp2-----a---- -0.181182 0.789788 0.441182 0.838884 -0.012463 0.874069 -0.112159 -0.591345 -0.513609 -0.832265 0.176219 0.606342 0.067997 -0.120576 -0.027730 -0.955497 -0.402069 0.480884 0.187582 0.566258 0.655719 0.572932 -0.022507 0.131580 0.066677
ncmsi 0.585344 0.666204 -0.379305 -0.274538 0.168995 0.852375 -0.483809 -0.794641 0.460201 -0.225400 0.122979 -0.239527 -0.130946 1.125082 -1.112309 -0.135817 -0.492301 -0.231716 0.732212 -0.922658 -0.040952 -0.239277 0.077101 -0.514510 0.132990
sconj+_ 0.622822 -0.592204 -1.105012 -0.205497 -0.260292 0.219871 -0.501954 0.208628 -0.269116 -0.894888 0.497294 0.581720 0.010024 0.574105 0.144146 -0.073547 -0.018183 0.665232 0.185886 0.137458 -0.374435 -0.560584 -1.232766 -0.752194 -0.185551
cs 0.520360 -0.313380 -1.063123 -0.961852 -0.791427 -0.051739 -0.299146 -0.669418 0.169618 0.121194 0.260993 0.200767 0.362275 0.256383 -1.043712 -0.174476 -0.317572 0.509495 0.694392 -0.187913 -0.626465 0.264381 -0.326011 -0.412299 -0.314401
ncfsi 0.303544 0.039102 -0.473909 0.214885 0.639279 1.016695 -0.785510 -0.686128 -0.111723 0.055826 0.089337 -0.177687 -0.496463 1.086836 -1.061551 -0.729677 -0.437048 -0.168840 0.180235 -0.385328 -0.285495 -1.033411 0.396247 -0.007420 -0.246301
nnns7-----a---- -0.457395 -0.735346 0.704643 -0.352769 0.147458 0.818137 -0.638514 -0.288656 -0.619495 -0.224622 -0.520803 0.559698 -0.263247 0.154954 0.265723 -0.305257 0.706006 -0.281333 -0.920048 -0.060019 1.404143 -0.235397 0.007138 0.020724 0.375929
aams1----1a---- -0.521748 0.423748 1.146726 -0.646528 0.916808 -0.358004 -0.709141 0.947280 -0.902670 0.699084 -0.186285 0.299224 -0.014288 -0.205161 0.232188 -0.269503 -0.773530 0.848294 0.744861 -0.010809 0.167049 0.233214 -0.627339 1.645019 -0.118195
pdns1---------- -0.925016 -0.417215 -0.277500 0.367584 0.277001 0.055588 0.959595 0.156794 -0.614175 -0.331123 -0.068961 0.399881 0.285884 -0.387110 -0.467400 0.247901 -0.397265 0.039459 -0.659213 -0.047211 0.798112 0.266947 -0.926801 0.812265 0.563110
aafp1----1a---- -0.189698 -0.045138 -0.454375 0.665944 0.674136 -0.282004 -0.483971 0.839598 0.629161 -1.137453 -0.278379 1.605228 0.199814 -0.286237 1.284865 0.102014 0.233498 1.167954 -0.970492 -0.260562 -0.121144 -1.542828 -0.154173 0.709998 1.437213
n,sg,gen -0.530715 0.552285 -0.377979 -0.627375 -1.033515 -0.512936 -0.892500 -1.239418 -0.032085 -0.729554 0.339113 0.350109 -0.186201 0.620988 -0.044702 0.684162 0.532203 0.527578 -0.575507 -0.099570 -0.033241 -0.359070 -1.241172 0.166895 0.957192
vptp---xr-aa--- -0.061099 0.454255 0.349025 0.691730 -0.146247 0.029970 0.044140 0.448471 0.222195 -0.609935 -0.021022 1.256851 -0.087980 -0.743647 0.893646 -0.580163 -0.134000 0.224655 -0.067806 -1.063073 -0.195898 -0.392905 0.020876 -0.283211 0.767594
pcle -0.613771 0.739668 -0.790882 -0.695517 -0.648628 -0.110436 -0.927913 -1.010065 -0.457892 -0.582252 0.083649 0.803104 -0.233697 0.692588 0.147952 0.502185 0.976514 0.375974 -0.536465 -0.230482 -0.477815 -0.369870 -1.101564 -0.125793 0.830580
adv+degree=pos -0.016444 0.008571 -0.879051 -0.133712 -0.030144 0.604576 -0.718671 -0.250229 0.309272 -1.024669 0.070251 0.680763 -0.342740 0.710973 -0.054703 0.794438 -0.549865 1.010610 -0.311129 -0.181594 -0.223516 -0.055569 -0.827887 -0.458681 0.366198
vb-p---1p-aa--- -0.292571 0.859650 0.584910 0.168913 -0.000146 -0.009909 0.180957 -0.613437 -0.576717 -0.089876 0.202785 1.184064 0.267147 -0.736706 0.369940 -0.470783 -0.615167 -0.081366 0.485434 -0.643286 0.719607 0.211637 -0.367328 -0.131744 0.284067
nnfp6-----a---- 1.063871 0.556370 0.651115 0.398223 -0.361144 0.249627 0.084410 0.156168 0.137954 0.105657 -0.334239 0.844317 -0.030975 0.479849 0.596775 -0.281923 -0.428684 0.243589 -0.968248 0.038003 1.502219 -1.080787 -1.080800 -0.649697 -0.406551
aais6----1a---- 0.955482 -0.173173 1.044885 0.457785 -0.775565 -0.254984 1.793563 -0.065449 -0.165848 1.464936 -0.026676 0.699505 0.797669 0.186499 1.447297 -0.172099 -1.194435 0.559467 -0.296653 -0.174020 1.410255 -1.405110 -0.345764 -1.300161 0.299436
aux+number=sing+person=3+tense=pres -0.455558 0.010905 -0.500979 -0.333543 1.122298 0.213042 -0.123707 0.102311 -0.667504 0.034912 -0.316603 0.848967 -0.169508 0.599163 -0.685929 1.410735 -0.886384 0.023626 0.666333 -0.970340 0.269633 0.375474 -0.662742 -0.891549 0.558869
nnfs3-----a---- -0.029326 -0.087693 -1.285791 0.188539 0.040890 -0.224727 -0.462681 0.456384 -0.549807 -0.751894 -0.103356 0.893926 1.268420 -0.176894 0.810366 -0.487858 -0.610805 0.819364 0.097419 0.161459 0.387610 -0.269870 0.035056 -0.206425 0.280934
ab 0.101237 -0.092211 -0.160400 -0.205434 -0.374506 -0.026098 -0.332289 0.115756 0.070983 -0.248834 0.141532 0.041468 0.207921 -0.199118 -0.199365 0.247186 0.089899 0.116349 0.445609 -0.400010 0.033368 -0.155198 -0.046720 -0.262273 -0.157240
adp+case=loc -0.978641 0.131750 -0.561649 -0.373872 -0.343309 0.917888 -0.823123 0.048685 -0.840931 0.426362 -0.026672 1.189622 -0.025041 0.011634 -1.064860 0.264129 -0.254817 -0.361093 0.330270 0.566049 0.433278 -1.008242 -1.032634 -0.175058 0.883358
verb+mood=ind+tense=pres+verbform=fin+voice=act 0.486496 0.264273 -1.133263 -0.297983 -0.541397 1.017024 -1.216804 0.473157 -0.093427 -0.869278 0.614505 0.934136 0.126090 0.578942 0.309645 0.629071 0.446386 0.249865 -0.400557 -0.286776 -0.348341 -0.175362 -0.986064 -0.670861 0.630893
aux+mood=ind+tense=pres+verbform=fin+voice=act -0.080293 0.109319 -1.243410 -0.021616 -0.288261 1.206491 -1.254983 0.097769 0.138275 -0.532659 0.642122 0.943148 0.353236 0.167829 0.484696 0.683374 0.227165 1.126450 -0.100517 -0.374672 -0.331310 0.313189 -1.273283 -0.803308 0.456103
aafs7----1a---- -0.916643 0.445231 0.776339 -0.334490 0.986226 0.669996 -1.094599 -0.982578 -1.347644 0.009629 -0.641262 0.217037 -0.324878 -0.522717 -0.283282 0.306326 0.493657 0.213882 -0.927936 -0.195188 1.449829 -0.440184 1.173968 1.229766 0.895666
nnms7-----a---- 0.457895 -0.378647 1.020763 -0.090785 0.593120 -0.349512 -1.222080 -0.963976 -1.889271 0.248099 0.511465 0.471936 -0.416192 -0.186054 -0.189837 -0.606776 0.119034 0.144811 -0.229553 0.180129 1.241027 -0.456781 -0.034697 -0.266211 -0.494336
aans4----1a---- -0.839862 -0.260497 0.061414 0.236701 -0.374768 0.467492 -0.140729 0.052323 -0.916433 -0.035231 0.040697 0.609950 0.368842 -1.926342 -0.702631 -0.251596 -1.430716 -0.419255 0.650779 -0.230661 0.583602 -0.181923 0.824257 0.021511 -1.053155
p7-x3---------- -0.475048 -0.446219 0.278027 0.738009 0.169144 -0.196689 0.042046 -0.126731 -0.119238 -0.002038 0.298580 0.623232 0.493351 -0.453767 0.204666 -0.341903 -0.457499 0.021818 0.269353 -0.372394 0.521494 0.129349 -0.772924 0.682990 0.298911
pcle,cc -0.585919 0.632142 -0.698627 -0.441799 -0.877950 -0.300407 -0.847739 -1.018534 -0.465779 -0.655872 0.539839 0.643600 -0.153365 0.669267 0.215812 0.471526 0.851034 0.746560 -0.551866 -0.146948 -0.263984 -0.516367 -1.206108 -0.157150 0.838942
cp 0.055422 0.123101 -0.288289 -0.340504 0.117049 0.863218 -0.441036 -0.218037 0.143956 0.000631 0.012084 0.293130 0.611982 0.985851 -0.884675 -0.314353 -0.170990 -0.057518 1.055635 -0.472496 -0.025442 -0.789153 -0.562680 -0.000968 0.666773
aaip1----1a---- -0.434117 -0.260853 0.042456 0.933016 -0.000893 0.289542 0.524914 0.561577 1.335551 -0.364975 -0.422020 2.457293 -1.322639 -0.603591 1.135074 0.323651 -0.166009 0.551908 0.758101 -0.876953 0.571485 -0.028035 -0.149666 -0.498670 0.556482
aafp4----1a---- -0.843826 -0.537423 0.128252 0.893528 0.200999 -0.055127 -0.368950 -1.554807 -1.293338 -1.102282 0.605025 0.523791 -0.624656 -0.435484 -0.406685 0.196782 -1.140963 -0.590935 0.048788 -0.808921 1.778481 -0.689761 0.858283 0.117228 -0.634057
kn 0.164056 -0.066992 -0.090331 -0.209303 -0.397840 0.014838 -0.349006 0.101482 0.043533 -0.274043 0.116250 0.030470 0.229549 -0.113034 -0.243783 0.183466 0.068602 0.141215 0.342802 -0.378986 0.018212 -0.146987 0.007154 -0.246092 -0.143803
v,act,ind,past,sg3 -0.203929 0.344038 -0.841711 -0.778464 -0.981623 -0.370189 -0.781223 -1.024046 -0.149252 -0.851048 0.181659 0.884926 -0.172213 0.495081 0.596211 0.421138 0.939057 0.926541 0.140096 0.118387 -0.567663 -0.476544 -0.786006 -0.150265 1.199798
nnms4-----a---- -0.164806 0.111843 -0.206397 -0.316048 0.866512 -0.259292 -0.152706 -0.978978 -0.443244 -0.116130 0.027152 1.518157 -0.316875 0.630167 0.774170 -0.482709 -0.823461 -0.563053 0.558181 -0.090583 0.562310 0.539509 0.087406 1.125163 -0.075159
pr 0.187161 -0.310119 -0.676497 -0.550967 -0.792587 -0.433365 -0.594248 -0.267087 -0.047876 -0.066503 0.340253 0.078077 0.103699 -0.009445 -0.558025 -0.481842 0.154314 0.221880 0.376306 -0.374977 -0.410528 0.265647 -0.710668 -0.851444 -0.280463
part+parttype=inf -0.135621 -0.420646 -1.518381 0.335204 -0.425642 0.840224 -1.168316 -0.082476 0.545806 -0.495980 0.588494 0.590806 -0.210225 0.666633 -0.398828 0.178789 -0.396514 0.997065 -0.782285 -0.113940 0.146545 -0.049515 -0.959335 -0.508183 -0.059447
tx -0.470615 -0.466946 -0.680374 -0.474384 0.622574 0.761955 0.365482 -1.020181 -0.068314 0.170580 -0.083058 -0.314288 0.875912 1.412785 -0.814663 0.352482 -0.999130 -0.049719 0.357812 -0.195587 -0.438924 -0.681385 -0.496433 0.545799 1.289454
n,sg,par -0.520253 0.855830 -0.441153 -0.522571 -0.454781 -0.247360 -0.692241 -1.160440 -0.202022 -0.792855 0.060297 0.663902 -0.475451 0.543500 -0.175625 0.307167 0.817874 0.580492 -0.556974 -0.166547 -0.362121 -0.360908 -1.230994 -0.104955 0.726291
nnixx-----a---8 -0.327106 0.036437 0.616022 0.363394 -0.155235 0.033840 0.203310 -0.126324 -1.033654 -0.750311 0.608801 1.302269 0.043020 0.153680 0.247363 -0.698132 -0.171401 0.342643 -0.004259 0.776400 0.605124 -0.036249 0.107453 0.430586 -0.590719
aaip4----1a---- -1.413459 -0.189992 -0.173618 0.007310 0.509967 0.385252 0.762980 0.188853 -0.423203 -0.826361 -0.144078 0.717308 -0.997133 -0.238875 1.320635 0.796333 -2.109671 -0.614658 0.221464 -1.053136 0.344009 0.647492 -0.113416 -0.304441 0.019850
mid 0.125933 -0.083829 -0.073185 -0.215426 -0.417521 0.018261 -0.373212 0.101682 0.028629 -0.285994 0.097703 0.014470 0.213908 -0.107679 -0.234693 0.189596 0.056352 0.106578 0.319309 -0.404695 0.028476 -0.139247 0.024552 -0.235868 -0.125567
pcle,cs -0.446386 0.467973 -0.596299 -0.224373 -0.409655 0.091320 -0.922364 -0.976168 -0.715084 -0.741662 0.378524 0.544658 -0.105489 0.605431 0.270797 0.431487 1.185378 0.463363 -0.386252 -0.198723 -0.467288 -0.617917 -1.097183 -0.264984 0.438186
nn+utr+sin+def+nom 0.146467 -0.070140 -0.132336 -0.215158 -0.416623 0.032321 -0.307583 0.155603 0.097559 -0.248430 0.164502 0.049146 0.254439 -0.152747 -0.126071 0.251570 0.044007 0.108108 0.386884 -0.325298 0.030062 -0.198004 -0.011430 -0.174167 -0.163103
nn+utr+plu+ind+nom 0.100653 -0.005133 -0.093194 -0.262534 -0.409696 0.036099 -0.330667 0.119973 0.104986 -0.260909 0.098496 0.014350 0.212502 -0.056818 -0.167995 0.226759 -0.022335 0.075680 0.327196 -0.361199 -0.038983 -0.197783 -0.007640 -0.223413 -0.117829
vb-s---1p-aa--- -0.720643 0.432071 0.606747 -0.612035 0.173561 -0.312242 -0.232782 -0.307527 -0.803124 0.170840 0.119738 0.812956 0.641782 -0.843619 0.264959 -0.310151 -0.408087 0.264192 0.463585 -0.253430 0.733394 0.114220 -0.993351 -0.188404 0.355609
noun+definite=ind+gender=com+number=plur -0.240760 -0.173803 -0.631802 -0.293962 -0.694630 0.464148 -1.417440 -0.701430 0.195715 -1.278171 0.373330 0.532774 0.188238 0.788728 -0.176553 0.069588 -0.323497 0.489791 -0.628546 0.183802 -0.026387 -0.672679 -0.743554 -0.863410 0.766542
dg-------2a---- -1.015200 0.272264 0.232950 0.234273 0.081912 -0.001606 0.271050 -0.059236 -0.493126 -0.184747 0.301182 0.777029 0.417413 -0.146073 0.492500 -0.008550 -0.599803 0.041251 -0.262847 -0.423508 0.446293 0.280846 -0.477623 0.281393 0.297890
det+definite=def+prontype=art 0.327117 -0.545140 -0.137373 -0.721427 -1.332210 -0.447460 -1.298361 0.352611 -0.042032 -0.895568 0.509486 0.604625 0.810181 -0.062460 -0.229294 0.101753 0.103587 0.005033 1.126921 -0.551363 0.311653 -0.130065 -0.575923 -0.635337 0.032181
nnip6-----a---- 0.692292 0.968998 -0.054661 0.534354 -0.531799 0.455488 0.346055 -0.569041 -0.029726 0.216110 0.511380 1.355804 0.439846 0.488129 -0.161652 -0.249068 -0.796471 0.763071 -1.198011 -0.031412 0.946140 -0.682634 -0.355595 -0.346434 -0.188101
vb-s---3f-aa--- -0.261558 0.285715 0.875837 -0.433882 -0.340509 -0.224554 0.498929 0.366065 -0.706383 -0.140652 -0.049463 0.623289 0.324906 0.178485 0.430759 0.029328 0.169665 -0.083005 0.276190 -0.664941 0.872839 0.284235 -0.007108 -0.169198 0.940998
vsys---xx-ap--- -0.802539 -0.277977 0.642677 -0.385736 0.361377 -0.729625 -0.213918 -0.081110 -0.477509 0.096448 0.222313 -0.100706 0.642319 0.014203 0.148604 -0.198829 -0.324259 0.365395 0.104938 -0.046231 0.978806 -0.131030 -0.097346 0.222299 0.017009
pdns4---------- -0.818849 -0.472955 0.756741 -0.149874 0.061250 -0.425840 0.044845 -0.084560 -0.032866 -0.073126 -0.019428 0.930298 0.449287 -0.808531 -0.055767 -0.156458 -0.782469 -0.037247 0.499833 -0.249696 0.552601 0.261166 -0.635980 0.219860 -0.233805
ncnsi 0.042731 0.356766 -0.072514 0.005867 0.729293 0.782582 -0.456821 -0.698991 0.412865 -0.073884 0.472647 -0.175428 0.257495 1.097160 -0.963046 -0.787688 -0.276169 -0.616919 0.725847 -0.796763 -0.131637 -0.631285 0.112981 -0.037139 0.330766
noun+definite=ind+gender=neut+number=sing -0.040121 -0.679391 -0.874545 -0.462345 -0.967380 0.094924 -1.150867 -0.240854 0.312469 -1.115847 0.389103 0.534525 -0.279781 0.903522 0.284809 0.377133 -0.142292 1.090740 -0.093348 -0.087243 0.145733 -0.608832 -0.622741 -0.622133 0.235094
noun+definite=def+gender=com+number=sing -0.147579 -0.226067 -1.024155 -0.343727 -0.291611 0.638738 -1.056111 0.108692 0.858114 -1.097172 0.282759 0.738010 -0.187086 1.106370 -0.270382 0.154492 0.022926 0.478107 -0.437146 0.022464 -0.012884 -0.250686 -0.442313 -0.614006 0.072053
nnis3-----a---- 0.081407 -0.400880 -0.500938 0.301390 -0.012676 0.306958 -0.339124 0.958044 -0.901563 -0.645626 -0.152987 0.816330 1.131584 0.233617 0.793839 -0.739290 -0.507244 0.823789 -0.525952 0.114962 0.295068 -0.430779 -0.384993 0.061597 0.454550
adp+case=acc -1.019967 0.118004 -0.215942 0.101117 0.749326 0.446744 0.488041 -0.361785 -1.596252 0.338576 0.199963 0.392619 0.415061 0.433763 -0.780979 0.470503 -0.589659 -0.565412 0.912022 0.133420 0.955695 -0.677621 -0.315891 0.091580 0.817560
aais7----1a---- -1.161871 -0.328428 -0.218831 -0.062804 -0.218186 -0.112831 -1.077683 0.636486 -1.247951 -0.856801 0.267287 0.097979 0.669047 -1.128002 -0.079138 0.058342 0.348135 1.435647 -1.320601 0.535590 0.913652 -1.174666 0.410354 -0.534019 1.026912
nnis6-----a---1 0.865922 0.425453 0.311207 0.558685 -0.655325 0.044734 0.708575 0.090360 -0.194672 0.369835 0.392305 0.901958 1.015862 0.213863 0.480110 -0.501527 -0.863371 0.292905 -0.549687 -0.047850 1.197684 0.060325 -0.518313 -0.343734 -0.601738
psxxxzs3------- -0.184263 -0.160137 0.043688 0.470565 0.262495 -0.262686 -0.131641 0.216040 -0.565124 -0.014198 -0.216324 0.559966 0.388521 -0.141909 0.209201 -0.125393 -0.186125 0.011786 -0.139734 0.064028 0.849566 0.006059 0.492783 -0.001512 0.180233
nnmxx-----a---8 0.530304 0.262451 0.600160 -0.431105 0.657182 -0.316432 -0.336576 0.451888 -1.429395 -0.138009 0.031951 1.083109 -0.526470 -0.306519 0.338975 -0.676627 -0.083795 0.626350 0.874100 1.380757 0.803622 0.126303 -0.502488 1.262568 -0.349197
nnns3-----a---- -0.280558 -0.146554 -0.502198 0.030477 0.311946 0.166753 -0.658009 0.942453 -0.734199 -0.955912 -0.182382 0.142786 1.064158 0.063222 0.827692 -0.633516 -0.844360 0.351271 -0.901920 -0.167613 -0.055286 -0.921952 -0.244686 0.053652 0.438568
aans6----1a---- 1.119762 0.116944 0.701248 0.547703 -0.800163 -0.005290 0.893809 -0.229371 -0.141668 1.455676 -0.401724 0.458480 -0.396246 0.388889 0.005603 0.527099 -1.054920 1.080775 -0.447322 0.006418 1.669151 -0.638523 0.319886 -0.505489 0.175639
aamp2----1a---- -0.327656 0.248098 -0.344203 1.254645 0.527498 -0.099356 0.186021 0.144345 -0.591133 -1.580868 0.289123 0.295890 0.479160 0.658956 0.112279 -0.136919 -0.389317 0.424392 0.302078 0.809324 0.682757 -0.377160 0.164990 -1.130673 -0.274677
verb+verbform=inf+voice=act -0.134908 0.504753 -0.990148 -0.364692 -0.197234 0.626485 -0.745450 -0.271373 0.101517 -0.821803 0.429396 0.778141 -0.143561 1.380851 0.359535 0.730424 0.263328 0.604300 -0.833227 -0.411605 -0.048521 -0.013341 -0.608074 -0.865060 0.939259
aamp1----1a---- -0.169195 -0.045525 -0.324530 0.792049 -0.105661 0.055251 -0.569357 -1.388800 0.178252 -0.890779 -0.217579 1.889190 0.283760 -1.196932 0.556591 0.043021 0.605594 -0.186214 -0.145150 -0.377341 0.898385 0.136046 -0.737934 0.126288 0.650055
propn+case=nom+gender=masc+number=sing 0.471734 -0.001147 -1.229974 -0.208700 0.313124 0.116896 -0.118839 0.480499 -0.170477 0.051072 -0.643532 1.212474 -0.408559 -0.156688 -0.489272 0.727284 -1.203074 -0.224910 1.906507 0.297934 0.958538 -0.243975 -0.904385 -0.847516 -0.030547
nnmp4-----a---- -0.583534 -0.619337 0.136626 -0.156800 -0.024009 0.386054 -0.244967 -0.168943 -0.216834 -1.001218 -0.443219 0.403564 -0.100216 -0.325753 0.336845 -0.218569 -0.756631 -0.653995 0.210985 -0.213978 0.916873 -0.043934 -0.043630 0.385363 -0.611984
clitic 0.168194 -0.192395 -0.218932 -0.582176 -0.830715 -0.181366 -0.765853 0.152917 0.157456 0.069366 0.011055 0.205145 0.225935 -0.348960 -0.591137 0.051707 -0.093955 -0.061051 0.294480 -0.293959 -0.181487 0.020037 -0.099542 -0.399973 -0.506111
aaxxx----1a---- 0.542358 0.142982 -0.254936 0.182420 -0.222985 -0.134321 0.257518 -0.148487 -0.923953 -0.158074 0.421193 1.185011 -0.126486 0.460165 0.169933 0.117513 0.372693 0.400007 0.928604 0.668002 1.095317 -0.505095 0.180024 0.547612 -0.161673
v,act,infa,lat -0.481593 0.467663 -0.724251 -0.593045 -0.495789 0.002768 -0.839367 -0.843381 -0.378763 -0.318984 0.309360 0.591624 -0.043138 0.571782 0.234470 0.613269 0.779002 0.609849 -0.741549 -0.133217 -0.238220 -0.453860 -1.096421 -0.280329 0.586316
ncfsd 0.051844 -0.110870 -0.706564 -0.129584 0.560559 0.484663 -0.576907 -0.535289 0.132624 -0.077541 -0.354057 0.094319 0.100793 1.046655 -0.918458 -0.541990 -0.606907 -0.917132 0.788927 -0.957785 0.043204 -0.480129 0.031443 -0.083904 0.499287
v_sub 0.265649 -0.160043 -0.116837 -0.683211 -0.846277 -0.125748 -0.528263 0.129350 0.298659 0.030249 -0.021179 0.242097 0.298558 -0.098799 -0.598380 -0.031495 -0.122240 0.128648 0.415181 -0.367360 -0.111536 0.047164 -0.030794 -0.626462 -0.362460
x 0.158630 -0.038834 -0.464494 -0.964608 -0.958042 -1.179054 -1.085760 0.722701 -0.697640 -1.443178 0.107895 -0.155310 0.127268 0.637939 -0.744395 1.038162 0.206066 1.288578 -0.123963 -0.054068 -0.286580 -0.634707 -0.054068 -0.296044 -0.328373
vb+inf+akt 0.075740 -0.066171 -0.132316 -0.195800 -0.347926 -0.005681 -0.309704 0.085666 0.097310 -0.210968 0.110661 0.031136 0.132470 -0.105526 -0.218763 0.207414 0.029607 0.100984 0.356572 -0.327750 0.045637 -0.116132 -0.017453 -0.234302 -0.093347
p4ys1---------- -0.319385 0.011359 0.288138 -0.578289 0.529166 -0.351123 0.547078 -0.238263 -0.828509 -0.028415 0.046169 0.399170 0.167242 -0.846456 -0.085007 -0.500564 -0.307620 0.563419 0.516541 0.630027 0.925843 -0.177727 -0.624815 0.787754 -0.162652
noun+case=gen+gender=masc+number=sing -0.014001 0.271784 0.455516 -0.217906 0.133874 0.701036 -0.017139 -0.100063 -0.404702 -0.379566 0.486749 0.791245 -0.223285 0.135336 -1.274842 0.048616 -1.457316 -0.004192 0.320075 -0.132788 1.236020 -0.736313 -0.501666 -0.807704 0.417341
npmsi 0.437251 0.000731 -0.567928 -0.454086 -0.521456 0.063044 -0.105777 -0.520661 0.731117 0.436488 0.036852 0.540723 0.847638 1.267452 -1.217814 0.046737 0.142151 -0.279353 1.394439 -1.014082 0.573432 -0.846194 0.237919 -0.409476 0.262323
nn+neu+sin+ind+nom 0.103558 -0.021717 -0.119703 -0.201722 -0.330149 0.035363 -0.307414 0.074609 0.058047 -0.216435 0.125827 0.059476 0.195233 -0.063497 -0.130251 0.165246 0.017852 0.124840 0.272655 -0.278597 0.005473 -0.131599 -0.014825 -0.119176 -0.104278
ppxta -0.262114 -0.772087 -1.030842 -0.908101 -0.060158 0.106982 -0.000953 -0.657228 0.408284 -0.194800 -0.698707 0.386951 0.252506 0.792785 -0.938380 -0.157011 -0.914761 -0.823186 0.486672 -0.401993 -0.375733 -0.515691 -0.646325 0.133033 0.724211
num+numtype=card 0.198473 0.014880 -0.381034 -0.367314 -0.308115 1.238638 -0.617262 0.214805 0.777466 -1.166262 0.669356 0.261275 -0.473950 0.568239 -0.040913 0.202531 -0.538828 0.641219 -0.377324 0.396643 0.385718 -0.818995 -0.530897 -1.107205 0.637416
noun+case=gen+gender=fem+number=sing -0.397571 -0.182945 -0.047131 -0.478238 -0.059695 0.637008 -0.149163 0.493180 -0.318439 -0.224096 0.314382 0.989713 -0.267948 0.780028 -1.134801 0.534022 -0.663518 0.200127 0.707942 0.194217 0.816040 -1.199781 -0.022035 -0.940144 0.231846
nnfxx-----a---- 0.233464 0.241134 -0.341965 0.123417 -0.394893 -0.129713 0.378283 0.114192 -1.077586 -0.470319 0.400381 1.273489 -0.326661 0.141403 0.274238 -0.173745 0.190051 0.086724 0.343501 0.854951 0.708370 0.082457 0.132401 0.356813 -0.518187
v_pp 0.201800 -0.151089 -0.093084 -0.654796 -0.763254 -0.102607 -0.651337 0.053939 0.178910 -0.030035 -0.005353 0.091853 0.226610 -0.123075 -0.622674 0.120872 -0.092748 0.036181 0.403461 -0.424456 -0.081357 0.044917 -0.048241 -0.492467 -0.373515
adp+case=gen -0.209166 0.071483 0.323986 0.190622 0.248500 0.962505 -0.560158 0.218154 -0.632880 -0.625979 0.152999 0.533948 0.057886 0.375847 -0.808392 0.349022 -0.777110 -0.155496 0.689095 -0.024757 1.003876 -0.757701 -1.030674 -0.460812 0.503397
noun+case=nom+gender=masc+number=sing 0.315392 -0.049547 0.033207 0.187497 0.409984 0.533978 -0.504028 0.480446 -0.188853 -0.694295 -0.442255 1.285246 -0.333217 0.493336 0.130198 0.320517 -1.011026 0.364333 1.223025 -0.240515 0.731550 -0.987787 -0.464945 -0.686464 -0.100600
vsqw---xx-ap--- -0.137495 -0.795720 -0.179359 0.137513 -0.256693 0.308250 0.503148 -0.025457 -0.826792 -0.087214 -0.610767 0.342401 0.106323 0.219080 0.218819 0.192401 -0.368602 0.419382 -0.489783 -0.173886 1.065602 0.577027 0.381658 0.099107 0.561650
bn 0.488100 -0.212969 -0.664491 -0.502980 -0.679900 -0.193765 -0.663708 -0.104280 0.059138 -0.083776 0.336390 0.214057 0.051403 0.126783 -0.351339 -0.466574 0.096913 0.241922 0.686155 -0.254846 -0.383988 0.377252 -0.615026 -0.779122 -0.180483
nnfp7-----a---- -0.299909 -0.356082 0.404261 0.072897 -0.244441 0.505099 -1.354147 -0.401069 -0.695751 -0.474747 -0.137709 0.578812 -0.755567 -0.045123 0.340266 0.107118 -0.166541 1.101359 -0.806237 -0.845146 0.934660 0.385349 0.281410 0.161643 0.477290
adj+case=nom+degree=pos+number=sing+number[psed]=none+number[psor]=none+numtype=none+person[psor]=none+verbform=none 0.329460 -0.579620 -0.178378 -0.647833 -1.249687 -0.473882 -1.288291 0.246870 -0.134416 -0.942786 0.468945 0.767373 0.489347 0.043577 -0.441804 -0.095313 0.261832 -0.109874 0.854569 -0.437267 0.253464 -0.224155 -0.476361 -0.679564 -0.267432
a,sg,nom -0.592262 0.001103 -0.692041 -0.478815 -0.908446 0.219423 -0.846527 -0.739232 -0.431509 -0.887184 0.331207 0.368406 -0.232405 0.331049 0.478951 0.911445 0.778590 0.572611 -0.385867 -0.003042 -0.291140 -0.670859 -1.164828 -0.193630 0.658488
intj 0.412465 -0.727056 -0.869192 -0.870083 -0.493523 -0.326137 -0.082743 -0.564574 -0.386111 -0.729881 -0.103931 0.456394 -0.069239 0.157640 -0.182928 0.309382 0.381800 0.748794 -0.359975 -0.107116 -0.809094 -0.064753 -0.823951 -0.132520 -0.174006
verb+mood=ind+tense=past+verbform=fin+voice=act 0.313470 0.281656 -1.181900 -0.347722 -0.291735 0.906222 -1.011726 0.374248 0.023893 -0.897396 0.597963 0.862503 0.093749 0.546499 0.080902 0.653066 0.286440 0.314774 -0.144454 -0.196665 -0.297317 -0.164934 -0.883190 -0.717475 0.569039
sym 0.184736 0.849195 0.274573 -0.163473 -1.239843 0.300699 -0.906570 -1.616920 -0.329637 -1.160746 1.875427 0.443661 -0.253329 0.970673 -0.259202 0.147370 0.356842 0.469387 -0.587307 0.333659 -1.237535 0.250465 -0.499055 -0.129284 -0.487495
nnip7-----a---- -0.562000 -0.049776 0.409746 -0.653435 -0.448635 0.161679 -1.180300 -0.646096 -0.618434 -0.820108 -0.105663 0.655579 -0.940162 0.046549 0.591108 -0.090291 -0.094509 0.938876 -0.722754 -0.411812 0.557647 -0.371376 0.196416 0.296578 0.124997
n,prop,sg,nom -0.320921 0.209852 -0.611145 -0.531283 -0.243690 -0.200110 -1.287166 -0.741768 -0.334410 -0.847811 0.172493 0.529032 -0.195538 0.333946 0.024794 1.225038 0.527596 0.648099 -0.528298 -0.170675 -0.162674 -0.397348 -0.661181 0.022704 0.467966
ap 0.308641 -0.388415 -0.468880 -0.441747 -0.382230 -0.632602 -0.373382 -0.147151 -0.086177 -0.244152 0.531485 -0.130759 -0.104011 0.437957 -0.714370 -0.557407 -0.127977 0.223653 0.167741 -0.393077 -0.527721 -0.442392 -0.590675 -0.580063 -0.661555
rv--2---------- -0.569010 0.195723 0.363101 0.546951 0.461707 0.747501 -0.003922 0.572647 -0.437511 -0.052990 0.112792 0.132617 -0.150350 0.296494 0.767667 -0.840816 -0.134328 -0.278860 -0.079296 0.112138 0.470585 0.086974 -0.160650 -0.154271 0.186695
vm 0.247127 -0.091674 -0.685845 -0.474624 -0.679980 -0.105733 -0.619704 -0.070340 0.033810 -0.129556 0.322118 0.114695 0.145086 0.155999 -0.433737 -0.205967 0.335533 0.301501 0.461408 -0.172037 -0.385313 0.277339 -0.787827 -0.787209 -0.215210
ncmpi 0.405036 0.336915 -0.028063 -0.047536 0.419710 0.893085 -0.618328 -0.819359 0.552132 -0.414288 -0.017033 -0.177850 -0.099581 0.613685 -0.627177 -1.006373 -0.757597 -0.603847 0.623960 -0.497165 0.350076 -0.656114 -0.095032 -0.152587 0.492241
ncfpi 0.382082 0.411310 0.195953 -0.064951 0.577727 1.010445 -0.544477 -0.673687 0.371930 -0.492587 0.239759 -0.404971 0.214643 0.835941 -0.872108 -0.880953 -0.718082 -0.549431 0.653805 -0.604281 0.543091 -0.544459 -0.123499 -0.127635 0.690866
n,pl,nom -0.892946 0.758924 -0.520009 -0.303784 -0.601646 -0.697994 -0.798634 -0.839007 -0.106097 -0.676133 0.149010 0.723844 -0.188417 0.905001 -0.147613 0.486784 0.606410 0.662147 -0.475663 0.022952 -0.217965 -0.683799 -0.943018 -0.213287 0.219522
nnnxx-----a---- 0.211625 0.215839 0.287466 0.052933 -0.004804 0.085066 0.411935 0.084522 -0.896256 -0.384453 0.363193 1.098088 -0.019297 0.134530 0.090461 -0.279273 -0.178449 0.511230 0.088052 0.775008 0.937759 -0.189988 -0.061075 0.121126 -0.622502
aafp6----1a---- 0.344245 0.667922 0.554256 0.384650 0.322282 -0.761233 0.410750 -0.219340 0.155205 -0.064736 0.377081 0.921620 0.985950 0.697044 0.680118 0.255823 -0.073458 0.582891 -0.846891 0.105257 1.091800 -2.226846 -0.677962 -1.131171 0.011244
npfsi 0.861308 -0.421463 -1.002527 -0.122489 -0.419615 0.293833 -0.623239 -0.361322 0.269559 0.051209 -0.563899 -0.029944 0.244485 1.240683 -1.207216 -0.417005 -0.035809 -0.144306 1.019555 -0.617615 0.548094 -0.971790 0.448650 -0.055012 -0.074011
det+gender=com+number=sing+prontype=ind -0.056294 -0.513124 -0.578964 -0.063513 0.156099 0.974508 -1.507387 -0.344287 0.761168 -0.122736 0.423160 0.827239 -0.302317 0.497366 -0.094310 0.950164 -0.425399 0.710550 -0.740099 -0.353239 0.125639 -0.612088 -0.185107 -1.017013 0.161209
rv--7---------- -0.642168 0.153537 0.270902 0.433529 0.382927 -0.020001 -0.926513 -0.541479 -1.097839 -0.143707 -0.272275 -0.056554 -0.221518 -0.089048 0.451951 0.054230 0.157709 0.750289 -0.393299 -0.398049 0.810220 -0.321037 0.510728 0.452244 0.761754
verb+number=sing+person=3+tense=pres -0.225222 0.467901 -0.136947 -0.159491 0.544589 0.266756 -0.235192 0.696093 -1.103111 -0.206050 0.139917 0.625031 0.421337 0.511455 -1.000503 0.160264 -0.902074 -0.032813 0.674906 -0.827824 0.851239 0.074391 -0.238114 -0.016463 0.575486
ncmsh -0.019048 0.060547 -0.415205 -0.078137 0.459147 0.716537 -0.745043 -0.337296 0.042898 -0.015963 -0.267575 0.139354 0.227897 1.100215 -0.895269 -0.506453 -0.125182 -0.835457 0.991393 -1.106872 0.086973 -0.624865 -0.108231 -0.319027 0.460882
dd 0.421197 -0.243027 -0.777705 -0.610945 -0.273095 -0.046840 -0.365431 -0.578699 0.487196 0.277966 -0.058287 -0.184968 0.289422 0.677004 -0.800233 -0.453578 -0.187273 -0.511862 0.733639 -0.471860 -0.772507 -0.270255 -0.499282 -0.054141 0.186734
psxxxxp3------- -0.415932 -0.056479 -0.064137 0.452111 0.547693 -0.169707 0.108306 0.441898 -0.470721 -0.436834 -0.176405 0.699926 0.286886 -0.435948 0.479734 0.023025 -0.374489 -0.192209 -0.141019 -0.001569 0.783683 -0.198312 0.401242 -0.181441 0.220102
ncnsd 0.040545 -0.071532 -0.594457 -0.050558 0.550638 0.788421 -0.775357 -0.451601 0.071313 -0.165546 -0.382104 -0.092441 0.061412 1.081835 -0.894673 -0.614608 -0.425907 -0.881115 0.854735 -0.847033 0.002864 -0.642603 -0.032555 -0.216068 0.552448
p4fs1---------- -0.229421 -0.659226 -0.345832 -0.378165 0.151366 0.113984 0.931841 -0.235597 -1.218265 -0.232875 -0.576605 0.431109 0.025322 -0.773833 -0.041817 -0.161683 -0.178536 0.530605 0.064875 0.358899 0.824242 -0.027208 -0.164241 0.427206 -0.015800
vpitf-r3s 0.359237 -0.011442 -0.865488 -0.151191 0.612340 0.424958 -0.683868 0.044974 0.242210 0.504748 0.363129 0.402514 0.666790 0.994284 -1.009596 -0.468960 -0.384644 -0.131688 0.720645 -0.452415 -0.252903 -0.101609 -0.510616 0.617376 0.810246
vsns---xx-ap--- -0.635566 0.011824 0.411926 0.380036 0.271837 0.424792 0.638536 0.083339 -0.939599 -0.428867 0.334364 0.170619 -0.145288 -0.127908 -0.065466 0.105813 -0.744827 0.297539 -0.797462 -0.239136 0.675725 0.245419 -0.454996 0.197954 0.574086
adj+degree=pos+number=plur+variant=long -0.023937 0.038145 -0.476812 -0.292853 -0.587378 0.675853 -0.338864 -0.002101 0.833232 -0.996181 1.020742 0.577776 -0.217015 0.761629 0.104579 -0.044315 -0.356503 0.761730 -0.681520 0.026824 0.174894 -0.718037 -0.624323 -0.946447 0.852436
vxitf-r3s 0.048718 0.026353 -0.560256 -0.169228 0.778756 0.587418 -0.722055 0.131041 -0.113120 0.137611 -0.000475 0.471377 0.397535 0.860362 -0.919327 -0.088827 -0.294425 -0.133005 0.835239 -0.661700 -0.171709 -0.090745 -0.755542 0.078357 0.647956
nnxxx-----a---8 0.270208 -0.539143 0.509949 -0.143852 0.323056 -0.058371 0.855405 0.430672 -1.316564 -1.025615 0.193987 1.596574 -0.371649 0.206857 0.345464 -0.127713 0.422537 0.596671 0.240146 1.216318 0.790954 -0.070173 -0.352624 0.561389 -0.192478
nnis2-----a---1 -0.305415 0.506818 0.934011 0.468831 0.480515 0.553501 0.082839 -0.380532 -1.070957 -0.150995 0.068040 0.543987 0.053449 -0.162230 0.250472 -1.019084 -0.605406 0.605331 -0.425058 0.187331 0.491186 0.337950 0.845283 0.193199 -0.257864
vpys---xr-na--- -0.345729 0.305170 0.731674 -0.170396 0.174605 -0.447413 0.338005 0.198230 -0.777283 0.000963 -0.215384 0.594741 0.183699 -0.529796 0.223451 -0.479058 -0.218608 -0.038049 0.557658 -0.472760 0.580252 -0.290451 -0.339495 0.316748 0.532154
verb+definite=ind+number=sing+tense=past+verbform=part,trans 0.082566 0.091609 -1.106106 -0.027260 -0.058418 0.463439 -0.945900 -0.412451 0.470414 -0.835878 0.489112 0.563559 -0.390775 1.044125 -0.073014 0.515798 0.209809 0.501995 -0.431539 -0.168665 0.057913 -0.059670 -0.619096 -0.896160 0.498185
nnmp7-----a---- -0.542915 -0.113712 0.564195 -0.204383 0.213651 0.590758 -1.146679 -0.401390 -0.744654 -0.454160 -0.178699 0.624355 -0.641220 -0.169312 0.296856 -0.103921 0.003861 0.417614 -0.807161 -0.268049 0.907506 -0.213222 -0.210668 0.069217 0.320125
jj+pos+utr/neu+plu+ind/def+nom 0.037202 -0.013537 -0.118389 -0.156167 -0.224255 0.021555 -0.216167 0.036954 0.011076 -0.161145 0.059880 0.054740 0.129997 -0.015446 -0.121464 0.099941 0.035390 0.129834 0.207433 -0.234257 -0.005127 -0.100225 -0.049165 -0.174717 -0.087913
noun+case=nom+number=sing+number[psed]=none+number[psor]=none+person[psor]=none 0.276945 -0.499817 -0.256011 -0.552436 -1.170343 -0.506239 -1.254621 0.114449 -0.244888 -0.705759 0.234103 0.714229 0.232734 -0.051171 -0.499867 -0.086672 0.238234 0.002801 0.860475 -0.308816 0.179834 -0.327723 -0.561228 -0.616746 -0.358616
dq 0.459777 0.011785 -0.729971 -0.471039 -0.054092 0.096238 -0.394200 -0.493520 0.367208 0.290427 0.070428 -0.408790 0.213904 0.633946 -0.894777 -0.345471 -0.219854 -0.308091 0.779834 -0.295688 -0.658476 -0.200504 -0.496793 -0.007371 0.336326
nnmp3-----a---- -0.124387 -0.203806 -0.253891 0.118246 0.055325 0.255068 -0.287841 0.222535 -0.219386 -0.310324 -0.013873 1.014877 0.013241 -0.008185 0.028282 -0.142079 -0.715778 0.392157 0.006379 -0.294449 0.419363 0.163807 -0.022725 0.093214 0.167608
noun+case=gen+gender=masc+number=plur -0.283370 0.494769 -0.106119 -0.296674 0.364961 0.780923 -0.762627 0.244746 -0.249996 -0.494362 0.394503 1.119172 -0.394872 0.271419 -0.730813 0.063319 -1.121062 -0.255217 0.653030 0.090276 1.201349 -0.545781 -0.331245 -0.443636 0.785157
noun+case=acc+gender=fem+number=sing -0.086010 0.245859 -0.206345 0.306585 0.230615 0.649429 -0.145387 -0.120105 -1.097680 -0.204101 0.335403 0.959695 -0.101152 0.342783 -1.042407 0.007855 -1.370704 0.416927 0.296173 -0.078916 0.512406 -1.053954 0.103003 0.040332 0.278016
hmsi 0.921860 -0.407764 -0.671979 -0.202888 -0.299814 0.233645 -0.607721 -0.362966 0.180303 0.112046 -0.164488 0.111711 0.657847 1.573567 -1.722043 -0.188574 0.528624 0.238499 1.030705 -1.100561 -0.096196 -0.743904 -0.247210 0.192364 -0.448312
noun+case=nom+gender=fem+number=sing -0.351574 -0.029558 -0.108393 -0.398492 0.396078 0.365632 0.199400 -0.105549 -0.542477 -0.355625 -0.187940 0.751323 0.234303 0.794833 -0.792848 0.653593 -1.156652 0.002159 0.701479 -0.586518 0.631106 -0.739237 -0.088976 -0.492054 0.354611
nnnxx-----a---8 0.056202 0.059249 0.413595 0.173203 0.102750 -0.051831 0.266790 0.157148 -0.644159 -0.513250 0.241700 0.859233 -0.008462 -0.015784 0.294524 -0.406724 -0.256285 0.055549 -0.203727 0.548702 0.689474 -0.069521 -0.073807 0.101828 -0.387460
vstp---xx-ap--- -0.324996 0.030096 -0.022734 0.475923 0.247711 -0.030465 -0.380652 -0.008375 0.516370 -0.358809 -0.217922 1.172733 -0.488377 -0.526278 0.894833 -0.036714 -0.438183 0.573078 -0.430726 -0.461338 0.467713 -0.118828 0.082506 0.378540 0.606293
verb+gender=masc+number=sing+verbform=part 0.258302 0.074613 -0.901757 0.015832 -0.091095 -0.119424 -0.105900 0.473923 -0.871570 0.144019 -0.594523 1.238661 0.365944 0.041295 -0.540445 -0.026454 -0.991338 0.126718 1.281121 -0.431344 1.302163 -0.416378 0.092447 0.026883 0.372725
di 0.310599 -0.126272 -0.570616 -0.431260 -0.547549 -0.404854 -0.528009 -0.213407 0.147749 -0.051586 0.234635 -0.027316 0.033368 0.342572 -0.352158 -0.523509 0.268432 -0.067584 0.396735 -0.270481 -0.368743 -0.324768 -0.751213 -0.470503 -0.165496
pdzs6---------- 0.430076 -0.021638 0.706351 0.237851 0.076121 -0.571261 1.359178 -0.185275 0.341496 0.544967 0.166906 0.850650 0.323080 -0.078706 0.190661 0.116172 -0.944065 0.369308 -0.349551 -0.247537 1.261899 -0.476464 -0.527199 -0.346429 -0.002504
aaxxx----1a---8 0.078061 -0.103386 0.269387 -0.011152 0.147743 -0.057075 0.566461 0.195925 -0.883364 -0.849423 0.071951 1.360703 -0.051633 0.185834 0.407516 -0.409664 0.170290 0.310169 0.090647 0.818526 0.905523 -0.298153 -0.014859 0.371998 -0.158235
a-pi 0.468714 0.248937 -0.865173 -0.039363 0.144698 0.954605 -0.441190 -0.398364 0.141611 -0.086101 -0.489913 -0.080939 0.246809 0.746689 -0.485412 -0.492772 -0.863708 -0.277458 1.298016 0.003237 0.939579 -0.719508 0.211981 -0.021440 1.162225
aanp2----1a---- -0.229352 0.916941 0.360123 0.431437 0.113607 0.593885 -0.272506 -0.679478 -0.454767 -1.428767 0.401403 0.076257 0.458244 0.008984 0.674034 -0.310495 -0.594576 -0.237671 -0.011630 1.323982 0.879029 0.625609 -0.004923 0.013699 0.610764
vb-p---3p-na--- -0.235323 0.504371 0.120368 0.302919 -0.079268 -0.108273 -0.023735 -0.005875 -0.037643 -0.745626 -0.212068 1.039264 -0.114025 -0.644537 0.508905 -0.118527 -0.102970 0.192599 0.032046 -0.556005 0.425944 -0.360564 -0.081506 0.286208 0.492297
pdzs2---------- -0.236961 -0.272049 0.733305 0.754570 0.639614 0.099227 0.055224 0.042910 -0.755010 -0.240380 -0.057275 0.211318 0.142350 -0.544598 0.166472 -0.653323 -0.478660 -0.147063 -0.229941 0.356086 0.689606 0.203303 0.323399 0.113232 0.585529
rg+nom 0.070488 -0.059550 -0.105625 -0.157453 -0.260912 0.009167 -0.275650 0.034396 0.028804 -0.196693 0.087336 0.027403 0.132967 -0.047870 -0.174361 0.098764 0.027428 0.073722 0.235103 -0.243415 -0.013121 -0.139215 -0.003967 -0.181776 -0.072485
noun+definite=ind+gender=neut+number=plur 0.002035 -0.195197 -0.656595 -0.216383 -0.620960 0.365786 -1.132154 -0.461402 0.176360 -1.199854 0.268640 0.465527 0.034284 0.846982 -0.154218 0.185656 -0.216179 0.389975 -0.482082 0.154959 0.018944 -0.568291 -0.603056 -0.785770 0.487203
nnnp4-----a---- -0.634095 0.275831 -0.172289 -0.023922 0.409373 -0.073008 -0.123605 -0.611673 -0.344378 -0.584942 0.096714 0.994614 -0.168635 0.133089 0.407877 -0.918682 -0.526965 -0.383329 -0.163199 -0.727489 0.741142 -0.110034 -0.272997 -0.202343 -0.188863
verb+verbform=inf -0.331258 -0.142941 -0.283618 -0.111732 0.568299 0.233755 0.057086 -0.079656 -1.078733 -0.190459 -0.116459 0.805930 0.469223 0.491972 -0.807179 -0.067214 -1.059430 0.041768 0.554714 -0.326405 0.663261 -0.601659 -0.322565 0.352158 0.632408
n,pl,par -0.675141 0.411857 -0.450589 -0.269355 -0.275249 -0.235424 -0.780874 -0.833534 -0.274381 -0.763271 0.027686 0.617902 -0.316068 0.244280 -0.166179 0.564283 0.728640 0.652496 -0.439540 -0.057112 -0.231818 -0.615678 -1.046145 -0.211157 0.427753
vpptf-o3s 0.498220 0.067707 -0.720006 -0.101999 0.323353 0.411937 -0.659747 -0.093519 0.334995 0.575393 0.370132 0.479968 0.789088 1.173684 -1.200831 -0.440863 0.032532 0.005440 1.026543 -0.736316 -0.043696 -0.485754 -0.288877 0.389379 0.488493
noun+animacy=inan+case=acc+gender=masc+number=sing 0.171733 -0.008843 0.107622 0.034507 0.833802 0.506211 -0.106449 -0.194039 -0.937129 -0.483233 0.294407 0.525356 -0.109439 0.414837 -1.271093 -0.134457 -1.496987 0.307086 0.108969 -0.237200 0.526438 -0.641646 -0.244721 -0.037103 0.216687
aans7----1a---- -0.407344 -0.614445 0.725206 0.055956 0.258720 0.175863 -1.650081 -0.188279 -0.762412 -0.553246 -0.676664 0.106444 -0.931617 -0.360955 0.014620 0.623137 0.525822 0.734296 -0.699207 -0.322194 1.265344 0.019932 0.561483 -0.152364 0.903028
nn+neu+sin+def+nom 0.069904 -0.042652 -0.103514 -0.118520 -0.226361 0.020084 -0.221948 0.076091 0.063339 -0.157707 0.086059 0.078128 0.120388 -0.031957 -0.084812 0.095930 0.002570 0.076018 0.217869 -0.207906 0.008349 -0.114530 -0.031735 -0.109052 -0.043694
v,neg,act,sg3 -0.175279 0.556341 -0.699297 -0.881555 -0.505482 0.158536 -0.765629 -0.625498 -0.306034 -0.735936 0.050815 0.810635 0.086378 0.385506 0.787011 0.232756 1.015969 0.302917 -0.119795 0.167384 -0.510293 -0.372433 -1.011409 -0.395697 0.555119
db------------1 -0.544842 -0.022378 0.166872 0.164282 0.153941 -0.005206 0.226796 -0.176441 -0.435387 -0.078349 0.002650 0.651889 0.150329 -0.366542 0.279885 0.102745 -0.266183 0.370129 -0.215142 0.026595 0.678997 0.254476 -0.468786 0.348893 0.059679
fc 0.238306 0.067588 -0.478361 -0.366985 -0.643023 -0.454635 -0.348856 -0.248734 -0.038126 -0.053752 0.323000 -0.173421 0.064199 0.312153 -0.304814 -0.289153 0.159756 0.232114 0.250614 -0.242805 -0.317289 -0.381432 -0.538971 -0.351359 0.013455
aams2----1a---- 0.496581 0.820880 0.016640 -0.166683 0.101645 -0.053688 -0.685405 0.027508 -0.974810 -0.043406 0.138460 0.056089 0.711720 -0.298065 0.762980 -0.801289 0.324328 -0.489706 0.012946 1.359246 1.032913 0.363045 -0.155019 0.387542 0.377723
pdzs7---------- -0.702002 -0.579173 0.146451 -0.161586 0.354573 -0.111414 -0.259373 0.028846 -0.833013 -0.454036 0.033909 0.881640 0.033576 -0.687027 -0.041705 0.041456 -0.054362 0.531748 -0.510729 -0.078057 0.727724 -0.163065 -0.421764 0.126364 0.388879
nnnp1-----a---- -0.364879 0.159100 -0.157819 0.311811 0.268690 0.609802 0.405342 -0.131707 0.123666 -0.444094 -0.014885 1.332380 -0.223801 -0.039544 0.014641 -0.374638 0.042450 0.561587 -0.648117 -0.532039 0.700823 0.203683 -0.640238 0.410295 0.041195
aaip6----1a---- 0.428293 0.633491 0.541382 0.143466 0.392498 0.552082 1.099336 -0.574843 -0.058593 0.582361 0.567301 0.578609 0.603997 0.784212 -0.058485 0.701082 -0.353332 0.066024 -1.083770 0.043192 1.444508 -0.846977 0.103892 -0.792821 0.634046
jj+pos+utr+sin+ind+nom 0.096844 -0.069149 -0.060012 -0.147610 -0.187735 0.024286 -0.238719 0.044405 0.004117 -0.118492 0.044603 0.052348 0.117796 -0.026802 -0.181526 0.083561 -0.023477 0.016644 0.204249 -0.184937 0.008604 -0.099581 0.032634 -0.094310 -0.059923
pron+case=acc+gender=neut+number=sing+person=3+prontype=prs -0.116644 -0.318223 -1.232986 0.209959 0.222858 0.180311 -0.840618 -0.267605 0.546828 -0.882416 0.170622 0.687641 -0.517081 0.877738 -0.246186 0.220952 -0.241930 0.228757 -0.397742 -0.354433 -0.121513 -0.135958 -0.686438 -0.481075 0.380472
noun+definite=def+gender=neut+number=sing -0.088907 -0.333653 -0.815997 -0.320188 -0.131827 0.559119 -0.863641 0.043377 0.768100 -0.928651 0.261830 0.574084 -0.247270 1.128148 -0.351037 0.041866 -0.028750 0.372584 -0.449562 -0.098024 0.074398 -0.413106 -0.382562 -0.621827 0.029976
dt+utr+sin+ind 0.095924 -0.053959 -0.050098 -0.109895 -0.233325 0.029539 -0.213318 0.029042 -0.026278 -0.138857 0.019205 0.055852 0.136287 -0.041608 -0.188231 0.077007 -0.005843 0.029518 0.188574 -0.174284 0.040634 -0.098055 -0.009559 -0.103586 -0.054998
n,sg,ill -0.470165 0.408435 -0.471883 -0.306879 -0.461239 0.094359 -0.802637 -0.949770 -0.114299 -0.605589 0.108803 0.362870 -0.251259 0.442398 0.118586 0.453183 0.534397 0.589300 -0.448157 -0.230146 -0.286076 -0.394504 -0.863998 -0.097277 0.413281
afsi 0.500138 -0.331235 -0.915510 0.176009 0.653252 1.126613 -1.130148 -0.479374 0.227118 0.249664 -0.615968 -0.272800 0.118115 1.196992 -0.439834 -0.859434 -0.205007 -0.254963 0.763990 -0.021288 0.003530 -1.137993 0.059795 0.214704 0.928825
propn+case=nom+number=sing+number[psed]=none+number[psor]=none+person[psor]=none 0.206577 -0.741745 -0.467637 -0.471853 -0.533916 -0.522166 -1.406851 0.139443 -0.369837 -0.735042 0.355437 0.322100 0.381968 -0.012645 -0.697063 0.008143 0.231385 0.339408 0.932155 -0.170714 0.214809 -0.142057 -0.057928 -0.150419 -0.259948
nnms3-----a---- 0.265012 -0.137650 0.212356 0.158616 0.051627 -0.138799 -0.624839 0.223758 -0.713577 0.102870 -0.173430 0.538560 0.543407 -0.587524 0.136880 -0.733122 -0.218554 0.221940 0.558002 0.084360 0.716279 0.310769 -0.384692 0.217876 -0.457967
n,prop,sg,gen -0.206663 0.281195 -0.427447 -0.484748 -0.819236 -0.184551 -0.728947 -0.683788 -0.142811 -0.748594 0.259988 0.481501 -0.148273 0.599521 0.159817 0.635207 0.509759 0.707458 -0.484515 -0.029692 -0.228196 -0.392982 -0.812885 -0.002035 0.617731
aafs3----1a---- 0.489455 -0.729492 -1.631387 0.973777 0.262877 -0.179290 -0.563606 1.087891 -0.914746 -0.428278 -0.727606 0.962248 1.201568 -0.622764 0.623191 -0.185516 -0.764490 0.377357 0.153783 0.069821 0.790771 -0.813309 -0.345351 -0.806662 0.499562
nnnp6-----a---- 0.512231 0.517292 0.215348 -0.125269 -0.798761 0.112509 -0.036541 -0.226449 -0.340791 -0.082176 0.094080 0.725677 -0.255932 0.865260 0.441550 -0.111070 -0.838526 0.753415 -0.334103 -0.052361 0.749867 0.048760 -0.351191 -0.104369 -0.513610
v,act,pcpnut,sg,nom -0.352021 0.295788 -0.546834 -0.316576 -0.384529 0.125749 -0.842818 -0.702244 -0.293112 -0.571359 0.204825 0.543994 -0.104217 0.434116 0.178033 0.689661 0.701247 0.441739 -0.550683 -0.306557 -0.218593 -0.390428 -0.951035 -0.151912 0.524510
cn-s4---------- -0.848557 0.336021 0.491101 -0.122641 -0.115429 0.640230 0.102925 -0.154109 0.207160 -1.126818 0.512534 0.152163 0.101591 0.046468 0.792378 -0.137154 -0.999930 -0.084246 0.537625 0.545698 0.722739 0.417814 -0.196438 0.230879 0.407667
n,sg,ine -0.486476 0.261591 -0.510166 -0.290013 -0.551683 0.079091 -0.830344 -0.771269 -0.217013 -0.683979 0.202360 0.534241 -0.204909 0.362694 0.069194 0.611734 0.544289 0.574885 -0.474610 -0.131249 -0.197124 -0.528606 -0.910991 -0.117820 0.490386
nn+neu+plu+ind+nom 0.048096 -0.018312 -0.110782 -0.140601 -0.207729 0.020489 -0.212906 0.045981 0.054362 -0.121816 0.062450 0.039745 0.089218 -0.003779 -0.130396 0.086526 -0.022317 0.057270 0.207074 -0.185757 0.004374 -0.133585 -0.038798 -0.151013 -0.031812
adj+definite=def+degree=pos+number=sing+variant=long 0.794988 -0.871335 -0.825526 0.190135 -0.371351 0.341572 -1.084876 -0.239129 0.228661 -0.720954 0.308404 0.317208 0.339766 0.573534 -0.141281 1.088823 0.082350 0.872175 -0.464905 0.013130 0.451405 -0.709178 -0.220946 -0.401105 0.514734
v,act,ind,pres,conneg -0.387001 0.367768 -0.821253 -0.206104 -0.369227 0.144462 -0.455168 -0.712186 -0.553108 -0.638960 0.092759 0.539374 0.058814 0.285853 0.362308 0.276152 0.849701 0.357185 -0.236550 -0.511537 -0.652974 -0.289795 -1.272894 -0.081009 0.583373
pron,dem,sg,nom -0.525464 0.014720 -0.525276 -0.228140 -0.222125 0.176724 -0.739639 -0.668708 -0.309674 -0.557110 0.225505 0.523369 -0.204606 0.319966 0.380233 0.938602 0.406438 0.426401 -0.496668 -0.336913 -0.403667 -0.414334 -0.999095 -0.149893 0.397758
amsi 0.326497 0.177121 -0.541299 0.106262 0.000240 0.508307 -0.537792 -0.707622 0.320504 0.111413 -0.673285 -0.057020 0.679289 0.838521 -0.025649 -0.531410 0.281763 -0.360761 1.166192 -0.890079 0.350395 -0.532515 0.077488 0.134478 0.902554
pron+case=acc+number=sing+reflex=yes -0.434388 -0.456903 -0.137794 -0.528725 0.927210 -0.110583 0.354416 -0.091776 -0.480848 -0.257508 -0.203938 1.208640 0.537718 0.417823 -0.675806 0.070670 -1.103559 0.015967 0.583577 -0.745440 -0.075018 -0.386473 -0.834951 0.043939 0.429269
pm+nom 0.053876 -0.018101 -0.045633 -0.106423 -0.235505 0.035587 -0.237398 0.041344 0.003538 -0.183868 0.123300 0.046527 0.148468 -0.033981 -0.094520 0.135012 0.025135 0.048914 0.218922 -0.181880 0.045652 -0.093292 -0.039410 -0.058882 -0.073779
ncmpd 0.112008 -0.063608 -0.664962 -0.120263 0.425524 0.536367 -0.504337 -0.500896 0.066567 -0.116668 -0.336862 0.088336 0.164505 0.951993 -0.886401 -0.467977 -0.569291 -0.710276 0.828907 -0.782357 0.186899 -0.560955 -0.011258 -0.058599 0.511668
mc-pi 0.376778 0.479009 -0.510980 -0.293146 -0.259357 0.964756 -0.271493 -0.452268 0.482397 -0.420983 -0.313297 0.054900 0.010444 0.557651 -0.535906 -0.085272 -0.934595 -0.379977 1.280251 -0.084204 1.197680 -0.535544 0.180939 -0.755400 1.027526
nnfp3-----a---- 0.009576 0.127604 -0.430165 -0.350405 0.183086 0.278650 -0.618513 0.242392 -0.111855 -0.633774 -0.321146 0.522500 0.855951 -0.041279 0.468460 -0.652423 -0.269470 0.328960 -0.410984 0.001780 0.547449 -0.085784 -0.329965 0.242321 0.463079
tn 0.192406 -0.434704 -0.993819 -0.377178 0.338542 0.393698 -0.171503 -0.486546 0.010932 0.085983 -0.308923 0.208800 0.308257 1.011710 -0.938686 -0.156543 -0.770055 -0.066803 0.554593 -0.214334 -0.392215 -0.597052 -0.422507 0.480828 0.544491
aux+number=plur+person=3+tense=pres -0.417030 0.440396 -0.049765 -0.265065 1.030495 0.530532 -0.499699 0.140824 -0.829011 -0.198819 0.244514 1.090926 0.202627 0.488735 -0.807169 0.077871 -0.910972 0.058406 0.300751 -0.640748 -0.114326 0.026146 -0.921175 0.076852 0.713329
pi 0.263904 -0.137299 -0.382425 -0.419407 -0.418636 -0.396829 -0.537069 -0.209378 0.111350 0.057467 0.149367 0.336581 0.105385 0.098704 -0.329102 -0.190295 0.203626 0.008754 0.480509 -0.345428 -0.399150 0.115319 -0.473212 -0.480410 -0.295673
sn 0.051055 -0.049619 -0.111120 -0.097102 -0.173472 0.030931 -0.191533 0.010728 -0.014641 -0.144388 0.047888 0.084785 0.081074 -0.010579 -0.126111 0.067647 0.044191 0.046965 0.195381 -0.175739 0.029333 -0.052339 -0.070907 -0.096592 -0.023972
aux+mood=ind+tense=past+verbform=fin+voice=act 0.058794 0.144165 -1.131327 -0.083545 -0.151475 0.946977 -0.921977 0.098624 0.126913 -0.359349 0.335491 0.780684 0.166515 0.290845 0.083812 0.581849 0.063174 0.672018 -0.182761 -0.193165 -0.272573 0.115466 -0.972098 -0.784656 0.371988
propn+case=nom+gender=fem+number=sing 0.308829 -0.403163 -0.916818 -0.741826 0.370890 -0.048722 0.103893 0.572965 -0.458969 -0.129029 -0.525700 0.803155 0.281919 0.549179 -1.214919 0.531154 -1.494320 0.085583 1.062238 -0.144050 0.606661 -0.185038 -0.699360 -0.119657 0.350974
aaip7----1a---- -0.296300 -0.604099 -0.047122 -0.030355 0.301369 -0.031821 -1.406386 -0.520170 -0.293901 -1.452250 -0.064720 0.254542 -0.412055 0.296361 0.802149 0.575849 0.064258 0.859291 -0.455036 -0.538700 0.642229 -0.908475 0.936603 0.171211 0.834193
vb-p---3f-aa--- -0.272000 0.188583 0.435395 0.322797 -0.104832 -0.052136 0.015140 0.000316 0.087106 -0.180632 -0.029629 1.168040 -0.094523 -0.687294 0.745272 -0.022569 -0.159896 -0.000183 -0.076454 -0.803423 0.557331 -0.160613 -0.211047 -0.271608 0.864001
adv+degree=none+prontype=default 0.322288 -0.389720 -0.361610 -0.509168 -0.882342 -0.318863 -0.928076 0.106449 -0.079644 -0.662377 0.314527 0.615488 0.308457 0.056897 -0.335281 -0.079885 0.026446 0.088834 0.706225 -0.418358 0.102787 -0.205851 -0.427996 -0.473944 -0.232582
p4mp1---------- -0.449308 0.042209 -0.192433 0.285319 0.499082 0.119704 0.302837 -0.696168 -0.158198 -0.740565 0.084739 1.146589 -0.116691 -0.714722 0.456864 -0.509267 -0.266145 0.288525 0.042528 -0.031958 0.761688 -0.115415 -0.781605 0.231858 -0.112121
aafp7----1a---- -0.272733 -0.123987 0.651734 0.033487 0.556353 0.411381 -0.989528 -0.609506 -0.690869 -0.352333 -0.235808 0.668184 -0.682738 0.030331 0.628515 0.754708 -0.030552 1.073536 -0.606531 -0.528336 0.606052 -0.689002 0.635828 0.526712 0.948336
afsd 0.223852 -0.322245 -0.785631 0.102359 0.625949 1.024286 -1.174773 -0.147279 0.043873 0.195340 -0.719672 -0.215667 0.243310 1.171919 -0.457233 -0.719034 0.040263 -0.520401 0.961473 -0.253085 0.119562 -0.994943 -0.025535 -0.012603 0.958034
dm 0.218486 0.012717 -0.767697 -0.337265 0.228088 0.567243 -0.209594 -0.729257 0.300108 -0.026164 -0.134613 0.231845 0.216218 0.854366 -0.838688 -0.229229 -0.834858 -0.291129 0.735785 -0.443157 -0.172221 -0.477910 -0.380800 0.163280 0.608085
a-pd 0.213664 0.095506 -1.017243 -0.016654 0.093526 0.850071 -0.500465 -0.239373 -0.015757 -0.009244 -0.796423 0.032383 0.130019 0.633096 -0.223011 -0.508399 -0.675331 -0.509645 1.300952 0.028467 0.730953 -0.799549 0.301033 -0.116251 1.198651
vb-p---3p-aa--1 -0.284751 0.322617 0.295308 0.180450 -0.244136 -0.135994 0.066749 -0.068239 -0.000816 -0.127540 -0.171705 1.037301 0.142987 -0.622818 0.591357 -0.188978 -0.275431 -0.153037 0.302414 -0.778527 0.560467 -0.220052 -0.259171 -0.051832 0.653806
adj+case=nom+degree=pos+gender=masc+number=sing 0.569604 -0.072032 -0.536043 -0.487138 1.363719 0.019049 -0.629054 0.535337 0.414650 0.422883 -0.378141 1.096550 -0.061115 0.175966 -0.259203 0.257216 -1.030631 0.147459 1.233771 -0.097101 0.784489 -0.254565 -0.247620 -0.967008 0.867252
noun+case=gen+gender=fem+number=plur -0.553395 0.250908 -0.024441 -0.168104 0.625316 0.846999 -0.302809 0.152852 -0.422193 -0.303404 0.283277 0.848536 -0.258735 0.437333 -0.498181 -0.325485 -1.463430 -0.390380 0.550211 -0.007825 0.547916 -0.962928 -0.031784 -0.257767 0.647194
ncmsf 0.335644 -0.290122 -0.872823 -0.332092 0.091506 0.419697 -0.299963 -0.751193 0.306938 -0.027703 -0.294202 0.107704 0.171747 1.031065 -1.057836 -0.161250 -0.576583 -0.358286 0.679546 -0.594406 -0.152725 -0.542171 -0.233572 0.085279 0.313020
vpys---xr-aa--1 -0.298340 0.333738 0.601480 0.066983 0.011943 -0.508130 0.279371 0.299972 -0.690600 -0.041516 0.065344 0.669051 0.216258 -0.269754 0.025717 -0.441559 -0.270999 0.069833 0.457669 -0.118693 0.612047 -0.280446 0.054815 0.213456 0.149790
pn+neu+sin+def+sub/obj 0.040373 -0.043952 -0.094166 -0.095582 -0.132972 0.008067 -0.172594 -0.000522 0.021816 -0.135832 0.062383 0.073498 0.067499 -0.037202 -0.098595 0.100424 0.029308 0.082039 0.184758 -0.174680 0.012900 -0.065468 -0.058965 -0.134725 -0.020913
vpitf-r3p 0.377169 0.335849 -0.859397 0.011406 0.507633 0.724632 -0.589104 -0.284258 0.370704 0.415799 0.339400 0.145616 0.614668 0.856381 -0.743319 -0.404174 -0.626933 -0.149556 0.864048 -0.216567 0.051598 -0.125688 -0.437549 0.580760 1.166172
pdzs3---------- -0.174385 -0.692292 -0.540726 0.315106 0.455709 -0.546968 -0.068398 0.559297 -0.283026 -0.636856 -0.044293 0.891525 0.902756 -0.386764 -0.142111 -0.168236 -0.591867 0.617064 -0.209034 -0.449014 0.159898 -0.212904 -0.525190 0.134965 0.550027
adv,dem -0.542834 0.222008 -0.523637 -0.256072 -0.300056 0.198734 -0.642780 -0.720443 -0.265629 -0.572060 0.064554 0.669453 -0.231697 0.314847 0.259020 0.624608 0.558230 0.386967 -0.531739 -0.270279 -0.340990 -0.286116 -0.999603 -0.263621 0.359652
adj+definite=ind+degree=pos+gender=com+number=sing+variant=long 0.406295 -0.648281 -0.838590 -0.315734 0.114821 0.778880 -1.092332 -0.247465 0.304155 -0.524770 0.041278 0.357066 -0.094689 0.628451 -0.159953 0.657147 -0.146757 0.392240 -0.656762 -0.180303 0.290808 -0.541703 -0.206582 -0.968536 0.685637
pdys1---------- -1.091997 -0.171536 0.423345 -0.153681 0.669040 -0.736763 0.541174 0.196363 -0.655242 0.030550 0.131387 0.339899 0.456227 -0.030843 -0.527828 -0.064917 0.194875 0.092439 0.154818 0.190259 0.700857 -0.085780 -0.264358 0.208105 0.050158
propn+case=gen+gender=fem+number=sing -0.267707 0.043017 -0.405034 -0.347908 0.204582 0.454495 -0.256589 0.422459 -0.422353 -0.202294 0.128132 0.852998 -0.239570 0.380882 -1.085699 0.052144 -1.026759 -0.452318 0.783678 0.100578 0.756544 -0.820469 -0.127592 -0.455389 0.247774
dt 0.228773 -0.141999 -0.706412 -0.315618 0.164368 0.442839 -0.295104 -0.467989 0.194689 -0.034169 -0.286399 0.286413 0.402899 0.833059 -0.748886 -0.281122 -0.537873 -0.184122 0.801881 -0.458033 0.034124 -0.464812 -0.414034 0.195691 0.598802
pq 0.151771 -0.062560 -0.483192 -0.168749 -0.355100 -0.062895 -0.547043 -0.147549 0.195915 0.020593 0.201294 0.043666 0.019418 0.080661 -0.355990 -0.052955 0.040429 0.225535 0.177595 -0.100562 -0.393731 0.196435 -0.546619 -0.492401 -0.204859
no 0.254096 -0.208045 -0.339021 -0.436327 -0.349967 -0.515184 -0.313343 -0.153200 0.013970 -0.168020 0.343361 -0.056436 0.027072 0.305437 -0.495847 -0.315202 0.021938 0.105918 0.203596 -0.376320 -0.392074 -0.279587 -0.453404 -0.443183 -0.451155
v,act,ind,pres,pl3 -0.405728 -0.034059 -0.773802 -0.317380 -0.659227 -0.428808 -0.533051 -0.814088 -0.236008 -0.536004 0.090948 0.363849 0.118947 0.478578 0.213073 0.320005 0.684915 0.813908 -0.366309 -0.208532 -0.128886 -0.450297 -0.674329 -0.317894 0.722378
rv--3---------- -0.013952 -0.141620 -0.502407 0.888522 0.093849 0.373443 -0.307762 0.429622 -0.989907 0.120540 -0.043324 0.485577 0.579356 -0.250070 0.264686 -0.156602 -0.524867 0.231248 0.194264 0.005815 0.528202 -0.515003 -0.026912 0.007464 0.355600
pron+case=nom+gender=com+number=sing+person=3+prontype=prs -0.036857 -0.481415 -0.978174 0.225174 0.230181 0.374132 -0.903972 -0.030639 0.611153 -0.804148 0.063971 0.716758 -0.652629 0.771758 -0.171938 0.239818 -0.306111 0.325462 -0.438151 -0.267054 -0.240879 -0.432193 -0.719283 -0.252312 0.238793
verb+number=plur+person=3+tense=pres -0.255487 0.066028 -0.037961 -0.277169 0.519751 0.296306 -0.266839 0.381599 -0.977466 -0.356177 0.149808 0.713158 0.520710 0.447296 -1.035741 -0.236681 -0.818490 0.043933 0.315647 -0.507480 0.508365 -0.124416 -0.594002 0.301046 0.721851
n,sg,ela -0.379603 0.198424 -0.496862 -0.259103 -0.474531 0.041178 -0.743858 -0.833433 0.024905 -0.689916 0.062679 0.311900 -0.268688 0.346847 -0.004477 0.476209 0.476694 0.630484 -0.436684 -0.249317 -0.305615 -0.533755 -0.818269 -0.075188 0.465651
vb-p---2p-aa--- -0.408263 0.341288 0.345208 -0.113986 0.066431 -0.189800 0.119587 -0.140370 -0.522127 -0.030772 0.076409 0.962108 0.296552 -0.498264 0.278263 -0.127828 -0.409995 -0.016704 0.223983 -0.515549 0.659248 -0.037099 -0.449130 0.256347 0.372722
det+gender=com+number=sing+prontype=dem -0.039483 -0.221125 -0.327001 -0.222238 -0.092657 0.488396 -1.665359 -0.199930 0.482517 -0.451935 0.207433 0.429028 0.215747 0.453050 -0.203496 0.746577 -0.376029 0.461854 -0.190475 -0.127418 0.325877 -0.389696 -0.464125 -1.177547 -0.338311
aais3----1a---- 0.613456 0.022558 -0.884668 0.980155 -0.090856 0.371206 -0.261521 0.480008 -1.057429 -0.636277 0.405276 0.791544 1.096613 0.067900 -0.197153 -0.429914 -0.654791 0.806571 -0.355734 -0.116454 0.254977 -0.900742 0.037115 -0.058596 0.680689
clxp2---------- -0.418201 0.584607 0.450669 0.505912 0.271242 0.409728 -0.304137 0.264613 -0.126975 -0.913749 0.370208 0.187994 -0.265409 0.155887 0.736249 -0.180409 -0.715869 0.201894 0.119218 0.588458 0.892989 0.143513 0.630129 -0.356550 0.488444
pd 0.289960 -0.151413 -0.393810 -0.406007 -0.436437 -0.322497 -0.550731 -0.122934 0.111062 0.033777 0.156587 0.228736 0.073987 0.131496 -0.233850 -0.183776 0.140870 -0.010848 0.384055 -0.276924 -0.313148 0.046480 -0.464908 -0.538485 -0.269883
aamp4----1a---- -0.471639 0.010769 -0.429224 0.000801 0.165677 0.047016 -0.305270 -0.337986 -0.340718 -0.531437 0.031505 0.853088 -0.003013 -0.710612 0.114578 0.098353 -0.521682 -0.497252 0.662969 0.055650 1.227288 -0.194212 0.177631 0.246557 -0.111147
hp+-+-+- 0.036601 -0.023834 -0.113462 -0.098288 -0.151694 -0.003331 -0.187518 0.022101 0.018707 -0.139014 0.050542 0.084793 0.060906 -0.042916 -0.114373 0.104453 0.033643 0.072792 0.209985 -0.177603 0.009009 -0.060758 -0.059461 -0.123914 -0.018922
nn+utr+plu+def+nom 0.041643 -0.022297 -0.080141 -0.099466 -0.151394 0.009351 -0.172442 0.032652 0.017418 -0.126659 0.036338 0.071808 0.096395 0.004408 -0.110396 0.086560 -0.006837 0.057755 0.165982 -0.165780 0.020359 -0.091881 -0.054960 -0.115408 -0.046329
a,sg,par -0.293599 0.217587 -0.448007 -0.337788 -0.163072 0.270439 -0.473392 -0.743392 0.021889 -0.537344 0.080211 0.515359 -0.269935 0.281532 0.231961 0.596622 0.470348 0.622131 -0.713931 -0.240258 -0.235360 -0.401700 -0.815714 -0.433615 0.709658
pad 0.051138 -0.033962 -0.067077 -0.111355 -0.145774 0.029669 -0.192251 0.037848 -0.001277 -0.116770 0.046461 0.070902 0.068198 0.012178 -0.130622 0.055871 -0.005582 0.046640 0.140427 -0.127671 0.032091 -0.111672 -0.036399 -0.112639 -0.032291
noun+case=acc+gender=neut+number=sing -0.068314 -0.089084 -0.033632 -0.022093 0.557597 0.419964 -0.378049 0.267412 -0.650021 -0.352240 0.333444 1.003836 -0.055519 0.449431 -1.139691 -0.202850 -0.867817 0.092223 0.303386 -0.076504 0.430255 -0.787145 -0.209188 -0.208247 0.226713
ie 0.053424 -0.018341 -0.029267 -0.104993 -0.161325 -0.023729 -0.167621 0.052520 -0.034473 -0.128919 0.073661 0.075469 0.060833 0.014405 -0.106632 0.079310 -0.011997 0.074913 0.146162 -0.131335 -0.009772 -0.049011 -0.042130 -0.057275 -0.025413
adv_time 0.097838 -0.126342 -0.154256 -0.383324 -0.517614 -0.069144 -0.445925 0.021984 0.212618 0.012084 -0.041774 0.121043 0.156394 -0.085070 -0.348924 0.046305 -0.031849 0.031266 0.233563 -0.170684 -0.135262 0.008510 -0.078835 -0.313296 -0.258761
vb+prs+sfo 0.035644 -0.021345 -0.097071 -0.097248 -0.172489 0.055132 -0.201973 0.022306 0.009243 -0.125205 0.034934 0.042707 0.100627 -0.003963 -0.120094 0.069740 -0.002962 0.056122 0.167795 -0.172254 0.039213 -0.094018 -0.047267 -0.097579 -0.021873
n,sg,ade -0.423700 0.374732 -0.443259 -0.194850 -0.507445 0.165887 -0.649183 -0.813648 -0.080745 -0.651979 0.116957 0.421070 -0.220125 0.426050 0.015115 0.429078 0.427880 0.483392 -0.481292 -0.157413 -0.159397 -0.483346 -0.848367 -0.120788 0.383279
db------------8 -0.382465 -0.069393 0.265299 -0.040378 0.329016 0.032866 0.439135 0.056831 -0.871312 -0.702950 -0.091274 0.950388 -0.202055 -0.168624 0.445783 -0.295711 -0.241313 0.303253 0.095154 0.336685 0.805442 -0.185894 -0.374106 0.299889 -0.237274
nnip3-----a---- -0.262395 -0.090986 -0.324458 0.381391 0.427506 0.077174 -0.326813 0.105234 -0.154951 -0.695801 -0.137854 0.696062 0.711412 0.357383 0.157477 -0.819001 -0.331247 0.488174 -0.138692 -0.248331 0.602943 -0.322775 -0.230197 -0.012075 0.019787
noun+case=loc+gender=masc+number=sing -0.503504 0.145059 -0.107486 -0.036510 0.061897 0.624999 -0.478660 -0.373952 -0.059492 -0.021794 0.082377 1.282777 -0.441174 0.179154 -0.636994 -0.275747 -0.849091 -0.768313 0.418551 -0.244707 0.425543 -1.216580 -0.076184 -0.718709 0.133216
p4fp1---------- -0.493549 -0.058351 -0.165732 0.014065 0.641506 -0.048600 0.291105 -0.308279 -0.124922 -0.587262 -0.244876 0.998259 -0.354870 -0.718431 0.791078 -0.211256 -0.387990 0.493024 0.097281 0.080077 0.551359 -0.541814 -0.467440 0.419999 0.315893
n,pl,gen -0.353917 0.213791 -0.379838 -0.385400 -0.638236 -0.146155 -0.616429 -0.512169 -0.097239 -0.684321 0.136636 0.384972 -0.181960 0.422949 0.027873 0.623639 0.414747 0.469539 -0.461441 -0.134153 -0.169423 -0.256334 -0.880345 -0.096248 0.700133
propn+case=gen+gender=masc+number=sing -0.088301 0.088089 -0.441121 -0.369964 0.297410 0.568651 -0.480840 0.268059 -0.546145 -0.253016 -0.156394 0.890992 -0.506251 0.221310 -1.170182 0.210929 -1.045000 -0.369264 0.776231 0.130456 1.180215 -0.644799 -0.284088 -0.813497 0.223307
vpns---xr-na--- -0.307705 0.260115 0.308314 0.108188 -0.061052 0.006581 0.551505 0.074172 -0.620948 -0.434493 -0.070628 0.666928 0.382279 -0.470733 0.020776 -0.278006 -0.124895 -0.137271 -0.141033 -0.374673 0.418911 -0.207854 -0.307978 0.305255 0.691243
noun+case=gen+gender=neut+number=sing -0.274756 -0.121608 0.095338 -0.277467 0.409850 0.744734 -0.347254 0.062928 -0.108502 -0.276528 0.332634 0.776362 -0.138154 0.379703 -0.845650 -0.275928 -0.790757 -0.250156 0.632491 0.279150 0.621429 -1.039358 -0.471540 -0.460883 0.497560
nnixx-----a---- 0.185953 0.322329 -0.055314 -0.078938 0.023477 -0.104194 0.274255 -0.040651 -0.851664 -0.449060 0.399721 1.082455 0.056537 0.162135 0.090003 -0.040615 0.107066 0.135796 0.566804 0.896074 0.922918 -0.146295 -0.020357 0.356568 -0.555867
dg-------2a---1 -0.874645 -0.109613 0.122758 0.073875 0.187073 -0.090777 0.207422 -0.033497 -0.608731 -0.147144 -0.081194 0.664747 0.275251 -0.330193 0.170823 -0.107624 -0.336926 -0.051699 -0.182877 -0.038001 0.569418 -0.076305 -0.361506 0.478075 0.180903
adp+case=ins -0.810764 -0.145325 -0.092465 -0.372006 0.208148 0.574405 0.010678 0.109780 -0.877751 -0.166585 -0.112798 0.684025 0.175011 0.453403 -0.680521 0.184701 -0.484899 -0.237677 0.640017 0.060740 0.576628 -0.911984 -0.480188 -0.311455 0.526189
verb+gender=fem+number=sing+verbform=part 0.058725 -0.091402 -0.499317 -0.034433 0.217406 0.142722 0.156310 0.405619 -1.007921 -0.118576 -0.242263 0.743544 0.596627 0.562274 -0.737369 0.270248 -0.827724 0.421245 0.999319 -0.236126 1.043447 -0.419058 -0.059913 0.116354 0.649360
pdfs1---------- -0.095368 -0.813139 -0.321174 0.240974 0.111475 -0.127974 0.710755 0.550304 -0.985347 -0.146276 -0.636122 0.630374 0.471045 0.021764 -0.000757 0.280084 0.152752 0.019828 0.063943 0.038814 0.721823 0.536455 -0.292092 0.112898 0.332666
ab+pos 0.008782 -0.009091 -0.094779 -0.089856 -0.131329 0.011009 -0.147196 0.008099 0.012717 -0.096351 0.058715 0.065587 0.059055 0.012172 -0.088446 0.058424 -0.005709 0.045850 0.159721 -0.147638 0.023510 -0.097416 -0.037871 -0.073455 -0.019171
ncnpi 0.227139 0.179977 -0.116426 -0.047976 0.410757 0.887540 -0.535550 -0.542949 0.243652 -0.261698 -0.025414 -0.173068 0.065264 0.776396 -0.739234 -0.559936 -0.501547 -0.428486 0.628226 -0.454480 0.221906 -0.625526 -0.125113 -0.171567 0.501066
noun+case=loc+gender=fem+number=sing -0.291391 0.082988 -0.145515 -0.227508 0.219774 0.158391 -0.217933 -0.545385 -0.051135 -0.080170 0.557076 1.126521 -0.421180 0.126102 -1.386089 -0.300274 -0.838582 -0.970556 0.343878 -0.119843 0.789479 -0.960827 -0.157922 -0.433211 -0.145657
aams4----1a---- -0.037160 0.125379 -0.313828 0.100091 0.633838 -0.240213 -0.284172 -0.811988 -0.304307 -0.108764 0.121846 1.676584 -0.201965 0.338179 0.594889 -0.506035 -0.721194 -0.332849 0.535956 -0.211856 0.666377 0.388244 0.213410 1.142213 -0.044090
aanp4----1a---- -0.549496 0.609935 -0.060785 0.500804 0.196965 0.493215 0.188116 -0.180625 -0.174016 -0.164816 0.414277 1.188645 -0.572421 -0.324204 -0.036931 -0.156423 -0.501746 -0.624218 0.280017 -0.180146 1.349997 -0.257772 -0.054489 -0.307739 -0.133906
jj+pos+utr/neu+sin+def+nom 0.015613 -0.023244 -0.087020 -0.106941 -0.110283 0.026266 -0.157630 0.041413 -0.007050 -0.102632 0.056280 0.089290 0.079141 0.007555 -0.100306 0.062256 0.011034 0.073819 0.140596 -0.154383 0.039955 -0.079422 -0.025367 -0.059176 0.004059
noun+case=nom+gender=masc+number=plur 0.009131 -0.058674 0.083156 -0.439753 0.810141 0.403230 -0.291159 -0.085456 -0.194036 -0.568735 0.070756 1.104922 0.192512 0.507100 -0.779759 -0.471105 -1.229053 0.011420 0.558568 -0.391073 0.164109 -0.624923 -0.897787 0.200097 0.478019
det+number=plur+prontype=dem -0.191474 0.109776 -0.358436 0.016209 -0.618924 0.782038 -0.937955 -0.433912 0.575550 -0.772619 0.507700 0.448323 -0.010541 0.445216 -0.039818 0.208780 -0.365146 0.384798 -0.216445 -0.080906 0.108974 -0.427233 -0.510825 -0.802284 0.419986
dt+utr+sin+def 0.026728 -0.022922 -0.071614 -0.114351 -0.123698 0.054911 -0.142548 0.020958 0.015828 -0.105776 0.047344 0.063265 0.057338 0.035425 -0.081785 0.036112 -0.024528 0.058963 0.110419 -0.148900 0.040854 -0.076457 -0.051860 -0.093426 0.022812
ansi 0.252303 0.240895 -0.591147 0.146796 0.265700 0.890696 -0.608743 -0.423582 0.094162 0.218850 -0.263028 -0.107241 0.272474 0.907746 -0.315418 -0.764830 -0.089643 -0.106943 0.888022 -0.359048 -0.237133 -0.973439 0.326577 0.276343 0.627476
dg-------3a---- -0.495606 -0.006010 0.157882 0.306112 0.191958 0.103833 0.115052 -0.057300 -0.383598 -0.178453 0.020189 0.673083 0.033888 -0.348722 0.325726 -0.035832 -0.486791 0.289374 -0.247198 -0.129123 0.723808 0.114935 -0.275571 0.299857 -0.059023
vpptf-r3s 0.474175 0.125134 -1.200220 -0.167543 0.532815 0.342910 -0.748820 -0.276416 0.421982 0.438759 0.196551 0.498251 0.322890 0.928317 -1.102066 -0.546951 -0.692031 -0.463525 0.694461 -0.648146 -0.384184 -0.007696 -0.472715 0.607440 0.721338
det+gender=neut+number=sing+prontype=ind 0.178487 0.164296 -0.637251 0.494181 -0.378016 0.654304 -0.604331 -0.125098 0.506846 -0.302256 0.402470 0.582433 -0.012216 0.904919 -0.105525 0.664943 -0.208305 0.519810 -0.435162 -0.337838 0.159188 -0.514842 -0.719517 -0.693461 -0.274836
adj+case=nom+degree=pos+gender=fem+number=sing 0.006266 -0.040747 -0.231072 -0.723854 0.599028 0.177522 0.413405 0.168404 -0.424151 -0.109128 -0.058049 0.851891 0.714605 1.120419 -0.990400 0.907124 -0.366490 0.751710 1.363616 -0.593532 0.713641 -0.405832 -0.324168 -0.539225 0.644453
adj+case=gen+degree=pos+gender=fem+number=sing -0.409033 -0.335450 0.353224 -0.553526 -0.068886 0.556306 -0.253848 0.564268 0.328335 -0.359869 0.235333 0.544953 0.256106 0.463453 -0.889993 0.374811 -0.548048 -0.199533 0.590882 -0.162641 0.961337 -0.749712 -0.273024 -1.101400 0.839494
pq--4---------- -0.619012 -0.409452 0.154217 0.141288 0.278374 -0.011223 0.351366 -0.366489 -0.350058 -0.491417 -0.190144 0.650576 0.306975 -0.498206 -0.093349 -0.248607 -0.570040 0.292834 0.139210 -0.136555 0.544459 -0.265445 -0.775673 0.413624 0.037441
jj+pos+neu+sin+ind+nom 0.010239 -0.007570 -0.070140 -0.104188 -0.146897 -0.002010 -0.135450 0.042522 0.008518 -0.144228 0.048884 0.060138 0.057633 -0.001151 -0.092609 0.083045 -0.029974 0.058476 0.125081 -0.129890 0.019630 -0.093873 -0.053014 -0.102377 -0.027399
pron,pers,sg3,nom -0.151286 0.104229 -0.361033 -0.185204 -0.020219 0.294468 -0.858131 -0.641821 -0.129757 -0.508413 0.115830 0.464404 -0.191622 0.405160 0.089102 0.943738 0.327081 0.273689 -0.540669 -0.414119 -0.243946 -0.401692 -0.790400 -0.081742 0.161370
pe 0.256123 -0.210820 -0.419297 -0.402387 -0.435954 -0.262770 -0.536438 -0.174345 0.092237 -0.024147 0.141944 0.238177 0.048640 0.117042 -0.288572 -0.199966 0.103311 0.020589 0.400038 -0.259661 -0.290852 0.122988 -0.474062 -0.507397 -0.221794
adj+degree=pos+variant=long 0.376452 -0.346930 -0.632215 0.005047 -0.217579 0.596437 -0.847448 -0.140857 0.343887 -0.506550 0.407780 0.367178 0.065785 0.664182 -0.101488 0.608032 -0.166062 0.509635 -0.556701 -0.103717 0.293120 -0.628122 -0.331753 -0.772676 0.412952
noun+definite=def+gender=com+number=plur -0.019486 -0.349762 -0.801717 -0.144381 -0.050245 0.475602 -0.785393 -0.097704 0.602587 -0.760673 0.213416 0.505871 -0.287810 0.789330 -0.345568 0.068211 -0.173161 0.330867 -0.340327 -0.171942 -0.025286 -0.357237 -0.401910 -0.489882 0.158615
ppxp4--3------- -0.727378 -0.418490 0.242393 0.384299 0.323258 -0.199861 0.054415 -0.097063 -0.274604 -0.043632 -0.139106 0.815362 0.270970 -0.583980 0.134326 -0.111436 -0.513064 0.085655 -0.184755 -0.263014 0.475904 0.209475 -0.548110 0.296553 0.304721
adj+definite=ind+degree=pos+number=sing+variant=long 0.232483 -0.301734 -0.775170 -0.147827 -0.024255 0.527073 -0.846365 -0.168040 0.412331 -0.560072 0.233288 0.388798 -0.038435 0.755359 -0.219762 0.491197 -0.147293 0.286872 -0.460925 -0.220568 0.045015 -0.449361 -0.446711 -0.758360 0.303652
vpqw---xr-na--- -0.259136 -0.090897 0.161605 0.182875 -0.044496 -0.195356 0.454735 0.322055 -0.872983 -0.269981 -0.341443 0.731918 0.279179 -0.403390 0.259307 -0.127409 -0.043335 0.037514 0.214582 -0.357918 0.666025 0.132636 -0.086492 0.150223 0.383478
aanp1----1a---- 0.000088 0.255192 -0.159531 0.575767 0.440562 0.092430 0.329430 -0.311291 -0.064338 -0.535948 0.045674 1.002573 0.252456 -0.214509 0.472652 0.289012 -0.335370 -0.094013 -0.709306 -0.221945 0.432708 -0.385403 -0.517444 0.387314 0.379953
amsh 0.133148 0.091178 -0.335067 0.274809 0.126140 0.560807 -0.928617 -0.202762 0.106697 0.157554 -0.646522 -0.107442 0.705604 0.917842 -0.147472 -0.700320 0.739026 -0.665002 1.217379 -1.065846 0.485425 -0.631751 0.174870 -0.113641 0.806482
ncmt 0.555571 0.719248 0.219479 0.121348 0.215225 0.988206 -0.548518 -0.748723 0.444631 -0.530995 0.211288 -0.281896 0.260956 0.749676 -0.698793 -0.624744 -0.253519 -0.187047 0.843916 -0.802693 0.711171 -0.362626 -0.121805 -0.231345 0.478968
v,pass,ind,pres -0.276986 0.018674 -0.557461 -0.477017 -0.574069 0.076349 -0.506932 -0.526008 0.029363 -0.602338 0.141836 0.495680 -0.120997 0.411202 0.143819 0.389847 0.469848 0.545624 -0.383044 -0.179817 -0.262658 -0.203527 -0.781180 -0.337642 0.529343
adj+case=gen+degree=pos+gender=masc+number=sing 0.164549 0.164536 0.144267 -0.077193 0.080284 0.993147 -0.682616 0.272902 -0.482435 -0.664386 0.252450 0.049660 0.053385 0.356270 -1.275592 0.144281 -0.591756 -0.249345 0.713657 0.341800 1.419576 -0.496956 -0.684730 -0.640242 0.704666
ncfpd 0.188662 0.032834 -0.492516 -0.100053 0.352278 0.576467 -0.561547 -0.515173 0.297961 -0.034674 -0.123636 -0.012675 0.150226 0.960267 -0.827157 -0.613414 -0.410259 -0.690029 0.677454 -0.758442 0.058800 -0.543735 0.056063 -0.049750 0.401695
acns------a---- -1.066176 -0.311785 -0.040717 0.083956 0.052758 0.101117 0.579650 -0.083512 -0.452567 0.286638 -0.037327 0.320304 0.200447 -0.548442 -0.071077 0.044640 -0.759682 -0.083583 -0.150616 -0.497901 0.643568 0.006535 -0.492297 0.339149 0.191157
vb+prt+akt -0.005073 -0.011157 -0.069847 -0.086745 -0.146947 0.022102 -0.143174 0.013855 -0.009238 -0.093950 0.066832 0.048747 0.104499 0.019233 -0.102801 0.051362 -0.026031 0.033607 0.160682 -0.138189 0.032345 -0.065253 -0.058169 -0.067600 -0.015751
vpmp---xr-na--- -0.367718 0.186691 0.131011 0.199175 -0.041940 -0.190781 0.077122 -0.250416 -0.487571 -0.501770 -0.270261 0.890075 0.026776 -0.948604 0.109016 -0.385167 -0.361568 -0.151240 0.205394 -0.365783 0.647361 -0.139884 -0.338708 0.096848 0.389714
cv------------- -0.343591 0.093105 0.260821 0.147562 0.150337 -0.061352 0.370581 -0.104212 -0.411027 -0.013168 -0.014116 0.564617 0.174452 -0.273876 0.256018 -0.093551 -0.545619 0.303086 0.028810 -0.025909 0.686532 -0.042156 -0.288153 0.285104 0.149895
nnmp1-----a---1 -0.394869 0.094920 -0.252501 0.475897 0.002556 -0.129578 -0.096602 -0.599450 -0.189595 -0.443389 -0.003028 1.143525 0.078255 -0.577914 0.218688 -0.201611 -0.429650 0.194236 0.038061 -0.311857 0.461986 0.130314 -0.740613 0.093869 -0.050129
v,act,ind,past,sg1 -0.398856 0.091491 -0.463345 -0.343254 -0.339281 0.148318 -0.334461 -0.626879 -0.171029 -0.543391 -0.051819 0.533083 -0.204605 0.084122 0.020994 0.411127 0.560748 0.518406 -0.428276 -0.313648 -0.298325 -0.198806 -0.657183 -0.247911 0.493743
pdfs2---------- -0.190400 -0.242672 -0.164212 0.253049 0.618422 -0.241595 -0.209102 0.677156 -0.810159 -0.013629 0.310335 0.510549 -0.313708 0.143197 0.180208 -0.848003 -0.186951 -0.560920 -0.275544 0.297087 0.538200 -0.027998 0.211285 -0.340917 0.273154
a,sg,gen -0.168356 0.319975 -0.406365 -0.181107 -0.644793 0.172635 -0.516720 -0.720902 0.081153 -0.678650 0.171263 0.354615 -0.264069 0.309175 0.209006 0.456144 0.418943 0.702177 -0.776896 -0.139310 -0.241132 -0.583478 -0.407950 0.052111 0.457660
