4468 25
noun -0.334056 -0.787958 -0.448113 1.050310 -0.889511 0.857672 -0.147185 -0.716132 0.351942 0.674424 0.353717 -0.080989 0.185828 1.025605 0.547589 -0.989703 -0.734275 -0.268804 -0.980268 1.517242 -0.879675 -0.430048 0.216247 -0.032231 -0.261869
punct -0.732558 -0.565326 -0.780961 0.857910 -0.816783 0.813924 -0.174844 -0.251845 0.128371 0.241098 0.248179 0.439033 0.577871 1.103550 1.149635 -0.897873 -0.943501 -0.209766 -0.861413 1.793715 -1.351452 -0.051394 0.408535 -0.126399 0.094424
verb -0.323034 -0.628688 -0.725931 1.139966 -0.484180 0.662132 0.101729 -0.571795 0.287198 0.373837 0.223686 -0.291106 0.275093 1.169034 0.742085 -0.801866 -0.642188 -0.447268 -0.641173 1.340518 -0.814660 -0.233590 -0.025094 0.139877 0.132129
adp -0.716834 -0.448782 -0.361120 0.737056 -0.825127 0.562610 -0.345439 -0.606689 -0.170194 0.524642 -0.050433 -0.289426 0.097841 1.122317 0.689169 -0.507969 -0.675282 -0.410616 -0.547808 1.641157 -1.086074 -0.172500 -0.156337 0.141878 -0.032563
adj -0.492454 -0.795310 -0.562654 0.803763 -0.693061 1.025514 -0.318034 -0.574022 -0.004237 0.654917 0.259330 -0.033018 0.043388 1.182174 0.835350 -0.610822 -0.718019 -0.397320 -0.679809 1.998268 -1.120738 -0.342439 -0.080767 0.356937 0.115457
z:------------- 0.168408 0.222413 -0.643870 -0.006347 -0.270818 0.053727 -0.798171 -0.205023 0.175196 -0.477284 0.206198 -0.146591 -0.328870 0.318713 -0.733582 0.655930 -0.143932 0.352779 0.095964 -0.134124 0.068282 0.436812 0.293622 0.117895 0.179639
adv -0.201996 -0.639522 -0.508842 0.998648 -0.467512 0.786878 -0.011479 -0.494906 0.168972 0.442851 0.556896 -0.262900 0.217147 1.197725 0.713531 -1.004189 -0.681275 -0.059707 -0.695593 1.145780 -0.928358 -0.373915 0.117411 0.548209 -0.276820
pron 0.114294 -0.348764 -0.573384 0.834416 -0.400249 0.561507 0.083228 -0.523006 -0.012445 0.842439 0.598189 -0.186877 0.354569 1.081388 0.560878 -1.056197 -0.637727 0.002582 -0.728288 1.480080 -0.931631 -0.759800 0.345835 0.410512 -0.324816
propn -0.645480 -0.198847 -0.819743 0.282048 -0.293701 1.472090 0.030479 -1.220932 -0.090344 0.453622 0.362620 0.055938 0.193877 0.740211 0.621205 -1.397303 -0.794462 0.020762 -1.174839 1.704256 -1.053734 -0.948274 0.364678 -0.357630 0.194031
det -0.283094 -0.482450 -1.042571 1.101146 -0.497152 0.639021 0.090899 -0.387274 -0.041205 0.800361 0.128375 -0.047400 0.235079 1.190495 0.640483 -0.717397 -0.495185 -0.469641 -0.540693 1.764748 -1.242249 -0.403498 0.261073 -0.136988 0.188778
conj -0.578880 -0.438294 -0.609206 0.620457 -0.619948 0.833003 -0.031550 -0.242605 0.080884 0.314739 0.447223 -0.051727 0.142079 0.885824 0.683426 -0.772331 -0.849464 -0.081144 -0.770877 1.576243 -1.125727 -0.247280 0.125417 0.294448 0.153935
num -0.439421 -0.236226 -0.017836 0.549716 -0.136221 1.150388 -0.206916 -0.706181 -0.035582 0.741932 -0.093412 0.317480 0.148186 0.749781 0.874715 -0.154960 -1.072268 0.014606 -0.549189 1.663380 -0.622430 -0.539676 0.228141 0.262944 0.368573
n -0.170266 -0.050835 -0.092319 0.010415 -0.316642 1.573606 0.105355 -0.649645 0.125406 0.599103 0.107553 -0.241207 0.816993 -0.244474 0.294284 0.390918 -0.558897 0.592362 0.007698 0.882851 -0.542267 -1.178918 0.386218 0.525246 1.177625
v 0.039993 -0.136123 -0.925126 0.732511 -0.394240 0.864635 0.059441 -0.970360 0.301623 1.327062 0.310071 -0.402499 0.835391 0.515550 0.703207 -0.869353 -0.794070 -0.311124 -0.654305 1.002089 -0.732166 -0.447598 0.529205 0.550983 0.471437
_+_ -0.924604 0.459804 -1.615682 -1.387723 -0.361675 1.604803 0.063022 0.028801 -0.524753 1.813364 0.369278 0.541982 1.160742 -0.026812 0.630060 0.054954 -0.289417 0.157370 -0.700436 -0.289624 0.052573 -0.519309 0.679880 0.233572 0.370187
_ -0.887646 0.132029 -1.387436 -0.895354 -0.713870 1.427993 -0.052004 -0.149768 -0.245915 1.937953 0.414038 0.373360 1.218467 0.381185 1.165139 -0.051664 -0.705733 0.033614 -0.622594 0.024706 -0.316058 -0.632186 0.736995 0.301477 0.238158
s -0.420679 -0.421027 -0.664979 0.507450 -1.025277 1.043134 0.158116 -1.302589 0.016805 1.474221 -0.017709 0.051653 0.749664 0.252920 0.490967 -0.548805 -0.493147 0.285762 -1.266826 1.459598 -0.716874 -0.474984 0.171862 0.477796 0.305695
aux -0.269632 -0.288811 -0.468375 1.175777 -0.323038 0.428987 0.022303 -0.112703 0.276829 0.670556 0.542152 -0.135458 0.219355 0.696071 0.640110 -1.076540 -0.453776 -0.208731 -0.472795 0.808891 -0.831102 -0.475691 0.652708 0.502067 0.003382
sconj -0.051768 -0.278452 -0.364000 0.026470 -0.563365 1.001372 -0.151798 -0.121748 0.099222 0.535298 0.850349 -0.371042 0.135216 0.498449 0.502391 -0.974285 -0.424765 0.191154 -0.594954 1.208428 -0.737892 -0.803595 0.405915 0.623478 0.074258
j^------------- 0.217291 0.206665 -0.483136 0.267684 -0.216952 -0.649335 -0.955551 0.050950 0.110349 -0.268221 0.295124 -0.192708 -0.437437 0.090026 -0.182441 0.527909 -0.307049 0.266547 0.139558 0.675990 0.284862 0.409711 0.333262 0.059098 -0.123435
db------------- 0.110158 0.475792 -0.958597 0.161944 0.315466 -0.524195 -0.556084 -0.198182 -0.092714 0.017739 0.384405 -0.010512 -0.707606 0.351265 -0.655276 0.155754 0.086424 0.364738 0.433276 0.231892 0.277056 -0.003972 0.057879 0.091146 -0.249265
e -0.385360 0.544682 -0.361785 0.198917 -0.727808 0.904934 -0.157342 -0.787487 -0.073657 1.337121 0.241945 -0.435963 0.927658 0.678908 0.381844 -0.512743 0.173262 -0.371715 -0.908817 1.455937 -0.760258 -0.251760 -0.041206 0.481419 0.726919
rr--6---------- 0.056585 0.516664 0.078254 0.482173 -0.101291 -0.390403 -0.222298 -0.124126 -0.176845 -1.007656 1.483485 0.160413 -0.301027 -0.302763 -1.036819 0.539477 -0.979895 -0.219584 0.093022 -0.201742 -0.350083 -0.117742 0.824518 -0.403997 0.490874
vb-s---3p-aa--- 0.610631 -0.522035 -0.690842 -0.100853 -0.118042 -0.221163 -0.993076 -0.109719 -0.257466 -0.488827 -0.252143 -0.088585 -0.847264 0.107594 -0.494460 0.245618 -0.352518 -0.295195 0.066861 0.082066 0.903650 -0.069446 0.571986 -0.018036 0.173953
rd 0.031447 0.458136 -1.456842 0.422303 -0.618383 0.635980 0.682973 -0.624189 -0.119551 1.204808 -0.180177 -0.446249 0.551122 0.691346 0.837711 -0.375936 -0.049090 0.090688 -0.246102 1.084646 -0.665898 -0.960643 0.294036 -0.015049 0.754038
part -0.223196 -0.070126 0.036927 0.059670 -0.807583 0.325241 0.391455 -0.817595 0.194109 0.959120 -0.027565 -0.857691 0.523744 0.612789 -0.893367 -0.503621 -0.086425 -0.082142 0.517395 1.019021 -0.503594 -0.107525 0.162494 -0.038988 0.149549
nn -0.535988 0.141304 0.123813 0.612606 -0.483176 0.336141 -0.152592 0.608120 -1.211409 -0.380386 -0.247122 0.142999 0.570648 0.007419 -0.439574 -1.245770 -0.629947 -0.307278 0.273506 -0.288850 0.310393 -1.078696 -0.492390 -0.330069 0.015773
nnms1-----a---- 0.620528 0.044471 0.758999 0.332531 -0.389588 0.809657 -1.561468 -0.643718 0.383274 0.424851 0.391097 1.106609 -0.895864 0.088046 -1.149447 0.077751 0.702621 1.027010 0.150918 0.635682 0.205405 0.308865 0.589021 -0.114727 0.575324
a -0.430642 0.020929 -0.549923 0.310645 -0.580375 1.289181 0.037772 -0.605109 -0.205618 1.231864 0.187164 -0.101950 0.423822 0.268190 0.572104 -0.190261 -0.167455 -0.118470 -0.524627 1.288917 -0.398764 -0.887793 0.201106 0.578826 0.794083
punct+_ -0.125323 -0.047239 -0.322270 0.401780 -0.428425 1.262145 0.026508 -0.440345 0.019749 0.514050 0.547519 -0.144259 0.455842 0.786358 0.535672 -0.508486 -0.846521 0.301821 0.230668 1.252904 -0.604382 -0.260871 0.189157 0.419453 0.669288
nnfs2-----a---- 0.140809 0.232708 -0.284836 0.395537 0.028055 -0.479570 -1.000772 0.513376 0.840819 0.243594 0.878289 0.356980 -0.841234 0.243810 0.254302 0.137061 -0.107843 -0.155604 0.037420 -0.373690 0.150863 -0.032888 0.855499 -0.888202 -0.527993
nnfs1-----a---- 0.484614 0.064348 -1.195330 -0.291828 0.279558 -0.178652 -0.411022 -0.113311 -0.154149 -0.030805 0.088997 0.189598 -0.638812 0.958113 0.008594 0.694094 0.247199 -0.787159 1.444705 0.298017 -0.030742 0.424945 0.839040 -0.427793 0.314375
rr--4---------- 0.420248 0.466522 -0.465596 0.075596 0.061585 -0.019396 -0.547141 0.577045 0.053424 -1.012820 0.701520 -0.117634 0.239755 0.425552 -0.611768 0.062352 -0.264758 0.270245 -0.105090 0.383644 1.127628 0.541230 -0.091039 -0.100738 -0.832788
rr--2---------- -0.133994 0.221778 0.314518 0.453099 -0.766619 -1.081757 -0.962253 0.521242 0.089495 -0.073387 0.516431 0.169669 -0.376023 1.124975 -0.260960 0.263173 0.310032 -0.106127 0.291653 -0.045708 0.140559 0.491721 1.086710 0.101868 0.087980
c=------------- -0.107084 0.665697 -0.593211 0.780263 0.484375 0.051838 -0.566664 0.170735 -0.007944 -0.385790 -0.853068 0.452425 -0.193633 1.101398 -0.703592 -0.028833 -0.669641 0.710836 -0.116740 0.231632 -0.232852 -0.014815 1.119700 -1.037895 0.617569
j,------------- 0.096885 1.100136 -0.985797 0.077894 -0.063892 -0.162189 -0.720906 -0.173375 -0.227036 0.058418 0.454027 0.110882 -0.656131 0.171756 -0.475087 -0.332554 -0.072144 -0.205326 -0.243063 0.880665 0.146101 -0.003249 -0.046963 0.013258 0.568022
in -0.902564 0.082709 0.447359 0.096207 -0.715443 -0.071925 0.256735 0.840163 -1.182989 -0.280144 -0.044299 0.004581 0.638609 -0.022270 -0.780718 -0.746505 -0.150377 -0.317329 0.602807 -0.313775 0.661110 -0.412744 -0.702723 0.210299 0.566494
vf--------a---- 0.212067 0.408811 -0.893866 0.321501 0.061175 -0.274719 -0.442450 -0.261525 -0.104317 -0.292734 0.517388 0.008493 -0.557543 0.452183 -0.574815 0.132548 -0.107894 0.179115 0.124269 0.088454 0.664049 -0.065226 -0.304906 0.228407 -0.598844
nnis2-----a---- -0.246526 -0.602206 0.032727 -0.125115 0.052265 0.040409 -1.235674 -0.298710 0.608708 -0.355574 0.473372 0.563512 -0.450933 0.946112 -0.065294 0.361593 -0.359081 -0.172760 0.042691 0.382114 0.310469 -0.273314 -0.192801 -0.434409 0.746822
nnis1-----a---- 0.375644 -0.176034 -0.221338 -0.424880 0.056947 -0.269498 -1.017119 -0.232220 -0.597975 -0.454722 0.309308 0.297170 -0.783916 0.357999 -1.303056 -0.604516 0.424047 0.554629 0.402839 0.015259 -0.391228 0.724696 0.288057 -0.782209 0.098623
dt -0.359440 -0.665260 -0.397550 0.790537 -0.390973 0.128217 0.114203 0.867166 -1.291172 -0.428873 -0.813501 0.298767 0.764023 0.137048 -0.157817 -0.927616 0.114931 0.019587 0.562398 0.532756 0.012010 -0.249921 -0.730005 0.303005 0.359947
nnfs4-----a---- -0.768702 0.513027 -0.601194 0.494754 -0.210018 -0.194000 -1.142671 -1.026174 -0.334930 -0.687194 0.206999 1.183389 0.132622 0.328534 -0.021237 0.463203 -0.173743 -0.172592 -0.425952 0.036790 0.757382 0.943684 -0.301339 -0.143373 -0.485611
p7-x4---------- -0.566842 0.143444 -0.714125 -0.031564 -0.136999 -0.203481 -0.382119 -0.687308 -0.191052 0.346913 0.770138 0.559711 -0.844488 0.159981 -0.307799 0.710696 -0.181762 0.556212 0.383801 0.202709 0.091450 0.063920 0.475219 0.254272 -0.114436
vpys---xr-aa--- 0.473620 -0.320018 -0.206787 -0.060752 -0.495348 0.542020 -0.607096 -0.111257 0.059430 -0.385993 -0.214919 0.749508 -0.631282 -0.425197 -0.953048 0.037530 -0.460519 0.338342 -0.438176 0.041326 1.131864 0.166156 0.603873 -0.445394 0.034347
dg-------1a---- -0.115250 0.251388 -0.911617 0.085271 0.101741 -0.376025 -0.726841 -0.071439 -0.167121 -0.099522 0.561766 -0.124630 -0.446333 0.269025 -0.659044 0.162743 -0.187725 0.410703 0.527821 0.236486 0.310236 0.034400 0.154810 0.188171 -0.305307
nnis4-----a---- -0.028690 -0.144570 -1.021891 1.250475 -0.185890 0.058750 -0.325334 -0.310807 0.751853 -0.798839 0.733348 1.004647 -0.266769 0.796234 -0.501305 -0.375901 0.031041 -0.071866 -0.310962 -0.314188 0.105947 0.840078 0.478760 -0.338753 -0.944983
r 0.111598 0.455135 0.276878 0.651900 -0.079657 -0.027851 0.339241 -0.634894 -0.945072 -0.344812 0.697591 -0.726568 0.476922 0.029793 1.144943 -0.154870 -0.431476 0.133855 0.212619 -0.423154 0.617013 0.030055 0.362569 0.379020 0.457179
cc -0.310021 0.314178 -0.527680 -0.141493 -0.314869 1.017660 0.210393 -0.593380 -0.168716 1.009027 0.184738 -0.337293 0.907100 0.360859 0.431620 -0.370487 -0.110892 0.249372 -0.529205 0.616332 -0.074786 -0.677874 0.256948 0.565570 0.765115
nnfs6-----a---- 0.011628 0.441007 -0.014703 0.539030 1.220149 -0.964176 -0.748014 -1.365598 0.105439 0.340171 0.179734 -0.325815 0.458117 -0.208585 -0.449385 0.419424 -1.071119 -0.354475 0.276757 0.401063 0.188735 0.111421 0.783514 -0.175866 -0.225927
pun -0.305552 0.666726 -0.772484 0.294703 -0.315471 1.398566 -0.290164 -0.386462 -0.140373 0.393897 0.629220 -1.710498 1.672948 -0.189960 -0.704437 -0.214170 -0.257176 0.431421 0.594530 1.103282 -0.787263 -1.001406 1.138161 0.657382 1.499122
nnfp2-----a---- -0.797559 0.360391 -0.180314 -0.499026 0.337152 -0.600134 -1.621192 0.280517 0.351728 -0.019438 0.461691 0.218868 0.306230 0.607407 0.196808 0.311700 -0.822739 0.424944 0.795129 -0.202910 0.488693 0.217476 0.243396 -0.294633 0.192995
nnp -0.419399 -0.371370 0.290292 0.582508 -0.646710 0.766712 -0.911056 1.053616 -1.561873 0.010297 -0.311395 0.339042 -0.120723 -0.049494 -0.105156 -0.931479 -0.043352 -0.733381 0.568415 -0.679991 -0.093793 -1.023218 -0.785617 0.087769 0.823486
sp -0.303463 0.455321 -0.541005 0.005760 -0.248993 1.399327 0.231209 -0.985994 -0.085650 0.622525 0.254277 -0.028585 0.478872 0.393000 0.672111 -0.647950 -0.554637 -0.035626 -1.086196 0.793634 -0.308968 -1.179585 0.472577 -0.135320 0.468713
nnns2-----a---- -0.691819 -0.164240 -0.010618 0.358092 0.224071 -0.328534 -1.351231 0.383113 0.441530 -0.565170 0.716721 -0.014556 -1.008398 0.690387 0.058592 -0.086591 0.315514 0.191960 -0.294545 -0.292270 0.124795 -0.412127 -0.098166 -0.094172 0.374177
prp -0.199406 -0.757505 0.090505 0.210208 -0.577617 0.187341 0.009295 0.792749 -0.899389 0.090214 -0.440316 0.727884 0.667955 -0.529124 -0.488663 -1.055220 0.169645 0.752902 0.527284 -0.086827 0.450565 -1.147659 -0.386916 -0.450792 0.632351
ff -0.394693 0.208432 -0.618927 0.112305 -0.464373 0.735734 0.032472 -0.487264 0.088045 0.975421 0.280235 -0.075058 0.970252 0.452126 0.917192 -0.475067 -0.328135 -0.023279 -0.660077 0.846006 -0.445583 -0.432481 0.671608 0.001553 0.693143
jj -0.569180 -0.105556 -0.228213 0.687090 -0.256917 0.271700 0.271062 0.913380 -1.003296 -0.312476 -0.174382 0.011292 0.582368 -0.563375 -0.462618 -1.139766 -0.807000 -0.185318 0.118162 -0.070673 0.578297 -0.692994 -0.548712 0.102421 0.473468
rr--7---------- -0.330375 -0.023092 -0.047424 0.082482 -0.750325 -0.860722 -0.602973 0.007196 -0.080317 -0.376668 0.227442 -0.079529 -0.310262 -0.038418 -0.322832 1.231306 -0.187189 0.562145 0.439688 1.170771 0.773487 -0.743165 0.204738 -0.792888 -0.191613
vb-p---3p-aa--- 0.248057 0.406398 -0.811359 0.650241 -0.897560 -0.460451 -0.725871 0.179014 0.333869 -0.228704 0.062788 -0.140481 -0.182431 -0.568562 -0.667778 -0.016265 -0.897676 0.181558 0.269086 -0.296637 0.697437 0.024281 -0.121553 0.156098 0.435314
rb -0.453976 -0.136882 -0.021014 0.354179 -0.567891 0.196658 0.029656 0.827586 -0.627011 0.010308 -0.520041 0.037647 0.442628 -0.097686 -0.441641 -1.289150 0.177881 0.472464 0.773485 -0.073886 0.710425 -1.127148 -0.622706 0.172196 0.327831
aafs2----1a---- 0.258402 0.787143 0.418682 0.402610 -0.407695 -1.447797 -1.139491 0.288538 0.735221 0.457173 0.895780 0.145932 -1.479816 0.287248 0.091007 0.706169 -0.008403 -0.104236 -0.901399 -0.405812 0.817450 0.631967 0.130133 -1.310682 0.113525
nnip2-----a---- -0.750813 -0.154766 -0.181819 0.547460 0.367767 -0.274347 -1.620308 0.270807 -0.105705 -0.341996 0.172823 -0.847851 -0.440493 1.134111 0.025084 -0.086543 -0.654596 0.239771 0.340945 0.023099 0.470690 0.132268 0.586648 0.241057 -0.250208
. -0.602793 -0.093735 0.267595 0.801495 -0.732042 0.433864 0.164861 0.922076 -1.415825 -0.244825 0.031056 0.030195 1.212655 -0.187511 -0.425008 -0.545437 -0.103318 -0.189895 0.978571 0.125976 0.642199 -0.305487 -1.050346 0.423330 0.422495
fs -0.321967 0.529019 -0.319917 0.017686 -0.508206 0.816262 0.123826 -0.428711 0.021820 0.465411 0.281148 -0.195945 0.949501 0.241227 1.009403 -0.322949 -0.177892 0.003364 -0.781221 0.536522 -0.268243 -0.504195 0.290579 0.067796 1.147017
nnis6-----a---- -0.736451 0.187813 0.469744 0.615155 0.991309 -0.879807 -0.386416 -0.813314 -0.124259 0.084158 -0.064129 -0.392867 -1.264360 -0.138791 -0.958744 0.332332 -0.455442 -0.356831 -0.012791 0.338939 0.417977 0.792489 0.308829 -0.434022 0.371519
c -0.303196 0.351610 0.179814 0.191991 -0.319958 1.032442 0.786171 -0.134959 0.514065 0.252368 -0.042214 -0.975627 1.076486 -0.319590 -0.060738 0.087779 0.183291 1.040982 0.390302 0.669708 -0.328810 -0.811919 0.472791 0.567864 1.160718
vb -0.462958 0.375882 -0.121963 0.598787 -1.126982 0.262661 0.226525 0.599845 -0.755658 0.049524 -0.176808 0.794332 0.824116 -0.501447 -1.102471 -1.132384 0.785308 0.196343 -0.092681 -0.002328 0.325238 -0.660176 -0.718453 -0.376348 0.741682
adp+adptype=prep -0.852471 -0.010681 0.399724 0.617021 -1.140113 0.063830 -0.483518 0.933558 -1.009052 -0.348632 0.064014 0.114516 0.658178 -0.014238 -0.679012 -0.686195 -1.218403 -0.105632 0.961705 -0.163104 0.648657 -0.587333 -0.992851 0.209278 0.618263
aafs1----1a---- 0.150204 -0.134194 -2.024061 -0.045834 0.303373 0.533889 -0.945814 -0.110421 -1.100093 -0.177066 0.331163 0.203022 -1.018213 1.170385 0.249521 1.783462 -0.036673 -1.422910 1.031716 0.062067 -0.647196 0.368618 0.386575 -0.209282 0.789345
nnns1-----a---- 0.323960 0.663689 -0.253415 -1.071290 0.193137 -0.640138 -1.289737 -0.729935 -0.229200 0.181235 0.391340 -0.178423 -0.411242 0.634952 -0.287568 -0.091955 -0.270879 0.013760 0.177356 -0.438878 0.546144 -0.425811 0.872454 -0.572534 -0.462974
nnns4-----a---- -0.193166 -0.280575 -0.253013 0.988584 0.431908 -0.310244 -1.326777 -0.234750 -0.265135 -0.026023 0.460141 0.377692 0.388992 1.288564 -0.824654 -0.296031 -0.002722 0.009365 -0.832558 -0.022603 0.538347 0.784999 -0.029939 -0.054367 -0.544859
nns -0.335840 -0.174003 0.353174 0.529251 -0.380564 0.699926 0.091972 0.371333 -1.061289 -0.468487 -0.224278 0.168181 0.759006 0.327251 -0.795618 -1.067752 -0.462420 0.216178 0.315195 -0.263835 0.403856 -1.251668 -0.326769 -0.192474 0.320116
, -0.490777 -0.041182 0.076665 0.519081 -0.946408 0.638948 0.175397 1.050260 -1.241489 -0.082702 0.017273 0.542207 0.895019 -0.089710 0.023871 -0.224293 -0.081655 -0.146096 0.821218 0.143805 0.666209 -0.934205 -0.897323 0.053970 0.126990
nnms2-----a---- 0.534498 0.789213 0.236400 -0.130337 0.523586 -0.525639 -1.530530 -0.070801 0.487609 -0.881143 0.086393 1.065904 -0.521099 0.013673 0.525568 0.325569 0.706359 0.368711 0.739626 -0.501701 0.594616 -0.589506 -0.001802 -0.690082 0.080884
b -0.070510 -0.003955 -0.597357 0.322867 -0.227889 0.870250 0.040859 -0.385397 0.012950 1.044299 0.375718 -0.450215 0.666550 0.344409 0.750003 -0.585036 -0.067158 0.426605 -0.624111 0.806741 -0.424109 -0.549782 0.434143 0.480559 0.254029
pp -0.259219 -0.234924 -0.143437 0.358910 -0.387985 0.536375 -0.071298 -0.187783 -0.004922 0.398735 0.218667 -0.144117 0.054106 0.523888 0.441592 -0.499894 -0.447246 -0.117548 -0.265076 0.802223 -0.530416 -0.083489 0.003509 0.058536 -0.012570
nnns6-----a---- -0.100982 0.047525 0.681340 0.615185 1.054587 0.093402 -0.642267 -0.604616 0.321311 0.805914 0.190680 -0.476565 -0.317714 0.049639 -0.632681 0.366930 -0.863745 -0.422050 0.458394 0.278379 0.162932 0.919435 0.839320 -0.117838 -0.278092
vpqw---xr-aa--- 0.290617 -0.267171 -1.087717 0.254104 -0.089646 0.202539 -0.649193 0.262859 -0.256631 -0.351861 -0.089775 0.041093 -0.581190 0.366684 -0.133352 1.083468 -0.449372 -1.116067 0.206770 0.085195 0.848485 0.184778 0.481817 0.002471 0.398641
aais2----1a---- 0.984970 -0.396252 0.682445 -0.017887 -0.746221 -1.317541 -0.902441 -1.110224 0.425646 -0.066274 0.342688 1.211803 -0.495259 1.894329 0.001222 0.238644 -0.504103 -0.170325 0.193959 0.054339 -0.361215 -0.030755 -0.520281 -0.443539 0.413277
nnfs7-----a---- -0.421813 -0.516651 -0.678663 0.802058 -0.246957 -0.893767 -1.002053 0.626404 -0.261705 0.709714 0.093975 -0.513613 0.074315 0.529176 -0.621341 0.851286 0.779232 0.302686 0.477026 0.351647 0.217356 -0.724012 -0.037641 -1.141656 -0.664838
nnmp2-----a---- -0.009387 0.667179 0.284207 0.091595 0.295262 -0.024945 -1.199242 -0.299114 0.138031 -0.111149 0.271662 -0.167432 -0.359697 0.968976 -0.155786 0.228545 -0.524902 0.081215 0.806917 -0.291924 0.500708 0.687325 0.195680 -0.528476 0.098993
aais1----1a---- 1.315236 -0.506032 -0.808420 -1.680720 -0.108945 -0.234754 -0.501833 -0.075953 -0.910505 -0.315331 0.090119 0.172500 -1.749880 0.472353 -1.108806 -0.729686 0.399991 0.614620 0.906019 0.602118 -0.922739 0.660527 0.398202 -0.933560 0.047127
nnfp1-----a---- -1.213181 0.524152 -1.010406 0.292640 -0.635145 -0.712158 -1.087496 0.276920 0.399185 -0.114814 0.469352 -0.128558 -0.020170 -0.789504 -0.900688 -0.100939 -0.402952 0.470713 1.078422 -0.659816 -0.185162 0.151664 -0.017045 0.217847 1.350428
rr--3---------- -0.587222 0.621790 -0.078332 0.440027 -0.270712 0.080389 -1.271785 0.301729 -1.695881 -0.259430 0.206898 -0.077348 -0.348851 -0.081915 -0.031764 1.170332 0.158079 -0.070313 0.210295 -0.464384 -0.239712 0.534303 0.407425 0.081434 -0.709405
conj+_ -0.148767 0.177554 0.186814 0.301174 -0.363621 0.930797 0.015206 -0.167712 -0.054416 0.545711 0.672248 -0.401052 0.506907 0.306046 -0.148062 -0.886471 -0.667716 0.408096 0.247520 1.024703 -0.364214 -0.226359 -0.044565 0.697678 0.648664
nnis7-----a---- -0.495890 0.273479 -0.096964 0.018587 -0.412317 -0.862800 -0.746337 -0.668712 -0.418673 0.206532 -0.244616 -0.141591 -0.180829 0.359743 -0.969345 0.579370 0.230167 -0.311856 0.739919 0.191168 0.618792 -0.057377 -0.146856 -1.437283 -0.513795
tt------------- -0.040046 0.363565 -0.730479 0.276273 0.136479 -0.190992 -0.644854 -0.221816 -0.166332 -0.237273 0.120907 0.066453 -0.529619 0.426969 -0.626203 0.266875 -0.481731 0.486962 0.158887 0.396809 0.303025 0.188307 0.270094 0.293176 -0.593772
nnfxx-----a---8 0.081763 0.552423 -0.413828 0.622574 0.650288 0.097797 -0.904877 0.009246 0.403168 -0.014379 -0.167199 0.110199 -0.246600 0.360553 -0.313191 0.452623 -0.122383 0.311899 0.096093 0.246389 0.035386 0.087669 0.460728 -0.734390 0.150743
vc------------- 0.087554 -0.200467 -0.854919 -0.306278 0.479212 -1.091327 -0.099420 0.256959 -0.316776 0.170298 0.502396 0.474923 -0.410147 -0.090274 -0.668691 0.585804 0.328989 0.460273 0.078741 -0.308732 1.239954 0.388309 0.402332 0.652437 0.845749
aafs4----1a---- -0.213774 1.097581 -0.293063 0.525979 0.650426 0.092573 -1.156135 0.136670 -0.320296 -1.646174 0.143968 1.234150 -0.409781 0.258871 0.176289 0.019690 0.132524 0.002130 0.302321 -0.056864 1.351018 0.728597 -1.628593 0.718785 -0.649544
nnfp4-----a---- -0.206489 0.049674 -1.353301 1.079300 -0.415907 -0.324624 -1.240398 -0.333170 0.218661 0.367392 0.429937 -0.010917 0.695719 0.653383 -0.765290 -0.096006 -0.467533 0.099410 -0.515185 -0.016050 -0.065121 0.243583 -0.328449 -0.422698 -0.839531
vpmp---xr-aa--- -0.148508 0.610873 -0.205837 0.816950 -0.731533 0.354181 -0.465438 -0.111633 0.123505 0.109123 0.035582 0.090312 -0.623760 -0.058930 -0.966886 0.447152 -0.657369 -0.063092 0.007649 -0.167572 1.350676 0.297484 -0.341681 0.162697 -0.498322
nnmp1-----a---- -0.397623 0.948459 -0.282152 0.941637 -0.380067 -0.426186 -0.714403 0.558742 0.533303 0.809649 0.373349 0.253520 -0.004356 -0.192676 -0.739256 0.375995 -0.013146 0.324937 0.732114 -0.393880 0.966475 0.741291 -0.254208 0.571129 -0.497316
adv+_ -0.652119 0.156809 -0.248678 0.570231 -0.835939 -0.271521 -0.466364 0.990395 -0.777802 0.266627 -0.164783 0.159128 0.844215 -0.055167 -0.474108 -1.382271 -0.140370 0.241170 1.088855 0.024646 0.840242 -0.709049 -0.751422 0.464230 0.469189
noun+definite=ind+gender=com+number=sing -1.252007 -0.611307 -0.164718 1.393800 -0.745601 -0.163266 -0.919175 0.857237 -1.408982 -0.461899 -0.169077 -0.076089 0.272481 0.155761 -0.615645 -1.065972 -0.465715 -0.183692 0.976388 0.354153 0.084480 -1.082071 -0.958868 0.277467 0.278357
fb -0.277503 0.370067 -0.304309 0.109362 -0.229290 1.098507 0.202071 -0.326070 -0.083033 0.480766 0.091519 0.015144 0.680581 0.182915 0.859156 -0.380334 -0.421264 0.126862 -0.627189 0.832497 -0.543044 -0.454622 0.372227 -0.129442 0.680432
va -0.154063 0.129824 -0.536158 0.158533 0.002750 0.637265 -0.124155 -0.018041 0.179215 1.075233 0.522472 -0.621936 0.763783 0.171134 0.745402 -0.759359 0.092052 0.426122 -0.360102 0.873564 -0.374472 -0.567216 0.606554 0.358205 0.340870
vbd -1.034164 0.506556 -0.104493 0.916830 -0.518579 0.467725 0.502340 0.688621 -0.598361 0.166676 0.352081 0.502936 0.785264 0.169393 -0.333663 -0.993882 0.237992 -0.172316 0.472783 -0.293643 0.248278 -0.896447 -0.609862 0.140443 0.730130
aafp2----1a---- -1.068393 0.002919 0.332756 -0.418577 -0.085825 -1.267068 -2.047342 1.063434 -0.141761 -0.366673 0.373662 0.355525 -0.000798 0.733430 0.163103 0.167832 -1.564946 1.181585 0.814441 -0.094391 -0.211211 0.509789 -0.142596 0.153544 0.906959
vbp -0.994910 0.432993 -0.281947 0.914663 -0.433860 0.306945 0.512590 0.627352 -0.547758 0.367476 0.440693 0.495716 0.630107 0.191775 -0.325892 -0.827175 0.324669 0.167019 0.534220 -0.443315 0.639430 -0.984714 -0.698821 0.518381 0.729491
nnip4-----a---- -0.973463 -0.168235 -1.267354 1.022449 0.147729 0.150591 0.201200 0.333502 0.205674 -1.077440 0.604318 0.183484 -1.217021 -0.003877 -0.072049 -0.303791 -0.006052 0.548400 0.267274 0.070780 0.803300 0.899422 0.386305 -1.000153 -0.561589
vpns---xr-aa--- 0.289077 -0.022819 -0.341010 -0.298951 -0.076718 -0.405805 -0.990021 -0.430196 -0.654641 -0.145498 -0.131111 0.043812 -0.652788 0.315382 -0.395086 0.047399 -0.991004 -0.194385 -0.732158 -0.392764 1.173395 -0.519970 0.769716 -0.073175 0.024411
aais4----1a---- 0.773361 -0.657699 -0.795045 0.889997 -0.106775 0.664641 0.083563 0.203261 0.862302 -0.803876 1.204656 1.573691 0.035876 1.452664 -0.471361 0.138212 -0.697501 0.137886 0.579829 0.918476 0.834912 0.634275 -0.939186 0.306745 -1.004062
n,sg,nom -0.642281 0.194255 -0.377837 -0.156698 -0.523558 1.034180 -0.196739 -0.389320 -0.300332 -0.280797 0.179829 -1.383382 0.885678 -0.700149 -0.742159 -0.113601 -0.327217 0.686059 0.679025 0.504980 -0.608532 -0.747790 0.800949 0.438125 1.866789
nnip1-----a---- -0.742900 0.477988 -1.223390 0.256052 -0.705177 -0.793604 -0.852988 -0.145932 0.834887 0.638320 0.643295 -0.552216 0.706547 -0.064514 -1.087598 -0.243582 -0.486248 0.571727 0.327008 -0.281926 0.235797 0.189263 -0.338051 -0.275890 0.787267
vb+prs+akt -0.189091 -0.120969 -0.148782 0.327632 -0.287654 0.325770 0.081570 -0.179673 0.004420 0.273835 0.271897 -0.154599 0.187072 0.355598 0.328607 -0.408153 -0.273117 -0.055776 -0.198237 0.585931 -0.317046 -0.075666 -0.015582 0.009219 0.093444
aaip2----1a---- -0.143774 0.051542 -0.356702 0.630901 0.011313 -0.236093 -1.030070 1.031219 0.556164 -0.302601 0.558098 -0.896877 -0.972802 1.475571 0.829677 -0.516436 -1.593764 0.520675 -0.054256 -0.719718 0.016518 0.296092 1.249634 -0.266896 -0.864850
vb-s---3p-na--- 0.837459 -0.369969 -0.752549 0.032129 -0.166795 -0.218696 -0.971324 -0.061380 -0.427415 -0.409949 -0.213557 -0.167945 -0.692435 0.138855 -0.557783 0.244821 -0.416949 -0.233647 0.076154 0.035938 0.865345 -0.123065 0.456996 0.111706 0.001352
nn+utr+sin+ind+nom -0.019518 -0.217294 -0.033645 0.315659 -0.207360 0.508432 0.027999 -0.231729 0.014305 0.360270 0.376235 -0.111163 0.071991 0.279250 0.206934 -0.506326 -0.301452 -0.078066 -0.277522 0.612147 -0.331761 -0.149892 0.078353 -0.055527 -0.069555
vbz -0.769021 0.151792 0.047644 0.567549 -0.435149 0.324616 0.603635 0.528071 -1.161525 0.121754 0.584541 0.147391 0.902594 -0.002139 -0.478149 -0.686508 0.109173 -0.085208 0.745068 -0.252923 -0.059557 -1.027637 -0.623224 -0.075454 0.664279
v,act,ind,pres,sg3 -0.263218 1.038805 -0.478549 0.493034 -0.331205 1.294608 0.195331 -0.087544 -0.288762 -0.020697 0.963450 -0.971274 0.930104 -0.118282 -0.408440 -0.481363 0.029387 0.604006 0.230733 0.608006 -0.951767 -0.458892 0.840512 0.936740 1.574649
aans1----1a---- 1.234553 0.268429 -1.180207 -1.416226 0.251620 -0.842074 -1.013417 -0.858304 -0.749195 0.690326 0.659121 -0.072965 -0.367948 0.955241 -0.137583 -0.261253 -0.345738 0.134812 -0.088086 -0.152278 0.352208 -1.091063 1.011557 0.067625 -0.292243
aafs6----1a---- -0.373796 0.064679 0.194911 1.046336 0.929647 -0.921413 -1.412567 -1.293679 -0.725410 0.233368 0.764314 -0.032087 -0.228064 -1.366257 -1.243697 0.703809 -2.069849 -0.197764 0.133042 -0.122785 -1.255447 -0.448592 0.558497 0.228632 0.744379
rv--6---------- 0.144985 0.385720 0.083147 0.656540 0.006784 -0.218284 -0.500410 -0.246749 -0.343957 -0.836508 1.493045 0.157938 -0.136170 -0.177911 -1.037086 0.675736 -0.910927 0.027661 0.437341 -0.095287 -0.312008 -0.195038 0.936937 -0.335599 0.450903
pc -0.009592 0.110382 -0.516261 0.178514 -0.060522 0.645905 -0.077774 -0.115400 0.141463 1.021770 0.367975 -0.555462 0.681704 0.210891 0.610971 -0.583957 0.239522 0.461785 -0.368970 0.821138 -0.347329 -0.570693 0.539844 0.294054 0.365752
ri -0.232176 0.191329 -0.830092 -0.042293 -0.300823 0.614834 0.346039 -0.113199 -0.151213 0.882773 0.312666 -0.331852 0.525015 0.276420 1.159085 -0.049039 0.122564 0.264852 -0.279053 0.495268 -0.236703 -0.683559 0.205509 0.290400 0.682975
aans2----1a---- -0.675719 -0.967378 -0.237324 1.106909 -0.252925 -0.248708 -1.929105 0.505910 0.189917 -0.466390 0.843447 0.338410 -0.834762 0.641207 0.797043 1.042749 0.380577 -0.240463 -0.427330 -0.172602 -0.269869 0.048819 0.057273 0.077582 0.368410
mad -0.133807 -0.113012 -0.079623 0.207002 -0.202843 0.255405 -0.034604 -0.087620 -0.045835 0.228729 0.134985 -0.117195 0.096348 0.198987 0.237801 -0.334305 -0.215302 -0.008699 -0.062200 0.386194 -0.219821 -0.050957 -0.021425 -0.021106 0.068280
propn+_ -0.840712 -0.542756 0.755345 0.838639 -0.601456 0.478313 -1.166014 0.809692 -0.497433 0.384666 -0.149779 0.398223 0.073318 -0.200486 -0.670315 -1.556598 -0.036981 0.499489 0.661817 -0.052218 0.517675 -0.486208 -1.164767 0.244994 0.813852
cd -0.536764 0.032789 0.154740 1.143694 -0.476806 0.519662 -0.026011 0.593169 -1.312989 0.038922 -0.743370 0.283290 0.630293 -0.433476 -0.507975 -0.525610 -0.998916 0.291739 0.497832 -0.462679 0.172095 -0.368632 -0.558057 0.638895 0.482794
vbn -0.441017 -0.184305 -0.285522 0.192330 -0.417185 0.196026 0.084404 0.775256 -0.932563 -0.171980 -0.328738 0.499300 0.692084 -0.296924 -0.289830 -1.114000 -0.219107 0.191067 0.739900 -0.296359 0.404159 -0.799196 -0.718188 -0.122858 0.593694
nnnp2-----a---- -0.951847 0.622533 -0.397181 0.352325 0.314446 0.265202 -0.784829 0.267666 0.485830 -0.657672 0.551297 -0.721010 -0.435375 1.118880 -0.372024 -0.280211 -0.685570 0.221126 0.383258 0.010394 0.646709 -0.022763 0.607377 -0.493296 0.344582
ncmsi 0.085090 -0.452527 0.719267 0.636122 -0.243234 0.272654 0.286556 -1.318413 -0.486332 0.708789 0.278162 -1.260964 -0.076645 0.140693 0.943844 -0.393970 0.271624 0.641279 0.362200 -0.104084 0.384959 -0.174815 0.327574 0.013531 -0.268131
sconj+_ -0.254226 0.827201 0.290216 0.182002 -0.161894 0.367718 0.168064 0.291889 -0.375635 0.579676 0.347413 -0.099750 0.246753 0.016679 -0.542664 -1.569318 -0.192694 -0.032482 0.575738 0.862544 0.050863 -0.282420 0.024877 0.317736 1.212721
cs -0.388314 0.168602 -0.391787 0.375423 0.455672 0.913518 0.026124 -0.757566 -0.295106 0.930600 0.366280 -0.629578 0.753334 -0.046784 0.877887 -0.210469 0.591103 0.019304 -0.529710 0.482940 0.003265 -0.153591 0.493698 -0.086733 0.067211
ncfsi -0.180276 0.367352 -0.226610 0.613989 -0.667235 0.341090 0.118898 -0.582454 -0.390989 0.191628 0.876937 -1.016441 -0.091903 0.388423 1.720370 0.352239 0.166305 0.293201 0.475556 -0.391948 0.382379 0.443981 -0.255898 0.194155 -0.718769
nnns7-----a---- 0.077871 -0.366226 -0.736452 0.146646 -0.408639 -0.854341 -0.713364 -0.051114 0.167536 0.438874 0.458279 -0.449526 -0.078545 0.779317 -0.449219 0.519760 0.295624 0.015182 0.994652 0.091008 0.017726 -0.151824 0.081317 -1.194935 -0.184286
aams1----1a---- 0.230672 -0.271786 0.514150 0.217110 -0.646761 1.136048 -1.281370 -0.754686 -0.011361 0.213247 0.502217 1.086263 -1.044337 -0.181491 -1.251849 0.281305 0.420541 1.384649 -0.024221 0.500620 0.190892 0.370650 0.531110 0.025019 0.648566
pdns1---------- 0.100754 0.717655 -1.180116 -0.905178 0.248061 -0.032530 -0.534159 -0.767096 -0.578551 0.090141 0.711523 0.031208 -0.745127 0.647741 -0.418778 -0.049082 -0.145414 0.393504 0.366712 -0.035766 0.090406 -0.300473 0.226271 0.089193 -0.669490
aafp1----1a---- -0.669491 0.792278 -0.818769 0.418031 -1.368885 -0.707281 -1.437611 0.449163 -0.069138 0.183090 0.483473 0.227719 -0.546113 -1.458812 -0.999084 -0.360442 -0.581713 1.209100 1.131906 -0.042526 -0.224622 0.860464 -0.556221 0.195204 1.151924
n,sg,gen -0.218661 0.625941 -0.146967 -0.140371 -0.419841 1.027002 0.024139 -0.953259 -0.231419 -0.081869 0.214427 -1.036564 1.148235 -0.166732 -0.781885 -0.381301 -0.462760 0.613346 0.346962 0.603464 -0.560409 -0.918348 0.677707 0.601408 1.453437
vptp---xr-aa--- -0.315914 0.142157 -0.751706 0.348992 -0.920440 -0.286713 -0.633062 0.274249 0.506856 -0.275308 0.174838 0.096491 -0.375310 -0.693175 -0.610018 -0.212490 -1.125985 0.259804 0.041705 -0.285358 0.605724 0.426140 0.048593 0.041761 0.583085
pcle -0.325051 0.520551 -0.235787 0.049336 -0.467376 0.926414 -0.129063 -0.186751 0.047639 -0.096137 0.354350 -1.136448 1.161322 -0.446999 -0.403488 -0.333813 -0.285289 0.784142 0.606029 0.649222 -0.221918 -0.767250 0.870755 0.689532 1.468410
vbg -0.558301 -0.168415 -0.210620 0.247513 -0.411585 0.419308 0.144788 0.701362 -0.983202 -0.038326 -0.210429 0.460337 0.745734 -0.125944 -0.291425 -1.240689 -0.300691 -0.031992 0.315044 -0.347250 0.398454 -0.803297 -0.618847 0.069979 0.681709
adv+degree=pos -0.474777 -0.176746 -0.189281 0.654227 -0.490201 -0.161408 -0.060627 0.566046 -0.905738 0.500681 0.089197 0.307065 0.662519 0.109540 -0.692771 -1.100180 -0.377762 0.021759 0.870651 0.075907 0.607007 -0.353351 -0.516656 0.106236 0.373304
md -1.242585 -0.055700 0.101653 0.857357 -0.538886 -0.116703 0.351637 0.948198 -0.264230 0.828920 0.100861 0.186802 0.318018 0.309659 -0.099757 -1.562696 0.252825 -0.256370 1.171348 -0.230262 0.584348 -0.554636 -1.089976 -0.056914 0.261714
to -0.654994 -0.434703 0.190112 0.281490 -0.562981 -0.610062 0.455866 0.674462 -0.703488 0.151990 -0.491988 -0.284558 0.586683 0.098393 -0.568943 -1.394866 -0.036430 -0.193804 1.018729 -0.128488 0.904923 -0.325577 -0.923570 -0.241710 -0.070655
vb-p---1p-aa--- 0.096119 0.070587 -0.569743 0.908211 0.114980 -0.392004 -0.504785 0.228934 -0.224007 0.097292 0.002242 0.310781 -0.134426 -0.046517 -0.781681 0.482283 -0.480513 0.297080 0.034861 -0.237231 1.437649 -0.175037 0.229816 -0.100747 -0.411171
nnfp6-----a---- -0.642192 -0.009976 -0.325665 1.153807 0.824765 0.011224 -1.075102 -0.578099 -0.165730 -0.041859 0.282035 -0.423526 0.077145 -0.578526 -0.533074 0.551612 -0.721092 -0.758594 0.529626 -0.429096 -0.733299 0.576288 0.652542 -0.151677 0.059178
aais6----1a---- -0.427647 0.546726 0.440068 0.915359 1.602174 -0.091029 0.960155 -0.195233 0.487134 0.091055 1.054406 -0.291252 -1.808762 -0.576991 -0.855250 0.377502 -1.692986 -0.616380 -0.386586 -0.216344 0.030176 0.515307 0.877688 -1.241755 0.515408
aux+number=sing+person=3+tense=pres 0.263794 -0.588955 -0.621116 0.620032 -0.415802 0.554400 0.317465 0.450586 -0.591495 0.953689 1.116848 0.455602 -0.103247 0.211492 0.003036 0.205737 -0.102783 0.254665 0.853425 -0.362584 1.126172 1.117779 -0.550367 -0.235895 0.340073
nnfs3-----a---- -0.234413 0.616929 -0.394506 0.455495 -0.248959 -0.347282 -1.379189 0.151959 -0.717045 -0.451247 0.383917 0.391012 -0.379457 -0.857630 -0.395825 0.034391 0.367313 -0.118002 0.844478 -0.677934 -0.033971 1.121542 -0.153706 -0.349740 -0.099386
prp$ -0.501457 -0.616530 -0.491031 0.806988 -0.514162 0.171308 0.281078 0.889498 -1.372700 -0.176385 -0.499665 0.222257 0.882114 -0.215362 -0.026941 -1.096439 -0.136092 0.212584 0.395319 0.326759 0.143975 0.091745 -0.508230 0.327423 0.478340
ab -0.081048 -0.095519 -0.064035 0.233178 -0.236726 0.349552 0.085200 -0.176083 -0.040121 0.323390 0.252537 -0.153883 0.114790 0.227328 0.215608 -0.359703 -0.216342 0.032469 -0.187374 0.424894 -0.200414 -0.058589 0.032707 0.052761 0.018041
adp+case=loc -0.153622 -0.429857 0.287872 -0.712245 -0.248020 -0.064301 -0.614835 0.360953 -1.477283 0.349833 1.311582 -0.340108 0.471823 0.021951 0.004768 -0.351886 -0.845690 0.472208 0.283972 -1.177004 0.749122 0.431974 0.476942 -0.726332 0.727488
verb+mood=ind+tense=pres+verbform=fin+voice=act -0.653127 -0.386289 -0.070222 0.532199 -0.510298 0.122570 -0.188649 1.046978 -0.767721 0.030976 -0.051762 -0.155996 0.763303 0.161864 -0.923345 -1.248059 -0.542606 0.058241 0.965208 -0.088492 0.903457 -0.448852 -0.191679 0.031798 1.376132
aux+mood=ind+tense=pres+verbform=fin+voice=act -0.420862 -0.045045 0.014455 0.884749 -0.721003 -0.262539 -0.131724 1.181195 -1.016437 -0.007961 0.322317 0.039216 0.989443 0.085465 -0.843760 -1.120545 -0.315750 0.044178 0.957098 -0.533303 1.349762 -0.279503 -0.393364 0.180395 0.760346
aafs7----1a---- -0.521266 -1.433653 -0.515238 0.371877 -0.794114 -0.956379 -0.843667 0.015567 -0.016034 -0.098755 0.286364 -0.146010 -0.387383 0.270059 -0.778001 0.654023 0.184060 1.189373 0.853467 1.393566 0.550601 -1.982304 -0.578978 -0.953943 -0.384996
nnms7-----a---- 0.327404 0.186384 0.138327 1.034887 0.130854 -0.469749 -1.085427 -0.274054 0.037969 1.001034 -0.028145 -0.142859 0.161175 0.021169 -0.630783 0.961317 0.877683 0.776473 0.127643 0.120458 0.514248 -0.782733 0.296311 -1.200254 -0.735980
aans4----1a---- 0.565657 0.115421 0.175228 0.641147 0.570602 0.824767 -0.788904 -0.211917 -0.061603 -0.266686 0.546027 0.516153 -0.119302 1.321537 -0.391517 0.409903 -0.980009 -0.204377 -0.620534 0.183265 0.814548 1.066848 -0.250693 -0.063534 -1.663162
p7-x3---------- -0.161637 0.409041 -0.619147 0.323469 -0.254503 0.256930 -0.218721 -0.527969 0.136723 0.100265 0.772579 0.293864 -0.503674 0.216751 -0.639773 0.638294 -0.041788 0.591202 0.074234 0.324538 0.447777 0.367634 -0.003144 0.628325 -0.154972
pcle,cc -0.386370 0.821853 -0.129694 0.147153 -0.549232 1.023798 -0.122084 -0.412571 -0.092062 0.226866 0.392909 -0.958895 0.952755 -0.195706 -0.471546 -0.330154 -0.274440 0.672717 0.524218 0.706803 -0.685276 -0.778251 0.706080 0.738357 1.751803
cp 0.400927 0.022302 0.385476 0.691057 -0.369529 0.217676 0.300133 -0.768566 -1.005092 -0.141474 0.789404 -0.765358 0.252621 -0.171761 1.024836 -0.763383 -0.198106 0.407840 0.342811 0.080002 0.579698 0.168660 0.199722 -0.119598 0.646380
aaip1----1a---- -0.506247 1.216125 -1.425148 0.374548 -0.833667 -0.448930 0.261724 0.864611 1.168889 0.885742 1.340786 -0.496116 -0.361979 -0.307324 -1.077479 -0.413413 -1.408973 0.913049 0.064670 -0.612918 -0.059177 -0.183226 -0.038401 -0.495968 0.716400
aafp4----1a---- 0.060689 -0.208595 -1.845156 1.396544 -0.238474 -0.813419 -1.149858 0.294047 -0.607994 0.706319 0.409328 -0.261273 1.025393 0.486730 -0.340575 0.743073 -0.497562 0.810704 -1.381762 -0.135968 0.122055 -0.020974 -1.096565 -0.117687 -1.460767
kn -0.110233 -0.111127 -0.059498 0.215055 -0.211133 0.301509 -0.036900 -0.094119 -0.041100 0.261312 0.150382 -0.116916 0.098067 0.230350 0.221355 -0.317409 -0.227407 -0.011524 -0.093289 0.446085 -0.219183 -0.061644 -0.000449 -0.000175 0.062735
v,act,ind,past,sg3 -0.295276 1.045981 -0.292663 0.468177 -0.419969 1.198385 0.150165 -0.175428 -0.358737 -0.043537 0.625047 -1.106346 0.802597 -0.065813 -0.499993 -0.534400 -0.077067 0.673956 0.065141 0.605296 -0.802258 -0.517949 0.667085 0.631261 1.453442
nnms4-----a---- 0.156007 0.996181 -0.831936 0.926308 0.285716 -0.266767 -1.180129 0.107146 0.441127 -0.618732 0.103510 1.386171 1.133875 0.098284 0.185522 0.007260 0.513044 0.968846 0.317336 -0.701540 0.871657 0.172496 0.271673 -0.324759 -0.039360
pr -0.155723 0.073987 -0.453890 -0.052028 -0.097001 0.672415 -0.039468 -0.119036 0.023746 0.874811 0.414749 -0.421460 0.544604 0.202817 0.689188 -0.413918 0.012199 0.114987 -0.382893 0.552258 -0.234264 -0.580401 0.358404 0.370278 0.428267
part+parttype=inf -0.853430 0.008063 0.066321 0.903555 -0.608562 -0.132717 -0.183292 0.823254 -0.723344 0.188413 -0.167497 0.189958 0.450326 -0.061976 -0.618316 -1.115919 -0.369976 -0.031520 0.858963 -0.007601 1.188592 0.174146 -1.338511 0.353578 0.163493
tx 0.469643 -0.363748 -1.148868 0.315427 -0.059224 0.901061 -0.245415 -0.748574 -1.729161 -0.402264 0.951268 -0.558546 0.471487 -0.210829 0.564266 -0.566938 0.428676 0.095532 0.104434 0.106599 0.459064 0.730505 0.489025 -0.974697 0.178470
n,sg,par -0.590842 0.471440 -0.006636 0.001762 -0.606250 0.918485 -0.036594 -0.601525 0.179446 -0.443318 0.441265 -0.981674 1.179361 -0.362161 -0.499379 -0.214707 -0.285376 0.939528 0.628836 0.283455 -0.186983 -0.581561 0.717795 0.597171 1.206736
x 0.429510 1.156531 0.456092 0.347274 -0.475758 1.946490 -0.164823 0.195728 -0.219580 -0.066413 -0.373491 -1.287119 0.331204 -0.246522 0.307457 -0.143751 -0.957549 0.398457 0.668716 1.183391 -1.825397 0.498491 0.652321 0.696514 -0.054183
nnixx-----a---8 -0.288440 0.415202 -0.572874 0.198270 0.519530 0.453345 -0.973196 0.192196 0.290271 0.097088 -0.426336 -0.284604 -0.028738 0.949361 -1.186788 0.390314 -0.208049 0.466422 -0.192387 0.160856 0.407581 -0.109922 0.243703 -0.856714 0.287341
aaip4----1a---- -0.520062 -0.045320 -1.867191 0.201996 0.479462 -0.577438 0.273725 0.543853 -0.451057 -0.711202 0.927482 0.438843 -0.669525 0.043527 0.360353 0.218136 -0.502848 1.891252 -0.002345 -0.306226 1.137437 0.631870 -0.098292 -0.976032 -0.800289
mid -0.088512 -0.080639 -0.095620 0.218247 -0.198674 0.318137 -0.026718 -0.080263 -0.022481 0.240628 0.163349 -0.127865 0.135966 0.244528 0.234895 -0.361042 -0.228638 0.005634 -0.105921 0.440925 -0.245864 -0.078720 0.016634 -0.002359 0.022290
pcle,cs 0.000116 0.594491 -0.294050 -0.201008 -0.628638 0.761581 -0.336184 -0.247959 0.115476 -0.124281 0.290046 -0.840022 0.870575 -0.457396 -0.369805 -0.338433 -0.005142 0.660927 0.276183 0.514344 -0.138978 -0.653787 0.633554 0.718665 1.937367
nn+utr+sin+def+nom -0.020254 -0.092818 -0.036824 0.185491 -0.189667 0.354156 0.035653 -0.129692 -0.009451 0.332387 0.210732 -0.111156 0.089960 0.193258 0.218358 -0.354654 -0.165913 0.018221 -0.148360 0.415704 -0.172510 -0.076630 0.068736 -0.025676 -0.021586
nn+utr+plu+ind+nom -0.071777 -0.137007 -0.068466 0.214667 -0.162372 0.277447 -0.016204 -0.138122 -0.000340 0.296483 0.232975 -0.155700 0.096231 0.201831 0.238503 -0.368224 -0.177765 0.037430 -0.179437 0.356826 -0.172250 -0.048239 0.039131 -0.035086 -0.028681
vb-s---1p-aa--- 0.064658 0.002339 -0.503785 0.531595 0.345641 0.104186 -0.341548 0.094128 -0.509482 -0.133837 0.154964 0.752476 -0.276414 0.078113 -1.052516 0.054989 0.161554 0.563138 -0.092989 0.018442 1.330355 -0.054753 0.324472 0.206126 0.111875
noun+definite=ind+gender=com+number=plur -0.730878 -0.088218 0.149105 1.226904 -1.003026 -0.177733 -0.253940 0.865873 -0.890282 0.474519 -0.306120 -0.304049 0.441017 0.006669 -0.712080 -1.005900 -1.031904 0.721115 0.883980 0.146451 -0.025672 -0.611098 -0.644579 -0.140412 0.304230
dg-------2a---- -0.105603 0.125952 -0.947897 -0.083768 0.371590 -0.310264 -0.513050 -0.175425 -0.211731 -0.170464 0.122061 0.099047 -0.175838 0.390204 -0.723338 0.179625 -0.354970 0.421357 0.451251 -0.296866 0.560253 0.378123 0.292200 0.083633 -0.184122
sym -0.744852 -0.101097 0.188563 0.349484 0.114519 1.840052 -0.053256 0.089861 0.309033 0.273780 -1.199096 -1.342441 1.905055 0.787226 -1.073360 0.824789 -0.415311 0.907849 -0.071360 -0.101515 0.038574 -0.843299 0.207281 0.447207 1.196187
det+definite=def+prontype=art -0.342168 0.055510 -0.514867 0.545987 -0.300083 0.825109 0.230930 -0.761721 -0.175494 0.476382 0.387362 -0.451081 0.555527 0.527364 0.328522 -0.507123 -0.803424 0.348029 -0.137988 1.183248 -0.638928 -0.283395 0.231607 0.094474 0.594599
intj -0.463166 0.879056 0.283179 -0.061473 0.443481 1.273721 -0.219898 0.431190 -0.016336 0.263931 -0.109880 -0.733239 -0.197160 -0.899723 0.125902 -0.496422 0.198624 0.782597 -0.059036 0.437039 -0.404606 -0.524992 0.692369 0.330547 1.307921
nnip6-----a---- -0.403366 0.605476 -0.252509 0.387900 0.817489 -1.068368 -0.320017 -1.337463 0.133303 -0.097099 0.236909 -0.231989 0.054259 0.048349 -0.678523 -0.382150 -1.105003 -0.243460 1.121659 -0.906895 0.009304 -0.122722 0.620710 -0.235713 0.092975
vb-s---3f-aa--- 0.672388 -0.731791 -0.691168 0.127646 0.142655 -0.313267 -0.776456 0.005201 -0.319485 -0.325038 -0.338394 -0.096984 -0.789276 0.082648 -0.577716 0.261230 -0.360573 -0.199488 0.067687 -0.180409 0.857869 -0.004861 0.838187 0.178145 0.225316
vsys---xx-ap--- 0.132848 -0.428030 -0.251653 0.035166 0.175900 -0.149125 -0.504949 -0.322788 -0.372303 -0.095254 0.231849 0.489419 -1.046872 0.155525 -0.669171 0.208741 0.543077 0.705013 0.145052 0.502608 0.114999 0.005312 0.183893 -0.374458 -0.342586
pdns4---------- -0.195084 -0.042994 -0.842151 0.583556 0.306500 0.300386 -0.348060 -0.571321 -0.291873 0.160773 0.328221 0.913324 -0.612098 0.247128 -0.730765 0.203545 0.288693 0.481647 -0.234786 0.243978 0.567484 0.592805 -0.173378 0.461048 -0.137979
ncnsi 0.236139 -0.212100 0.080578 0.977601 -0.630306 0.700626 0.106192 -1.067633 -0.666985 0.431338 0.454009 -0.715706 0.423773 0.183887 1.416390 -0.465157 0.086733 0.246051 0.547956 -0.270947 0.248297 -0.137161 -0.123728 0.030043 0.036129
noun+definite=ind+gender=neut+number=sing -0.502274 -0.250084 -0.289961 1.502597 -0.554374 0.033963 -0.304332 0.484633 -0.756099 -0.182960 -0.100728 0.375343 0.518257 0.415115 -0.872071 -1.707514 -0.814177 -0.237323 0.560078 0.504851 0.307760 -0.831296 -0.645880 -0.119674 0.284231
noun+definite=def+gender=com+number=sing -0.730652 -0.537714 -0.042715 0.626814 -0.421054 -0.054401 -0.560314 0.466968 -0.651689 0.513072 -0.416006 0.241223 0.745882 -0.014447 -0.689526 -1.505431 -0.331208 0.328754 0.826762 0.177788 0.221019 -0.289173 -0.931234 -0.189554 0.171708
nnis3-----a---- -0.763195 0.118176 -0.253096 0.443321 -0.149918 0.154669 -1.820352 0.243289 -1.078368 -0.246775 0.266503 0.417730 -0.036761 -0.320040 -0.518277 0.302427 0.148634 -0.094665 0.232585 -0.604406 -0.260101 0.911689 0.408612 -0.627127 -0.222902
adp+case=acc 0.578270 -0.919789 -0.643728 -0.207861 0.170496 0.404395 -0.759916 -0.064203 -1.395859 0.748331 0.965056 -0.466770 -0.346458 0.424572 -0.147829 -0.208657 -0.686019 0.355225 0.158479 0.272743 0.481821 0.461231 0.639701 -0.534417 0.422413
aais7----1a---- -0.752319 -0.265198 0.288681 0.354221 -0.815715 -0.816204 -0.573934 -0.029986 -0.293285 0.670613 -0.178485 -0.104603 -1.070467 0.130627 -0.946518 1.190555 -0.261122 0.076630 0.315709 0.724420 0.707925 -0.328199 -0.511848 -1.988961 -0.391841
nnis6-----a---1 -0.787471 0.120613 0.158570 0.560953 1.635663 -0.330699 -0.453859 -0.794336 0.187449 0.117171 -0.225668 -0.950672 -0.749281 -0.180166 -1.198970 0.564930 -0.428248 0.187151 -0.071048 0.103864 0.697474 0.602696 0.239214 -0.461075 0.316074
psxxxzs3------- 0.314948 0.048128 -0.326091 0.013102 0.176321 -0.244397 -0.881324 -0.092167 0.335240 -0.008461 0.514479 0.243166 -0.743056 0.035572 -0.183287 0.760341 -0.388440 0.356755 -0.013179 -0.008384 0.111011 0.136127 -0.202377 -0.362310 -0.164511
nnmxx-----a---8 0.572047 0.995141 0.051130 0.660642 0.431195 1.083753 -1.591720 0.212338 0.678498 0.475546 -0.251940 0.978545 -0.483628 -0.204158 -0.335485 -0.075952 0.400991 0.919680 0.130326 0.167881 -0.043928 -0.175465 1.006109 -0.834619 0.616711
nnns3-----a---- -0.063201 0.191995 -0.305246 -0.158637 -0.460910 -0.703700 -1.714617 -0.671179 -0.533444 -0.446849 0.392471 0.469601 -0.076460 -0.252771 -0.089230 -0.399386 -0.002709 0.368540 0.466429 -0.693132 -0.043041 0.759579 0.426669 -0.722139 -0.090468
aans6----1a---- 0.319335 -0.303850 0.924141 1.533173 0.979672 0.200716 -0.187560 -0.499518 0.270546 0.077779 0.302668 -0.271829 -0.996160 -0.347657 -0.539248 0.727407 -2.098159 -0.020643 1.642198 0.063635 -0.457465 -0.177114 0.524720 0.477876 0.138180
aamp2----1a---- -0.137902 0.603749 0.512657 0.545015 -0.297887 0.182646 -1.302711 -0.226188 -0.044727 -0.148276 0.169642 -0.138895 -1.226158 1.612294 -0.244603 0.114582 -0.848013 1.044839 0.776377 -0.160738 0.005416 1.070720 -0.123694 -0.441587 0.541332
verb+verbform=inf+voice=act -0.928503 -0.507388 -0.601985 -0.024716 -0.718650 -0.469284 -0.519759 1.049831 -0.788058 0.120556 -0.003821 -0.191969 1.103271 0.011949 -0.483245 -0.987704 -0.442098 0.132366 0.885509 0.250249 0.664171 -1.032031 -0.417771 -0.161221 0.865154
aamp1----1a---- -0.740597 1.402544 -0.899932 0.942945 -1.091319 -0.172339 -0.401806 0.493031 0.624314 0.886732 0.355824 -0.186691 -0.345306 0.093308 -0.980917 0.740771 -0.261094 0.316421 0.564475 -0.474204 1.305201 0.161392 -0.717786 0.534419 -0.222260
propn+case=nom+gender=masc+number=sing 0.422623 1.025907 0.553153 0.184551 0.179623 1.210200 -0.284862 0.501825 -0.704897 0.320065 1.001649 0.343027 -0.284008 -0.132711 0.246688 -0.611077 -0.477537 1.389871 0.657659 -0.221227 1.264324 1.290113 -0.685518 -0.333835 0.507606
nnmp4-----a---- 0.049781 -0.254338 -1.137537 1.279742 -0.490609 -0.009884 -0.964362 -0.231666 -0.337508 -0.365757 0.510297 0.460421 0.122795 0.807686 -0.074055 0.076267 0.107853 0.177581 -0.134309 0.350964 0.141594 0.654193 0.014603 -0.311347 -0.451018
aaxxx----1a---- 1.164729 0.433169 -0.169679 0.711382 0.502039 0.668755 -0.238603 0.517475 -0.142053 -0.340214 0.057754 0.151623 -0.342401 0.420332 -0.172321 0.401862 -0.025983 0.307603 0.808258 0.070802 -0.108157 0.299827 0.376341 -1.127052 0.964945
v,act,infa,lat -0.248090 0.565725 -0.177052 0.042573 -0.523605 0.758506 -0.263108 -0.162115 -0.015752 -0.178646 0.175747 -0.850960 0.905607 -0.317022 -0.173583 -0.424851 -0.293162 0.639390 0.500776 0.431222 -0.357669 -0.615430 0.713605 0.593520 1.454708
ncfsd -0.131533 -0.360715 -0.098192 0.963118 -0.719222 0.287065 0.102670 -0.796497 -0.536479 0.254031 0.499093 -0.737302 0.306720 0.406956 1.130625 -0.204248 0.355773 0.551925 0.356255 -0.119889 0.774730 0.053981 -0.045153 -0.567693 0.088536
vb+inf+akt -0.081555 -0.026363 -0.069081 0.161478 -0.187351 0.305022 0.019233 -0.145420 -0.059299 0.263472 0.192667 -0.124034 0.088297 0.146226 0.145507 -0.244839 -0.142804 0.049445 -0.104590 0.323496 -0.113279 -0.093987 0.015742 0.028357 0.041312
p4ys1---------- 0.425333 0.950646 -0.213193 0.486564 0.712855 0.518345 -0.670908 -0.068645 -0.160809 0.163849 0.406084 0.947029 -0.669229 0.165651 -0.589345 -0.427263 0.401747 0.459322 0.208816 0.963171 0.242887 -0.605924 0.217121 -0.129373 -0.358272
noun+case=gen+gender=masc+number=sing -0.195659 -0.304491 -0.076655 0.444154 -0.031921 0.343968 -0.803744 -0.263303 -1.028198 0.967170 0.824966 -0.366504 0.094012 0.669408 -0.112321 -0.669568 -0.991894 0.459173 0.767134 -0.420472 0.331152 0.929934 -0.535451 -0.730943 -0.235764
npmsi 0.066838 -0.121138 0.969217 1.113438 -0.181988 0.489736 0.709077 -0.749940 -0.168800 -0.257590 -0.293244 -0.806439 1.084383 0.169684 0.948027 -0.412919 1.086777 0.562686 -0.292960 0.161237 0.850209 0.386051 -0.031010 -1.003894 0.701608
nn+neu+sin+ind+nom -0.043351 -0.099858 -0.040217 0.193028 -0.167052 0.297378 -0.008151 -0.116897 -0.076225 0.241338 0.203025 -0.122499 0.113029 0.139624 0.140239 -0.314535 -0.162693 0.015358 -0.133609 0.348417 -0.106852 -0.049679 0.029482 -0.026458 0.022800
ppxta -0.303935 -0.429234 -0.360266 0.375030 -0.209098 0.001821 -0.242043 -0.576606 -1.203102 0.020390 0.483156 -0.577524 0.093795 -0.233187 0.570143 -0.802044 0.373429 0.799689 -0.267007 0.146716 1.080344 0.422185 0.020065 -1.180281 0.177891
num+numtype=card -0.317835 -0.265709 0.116208 0.689878 -0.557396 -0.273911 -0.241603 0.714580 -0.632651 0.543297 -0.476378 -0.035200 0.264560 0.306698 -0.087518 -1.221531 -1.458742 0.303412 0.953524 -0.168605 0.212771 -0.302623 -0.719275 0.195504 0.625811
noun+case=gen+gender=fem+number=sing 0.319862 -0.272738 0.269431 0.294052 -0.117608 0.751376 -0.422747 0.097832 -0.814259 0.689133 0.541048 -0.576560 0.222738 0.908019 -0.023398 -0.384924 -0.767508 0.643385 0.903761 -0.103397 0.222908 0.813028 -0.630214 -0.872535 0.602362
nnfxx-----a---- 0.578720 0.750518 -0.710804 0.536046 0.773344 0.546687 -0.768142 0.448250 0.014088 -0.268552 -0.150748 -0.198428 -0.208519 0.941055 -0.273963 0.418480 0.047858 0.255562 0.520040 0.377090 0.404553 0.072964 0.243160 -0.899558 0.692633
adp+case=gen 0.137117 0.108862 -0.386765 0.317867 -0.670412 0.139910 -0.341612 -0.096252 -0.983990 0.670554 0.815964 -0.284022 0.192961 1.143059 -0.196304 -0.657229 -1.082607 0.912299 0.336135 -0.026586 0.468922 0.391933 0.318368 -0.097367 0.569577
noun+case=nom+gender=masc+number=sing 0.139021 0.424959 0.683407 1.011534 -0.389236 0.167708 -0.419981 0.059529 -0.074547 0.645504 0.971469 0.346049 -0.030753 0.576412 -0.091648 -0.551032 -0.579676 1.097488 0.543081 0.436912 0.790534 0.810714 -0.605621 -0.309517 0.925538
vsqw---xx-ap--- -0.046357 -0.004641 -1.141793 0.491232 0.252213 -0.189194 -0.347862 -0.195156 -0.187823 -0.221378 0.357891 0.170349 -0.614682 0.686124 0.055528 1.173101 -0.198051 -0.492963 0.854634 0.372435 -0.201423 -0.005291 0.285690 -0.039071 -0.071774
bn -0.170091 0.129521 -0.335975 0.126536 -0.079207 0.605196 0.017404 -0.119669 0.013875 0.772006 0.326407 -0.420679 0.619780 0.215041 0.622646 -0.467633 0.020295 0.200909 -0.271035 0.554041 -0.263272 -0.442908 0.340537 0.206974 0.369642
nnfp7-----a---- -0.269592 -0.146225 -0.790681 1.051063 -0.377400 -0.605659 -0.393467 -0.105253 0.278847 -0.019101 0.137163 -0.361255 0.030675 0.624359 -0.644754 0.656134 -0.081010 0.152593 1.536813 0.229787 0.605418 -0.100075 -0.394087 -1.258120 0.030363
adj+case=nom+degree=pos+number=sing+number[psed]=none+number[psor]=none+numtype=none+person[psor]=none+verbform=none -0.378965 -0.131564 -0.387342 0.465950 -0.486019 0.738378 0.110104 -0.628292 -0.059838 0.578745 0.377972 -0.498264 0.417970 0.356436 0.206828 -0.521122 -0.654677 0.578223 -0.046035 1.043512 -0.594387 -0.259191 0.186662 0.101514 0.655617
a,sg,nom -0.157631 0.412919 -0.695820 0.185227 -0.342165 0.758443 -0.019173 -0.192226 -0.445953 -0.197828 -0.093632 -0.637762 0.956554 -0.127009 -0.391945 -0.592091 -0.244900 0.582441 0.234214 0.340187 -0.574117 -0.376794 0.683079 0.650684 1.533417
verb+mood=ind+tense=past+verbform=fin+voice=act -0.397787 -0.218446 0.164321 0.568099 -0.384620 0.076263 -0.427846 0.961187 -0.676051 0.286967 0.004808 -0.177765 0.644237 0.176106 -0.956397 -1.311705 -0.360903 -0.230835 0.784415 -0.134831 0.674996 -0.259521 -0.279099 -0.000021 1.319834
nnip7-----a---- -0.470618 -0.286789 -0.695210 0.890493 -0.648617 -0.267462 -0.333095 -0.071818 0.199540 -0.050325 0.451569 0.026244 0.434965 0.586382 -0.759158 0.491180 -0.139406 0.215865 1.208093 0.609587 0.596903 -0.184104 0.022359 -1.327022 -0.367920
n,prop,sg,nom -0.275394 0.072677 -0.086740 -0.150377 -0.229001 1.135943 -0.251906 -0.259264 -0.372419 -0.114770 -0.087870 -0.826303 0.475363 -0.307762 -0.328020 -0.293169 -0.150071 0.588508 0.473876 0.317986 -0.651036 -0.514495 0.289971 0.031511 1.646308
ap -0.364356 0.093718 -0.302621 -0.237579 -0.268182 0.653689 0.057758 -0.328505 -0.137493 0.796956 0.322975 -0.239868 0.558920 0.247489 0.490201 0.132719 0.051110 -0.234765 -0.306656 0.277841 -0.167194 -0.418581 0.151567 0.365818 0.619009
rv--2---------- -0.214347 0.059850 0.352173 0.137682 -0.390573 -0.868756 -0.952960 0.419615 0.072405 -0.205157 0.552805 -0.102159 -0.228995 1.048171 -0.410132 0.284949 -0.010396 0.184095 0.024532 0.128387 0.013121 0.930832 0.578115 -0.092117 0.076492
vm -0.077597 0.200044 -0.318160 0.061573 -0.093604 0.516281 -0.096923 -0.065564 0.040980 0.708561 0.363354 -0.466672 0.538938 0.127040 0.485969 -0.326414 0.283604 0.257261 -0.284423 0.596938 -0.177040 -0.414342 0.329612 0.276505 0.428624
ncmpi 0.062330 0.090331 -0.166683 0.924789 -0.557914 0.464623 -0.078773 -0.975370 -0.971692 0.115032 0.381344 -0.636173 -0.046202 -0.069836 1.142813 -0.340819 -0.107795 0.599380 0.747533 -0.396303 0.567543 -0.174080 -0.327281 -0.386036 0.021604
ncfpi 0.204372 0.142618 -0.248883 0.906903 -0.447648 0.695737 0.061849 -0.968823 -0.911706 0.013865 0.364310 -0.902438 -0.149855 0.187571 1.207278 -0.025033 -0.082878 0.638514 0.884445 -0.282418 0.451209 -0.241276 -0.173784 -0.157668 -0.125736
n,pl,nom -0.383626 0.597789 0.019190 -0.213028 -0.437779 1.258121 -0.299441 -0.649269 -0.106014 -0.353262 0.202381 -0.998937 0.763044 -0.097259 -0.315272 -0.165424 -0.025600 0.804311 0.551424 0.520587 -0.311361 -0.526904 0.229375 0.392123 1.141352
nnnxx-----a---- 0.309567 0.354730 -0.331892 0.357501 0.832479 0.367599 -0.919159 0.186133 0.172161 0.127323 -0.122659 -0.035353 -0.299597 0.235374 -0.504898 0.286868 -0.395583 0.244465 0.171872 0.250202 0.015444 0.068813 0.302787 -0.931620 0.511011
aafp6----1a---- 0.349642 -0.155854 0.418132 0.924093 0.822409 -0.047655 -0.951318 -0.987696 -0.742388 0.135443 0.442427 -0.239943 -0.921080 -1.156432 -1.240981 0.112423 -1.180413 0.434634 0.273359 -0.451551 -0.995792 0.892193 0.644032 -0.760851 0.287165
npfsi 0.035923 0.351949 0.501799 0.897926 -0.380823 0.034487 0.615344 -0.693572 -0.214209 -0.098500 0.151350 -0.972219 0.011257 0.271982 1.308131 0.180657 0.639729 0.607566 0.333314 -0.102730 0.788877 0.379596 0.050090 -0.635294 0.372625
det+gender=com+number=sing+prontype=ind -0.699837 -0.892104 -0.013068 0.450609 -0.487373 -0.549280 -0.459899 0.541966 -0.917674 -0.047745 0.280421 0.722439 1.048773 -0.191922 -0.310849 -1.084286 -0.749073 0.385901 0.697043 0.051930 0.273200 -0.114079 -1.234174 0.471785 0.565298
rv--7---------- -0.080498 -0.407288 -0.143017 0.360999 -0.621443 -0.624385 -0.638007 0.130364 -0.071875 -0.250751 0.336586 -0.338821 -0.265746 0.191896 -0.433578 1.158110 -0.258328 0.633922 0.567587 0.787398 0.530407 -0.642504 -0.069417 -0.669742 -0.274136
verb+number=sing+person=3+tense=pres 0.531813 -0.776017 -0.145527 0.193689 -0.316990 0.123743 0.029961 -0.165427 -0.805795 0.779287 0.623739 -0.225057 -0.531279 -0.068292 -0.531696 -0.735393 -0.523169 0.814859 0.595783 0.110413 0.694156 0.937404 -0.032450 -0.423620 0.073897
ncmsh -0.020870 -0.492035 0.175806 0.999377 -0.830268 0.243326 0.175702 -0.789350 -0.482549 0.342000 0.621829 -0.862537 0.318081 0.507729 1.196304 -0.357944 0.101576 0.677032 0.376138 -0.057194 0.766549 -0.032008 0.016983 -0.288456 0.226010
dd -0.033897 -0.152615 -0.357930 0.144504 -0.312158 0.441557 0.683106 -0.829439 -0.364699 0.509575 0.481801 -0.406883 0.281779 -0.222594 1.322759 -0.224212 0.639045 -0.079025 -0.103216 0.121399 0.197655 -0.203716 0.361149 -0.265044 0.214881
psxxxxp3------- 0.301897 0.140789 -0.503305 -0.048455 -0.032064 -0.368223 -0.881687 0.191966 -0.047362 -0.153163 0.431278 -0.046759 -0.378960 0.183775 -0.174518 0.502229 -0.620629 0.245982 0.120334 0.003587 -0.029000 0.321782 -0.362844 -0.162345 -0.068492
ncnsd -0.067749 -0.561025 0.173543 0.981578 -1.145398 0.294760 0.117050 -0.901159 -0.486719 0.238183 0.676596 -0.868955 0.320163 0.385949 1.318894 -0.444083 0.225264 0.698033 0.469601 -0.111136 0.736021 -0.206864 -0.067794 -0.450107 0.184068
p4fs1---------- 0.233089 0.992124 -0.788439 0.132500 0.711182 0.395733 -0.544419 0.363204 -0.350199 0.053325 0.552688 0.692376 -0.640329 0.510714 -0.085377 0.143116 -0.202305 -0.657437 0.674611 0.733939 0.015854 -0.199861 0.028230 -0.249871 -0.243763
vpitf-r3s 0.472865 0.054110 0.025257 0.662800 -0.808744 0.431203 0.726266 -0.743764 -0.820410 0.063354 0.539638 -0.423163 0.576639 -0.512249 1.273161 -0.758310 0.438603 -0.211513 0.459431 -0.284707 0.215053 0.525042 -0.067467 -0.346303 0.465371
vsns---xx-ap--- -0.019398 0.187511 -0.719223 -0.587372 0.312785 -0.610293 -0.605926 -0.473895 -0.695966 0.045070 0.414794 -0.031692 -0.411169 0.760143 -0.449561 0.258276 -0.677582 0.537726 0.134173 0.189204 0.180132 -0.347127 0.744229 -0.035057 -0.388481
adj+degree=pos+number=plur+variant=long -0.523185 -0.009828 -0.164019 0.862477 -0.892829 -0.149450 -0.234908 0.831630 -0.592925 0.595856 -0.916027 0.090414 0.379622 0.251391 -0.109356 -1.132887 -1.349224 0.364447 0.707276 0.046980 0.295225 -0.080362 -0.499373 0.302334 0.455432
vxitf-r3s 0.188131 -0.242952 0.058487 0.423741 -0.687303 -0.025282 0.608441 -0.312656 -0.823317 0.507916 1.014323 -0.291825 0.262914 -0.222437 0.823494 -0.738563 -0.064104 0.106518 0.247570 -0.143603 0.690419 0.689947 0.106027 0.071546 0.475136
nnxxx-----a---8 0.402770 1.328389 -1.089881 0.554790 0.669274 0.970609 -1.076943 0.655943 0.257036 0.688941 -0.657300 0.282161 -0.555107 0.596192 -0.055624 -0.018999 0.093088 0.027913 0.195911 0.384961 -0.224973 -0.094309 1.004661 -1.118300 1.037998
nnis2-----a---1 -0.633450 -0.545974 0.044939 -0.038823 0.180496 0.113420 -1.063013 -0.059559 0.590809 -0.218757 0.044425 0.268881 -0.067985 1.246652 -0.701099 0.372032 -0.389499 0.255743 -0.111765 0.367210 0.549478 -0.448820 0.162818 -0.313191 0.286562
vpys---xr-na--- 0.530630 -0.081759 -0.333237 0.150319 -0.285427 0.231444 -0.842800 0.084327 -0.232763 0.019080 0.069431 0.358489 -0.775831 -0.264200 -0.807145 -0.035652 -0.219706 0.273821 -0.140883 -0.076746 0.585932 0.056076 0.222238 -0.003851 -0.042671
verb+definite=ind+number=sing+tense=past+verbform=part,trans -0.604401 -0.305440 -0.054946 0.505727 -0.671649 -0.164353 -0.371046 0.782553 -0.605191 0.332518 -0.121839 -0.174818 0.777257 0.091011 -0.580950 -1.091923 -0.402359 0.115917 0.531719 0.204695 0.684015 -0.543779 -0.694841 0.158581 0.579142
nnmp7-----a---- -0.291284 -0.177141 -0.388989 0.684629 -0.299139 -0.265305 -0.561937 -0.053483 0.400457 0.302128 0.575331 -0.193153 0.367937 0.540304 -0.710625 0.650168 -0.008306 0.624402 0.672654 0.464294 0.805296 -0.209566 -0.179876 -1.025172 0.066623
jj+pos+utr/neu+plu+ind/def+nom -0.020936 -0.015689 -0.047340 0.147986 -0.121398 0.196643 -0.059228 -0.085833 -0.017539 0.213435 0.135990 -0.083279 0.092220 0.102494 0.131290 -0.238438 -0.136142 0.074621 -0.085254 0.233882 -0.102026 -0.003370 -0.003475 0.045166 0.091615
noun+case=nom+number=sing+number[psed]=none+number[psor]=none+person[psor]=none -0.165845 -0.080834 -0.156519 0.435744 -0.614588 0.689109 0.164716 -0.499613 -0.059968 0.436801 0.395088 -0.461636 0.183052 0.345444 0.291807 -0.553169 -0.527460 0.676416 -0.105403 0.906361 -0.540435 -0.264385 0.006049 0.139299 0.657034
dq 0.076870 -0.025657 -0.189032 0.041628 -0.376308 0.476761 0.602949 -0.644144 -0.360838 0.328392 0.394068 -0.515642 0.144326 -0.213773 1.140889 -0.271860 0.582356 -0.010452 0.066647 0.068356 0.065434 -0.060319 0.174091 -0.238329 0.231944
nnmp3-----a---- 0.046809 0.124550 -0.797211 0.194136 -0.209344 -0.057541 -0.858801 -0.020755 0.012520 0.287177 0.437232 0.278560 -0.054154 0.058602 -0.279129 0.017122 -0.257610 0.162850 0.330196 -0.197916 0.015687 0.312423 0.306004 -0.069187 -0.382106
noun+case=gen+gender=masc+number=plur 0.043364 -0.285923 0.225330 0.466624 -0.423186 0.258149 -0.538326 -0.166246 -0.996060 1.140218 0.521584 -0.159554 -0.002706 0.349478 -0.091973 -0.629793 -1.046880 0.924106 1.007350 -0.722341 0.563369 0.146406 -0.404835 -0.598195 0.551178
noun+case=acc+gender=fem+number=sing 0.395388 -0.137905 0.080600 0.593571 -0.433969 -0.254104 -0.599907 -0.562792 -0.662124 1.466534 0.972325 -0.468832 -0.060669 0.502309 -0.234582 -0.021049 -0.625147 0.588589 0.364798 -0.422898 0.242338 1.301638 -0.086303 -0.551860 0.003269
hmsi 0.324501 0.055597 0.132437 0.918878 -0.303659 0.644801 1.361508 -0.680496 -0.523975 -0.205854 0.053845 -1.168569 0.391526 0.567967 1.434990 -0.032812 0.966261 0.404392 0.272669 0.281939 0.771679 0.614725 0.403250 -0.484154 0.356865
noun+case=nom+gender=fem+number=sing 0.244581 -0.134046 -0.628140 0.509528 -0.378064 0.714820 -0.266474 -0.169252 -0.742682 0.539365 0.532279 0.000826 0.114181 0.639562 -0.392644 -0.412046 0.234712 0.885079 0.570575 0.089855 0.784453 1.059527 -0.265963 -1.103403 0.460691
nnnxx-----a---8 -0.067289 0.237468 -0.172854 0.261620 0.555673 0.131375 -1.120416 -0.136552 0.370491 -0.030806 -0.051650 0.147214 -0.338639 0.409815 -0.566059 0.286944 -0.293557 0.361256 -0.125929 0.079602 0.164988 -0.025315 0.343748 -0.758581 0.339434
vstp---xx-ap--- -0.751412 0.236888 -0.610280 0.439972 -0.484269 -0.771544 -0.642390 0.199964 0.208751 0.290894 0.762520 0.210800 -0.141875 -0.438497 -0.693627 0.075757 -0.859140 0.790540 0.589597 -0.031954 -0.139757 0.439068 -0.240195 0.142584 0.239925
verb+gender=masc+number=sing+verbform=part 0.813535 0.205346 0.570534 0.338061 0.030446 0.117550 -0.474379 -0.357894 -0.746954 0.504839 0.873074 -0.099673 -0.619275 -0.443160 -0.410899 -0.549346 -0.345711 1.244743 0.386765 -0.137071 0.993044 1.342219 0.156159 -0.880888 0.488590
di -0.181265 0.173743 -0.474056 -0.040572 -0.207337 0.477666 0.201747 -0.124959 -0.097175 0.624533 0.191794 -0.258388 0.386767 0.255719 0.718545 -0.042547 0.071642 0.031345 -0.164590 0.376985 -0.168865 -0.449128 0.089853 0.145901 0.585960
pdzs6---------- -0.110756 0.246115 -0.409272 0.578868 1.293368 0.138414 -0.029927 -0.434791 0.169126 0.486336 0.690392 0.013729 -1.012506 -0.503323 -0.674484 0.203264 -1.230440 0.063482 0.133276 -0.146891 -0.012721 0.328937 0.444171 0.071753 0.262907
aaxxx----1a---8 0.175075 0.661720 -0.505843 0.187138 0.368423 0.220453 -1.054279 0.349714 0.298008 0.002065 -0.125166 0.334841 -0.309266 0.561693 -0.243917 0.130586 -0.292434 0.197461 0.461893 0.194858 0.021001 0.143691 0.540763 -0.862059 0.595070
a-pi 0.213741 0.441428 0.091614 0.745556 -0.917682 0.107381 -0.266209 -0.819109 -0.836077 -0.399058 0.693274 -0.232044 -0.102412 -0.256040 0.833267 -0.232793 0.055752 0.722926 0.874082 -0.441517 0.726435 -0.257636 0.079634 -0.912349 0.962946
aanp2----1a---- -0.480808 0.482494 -0.015346 0.474739 -0.010517 -0.413327 -0.153677 0.409250 0.331712 -1.149696 -0.171900 0.037451 -0.612714 1.451182 0.390070 0.071455 -1.448379 0.920888 0.692388 -0.303740 0.182594 0.086748 0.408871 -0.077918 0.350325
vb-p---3p-na--- 0.178703 0.537336 -0.721296 0.585429 -0.726251 -0.215221 -0.703083 0.197623 -0.038147 0.093884 0.170505 -0.008060 -0.263334 -0.390053 -0.577352 0.106599 -0.865416 0.353416 0.183676 -0.190872 0.661681 0.116465 -0.132150 -0.057398 0.263128
pdzs2---------- -0.050931 -0.112587 -0.054052 0.056157 -0.259118 -0.413076 -0.918201 -0.024251 0.305316 0.067632 0.427261 0.670368 -0.553508 0.968765 0.004766 0.491596 -0.386231 0.085390 -0.153055 -0.255581 0.041273 0.026627 -0.185016 -0.091053 0.094789
rg+nom -0.044443 -0.076592 -0.024849 0.172870 -0.145226 0.214318 -0.054551 -0.076816 -0.019223 0.195509 0.162980 -0.106180 0.060280 0.113535 0.128135 -0.269045 -0.160144 0.018509 -0.060197 0.241126 -0.127265 -0.052563 0.002170 -0.025057 0.066297
noun+definite=ind+gender=neut+number=plur -0.540836 -0.181158 0.115506 1.030073 -0.861173 -0.221970 -0.292514 0.739150 -0.652890 0.556614 -0.332086 -0.216161 0.368297 0.000637 -0.758680 -0.900327 -0.827637 0.671079 0.616310 0.236223 0.072503 -0.436464 -0.611707 -0.213580 0.370891
nnnp4-----a---- 0.026948 0.530984 -0.851173 1.290223 -0.451817 -0.541310 -0.329473 -0.396247 0.428717 0.079082 0.306269 0.132035 -0.129082 0.392420 0.246306 -0.259166 -0.007432 0.122875 -0.044291 -0.016679 0.802831 0.635220 0.700011 -0.722976 -0.639278
verb+verbform=inf 0.350121 -0.141915 -0.704409 0.276569 0.014742 0.220752 -0.667830 -0.347646 -1.198908 0.587595 0.854893 -0.043656 -0.366603 0.106702 -0.302474 -0.153181 -0.308425 0.557618 0.348197 -0.014339 0.702954 0.797975 0.104966 -0.676761 0.183282
n,pl,par -0.339251 0.267788 -0.021221 -0.013954 -0.500670 0.750175 0.084561 -0.299043 -0.271378 -0.436995 0.163017 -0.883158 0.563935 -0.384846 -0.369363 -0.156067 -0.198398 0.838495 0.413718 0.508228 -0.192537 -0.571339 0.526755 0.361492 1.224916
vpptf-o3s 0.260385 0.127615 0.374734 0.642365 -0.450074 0.442531 0.714654 -0.685754 -0.614032 -0.255484 0.570315 -0.537191 0.740571 -0.388493 1.270829 -0.591275 0.604636 -0.091857 0.047707 -0.031914 0.393150 0.424964 0.064827 -0.153505 0.433799
noun+animacy=inan+case=acc+gender=masc+number=sing 0.284746 -0.218587 -0.050978 0.561570 0.206718 -0.168953 -0.559985 -0.611349 -0.871693 1.458304 0.876470 -0.402765 -0.460246 0.211586 -0.335905 -0.209272 -0.707885 0.427130 0.564103 -0.228099 0.293352 0.983678 -0.066166 -0.298763 -0.050357
aans7----1a---- 0.511785 -0.417563 -0.457060 0.544036 -0.450732 -0.378640 -0.563338 0.526312 0.598184 -0.191916 0.827471 -0.446374 -0.223308 0.852381 -0.206573 0.848141 -0.333784 0.535252 1.312097 1.014233 0.583950 -0.660442 -0.857344 -0.815940 -0.079582
nn+neu+sin+def+nom -0.054070 -0.027210 -0.005268 0.141728 -0.119105 0.181770 0.006927 -0.083264 -0.031739 0.162895 0.141412 -0.068043 0.051803 0.099119 0.125558 -0.204039 -0.113890 0.048124 -0.063335 0.203406 -0.046769 -0.022932 0.018496 -0.018481 0.049960
v,neg,act,sg3 0.048060 0.808753 -0.215697 0.146477 0.077743 0.698302 -0.238917 0.271516 -0.119318 -0.055970 0.490934 -0.960501 0.953834 -0.287129 0.050896 -0.550510 -0.021376 0.547319 0.030005 0.206613 -0.320774 -0.400592 0.546906 0.690320 1.401875
db------------1 -0.074635 0.232378 -0.572881 0.153526 0.299399 -0.138240 -0.406159 -0.050388 -0.096368 -0.111395 0.550092 0.282811 -0.513423 0.189869 -0.716717 0.179674 0.083921 0.478200 0.330608 0.287133 0.377678 0.061477 0.028155 0.254800 -0.126999
fc -0.164881 0.298855 -0.189638 -0.039014 -0.253087 0.408874 0.157560 -0.200761 -0.068679 0.353965 0.182647 -0.238349 0.458238 0.131141 0.543317 -0.087295 0.116428 0.012089 -0.225525 0.301113 -0.171537 -0.301397 0.147555 0.108475 0.565063
aams2----1a---- 0.669332 0.475316 0.532209 -0.196780 0.208507 -0.521750 -1.373451 0.131352 0.366257 -1.033768 0.021240 0.775318 -0.040650 -0.195454 0.320983 0.414062 0.683632 0.742476 0.595968 -0.338101 0.798817 -0.287408 0.495129 -0.316936 -0.037987
pdzs7---------- -0.194834 0.189798 -0.870240 0.013659 -0.208812 -0.033133 -0.648729 0.115065 -0.186959 0.694641 0.272731 0.185264 -0.483470 0.407362 -0.971316 0.511364 0.045355 0.403623 0.244622 0.397090 0.594961 -0.186840 -0.370923 -0.766577 -0.175341
nnnp1-----a---- -0.465775 0.539483 -1.127582 0.507051 0.108914 -0.432651 -0.747090 0.025251 0.115553 0.326405 0.661238 -0.167429 0.157647 0.114179 0.044735 0.304203 -0.198742 0.049610 1.088244 -0.049562 0.600149 0.490413 0.202391 0.638480 0.555871
aaip6----1a---- 0.947820 -0.180929 -0.303198 0.227421 0.893305 -1.459779 0.021321 -1.095215 -0.408121 0.239140 0.431797 -0.445066 -0.205627 -0.200636 0.276303 0.415838 -1.544794 0.300553 0.482534 -0.642354 -0.969212 -0.338150 0.619682 -0.135695 0.829078
jj+pos+utr+sin+ind+nom -0.055426 -0.054247 -0.063194 0.140368 -0.137687 0.200197 0.006680 -0.075396 -0.065429 0.142762 0.157746 -0.068111 0.036294 0.119972 0.101691 -0.163097 -0.118804 -0.039680 -0.024129 0.234878 -0.108569 -0.037319 -0.008629 -0.035150 0.042817
pron+case=acc+gender=neut+number=sing+person=3+prontype=prs -0.928444 -0.104375 -0.298904 0.380838 -0.908542 -0.133800 0.057650 0.581620 -0.711642 0.952497 -0.106313 0.410567 0.531644 -0.023290 -0.373250 -1.024371 0.091031 0.594317 0.680176 0.336423 0.519332 -0.167270 -0.783802 -0.065036 0.304629
noun+definite=def+gender=neut+number=sing -0.673579 -0.585825 0.005684 0.641162 -0.401853 0.041220 -0.395582 0.490650 -0.715874 0.669206 -0.243226 0.218704 0.591981 -0.012441 -0.438871 -1.483084 -0.171570 0.379600 0.740404 0.307392 0.173160 -0.073415 -0.936999 -0.237394 0.291613
dt+utr+sin+ind -0.038669 -0.048557 -0.062889 0.164231 -0.117566 0.153146 -0.020575 -0.054377 -0.060497 0.124284 0.128131 -0.067984 0.070124 0.140905 0.113927 -0.176941 -0.091510 -0.009567 -0.014313 0.204899 -0.075678 -0.024704 -0.014499 -0.008389 0.047805
n,sg,ill -0.399824 0.390649 0.024356 0.003264 -0.533115 0.819976 0.154669 -0.426004 -0.265023 -0.239826 0.130028 -0.736443 0.722353 -0.195500 -0.337562 -0.237296 -0.196888 0.657851 0.369124 0.249943 -0.217165 -0.333706 0.336122 0.431326 1.365672
afsi -0.080691 0.330464 0.080881 0.874277 -0.724771 0.096925 0.185127 -0.795626 -0.632250 -0.254673 1.372313 -0.543427 0.030563 -0.188880 1.573211 0.167451 0.589382 0.290017 0.485346 0.007516 0.725884 0.255561 0.036375 -0.136309 0.285079
propn+case=nom+number=sing+number[psed]=none+number[psor]=none+person[psor]=none -0.213673 -0.193444 -0.077479 0.128123 -0.348952 0.996272 -0.006770 -0.723165 -0.335935 0.280288 0.454094 -0.443915 0.333589 0.140007 0.065525 -0.254270 -0.456863 0.536351 -0.097037 0.575877 -0.660892 -0.350754 0.191894 -0.058618 0.770160
nnms3-----a---- 0.170798 0.466695 -0.452790 0.605278 0.249952 0.609675 -0.967923 -0.166352 -0.115265 -0.224411 0.576228 0.482994 -0.437124 -0.237517 -0.385072 0.211710 0.477789 0.233140 0.058068 -0.371693 0.077789 0.328350 0.347248 -0.088341 0.069490
n,prop,sg,gen -0.241214 0.497471 -0.102933 0.154821 -0.375898 0.869513 -0.048132 -0.430907 -0.472614 -0.097668 0.027523 -0.701754 0.634850 -0.013532 -0.377796 -0.229383 -0.224593 0.260504 0.366282 0.258188 -0.540640 -0.518545 0.318620 0.332052 1.331361
aafs3----1a---- -0.344187 0.595123 -0.672134 0.620533 -0.215154 0.349864 -1.664311 0.346954 -1.500430 -0.073958 0.590385 0.300297 -0.508992 -0.922268 0.236090 1.088601 0.457225 -0.280139 0.322538 -0.732098 -0.370109 0.778322 -0.449920 -0.268098 -0.068575
nnnp6-----a---- -0.676613 -0.004525 -0.317538 0.731029 0.523441 -0.283113 -0.354680 -0.510015 0.545496 -0.291806 0.232349 -0.069360 0.242812 0.146287 -0.834103 -0.124427 -0.957585 -0.327509 0.649258 0.044241 0.091821 -0.136747 0.458462 -0.244878 0.277521
v,act,pcpnut,sg,nom -0.158551 0.406605 -0.226736 -0.020127 -0.373765 0.715356 -0.198369 -0.214827 -0.131193 -0.070436 0.054276 -0.944182 0.816608 -0.303001 -0.197414 -0.298298 -0.188633 0.523303 0.448450 0.365897 -0.241285 -0.549272 0.516401 0.462929 1.374297
cn-s4---------- -0.673944 0.248043 -0.504621 0.702551 -0.075732 -0.348909 -0.650369 0.072791 -0.080778 -0.763337 -0.055347 0.320579 -0.351710 1.224457 -0.182710 -0.199208 -1.135829 0.803677 0.430235 -0.279638 0.162391 0.851161 0.374720 -0.062824 -0.048690
n,sg,ine -0.474938 0.308277 -0.113441 0.081415 -0.508578 0.737715 0.057720 -0.380541 -0.389057 -0.214863 0.144037 -0.701229 0.717031 -0.136827 -0.394209 -0.250925 -0.323240 0.641266 0.346684 0.137720 -0.250761 -0.381444 0.418225 0.388279 1.236031
nn+neu+plu+ind+nom -0.036943 -0.033669 -0.059602 0.143347 -0.108172 0.174075 -0.022005 -0.060639 -0.057076 0.157091 0.148636 -0.098985 0.076743 0.103520 0.114694 -0.191347 -0.086601 0.025524 -0.054967 0.154384 -0.045299 -0.016233 0.025979 -0.033869 0.046284
adj+definite=def+degree=pos+number=sing+variant=long -0.494396 -0.665456 0.036519 0.609222 -0.739020 0.327147 -0.722208 0.541117 -1.427068 0.490028 0.314035 0.466645 0.476974 -0.044346 -0.294069 -0.378401 -0.885527 -0.447034 0.554592 0.234641 0.193873 -0.344809 -1.301075 0.123839 0.633934
v,act,ind,pres,conneg -0.383404 0.513052 -0.588124 -0.054030 -0.229162 0.603175 -0.214559 -0.071928 -0.183393 -0.136289 0.379097 -0.801390 0.679755 -0.402724 -0.115697 -0.226732 -0.038736 0.547809 0.305219 0.419243 0.048658 -0.528776 0.499030 0.947303 1.119063
pron,dem,sg,nom -0.232061 0.232427 -0.406753 -0.115581 -0.230545 0.579000 -0.188218 -0.043877 -0.281667 -0.277060 -0.038251 -0.602752 0.793851 -0.386926 -0.153377 -0.196657 -0.223493 0.563410 0.411213 0.129689 -0.260350 -0.296114 0.573266 0.288278 1.327332
-rrb- -0.551318 -0.190700 0.193865 0.639965 -0.659165 0.715354 0.156834 0.832260 -0.962105 -0.022176 -0.208569 -0.125565 0.438218 -0.311359 -0.446346 -0.304687 -0.316185 -0.025252 0.621323 -0.163184 -0.095363 -0.547299 -0.477252 0.129700 0.410396
amsi 0.172188 -0.134486 0.146960 0.981096 -0.725548 -0.064366 0.614420 -1.111707 -0.293601 -0.224316 0.394248 -0.403710 0.437979 -0.065739 0.694229 -0.004914 0.841675 0.164422 0.277878 -0.152615 0.547567 -0.231570 0.587151 -0.377724 0.617722
pron+case=acc+number=sing+reflex=yes -0.073197 -0.027373 -1.048486 0.773292 -0.356539 0.175072 -0.478509 -0.268431 -0.995421 0.462279 1.158206 0.541726 0.190097 -0.223876 -0.090748 -0.525680 -0.021860 0.460147 0.014232 0.012845 1.074301 1.034156 -0.354498 -0.523129 0.142222
-lrb- -0.623386 -0.090319 0.530777 0.766885 -0.630926 0.533541 0.087787 0.713457 -1.123614 -0.095553 0.140764 -0.117822 0.760280 -0.241890 -0.264472 -0.330415 -0.069482 -0.235676 0.708053 -0.216273 0.125557 -0.250962 -0.622710 0.384744 0.639491
pm+nom -0.064709 -0.049094 -0.017304 0.127971 -0.122991 0.187136 -0.054917 -0.026703 -0.047626 0.138891 0.093945 -0.108127 0.088590 0.092434 0.081983 -0.238646 -0.117988 0.060619 -0.020237 0.236439 -0.091458 -0.034481 0.020467 -0.074625 0.010667
ncmpd -0.094940 -0.288153 0.055920 0.867861 -0.845155 0.179241 0.114637 -0.797742 -0.629684 0.104655 0.538616 -0.766006 0.290137 0.196023 1.198586 -0.323201 0.316671 0.631196 0.371862 -0.236775 0.829240 0.024088 -0.056593 -0.682084 0.239076
mc-pi 0.179703 0.349396 0.200896 0.998076 -0.951495 -0.105770 -0.364947 -0.557874 -0.715768 -0.117003 0.551133 -0.472972 -0.272494 0.271756 0.772934 -0.016120 -0.501839 0.976993 1.211978 -0.537129 0.855807 -0.172968 -0.234707 -1.086716 1.111976
nnfp3-----a---- -0.478897 -0.121550 -0.782734 0.635697 -0.200186 -0.281690 -1.202208 -0.230136 -0.283104 -0.511431 0.260465 0.077150 -0.481112 -0.343532 -0.441333 -0.162596 0.377728 0.047931 0.323867 -0.341499 -0.137531 0.609978 -0.252980 0.000551 -0.020460
wdt -0.572034 -0.356430 0.089523 -0.119109 -0.557470 0.082935 0.213000 0.804416 -1.054330 -0.020708 -0.125712 -0.033736 0.504327 -0.424979 -0.057918 -0.811788 -0.000934 -0.011465 0.642207 -0.014394 0.528487 -0.318735 -0.621066 0.314072 0.662512
tn -0.039842 0.213617 -0.510483 0.276911 -0.202958 0.197186 0.036666 -0.625077 -1.285709 -0.017414 0.749004 -0.582676 -0.056218 -0.386711 0.952714 -0.402717 0.450966 0.325207 0.191229 -0.187663 0.799941 0.663389 0.136337 -0.897473 0.137538
aux+number=plur+person=3+tense=pres -0.029971 -0.686892 -0.995061 0.586704 -0.017811 -0.052578 -0.010710 -0.171554 -1.335812 1.311604 0.952833 0.273737 0.118046 0.045192 -0.281581 -0.655862 -0.604599 0.214007 0.173736 -0.195994 0.871866 0.719733 -0.049541 0.080999 0.286149
pi -0.068772 0.030028 -0.409408 0.021113 -0.196951 0.422619 0.182273 -0.264914 0.018862 0.621597 0.117633 -0.209866 0.397999 0.156953 0.413438 -0.186764 0.046978 0.169753 -0.277619 0.349785 -0.124143 -0.333439 0.202791 0.157298 0.269718
sn -0.049410 -0.024953 -0.031334 0.103355 -0.107791 0.145754 0.002493 -0.073610 -0.096601 0.129356 0.127316 -0.065620 0.073367 0.080651 0.066216 -0.178612 -0.111952 0.061964 -0.008585 0.146802 -0.037016 -0.039470 -0.010125 0.004358 0.090752
aux+mood=ind+tense=past+verbform=fin+voice=act -0.557964 -0.098886 0.162015 0.634085 -0.469516 -0.270875 -0.084502 0.888257 -0.663345 0.221729 0.131564 -0.003946 0.787786 -0.081564 -0.785613 -1.067887 -0.286367 0.136130 0.637576 -0.579361 0.900153 -0.110573 -0.347887 0.188939 0.708197
propn+case=nom+gender=fem+number=sing 0.058827 0.072231 -0.163053 0.163731 -0.061298 0.666619 -0.323958 -0.206226 -0.852137 0.546078 0.984278 -0.002550 -0.397514 0.043436 -0.126314 -0.318757 0.478320 0.873291 0.493217 0.207404 0.982845 1.084385 -0.168390 -1.137669 0.330394
aaip7----1a---- -0.420457 0.076740 -0.603384 0.909250 -1.021269 -0.874800 -0.133030 0.097298 -0.221429 -0.159910 -0.159229 -0.320930 -0.346904 0.224551 -0.321018 0.942054 -0.227295 0.658963 0.620582 0.282176 0.023455 -0.041298 -0.768764 -1.859928 0.212190
vb-p---3f-aa--- -0.149020 0.206195 -0.717511 0.710278 -0.427116 -0.583384 -0.337132 0.342309 0.093849 0.226665 0.336787 0.041124 -0.408408 -0.501682 -0.702827 0.033717 -0.802613 0.312456 0.215766 -0.301101 0.658784 0.519704 0.139110 0.343928 0.215865
adv+degree=none+prontype=default -0.116318 0.036564 -0.252066 0.369217 -0.415688 0.700957 0.076502 -0.470758 -0.054811 0.500264 0.412008 -0.459095 0.348434 0.293424 0.154797 -0.568365 -0.317397 0.462949 -0.033559 0.740568 -0.385966 -0.212345 0.094667 0.076070 0.502384
p4mp1---------- -0.417491 1.050536 -0.778928 0.894739 -0.067001 -0.049807 -0.576732 0.371578 -0.045381 0.687701 0.384284 0.448108 -0.204278 0.138918 -0.250468 -0.106542 -0.354809 0.528773 0.307446 0.228180 0.686732 -0.179252 -0.052653 0.118689 -0.011955
aafp7----1a---- -0.526095 -0.031790 -0.691645 1.237131 -0.962081 -0.840240 -0.923705 -0.114523 -0.631650 -0.284655 0.303222 -0.546251 -0.295066 0.193576 -0.519157 1.156621 -0.587596 0.739185 0.713087 0.168714 0.040455 -0.895842 -0.472798 -1.285810 0.616369
afsd -0.078850 0.042430 0.266708 0.861080 -1.191566 -0.066600 0.071053 -0.742771 -0.331417 -0.392627 1.597514 -0.378732 0.034322 -0.181534 1.495447 0.023095 0.541471 0.294403 0.487394 0.146678 0.697691 -0.080249 0.119925 -0.156834 0.606730
dm -0.060526 0.082737 -0.358735 0.524932 -0.370947 0.252872 0.179673 -0.600100 -1.098733 0.146933 0.583868 -0.542835 0.124989 -0.170379 0.949619 -0.343749 0.432498 0.398329 0.279824 -0.309045 0.882893 0.634498 0.040511 -0.847801 0.212857
a-pd 0.191242 0.158752 0.141995 0.756393 -0.925921 0.158138 -0.441875 -0.801177 -0.624178 -0.534564 0.873672 -0.247728 0.220032 -0.079479 0.801659 -0.164013 0.119805 0.607707 0.629719 -0.326853 0.644966 -0.314294 0.179649 -0.874948 0.903246
vb-p---3p-aa--1 0.185895 0.030674 -0.503357 0.600496 -0.333352 -0.255428 -0.580811 0.158044 -0.128184 0.172936 0.225492 -0.009887 -0.371940 -0.278989 -0.587899 0.117968 -0.767154 0.137722 0.019230 -0.255256 0.864303 0.416370 -0.005253 0.478135 0.037780
adj+case=nom+degree=pos+gender=masc+number=sing 0.270146 0.114052 0.216591 0.802807 -0.657204 0.212282 -0.077127 0.327336 -0.414272 0.302848 1.441007 0.127866 -0.815756 -0.270479 0.757196 -0.148958 -0.434247 0.923431 0.949909 0.330097 1.051614 0.859319 -1.242649 -0.219167 0.477657
noun+case=gen+gender=fem+number=plur -0.029505 -0.485900 -0.240640 0.911216 -0.364548 0.284711 -0.777128 -0.425026 -0.888040 0.934114 0.809832 -0.466657 0.161646 0.763825 0.552775 -0.353880 -0.921034 0.713679 0.861982 -0.382767 0.636814 0.032253 -0.022428 -0.386273 0.597134
ncmsf 0.013677 -0.182419 0.107962 0.623665 -0.438724 0.336184 0.378621 -0.569719 -0.688755 0.162701 0.196081 -0.831735 0.237507 0.237524 0.987957 -0.434161 0.363811 0.619334 0.240538 -0.069271 0.787679 0.353934 0.009193 -0.712423 0.257279
vpys---xr-aa--1 0.424645 -0.192224 -0.304184 0.261451 -0.103887 0.259395 -0.830399 -0.118160 -0.093465 -0.186116 -0.130055 0.367587 -0.672000 0.016166 -0.656464 0.069883 -0.367938 0.237972 -0.084445 0.102926 0.583777 0.118944 0.194872 -0.100432 0.115074
wrb -0.585154 -0.088427 0.135376 0.058040 -0.631211 0.184862 0.174539 0.562579 -0.775926 0.200896 0.069328 0.190229 0.477049 -0.107876 -0.135575 -1.009941 0.233279 0.079968 0.721395 0.020511 0.429670 -0.505580 -0.646801 0.219891 0.553603
pn+neu+sin+def+sub/obj -0.026687 0.013256 -0.059862 0.107175 -0.102047 0.156020 0.001066 -0.043573 -0.071788 0.144979 0.118710 -0.077574 0.073817 0.068035 0.063553 -0.174635 -0.076454 0.081139 -0.028805 0.139537 -0.023745 -0.031033 0.004932 0.025006 0.047481
vpitf-r3p 0.280882 0.008365 -0.136348 0.573408 -0.985272 0.368778 0.429520 -0.799343 -1.066536 -0.004940 0.744309 -0.439094 0.304501 -0.560443 1.347764 -0.858609 0.200730 0.093733 0.528792 -0.270860 0.407561 0.229451 -0.078271 -0.340919 0.325675
: -0.579087 -0.263942 0.386462 0.683358 -0.675407 0.375827 0.179790 0.683870 -1.161041 -0.116460 -0.126373 -0.178508 0.858243 -0.248645 -0.181890 -0.222962 -0.151021 -0.131666 0.536583 -0.186554 0.095712 -0.027984 -0.597220 0.377523 0.657464
pdzs3---------- -0.131161 0.447314 -0.753765 -0.069550 -0.052103 0.209141 -0.994056 -0.301489 -0.875818 0.489194 0.502452 0.534070 -0.481810 -0.802952 -0.626923 0.158896 0.116122 0.552906 0.248980 -0.381052 -0.069809 0.803469 -0.268548 -0.216461 -0.092451
adv,dem -0.225145 0.397951 -0.316822 -0.121209 -0.252852 0.548330 -0.028804 -0.062245 -0.315917 -0.198013 0.112543 -0.690558 0.729223 -0.389558 -0.155477 -0.201965 -0.244192 0.485800 0.262860 0.217581 -0.134886 -0.401858 0.506694 0.511569 1.112348
adj+definite=ind+degree=pos+gender=com+number=sing+variant=long -0.722328 -0.816508 -0.029335 0.581515 -0.643886 -0.477953 -0.559662 0.825749 -0.968184 0.328426 0.197370 0.366331 0.486460 0.058283 -0.186726 -0.908484 -0.584709 -0.177506 0.512380 0.217941 0.229545 0.057760 -0.964589 -0.039532 0.568498
pdys1---------- 0.504089 -0.068580 -0.543078 -0.813276 -0.012386 0.287478 -0.586842 -0.092278 -0.417816 0.220004 0.372678 0.326221 -1.123776 0.255486 -0.720912 -0.135775 0.464212 0.459463 0.161108 0.423296 -0.051745 0.407196 0.102342 -0.163971 -0.081794
propn+case=gen+gender=fem+number=sing 0.314872 -0.266678 0.170961 0.414869 -0.286910 0.568513 -0.548865 -0.138471 -0.915670 0.836062 0.771996 -0.581759 -0.099357 0.297184 0.348677 -0.581434 -0.643774 0.953528 0.554373 -0.111528 0.542886 0.851063 -0.513366 -0.650093 0.145134
pq -0.094719 0.032335 -0.126896 -0.011791 -0.050143 0.257049 0.028813 -0.021245 0.000746 0.371906 0.133002 -0.210329 0.328481 -0.003149 0.222804 -0.254699 0.129102 0.208525 -0.146208 0.262625 -0.076072 -0.292317 0.180501 0.132305 0.139611
no -0.212524 0.118004 -0.236159 -0.099566 -0.195639 0.486831 0.104161 -0.242311 -0.052549 0.603752 0.182236 -0.227935 0.438022 0.191854 0.369723 0.022122 0.074709 -0.137559 -0.206718 0.316388 -0.157691 -0.262796 0.127717 0.191482 0.474300
`` -0.416823 -0.112855 0.215036 0.311840 -0.547824 0.199214 0.143678 0.577080 -1.115075 0.059945 0.116189 0.003943 0.543400 -0.139295 -0.134404 -0.759143 -0.072719 -0.148997 0.457417 -0.114878 0.267812 -0.341966 -0.610695 0.121009 0.442951
v,act,ind,pres,pl3 -0.236635 0.589181 0.158017 0.199562 -0.396941 0.956951 -0.075405 -0.398642 -0.213793 -0.028672 0.479809 -0.911799 0.732704 -0.006909 -0.319228 -0.036788 0.099863 0.148039 0.544417 0.386089 -0.395281 -0.452405 0.359473 0.655862 1.180535
rv--3---------- -0.240357 0.362842 -0.166712 0.213372 -0.095094 -0.061629 -0.933943 0.026749 -0.832146 -0.430605 0.415071 -0.131385 -0.131228 0.052092 0.055700 0.866382 -0.146165 0.013725 0.195405 -0.308646 -0.048609 0.245052 0.065474 -0.195720 -0.368700
pron+case=nom+gender=com+number=sing+person=3+prontype=prs -0.854741 -0.233076 -0.203263 0.464151 -0.831688 0.077798 -0.157047 0.443609 -0.655761 0.774478 -0.114285 0.703104 0.541098 -0.117726 -0.436429 -1.093007 -0.012146 0.516422 0.771630 0.176180 0.282814 -0.078423 -0.614526 0.103972 0.224849
verb+number=plur+person=3+tense=pres 0.220207 -0.904393 -0.855717 0.402668 -0.361100 -0.138835 -0.209639 -0.186879 -1.162317 0.897556 0.729533 -0.040775 -0.226224 -0.088303 -0.397284 -0.761843 -0.647829 0.533482 0.210117 -0.006976 0.809127 0.853826 -0.147810 -0.381944 0.038984
n,sg,ela -0.446932 0.360634 -0.088507 -0.029227 -0.465780 0.611497 0.033178 -0.369860 -0.255812 -0.202354 0.075014 -0.678777 0.568447 -0.215623 -0.301552 -0.234647 -0.229270 0.609332 0.447432 0.213689 -0.154931 -0.405811 0.293800 0.389747 1.118593
'' -0.373760 -0.332600 0.287426 0.609838 -0.283792 0.547835 0.013484 0.848700 -1.050010 -0.186117 -0.113178 -0.114187 0.299473 -0.421909 -0.154417 -0.611994 -0.172863 0.028604 0.385054 0.051446 0.009882 -0.338186 -0.551119 0.216578 0.588008
vb-p---2p-aa--- 0.123143 0.110347 -0.552910 0.445659 0.225615 -0.103510 -0.526814 0.167072 -0.176154 -0.000319 0.189735 0.365190 -0.389653 -0.055444 -0.903821 0.129265 -0.340662 0.296392 -0.084312 0.018052 0.883319 0.154025 0.132718 0.006225 -0.053747
det+gender=com+number=sing+prontype=dem -0.444715 -0.899170 0.274207 0.906154 -0.093724 0.015065 -0.823636 0.376096 -0.595977 -0.181671 0.284532 0.307545 0.600406 -0.009239 -0.387219 -0.836345 -0.381851 0.547328 0.498921 0.048690 0.426205 0.043543 -1.162452 0.206728 0.440911
aais3----1a---- -0.352713 0.625812 -0.095531 0.129687 -0.283560 -0.114884 -1.267549 -0.306729 -1.546274 -0.004536 -0.101741 0.212382 -0.127921 -0.892478 -0.276987 0.789684 -0.110432 0.027753 -0.013050 -0.638851 -0.409531 0.759477 -0.347545 -0.995052 -0.338004
clxp2---------- -0.600653 0.087309 0.014077 0.274007 -0.225418 -0.493756 -0.856280 0.373660 0.159319 -0.303177 0.260142 -0.163092 -0.439653 0.909595 0.292228 0.056922 -1.149669 0.674232 0.381087 -0.331873 -0.042270 0.527034 0.550336 -0.231224 0.177114
pd -0.091432 0.015674 -0.401055 0.036593 -0.155702 0.367628 0.131947 -0.223865 0.011481 0.605615 0.147315 -0.210647 0.343667 0.129014 0.455377 -0.213462 0.014757 0.242174 -0.226486 0.375374 -0.121529 -0.320884 0.221629 0.166847 0.247508
aamp4----1a---- 0.754549 0.227148 -1.004425 0.631315 0.196245 -0.046865 -0.600316 0.603814 -0.468202 -0.546793 0.336838 0.322078 -0.122778 0.319497 0.277175 -0.188846 -0.208980 0.821981 -0.088682 0.106644 0.719989 0.216753 -0.492361 -0.063946 -0.146351
hp+-+-+- -0.024953 -0.025635 -0.022332 0.113221 -0.130966 0.169142 -0.019435 -0.040561 -0.080986 0.118599 0.106047 -0.064305 0.077993 0.090074 0.075353 -0.187769 -0.113556 0.064935 -0.027144 0.131101 -0.024768 -0.046665 0.008382 0.018746 0.070518
wp -0.461701 -0.355857 0.047345 -0.193140 -0.551056 0.103214 0.060679 0.631726 -0.797833 0.201735 -0.082875 0.262981 0.460886 -0.309942 -0.046933 -0.966499 0.185153 0.096001 0.623601 -0.018530 0.470839 -0.530721 -0.617722 0.108497 0.677706
nn+utr+plu+def+nom -0.018961 -0.028490 -0.044804 0.110382 -0.105760 0.146633 -0.037849 -0.051472 -0.048791 0.141898 0.120495 -0.079148 0.055902 0.048616 0.092663 -0.134916 -0.084703 0.050971 -0.055979 0.124560 -0.038201 -0.013042 0.011488 -0.018029 0.061748
rp -0.553934 -0.248793 0.021189 0.405670 -0.443077 -0.018095 0.186109 0.528459 -0.711143 0.128958 -0.157034 0.116598 0.503642 -0.074329 -0.278839 -1.025147 -0.001581 0.056361 0.445283 -0.158170 0.426956 -0.320626 -0.515166 -0.042529 0.373032
a,sg,par -0.267127 0.493394 -0.145720 0.090250 -0.394891 0.484617 -0.009113 -0.071042 -0.342201 -0.102548 -0.026487 -0.647659 0.817267 -0.334293 -0.077043 -0.246348 -0.389652 0.546453 0.446270 0.257722 -0.143795 -0.282169 0.325502 0.573988 1.037492
pad -0.058234 -0.018206 -0.017419 0.081276 -0.111343 0.134489 -0.079700 -0.027118 -0.052655 0.102912 0.088608 -0.064405 0.057350 0.088707 0.073709 -0.160690 -0.082977 0.023747 0.027789 0.109693 -0.017843 0.009623 -0.000663 -0.041468 0.063053
noun+case=acc+gender=neut+number=sing 0.130170 -0.075706 -0.347671 0.397379 -0.246069 -0.115206 -0.741527 -0.422117 -0.886128 0.960806 0.630066 -0.432184 -0.192041 0.266901 0.132083 -0.624155 -0.798853 0.503588 0.379530 -0.188416 0.161469 0.756448 -0.130885 -0.606349 0.066166
ie -0.080560 -0.025512 -0.023675 0.103368 -0.103270 0.128955 -0.036886 -0.097752 -0.081070 0.134424 0.109583 -0.088762 0.123678 0.106260 0.032241 -0.140610 -0.104768 0.052465 0.000293 0.107915 -0.002159 -0.004385 0.030692 -0.012012 0.096427
vb+prs+sfo -0.055195 -0.013719 -0.055652 0.109809 -0.097193 0.135192 -0.007488 -0.047818 -0.056732 0.103926 0.107965 -0.094568 0.074095 0.086976 0.098109 -0.159856 -0.106403 0.033780 -0.009010 0.173670 -0.021855 -0.019627 -0.037028 -0.017836 0.090032
n,sg,ade -0.387913 0.307014 -0.132004 -0.000152 -0.374258 0.566590 0.060714 -0.298646 -0.322987 -0.258964 0.053619 -0.679265 0.548589 -0.229492 -0.239400 -0.153176 -0.255114 0.522756 0.333982 0.219854 -0.275916 -0.185020 0.353217 0.452988 1.074660
db------------8 -0.045611 0.576797 -0.675250 0.358249 0.224010 0.243569 -0.984928 0.230872 -0.008548 0.329615 0.036703 0.350093 -0.377591 0.514912 -0.224421 -0.135951 -0.335183 0.333326 0.372592 0.365898 0.046062 0.027504 0.402618 -0.604061 0.410766
nnip3-----a---- -0.122338 -0.000814 0.012295 0.654865 -0.380983 -0.078149 -1.282249 -0.039216 -0.465287 0.090782 0.321821 0.234946 -0.267363 0.176898 -0.367416 -0.048136 -0.045450 0.211790 0.477882 -0.365265 0.017950 0.383083 0.207825 -0.330860 -0.478980
noun+case=loc+gender=masc+number=sing 0.036676 0.067749 -0.212920 0.715153 -0.113243 0.557790 -0.909790 -0.229495 -0.993367 0.672388 0.378663 -0.356337 0.852824 0.469191 0.396053 -0.360343 -0.959445 0.539770 0.156138 -0.861036 0.594031 0.641811 -0.480874 -0.504172 -0.037086
p4fp1---------- -0.543381 0.692731 -0.651573 0.262304 -0.046669 -0.134741 -0.934232 0.555193 -0.289787 0.260179 0.450802 0.457729 -0.126853 0.007395 -0.446732 -0.306673 -0.644544 0.680422 0.288799 0.371191 0.114380 0.148859 -0.247633 -0.077043 0.196756
n,pl,gen -0.194282 0.406344 -0.137893 0.135160 -0.350013 0.722192 0.020625 -0.421565 -0.410542 -0.197118 0.025635 -0.728848 0.639078 -0.101235 -0.458092 -0.320120 -0.199366 0.317065 0.339218 0.277937 -0.351161 -0.438864 0.420698 0.332472 1.049956
propn+case=gen+gender=masc+number=sing 0.028785 -0.104315 0.065603 0.075526 -0.277490 0.672238 -0.629607 0.068030 -0.899251 0.653658 0.869254 -0.474336 -0.188742 0.445614 0.326530 -0.468522 -0.485517 1.097072 0.491184 -0.129520 0.742530 0.581128 -0.322217 -0.666237 0.080165
vpns---xr-na--- 0.285440 0.172179 -0.689234 -0.087121 -0.112875 0.043703 -0.776017 -0.028312 -0.460058 0.106160 0.201267 0.117532 -0.617399 0.129861 -0.295345 -0.167372 -0.686501 -0.080976 -0.165742 0.056525 0.776566 -0.173789 0.306318 -0.056727 -0.000147
noun+case=gen+gender=neut+number=sing 0.038478 -0.120429 -0.167180 0.398894 -0.308867 0.405584 -0.852043 0.043547 -0.803008 0.839516 0.508492 -0.451805 0.050368 0.677367 0.316785 -0.605022 -1.019558 0.761497 0.494235 -0.088354 0.319202 0.495182 -0.620060 -0.622553 0.127987
nnixx-----a---- 0.792188 0.517808 -0.155119 0.330453 0.552337 0.532921 -0.688945 0.321156 0.056396 -0.020651 -0.197628 0.043784 -0.379320 0.450516 -0.231275 -0.003520 -0.011652 0.495367 0.582854 0.218903 0.242793 0.114010 0.166545 -0.758507 0.602872
dg-------2a---1 0.018574 0.102447 -0.886667 -0.111454 0.097136 -0.059271 -0.510289 -0.014970 -0.324443 0.134798 0.513261 0.347458 -0.280205 0.259029 -0.489588 0.215687 -0.123690 0.373234 0.342135 -0.104980 0.476362 0.160989 0.021801 -0.026909 -0.234520
adp+case=ins 0.146055 -0.168866 -0.463560 -0.069631 -0.173309 0.611679 -0.682266 0.048698 -1.162621 0.512588 0.877856 -0.335226 0.186990 0.344756 0.304700 -0.523500 -0.615579 0.377421 0.372353 -0.314317 0.279398 0.626616 0.075054 -0.603414 0.283637
verb+gender=fem+number=sing+verbform=part 0.560636 0.069469 -0.230622 0.225246 -0.244291 0.262835 -0.572481 -0.327245 -0.893703 0.262442 0.876459 -0.020953 -0.743829 -0.080968 -0.357843 -0.427303 -0.138621 0.951639 0.575067 0.351206 0.692155 0.774185 0.069457 -1.045744 0.573082
pdfs1---------- 0.287925 0.149672 -1.371132 -0.220595 0.162564 0.296866 -0.621764 0.176049 -0.556893 0.062726 0.371078 0.078035 -0.692775 0.497986 -0.069922 0.975639 0.103388 -0.533574 0.407390 0.187427 -0.107210 0.130875 0.047378 0.063118 0.294012
ab+pos -0.034890 -0.023418 -0.035112 0.112551 -0.083575 0.116352 -0.025314 -0.054719 -0.068716 0.120826 0.118609 -0.074575 0.074850 0.083224 0.059006 -0.123661 -0.073651 0.056994 0.006055 0.130788 -0.001588 -0.022096 0.004242 -0.012799 0.062501
uh -0.442490 -0.242106 0.420215 0.467478 -0.174982 0.238627 -0.043387 0.718430 -0.486812 0.437581 -0.058534 0.032113 0.196188 -0.227989 -0.056443 -1.076850 0.039959 0.140417 0.356391 -0.096419 0.389026 -0.259627 -0.618477 0.067772 0.509286
pos -0.583573 -0.333079 0.303713 0.535179 -0.588383 0.366207 0.201759 0.744802 -1.536185 -0.135873 0.288589 -0.163650 0.554469 -0.216403 -0.091692 -0.396147 0.128747 -0.356406 0.404014 0.078038 -0.145086 -0.027819 -0.690211 0.471754 0.672018
ncnpi 0.082310 -0.076026 -0.033914 0.877869 -0.714399 0.522375 0.141845 -0.892759 -0.832561 0.118875 0.560887 -0.791885 0.039315 0.060181 1.306823 -0.360689 0.155644 0.589682 0.654735 -0.134232 0.617776 0.000230 -0.213834 -0.366799 0.069839
noun+case=loc+gender=fem+number=sing -0.023967 0.181486 -0.157657 0.407461 0.033277 0.556982 -0.780318 -0.253245 -1.088378 0.788006 0.229710 -0.532988 0.508049 0.195668 0.581771 -0.650255 -0.842523 0.475304 0.299315 -0.767405 0.373734 0.721055 -0.385710 -0.731706 -0.087950
aams4----1a---- 0.315401 0.843217 -0.800101 0.661227 0.089589 -0.106014 -0.933222 0.096637 0.515443 -0.540430 -0.124981 0.972092 0.679046 0.045773 -0.102493 0.284797 0.272106 0.898139 -0.039800 -0.636788 0.723295 0.144137 0.202824 -0.029448 -0.199288
aanp4----1a---- 0.066231 0.103206 -0.618227 1.267227 -0.268134 -0.435698 -0.607343 -0.245881 0.002519 0.039968 0.621608 -0.618717 -0.410768 0.528984 0.671845 -0.093552 -0.595913 0.456556 0.016210 0.015763 1.003504 0.766617 0.497924 -0.239764 -0.476719
hyph -0.503114 -0.273858 0.434413 0.509528 -0.684146 0.313343 0.225430 0.522448 -1.427235 -0.176626 0.115990 -0.228355 0.827497 -0.120140 -0.153875 -0.267904 0.131450 -0.203538 0.516870 -0.111324 -0.005681 -0.380963 -0.572809 0.309756 0.496125
jj+pos+utr/neu+sin+def+nom -0.051498 -0.017007 -0.015160 0.088366 -0.099930 0.151889 -0.033307 -0.028344 -0.115074 0.099596 0.053086 -0.052414 0.047859 0.063151 0.058443 -0.137449 -0.132449 0.049605 0.018519 0.106279 -0.040423 -0.033817 0.006387 0.002912 0.074370
noun+case=nom+gender=masc+number=plur 0.090130 0.042382 -0.588991 0.759725 -0.317864 -0.023088 -0.339635 -0.688549 -1.123199 0.629682 0.798213 -0.071594 0.226127 0.095979 0.027636 -0.637116 -0.317044 0.430043 0.114539 -0.058161 0.614337 0.547951 -0.016828 -0.273837 0.205144
det+number=plur+prontype=dem -0.335120 -0.245249 -0.003008 0.962320 -0.688064 -0.242332 -0.197901 0.514395 -0.445704 0.411816 -0.424822 -0.213717 0.588422 0.069936 -0.404396 -0.717547 -1.001473 0.736943 0.751684 0.064001 0.188174 -0.216687 -0.427156 0.126883 0.398956
dt+utr+sin+def -0.062248 0.010602 -0.034699 0.132598 -0.089906 0.103934 -0.020992 -0.037750 -0.090621 0.110950 0.064522 -0.056375 0.042101 0.060809 0.068301 -0.150267 -0.095855 0.027187 0.041540 0.134319 -0.014745 -0.024510 -0.012774 0.008637 0.062669
ansi 0.158285 0.283822 0.130969 0.836705 -0.700610 -0.146950 -0.057698 -0.927187 -0.471888 -0.076299 0.915991 -0.544407 0.098637 -0.122819 1.141709 0.069609 0.230031 0.215005 0.495548 -0.422821 0.362220 -0.039754 0.215863 -0.311600 0.456012
dg-------3a---- -0.348614 0.188586 -0.568317 0.308794 0.228006 -0.142640 -0.607526 -0.090987 -0.157786 0.019730 0.259472 0.108350 -0.251287 0.394661 -0.488175 0.126744 -0.337609 0.491976 0.199446 0.157379 0.234468 0.126680 0.233579 0.094488 -0.388184
vpptf-r3s 0.049822 -0.141632 -0.205367 0.607974 -0.548370 0.263405 0.459447 -0.764855 -1.095537 0.505398 0.448317 -0.325103 0.623361 -0.658718 1.128465 -0.985364 0.426012 -0.109892 0.127866 -0.424547 0.458085 0.608416 -0.171449 -0.501725 0.092679
det+gender=neut+number=sing+prontype=ind -0.196332 -0.154242 0.043625 0.470154 -0.181536 -0.151198 -0.528247 0.284602 -0.581573 0.289294 0.092426 0.206649 1.229660 -0.251379 -0.592197 -1.050887 -0.725358 -0.015211 0.490489 0.361998 0.517373 -0.146683 -0.784653 0.101106 0.180690
adj+case=nom+degree=pos+gender=fem+number=sing 0.372980 0.001420 -0.743283 0.419672 -0.199908 0.667757 -0.495445 0.247912 -0.749870 0.060417 0.754851 0.505804 -0.571054 -0.225786 -0.226279 -0.252495 0.295025 0.668497 0.682022 0.542271 0.706203 0.879831 -0.731492 -1.308613 0.665270
adj+case=gen+degree=pos+gender=fem+number=sing 0.594480 -0.333929 -0.295245 0.406497 -0.780040 1.069423 -0.305471 0.084132 -1.206378 0.274878 0.826331 -0.585169 0.074918 0.707255 0.300623 -0.551414 -1.128704 1.014086 1.031925 0.051113 0.263393 0.246202 -0.768994 -0.182105 0.325294
pq--4---------- -0.224910 0.593522 -0.735083 0.249306 0.019100 0.298084 -0.640881 -0.261356 -0.318945 0.502287 0.441117 0.319180 -0.490985 0.279672 -0.581045 -0.083678 -0.071491 0.336448 0.070741 0.399533 0.300197 -0.012125 -0.118506 0.087760 -0.204826
jj+pos+neu+sin+ind+nom -0.056588 -0.005233 -0.037128 0.088105 -0.107738 0.101970 -0.009179 -0.024249 -0.074886 0.101002 0.087204 -0.055216 0.075821 0.065094 0.052736 -0.154668 -0.086315 0.054858 -0.022084 0.121564 -0.003671 -0.030149 -0.025672 -0.046214 0.037760
pron,pers,sg3,nom -0.265738 -0.056997 -0.143353 -0.235207 -0.257014 0.607798 -0.221457 -0.190382 -0.275316 -0.123955 -0.248583 -0.555921 0.515005 -0.407704 -0.119716 -0.132981 -0.155729 0.448051 0.499024 0.101979 -0.158072 -0.462194 0.230166 0.137629 1.188587
pe -0.097464 0.017145 -0.303247 0.057244 -0.116630 0.415500 0.048190 -0.131920 -0.027106 0.527686 0.158860 -0.186994 0.336535 0.115721 0.402164 -0.245074 0.026543 0.184003 -0.225922 0.346803 -0.108304 -0.330921 0.188242 0.145742 0.220010
adj+degree=pos+variant=long -0.336107 -0.402728 0.019815 0.536699 -0.462043 -0.109305 -0.545413 0.674748 -1.011193 0.341271 -0.021750 0.260084 0.464819 0.050809 -0.233872 -0.750033 -0.926613 -0.141369 0.491790 0.123359 0.140763 -0.071325 -0.795276 0.090349 0.519927
noun+definite=def+gender=com+number=plur -0.633843 -0.433354 -0.093563 0.497220 -0.418787 -0.024707 -0.329259 0.466062 -0.574552 0.666566 -0.145080 0.193374 0.458451 -0.020317 -0.296744 -1.056569 -0.217102 0.411061 0.630194 0.223248 0.248951 -0.167321 -0.727679 -0.291149 0.299965
