3313 10
noun 0.082389 -0.816384 2.276212 -0.554361 -0.551678 -1.129992 -0.093775 -0.440398 -1.132528 0.861722
punct -0.245117 -1.166686 1.950568 -0.344759 -0.452974 -0.930752 -0.147727 -0.552844 -0.792549 0.660802
verb -0.060513 -0.753317 1.756274 -0.960562 -0.603927 -0.848078 -0.265150 -0.393108 -0.619045 0.911107
adp -0.199113 -0.942104 1.952707 -0.532195 -0.627220 -0.919893 -0.064976 -0.444356 -0.696661 0.566719
adj -0.149106 -1.053685 2.346800 -0.623504 -0.402139 -0.966572 -0.055174 -0.654323 -0.520701 0.643104
z:------------- -0.981347 0.791204 -0.073588 0.074454 0.458794 -0.342462 -0.791766 -0.202860 -0.160513 0.171883
adv -0.118842 -0.898716 1.870950 -0.709015 -0.468952 -0.958874 -0.085365 -0.482943 -0.816385 0.667779
pron -0.055768 -0.778052 2.058300 -0.830785 -0.576616 -0.984815 0.068508 -0.498396 -0.874801 0.588439
propn -0.424911 -1.728836 2.802585 0.040446 0.404652 -0.907877 0.303835 -1.729890 -0.974609 -0.122042
det -0.148723 -1.072660 2.414371 -0.443601 -0.534460 -0.723655 0.131880 -0.901937 -0.498204 0.282526
conj -0.166113 -1.169976 2.127944 -0.391647 -0.318918 -0.793872 -0.055705 -0.802808 -0.657417 0.422996
num 0.047497 -1.314597 2.497805 0.007372 -0.299293 -0.893559 -0.058860 -1.127523 -0.790744 0.028870
n -0.176420 -1.158103 1.288775 0.271671 0.360544 -0.104872 0.715159 -1.653651 -0.227450 -0.364513
v -0.282844 -1.923858 2.294975 -0.249971 -0.310308 -0.460346 -0.127986 -1.551023 -0.011080 0.700657
_+_ -0.800952 -1.423761 0.906983 1.346080 -0.503127 -0.265244 0.857874 -1.755021 -0.574615 -0.077459
_ -0.458847 -1.621619 1.485671 1.270697 -0.670219 -0.578535 0.486770 -1.754188 -0.638637 0.076355
s -0.089352 -1.412791 2.161088 -0.010425 -0.641343 -1.109253 0.337239 -1.641998 -1.301950 0.385583
aux -0.532897 -1.141558 1.464596 -0.729932 -0.143768 -0.900900 -0.122175 -0.815993 -0.427538 0.598169
sconj -0.184067 -1.234590 2.037798 -0.242579 -0.188197 -0.820482 -0.029755 -1.001062 -0.755433 0.258637
j^------------- -0.904310 0.954067 0.181649 -0.023249 -0.021905 0.004365 -0.646904 0.363555 0.092721 -0.069022
db------------- -0.891312 0.774450 0.703980 0.233611 -0.299090 0.396285 -0.512861 -0.242364 0.142230 0.417364
e -0.316426 -0.689943 1.704446 -1.050671 -0.460979 -0.917898 0.285456 -2.258167 -0.777793 0.140923
rr--6---------- -0.519877 1.386165 0.743507 -0.078603 0.154617 0.324863 -0.015990 -0.686651 -0.117840 -1.338209
n_sing 0.581240 -1.221635 2.223423 0.014451 -0.923080 -0.835279 -0.053530 -1.103024 -1.051759 0.649536
vb-s---3p-aa--- -0.938140 1.059480 -0.478529 0.832820 0.251702 0.711209 -0.621683 0.112887 0.364380 0.023446
part 0.475411 -0.769581 1.802498 0.107513 -0.696168 -0.157309 -0.125899 -0.853706 -0.852440 0.272946
rd -0.239961 -1.211958 1.941672 -0.316457 -1.384835 0.019155 0.505767 -1.932884 0.042677 -0.633807
nn -0.446587 -0.431709 0.586974 -1.139014 0.633914 0.604141 1.634248 0.987498 -0.885043 0.470294
nnms1-----a---- -0.962573 -0.142558 1.033175 0.966454 0.228442 -0.724689 -1.854004 -0.123432 0.942733 -0.799424
a -0.222485 -1.223286 1.873933 -0.186452 -0.381590 -0.713291 0.307454 -1.882971 -0.302555 -0.250417
punct+_ -0.365103 -1.388665 2.241974 -0.311774 0.246112 -0.336049 -0.218147 -1.310983 -0.668683 0.314794
nnfs2-----a---- -1.218409 0.679747 -0.226286 0.084187 0.544464 0.101857 -0.024462 0.858291 0.126769 -0.603353
nnfs1-----a---- -1.530128 0.414077 0.091629 0.456443 0.593035 -0.011673 0.052662 0.173843 0.289968 0.486782
rr--4---------- -1.012653 0.719736 -0.088665 0.835803 -0.608470 -0.105492 -0.377584 0.030319 -1.007818 -0.104334
rr--2---------- -1.334198 0.738755 0.121763 0.007080 0.333972 -0.440928 -0.035054 0.204372 -0.279389 -0.712447
c=------------- -0.859886 0.282893 1.040964 0.566557 1.722098 -0.389140 -0.639549 0.203742 -1.115368 0.108405
j,------------- -0.684351 0.510341 0.665714 0.701406 0.022143 0.302209 -0.854943 -0.282494 0.163398 0.782768
in -0.160968 -0.148463 0.561395 -1.441166 0.221295 1.124433 1.599133 -0.413881 -1.103456 0.210866
vf--------a---- -0.840908 0.661469 0.368849 0.355592 -0.628493 0.541011 -0.396509 0.077620 -0.148898 0.436396
nnis2-----a---- -1.021423 0.454440 0.215512 0.523954 0.431547 -0.301731 -0.118483 1.164337 -0.007128 -0.560109
nnis1-----a---- -1.660200 0.580140 1.107991 0.723273 0.055788 -0.293073 -0.210470 -0.213064 0.289526 0.139170
dt -0.433926 -1.384886 0.534145 -0.350677 0.048411 1.193172 1.875422 0.497985 -0.949896 -0.677482
nnfs4-----a---- -1.543027 0.112581 0.397222 0.904154 -0.557533 0.076125 -0.040755 0.541444 -0.291969 0.117663
p7-x4---------- -0.959626 0.803852 0.641602 -0.158338 -0.092355 0.381646 -0.343168 -0.332251 0.241601 0.567085
vpys---xr-aa--- -0.651040 0.559461 0.015902 1.036067 0.320266 0.346834 -0.958660 0.180410 0.268387 -0.364903
dg-------1a---- -1.095003 0.725414 0.498201 0.156031 -0.266920 0.345453 -0.494735 -0.025758 0.073474 0.267825
nnis4-----a---- -1.554791 0.303245 0.371985 0.953302 -0.247217 0.258694 0.155531 0.721657 -0.854207 -0.206060
r 0.282719 -0.582839 -0.137654 -1.062879 -1.009845 0.640232 -0.040856 -0.151474 -1.070278 -1.018528
cc -0.512468 -1.108856 1.149201 -0.198014 -0.372378 -0.293250 0.374053 -1.847153 -0.634367 -0.106131
nnfs6-----a---- -0.766433 0.787975 0.690314 -0.486051 1.016192 0.850069 0.519831 0.515995 0.837525 -0.678633
p 0.206328 -0.981693 1.972878 0.342711 -0.818049 -0.373315 0.190194 -1.059976 -0.216925 0.314488
nnfp2-----a---- -1.004341 0.689399 0.649890 -0.282504 0.381062 -0.126836 0.052551 1.003755 -0.764882 -0.065023
nnp -0.651269 -0.457268 1.082388 -0.667412 0.951661 1.841051 2.052574 0.161165 0.244332 0.030013
sp -0.228460 -1.591221 1.987675 0.217579 0.389279 -0.473231 0.642187 -1.961655 -0.777619 -0.382162
nnns2-----a---- -1.059009 0.457795 0.274787 0.042637 0.288856 -0.284464 -0.186904 1.185381 0.244861 -0.186870
prp -0.282146 -1.294457 -0.157895 -0.608526 1.089945 1.518444 0.884848 0.373424 -1.009257 0.815220
ff -0.338713 -1.341302 1.372855 -0.182983 -0.188865 -0.301597 0.118362 -1.869491 -0.522306 -0.016944
jj 0.065406 -0.438097 0.058889 -1.218053 0.494668 0.968510 1.403505 0.754657 -1.090843 0.193690
rr--7---------- -0.840182 1.226658 0.191347 -0.256278 -0.868760 -0.146292 -0.823003 0.563602 -0.020047 -0.644122
con 0.447326 -1.158182 1.844954 0.273860 -0.462180 -0.367406 0.051649 -1.049001 -0.433932 0.397701
vb-p---3p-aa--- -0.621781 0.987713 -0.292384 -0.227506 0.084538 0.880302 -0.901334 0.265478 -0.162467 0.182542
rb -0.593877 -0.865794 -0.036750 -0.509132 0.347582 1.207787 1.188028 0.054438 -0.980790 0.595987
delm 0.342865 -1.511818 1.710605 0.134830 -0.198601 -0.431940 -0.025056 -0.697033 -0.331055 0.494218
aafs2----1a---- -1.415795 1.703478 -0.540278 -0.359034 0.077469 -0.330230 -0.905724 1.557616 0.458771 -0.700021
nnip2-----a---- -1.216370 0.754088 0.244381 -0.194241 0.540550 -0.093995 0.302608 1.087988 -1.004534 0.258237
. -0.370946 -0.610722 0.511050 -1.200240 -0.002618 1.355514 1.632752 -0.501151 -1.025979 -0.538861
fs -0.076140 -1.404701 0.836854 -0.238874 -0.175006 0.158804 0.182878 -2.054795 -0.685938 -0.181376
nnis6-----a---- -0.748585 0.918679 0.699956 -0.377633 0.721694 0.620956 0.228169 0.469225 1.166415 -0.551402
c -0.378436 -0.920263 0.090956 -1.008608 -0.101664 0.645060 1.733080 -1.073540 -0.567950 0.722446
vb -0.294869 -1.040504 -0.212598 -1.592954 -0.121626 1.706902 0.805099 0.521512 -0.364835 0.656699
adp+adptype=prep -0.543147 -0.166760 0.704090 -1.718814 0.499426 1.588993 1.297321 0.279152 -1.347705 0.160937
aafs1----1a---- -1.391301 1.444905 0.469628 1.130809 0.202387 -0.051435 -0.217119 -0.090673 0.643954 0.669071
nnns1-----a---- -1.456287 0.513770 0.188966 0.506773 0.503474 0.239225 -0.018017 -0.003935 0.152170 0.221112
nnns4-----a---- -1.881699 0.334904 0.297807 0.508621 -0.220466 0.079511 -0.042465 0.638513 -0.449826 0.137401
nns -0.899767 -0.847800 0.367398 -0.991792 0.944640 0.659953 1.578396 0.672786 -0.876858 0.369672
, -0.684531 -1.025070 0.396984 -1.225899 0.383752 1.197148 1.309717 -0.212731 -0.587735 -0.138007
nnms2-----a---- -0.491099 0.298173 0.102309 0.533731 0.808463 -0.458631 -0.897231 0.909263 0.746338 -0.648799
b -0.686289 -1.436463 1.353181 -0.339531 -0.393611 -0.637505 0.284404 -1.478130 -0.359980 0.047674
pp -0.069700 -0.704721 1.222867 -0.246635 -0.357926 -0.408368 -0.074196 -0.398753 -0.386332 0.188077
nnns6-----a---- -0.672079 0.727178 0.641690 -0.472529 0.793007 0.585457 0.363343 0.981832 0.763507 -0.646765
vpqw---xr-aa--- -0.825627 0.972207 -0.465299 0.897665 0.348829 0.807155 -0.317917 0.186819 0.095765 -0.028597
aais2----1a---- -0.893029 1.457665 -0.035368 0.189142 0.433412 -0.471931 0.134994 1.381935 -0.079976 -0.608153
nnfs7-----a---- -1.690982 0.225106 0.600419 -0.142281 -0.644957 -0.171823 -0.575260 0.692031 0.314366 -0.461139
n_pl 0.438198 -1.064001 1.514739 0.075460 -0.905942 -0.445789 -0.085151 -0.964111 -0.431668 0.321520
nnmp2-----a---- -0.872851 0.454049 0.536491 -0.077164 0.630128 -0.260530 -0.178504 0.778890 -0.578987 -0.177645
aais1----1a---- -0.580647 1.376701 0.621389 1.036521 0.201386 0.151080 -0.625363 -0.220137 0.244982 0.468388
nnfp1-----a---- -1.204052 0.531513 0.640874 -1.306536 -0.082421 0.392667 -0.854965 0.082185 0.369990 -0.049739
rr--3---------- -0.870255 1.144273 0.064181 -0.187963 -0.895244 -0.125949 -0.465763 -0.358565 -0.110025 -0.727758
conj+_ 0.041684 -0.749358 1.626376 -0.508349 0.220222 0.284828 -0.299636 -1.000082 -0.732928 0.257608
nnis7-----a---- -1.294653 0.253403 0.771900 0.298856 -0.467845 0.219333 0.149162 0.529986 0.002178 -0.654156
tt------------- -0.795974 0.612695 0.486003 0.214027 0.047149 0.272633 -0.466515 -0.147986 -0.312019 0.527043
nnfxx-----a---8 -0.847501 0.315378 0.836414 0.555905 0.998013 -0.131986 -0.637465 0.530511 0.062308 -0.046929
vc------------- -1.093760 0.745315 -0.215457 -0.124200 0.242763 0.778116 -0.509526 -0.961298 0.155499 0.575714
aafs4----1a---- -0.367408 0.300380 0.229799 1.469873 -1.413131 -0.200150 -0.658580 1.079010 -0.854743 0.527465
nnfp4-----a---- -1.860838 0.348216 0.447982 0.064736 -0.471086 0.326162 -0.281459 0.693949 -0.839865 0.024327
vpmp---xr-aa--- -0.831427 0.779347 -0.058096 0.384669 -0.182446 0.792411 -0.862038 0.262324 -0.195177 0.093347
nnmp1-----a---- -1.199462 0.305675 0.541333 -0.663498 -0.357828 0.406363 -0.850082 -0.025145 -0.060185 0.483030
adv+_ -0.944711 -0.642455 0.260351 -0.698098 0.186934 2.057203 1.189888 0.349942 -0.988494 0.634646
v_prs 0.483666 -1.250605 1.397910 -0.032748 -1.129313 -0.265667 -0.406638 -0.475905 -0.154966 0.300138
noun+definite=ind+gender=com+number=sing -0.667069 -0.841511 1.038349 -1.371628 0.244131 1.387298 1.521332 1.290984 -0.680025 0.001813
fb 0.106660 -1.421316 1.327928 -0.231508 0.174303 -0.203605 0.250730 -1.623467 -0.414979 -0.408942
va -1.026479 -1.505214 0.878319 -0.471923 -0.256157 -0.603654 0.143199 -1.464825 -0.215442 0.076307
vbd -1.218393 -0.685792 -0.277474 -1.638319 0.203002 1.331894 1.394329 -0.053346 -0.259768 0.124965
aafp2----1a---- -0.541467 1.205813 1.261923 -0.070611 0.544339 -1.137732 -0.830190 1.478474 -1.002630 -0.774226
vbp -1.162621 -0.544834 -0.730172 -1.673423 0.107746 1.137188 1.322590 -0.369507 -0.191711 0.195661
nnip4-----a---- -1.552498 0.247689 0.205546 0.675889 0.087761 0.727494 -0.080841 0.461235 -1.152124 0.032238
vpns---xr-aa--- -0.745094 0.826922 -0.417959 0.766449 0.453439 1.011398 -0.361074 0.094960 -0.161122 -0.097645
aais4----1a---- -0.975594 0.710995 -0.156809 1.512634 -0.954392 0.710202 -0.090589 0.726825 -1.288245 0.077120
nnip1-----a---- -1.636779 0.574515 0.713553 -1.427799 0.164702 0.526077 -1.053481 0.045065 -0.284970 -0.083347
vb+prs+akt 0.042735 -0.470371 0.812793 -0.366024 -0.245690 -0.191160 -0.197692 -0.382299 -0.349980 0.246911
pro 0.338441 -0.917390 1.460757 -0.119927 -0.744700 -0.274699 -0.083839 -0.944328 -0.420806 0.319681
aaip2----1a---- -1.001711 1.394549 -0.164772 -0.097137 1.184126 -0.015726 0.430084 1.213903 -2.026222 0.011558
vb-s---3p-na--- -0.795008 0.845179 -0.380608 0.929622 0.118214 0.803551 -0.655695 0.306274 0.335462 -0.022608
nn+utr+sin+ind+nom 0.105360 -0.471892 0.991815 -0.192993 -0.115811 -0.361951 -0.117146 -0.346425 -0.379020 0.165906
vbz -0.935242 -0.756207 -0.088762 -1.750163 0.243123 1.085756 1.545285 -0.161545 -0.591219 0.148651
aans1----1a---- -0.751086 1.058570 0.573734 0.096568 0.170791 0.482515 -0.551402 -0.220195 -0.054573 1.117575
aafs6----1a---- 0.212995 1.999252 1.703263 -1.057456 0.460791 1.515768 -0.129959 0.544638 1.525785 -1.577240
rv--6---------- -0.421897 1.374932 1.094312 -0.077991 0.130449 0.123193 -0.206679 -0.552202 -0.043848 -1.460521
v_pa 0.443495 -1.238928 1.417753 0.061544 -0.969080 -0.256657 -0.403063 -0.478217 -0.123278 0.142463
pc -0.984318 -1.379837 0.865125 -0.589681 -0.438503 -0.588510 0.242182 -1.298460 -0.240173 0.072123
ri -0.571290 -1.288795 0.690800 -0.010049 -1.016258 0.057574 0.344574 -1.650362 -0.096359 -0.645413
aans2----1a---- -1.181189 0.925245 -0.199268 0.641697 0.103278 -0.775729 -0.040673 1.130803 -0.122368 -0.806553
mad -0.036667 -0.388773 0.662963 -0.168537 -0.182815 -0.092477 -0.053008 -0.272882 -0.225092 0.074535
propn+_ -0.635483 -1.637936 1.127974 -0.981470 1.382550 1.730738 1.112938 0.427242 -0.276853 0.102484
cd -0.048096 -0.241140 0.107483 -0.758076 1.118229 0.987048 1.775589 0.323803 -0.950737 -0.767708
vbn -0.313148 -0.890602 -0.035362 -0.708227 0.569043 1.445296 1.149588 0.308355 -0.890842 0.590750
nnnp2-----a---- -1.385284 0.342851 0.665642 0.100379 0.640802 -0.011052 -0.054296 0.481489 -0.944422 -0.088516
ncmsi -0.764104 -1.575156 0.270755 -1.494651 0.022914 0.656835 0.088861 0.339649 -0.323973 -0.943945
sconj+_ 0.000318 -0.443404 1.232628 -0.750965 0.099170 1.337653 -0.133918 -0.435352 -0.188201 0.568162
cs -0.781713 -1.349922 0.732781 -0.142704 -0.308225 -0.423550 -0.017537 -1.321768 -0.180361 0.156406
ncfsi -0.971248 -0.486294 -0.643663 -0.872900 -0.678260 1.213990 -0.467098 0.384962 -0.188855 -1.478601
nnns7-----a---- -1.376138 0.376794 0.449026 -0.293172 -0.175474 -0.231353 -0.345988 0.984940 0.075049 -0.043399
aams1----1a---- -0.984457 0.259352 1.042505 0.835168 -0.007291 -0.711865 -2.210079 -0.414065 0.928706 -0.774716
pdns1---------- -0.950345 0.672076 1.014516 0.284636 -0.380971 0.593794 -0.245166 -0.417465 0.027151 1.124398
aafp1----1a---- -0.623409 1.283392 0.574020 -1.422204 -0.460655 0.575804 -2.095291 0.616487 0.219665 0.871240
vptp---xr-aa--- -0.510092 0.951943 -0.136132 -0.292678 0.263588 1.180304 -0.730092 0.232594 -0.373265 0.070734
vbg -0.444174 -0.825740 -0.038828 -1.004874 0.471325 1.178412 1.419224 0.547242 -0.876723 0.408222
adv+degree=pos -0.449576 -0.603118 0.414349 -0.722291 0.169499 1.779541 0.919685 0.217357 -0.938277 0.366129
md -0.773596 -0.051419 -0.931436 -0.652897 -0.185894 2.244029 1.736363 -0.183402 -0.569781 0.513894
to -0.497190 -0.225074 -0.206643 -0.071604 -0.467622 1.776240 1.868292 0.466624 -1.432040 0.577088
vb-p---1p-aa--- -0.876290 0.688523 0.229376 0.280549 0.149948 1.170341 -0.696889 0.166610 -0.237579 -0.206886
nnfp6-----a---- -0.954583 0.424468 1.166404 -0.450164 0.546249 0.794273 0.623060 0.367870 0.648198 -1.004727
aais6----1a---- 0.175274 1.623739 1.811800 -0.527819 1.337371 1.241793 0.966855 -0.215027 0.425689 -1.252808
aux+number=sing+person=3+tense=pres -0.060420 -0.961931 -0.432128 0.567797 1.004878 2.035468 -0.694269 -0.414341 -0.798448 -0.490518
nnfs3-----a---- -1.251020 0.196185 0.231267 -0.319084 -0.625538 0.018581 -0.527183 0.880483 0.614356 0.000193
prp$ -0.201242 -1.280226 0.123011 -0.512406 0.108717 1.309257 1.370503 0.663078 -1.190062 -0.683198
ab 0.006939 -0.424127 0.626788 -0.229474 -0.096399 -0.145614 -0.089032 -0.256204 -0.340495 0.164635
adp+case=loc 0.110770 0.825537 0.876122 -0.930279 -0.169231 1.812144 -0.369580 -0.194411 -1.447203 -0.914206
verb+mood=ind+tense=pres+verbform=fin+voice=act -0.576993 -0.496973 -0.305127 -1.317485 1.029899 2.024480 0.843143 0.249119 -0.825404 0.476646
aux+mood=ind+tense=pres+verbform=fin+voice=act -0.989330 -0.351532 -0.524770 -1.377072 0.367279 2.115933 1.233313 0.080043 -1.024821 -0.078728
aafs7----1a---- -1.219854 1.086919 1.475677 -0.302674 -1.784481 -0.099299 -1.228746 0.816832 0.353466 -0.907080
nnms7-----a---- -0.897364 0.043034 0.913594 0.088349 0.148692 -0.415078 -1.250531 0.646565 0.452498 -1.083800
aans4----1a---- -1.168191 0.442368 -0.122499 1.192777 -0.497846 0.082226 -0.229980 0.767693 -0.666803 -0.004923
p7-x3---------- -1.019707 0.539265 0.468081 0.063424 -0.272722 0.470032 -0.825387 -0.500480 0.024204 0.302398
cp 0.233915 -1.261171 -0.771505 -0.841916 -0.580925 0.559246 -0.608192 -0.042259 -0.973805 -0.700299
aaip1----1a---- -0.372061 1.270347 1.035164 -1.535423 0.440830 1.404274 -1.480167 -0.176133 -0.738386 -0.249600
aafp4----1a---- -1.263597 0.885778 0.435581 -0.363633 -1.127221 0.495839 -1.606089 0.992769 -1.592985 0.293668
kn -0.026669 -0.441538 0.690694 -0.188213 -0.150316 -0.130716 -0.075085 -0.283961 -0.249713 0.120934
nnms4-----a---- -0.887455 -0.350685 0.521577 0.730197 0.401661 -0.385487 -1.051478 0.413899 -0.067093 -0.057825
pr -0.848571 -1.093571 0.771525 -0.144415 -0.293937 -0.347092 0.369137 -1.365051 -0.196507 -0.074881
part+parttype=inf -0.457492 -0.519643 0.815485 -0.540489 -0.384398 2.024615 1.481071 0.376006 -1.108381 0.037648
tx -0.896821 -1.251687 -0.105545 0.877886 -0.796819 0.542965 -0.844313 -0.754549 -1.836890 -1.321326
x 0.303860 -0.459269 1.205738 0.042156 1.047383 0.391231 0.662128 -1.198348 -0.135363 -1.320970
nnixx-----a---8 -1.379618 0.188652 0.719139 0.453526 1.223280 -0.262912 -0.801248 0.190470 -0.549087 -0.089195
aaip4----1a---- -0.766996 0.953636 0.441774 0.050352 -0.401003 0.852731 -0.530608 0.564234 -1.981096 1.081484
mid 0.001031 -0.422507 0.669245 -0.159537 -0.186258 -0.132131 -0.068052 -0.232363 -0.302527 0.069955
nn+utr+sin+def+nom 0.019275 -0.362675 0.705235 -0.111041 -0.080721 -0.151821 -0.041973 -0.306753 -0.303319 0.183849
nn+utr+plu+ind+nom 0.037531 -0.442596 0.630539 -0.133264 -0.185302 -0.131497 -0.153634 -0.243917 -0.277658 0.159219
vb-s---1p-aa--- -0.973087 0.292851 0.380218 0.678588 0.093554 0.853450 -0.700192 -0.370191 0.001103 0.038773
noun+definite=ind+gender=com+number=plur -0.655070 -0.819932 0.868772 -1.421351 0.340972 0.987226 0.877091 1.392182 -1.394967 0.162498
dg-------2a---- -1.249154 0.820543 0.412356 0.019605 0.184671 0.568056 -0.296765 -0.309608 -0.361071 0.247919
sym -0.344992 -0.532832 0.357579 -0.638022 1.582400 0.208984 1.917470 -1.653949 -0.954957 -0.087826
det+definite=def+prontype=art -0.314189 -1.244230 2.186623 -0.561811 0.017163 -0.267352 -0.564761 -1.239627 -0.615787 0.297479
nnip6-----a---- -0.544326 0.646881 0.699498 -0.873288 0.577670 0.638279 0.242935 0.514670 0.146393 -0.589737
vb-s---3f-aa--- -0.898543 1.066764 -0.499233 0.704419 0.558003 1.147328 -0.514361 -0.107103 0.247871 -0.002271
vsys---xx-ap--- -0.830626 0.660950 0.757602 0.233822 -0.124699 0.254513 -0.710129 0.043838 0.433177 0.198859
pdns4---------- -1.083256 0.259991 0.835756 0.424206 -0.160323 0.516255 -0.914619 -0.141933 0.078800 0.834710
ncnsi -1.221951 -1.643397 -0.414052 -1.041675 -0.475218 0.468019 -0.055233 0.302703 -0.602186 -1.391885
noun+definite=ind+gender=neut+number=sing -0.623300 -0.641858 0.934910 -0.909771 0.351353 1.536193 1.263605 1.214301 -0.735873 0.176969
noun+definite=def+gender=com+number=sing -0.686511 -1.196921 0.568540 -0.419172 0.416267 1.541623 1.012856 1.188689 -0.892008 0.434144
nnis3-----a---- -1.406750 0.468490 0.350392 -0.117132 -0.503239 0.275210 -0.485834 0.681444 0.618415 -0.360441
adp+case=acc -0.725173 0.482421 0.940580 -0.222458 0.263415 0.842772 -1.122756 -1.009397 -1.323742 -0.843408
aais7----1a---- -0.653899 1.500561 0.891455 0.273509 -1.204843 0.310397 -0.388439 1.170881 -0.508848 -0.056317
nnis6-----a---1 -1.186748 0.747416 0.429237 -0.568818 1.309715 0.741198 0.373616 0.020339 0.985356 -0.424789
psxxxzs3------- -0.545783 0.874458 0.374007 0.208959 0.030119 0.080364 -0.710603 0.569647 0.241050 0.091315
nnmxx-----a---8 -0.409709 -0.263454 1.311854 1.136439 1.530730 -0.789070 -1.760188 0.291907 0.324047 -0.790783
nnns3-----a---- -1.501374 0.646493 0.103937 -0.462510 -0.322551 0.208170 -0.332866 0.945541 0.147136 -0.171493
intj 0.001587 -1.047848 0.712081 0.101415 0.652593 0.765569 0.406447 -0.839562 0.308489 0.513345
aans6----1a---- 0.559236 1.441541 0.833556 -0.584890 0.814005 1.237119 0.074885 0.590241 0.713377 -1.492938
aamp2----1a---- -0.554764 0.973299 0.923557 0.066885 0.664267 -0.780606 -0.140257 0.729950 -1.038818 -0.036306
verb+verbform=inf+voice=act -0.734489 -0.566084 -0.434550 -1.131814 0.549069 1.824092 1.020231 0.612519 -1.188084 0.722950
aamp1----1a---- -0.832635 0.624297 0.358936 -0.731908 -0.353538 0.817207 -1.796899 -0.477734 -0.416635 1.042359
propn+case=nom+gender=masc+number=sing 0.759600 -0.597411 0.466214 -0.016816 0.353562 2.117007 -1.823951 -0.003244 0.623441 -1.252654
nnmp4-----a---- -1.333182 0.089398 0.338937 0.475362 -0.506053 0.103585 -0.420377 0.754532 -0.688566 0.281642
clitic 0.213471 -0.763706 1.080327 0.270783 -0.608699 -0.158060 0.068008 -0.728891 -0.270650 0.052324
aaxxx----1a---- -0.254578 0.175522 0.286550 0.359471 1.037315 -0.326905 -1.230576 0.264920 0.060102 -0.577751
ncfsd -0.797305 -1.577555 -0.081888 -0.583893 -0.535221 0.172899 -0.947730 0.717937 -0.461074 -1.200536
v_sub 0.323021 -0.954153 1.017223 0.026882 -0.728793 -0.154895 -0.261844 -0.422191 -0.151863 0.153065
vb+inf+akt -0.038293 -0.375789 0.497086 -0.221419 -0.079346 -0.054582 -0.071057 -0.229103 -0.209738 0.111530
p4ys1---------- -0.533197 0.066691 1.486231 1.224720 0.004488 -0.133721 -0.858900 0.070125 0.233203 0.075929
noun+case=gen+gender=masc+number=sing -0.576320 -0.280540 0.451091 -0.835920 1.127832 1.164335 -0.569459 0.113595 -1.195349 -1.076304
npmsi 0.361768 -2.440485 0.862468 -1.009779 -0.403278 0.595790 -0.798438 -0.554048 0.417330 -1.052384
nn+neu+sin+ind+nom -0.006784 -0.329287 0.563296 -0.151224 -0.039855 -0.073433 -0.056625 -0.228879 -0.257404 0.145349
ppxta 0.149684 -1.780885 0.287759 0.881121 -0.859970 1.086549 -1.313214 0.672250 -0.984551 -0.811965
num+numtype=card 0.261737 -0.505674 0.533009 -0.995436 0.907551 1.191740 0.644536 0.935157 -1.744316 0.376946
noun+case=gen+gender=fem+number=sing -0.234676 -0.453717 0.537601 -0.150430 1.051852 1.313759 -0.357455 0.168311 -1.055646 -1.390957
nnfxx-----a---- -0.481287 0.063291 0.365232 0.713620 1.001845 -0.602527 -0.992817 0.455166 0.056706 -0.048467
v_pp 0.310571 -0.994664 1.054008 0.079627 -0.528639 -0.083023 -0.130573 -0.405291 -0.181242 0.208604
adp+case=gen -0.300348 0.112293 1.088968 -0.541594 1.069936 0.892745 -1.285884 -0.148167 -1.344252 -0.710753
noun+case=nom+gender=masc+number=sing -0.290800 -0.540258 0.138137 0.021403 1.221005 1.391201 -1.413540 0.168889 -0.162509 -0.597810
vsqw---xx-ap--- -0.731366 1.005614 0.479387 0.121789 -0.074570 0.419377 -0.243291 0.173902 0.081692 0.530523
bn -0.632546 -1.148698 0.680450 -0.414990 -0.201341 -0.209337 0.185478 -1.179375 -0.160613 -0.071275
nnfp7-----a---- -1.559648 0.256980 0.758403 -0.380893 -0.112198 0.337869 -0.269071 0.837958 -0.217713 -0.137990
adj+case=nom+degree=pos+number=sing+number[psed]=none+number[psor]=none+numtype=none+person[psor]=none+verbform=none -0.183727 -1.050136 2.034204 -0.375667 -0.038647 -0.038756 -0.268201 -1.128156 -0.879221 0.328412
verb+mood=ind+tense=past+verbform=fin+voice=act -0.609649 -0.423877 -0.199991 -1.289331 0.991637 1.953555 0.743227 0.124272 -0.604661 0.316283
nnip7-----a---- -1.637062 0.245941 0.713740 -0.210638 -0.462131 -0.097940 -0.273446 0.885019 -0.065813 -0.352043
ap -0.393490 -0.699590 0.459508 0.127582 -0.277631 -0.140688 0.149574 -1.637084 -0.351939 -0.064066
rv--2---------- -1.186090 0.928270 0.126146 0.044851 0.144651 -0.453441 -0.246481 0.334856 -0.495936 -0.395232
vm -0.708943 -0.977205 0.462965 -0.457765 -0.313650 -0.338963 0.168203 -1.206587 -0.243345 -0.017313
ncmpi -1.094532 -0.911203 -0.783221 -0.957270 -0.460130 0.951371 -0.820716 0.839688 -0.879576 -0.887233
ncfpi -0.952998 -0.623286 -0.634962 -1.010788 -0.025147 0.946088 -0.533821 0.681064 -0.855560 -0.938081
nnnxx-----a---- -0.577504 0.174284 0.715942 0.428373 1.088648 -0.180091 -0.682105 0.662728 0.104978 -0.388085
aafp6----1a---- -0.517917 1.442285 2.234947 -0.565116 0.523515 0.437541 0.351354 0.386600 0.757170 -0.804054
npfsi -0.066744 -1.327027 0.261591 -1.154430 -0.428963 0.598803 -1.194996 0.047605 0.413516 -1.262619
det+gender=com+number=sing+prontype=ind -0.466235 -0.594904 0.716572 -0.570856 0.604241 1.725960 1.044838 0.480743 -1.427196 -0.368746
rv--7---------- -0.815057 1.056686 0.396818 -0.385440 -0.747006 -0.275100 -0.782683 0.600612 0.007405 -0.560436
verb+number=sing+person=3+tense=pres -0.703233 -0.102616 -0.179955 -0.054765 0.331850 1.578695 -1.266746 -0.562620 -0.826674 -0.684399
ncmsh -0.574813 -1.580642 -0.484339 -1.144510 -0.544743 0.311199 -0.616510 0.610339 -0.296396 -1.350023
dd -0.015255 -1.432007 0.015182 0.079313 -1.015845 0.129790 -0.335085 -1.079280 -0.262212 -0.492068
psxxxxp3------- -0.519240 1.117758 0.192643 -0.150966 -0.097393 0.135640 -0.515269 0.689460 -0.159368 0.262307
ncnsd -0.597114 -1.447146 -0.386649 -0.868010 -0.443708 0.319591 -0.766689 0.773178 -0.597070 -1.293677
p4fs1---------- -0.409046 0.449841 1.456004 1.126718 -0.145060 0.267047 -0.411511 0.118265 0.213613 0.325512
vpitf-r3s -0.589206 -1.757497 -0.568903 -0.785190 -0.522256 0.504142 -1.228060 -0.606338 -0.987292 0.252738
vsns---xx-ap--- -1.008437 0.795966 0.713247 -0.062790 0.076170 0.361471 -0.065756 0.097362 -0.220784 0.474594
adj+degree=pos+number=plur+variant=long -0.002488 -0.407304 0.491391 -0.979568 0.496604 1.208997 0.832152 0.983929 -1.980694 0.712441
vxitf-r3s -0.130098 -1.324698 -0.667711 -0.684417 -0.629927 0.772547 -0.793702 0.005718 -1.104410 -0.189058
nnxxx-----a---8 -0.499833 0.019145 1.477278 1.508942 1.865863 -0.249936 -1.056971 0.043578 0.155055 0.431660
nnis2-----a---1 -1.335971 0.568332 0.441520 0.528699 0.666671 -0.127808 0.154199 0.562277 -0.523060 -0.407967
vpys---xr-na--- -0.597470 0.559708 0.089641 1.087856 0.088636 0.896072 -0.949645 0.029961 0.006244 -0.027107
verb+definite=ind+number=sing+tense=past+verbform=part,trans -0.562148 -0.667566 0.016914 -0.800261 0.301148 1.863061 1.010887 0.455118 -0.887067 0.526163
nnmp7-----a---- -1.244243 0.149768 0.768149 -0.246384 -0.277228 -0.045581 -0.532662 0.970343 -0.078238 -0.461164
jj+pos+utr/neu+plu+ind/def+nom -0.085127 -0.258360 0.364869 -0.145207 -0.107517 -0.050255 -0.070327 -0.187917 -0.213704 0.096375
noun+case=nom+number=sing+number[psed]=none+number[psor]=none+person[psor]=none -0.144199 -0.969543 1.978341 -0.356299 -0.226058 0.043356 -0.015757 -0.935559 -0.759248 0.122859
dq -0.001453 -1.474107 -0.368419 -0.005065 -0.849621 0.170132 -0.392437 -1.010670 -0.290993 -0.368677
nnmp3-----a---- -1.196592 0.222118 0.478691 -0.192839 -0.389442 0.419783 -0.538818 0.428110 -0.006588 0.158327
noun+case=gen+gender=masc+number=plur -0.348687 -0.046846 0.258515 -1.342798 1.006051 1.604752 -1.025847 0.691404 -1.030993 -0.749024
noun+case=acc+gender=fem+number=sing -1.329817 -0.549358 1.052801 -0.414501 0.619759 0.994400 -0.797621 -0.060086 -0.802602 -0.602829
hmsi -0.144631 -1.834858 -0.274444 -0.930195 -0.384682 0.958264 -1.004793 -0.697513 0.479020 -1.335719
noun+case=nom+gender=fem+number=sing -0.145521 -1.106515 0.519895 -0.245694 0.529911 0.877516 -1.413188 -0.864711 -0.483756 -0.610446
nnnxx-----a---8 -0.839252 0.573638 0.883053 0.449232 0.976755 -0.158264 -0.628974 0.543147 -0.183963 -0.027070
vstp---xx-ap--- -0.658714 0.899013 1.002901 -0.962452 -0.391511 0.795957 -0.637876 0.379482 -0.265936 0.197803
verb+gender=masc+number=sing+verbform=part -0.719769 -0.054645 0.186348 -0.512102 -0.351545 1.416028 -2.097957 -0.287155 0.425332 -0.927318
di -0.256528 -0.854663 0.544931 -0.018988 -0.521507 0.112950 0.276326 -1.420687 -0.026091 -0.405472
pdzs6---------- -0.154324 1.070308 1.170882 -0.287165 0.756417 1.336195 -0.007399 -0.025763 0.797595 0.042288
aaxxx----1a---8 -0.777968 0.273848 0.683267 0.762533 1.333218 -0.195596 -0.788331 0.434629 -0.040111 -0.137444
a-pi -0.188020 -0.498130 -0.102104 -1.105198 -0.028655 -0.033887 -1.560105 0.552706 -1.441013 -1.109840
aanp2----1a---- -0.039602 0.819191 0.418559 -0.200505 1.088868 -0.190995 -0.183214 0.613747 -1.738776 -0.136900
vb-p---3p-na--- -0.650493 0.851736 -0.009980 0.078057 -0.101509 0.965528 -1.050352 0.251364 -0.424879 0.250881
pdzs2---------- -0.728187 1.093675 0.315312 0.096907 0.368707 -0.287249 -0.254076 0.759605 -0.251986 0.097959
rg+nom -0.021125 -0.289371 0.457087 -0.138380 -0.116511 -0.064196 -0.097196 -0.164988 -0.192928 0.073312
noun+definite=ind+gender=neut+number=plur -0.526748 -0.780631 0.724883 -1.107652 0.413988 1.193128 0.749143 1.106694 -1.027154 0.267623
nnnp4-----a---- -1.314778 0.294742 0.104231 -0.031743 0.063098 0.687318 -0.304252 0.600742 -0.612160 -0.116283
verb+verbform=inf -0.979037 -0.080999 0.825728 0.151372 -0.205504 1.135833 -1.321021 -0.444143 -0.736186 -0.455340
vpptf-o3s -0.299596 -1.739127 -0.358829 -1.179329 -0.768178 0.535020 -1.125036 -0.949713 -0.235306 -0.295870
noun+animacy=inan+case=acc+gender=masc+number=sing -1.346216 -0.289303 0.876587 -0.093568 0.777269 1.337505 -0.752232 -0.133961 -0.472994 -0.553793
aans7----1a---- -0.836068 0.725933 0.104917 -0.045251 -0.922809 -0.052614 -0.804922 1.417473 0.261355 -0.280878
nn+neu+sin+def+nom -0.052273 -0.247771 0.389010 -0.119040 -0.001851 -0.031820 -0.044336 -0.183388 -0.174186 0.088479
db------------1 -0.879999 0.575682 0.545297 0.009186 -0.194232 0.560282 -0.516448 -0.156130 0.115963 0.349136
fc -0.052270 -0.753524 0.345892 -0.319202 -0.288407 0.121631 0.154413 -1.250552 -0.236164 -0.215397
aams2----1a---- -0.354812 0.490177 -0.308716 0.266348 1.008040 -0.616645 -0.800518 0.780226 0.726733 -0.855610
pdzs7---------- -1.083476 0.477772 0.870811 0.314071 -0.049662 0.497757 -0.784167 0.118492 0.032679 0.356905
nnnp1-----a---- -1.066326 0.306997 0.446738 -0.893680 -0.032771 0.472106 -0.453059 0.670547 -0.262031 0.593213
aaip6----1a---- 0.580107 1.476794 0.786361 -1.057236 0.508287 1.310428 0.032076 0.422971 0.283464 -0.195984
jj+pos+utr+sin+ind+nom -0.015968 -0.270962 0.446151 -0.063334 -0.066832 -0.005290 -0.015629 -0.114430 -0.151107 -0.009248
pron+case=acc+gender=neut+number=sing+person=3+prontype=prs -0.806140 -1.032142 0.683205 -0.434798 -0.264189 1.692672 0.680238 0.439060 -0.712853 0.714596
noun+definite=def+gender=neut+number=sing -0.406302 -1.133615 0.630663 -0.510365 0.430810 1.519786 0.832024 0.921566 -0.618976 0.275923
dt+utr+sin+ind -0.010345 -0.223110 0.406502 -0.129917 -0.089993 0.004725 -0.062884 -0.150033 -0.146611 -0.015261
afsi -0.650634 -0.653625 -0.700244 -1.145021 -1.558710 0.427411 -1.269591 0.103084 -0.905178 -1.731003
nnms3-----a---- -0.835883 -0.021405 0.253347 0.407714 0.242502 -0.158759 -0.829566 0.246724 0.377980 0.082978
propn+case=nom+number=sing+number[psed]=none+number[psor]=none+person[psor]=none -0.010232 -1.281248 1.571316 -0.304156 0.373750 0.400891 -0.360968 -0.653523 -0.433381 0.611581
aafs3----1a---- -0.699140 1.118884 -0.106308 -0.385184 -0.993562 0.330551 -0.701613 0.576427 1.175609 -0.473105
nnnp6-----a---- -0.906617 0.269264 0.753702 -0.012061 0.790193 0.604295 0.213122 0.097672 0.357918 -0.716285
cn-s4---------- -0.890584 0.688069 0.657364 -0.015656 0.805540 0.023924 -0.342274 0.542374 -1.695851 0.426344
nn+neu+plu+ind+nom -0.039206 -0.202942 0.301803 -0.083563 -0.057752 0.000760 -0.106990 -0.108508 -0.232564 0.089862
adj+definite=def+degree=pos+number=sing+variant=long 0.047745 -0.020324 1.233344 -1.088680 0.869595 1.684855 1.046570 0.805997 -0.721288 0.142147
-rrb- -0.210818 -0.483466 0.344929 -0.799356 0.672362 1.126080 1.280446 0.093980 -0.378157 -0.358148
amsi 0.152473 -1.367993 0.167371 -1.204601 -1.009934 -0.187660 -1.208941 0.239898 -0.611540 -0.918867
pron+case=acc+number=sing+reflex=yes -0.575078 -0.894883 0.885162 0.906779 -0.212228 1.778493 -0.939602 -0.030719 -0.891196 0.027180
-lrb- -0.224652 -0.524061 0.239599 -1.098705 0.675542 1.123591 1.187133 -0.265632 -0.503873 -0.631455
pm+nom -0.024174 -0.223737 0.372195 -0.112789 -0.000028 -0.031489 -0.088751 -0.141462 -0.190394 0.098505
ncmpd -0.576601 -1.305880 -0.185830 -0.835305 -0.323162 0.425546 -0.915106 0.772945 -0.744345 -1.100421
mc-pi 0.256927 -0.810173 0.616160 -1.321735 0.766070 0.569630 -1.167748 1.090425 -1.584918 -0.685780
nnfp3-----a---- -1.251146 -0.026147 -0.037195 -0.168224 -0.286433 0.102649 -0.200880 0.537787 0.057008 0.138440
wdt 0.071094 -0.987219 0.421226 -0.927400 0.431239 1.217148 0.832180 -0.153432 -0.966303 0.168743
tn -0.471068 -1.308155 -0.025198 0.248620 -0.810600 0.665365 -1.492210 -0.398120 -0.848151 -0.509839
aux+number=plur+person=3+tense=pres -0.932758 -0.356787 0.325247 0.468297 0.378793 1.649076 -0.660019 -0.268567 -1.454119 0.493969
pi -0.382734 -0.801336 0.537145 0.023065 -0.423969 -0.135266 0.296249 -0.901315 -0.366354 -0.099588
sn -0.075445 -0.198677 0.256629 -0.133291 -0.054350 0.028157 -0.097150 -0.082590 -0.124188 -0.015876
aux+mood=ind+tense=past+verbform=fin+voice=act -0.661949 -0.345809 -0.196794 -1.184039 0.321949 1.690883 0.932063 -0.065704 -0.827980 -0.080457
propn+case=nom+gender=fem+number=sing -0.255719 -0.840299 0.280534 -0.004873 0.088258 1.592485 -1.941328 -0.378651 -0.146662 -1.054124
aaip7----1a---- -0.454977 0.869269 0.445399 -0.497116 -0.977220 -0.319063 -0.796037 1.098859 -0.657046 0.127617
vb-p---3f-aa--- -0.552333 0.980355 -0.186449 -0.338159 0.149437 1.206586 -0.851757 0.029904 -0.197923 0.183026
adv+degree=none+prontype=default -0.209927 -0.788986 1.644852 -0.437293 -0.101053 0.035869 -0.266934 -0.858199 -0.646253 0.214875
p4mp1---------- -0.614538 0.130050 1.302836 0.086954 0.062282 0.710576 -0.887008 0.020185 -0.515312 0.403704
aafp7----1a---- -0.581497 1.109573 0.777166 -1.064424 -0.570287 -0.040035 -1.075378 0.988245 -0.469429 -0.671440
afsd -0.265221 -0.887828 -0.745499 -1.153095 -1.260015 -0.026625 -1.195329 0.312822 -0.694126 -1.359037
dm -0.408051 -1.375864 0.075734 -0.142568 -0.476938 1.050426 -1.190983 0.048745 -0.936595 -0.684288
a-pd -0.036558 -0.570550 -0.102835 -1.072912 -0.192663 -0.218667 -1.499090 0.610222 -1.450891 -1.106049
vb-p---3p-aa--1 -0.623488 0.980434 -0.095912 -0.048450 0.037676 1.159715 -1.038945 0.168121 -0.105213 -0.067479
adj+case=nom+degree=pos+gender=masc+number=sing 0.049644 -0.218602 -0.659596 0.435895 0.079897 1.962282 -1.716970 1.030584 -0.521591 -1.199863
noun+case=gen+gender=fem+number=plur -0.770607 -0.101218 0.605588 -0.877147 0.913300 1.079232 -0.630370 1.069395 -1.722862 -0.955498
ncmsf -0.295230 -1.588190 0.104017 -0.635157 -0.392517 0.780283 -0.815337 0.133493 -0.403084 -1.119719
vpys---xr-aa--1 -0.514917 0.705827 0.201031 0.793683 0.393800 0.471103 -0.960435 0.308044 -0.005236 -0.171334
wrb -0.225599 -0.744374 0.054376 -0.880942 0.117169 1.349733 0.929349 -0.344435 -0.600604 0.413500
pn+neu+sin+def+sub/obj -0.051174 -0.224190 0.273662 -0.126891 -0.026557 0.018031 -0.088467 -0.082111 -0.153042 0.042020
vpitf-r3p -0.578664 -1.329960 -0.647305 -1.042776 -0.969694 0.411429 -1.076960 -0.254471 -1.222159 0.225203
: -0.110260 -0.737323 0.329895 -1.165624 0.676330 0.809901 1.201608 -0.206416 -0.553092 -0.816073
pdzs3---------- -0.861435 0.394346 0.326903 -0.130552 -0.358248 0.583570 -0.912484 0.234907 0.674510 0.510233
adj+definite=ind+degree=pos+gender=com+number=sing+variant=long -0.113350 -0.441824 0.720893 -1.023012 0.517923 1.612247 0.625144 0.750218 -1.071004 -0.220741
pdys1---------- -0.520406 0.815926 0.506441 0.791147 0.204232 0.100805 -0.746755 -0.384710 0.482735 0.589713
propn+case=gen+gender=fem+number=sing -0.160917 -0.334217 0.750481 -0.434385 0.648988 1.385715 -1.043442 0.403401 -0.794501 -1.119400
pq -0.522512 -0.665457 0.065646 -0.275330 -0.223272 -0.275190 0.262752 -0.652865 -0.413265 -0.025178
no -0.256499 -0.490008 0.455682 -0.005528 -0.239977 -0.068149 0.206315 -1.265386 -0.290328 0.044956
`` -0.301225 -0.556831 0.449626 -1.093686 0.414215 1.105764 1.121761 -0.100750 -0.399934 -0.073206
pron+case=nom+gender=com+number=sing+person=3+prontype=prs -0.614056 -1.108318 0.947923 -0.496396 -0.234400 1.543980 0.689229 0.161995 -0.764244 0.481610
rv--3---------- -0.666661 0.876092 0.017516 -0.129519 -0.505994 -0.090767 -0.511278 0.147542 0.074643 -0.557230
verb+number=plur+person=3+tense=pres -0.978533 0.096407 0.200509 0.011770 -0.132388 1.363650 -1.318802 -0.212381 -1.194689 -0.145517
'' -0.085038 -0.580602 0.261642 -0.740364 0.597401 0.943510 1.235469 0.341842 -0.441609 -0.102861
vb-p---2p-aa--- -0.824663 0.472815 0.244737 0.320468 0.335390 1.055315 -0.810089 -0.106208 -0.206629 0.040902
det+gender=com+number=sing+prontype=dem -0.222401 -0.758561 0.800770 -0.401470 0.979833 1.140619 0.825918 0.625156 -0.891870 -0.508283
aais3----1a---- -0.693867 0.891848 0.163393 -0.597111 -0.524690 0.400058 -0.750265 0.866518 0.456216 -0.596650
clxp2---------- -0.601135 0.772597 0.546066 -0.475518 0.959223 -0.316145 -0.338071 0.842079 -1.287996 -0.101722
pd -0.328477 -0.783431 0.520191 -0.038850 -0.452125 -0.154064 0.177567 -0.864224 -0.313646 -0.105122
aamp4----1a---- -0.581946 0.356027 -0.189959 0.283128 -0.247644 0.254218 -0.905372 0.672416 -0.349256 0.274962
hp+-+-+- -0.089772 -0.219181 0.263818 -0.086542 -0.026905 0.002887 -0.033520 -0.091921 -0.179679 0.007913
wp -0.155633 -0.979838 0.160834 -0.558770 0.393266 1.355533 0.760698 -0.225587 -0.666569 0.601551
nn+utr+plu+def+nom -0.047040 -0.196764 0.293191 -0.042337 -0.060174 0.040208 -0.079850 -0.051814 -0.176474 0.084201
rp -0.407906 -0.418969 -0.200834 -0.750791 0.036622 1.175941 1.137938 0.275948 -0.741772 0.343454
pad -0.090139 -0.150187 0.232521 -0.059377 -0.069723 0.023895 -0.054540 -0.063434 -0.195093 0.032465
noun+case=acc+gender=neut+number=sing -0.830253 -0.368014 0.922728 -0.284968 0.733162 0.895443 -0.942133 0.405368 -0.802500 -0.444331
ie -0.113094 -0.147936 0.254929 -0.090290 -0.079317 0.061139 -0.057708 -0.166405 -0.173009 0.043455
adv_time 0.174859 -0.586781 0.619918 0.024362 -0.394135 -0.098142 -0.014982 -0.434277 -0.194083 0.046949
vb+prs+sfo -0.071485 -0.197594 0.297027 -0.099534 -0.090388 0.067060 -0.058997 -0.108758 -0.124243 0.022566
db------------8 -0.713285 0.313622 0.996882 0.852281 0.700868 0.203361 -0.747835 0.277214 -0.138383 0.138027
nnip3-----a---- -1.305484 0.203512 0.411674 -0.302307 -0.208074 0.272873 -0.569275 0.552032 0.170785 -0.263052
noun+case=loc+gender=masc+number=sing -0.507650 -0.349245 1.079705 -0.610841 0.299242 1.089129 -0.343137 0.821642 -0.911192 -1.385738
p4fp1---------- -0.488634 0.218259 1.351050 -0.038430 -0.165221 0.764737 -0.885359 0.481248 -0.369990 0.208421
propn+case=gen+gender=masc+number=sing 0.111259 -0.424325 0.545919 -0.636288 0.955104 1.414684 -1.310591 0.203251 -0.538077 -1.402427
vpns---xr-na--- -0.642182 0.698622 0.079805 0.815463 0.088073 0.787748 -0.546103 0.023910 -0.049955 -0.013671
noun+case=gen+gender=neut+number=sing -0.268965 -0.347328 0.867066 -0.133757 0.986146 1.033635 -0.831404 0.597596 -1.086345 -1.043569
nnixx-----a---- -0.442668 0.036247 0.554523 0.473376 0.964728 -0.459670 -0.849052 0.259611 0.034347 -0.128719
dg-------2a---1 -0.897215 0.630917 0.384801 0.213158 -0.040201 0.472802 -0.445125 0.042413 -0.166085 0.384241
adp+case=ins -0.201153 0.295220 1.005471 0.161152 0.278385 1.150206 -0.651506 -0.027146 -1.261584 -0.963144
verb+gender=fem+number=sing+verbform=part -0.768706 -0.376131 0.331948 -0.038953 -0.048456 0.752617 -1.864035 -0.325776 -0.387538 -0.597145
pdfs1---------- -0.750800 1.142310 0.253717 0.743247 0.348969 0.118789 -0.413544 -0.132860 0.579855 0.559271
ab+pos -0.071896 -0.125740 0.258423 -0.131304 -0.080393 0.072720 -0.031383 -0.088546 -0.134927 -0.020133
uh -0.120708 -0.682368 -0.099282 -0.443147 0.595451 1.178259 0.941412 -0.119920 -0.357710 0.254427
pos 0.130973 -0.667232 0.569986 -1.194402 0.319715 1.121535 1.356173 -0.280478 -0.364710 -0.678774
ncnpi -0.649992 -1.077443 -0.682287 -1.008885 -0.406853 0.848014 -0.829395 0.523985 -0.778061 -0.881308
noun+case=loc+gender=fem+number=sing -0.745798 -0.358411 1.217873 -0.743896 0.185930 1.274148 -0.153371 0.745086 -0.850123 -1.009660
aams4----1a---- -0.709504 0.016255 0.047477 0.496805 0.439865 -0.238378 -1.546114 0.165660 -0.249192 -0.240617
aanp4----1a---- -0.717120 0.695800 0.052957 0.245475 0.000788 0.306674 -0.649660 0.812007 -1.120283 0.163799
jj+pos+utr/neu+sin+def+nom -0.053595 -0.197049 0.280270 -0.074151 -0.006821 0.065387 -0.038111 -0.073500 -0.101118 -0.029132
hyph -0.109250 -0.676674 0.532095 -1.178884 0.341451 0.913649 1.262252 -0.153540 -0.576961 -0.566787
noun+case=nom+gender=masc+number=plur -0.852236 -0.705577 0.829165 0.120857 0.042071 1.350471 -0.800237 -0.076672 -0.901139 -0.149363
det+number=plur+prontype=dem -0.182884 -0.701130 0.390569 -0.955482 0.451944 0.906584 0.704119 0.832464 -1.443614 0.162735
dt+utr+sin+def -0.106186 -0.173615 0.268754 -0.079340 -0.066444 0.014710 -0.009969 -0.125383 -0.116516 -0.024465
ansi -0.267019 -0.615833 -0.069454 -1.024184 -0.926757 -0.142933 -0.919607 0.232382 -0.751924 -1.002204
dg-------3a---- -0.845566 0.577111 0.600016 0.022847 0.149239 0.284816 -0.331262 0.089288 -0.147065 0.290385
vpptf-r3s -0.827034 -1.879226 -0.243080 -0.679296 -0.997838 0.698908 -0.744313 -0.055877 -0.794749 0.537199
det+gender=neut+number=sing+prontype=ind -0.442184 -0.341660 0.564283 -0.162587 0.549458 1.571175 1.166678 0.443342 -0.798888 -0.052132
adj+case=nom+degree=pos+gender=fem+number=sing -0.220310 -1.342715 0.109613 0.434519 -0.053517 1.119575 -1.724304 -0.173296 -1.017323 -0.840502
adj+case=gen+degree=pos+gender=fem+number=sing -0.207201 -0.203260 0.573967 -0.110187 0.815207 0.788926 -1.538136 0.412283 -1.439105 -1.317073
pq--4---------- -0.926756 0.319522 1.045623 0.669711 -0.112964 0.698825 -0.727564 -0.221786 -0.122226 0.517168
jj+pos+neu+sin+ind+nom -0.063902 -0.198900 0.268013 -0.102768 0.026453 0.032403 -0.062492 -0.057010 -0.163531 0.098395
pe -0.341109 -0.819515 0.457728 -0.036263 -0.324742 -0.108817 0.230737 -0.839686 -0.242070 -0.156352
adj+degree=pos+variant=long -0.109221 -0.186155 0.699032 -0.699073 0.759049 1.345773 0.710420 0.711255 -0.950059 0.085929
noun+definite=def+gender=com+number=plur -0.549289 -1.061923 0.609671 -0.410849 0.131968 1.357822 0.579131 0.742619 -0.616966 0.452496
ppxp4--3------- -0.847787 0.640961 0.568165 0.111564 0.052487 0.726157 -0.525815 -0.356660 0.227929 0.564145
adj+definite=ind+degree=pos+number=sing+variant=long -0.302703 -0.502941 0.606238 -0.732106 0.453858 1.574702 0.541240 0.609279 -0.812744 -0.135309
vpqw---xr-na--- -0.614047 0.880975 -0.023817 0.764813 0.180688 0.614496 -0.472853 0.089697 0.005447 0.144327
aanp1----1a---- -0.708404 0.663639 0.178116 -0.592928 -0.228296 0.530566 -0.809913 0.501607 -0.444140 0.757111
amsh 0.185003 -1.307602 -0.366153 -1.492313 -0.752735 -0.466874 -1.300992 0.564075 -0.571755 -1.221718
ncmt -0.598285 -0.811547 -0.637364 -1.564246 0.518945 1.288420 -0.543882 0.424889 -1.187005 -0.652736
adj+case=gen+degree=pos+gender=masc+number=sing 0.489354 -0.246924 0.530637 -0.870881 0.882337 0.559926 -1.362298 0.530858 -1.342197 -0.828831
ncfpd -0.688970 -1.404214 -0.231105 -1.123495 -0.369120 0.431314 -0.856380 0.673538 -0.671078 -1.067841
acns------a---- -0.956209 0.764411 0.751488 0.219766 -0.437603 0.803802 -0.158745 -0.306508 -0.020983 0.725716
vb+prt+akt -0.078096 -0.170622 0.275998 -0.077398 -0.047229 0.031361 -0.080034 -0.064884 -0.177591 0.068790
vpmp---xr-na--- -0.588567 0.565795 0.318567 0.616462 -0.225952 0.986570 -0.691921 0.249559 -0.254505 0.218351
cv------------- -0.604918 0.718819 0.690733 0.315868 0.208823 0.540372 -0.405485 0.073795 0.032423 0.390673
nnmp1-----a---1 -0.770905 0.202740 0.431771 -0.233151 -0.227653 0.637251 -0.804831 -0.097716 -0.223758 0.495547
pdfs2---------- -0.889464 1.173087 -0.052989 -0.128773 0.421788 -0.213117 -0.498801 0.965926 0.054974 -0.342641
v_aux 0.178961 -0.553272 0.618331 0.050898 -0.243149 -0.042042 -0.063622 -0.331334 -0.164823 0.075120
nnnp7-----a---- -0.900305 0.143360 0.682003 0.130555 0.285997 0.305238 -0.405726 0.293946 -0.112490 -0.291546
aans3----1a---- -0.666317 0.492181 0.079811 -0.315462 -0.669866 0.099256 -0.383972 0.869688 0.373515 -0.425122
pdfs4---------- -0.323170 0.692489 -0.001649 0.642495 -0.494585 0.312854 -0.609782 0.172624 -0.617790 0.522014
p4ip1---------- -0.383674 0.408469 1.242376 -0.180207 -0.033752 0.730562 -0.745543 0.289324 -0.600829 0.335010
cn-s1---------- -0.648057 0.628312 0.904184 -0.074913 0.857786 -0.006094 -0.380113 0.236343 -1.029530 0.155103
pdxp2---------- -0.529970 0.824556 0.227027 0.019806 0.661808 -0.129832 -0.560305 0.787775 -0.908225 -0.009233
num+numtype=ord 0.278965 -0.507454 0.581027 -0.876016 0.332381 0.775687 -1.203079 0.159131 -1.205805 -1.351192
aams7----1a---- -0.678802 0.307125 0.866244 -0.252279 0.201350 -0.247050 -1.605174 0.683391 0.201694 -0.861882
pp-p3--1------- -0.683420 0.434772 0.662741 0.196933 -0.066173 0.373438 -0.867174 -0.273417 0.392949 0.324231
nnfpx-----a---8 -0.614660 0.303513 0.677375 0.448845 0.665059 0.103255 -0.761431 -0.142253 0.067296 -0.079034
nnipx-----a---- -0.358512 0.122698 0.618288 0.269163 0.763067 -0.123199 -0.836837 0.532503 0.321547 0.020148
pl -0.048693 -0.170539 0.250826 -0.118967 -0.046545 0.067352 -0.073024 -0.134118 -0.163260 0.047110
x+_ 0.065743 -0.717167 0.289314 -0.523098 0.685072 1.461631 0.304582 0.436704 -0.297763 -1.014666
vpqw---xr-aa--1 -0.480750 0.933198 -0.067368 0.487102 0.549541 0.276493 -0.556101 0.283732 0.016696 0.079850
pron+case=nom+gender=com+number=sing+person=1+prontype=prs -0.588794 -0.945374 0.838971 -0.446203 -0.282750 1.459801 0.475462 0.303680 -0.621531 0.418465
adj+case=gen+degree=pos+gender=masc+number=plur 0.221713 -0.445089 0.641613 -0.369167 0.938780 0.663233 -1.408302 0.606097 -1.278819 -0.655476
noun+case=loc+gender=neut+number=sing -0.695826 -0.461738 1.240890 -0.706613 0.190511 0.955337 -0.315466 0.600342 -0.711159 -1.431140
dt+utr/neu+plu+def -0.047206 -0.100089 0.203880 -0.115133 -0.074276 0.067319 -0.116997 -0.030171 -0.136722 0.002630
pq--1---------- -0.627704 0.140031 0.866793 0.597946 -0.088820 0.688769 -0.525672 0.029469 0.091763 0.485730
vsmp---xx-ap--- -0.745639 0.610390 0.600095 -0.305633 -0.148245 0.633656 -0.769667 0.290808 -0.106422 0.116814
pkm-1---------- -0.745580 0.015374 1.038315 0.451817 -0.163722 0.400224 -0.598166 -0.212397 0.051161 0.440492
clxp4---------- -0.682930 0.829648 0.358494 -0.003124 -0.341262 0.426166 -0.779708 0.519533 -1.254535 0.367636
vxitf-r3p -0.327865 -0.971327 -0.648682 -0.708441 -0.250218 0.857314 -0.884265 0.128524 -1.414299 -0.434730
jjr -0.090934 -0.732102 -0.102322 -0.764168 0.326712 0.952446 0.859162 0.363535 -0.600338 0.066779
dt+neu+sin+ind -0.065029 -0.134678 0.162092 -0.106937 0.020206 0.018277 -0.093312 -0.103448 -0.134176 0.027060
nnps -0.169909 -0.462893 0.365307 -0.837685 0.636079 0.988862 1.078390 0.181282 -0.133354 0.025287
aafp3----1a---- -0.450323 0.780325 -0.247308 -0.399717 -0.394834 0.159894 -0.501622 0.890234 -0.156100 0.266530
propn+case=loc+gender=fem+number=sing -0.354782 -0.687617 0.875135 -0.681383 0.049276 1.287754 -0.619250 0.500553 -0.553240 -1.131035
p4fs4---------- -0.519972 0.345512 0.954960 0.606482 0.368413 0.192396 -0.522230 0.176692 -0.005281 0.481475
phzs3--3------- -0.674530 0.591742 0.545392 0.243692 0.133246 0.631544 -0.631047 -0.476304 0.032189 0.396866
cn-p2---------- -0.543890 0.687520 0.537267 -0.208682 1.010215 -0.072262 -0.304298 0.899920 -1.158321 -0.097989
ha -0.079167 -0.153036 0.125680 -0.052773 0.018885 0.060756 -0.066741 -0.022333 -0.147190 -0.004060
ansd -0.024491 -0.588142 -0.096404 -1.318099 -0.838506 -0.148521 -0.815053 0.490040 -0.630515 -0.934198
noun+case=acc+gender=masc+number=plur -0.898223 -0.517273 0.999886 -0.504755 0.488421 0.918319 -1.069322 -0.033452 -0.842945 -0.179750
verb+gender=masc+number=plur+verbform=part -0.977739 -0.149059 0.652939 -0.064986 -0.211346 1.326517 -1.114686 -0.044330 -0.771463 -0.310143
pdfs6---------- -0.109682 1.495067 1.092821 -0.455854 0.677531 1.023357 -0.181691 0.370452 0.502122 -0.658186
clyp1---------- -0.414424 0.597324 0.587225 -0.559279 0.036634 0.699566 -0.872289 0.054286 -0.302553 0.187495
noun+case=nom+number=plur+number[psed]=none+number[psor]=none+person[psor]=none -0.111712 -0.593985 1.266044 -0.396983 -0.138457 0.252922 0.028340 -0.595021 -0.651881 0.051497
aamp3----1a---- -1.164785 0.594425 0.170734 -0.161327 -0.389454 0.343829 -0.870437 0.275126 -0.764206 0.134699
pn+utr+sin+ind+sub -0.100319 -0.105163 0.177962 -0.052689 -0.018035 0.029011 -0.036136 -0.065499 -0.179800 0.041885
det+gender=neut+number=sing+prontype=dem -0.259473 -0.730830 0.580886 -0.280486 0.895672 1.114010 0.828651 0.687798 -0.634823 -0.338100
vb+sup+akt -0.114751 -0.158482 0.199957 -0.053208 -0.018650 0.033066 -0.048202 -0.077390 -0.147410 0.027227
adj+definite=ind+degree=pos+gender=neut+number=sing+variant=long -0.170739 -0.538821 0.308285 -0.524557 0.316518 1.447969 0.662621 0.520092 -0.728171 0.188124
noun+case=nom+gender=neut+number=sing -0.594756 -0.782588 0.630975 -0.313405 0.282673 0.956773 -1.028922 0.029193 -0.678521 -0.513384
aanp6----1a---- 0.093232 0.715662 0.520990 -0.683913 0.668108 0.592238 -0.111648 0.626862 -0.199250 -0.192432
pdis4---------- -0.700625 0.784534 0.204970 0.856167 -0.267116 0.488597 -0.425092 0.435036 -0.751928 0.220988
pde-os-n -0.391685 -1.227175 0.103946 -0.348161 -0.617803 0.418855 -1.140441 0.209337 -0.540274 -0.813460
pe--1---------- -0.502794 0.369101 1.322606 0.422030 0.229142 0.004030 -0.186351 0.063213 -0.140831 0.474239
phzs4--3------- -0.761979 0.480515 0.566241 0.126271 0.027526 0.604048 -0.746472 -0.320383 0.177022 0.464818
adp+_ -0.068653 -0.549852 1.036147 -0.373630 0.135000 0.389234 -0.098784 -0.469351 -0.560999 0.167578
p4ns1---------- -0.626637 0.262562 1.045606 0.556705 0.223994 0.218310 -0.456007 0.163700 -0.122563 0.351647
ca--4---------- -1.004239 0.611172 0.696581 -0.202281 0.483587 0.041896 -0.316991 0.437686 -0.632551 0.091560
aamp7----1a---- -0.401572 0.332067 0.412904 -0.370512 -0.365011 -0.108502 -0.838386 0.794578 -0.299856 -0.385382
ppfs4--3------- -0.723122 0.325252 0.662821 0.282426 0.011771 0.479543 -0.742126 -0.297872 0.136236 0.412765
noun+case=acc+gender=fem+number=plur -1.054155 -0.241020 0.793123 -0.364832 0.227196 1.094000 -0.694826 0.337574 -0.672609 -0.538615
vpiif-r3s -0.639154 -1.554812 -0.384762 -0.755599 -0.900292 0.362851 -1.037476 0.036490 -0.818041 -0.012021
dg-------1n---- -0.742818 0.642110 0.633995 0.094125 0.192584 0.272474 -0.353610 0.105672 -0.007742 0.081639
clxs2---------- -1.021829 0.332824 0.491153 0.003948 1.086420 -0.367400 -0.263605 0.191901 -1.184552 -0.161897
ppxp3--3------- -0.645138 0.600532 0.518832 0.152199 -0.060877 0.393326 -0.564791 -0.391722 -0.064477 0.450366
adj+case=gen+degree=pos+gender=fem+number=plur -0.295813 0.085663 0.114608 -0.438863 0.938074 0.652320 -1.208415 1.303552 -1.382978 -0.996639
noun+case=nom+gender=fem+number=plur -0.961564 -0.014519 0.733297 0.286286 0.210224 1.161249 -1.133596 0.408907 -0.647175 -0.191862
p4is4---------- -0.460965 0.285679 1.005122 0.703720 0.376443 0.203702 -0.504748 0.239387 -0.216409 0.355601
pp-p2--1------- -0.625245 0.348094 0.592962 0.119679 0.372014 0.537406 -0.630736 0.536483 -0.019328 0.486363
aaip3----1a---- -1.038711 0.567249 0.095133 -0.715503 -0.393113 0.021657 -0.958368 0.506950 -0.088600 -0.009126
adj+case=acc+degree=pos+gender=fem+number=sing -0.819653 -0.753040 0.874284 0.052096 0.032885 0.754449 -1.001551 -0.550951 -1.178441 -1.154134
clyp4---------- -0.451528 0.785383 0.288291 0.216725 0.194330 0.491240 -0.574711 0.256977 -0.912135 0.457443
acys------a---- -0.868650 0.575687 0.611616 0.327647 -0.143848 0.421871 -0.667832 -0.197017 0.114390 0.303580
noun+case=nom+number=sing+number[psed]=none+number[psor]=sing+person[psor]=3 -0.144973 -0.666728 1.188758 -0.383782 -0.037969 0.260091 -0.129967 -0.492751 -0.615003 0.205020
vb-s---1p-na--- -0.635273 0.262391 0.388782 0.507030 0.278934 0.800417 -0.750981 0.057917 -0.177404 0.146938
noun+case=acc+number=sing+number[psed]=none+number[psor]=none+person[psor]=none -0.105716 -0.527282 1.167884 -0.367055 -0.209807 0.214882 -0.044957 -0.456179 -0.547568 0.128951
vpptcv--p-i -0.823791 -1.194959 -0.469132 -0.624334 -0.446590 0.242370 -1.120902 0.413293 -0.896410 -0.581059
p5xp2--3------- -0.733649 0.255806 0.735028 -0.068284 0.312488 0.488559 -0.533672 0.543068 -0.079532 0.524465
jjs -0.018443 -0.528658 0.235690 -1.040063 0.165398 0.612696 0.839874 0.311479 -0.536424 -0.021722
crfs6---------- -0.155688 1.134707 0.849134 -0.292398 0.534907 0.770610 -0.180291 0.445276 0.293276 -0.679782
adv+degree=sup -0.039545 -0.831339 0.163481 -0.478006 0.289982 1.220785 -0.117350 0.050797 -0.670749 -0.176945
adj+case=nom+degree=pos+gender=masc+number=plur -0.606242 -0.535719 0.494556 0.198162 -0.207513 1.333571 -1.203814 0.395212 -0.791755 -0.041738
pron+case=nom+gender=com+number=plur+person=1+prontype=prs -0.373626 -0.956404 0.710556 -0.437593 -0.261588 1.381074 0.337885 0.308165 -0.638436 0.371465
vb-p---1p-na--- -0.622835 0.544344 0.319909 0.367641 0.040878 0.880680 -0.756935 0.211653 -0.208671 -0.137729
psxto -0.293043 -1.034895 -0.152762 -1.261158 -0.897188 0.605104 -0.396609 0.201898 -0.879796 -0.892746
plmp1---------- -0.754484 0.515385 0.591489 -0.030391 -0.249962 0.895942 -0.933217 -0.221136 -0.221994 0.304695
plxp2---------- -0.674679 0.789828 0.405974 -0.044013 0.745750 -0.258733 -0.370642 0.755329 -0.821942 -0.172717
p8zs2---------- -0.539617 0.843639 0.269565 0.178340 0.538186 -0.346526 -0.148689 0.751344 -0.135247 -0.415456
p8is4---------- -0.750039 0.804442 0.079676 0.812245 -0.028052 0.414596 -0.495106 0.415719 -0.789833 0.041436
ab+an -0.082400 -0.129759 0.190479 -0.076861 -0.065037 0.051863 -0.020252 -0.034011 -0.116672 -0.004190
vpmp---xr-aa--1 -0.536857 0.655058 0.273163 0.316215 0.033648 0.706197 -0.741202 0.130608 -0.258925 -0.021359
vpptf-o3p -0.223293 -1.124883 -0.393933 -1.014551 -0.778992 0.453354 -0.876387 -0.209427 -0.948450 -0.544139
ex 0.053936 -0.810668 0.180039 -0.587768 0.490027 0.828660 0.594832 0.085857 -0.569595 0.319877
p8fs4---------1 -0.440218 0.449795 0.261386 0.653049 -0.594902 0.140282 -0.436627 0.319873 -0.378406 0.200691
verb+aspect=none+definite=ind+mood=ind+number=sing+person=3+tense=past+verbform=fin+voice=act -0.100477 -0.517909 1.036264 -0.331123 -0.065832 0.361712 -0.184144 -0.434316 -0.496390 0.200474
adj_cmpr 0.108891 -0.439569 0.439702 0.056679 -0.231096 -0.062229 0.010060 -0.259914 -0.182283 0.018088
vc-p---1------- -0.686677 0.460172 0.076538 0.047764 0.085701 0.941311 -0.578843 -0.758217 -0.079436 0.441871
pn+utr+sin+def+sub -0.118693 -0.138900 0.176030 -0.059271 -0.008407 0.051164 -0.022310 -0.016762 -0.127525 0.027857
ph-s3--1------- -0.555046 0.636644 0.553922 0.359904 0.129732 0.616975 -0.638422 -0.433566 0.011119 0.367723
vc-s---1------- -0.710157 0.439977 0.364021 0.177615 0.205839 0.530888 -0.591164 -0.728147 -0.034988 0.324891
clys1---------- -0.609926 0.475926 0.574214 0.300427 0.734115 0.271780 -0.577711 0.297995 0.058819 0.248575
rv--4---------- -0.682628 0.670318 0.271094 0.377419 0.046635 -0.076533 -0.467454 0.100227 -0.492364 0.011345
symb -0.256467 -0.472116 0.213434 -0.117599 0.548493 0.450671 0.794174 -0.353997 -0.276744 0.522187
verb+aspect=none+definite=ind+mood=ind+number=sing+person=3+tense=pres+verbform=fin+voice=act -0.106399 -0.474120 1.079719 -0.368643 -0.149705 0.253925 -0.161952 -0.487406 -0.465387 0.214735
ca--1---------- -0.631795 0.672230 0.878238 -0.099622 0.535178 0.142622 -0.429787 0.129144 -0.613716 0.121871
clxp6---------- -0.094158 0.679172 0.733654 -0.432813 0.466991 0.511305 -0.061137 0.380607 0.015391 -0.249284
vptp---xr-na--- -0.489068 0.600765 0.083721 0.030110 -0.001517 0.661133 -0.663826 0.157682 -0.315041 -0.024468
jj+kom+utr/neu+sin/plu+ind/def+nom -0.038426 -0.134631 0.133521 -0.072321 -0.037347 0.042757 -0.075481 -0.071238 -0.148209 -0.011850
clxp1---------- -0.339669 0.646154 0.380268 -0.467138 -0.010547 0.544783 -1.042152 0.103027 -0.297849 0.274717
pp-p4--1------- -0.780876 0.338300 0.665215 0.174501 0.064548 0.478514 -0.491161 0.210832 -0.171021 0.566896
nfp -0.047062 -0.450952 0.118196 -0.522066 0.435367 0.740174 0.723394 -0.117342 -0.401678 -0.204908
noun+case=ins+gender=masc+number=sing -0.493037 -0.231058 0.765585 -0.418478 0.484590 1.347295 -0.906131 0.289517 -0.821723 -0.894452
vnitf-r3s -0.288537 -1.206617 -0.045759 -0.708371 -0.839065 0.301424 -1.261586 0.064977 -0.694648 -0.079950
pron+case=acc+gender=com+number=sing+person=3+prontype=prs -0.489917 -0.835015 0.354637 -0.429415 -0.030289 1.234185 0.466143 0.498850 -0.514457 0.175917
t -0.139361 -0.554615 -0.008786 -0.024664 -0.439770 -0.084101 -0.111689 -0.898186 -0.269369 -0.089944
amsf 0.540539 -0.934176 -0.024491 -0.844429 -0.757070 -0.132774 -1.143218 0.039987 -0.471665 -1.096990
aux+verbform=inf+voice=act -0.442937 -0.549746 0.133286 -0.712017 0.064592 1.341480 0.594535 0.297894 -0.735137 0.052623
vb-s---3f-na--- -0.747138 0.831405 0.012057 0.548123 0.351177 0.527418 -0.531293 0.039183 -0.007570 0.094898
ppe-os3m -0.282642 -1.267056 0.093726 -0.417516 -0.601544 0.727179 -1.058063 0.071454 -0.689582 -0.695827
ncnpd -0.715289 -1.061311 -0.257384 -1.006951 -0.507727 0.293870 -0.710240 0.664012 -0.455047 -1.239021
nnxxx-----a---- -0.289678 0.086173 0.619186 0.511818 0.706682 -0.196418 -0.722004 0.378520 0.131476 -0.134927
pron+case=nom+number=plur+person=3+prontype=prs -0.433431 -0.905104 0.631530 -0.491454 -0.196527 1.269887 0.368189 0.227505 -0.535813 0.347568
vb+inf+sfo -0.095185 -0.094670 0.164518 -0.062613 -0.031439 0.026489 -0.059701 -0.047894 -0.091577 0.039092
vxitf-t3s -0.043723 -1.193194 -0.345277 -0.564438 -0.491732 0.716200 -0.893092 -0.011947 -1.028565 -0.544839
crfs2---------- -0.934937 0.965143 0.081778 -0.133538 0.591657 -0.063117 -0.308855 0.917118 -0.092886 -0.604092
vpptf-r3p -0.729217 -1.407397 -0.090678 -0.698684 -0.900708 0.509458 -0.862208 0.160053 -0.803041 0.129898
pron+case=nom+gender=com+prontype=ind -0.393449 -0.899293 0.515884 -0.499058 -0.293951 1.294019 0.372274 0.206377 -0.542044 0.324240
pc+prs+utr/neu+sin/plu+ind/def+nom -0.086103 -0.052161 0.166837 -0.036021 -0.011114 0.057170 -0.023639 -0.071787 -0.099476 0.023336
aafs1----2a---- -0.646372 0.652955 0.318566 0.501790 0.383427 0.327559 -0.553343 -0.149459 0.098316 0.294597
nnms3-----a---1 -0.491523 0.147626 0.274406 0.391011 0.378389 -0.197728 -0.740680 0.117637 0.322985 -0.018873
nn+neu+plu+def+nom -0.052493 -0.066798 0.156255 -0.095926 0.026788 0.020842 -0.046142 -0.028726 -0.088972 0.014282
p4fp4---------- -0.512311 0.311606 0.796791 0.339450 0.072435 0.396619 -0.775025 0.019870 -0.175704 0.383881
adj+case=acc+definite=ind+degree=pos+gender=masc+number=sing -0.682814 -0.418246 0.742189 -0.029085 -0.211578 0.759100 -0.985052 -0.483453 -0.705109 -0.767198
clhp1---------- -0.440158 0.592686 0.294681 -0.614615 -0.009216 0.560339 -0.831168 0.154812 -0.158249 0.334507
aafs1----1n---- -0.500395 0.604430 0.601718 0.559425 0.353780 -0.056686 -0.577864 0.118114 0.205348 0.407955
p8xp2---------- -0.532408 0.716294 0.388203 0.031757 0.409892 -0.186812 -0.352010 0.758167 -0.873139 -0.123155
vpptcv--smi -0.558959 -1.271887 -0.085382 -0.702521 -0.403363 0.067207 -1.121721 0.115169 -0.236357 -0.782895
p4yp4---------- -0.523600 0.180892 1.075355 0.450336 0.323624 0.341119 -0.592662 0.168002 -0.272364 0.318662
c}------------- -0.385101 0.220595 0.836803 0.491714 1.009936 -0.175980 -0.691280 0.419841 0.268203 -0.157979
pron+case=acc+person=3+prontype=prs+reflex=yes -0.406753 -0.837827 0.377377 -0.522901 -0.061858 1.183771 0.633795 0.443389 -0.595940 -0.026565
propn+case=gen 0.018022 -0.766021 0.553862 -0.561671 0.879812 1.042810 0.482201 0.382232 -0.627908 -0.236640
adv_i 0.078436 -0.368450 0.373643 0.024223 -0.164707 -0.017658 -0.009610 -0.263246 -0.149809 0.104159
num+case=nom+number=sing+number[psed]=none+number[psor]=none+numtype=card+person[psor]=none -0.203373 -0.557972 1.005203 -0.334781 -0.020054 0.161115 -0.169897 -0.528996 -0.511004 0.167522
p8yp4---------1 -0.586721 0.510818 0.272854 0.167095 -0.051845 0.461354 -0.487109 0.195388 -0.699012 0.241242
gw -0.117771 -0.278523 0.046707 -0.049064 0.308645 1.562614 1.123208 0.306903 -0.692760 -0.590366
a2--------a---- -0.774436 0.174279 0.630050 0.552703 0.596667 0.203421 -0.208634 0.572690 0.102334 -0.117269
vpitf-r1s -0.682475 -1.212077 -0.109387 -0.593888 -0.710704 0.460618 -1.054376 -0.088713 -0.504250 -0.131095
add -0.125056 -0.291968 0.278439 -0.294737 0.450504 0.615016 0.521916 0.043956 -0.345038 -0.349351
adj_sup 0.112202 -0.332598 0.427632 0.053492 -0.303488 0.022581 -0.010782 -0.204401 -0.065572 0.043763
adv_neg 0.065982 -0.364643 0.370175 0.041516 -0.246817 0.025350 0.006602 -0.204335 -0.086145 0.060651
clxp7---------- -0.439790 0.494770 0.527461 -0.250627 -0.073470 -0.156939 -0.724695 0.586694 -0.364917 -0.109946
vppif-o3s -0.388917 -1.360506 -0.291095 -0.844967 -0.648280 0.498527 -0.759251 -0.073353 -0.548988 -0.576759
propn+case=loc+gender=masc+number=sing -0.395701 -1.062815 0.516779 -0.589086 -0.088295 1.165349 -0.546208 0.414348 -0.435466 -1.308494
clhp4---------- -0.666687 0.618399 0.241565 0.048480 -0.082913 0.497586 -0.692752 0.444109 -0.913061 -0.090838
aufs1m--------- -0.517691 0.599137 0.599881 0.650477 0.831603 -0.251891 -0.324056 0.137632 0.237273 0.393438
fw -0.041303 -0.423374 0.343913 -0.181882 0.362372 0.335295 0.397733 0.046235 -0.231942 -0.068921
nn+utr+sin+def+gen -0.039717 -0.063486 0.196713 -0.020495 0.006020 0.034753 -0.029008 -0.085623 -0.064160 -0.031287
rbr -0.078237 -0.705393 -0.055655 -0.611170 0.227196 0.715685 0.711284 0.144404 -0.554753 0.050082
nn+an -0.085634 -0.073940 0.152604 -0.062640 -0.010797 -0.007948 -0.019520 -0.022444 -0.169554 0.036951
pc+prf+utr+sin+ind+nom -0.071200 -0.129571 0.188372 -0.037827 -0.040610 0.017938 -0.063645 -0.066973 -0.112611 0.024260
psfsxfs3------- -0.397771 0.776449 0.248113 0.240298 -0.012412 0.062731 -0.533194 0.495462 0.059950 0.023960
p8zs6---------- -0.011813 0.736277 0.771157 -0.284674 0.471376 0.525098 -0.004818 0.332005 0.466824 -0.597642
ti -0.251861 -1.135011 -0.000675 -0.175639 -0.745245 0.533982 -1.184052 -0.124115 -0.799395 -0.671689
vpiif-r3p -0.564049 -1.397465 -0.377092 -0.596352 -0.554602 0.464017 -0.996779 0.163345 -0.687181 -0.082434
dt+neu+sin+def -0.043454 -0.076507 0.133192 -0.036359 0.036894 0.040002 -0.002392 0.004581 -0.137396 -0.019223
pz--4---------- -0.697129 0.400316 0.440090 0.250266 -0.007950 0.427100 -0.497430 0.211748 -0.033787 0.256018
rr--x---------- -0.401436 0.105138 0.297733 0.291691 0.700531 -0.507076 -1.047794 0.113635 0.037893 -0.393993
pc+prf+utr/neu+plu+ind/def+nom -0.066086 -0.120036 0.154738 -0.013706 -0.004909 0.035565 -0.084700 -0.060730 -0.126825 0.030952
aux+verbform=inf -0.389181 -0.745669 0.374766 0.097890 -0.073752 1.207449 -0.892436 0.179489 -0.961102 -0.460958
vb-s---1p-aa--1 -0.608700 0.442360 0.236370 0.378558 0.216639 0.568564 -0.460370 0.115852 -0.174561 0.061087
$ -0.192512 -0.626076 0.111034 -0.792255 0.898519 0.311223 0.668868 -0.047166 -0.544273 -0.196353
crfs1---------- -0.399581 0.675435 0.385743 0.441399 0.327210 -0.028505 -0.356201 0.177678 0.264474 0.345722
pdmp1---------- -0.516718 0.181604 0.376335 -0.113719 -0.138887 0.599194 -0.817546 -0.062547 -0.267995 0.294019
vf--------a---1 -0.681132 0.368417 0.505974 0.320169 0.038419 0.606047 -0.586364 -0.129303 0.010842 0.144621
aafs4----2a---- -0.414658 0.583003 0.215534 0.489657 -0.140925 0.133639 -0.345442 0.328599 -0.498554 0.218413
hfsi 0.158487 -1.036222 0.061543 -0.953818 -0.294790 0.895441 -0.947341 -0.333525 -0.202837 -1.219948
aux+definite=ind+number=sing+tense=past+verbform=part,trans -0.389963 -0.505934 0.222823 -0.442983 -0.001218 1.318276 0.607490 0.429353 -0.599688 0.243100
aams3----1a---- -0.444713 0.131029 0.186353 0.175422 0.063570 -0.070676 -0.625319 0.119046 0.140108 -0.028360
aais1----2a---- -0.471751 0.590249 0.357602 0.497355 0.408173 0.217439 -0.540950 -0.104892 0.020303 0.373953
pwm-1---------- -0.662461 0.555262 0.434591 0.201447 0.051159 0.275517 -0.466142 -0.181412 -0.003543 0.369071
adj+case=nom+degree=pos+gender=fem+number=plur -0.884711 -0.295902 0.166948 0.277015 -0.261545 0.937385 -0.977920 0.336196 -1.133001 -0.465126
part+negative=neg -0.585557 -0.705418 0.593958 0.092795 -0.365323 0.966138 -0.887438 -0.061027 -0.771091 -0.474483
pdfp1---------- -0.447278 0.445003 0.362232 -0.348861 -0.114392 0.500417 -0.676840 0.024522 -0.132719 0.182331
vi-p---1--a---- -0.562964 0.276871 0.298004 0.394485 0.272718 0.531788 -0.554807 0.041601 -0.172235 -0.065276
aans1----1n---- -0.648906 0.382148 0.506949 0.359444 0.221779 0.386480 -0.407871 0.113502 0.038434 0.313398
pw--4---------- -0.680245 0.231603 0.350406 -0.046457 0.056535 0.263760 -0.444343 0.079362 0.069367 0.126857
vpns---xr-aa--1 -0.564362 0.554091 0.282490 0.326628 0.416606 0.385855 -0.249717 0.303979 -0.047166 -0.110083
adv+degree=none+prontype=neg -0.125157 -0.457120 0.772579 -0.367528 -0.034724 0.286392 -0.138535 -0.312950 -0.382760 0.055251
adj+case=nom+degree=pos+gender=neut+number=sing -0.394341 -0.811967 0.056005 0.036831 -0.153473 0.970063 -1.276258 -0.065375 -0.791295 -0.462553
aais1----1n---- -0.403233 0.619970 0.490473 0.524348 0.400627 0.190791 -0.466187 0.050133 0.093533 0.396076
pzxp2---------- -0.698699 0.613371 0.384198 -0.086314 0.694377 -0.194305 -0.281097 0.742433 -0.643435 -0.012783
nnmxx-----a---- -0.341224 0.054640 0.498205 0.435005 0.680445 -0.136148 -1.138350 0.277760 0.420472 -0.399121
noun+case=gen+definite=def+gender=com+number=sing 0.003421 -0.590167 0.513064 -0.425791 0.524851 1.014575 0.387492 0.535714 -0.623283 -0.132328
agfs1-----a---- -0.498073 0.798049 0.365406 0.527204 0.362377 0.048737 -0.570631 0.256424 0.155425 0.228367
aux+number=sing+person=3+tense=past -0.406654 -0.764345 -0.098805 0.295698 0.073543 1.331512 -0.893355 -0.272653 -0.864587 -0.144967
noun+case=ine+number=sing+number[psed]=none+number[psor]=none+person[psor]=none -0.144069 -0.472923 0.923087 -0.323410 -0.067848 0.238693 -0.037564 -0.385059 -0.460435 0.049090
adj+case=acc+degree=pos+gender=masc+number=plur -0.648246 -0.556186 0.774745 -0.278866 0.052170 0.652506 -1.216958 -0.370044 -1.010303 -0.431945
crns6---------- -0.205169 0.891188 0.711944 -0.276623 0.538026 0.471484 -0.035767 0.449024 0.358412 -0.441378
noun+case=ins+gender=fem+number=sing -0.399670 -0.473655 0.751861 -0.313910 0.275805 0.991487 -0.591088 0.259034 -0.852274 -0.967548
plys1---------- -0.624776 0.178586 0.583337 0.293173 0.140019 0.288703 -0.691285 -0.124284 0.140202 0.110657
ppzs4--3------2 -0.739917 0.441762 0.374083 0.200144 0.144205 0.375699 -0.538188 -0.136874 0.018144 0.142888
pzm-1---------- -0.712945 0.315963 0.490574 0.433996 0.084152 0.548449 -0.613098 -0.248538 -0.117238 0.350305
aans1----2a---- -0.682224 0.434180 0.473711 0.347436 0.156647 0.473213 -0.536984 -0.074472 -0.022624 0.336561
verb+mood=ind+tense=pres+verbform=fin+voice=pass -0.136456 -0.579066 0.201407 -0.676399 0.498137 1.002047 0.297199 0.296511 -0.739322 0.015911
ab+kom -0.062564 -0.062431 0.148773 -0.047175 -0.027302 0.016469 -0.032789 0.007105 -0.128859 -0.010419
vniif-r3s -0.518017 -1.445445 -0.292997 -0.237691 -0.663911 0.583270 -0.957439 -0.067045 -0.544540 0.162501
verb+gender=neut+number=sing+verbform=part -0.568595 -0.333472 0.423144 -0.284350 -0.161028 0.659978 -1.207410 -0.200618 -0.608569 -0.403802
nnms6-----a---- -0.524456 0.234781 0.412498 0.011168 0.498341 0.447649 -0.330666 0.309633 0.094835 -0.191671
pn+utr/neu+sin/plu+def+obj -0.080605 -0.064422 0.102444 -0.067683 0.027838 0.025604 -0.068402 -0.049279 -0.108903 0.040071
md-pi -0.322198 -0.866216 -0.089589 -0.733703 -0.384712 0.319931 -0.799828 0.273977 -0.702838 -0.701669
pn+utr/neu+plu+def+sub -0.039722 -0.029209 0.082738 -0.019143 -0.031179 0.090591 -0.054193 -0.009904 -0.122464 0.009796
mofsi -0.209771 -0.772431 -0.357209 -1.198321 -0.772065 -0.186543 -1.080855 0.471551 -0.472109 -1.062351
cn-p6---------- -0.020615 0.710133 0.712932 -0.285190 0.391133 0.446208 -0.174997 0.333142 -0.233458 -0.234845
adj+case=nom+degree=none+number=sing+number[psed]=none+number[psor]=none+person[psor]=none+verbform=partpres -0.039542 -0.525643 0.800594 -0.272972 -0.019305 0.241569 -0.103752 -0.316583 -0.473883 0.107357
p8zs7---------- -0.611630 0.699777 0.467734 0.165179 -0.166625 -0.006872 -0.476354 0.393177 0.044844 -0.100782
pp-s1--1------- -0.582557 0.322684 0.505166 0.369420 -0.095962 0.695014 -0.700987 -0.108433 -0.121023 -0.047321
crfs4---------- -0.415083 0.447756 0.124699 0.504110 -0.184007 0.165100 -0.402108 0.458584 -0.426550 0.208763
adj+case=acc+degree=pos+gender=fem+number=plur -0.866926 0.138361 0.255427 -0.179817 0.217830 0.815217 -1.207607 0.282346 -0.848513 -0.528116
pre-op -0.492915 -1.160167 0.212315 -0.699432 -0.504085 0.457190 -0.932938 0.068188 -0.402010 -0.721343
pdt -0.012498 -0.701772 -0.056873 -0.935662 -0.139972 0.464108 0.321084 0.186259 -0.560846 0.010583
aufs2m--------- -0.715262 0.680443 0.137273 0.035767 0.367883 -0.154919 -0.530677 0.670518 0.139902 -0.431551
p8fs2---------1 -0.582407 0.739624 0.167532 0.094002 0.234054 -0.197128 -0.400291 0.545437 -0.054041 -0.346737
vpptcv--sfi -0.510174 -1.099724 -0.048564 -0.867110 -0.701697 0.241024 -0.941198 0.278359 -0.560829 -0.622657
nnmpx-----a---- -0.424472 0.185957 0.453367 0.149853 0.588674 -0.085728 -0.743007 0.227538 0.109984 -0.041241
cris4---------- -0.624794 0.547725 0.068491 0.537238 -0.043377 0.366689 -0.249376 0.508843 -0.778612 0.014048
acmp------a---- -0.774140 0.408276 0.314723 0.015184 -0.121086 0.669552 -0.526738 -0.045159 -0.222419 0.210951
adj+case=nom+degree=pos+gender=masc+number=sing+verbform=part -0.306566 -0.654977 0.041352 -0.312844 -0.006006 0.946147 -1.077707 0.600443 -0.402067 -0.682481
ca--2---------- -0.504022 0.561524 0.457998 -0.085656 0.630583 -0.079302 -0.330459 0.735205 -0.726685 -0.002560
pdip1---------- -0.353463 0.349815 0.449608 -0.338228 0.020893 0.592393 -0.719646 0.106582 -0.222984 0.083913
vpptcao-smi -0.489171 -1.174475 -0.171289 -0.770253 -0.645346 0.437033 -0.833893 -0.158182 -0.669643 -0.620650
foreign -0.153977 -0.332907 0.049263 -0.328276 -0.170518 0.343250 0.554607 -0.293302 -0.529020 -0.283021
rf------------- -0.681352 0.303498 0.276141 -0.132738 -0.106088 0.445540 -0.487679 0.481508 0.250834 -0.060766
propn+case=acc+gender=fem+number=sing -0.503253 -0.611089 0.464970 -0.284160 0.388329 1.003630 -0.909888 0.100210 -0.362585 -0.629118
cris1---------- -0.448562 0.506205 0.393944 0.402994 0.218678 0.026748 -0.377047 0.044367 0.161650 0.285568
vi-p---2--a---- -0.445739 0.329561 0.304483 0.400765 0.164190 0.582853 -0.517460 0.210072 -0.158037 0.038284
p8ns4---------1 -0.668171 0.406176 0.225462 0.248919 -0.074924 0.179645 -0.354788 0.257387 -0.481080 0.087985
adj+degree=comp+variant=long -0.090962 -0.379568 0.368228 -0.583413 0.257432 1.111307 0.374976 0.487145 -0.690684 0.069207
psxp2-p1------- -0.495525 0.610197 0.461923 -0.096390 0.516235 -0.219558 -0.334974 0.654220 -0.478133 -0.109949
npnsi -0.430216 -1.102599 -0.038222 -0.882840 -0.447655 0.272427 -0.866972 0.292504 -0.050669 -0.870342
adv_comp 0.018549 -0.238034 0.259507 0.059716 -0.175256 -0.034846 -0.028838 -0.138886 -0.079995 0.026117
p1xxxxp3------- -0.325994 0.562505 0.544570 0.264235 0.228452 0.071527 -0.512510 0.364020 -0.154083 0.119650
adj+case=loc+degree=pos+gender=fem+number=sing 0.032111 -0.353253 0.646504 -0.648725 -0.249006 1.169842 -0.206597 0.403278 -1.058758 -1.241665
pzmp1---------- -0.396475 0.385067 0.389669 -0.121026 0.014305 0.608559 -0.793668 0.111722 -0.188833 0.289736
auis1m--------- -0.376402 0.435742 0.376646 0.303215 0.296483 0.067262 -0.404477 -0.031749 0.164516 0.343348
vpitf-m3s -0.513265 -1.290338 -0.228899 -0.741146 -0.815085 0.396691 -1.061878 -0.068880 -0.754516 -0.461444
agis1-----a---- -0.417920 0.727788 0.171679 0.367587 0.278174 0.107484 -0.502475 0.269576 0.046082 0.181247
plyp4---------- -0.521841 0.429890 0.281122 0.127944 0.017052 0.268414 -0.473841 0.165914 -0.461146 0.162790
pdxp6---------- -0.098116 0.653035 0.640558 -0.359995 0.370792 0.647676 -0.258783 0.283275 0.135064 -0.032598
propn+animacy=inan+case=acc+gender=masc+number=sing -0.494250 -0.662834 0.374249 -0.201161 0.214130 0.949633 -1.026101 0.134445 -0.129168 -0.722917
pn+utr+plu+def+sub -0.086213 -0.067884 0.048571 -0.007947 -0.021599 0.080700 -0.032028 0.019988 -0.034901 0.032679
clfs4---------- -0.504355 0.342845 0.183242 0.503695 0.036606 0.261897 -0.463546 0.614281 -0.520489 0.192041
ppetas3m -0.286902 -1.346698 -0.144628 -0.226598 -0.598014 0.618967 -0.968029 0.084376 -0.696329 -0.718328
pn+utr+sin+def+sub/obj -0.024969 -0.103131 0.092443 -0.035164 0.040473 0.039340 -0.075611 -0.056457 -0.087357 0.025068
num+number=plur+numtype=card -0.537670 -0.492969 0.269422 -0.407279 0.349433 0.637138 -0.980048 0.631619 -1.030245 -0.507919
vptp---xr-aa--1 -0.429478 0.632982 0.250138 -0.074720 0.197125 0.318275 -0.543266 0.334305 -0.012599 -0.055097
adj+case=nom+degree=pos+gender=fem+number=sing+verbform=part -0.190667 -0.653811 0.271106 -0.134462 0.094917 0.816810 -0.994211 0.021717 -0.603273 -0.635312
nnfsx-----a---- -0.307556 0.175024 0.494209 0.258382 0.665145 -0.065258 -0.623951 0.228113 0.030029 -0.123438
adj_ino 0.091494 -0.319418 0.360235 0.067774 -0.172248 0.014007 -0.001963 -0.224345 -0.143381 0.042262
crms1---------- -0.615955 0.227142 0.646962 0.430915 0.463937 0.052420 -0.909776 -0.096977 0.323493 -0.190455
clfs1---------- -0.467607 0.498838 0.438620 0.252709 0.323539 0.053879 -0.433019 0.335080 -0.052326 0.283154
aafs1----3a---- -0.499317 0.600689 0.366666 0.589342 0.417965 -0.011295 -0.387045 0.077518 0.207142 0.390875
pdfp4---------- -0.548094 0.425514 0.188842 0.045674 -0.118250 0.479257 -0.704495 0.379548 -0.523470 0.053702
clzs2---------- -0.475099 0.463822 0.327196 -0.006117 0.588639 -0.016788 -0.207844 0.695279 -0.087045 -0.129280
crns4---------- -0.508916 0.374912 0.066467 0.477808 -0.002233 0.201410 -0.291307 0.615168 -0.520312 0.089871
psot--3--m -0.049986 -1.042957 -0.102894 -0.879626 -0.818284 0.461276 -0.582945 0.056726 -0.649663 -0.717748
adj+case=gen+degree=pos+gender=neut+number=sing -0.374258 -0.190068 0.588863 -0.643028 0.633177 0.853712 -0.602569 0.550802 -0.944192 -0.968770
agfs4-----a---- -0.352238 0.539930 0.165207 0.462201 -0.093511 0.253982 -0.373906 0.520424 -0.401165 0.057350
agms1-----a---- -0.453504 0.311478 0.365950 0.448867 0.373581 0.191744 -0.803317 0.011032 0.027615 -0.122248
adj+case=nom+degree=none+number=sing+number[psed]=none+number[psor]=none+person[psor]=none+verbform=partpast -0.122422 -0.420414 0.824378 -0.306746 -0.017142 0.211947 -0.137128 -0.313782 -0.419394 0.058029
p5zs2--3------- -0.606772 0.263789 0.522561 -0.113879 0.251892 0.432652 -0.441374 0.515290 -0.084706 0.435978
pron+case=nom+gender=masc+number=sing+prontype=ind -0.290580 -0.642767 0.348443 -0.352264 -0.286584 0.999217 -1.272426 -0.021172 -0.355308 -0.650003
pron+case=nom+gender=masc+number=plur+prontype=ind -0.540914 -0.503829 0.604385 -0.158270 -0.228310 0.889585 -1.034563 0.046133 -0.769065 -0.269582
pp-p1--1------- -0.706565 0.290747 0.632504 0.198305 -0.014270 0.583016 -0.580033 -0.009162 -0.120359 0.045787
adv+degree=cmp -0.496666 -0.559403 0.327764 -0.248088 0.137226 0.880341 -0.964976 0.166986 -0.724198 -0.509761
adv+degree=comp -0.249883 -0.546911 0.331784 -0.492233 0.057101 1.036188 0.365520 0.403003 -0.657257 0.058108
ph-s4--1------- -0.477493 0.424487 0.390105 0.259008 0.082835 0.272593 -0.408293 -0.002144 -0.015022 0.279075
p9zs6---------- -0.489138 0.095213 0.682099 0.141223 0.313678 0.774740 -0.248841 0.344708 0.352304 0.310684
clzs7---------- -0.618009 0.255502 0.425681 -0.010713 0.417681 0.116374 -0.320743 0.470779 -0.173119 0.154583
pszs2-p1------- -0.431989 0.660179 0.233031 0.100346 0.381436 -0.151769 -0.158176 0.559566 -0.162463 -0.354299
pszs1fs3------- -0.432827 0.481869 0.291023 0.421025 0.356985 0.004184 -0.729224 0.097309 0.305469 0.118890
clis4---------- -0.626123 0.513498 0.159700 0.431090 0.186281 0.287051 -0.347664 0.602185 -0.549259 0.009871
verb+aspect=none+definite=def+mood=ind+number=sing+person=3+tense=past+verbform=fin+voice=act -0.047084 -0.413372 0.689783 -0.286295 -0.008878 0.335822 -0.107901 -0.243041 -0.336876 0.089104
cn-p7---------- -0.524656 0.322896 0.524784 -0.055628 0.004938 0.013120 -0.539160 0.591166 -0.270869 -0.117482
pshs1-p1------- -0.536066 0.628991 0.307891 0.396119 0.216968 0.168038 -0.452807 -0.060981 0.169404 0.427583
agfp2-----a---- -0.581466 0.473521 0.472986 -0.009008 0.419700 0.003804 -0.615659 0.604743 -0.497699 -0.377120
vb-p---3p-na--1 -0.539375 0.496505 0.200492 0.086560 0.059265 0.702242 -0.586159 0.020832 -0.248323 -0.020515
vpitf-r1p -0.494454 -1.016261 -0.111194 -0.650139 -0.483736 0.393927 -0.692050 0.268456 -0.470131 -0.204050
vppif-r3s -0.580680 -1.337080 -0.223940 -0.548470 -0.663535 0.401768 -0.841279 0.183190 -0.470513 -0.229235
vf--------n---- -0.434401 0.416606 0.256483 0.266661 0.023961 0.241298 -0.410218 0.409588 -0.231791 -0.041577
rr--1---------- -0.370768 0.334620 0.348606 0.304681 0.645163 -0.453562 -0.936060 -0.019007 0.213814 -0.225138
verb+verbform=inf+voice=pass -0.274103 -0.608455 0.268243 -0.442377 0.104976 1.078377 0.311124 0.585848 -0.513829 0.198944
p5zs6--3------- -0.582705 0.288471 0.457859 -0.142690 0.410732 0.562519 -0.216395 0.141286 0.166070 0.184125
interj 0.011901 -0.278631 -0.029426 -0.182564 0.128784 0.211877 0.424266 -0.149226 -0.020340 0.229081
p8fp4---------1 -0.453760 0.525455 0.305272 -0.006141 -0.223441 0.453513 -0.732971 0.269524 -0.505753 0.067858
nnnp3-----a---- -0.789712 0.145641 0.305348 0.032480 0.135709 0.162467 -0.407412 0.241691 -0.248443 0.140674
adj+case=loc+degree=pos+gender=masc+number=sing 0.002897 -0.461311 0.703122 -0.758787 -0.293063 1.214335 -0.142674 0.545056 -0.958331 -1.154301
agfs2-----a---- -0.646647 0.649364 0.161945 0.218734 0.337117 0.110486 -0.113559 0.426939 -0.139274 -0.399467
noun+definite=def+gender=neut+number=plur -0.246196 -0.600316 0.425363 -0.432385 0.147247 0.977803 0.238125 0.637470 -0.398098 0.119639
rbs -0.074668 -0.624825 -0.063743 -0.669172 0.282557 0.605838 0.547741 0.043984 -0.432773 0.062365
momsi -0.074824 -0.904063 -0.160677 -1.075923 -0.623017 -0.164237 -0.934042 0.241521 -0.227580 -0.919609
p8fs6---------1 -0.172721 0.699546 0.726103 -0.205753 0.499535 0.422362 -0.133961 0.217564 0.375551 -0.389996
agmp2-----a---- -0.467357 0.557558 0.499881 0.113784 0.359020 0.060714 -0.323303 0.371797 -0.316643 -0.029746
ppxp2--3------- -0.528572 0.532116 0.790802 0.069608 0.110287 0.320776 -0.419891 -0.205096 -0.195294 0.136361
p5xp4--3------- -0.645259 0.269080 0.352519 0.203940 0.143102 0.526220 -0.393363 0.431020 -0.188929 0.512244
aux+negative=neg+number=sing+person=3+tense=pres -0.403888 -0.733319 -0.082724 -0.090537 -0.046720 0.998709 -0.860013 -0.057939 -0.795487 -0.382594
nnmp6-----a---- -0.504268 0.170405 0.577053 0.079780 0.437398 0.496829 -0.344925 0.420584 -0.000649 -0.230421
noun+case=loc+gender=fem+number=plur -0.354560 -0.647719 0.491500 -0.526314 0.277824 0.991164 -0.646610 0.449731 -0.444342 -0.714043
verb+gender=fem+number=plur+verbform=part -0.678724 -0.249019 0.320624 -0.033408 -0.150973 0.777922 -0.996031 0.057909 -0.860316 -0.383484
propn+case=ins+gender=masc+number=sing 0.236993 -0.326766 0.687605 -0.258612 0.450356 1.234869 -0.987898 0.374925 -0.384125 -0.661115
adj+case=acc+degree=pos+gender=neut+number=sing -0.556697 -0.501767 0.584192 -0.346604 0.026326 0.816148 -0.797239 0.068845 -0.770988 -0.500635
pron+animacy=inan+case=nom+gender=neut+person=3+prontype=ind -0.271909 -0.717244 0.076424 -0.265668 -0.266891 0.859180 -1.166845 -0.060825 -0.654569 -0.468102
p5xp7--3------- -0.694359 0.296788 0.599922 0.005582 0.158568 0.491811 -0.573866 0.360659 -0.037272 0.126263
ppe-os3f -0.444497 -1.060666 0.045521 -0.359396 -0.571872 0.544838 -0.859225 0.118167 -0.559197 -0.598970
noun+case=acc+number=sing+number[psed]=none+number[psor]=sing+person[psor]=3 -0.056347 -0.405756 0.704507 -0.310640 -0.067106 0.370405 -0.092021 -0.232361 -0.429681 0.116538
p4ns4---------- -0.470932 0.147555 0.706992 0.380240 0.193197 0.251564 -0.665172 0.176427 -0.003218 0.179303
aafs4----1n---- -0.347121 0.373961 0.225028 0.446687 -0.127411 0.198108 -0.311579 0.451104 -0.486675 0.104191
pron+case=nom+gender=neut+number=sing+prontype=dem -0.427269 -0.744085 0.110073 -0.213017 -0.254635 0.750044 -1.118996 0.035569 -0.417967 -0.335314
vpptcao-p-i -0.336504 -0.910465 -0.235231 -0.637446 -0.550824 0.311748 -0.852521 0.093218 -0.649702 -0.351459
cris6---------- -0.118973 0.726475 0.665136 0.015053 0.531718 0.508658 -0.049757 0.117796 0.084861 -0.367331
vb+imp+akt -0.025255 -0.078822 0.080921 -0.000118 0.014570 0.048819 -0.070711 -0.015419 -0.077933 0.018082
aanp7----1a---- -0.462671 0.309690 0.512135 0.065441 0.226686 0.005668 -0.446057 0.341245 -0.549760 -0.211738
ppxtd -0.262787 -1.156978 -0.017189 -0.295241 -0.629072 0.437898 -0.924409 0.174700 -0.497962 -0.480901
ab+suv -0.035333 -0.109776 0.096966 -0.010169 -0.000835 0.035863 -0.027355 -0.013679 -0.095173 0.018160
nnisx-----a---- -0.336490 0.134934 0.470239 0.359265 0.445090 -0.025878 -0.611313 0.256738 0.010806 -0.107612
ppfs3--3------- -0.463707 0.488664 0.374908 0.245477 0.065668 0.476936 -0.482699 -0.227122 0.026423 0.187043
agis4-----a---- -0.491849 0.495346 0.152714 0.422035 -0.038869 0.223758 -0.283338 0.504714 -0.525524 -0.009874
aais4----1n---- -0.427485 0.480490 0.292930 0.481075 0.005382 0.274387 -0.458399 0.366857 -0.460615 -0.023370
nnfpx-----a---- -0.176624 0.025100 0.465445 0.158433 0.637943 -0.156863 -0.646068 0.203216 0.104863 -0.223465
acqw------a---- -0.663274 0.433529 0.396910 0.113982 0.088166 0.274150 -0.390207 0.190253 0.083210 0.176962
pw--1---------- -0.625003 0.411679 0.368129 0.093038 0.022717 0.291672 -0.350644 -0.039433 0.070696 0.007006
pdip4---------- -0.440212 0.698213 0.173020 0.092601 0.106804 0.396891 -0.440268 0.210502 -0.510140 0.389541
ps+utr+sin+def -0.056191 -0.008561 0.107840 -0.013746 -0.030974 0.062517 0.011993 0.021192 -0.036374 0.004484
part+_ -0.247248 -0.644813 0.380288 -0.198593 -0.197723 0.646583 -0.584308 -0.135742 -0.562145 -0.236984
psfs2-p1------- -0.505515 0.616470 0.289802 -0.081767 0.263749 -0.157411 -0.344192 0.422056 -0.013119 -0.362761
verb+mood=imp+verbform=fin -0.199107 -0.424221 0.274161 -0.525176 0.084800 0.735439 0.146010 0.237904 -0.362291 -0.102942
aafp2----1n---- -0.583290 0.473485 0.646656 -0.017585 0.519657 -0.062785 -0.555210 0.604747 -0.371146 -0.159839
det+number[psor]=sing+person=3+poss=yes+prontype=prs -0.001621 -0.449231 0.430166 -0.460526 0.477941 0.901808 0.260423 0.255081 -0.600871 -0.180464
adv+degree=none+prontype=dem -0.143216 -0.370926 0.614731 -0.308858 -0.003082 0.244876 -0.083546 -0.221496 -0.401483 0.108196
plns1---------- -0.343788 0.356049 0.463846 0.257534 0.042499 0.363098 -0.346496 -0.006365 -0.000131 0.325140
jj+suv+utr/neu+sin/plu+def+nom -0.100174 -0.066487 0.116622 -0.001205 -0.000831 0.058746 -0.031282 -0.013031 -0.048687 -0.029467
pron+gender=neut+number=sing+prontype=ind -0.274016 -0.547234 0.317749 -0.398350 -0.031172 0.956085 0.366458 0.346809 -0.429790 0.080720
pc+prf+neu+sin+ind+nom -0.059702 -0.022567 0.121363 -0.041787 -0.043454 0.069467 -0.032756 -0.015732 -0.052439 0.017409
verb+tense=pres+verbform=part 0.022766 -0.453797 0.382976 -0.544004 0.372411 0.871831 0.255454 0.532694 -0.670621 0.032464
aais4----2a---- -0.533910 0.502054 0.282340 0.387122 0.114215 0.286666 -0.425400 0.321784 -0.483259 0.023685
pre-os-m -0.414097 -1.019714 0.164339 -0.469333 -0.412209 0.484753 -0.957637 0.050679 -0.215999 -0.732900
verb+aspect=none+mood=n+number=none+person=none+verbform=inf+voice=act -0.131401 -0.342377 0.669482 -0.330947 -0.094737 0.227763 -0.092099 -0.155361 -0.372348 0.070959
vpptcv--sni -0.421683 -0.932327 -0.151070 -0.828376 -0.362576 0.148147 -0.797504 0.381549 -0.434939 -0.687814
aais1----3a---- -0.521263 0.366085 0.418362 0.266052 0.168230 0.108942 -0.487577 0.002191 0.039964 0.299555
jj+pos+utr/neu+sin/plu+ind/def+nom -0.071053 -0.078369 0.045163 -0.042470 0.028910 0.020612 -0.051567 0.014649 -0.085940 -0.026710
vyptf-r3s -0.346070 -1.370230 -0.151280 -0.366795 -0.482870 0.694689 -0.992129 0.306143 -0.855020 0.013306
agip2-----a---- -0.528399 0.520891 0.116379 -0.041911 0.457194 0.068711 -0.173465 0.555785 -0.666028 0.012008
plns1---------1 -0.547514 0.251679 0.442043 0.108024 0.109264 0.409148 -0.365013 -0.155215 -0.079272 0.294388
p4zs7---------- -0.492453 0.337793 0.535228 0.417803 0.105805 0.237559 -0.398571 0.125963 0.101898 0.006185
det+gender=com+number=sing+number[psor]=sing+person=3+poss=yes+prontype=prs+reflex=yes -0.132614 -0.633016 0.454460 -0.401423 0.435639 0.819149 0.312876 0.487679 -0.524164 -0.135910
vb-p---1f-aa--- -0.449626 0.486483 0.147057 0.178907 0.069247 0.687076 -0.457847 -0.005956 -0.240931 -0.005228
pdm -0.195072 -0.915376 -0.122336 -0.583784 -0.470592 0.340428 -0.930779 0.049539 -0.339064 -0.554693
j^------------8 -0.461334 0.004491 0.605016 0.358191 0.340058 0.202219 -0.502226 0.344667 -0.214059 0.044876
noun+case=gen+gender=neut+number=plur -0.398466 -0.544139 0.371526 -0.607768 0.166968 0.900301 -0.658588 0.268531 -0.589072 -0.744070
noun+case=sup+number=sing+number[psed]=none+number[psor]=none+person[psor]=none -0.180710 -0.356475 0.667261 -0.279085 -0.021528 0.276768 0.001166 -0.242988 -0.394726 0.078083
noun+case=acc+gender=neut+number=plur -0.599197 -0.548538 0.428905 -0.177708 -0.063303 0.838966 -0.576805 0.201206 -0.496562 -0.595414
crns2---------- -0.593516 0.594910 0.168412 -0.000230 0.531963 -0.029308 -0.225972 0.535555 0.000275 -0.306400
noun+case=ins+gender=masc+number=plur -0.532246 -0.694247 0.477469 -0.407643 0.161039 0.693768 -0.633924 0.146451 -0.663243 -0.833219
pz--1---------- -0.521611 0.145110 0.471629 0.228847 0.166056 0.444564 -0.384716 -0.007746 -0.046806 0.026494
pde-os-f -0.277738 -0.721337 -0.282100 -0.962947 -0.598928 -0.029613 -0.925405 0.263285 -0.512800 -0.786768
adj+case=ess+degree=pos+number=sing+number[psed]=none+number[psor]=none+numtype=none+person[psor]=none+verbform=none -0.198733 -0.300980 0.550867 -0.216129 -0.028513 0.197704 -0.102325 -0.212019 -0.384802 -0.012190
pjzs2---------- -0.446033 0.347539 0.564547 0.332949 0.300235 0.058143 -0.417665 0.239330 -0.011618 0.045374
pron+case=nom+gender=fem+number=sing+prontype=ind -0.224214 -0.750183 0.317739 -0.218670 -0.248092 0.748641 -0.997157 0.077787 -0.555564 -0.677164
vb+sup+sfo -0.050987 -0.056627 0.094455 -0.046167 0.018482 0.022575 -0.079542 -0.041808 -0.033058 0.007543
j*------------- -0.871062 0.236146 0.278134 0.145176 0.925637 -0.148035 -0.335662 -0.207362 -0.653349 -0.054775
pq--7---------- -0.543330 0.156606 0.533625 0.192277 -0.072843 0.395273 -0.472266 0.042177 -0.091290 0.225758
p5zs7--3------- -0.581200 0.170791 0.566390 -0.031935 0.238107 0.450336 -0.484836 0.367136 -0.043547 0.117478
p5xp6--3------- -0.415269 0.296615 0.377540 -0.006581 0.229740 0.513810 -0.344876 0.246086 0.185801 0.209173
aufs4m--------- -0.425621 0.340450 0.331177 0.433596 -0.091070 -0.017409 -0.435272 0.233382 -0.080061 0.063928
psys1-p1------- -0.416825 0.390875 0.452059 0.464994 0.227395 0.121800 -0.567958 -0.048177 0.232368 0.206639
aafp2----3a---- -0.548559 0.353844 0.354986 -0.093988 0.525732 -0.011925 -0.415653 0.572817 -0.339447 -0.190450
aafs2----1n---- -0.582354 0.538609 0.170694 0.089400 0.402936 0.114374 -0.426544 0.733065 -0.089162 -0.305633
propn+case=gen+gender=neut+number=sing -0.272555 -0.689304 0.230527 -0.444834 0.009540 0.800648 -1.091376 0.220859 -0.565278 -0.819177
adj+case=nom+degree=pos+gender=neut+number=sing+verbform=part -0.294951 -0.567885 0.236468 -0.396893 -0.303055 0.772319 -1.147799 -0.022728 -0.429299 -0.524959
p6-x7---------- -0.599893 0.147188 0.624172 -0.031394 0.167030 0.360337 -0.455966 0.450040 -0.129280 0.092391
adv_loc -0.018826 -0.229538 0.213448 -0.056419 -0.077193 0.023506 -0.046793 -0.096397 -0.045738 0.059038
plfp1---------- -0.478615 0.354492 0.330181 -0.411557 -0.040480 0.488660 -0.708040 0.106738 -0.072194 0.043256
pde-os-m -0.131987 -0.860710 -0.216750 -0.972564 -0.598950 -0.081695 -0.861736 0.242602 -0.485986 -0.652566
aafp1----2a---- -0.436923 0.295375 0.348232 -0.130746 0.139728 0.393593 -0.562385 0.161633 -0.175999 0.061331
clfs2---------- -0.578565 0.523823 0.177000 0.002447 0.512041 0.071916 -0.412739 0.637660 0.012318 -0.193082
crnp2---------- -0.302710 0.594276 0.429580 -0.013116 0.579960 -0.007331 -0.128398 0.312534 -0.568927 -0.250852
clfs7---------- -0.487545 0.328819 0.364424 0.064287 0.233077 0.163331 -0.416094 0.354613 -0.081880 -0.027156
vb-p---3f-na--- -0.423550 0.491652 0.172693 0.004660 0.135335 0.665052 -0.480983 0.063782 -0.220375 -0.091658
pron+case=nom+gender=com+number=sing+person=2+prontype=prs -0.309466 -0.609186 0.478497 -0.353583 -0.210328 0.902930 0.255863 0.285973 -0.380102 0.200086
pdxp3---------- -0.516987 0.272354 0.213759 -0.034578 0.014022 0.295907 -0.550177 0.242896 -0.132200 -0.005077
prt -0.364038 -0.993283 -0.042874 -0.452639 -0.539627 0.307380 -0.749535 0.076276 -0.447084 -0.543920
p5fs6--3------- -0.401165 0.261341 0.365569 -0.138304 0.267945 0.424973 -0.293350 0.201173 0.051897 0.113827
dl -0.301598 -0.950266 -0.070690 -0.661871 -0.446762 0.460569 -0.604820 0.127761 -0.423374 -0.687687
noun+case=loc+gender=masc+number=plur -0.477841 -0.431164 0.693213 -0.444748 0.025981 0.948035 -0.424034 0.306705 -0.467736 -0.858788
pm+gen -0.064222 -0.102429 0.076275 0.007442 -0.020626 0.060616 -0.009980 -0.049349 -0.033598 0.026540
aaip2----1n---- -0.425497 0.459233 0.192414 -0.013287 0.388134 0.078000 -0.239293 0.428989 -0.436834 0.021389
noun+case=dat+gender=masc+number=sing -0.190226 -0.412709 0.422675 -0.372179 0.141519 0.821669 -0.755602 0.226752 -0.747054 -0.685164
aafs4----3a---- -0.508944 0.403453 0.219444 0.242532 -0.087760 0.087128 -0.363458 0.303043 -0.371634 0.043114
p9xp2---------- -0.483428 0.122952 0.485403 0.099504 0.333942 0.294225 -0.454164 0.289791 -0.002579 0.264001
adj+numtype=ord -0.015312 -0.396001 0.453028 -0.480960 0.407828 0.843162 0.217281 0.437909 -0.526282 -0.132057
ca--6---------- -0.069348 0.640848 0.638144 -0.222526 0.411895 0.480750 -0.184260 0.298139 0.081823 -0.107889
cris2---------- -0.467701 0.572107 0.283864 0.089631 0.363965 -0.061352 -0.138560 0.421009 -0.100206 -0.151923
noun+case=ins+gender=neut+number=sing -0.266548 -0.363504 0.458669 -0.234378 0.282137 0.801784 -0.767254 0.144197 -0.730194 -0.848857
p6-x4---------- -0.616631 0.039622 0.342288 0.285565 0.185383 0.447294 -0.396888 0.396692 -0.227663 0.204372
aafp4----2a---- -0.395425 0.386691 0.231745 0.104530 0.064172 0.391478 -0.542774 0.271391 -0.539412 -0.004314
p1xxxzs3------- -0.314797 0.291160 0.493100 0.164948 0.290637 0.089889 -0.549865 0.324432 -0.068677 0.015362
noun+case=dat+gender=fem+number=sing -0.357843 -0.467762 0.473740 -0.157775 0.045385 0.839143 -0.533856 -0.007559 -0.677364 -0.821455
verb+number=plur+tense=past+verbform=part -0.010168 -0.462535 0.277515 -0.443642 0.188966 0.642222 0.178210 0.521810 -0.550345 0.075368
aafp1----1n---- -0.420652 0.324742 0.436970 -0.165418 0.088409 0.276244 -0.601288 0.276223 -0.165287 0.013873
ppe-op3 -0.289745 -0.849460 -0.140826 -0.484870 -0.474936 0.433890 -0.788903 0.099133 -0.644855 -0.631392
verb+aspect=none+definite=ind+mood=ind+number=plur+person=3+tense=pres+verbform=fin+voice=act -0.134543 -0.213078 0.462054 -0.293747 -0.090480 0.324079 -0.054544 -0.207298 -0.358272 0.111812
plxp6---------- -0.200288 0.419397 0.547224 -0.132384 0.305005 0.317256 -0.160207 0.234333 0.149657 -0.205449
adj+definite=def+degree=sup+variant=long -0.157218 -0.343288 0.323650 -0.500064 0.244702 0.814604 0.366354 0.478948 -0.562974 0.045399
p8fs7---------1 -0.504501 0.400378 0.301823 0.186444 -0.045688 0.022136 -0.504604 0.310405 0.066385 -0.212531
nnip2-----a---1 -0.647153 0.213734 0.324822 0.057013 0.454877 0.146875 -0.270384 0.232136 -0.272228 -0.106532
pron+gender=com+number=sing+prontype=ind -0.223640 -0.599020 0.303366 -0.295131 0.062715 0.798944 0.204737 0.469554 -0.425725 0.098835
agfp1-----a---- -0.422663 0.392447 0.309051 -0.191922 0.034463 0.186780 -0.640913 0.314272 -0.111760 -0.010151
v_imp 0.005913 -0.174449 0.128282 -0.031153 -0.138760 0.028502 -0.069300 -0.103301 -0.067957 0.024836
det+number=plur+prontype=ind -0.087542 -0.389603 0.170326 -0.483897 0.206220 0.769284 0.206772 0.467798 -0.754052 0.157470
te -0.319804 -0.980783 -0.062858 -0.465092 -0.416126 0.371347 -0.825870 0.096993 -0.301175 -0.521839
p9fs6---------- -0.380537 0.110260 0.618324 0.055385 0.287815 0.432327 -0.338321 0.196294 0.170239 0.109642
p4np1---------- -0.429662 0.226160 0.565361 0.031418 -0.035278 0.324105 -0.368645 0.194680 -0.284670 0.105671
pjys1---------- -0.394199 0.145040 0.543426 0.256252 0.192825 0.211675 -0.485119 0.152466 0.073880 0.030974
aais4----3a---- -0.561233 0.475890 0.162719 0.231725 0.081359 0.146690 -0.335571 0.274670 -0.400730 -0.112319
verb+aspect=none+definite=def+mood=ind+number=sing+person=3+tense=pres+verbform=fin+voice=act -0.131353 -0.336622 0.597825 -0.275944 -0.026068 0.260820 -0.071918 -0.224957 -0.330414 0.065127
p8xp6---------- -0.187889 0.529373 0.557756 -0.266814 0.335911 0.279135 -0.209439 0.121811 -0.001971 -0.207177
nn+neu+sin+def+gen -0.052815 -0.008897 0.060064 -0.011056 -0.001577 0.053207 0.015758 -0.007688 -0.061910 -0.045378
noun+case=sub+number=sing+number[psed]=none+number[psor]=none+person[psor]=none -0.130764 -0.325205 0.553350 -0.245446 -0.063855 0.283566 0.022948 -0.109441 -0.333850 0.043435
vpptf-r1s -0.569256 -1.188747 -0.108314 -0.487227 -0.526251 0.428757 -0.925341 0.186513 -0.440464 -0.050015
pp-p3--2------- -0.455519 0.209445 0.430965 0.140011 -0.021855 0.508051 -0.507334 0.004284 0.080753 0.132464
auis2m--------- -0.532095 0.591064 0.157392 0.119199 0.268149 -0.118049 -0.103771 0.412464 -0.116580 -0.230000
pron+number=sing+prontype=int,rel -0.222709 -0.564920 0.387767 -0.497643 -0.014304 0.901373 0.198992 0.370084 -0.369940 0.047770
pde-op -0.167860 -0.804646 -0.207078 -0.844225 -0.377741 0.190165 -0.714253 0.276601 -0.521915 -0.625452
aafs7----3a---- -0.391984 0.561266 0.401141 0.109068 -0.060676 0.032797 -0.466446 0.329900 -0.076768 -0.299044
ls -0.039690 -0.362465 0.135335 -0.404353 0.333912 0.424003 0.491791 0.208364 -0.238544 -0.075490
nc-li -0.393530 -0.770161 -0.263884 -0.742102 -0.178982 0.381904 -0.513221 0.454838 -0.307465 -0.689340
pce-op -0.262476 -0.750569 -0.269310 -0.733444 -0.244262 0.175359 -0.781500 0.323494 -0.579222 -0.700621
plfp4---------- -0.536775 0.457513 0.202859 -0.018242 -0.131819 0.355537 -0.641252 0.322854 -0.564040 -0.012371
agmp1-----a---- -0.367078 0.394260 0.273757 -0.005243 -0.007964 0.410529 -0.499419 0.051773 -0.117739 0.014741
p5zs2--3------1 -0.483320 0.141867 0.398128 0.007145 0.195262 0.279102 -0.327780 0.321292 -0.054909 0.214917
pdl -0.341190 -0.865955 -0.045033 -0.364701 -0.416966 0.446303 -0.754557 0.190733 -0.448395 -0.537392
pdfs7---------- -0.584485 0.429493 0.513307 -0.008424 -0.205787 0.138908 -0.481183 0.432795 -0.043628 -0.272804
p4zs6---------- -0.225401 0.199538 0.552759 0.007490 0.329517 0.538194 -0.326669 0.210793 0.209669 0.049252
plfs1---------- -0.488354 0.340891 0.384755 0.263443 0.239444 0.294142 -0.482098 0.051121 0.014909 0.152413
pzyp4---------- -0.511031 0.393728 0.123634 0.193858 0.000180 0.378556 -0.400948 0.116284 -0.405017 0.002460
noun+case=ins+number=sing+number[psed]=none+number[psor]=none+person[psor]=none -0.122906 -0.385983 0.568449 -0.283847 0.011821 0.206794 -0.075212 -0.143319 -0.337650 -0.034078
ps+utr/neu+plu+def -0.053857 -0.009152 0.048314 -0.066643 -0.038378 0.003806 -0.037198 -0.056665 -0.091022 0.005986
noun+case=acc+number=plur+number[psed]=none+number[psor]=none+person[psor]=none -0.087786 -0.305562 0.532596 -0.247388 -0.085623 0.339319 0.004397 -0.160613 -0.362534 0.036401
prc -0.348702 -0.857393 -0.128436 -0.539617 -0.441149 0.265408 -0.703835 0.106466 -0.384544 -0.497648
p9xp6---------- -0.342442 0.130325 0.403492 -0.056437 0.259309 0.495165 -0.368005 0.330438 0.239038 0.167399
aais7----3a---- -0.354642 0.691353 0.436931 -0.009118 -0.064459 0.079462 -0.323421 0.420346 -0.190042 -0.241192
nnfs1-----a---1 -0.455005 0.262807 0.550542 0.257941 0.395686 0.026245 -0.347005 0.224990 0.007334 -0.067887
pzfp1---------- -0.403289 0.376598 0.271384 -0.408063 0.007522 0.367489 -0.606992 0.153176 -0.034930 0.035612
plip1---------- -0.305820 0.305237 0.349555 -0.166479 0.088752 0.521972 -0.741473 0.078657 -0.192429 0.077684
pszs6-p1------- -0.176944 0.316163 0.473525 -0.130978 0.335237 0.325113 -0.156233 0.246614 0.059640 -0.214575
ppys1--3------- -0.452635 0.143338 0.298134 0.165593 0.141399 0.345479 -0.536149 0.026042 -0.067191 0.000481
noun+case=gen+definite=def+gender=neut+number=sing -0.030247 -0.464682 0.328949 -0.382195 0.428527 0.838009 0.208104 0.514268 -0.549849 -0.062278
p5fs2--3------- -0.467418 0.152520 0.410298 -0.121273 0.297618 0.367160 -0.336152 0.354945 -0.119066 0.125322
adj+case=ins+degree=pos+gender=masc+number=sing -0.149342 -0.187151 0.549270 -0.189272 0.046736 0.781551 -0.695866 0.062167 -0.785501 -0.673803
aafp4----1n---- -0.444905 0.357229 0.283096 0.154964 0.106365 0.334783 -0.569897 0.490455 -0.551350 0.029726
verb+number=plur+person=1+tense=pres -0.528903 -0.585753 0.086044 -0.265885 -0.232317 0.710715 -0.867182 -0.076963 -0.616306 -0.246146
adv+degree=pos+prontype=default -0.150898 -0.372587 0.557934 -0.291186 0.045780 0.236088 -0.049925 -0.184549 -0.356142 0.074651
noun+case=ins+gender=fem+number=plur -0.145984 -0.419696 0.597043 0.055676 0.191136 0.669979 -0.452885 0.296615 -0.581626 -0.866418
vxitf-t3p -0.100292 -0.850563 -0.238341 -0.724065 -0.312340 0.492533 -0.710265 0.078541 -0.739643 -0.672229
nnfs2-----a---1 -0.587246 0.301973 0.217654 0.017069 0.469816 0.126236 -0.330304 0.406413 -0.086632 -0.089738
aaip1----2a---- -0.345091 0.360295 0.362738 0.030907 0.059556 0.464570 -0.589539 0.084489 -0.108745 -0.076252
pron+case=acc+gender=com+number=sing+person=1+prontype=prs -0.225346 -0.680121 0.310130 -0.444969 -0.042033 0.760885 0.164341 0.389743 -0.356972 0.023373
agis2-----a---- -0.456454 0.505742 0.191982 0.182210 0.321789 0.120296 -0.253748 0.405627 -0.180638 -0.148789
p8xp7---------- -0.410710 0.404017 0.330225 -0.187652 -0.084787 0.028354 -0.515612 0.268674 -0.166933 -0.231356
propn+animacy=anim+case=acc+gender=masc+number=sing -0.184130 -0.631503 0.385817 -0.477123 0.123685 1.014360 -0.975822 -0.051806 -0.375055 -0.648835
crfs7---------- -0.378104 0.356579 0.394532 0.074805 -0.038149 0.068188 -0.530358 0.341592 -0.040471 -0.205991
p8fs4---------- -0.444147 0.395151 0.293779 0.221791 -0.045989 0.238718 -0.318188 0.142827 -0.202091 0.097479
pron+case=acc+number=plur+person=3+prontype=prs -0.189279 -0.694503 0.252221 -0.403969 -0.089833 0.866297 -0.049183 0.338039 -0.420836 -0.076027
jj+pos+utr/neu+plu+ind+nom -0.014841 -0.018575 0.040501 -0.015234 0.045434 0.021108 -0.026877 -0.048693 -0.016182 -0.023244
pszt--1 -0.279384 -0.865291 -0.156891 -0.964405 -0.570676 0.450160 -0.436469 0.206573 -0.582187 -0.495129
hp+neu+sin+ind -0.005865 0.005107 0.064210 -0.042981 -0.007892 0.039362 -0.007157 -0.018653 -0.075125 -0.033716
ca--7---------- -0.373150 0.382754 0.386822 -0.193424 0.085758 0.048209 -0.445008 0.383151 -0.185824 -0.095588
agip4-----a---- -0.333492 0.361833 0.179418 0.147920 0.081934 0.288482 -0.409805 0.313570 -0.311291 0.062534
pn+utr/neu+plu+ind+sub/obj -0.026140 -0.039383 0.065118 -0.003219 0.008926 0.001799 -0.000468 -0.057038 -0.103791 -0.016579
adj+case=gen+degree=pos+gender=neut+number=plur -0.303475 -0.028389 0.575397 -0.311425 0.410590 0.789053 -0.699714 0.300715 -0.705261 -0.637884
dg-------3a---1 -0.432855 0.327268 0.359156 0.139873 0.173399 0.286300 -0.364880 -0.021407 -0.118667 -0.060364
aaip2----3a---- -0.477511 0.389790 0.195910 -0.057409 0.515884 0.105500 -0.124217 0.588165 -0.407239 0.035499
agfp4-----a---- -0.510153 0.385975 0.141399 -0.009310 0.010698 0.432398 -0.468090 0.439590 -0.509844 -0.011688
