4492 25
noun -0.125228 -0.785268 -1.201920 0.194311 1.786487 -0.002058 0.395313 0.562106 1.070768 -0.633968 -0.777075 0.531936 0.504929 -0.411848 -0.095595 0.901924 0.406774 0.009968 -0.375356 0.633728 1.078365 -0.061393 -1.690060 -0.532844 1.030088
punct 0.056441 -0.280302 -0.862203 0.234183 1.247905 -0.280795 0.683500 0.343135 0.827211 -0.412454 -0.212533 1.154374 0.474178 -0.469733 -0.033656 0.366217 0.281353 0.091132 -0.619531 0.557948 1.061924 -0.031739 -1.842634 -0.708363 1.174264
verb 0.098161 -0.229927 -0.927493 0.152926 1.398997 -0.024076 0.229309 0.243181 0.965984 -0.178500 -0.162320 0.675793 0.292572 -0.568838 -0.258818 0.196134 0.259005 0.007216 -0.555448 0.549709 0.984854 -0.283121 -1.447928 -0.619906 0.917460
adj 0.202351 -0.675500 -1.153818 0.399703 1.444453 0.051631 0.322508 0.653007 0.932912 -0.103976 -0.315965 0.971452 0.366543 -0.355497 0.185249 0.356150 0.613469 -0.446246 -0.484306 0.548222 1.159778 -0.240198 -1.391495 -0.734862 0.940334
adp -0.025195 -0.464985 -1.188548 0.399250 1.341605 0.346999 0.313459 0.077511 0.711229 -0.397508 -0.353341 0.821727 0.591508 -0.202038 0.314744 0.506996 0.351857 -0.153324 -0.382532 0.333241 0.735778 -0.137253 -1.336661 -0.583634 1.194129
z:------------- 0.230595 0.254370 0.406662 -0.449959 0.358925 0.613406 0.418489 -0.425900 -0.522080 -0.486352 -0.270407 0.123094 -0.152377 0.416153 0.095428 -0.116059 0.332032 0.178715 0.418453 0.069825 0.560303 -0.612577 0.047232 -0.209003 -0.268589
adv -0.074321 -0.552842 -0.995687 0.398924 1.428782 0.103281 0.209962 0.129271 1.011258 -0.124354 -0.285187 0.548451 0.048321 -0.560353 -0.133837 0.142335 0.257399 -0.212444 -0.426971 0.503589 1.265607 -0.122811 -1.288655 -0.540388 0.917184
pron -0.312504 -0.541908 -1.091126 0.563714 1.241744 0.289578 0.248038 0.002048 1.195957 -0.090648 -0.616163 0.490324 -0.361519 -0.446392 0.054074 0.072356 0.416175 -0.422490 -0.354295 0.390033 1.157407 -0.233582 -1.273051 -0.707737 0.806246
propn 0.087673 -0.211265 -0.067961 0.795054 0.825111 0.269208 -0.235746 0.417777 1.420293 -0.097711 -0.484346 1.913553 -0.151375 -0.775760 0.265831 -0.102434 0.680130 -0.885837 -0.208478 0.287238 1.733368 0.082920 -0.716668 -0.033036 0.687603
det 0.120802 -0.164564 -0.674623 0.620963 0.871415 0.247286 0.336163 0.281494 1.017725 -0.066242 -0.427377 1.168825 -0.065958 -0.361560 0.525909 0.283377 0.184213 -0.545666 -0.139115 0.412440 1.158526 -0.342906 -1.236032 -0.578838 1.028430
conj -0.336068 -0.098931 -0.847402 0.503130 1.241474 0.061166 0.359266 0.191750 1.040426 -0.424329 -0.218041 1.113662 0.094135 -0.193588 0.085278 0.284325 0.473507 0.038859 -0.554742 0.602108 1.208661 -0.087663 -1.379658 -0.586867 0.986608
num -0.050871 -0.598410 -0.383918 0.843816 0.744329 0.353211 0.451557 0.486627 0.721489 -0.302110 0.209442 1.531901 0.103580 -0.652720 0.616605 0.326381 0.493058 -0.421217 -0.237206 0.765943 1.238069 0.065081 -1.084427 0.044794 0.554798
n -0.674426 -0.069996 -0.123002 0.574893 0.540385 0.511656 -0.004485 0.468566 0.643402 -0.700226 0.380540 2.009897 -0.661596 -0.434669 0.569771 -0.468650 0.593440 -0.324881 -0.105741 0.450477 0.301945 0.696282 -0.435112 1.308040 -0.376317
v -0.423631 -0.707463 -1.333614 0.380362 0.749529 0.152771 0.091698 0.092099 1.439731 0.289936 0.060864 1.462237 -1.022874 -0.514128 0.840682 -0.585693 0.065635 -0.429730 0.158157 -0.072834 1.325325 0.378767 -0.351669 0.610036 0.190359
s -0.771197 -0.414074 -0.987163 0.937355 0.829452 0.442023 0.260916 0.723807 1.341776 0.174305 -0.318041 1.674000 -0.178468 -0.090144 0.488322 0.020399 0.416131 -0.170281 0.638853 0.253826 0.896475 0.605405 -1.056800 0.441869 0.185213
aux -0.012125 -0.125021 -0.754653 0.104791 1.153550 -0.575357 -0.140079 0.225214 0.943382 -0.032452 -0.459402 0.965628 -0.245665 -0.638651 0.452982 -0.395565 -0.072484 -0.037164 -0.531200 0.411502 1.495545 -0.084958 -0.608251 -0.113434 0.625043
j^------------- 0.439570 0.213529 -0.256513 -0.374574 0.432051 0.129032 -0.100790 -0.268492 -0.903341 -0.428064 0.137847 0.056510 0.127770 0.608862 -0.035757 -0.202044 0.336192 0.258299 0.241577 0.129908 0.255267 -0.377354 -0.124530 -0.365692 -0.309266
sconj -0.452991 -0.790335 -0.745637 0.750254 1.214442 0.172884 -0.145078 0.319158 1.228188 -0.283702 -0.335051 1.099381 -0.259131 0.059205 0.282368 0.015410 0.076554 -0.299747 -0.845046 0.235341 1.447956 -0.213496 -1.168449 -0.355305 0.353813
db------------- 0.715183 0.274228 0.185293 -0.119118 0.404747 0.064091 -0.287782 -0.160070 -0.422328 -0.120737 0.503612 -0.034299 0.055439 0.380397 0.169141 0.138190 0.664508 0.317439 0.189061 -0.323256 0.626758 -0.138417 0.084884 -0.043316 -0.369828
e -0.552083 0.117792 -1.579841 0.716782 -0.060259 0.458723 0.166396 0.459925 0.983035 0.440143 -0.293207 1.618885 -0.307304 -0.388946 0.881198 0.038534 0.663912 0.119823 -0.323012 0.047161 0.989752 0.198193 -0.974459 0.527264 -0.522139
rr--6---------- 0.345401 -0.322037 -0.024141 0.124254 1.198611 -0.112744 0.291230 -0.388695 -1.110466 -0.726609 0.138748 -0.524759 -0.589053 0.503935 -0.440307 -0.199921 0.166188 -0.531892 0.448720 -0.499910 0.461696 -0.082592 -0.620577 0.546869 -0.000848
n_sing -0.337632 -0.793537 -0.809536 0.467152 0.593357 0.219571 0.254347 0.368373 1.664636 -0.155750 -0.149524 1.034509 0.156397 0.104282 0.278973 0.795827 -0.188711 -0.510045 0.083907 0.410840 1.007160 0.126744 -1.461728 -0.201959 0.397984
vb-s---3p-aa--- 0.959258 0.119465 0.798758 0.323378 0.658154 0.289606 0.359645 0.265766 -1.074005 0.254012 0.322918 0.221945 -0.646449 0.282842 0.307066 -0.424491 0.299416 0.142835 0.540645 0.212990 0.165371 -0.060647 0.429125 -0.697651 0.150977
rd -0.633962 0.365773 -0.510555 0.652709 -0.501924 0.589341 -0.280637 0.192970 0.899043 0.343365 -0.154413 1.702846 -0.984665 -0.342505 0.873775 -0.448561 -0.268377 -0.449794 0.499149 0.187845 1.040859 -0.038257 -1.038367 0.714673 0.654507
nn 0.411603 0.126809 -0.448647 -0.143590 -0.469811 0.929605 -0.449789 0.629332 -0.428396 -0.316852 -0.710795 0.679586 -0.394226 0.111992 0.022241 -0.621429 0.011242 -0.287441 -0.520918 -0.670927 -0.404112 1.297685 0.263380 0.252020 0.959212
nnms1-----a---- 0.127240 -0.591925 1.614106 -0.841072 -0.019020 -0.436344 0.216817 0.198798 -0.586002 0.310210 -0.264448 0.406870 -1.033828 0.305346 -0.000787 -0.195235 0.352759 0.914199 -0.570344 -0.520303 0.792826 -0.920379 -0.617284 -0.474638 -1.101276
a -0.139940 -0.269236 -0.872155 0.684029 0.478097 0.632315 -0.125589 0.723671 0.926625 -0.204375 0.217965 1.719152 -0.519597 -0.409754 0.984952 -0.663635 0.369939 -0.507504 0.142999 0.485483 0.499259 0.343637 -0.723595 0.994512 -0.237282
punct+_ 0.118669 -0.160316 -0.450796 0.746323 0.959401 0.315608 0.561098 0.414635 0.861215 -0.757396 0.008045 1.610240 -0.561190 -0.585171 0.305908 -0.217990 0.091869 -0.341880 -0.015936 -0.046464 1.492345 0.067899 -0.700244 0.091824 0.422008
nnfs2-----a---- 0.103746 -0.130883 -0.002783 -0.679294 -0.567394 0.451600 0.226238 0.184550 -0.782128 0.055239 0.895419 -0.734531 -0.287530 0.356609 -0.041977 -0.371692 -0.385924 0.646629 1.227794 0.103257 0.768833 -0.308459 0.161113 0.076008 -0.388205
nnfs1-----a---- 1.153642 -0.270100 0.136494 -0.094746 0.092173 1.109704 0.434565 0.080666 -0.403822 0.066141 0.334850 0.289721 -0.254784 0.477992 -0.862198 0.758769 0.493150 0.359063 0.317227 0.723525 0.348451 0.622101 0.541293 -0.404566 -0.049902
part 0.297826 -0.427464 -0.463243 -0.170368 1.027002 0.761862 -0.031019 0.179136 2.005756 -0.260505 0.431363 1.110432 0.444491 -0.016482 0.373875 -0.425412 0.123909 -0.260763 -0.279576 -0.059827 1.028018 0.035625 -0.814785 -0.231482 0.404019
rr--4---------- 0.164945 0.092351 0.445337 0.134651 0.381818 0.199772 -0.489884 -0.072547 -0.272421 -0.418073 0.967881 0.853098 0.698256 0.481020 -0.148957 -0.435166 -0.093477 -0.043474 0.989969 -0.112126 0.259728 -1.057467 -0.139422 -0.305383 -0.251019
rr--2---------- 0.086674 -0.274246 0.068141 -0.582128 0.551144 -0.151484 -0.339634 0.511528 -1.315149 -0.612603 0.132628 0.285554 -0.289096 -0.216645 -0.058698 0.320541 -0.212209 0.126264 0.024059 0.907402 0.929896 -0.308242 -0.196487 -0.041221 -1.092045
c=------------- 0.475712 -0.874355 0.045049 -0.354509 -0.605869 0.369889 0.806837 -0.127089 -0.514085 -0.452257 -0.161062 0.874206 -0.751389 0.576261 0.569710 0.498780 0.959999 -0.559550 0.618343 0.384903 0.565773 -1.062288 0.007455 -0.035107 0.197671
j,------------- 0.596740 -0.074722 -0.147115 0.641456 -0.045507 0.445296 -0.160638 -0.356016 -0.708910 0.246207 -0.265993 0.248351 0.006084 1.201928 0.373666 0.237135 0.352660 0.579051 0.237448 -0.360790 0.331725 -0.359631 -0.149841 -0.394962 -0.645575
in 0.686296 -0.056953 -0.825401 -0.403933 0.190906 0.424453 -0.410042 0.922579 -0.224977 -0.683532 -0.559600 0.237121 0.408827 -0.112256 -0.230190 -0.100059 -0.336609 0.082382 -0.854769 -0.865440 -0.559416 1.109510 0.118631 0.381390 0.509316
_+_ -1.228552 -0.707840 -0.332817 0.858144 -1.122469 1.179092 0.131349 0.524110 0.807160 0.086359 0.444704 1.302919 0.652498 0.512752 0.989197 -0.662818 -0.642131 -0.703162 0.690052 -1.409184 1.558550 1.304922 0.145306 0.609483 -0.990792
_ -0.876931 -1.088176 -0.526116 0.863338 -0.830899 1.105860 0.538926 0.326170 0.858899 -0.167662 0.259311 1.165465 0.733747 0.571082 0.842340 -0.495108 -0.384054 -0.729303 0.175751 -0.915780 1.930574 1.194277 -0.391859 0.462560 -0.857078
vf--------a---- 0.526177 0.045698 0.082109 0.019836 0.344119 0.107742 -0.692468 -0.313617 -0.494571 -0.141144 0.647709 0.170740 0.076177 0.206872 0.086315 -0.114030 0.525046 0.199720 0.588281 -0.092646 0.627118 -0.420586 0.277826 -0.429790 -0.156394
nnis2-----a---- -0.362872 -0.607345 -0.233378 -0.045139 0.484368 -0.089416 0.238427 0.615547 -0.141197 -0.061464 0.324422 -0.373200 -0.984722 0.727060 0.004751 -0.170436 -0.108645 0.920040 0.687063 0.529378 0.707361 -0.742125 0.375885 -0.051011 -0.203915
nnis1-----a---- -0.099136 -0.289816 0.632204 -0.680311 0.610293 1.134825 0.223170 0.485461 -0.564302 0.140023 0.421830 -0.171589 -0.036580 0.021905 0.674940 1.020236 0.592735 0.605495 -0.088819 -0.406132 0.194789 -0.931652 -0.389476 -1.035110 -0.383294
dt 0.192120 0.218143 -1.241212 0.266741 0.197653 1.285497 -0.714843 0.937672 -0.159866 -0.196525 -0.396265 -0.230650 -0.417774 -0.249510 -0.484074 -0.577424 -0.566798 -0.302522 -0.795478 -0.356319 0.060666 0.873574 0.215358 -0.121569 0.227039
nnfs4-----a---- -0.206790 -0.442586 -0.081411 -0.206908 0.141977 0.195855 -0.508371 0.837846 -0.536881 -0.633615 -0.833014 0.070791 0.364398 0.726616 0.069995 -0.406625 0.692890 0.220476 1.638660 -0.494317 0.191353 -0.024208 -0.119754 -0.504865 -0.646531
p7-x4---------- 0.483540 0.135497 -0.010047 -0.236156 0.301078 0.287696 -0.133966 -0.574828 -0.558675 -0.474416 -0.261193 -0.787829 -0.073986 0.169207 -0.082009 0.082486 0.427810 0.571651 0.405664 -0.480304 1.219204 0.088936 0.337256 -0.234158 -0.428251
vpys---xr-aa--- 0.264468 -0.123149 1.122211 0.248306 0.365105 -0.163422 0.391972 0.375706 -0.972452 0.061245 -0.069509 0.302558 -0.443784 -0.012110 0.531957 -0.826962 0.046441 0.438788 0.202581 -0.908582 0.311086 -0.763253 0.311226 -0.349818 0.124180
dg-------1a---- 0.720317 0.409921 0.003563 -0.189873 0.390286 0.297659 -0.293920 -0.127309 -0.377938 -0.294836 0.750560 -0.129134 0.004031 0.515190 0.055929 0.095943 0.576549 0.157335 0.147893 -0.143877 0.640779 -0.237110 -0.101450 -0.257509 -0.242251
nnis4-----a---- -0.340667 0.429681 0.209045 0.388305 -0.098924 0.502233 -0.115085 0.141491 -0.269549 -0.190439 -0.146914 -0.091290 -0.305267 0.227424 0.205042 -0.350094 1.106945 -0.625829 1.634722 0.282596 1.017277 -0.578846 -0.923324 -0.648363 -0.388745
r 0.708287 -0.655638 -0.395590 0.598104 0.137754 0.134162 -0.442583 -0.593112 0.487864 -0.477703 0.391012 0.403440 -0.675708 -1.064681 -0.230739 -0.123079 -0.092797 0.044221 0.390754 -0.045757 -1.116683 -0.608255 -0.630993 0.208989 -0.114323
cc -0.445709 0.077100 -0.865282 0.715940 0.185709 0.443836 -0.211339 0.173402 0.765486 0.190732 0.133533 1.562689 -0.128447 -0.629514 0.384425 -0.539168 -0.206891 -0.056179 0.100645 -0.236905 0.730016 0.485234 -0.724016 0.723214 -0.507617
nnfs6-----a---- 0.402394 0.590681 -0.413850 -0.446724 0.050022 0.164622 0.067300 0.211373 -1.453580 -0.533768 -0.151808 -0.207570 -0.413002 0.180573 -0.060898 0.619027 1.457952 0.048200 0.671179 -0.283260 -0.890405 -0.269892 0.590294 0.764034 -0.305991
p -0.509541 -0.843398 -0.878387 0.520829 0.292347 0.443482 0.251048 -0.039482 1.256644 -0.061022 0.327181 1.067146 0.239265 0.271327 0.538710 0.234263 -0.114585 -0.292885 0.243131 0.192590 0.821841 0.140593 -0.901931 0.030060 0.131592
pun -0.374312 0.692945 -0.657441 0.423182 0.777064 0.327616 -0.422959 0.456105 0.644343 -1.235387 0.711002 2.421565 -1.539066 -0.739284 0.707434 -0.517333 0.000453 -0.341496 -0.149201 -0.106401 1.168963 -0.156110 0.006277 1.878036 -0.507461
nnfp2-----a---- 1.008561 0.356572 -0.289486 -0.421663 -0.711223 0.243735 0.449461 0.844649 -0.791339 -0.798374 1.211826 0.274235 -0.006034 0.221519 -0.442579 -0.139544 -0.333568 0.010224 0.517380 0.430568 0.578347 -1.116370 0.138394 -0.120838 -0.135977
nnp 0.693385 0.192661 -0.771686 0.130253 -0.015586 0.559140 -0.307774 1.046327 -0.967675 0.164684 -1.195258 0.508854 -0.354191 -0.466498 -0.964964 -0.221349 -0.120537 -0.226781 -0.969326 -0.505668 -0.136520 0.742313 -0.599344 0.558487 1.449136
sp -0.149480 -0.224986 -0.112101 0.631521 0.382393 0.643982 -0.354368 0.212930 1.461566 0.323702 -0.352859 2.122542 -0.306464 -0.447269 0.287348 -0.587430 0.432803 -0.350189 0.093790 -0.240278 0.852599 0.731703 -0.373564 0.368789 -0.054441
nnns2-----a---- -0.265398 -0.061306 -0.450427 0.339745 0.390757 -0.178738 0.963656 0.207427 -0.795064 0.308369 0.491548 -0.155830 0.041578 -0.248394 0.247445 0.156894 0.314725 0.950117 0.833220 0.678105 0.882963 -0.653529 -0.273088 -0.413155 -0.482809
prp 0.425181 0.551486 -0.810483 -0.571977 -0.138537 0.645097 0.228008 0.938875 0.109866 0.152270 0.275551 0.372034 -0.446643 0.051997 -0.651188 -0.822696 -0.576662 0.297953 -0.761759 -0.417695 -0.208610 1.398872 -0.272203 -0.059214 0.495230
ff -0.245583 -0.136377 -0.653504 0.572258 0.004600 -0.091969 0.195611 0.349001 1.130915 0.036477 -0.181796 1.179566 -0.393238 -0.591466 0.540717 -0.779346 0.195390 0.022587 0.122711 -0.335909 1.130285 0.282880 -0.866574 0.988426 -0.058528
jj 0.458145 0.627864 -0.732415 -0.151128 0.032451 0.593475 -0.675094 0.922297 -0.478760 -0.451975 -0.279688 0.599522 -0.565270 0.025186 -0.178377 -0.313469 -0.165081 -0.233270 -0.616367 -0.449722 -0.720444 1.086242 0.596669 0.234432 0.490578
rr--7---------- 0.418516 -0.488172 -0.224153 -0.992355 1.080530 0.700784 -0.438037 -0.530126 -0.739586 -0.263367 0.578726 0.057778 -0.068260 0.022488 0.464095 -1.071762 0.528128 0.804768 -0.012911 0.057537 0.155028 -1.000343 0.040694 0.114146 0.468670
con -0.531527 -0.731982 -0.453888 0.340336 0.471112 0.214077 0.150489 0.246798 1.290383 -0.114512 0.066270 1.144336 0.142901 0.145805 0.266917 0.202441 -0.059249 -0.379792 0.121133 0.174740 0.901036 0.236236 -1.022268 -0.182753 0.245222
vb-p---3p-aa--- 0.282469 0.991553 -0.051569 -0.247760 0.519068 -0.325983 -0.107839 -0.064862 -1.021263 -0.684836 0.095137 0.256924 -0.177690 0.650838 1.158629 -0.190475 -0.148168 0.522535 0.497201 -0.130864 0.124692 -0.154544 -0.108833 -0.280931 0.526038
rb 0.766225 0.493729 -0.880016 -0.255922 -0.131660 0.735744 -0.270617 0.958304 -0.095709 0.225159 -0.240513 0.472475 -0.118475 -0.168549 -0.299886 -0.722879 -0.390438 0.575410 -0.753321 -0.525333 0.029476 0.826400 0.335877 0.096686 0.397685
delm -0.617980 -0.744159 -0.305696 0.197852 0.663536 -0.110527 0.081355 0.210630 1.171789 -0.152637 0.016136 1.240199 0.162643 -0.076766 -0.098271 0.267036 -0.046896 -0.378953 -0.063710 -0.003367 0.864852 0.364547 -1.080855 -0.289088 0.258045
aafs2----1a---- -0.309490 -0.600372 0.541925 -1.725077 -0.852178 -0.111242 -0.139498 0.316074 -1.684921 -0.205148 0.413407 -1.065777 0.220102 0.185494 -0.043977 -0.471139 -0.500679 0.723565 0.869152 0.811983 0.329468 -0.101566 0.038669 -0.705757 -0.056300
nnip2-----a---- 0.898782 0.247123 -0.647137 0.347929 0.362873 0.097692 0.594121 0.746321 -0.463382 -1.241572 0.497690 0.070872 0.058685 0.074409 0.187743 -0.082960 0.104359 0.602134 0.527272 1.129970 0.900461 -1.162681 0.322495 -0.002161 -0.197396
. 0.430148 -0.078890 -0.792790 -0.159544 0.713856 0.933353 -0.941176 0.635969 -0.247340 -0.525857 -0.332516 0.111157 0.044864 -0.324757 -0.924955 -0.083919 -1.032411 -0.185970 -0.383185 -0.789895 -0.149914 1.178477 0.608932 0.492679 0.463124
fs -0.698046 -0.108245 -0.340594 0.580570 -0.068801 -0.012074 -0.214128 0.269246 0.721165 0.023480 -0.049588 1.560528 -0.142498 -0.838772 0.291737 -0.899936 0.487299 0.216837 -0.263095 -0.636584 0.377203 0.235391 -0.950925 0.846765 0.104271
nnis6-----a---- -0.086283 0.812446 0.044518 -0.455113 0.370519 0.006027 0.170508 0.316302 -1.284528 -0.263548 -0.158269 -0.154050 -0.788503 0.174627 -0.907530 1.067150 0.956012 0.190620 0.804717 -0.531124 -0.004753 -0.533141 0.241823 0.162992 -0.111706
c -0.513551 -0.011441 -0.104791 0.584720 0.587035 -0.052457 -0.198583 -0.060137 0.494004 -0.915716 -0.035888 1.493592 -0.947348 -0.345412 0.850649 -0.678431 0.002447 0.049169 -0.704858 0.122699 0.227731 0.456737 -0.184726 1.156025 -0.496091
vb 0.517651 0.638372 -1.386926 -0.474257 0.090512 0.757884 -0.387049 0.391921 -0.492334 -0.221212 0.087697 0.215080 -0.147437 -0.116416 0.334120 -0.399415 -0.735465 1.001740 -0.676864 -0.117512 -0.553623 1.504179 -0.073501 0.581897 0.696679
adp+adptype=prep 0.943308 0.017172 -0.493245 -0.244312 0.353021 1.231926 -0.451393 1.098237 -0.747316 -0.775920 -0.409079 0.808086 -0.530210 -0.194086 -0.642630 -0.498465 -0.098630 -0.112120 -0.592265 -0.741705 0.076651 1.207454 0.250455 0.109434 0.785143
aafs1----1a---- 1.550888 -0.820888 0.378531 -0.050460 0.754155 1.004747 0.086734 -0.555743 -0.824590 0.238936 -0.128744 0.378196 -0.433961 0.971643 -1.162503 1.209385 0.156337 0.547010 0.784113 1.125752 0.673223 0.920503 0.393272 -0.850724 0.590237
nnns1-----a---- 0.904599 -0.450402 0.767648 -0.196802 -0.188866 1.085731 0.043275 0.399847 -1.050910 -0.684505 0.514930 -0.214740 -0.227400 -0.094582 0.323148 0.271673 0.762889 0.103546 0.347656 0.300493 -0.076872 -0.005567 0.436401 -0.233501 -1.171282
nnns4-----a---- 0.038111 0.056494 0.351306 -0.521581 0.132744 -0.361951 -1.035731 0.707526 -0.810280 -0.229036 -0.354200 0.384245 0.019152 0.064679 -0.527876 -0.564964 0.911195 -0.126098 1.396354 0.541631 0.986727 -0.350036 -0.276021 -0.353204 -0.347613
nns 0.103401 0.108546 -0.769312 -0.302471 -0.366739 0.931691 -0.537644 0.652784 -0.175843 -0.143309 -0.681655 1.060138 -0.512232 0.293948 -0.373644 -0.609165 -0.209110 0.183496 -0.265468 -0.412156 -0.285824 1.103327 -0.014608 0.433762 0.706245
, 0.316025 0.357902 -0.391702 -0.259182 0.159039 0.967857 -0.852360 0.881615 -0.402445 -0.323905 -0.348839 0.278910 -0.125716 0.231588 -0.812607 -0.061856 -1.185202 0.462691 -0.991915 -0.494998 -0.017380 1.078432 0.246027 0.521685 0.638094
nnms2-----a---- 0.402857 -0.873764 0.186420 -1.046621 0.316849 -0.463085 1.357059 0.027354 -0.769979 0.203216 0.244506 -0.504981 0.365986 -0.337670 0.848213 -0.013980 0.560626 0.529125 1.717206 0.656157 0.317129 0.028852 -0.225871 0.327760 -0.739768
b -0.468843 -0.234514 -0.818059 0.622031 0.502981 0.120519 -0.208164 0.417038 0.966043 0.122237 0.075745 1.133243 -0.671710 -0.244850 0.566860 -0.722942 -0.177720 -0.207217 0.015221 0.213672 0.995047 0.550246 -0.528995 0.352184 -0.211405
pp -0.196908 -0.249438 -0.716901 0.254373 0.571880 0.212868 0.185005 0.052732 0.608178 -0.231354 -0.084265 0.635519 0.162393 -0.248836 0.157117 0.065556 0.101284 -0.069354 -0.225793 0.179465 0.500943 -0.123391 -0.518766 -0.357225 0.541123
nnns6-----a---- 0.079811 1.407126 -0.136559 -0.116754 -0.006022 -0.392468 0.292789 0.388862 -1.099627 -0.617078 0.219564 -0.293674 -0.456311 -0.336510 -0.837023 0.671510 0.461794 0.565302 0.656931 -0.167269 0.163084 -0.831332 0.259567 0.561710 -0.160282
vpqw---xr-aa--- 1.004767 -0.094600 0.265758 0.267421 0.542439 0.336673 0.083744 0.055478 -1.103984 0.200611 -0.241730 0.393506 -0.471041 0.779036 -0.146981 -0.074141 -0.357694 0.324708 1.212919 0.262768 0.435751 0.262592 0.688607 -0.170761 0.730875
aais2----1a---- -1.133865 -0.086714 0.022008 0.554543 -0.017371 -0.358015 -0.193516 0.071587 -1.441811 -0.385781 0.477145 -0.609887 -1.235080 0.432922 -0.255407 0.111700 0.266920 0.932198 0.294900 1.008738 0.448900 -1.322543 1.034774 0.030596 -0.767583
nnfs7-----a---- -0.034146 -0.384607 -0.290001 -0.902583 0.214532 0.649869 -0.528538 0.066731 -0.684400 -0.411295 0.476936 0.918724 -0.126676 0.107646 -0.177101 -0.299228 1.179012 1.198478 0.211952 0.689567 0.741627 -0.072351 0.153311 0.119181 0.952575
n_pl -0.295175 -0.537213 -0.629919 0.376061 0.191818 0.260549 0.159196 0.193954 1.188433 -0.032693 0.041441 0.787374 0.095492 0.295878 0.393330 0.311497 -0.137959 -0.376115 0.184633 0.346012 0.912893 0.391911 -0.864135 0.031399 0.061694
nnmp2-----a---- 1.168623 0.107455 -0.106969 -0.670160 -0.104089 -0.117800 0.545045 0.562655 0.027551 -0.697731 0.435253 -0.041600 -0.145837 0.341660 0.069576 0.474188 -0.650002 0.348837 0.701003 0.265509 0.683906 -0.953201 0.146063 -0.013303 0.356002
aais1----1a---- 0.389739 -0.266026 0.522561 0.201631 0.497565 1.885317 0.931660 0.132845 -0.907840 0.377778 0.730924 -0.673682 0.376408 -0.268918 0.483304 0.798989 0.798371 0.435070 -0.940920 -0.479118 0.144488 -0.747090 0.595153 -1.708179 -0.266381
nnfp1-----a---- 0.047699 0.658361 0.110613 -0.655349 0.172869 -0.090053 -0.077737 0.143045 -0.097400 -1.250497 0.571215 -0.595033 -1.225792 1.449998 1.301546 0.281488 -0.151048 0.459712 0.206110 -0.130221 1.172390 0.481467 -0.894068 0.045113 -0.005764
rr--3---------- 0.896087 -0.025939 -0.014835 -0.048821 1.086578 0.413582 -0.048961 -0.113538 -0.959476 0.042178 -0.132720 -0.156964 0.430196 -0.355709 -0.121671 0.680205 -0.683563 0.213309 0.894192 -0.522007 0.901711 -0.978504 -0.646626 0.077164 0.592208
conj+_ 0.217582 -0.230695 -0.557397 0.709125 0.704961 -0.033952 -0.282690 0.646664 0.353862 -0.571193 0.161680 1.616837 -0.579153 0.036178 0.292559 -0.544817 0.179727 -0.053626 -0.364771 0.145832 1.048753 -0.036097 -0.413118 0.036770 0.005558
nnis7-----a---- 0.553059 -0.192962 0.300051 -0.806388 0.199340 0.933160 -0.168839 0.447971 -0.366280 -0.242344 0.205747 0.082274 -0.025381 -0.055580 -0.029769 -0.294612 0.562004 0.799928 0.018564 -0.042847 0.716631 -0.690019 0.118563 0.767890 0.664626
tt------------- 0.566668 0.100067 0.076128 -0.096354 0.613868 0.102440 -0.112981 -0.093636 -0.400674 -0.623053 0.251674 0.235204 0.117057 0.438094 0.273058 -0.054082 0.705297 0.083692 0.548917 -0.228535 0.644355 -0.382760 0.303685 -0.300882 -0.304329
nnfxx-----a---8 0.291857 -0.330050 0.314409 -0.555840 -0.297434 0.058228 0.649712 -0.036784 -0.492173 -0.458979 0.033645 0.481303 -0.241252 0.800276 -0.038859 0.152060 0.694346 0.309114 0.766256 0.003228 0.112568 -0.443076 0.081171 -0.046841 -0.248418
vc------------- 0.471632 0.778988 -0.225144 -0.694690 0.273008 0.275000 -0.140116 -0.592799 -0.946391 0.985261 0.630794 0.384427 -0.720003 0.068512 0.195150 -0.322330 -0.316240 -0.118680 0.578543 -0.619040 1.205840 0.224855 0.393339 -0.273768 -0.819871
aafs4----1a---- -0.274789 -0.513578 0.823426 -0.235610 0.261204 -0.620842 -0.915121 0.164304 0.799314 -0.920893 0.079934 0.071474 1.009185 1.110094 -0.101967 0.193870 -0.042091 0.009764 2.313554 -1.034642 -0.091882 -0.904307 0.515559 -0.457456 0.018877
nnfp4-----a---- 0.551398 -0.002512 -0.264191 0.126833 -0.422448 0.065775 0.088002 0.254260 -0.170619 -1.342582 -0.055094 0.449819 0.112578 0.359160 -0.655069 -1.362501 1.291503 0.502312 0.804631 -0.207747 0.796452 0.108117 -0.655695 -0.458979 0.229946
vpmp---xr-aa--- 0.442353 0.417169 0.493357 0.108147 0.022705 -0.735707 -0.592612 -0.062847 -1.070714 -0.791138 -0.164547 0.561967 0.029657 0.028340 0.931111 -0.329014 -0.106796 0.622679 0.917967 -0.369540 0.357359 -0.341431 0.356057 0.270995 -0.097811
nnmp1-----a---- 0.195341 0.818681 0.062661 -0.727777 -0.202680 -0.369543 -1.015268 -0.058015 -0.759620 -1.113178 0.472952 0.792271 0.018561 0.393881 0.651805 0.356253 -0.114840 0.884500 0.834437 -0.271677 0.399423 -0.397648 0.072305 0.662304 -0.332935
adv+_ 1.082700 0.363636 -1.039624 -0.264945 0.224897 0.991169 -0.475936 0.862477 -0.036018 -0.387635 -0.329186 0.600917 -0.165110 0.149539 -0.400151 -0.575928 -0.391037 0.695030 -0.733543 -0.911222 0.327598 1.270694 0.445242 -0.382393 0.501528
v_prs -0.427790 -0.355854 -0.985323 0.043561 -0.036976 0.177887 0.231905 0.079917 1.067767 0.065224 0.361738 0.943226 0.181553 0.164762 0.093400 0.370471 -0.328420 -0.282819 0.083486 0.351212 0.931028 0.148539 -0.679825 0.008711 0.117160
noun+definite=ind+gender=com+number=sing 1.324730 0.222242 -0.600039 0.391001 0.125626 1.336904 -0.148510 1.478617 -0.376845 -0.311774 -0.868474 0.187340 -0.379433 -0.385473 -1.057823 -0.253527 0.365984 0.375249 -0.109199 -0.661614 0.075021 1.145177 0.385141 -0.488007 1.011512
fb -0.255497 -0.017089 -0.159909 0.513961 0.277184 0.240445 0.087626 0.207348 0.554588 -0.051517 -0.039567 1.605783 0.044475 -0.632474 0.615278 -0.502503 0.434094 -0.149660 -0.090246 -0.295178 0.741635 0.652251 -0.719583 0.604205 0.258725
va -0.293301 -0.083293 -0.764819 0.408913 0.319822 -0.385347 -0.211322 0.639514 0.828179 0.117359 0.148215 1.099519 -0.721590 -0.104842 0.568045 -0.843472 -0.341759 -0.172128 -0.261051 -0.025329 1.244866 0.435438 -0.356995 0.387635 -0.432171
vbd 0.401409 0.306438 -0.621416 0.244051 -0.235994 0.311896 -0.870437 0.883235 -0.305499 -0.296517 -0.674899 0.134390 -0.147057 0.069311 0.110470 -0.566871 -0.700478 0.848157 -0.308028 -0.630624 0.018559 1.388311 0.202711 0.812248 0.619622
aafp2----1a---- 1.064105 -0.011502 0.325459 -1.082955 -0.636392 -0.656617 0.199403 0.892376 -0.654844 -0.800132 0.586756 -0.096495 -0.374658 -0.025650 -0.757169 -0.635132 -0.441564 -0.103444 -0.512147 0.235941 1.144074 -1.563294 -0.212292 -1.261819 0.074074
vbp 0.489395 0.342478 -0.938796 0.309633 -0.074078 0.205286 -0.672817 0.826912 -0.072467 -0.205178 -0.626552 0.294166 0.212028 -0.040618 0.276812 -0.845526 -0.949591 0.726646 -0.225452 -0.707787 0.172663 1.283813 0.410990 0.883285 0.415977
nnip4-----a---- 0.348803 0.678410 -0.662188 0.694219 -0.652117 0.705810 -0.439860 -0.106902 -0.864026 0.319394 0.459966 0.778357 -0.479775 0.447340 -0.177694 -0.559943 0.718988 0.168969 0.983996 -0.112980 0.445317 -1.251430 -0.746030 -0.431097 -0.081173
vpns---xr-aa--- 1.171721 -0.230235 0.168616 0.441908 0.679999 0.284681 0.265345 0.539529 -1.411882 -0.240547 0.147548 0.090369 -0.210324 -0.297901 0.626500 -0.675219 0.166417 -0.086592 0.693376 -0.203410 0.160255 -0.199755 0.722245 -0.332220 -0.185877
aais4----1a---- -1.043520 0.046805 0.310751 0.461455 0.501061 -0.049694 -0.430147 -0.733303 0.748952 -0.201098 1.283262 -0.318731 -0.259266 0.686427 0.700790 -0.745673 1.265607 -0.430743 2.084274 -0.001223 0.678656 -0.993433 -0.207967 -1.065431 -0.059369
n,sg,nom -0.521720 0.202908 0.095190 0.655282 0.542314 0.305340 -0.492320 0.890881 0.094452 -1.579509 0.368736 1.797454 -1.302633 -0.272054 0.532663 -0.451728 0.409624 -0.640953 -0.296828 -0.267085 0.452246 0.177767 -0.278379 1.345708 -0.312964
nnip1-----a---- -0.162080 1.292871 -0.217644 -0.692491 -0.501541 -0.033131 0.247068 0.203937 -0.684514 -1.195600 0.483085 0.660881 0.030206 0.883449 0.592280 -0.002077 0.230022 0.931945 -0.091153 -0.347876 0.935297 0.803419 -1.132565 -0.324381 0.459355
vb+prs+akt -0.085272 -0.099534 -0.499599 0.082071 0.451266 0.114121 0.048824 0.085330 0.580042 -0.136840 -0.070112 0.427722 0.088259 -0.333609 0.093755 -0.083680 0.109697 0.045842 -0.164053 0.102828 0.431386 -0.028421 -0.509151 -0.198787 0.362447
pro -0.381746 -0.427055 -0.640531 0.259917 0.303262 0.320797 0.148694 0.176192 1.154734 0.124607 -0.087083 0.868577 -0.135136 0.131429 0.232818 0.285079 -0.046542 -0.309754 0.162863 0.211768 0.741088 0.357672 -0.779972 -0.013292 0.038404
aaip2----1a---- 0.862361 0.726868 -1.063073 0.836075 -0.699161 0.582992 0.410265 -0.200208 -0.874751 -1.037749 0.741828 -0.274716 -0.585020 -0.080133 0.506891 -0.151219 -0.362520 -0.246183 0.700441 1.530699 1.136037 -1.524139 0.213166 -0.636991 0.226215
vb-s---3p-na--- 0.946237 0.161905 0.812108 0.281665 0.740749 0.241761 0.205222 0.249927 -1.180106 -0.027864 0.678818 0.249600 -0.392017 0.294251 0.354065 -0.345085 0.309170 0.315322 0.570349 0.168961 0.243506 0.093252 0.400797 -0.587261 0.155365
nn+utr+sin+ind+nom -0.076700 -0.299537 -0.418010 0.220666 0.461991 0.042551 0.191997 0.208736 0.609550 -0.162888 -0.050894 0.436841 0.013642 -0.283265 0.137502 0.164677 0.165936 -0.067468 -0.131595 0.105631 0.379675 -0.034073 -0.415760 -0.208770 0.279386
vbz 0.162541 0.113081 -0.462925 -0.029721 0.119801 0.470326 -0.611244 0.792614 -0.179423 -0.499587 -0.618534 0.112980 -0.154655 -0.296170 -0.160330 -0.529739 -0.578710 0.448258 -0.437776 -0.829053 -0.226799 1.552438 0.274943 0.842712 0.706707
v,act,ind,pres,sg3 -0.642969 0.735089 -0.910300 0.647821 0.459555 0.286558 -0.616621 0.701108 0.358544 -1.193510 0.255190 1.579729 -1.011364 -0.737163 0.954930 -0.599340 0.362731 -0.068029 0.164165 -0.226720 0.483906 -0.252593 0.385611 1.567236 -0.559559
aans1----1a---- 1.377903 -0.724501 0.413744 0.381861 -0.249123 1.128397 0.652745 -0.307430 -0.764111 -0.913225 0.989805 -0.852096 0.204517 -0.175824 -0.064977 -0.370235 0.882766 0.462639 0.335654 0.099624 -0.005921 0.372730 0.809916 -0.843385 -1.217310
aafs6----1a---- -0.516915 0.493019 -0.234755 -0.121327 0.599338 -0.630696 -0.036032 -0.571192 -0.906375 -0.683656 0.335082 -1.983610 -2.073682 0.724503 0.299392 0.480266 1.532953 -0.226744 0.456605 -0.720710 -0.492113 -0.617115 0.554176 1.248555 0.299181
rv--6---------- 0.343278 -0.306246 0.084614 -0.105597 1.054787 -0.086037 0.418853 -0.351330 -1.167258 -0.869319 0.399355 -0.467884 -0.755767 0.257119 -0.524673 -0.160749 0.225805 -0.443013 0.371650 -0.517522 0.563499 -0.315118 -0.500897 0.692456 0.145151
v_pa -0.368941 -0.463864 -0.835513 0.114991 -0.103165 0.218984 0.206629 0.008982 1.016834 0.050556 0.363990 1.001138 0.100373 0.118609 0.087706 0.311435 -0.331821 -0.356970 0.092608 0.305552 0.861634 0.155186 -0.573147 0.069546 0.190646
pc -0.310707 -0.001355 -0.750686 0.308765 0.169997 -0.113189 -0.181976 0.584231 0.774076 0.198904 0.075788 1.045621 -0.664127 0.017175 0.662177 -0.656958 -0.266033 -0.157274 -0.166015 0.189272 1.206759 0.424359 -0.470729 0.259464 -0.471141
ri -0.564821 -0.046418 -0.350666 0.781685 -0.389566 0.181615 -0.312863 0.356428 0.685252 0.134452 0.462864 1.126389 -0.517769 -0.244630 0.600465 -0.933549 -0.376177 -0.098009 0.354504 0.103703 0.282429 0.309299 -0.835219 0.495369 -0.016122
aans2----1a---- -0.294290 -0.242114 -0.503107 0.624848 0.389702 -0.466128 0.132236 -0.212895 -1.628820 0.741048 -0.470339 0.070771 -0.005065 -0.351976 -0.152161 0.348428 0.323543 0.964585 1.243958 1.403307 1.067368 -0.599150 -0.788995 -0.852909 0.028004
mad -0.093456 -0.117870 -0.391430 0.162633 0.209914 0.126941 0.085473 0.045168 0.357553 -0.140521 -0.017363 0.373203 0.011173 -0.154961 0.099864 0.012871 0.028905 0.013415 -0.090908 0.011373 0.218083 0.006756 -0.299783 -0.166525 0.233957
propn+_ 0.690790 0.168224 -0.409606 -0.120390 -0.187329 0.723353 0.338020 1.622150 -0.396597 0.011744 -0.990160 1.134593 -0.393801 0.157147 -0.751206 -0.377681 -0.146355 1.139907 -0.927450 -0.818829 -0.345445 1.285373 -0.402390 -0.494961 0.328161
cd 0.566753 0.187804 -0.990801 0.411839 0.115901 0.736727 -0.006870 1.142817 -0.432085 -0.819899 -0.577037 0.776707 -0.533097 0.135204 -0.403248 0.129105 -0.690980 -0.802511 -0.406344 -0.294725 -0.103643 0.744988 0.466103 0.433634 0.618172
vbn 0.437006 0.499914 -0.877289 0.017766 -0.442178 0.496584 -0.362637 1.022406 -0.090716 -0.075021 0.071458 0.231192 -0.542933 -0.018898 -0.367564 -0.496962 -0.404463 0.209609 -0.658725 -0.675883 -0.161955 1.059667 0.318231 0.254103 0.690337
nnnp2-----a---- 0.898540 -0.078746 -0.626065 -0.431757 0.537286 -0.237851 0.244272 0.888674 -0.273996 -1.076692 0.605838 0.903436 -0.034890 -0.048882 0.607084 0.333388 0.217119 0.176218 0.586944 0.350527 0.759101 -0.807736 0.482834 0.153692 -0.378808
ncmsi 0.817508 -0.340901 -0.167583 -0.023563 0.041803 0.367175 0.227295 0.147649 0.398575 -0.362709 0.111834 0.248083 -1.456107 -1.094641 -0.100544 0.039595 -0.645403 0.371698 0.414826 0.174569 -0.611216 0.463106 -0.622088 -0.303279 -0.501607
sconj+_ 0.489135 -0.271620 -0.720243 0.832951 0.135237 0.452182 -0.669823 0.695487 -0.298451 0.023396 0.121151 1.107048 -0.325276 0.241401 0.600937 -0.268089 0.012371 0.262434 -0.705012 -0.431166 0.703580 -0.031886 -0.617012 -0.227734 -0.123074
cs -0.199677 -0.112443 -0.475167 0.647505 0.429231 -0.087540 -0.463661 0.239220 0.997388 0.224689 -0.021503 0.578151 -0.405178 -0.718909 0.972578 0.076882 0.273803 0.049334 0.444050 -0.030136 0.436873 0.584351 -0.755206 0.394908 -0.779570
ncfsi 0.880901 -0.178335 -0.082839 -0.337809 -0.573978 0.075680 0.120276 0.150699 0.557634 -0.571323 -0.075719 0.973436 0.006020 -1.374342 -0.424047 -0.043506 -0.393566 0.537156 1.172442 -0.154832 -1.049776 0.001059 -0.387328 -0.137460 -0.380464
nnns7-----a---- 0.472805 0.012254 -0.242197 -0.470364 -0.380102 1.063210 0.101878 -0.134134 -0.638241 -0.138628 0.653555 -0.167015 -0.098321 -0.180638 -0.051374 -0.679304 1.335136 0.817735 -0.059744 0.666592 0.479545 -0.111534 -0.299911 -0.258868 0.337411
aams1----1a---- -0.042576 -0.613696 1.431912 -0.894320 0.377424 -0.513056 0.099598 0.238365 -0.414616 0.027271 -0.394351 0.154724 -0.874932 0.107847 -0.063960 -0.441749 0.099133 1.170774 -0.642118 -0.793612 0.960150 -0.822546 -0.426753 -0.771130 -1.108274
pdns1---------- 1.191963 -0.173550 0.588835 0.207570 0.118742 0.830698 -0.249934 -0.258364 -0.202591 -0.474269 0.674060 -0.706513 0.302619 -0.031880 0.027050 0.415865 0.464239 0.338774 0.394648 -0.484614 1.061046 0.000132 0.557796 -0.304054 -0.838750
aafp1----1a---- 0.252847 0.305574 -0.215995 -1.102373 0.394632 0.346544 -0.338649 -0.144644 -0.743062 -0.736297 0.137096 -1.091948 -0.658711 1.225885 2.076789 0.470017 -0.367793 1.237226 -0.444511 -0.506922 1.275110 -0.216265 -0.823877 -1.061800 0.702419
n,sg,gen -0.329025 0.286621 -0.301712 0.721802 0.336823 0.762092 -0.193584 0.595811 0.515008 -1.391458 0.618920 1.284029 -1.249217 -0.314310 0.591027 -0.195462 0.354548 -0.459819 -0.250778 0.244215 0.578412 0.271558 0.168276 1.474242 -0.582420
vptp---xr-aa--- 0.007206 0.788611 -0.343823 -0.019299 0.429820 -0.284744 0.038754 0.387905 -1.083123 -0.490351 0.038024 -0.191596 -0.088649 0.787680 1.133336 -0.246013 -0.285181 0.328470 0.601031 -0.615969 0.636433 0.077372 -0.182777 -0.430882 0.508807
pcle -0.545832 0.287794 -0.325919 0.489012 0.499132 0.221049 -0.370589 0.658735 0.377657 -1.116979 0.533712 1.743889 -1.244561 -0.213090 0.469906 -0.626969 0.143692 -0.355348 -0.226122 -0.229973 0.440696 -0.008409 -0.035101 1.307646 -0.609491
vbg 0.248359 0.504243 -1.008425 0.169648 -0.456828 0.480083 -0.556744 0.990054 -0.044023 -0.151680 -0.054008 0.402403 -0.438215 -0.114419 -0.316327 -0.275430 -0.399025 0.125415 -0.401910 -0.643940 -0.418036 0.956943 0.050965 0.429717 0.730623
adv+degree=pos 0.753462 0.024231 -0.833398 -0.123176 0.041856 0.667201 -0.524794 1.024614 -0.146677 -0.266890 -0.072077 0.308805 -0.164883 0.049005 -0.198887 -0.159287 -0.304270 0.409300 -0.489013 -0.907987 0.437268 1.112912 0.079747 -0.672411 0.383014
md 0.960552 0.174170 -0.680434 0.495645 -0.070391 0.379870 -0.399974 1.021814 0.716368 0.186615 -0.588455 0.177010 0.128183 0.001386 -0.106596 0.198280 -0.675635 1.017579 -0.541813 -0.767628 0.123248 1.476825 0.631208 -0.257228 0.723969
to 0.971256 -0.109194 -0.929137 -0.229320 -0.200583 0.802291 -0.430417 0.847165 0.995625 0.090332 -0.270154 0.402844 0.091928 -0.157363 -0.566212 -0.139210 -0.099044 0.440685 -0.791533 -0.868656 -0.284570 1.061010 0.615382 -0.621985 0.945321
vb-p---1p-aa--- 0.418674 0.094439 0.139008 -0.188353 0.494023 -0.406227 -0.609539 -0.039222 -0.966678 -0.476529 0.595347 0.842909 -0.450850 -0.061990 0.501256 -0.403045 0.329881 0.350354 1.077044 -0.727881 0.504007 -0.376604 0.631863 0.065830 0.091366
nnfp6-----a---- 0.435921 0.316779 -0.704055 -0.186004 0.491019 -0.032164 0.794115 0.687823 -1.135325 -0.752607 -0.651763 -0.431538 -1.048107 0.117090 -0.894468 0.731795 1.008894 0.468952 0.431840 -0.424667 0.706554 -0.019528 0.016858 0.874980 0.170497
aais6----1a---- 0.456098 0.365604 -0.015686 0.214829 0.632760 -0.239630 1.021980 -0.576232 -1.834243 -1.040290 0.283415 -0.512338 -1.096379 0.469076 -1.809759 0.635959 0.995945 -0.530376 0.665801 -1.758097 0.654439 -0.191532 0.716711 1.059140 0.611004
aux+number=sing+person=3+tense=pres -0.422886 0.201918 -0.932456 -0.166187 0.076545 -0.281846 -0.352501 0.098756 -0.005840 -0.536931 1.079120 0.833105 -0.492367 -0.488268 -0.058096 0.142355 -0.722523 -0.026112 0.986264 -1.605662 -0.078057 0.401545 0.146928 -1.138974 0.251285
nnfs3-----a---- 0.853019 0.086590 0.102470 -0.756643 0.377741 0.164317 -0.009265 0.760067 -0.742301 0.187544 -0.193083 -0.071858 0.642301 -0.161423 -0.027267 0.817152 -0.438284 0.448514 0.687313 -0.751145 0.806898 -1.012378 -0.825235 -0.378760 0.829681
prp$ 0.023579 0.200934 -1.302385 0.342155 -0.075773 1.086054 -0.805703 0.926490 -0.003596 -0.354050 -0.194962 -0.042340 -0.595990 -0.314213 -0.555696 -0.432465 -0.578588 -0.155811 -0.490444 -0.122397 -0.284585 0.834200 0.161365 -0.369275 0.155366
ab -0.161017 -0.207553 -0.430212 0.183274 0.288243 0.121683 0.050174 0.085765 0.483851 -0.098822 -0.049272 0.351670 -0.012347 -0.224988 0.026946 -0.049024 0.036993 0.025946 -0.082858 -0.000698 0.260370 0.026782 -0.358642 -0.131847 0.190493
adp+case=loc -0.199708 -1.601430 -0.304681 0.111594 0.486765 -0.050386 -0.676193 -0.344963 -1.004386 -0.541350 0.754049 0.506935 -1.092336 -1.109955 -0.771296 0.226777 0.155844 0.650074 0.588848 -0.752447 0.378237 -0.334378 0.504951 -0.254387 0.562836
verb+mood=ind+tense=pres+verbform=fin+voice=act 0.912026 0.292689 -0.736212 0.053675 0.370236 0.907189 -0.058636 0.934382 -0.744472 -0.204974 0.320464 0.896500 -0.418614 -0.052760 0.114903 -0.198619 -0.520189 0.573059 -0.682308 -0.804286 -0.216916 1.337743 0.136427 -0.283071 0.685212
aux+mood=ind+tense=pres+verbform=fin+voice=act 0.953084 0.452139 -1.079805 -0.403110 0.750212 0.756374 -0.389308 0.656383 -0.585338 -0.149156 -0.017800 0.764480 -0.168332 -0.299992 0.055033 -0.627999 -0.699613 0.039443 -0.420790 -1.189459 0.175739 1.300502 0.140009 -0.597146 0.470319
aafs7----1a---- 0.012172 -0.982703 -0.193684 -0.513343 1.154942 0.194081 -1.134140 -0.431610 -0.175060 0.247717 1.021859 0.272850 -1.013716 0.600321 0.344098 -0.833981 1.318150 1.312385 -0.412071 0.916984 0.786605 -0.506069 0.342909 0.262572 1.231786
nnms7-----a---- -0.045920 -0.932289 0.109867 -1.152249 -0.060540 0.446581 0.203295 -0.308722 -0.484432 -0.162693 0.015502 0.810107 0.259148 -0.146308 -0.400230 -0.878232 0.768917 1.546207 0.409377 -0.400115 0.656598 -0.636111 0.525362 1.094965 0.451281
aans4----1a---- 0.935429 0.394340 0.807197 0.334477 0.296667 -1.162661 -0.703678 0.125906 0.454927 -0.197927 0.131517 0.546704 1.223170 -0.211351 -1.650163 -0.349616 0.077763 -0.208769 1.870690 -0.062858 1.290281 -1.148510 -0.029748 -0.433306 0.118074
p7-x3---------- 0.156078 0.280733 0.273001 0.122038 0.389376 -0.017966 -0.177635 -0.771703 -0.342522 -0.743069 -0.287957 0.145452 0.106577 0.107295 0.062584 -0.329624 0.549516 0.545481 0.481475 -0.667757 1.041449 -0.168513 0.208357 -0.359043 -0.742685
pcle,cc -0.452691 0.502972 -0.522792 0.482456 0.558936 0.469878 -0.341375 0.581549 0.457881 -1.207339 0.359562 1.635288 -1.157345 -0.515609 0.500473 -0.286441 0.400390 -0.279783 -0.196514 -0.075766 0.584423 -0.056778 -0.122579 1.412940 -0.492061
cp 0.699162 -0.432747 -0.402405 0.438309 0.019160 0.225752 -0.603516 -0.343209 0.171514 -0.540362 0.087715 0.180462 -0.926052 -1.105579 -0.218662 -0.247193 -0.338445 0.855229 0.161228 -0.188815 -0.877555 -0.219073 -0.707662 -0.445388 -0.058921
aaip1----1a---- -0.263068 1.566523 -0.622508 0.188861 -0.257443 -0.451135 0.715432 -0.662940 -1.145984 -1.612046 0.585513 0.033844 0.077791 1.420947 0.428053 0.327777 0.331742 0.723846 -0.239213 -1.243329 0.893395 0.972496 -0.436124 -0.837431 0.493352
aafp4----1a---- -0.139229 -0.574453 -0.629572 0.080386 0.197231 0.277620 -0.549545 -0.803307 -0.379053 -1.456573 -0.096093 1.392523 0.313655 0.455061 -0.630277 -1.192761 1.386033 0.944241 1.121476 -0.130717 1.088677 -0.562142 0.131615 -0.991853 0.993529
kn -0.128225 -0.133144 -0.444133 0.174827 0.248194 0.093624 0.086254 0.108981 0.402756 -0.145894 -0.019971 0.378845 -0.017684 -0.192169 0.109446 0.028087 0.048149 0.023255 -0.107529 0.033218 0.260720 0.000057 -0.321250 -0.132726 0.228763
v,act,ind,past,sg3 -0.845777 0.458034 -0.857760 0.601191 0.188998 0.349606 -0.321105 0.690313 0.144282 -1.117816 0.220538 1.342767 -0.978041 -0.657704 0.812286 -0.534321 0.445659 -0.080704 0.232859 -0.137491 0.536401 -0.156491 0.374314 1.501874 -0.378865
nnms4-----a---- -0.016922 -0.257185 0.831783 -0.202062 -1.076364 0.015220 0.378397 0.150642 -0.600449 -0.038133 0.185017 0.965840 0.214054 -0.632616 -0.445463 -1.250928 1.279809 -0.086631 1.028033 -0.219010 0.933314 -0.214378 -0.316510 0.194496 -0.384136
pr -0.533803 -0.205658 -0.574702 0.572676 0.209055 -0.037089 -0.262464 0.354743 0.767354 0.172590 0.256595 1.044044 -0.433776 -0.239191 0.543591 -0.800732 -0.067531 -0.110641 -0.053216 -0.082393 0.584797 0.306787 -0.327559 0.189715 -0.534458
part+parttype=inf 1.182025 0.226114 -0.830099 -0.152769 0.157127 0.507216 -0.824372 1.067000 0.103170 -0.644159 -0.636957 0.724555 0.223038 0.420722 -0.374093 -0.190989 -0.401277 0.164778 -0.506610 -0.862467 -0.025994 1.059332 0.116124 -0.757947 0.439242
tx 0.254480 -0.109687 -1.008857 0.785796 -0.040240 0.552039 -1.245784 0.388162 -0.392472 -0.224248 -0.313328 0.445715 -0.507159 -1.703459 -0.436498 -0.257005 -0.117102 0.873687 0.440926 -0.376795 -0.037181 0.214076 -1.403701 -0.659110 0.222745
n,sg,par -0.459022 -0.037662 -0.371497 0.675536 0.688807 0.195131 -0.456291 0.744603 0.307189 -1.370534 0.849864 1.477303 -0.790454 -0.041901 0.394252 -0.442168 -0.026750 -0.211383 -0.182146 -0.210548 0.372542 0.027281 0.045732 1.135934 -0.678685
nnixx-----a---8 0.155084 -0.554499 0.207131 -0.553925 0.072222 0.403520 0.789094 0.292869 -0.599477 -0.624081 -0.167414 1.007045 -0.337313 0.604710 0.043690 0.141990 0.737887 0.369757 0.796351 -0.062772 0.371219 -0.864456 0.664975 -0.233619 -0.068166
aaip4----1a---- 0.569489 0.763279 -0.873111 0.518263 -1.229357 0.608461 -0.726619 -0.326951 -1.094396 -0.255291 1.259493 0.745022 0.275065 -0.078875 -0.792810 -0.777256 0.248100 -0.334032 0.892600 -0.796288 0.823639 -0.861075 0.033242 -1.691046 -0.134369
mid -0.091773 -0.124412 -0.415685 0.182747 0.260754 0.109037 0.084355 0.064195 0.365035 -0.130836 -0.015866 0.371694 -0.007563 -0.209678 0.096670 -0.008313 0.054880 0.031120 -0.111345 0.060394 0.239415 0.009181 -0.339692 -0.129392 0.216724
pcle,cs -0.727055 0.230802 -0.507411 0.480257 0.392196 0.488896 -0.461269 0.390977 0.109125 -0.876708 0.240354 1.474284 -1.311496 -0.196552 0.368908 -0.479788 0.266075 -0.283295 -0.383613 -0.347323 0.350579 -0.113384 -0.108626 1.092012 -0.787973
nn+utr+sin+def+nom -0.140844 -0.220833 -0.409113 0.194307 0.261414 0.114573 0.085240 0.190251 0.488361 -0.120009 -0.034485 0.333100 -0.062879 -0.271066 0.078651 0.072189 0.113658 -0.031639 -0.050696 0.046528 0.210765 -0.031315 -0.357576 -0.099776 0.166382
nn+utr+plu+ind+nom -0.129011 -0.213450 -0.428312 0.157586 0.214077 0.114668 0.095893 0.170351 0.421080 -0.130507 0.011825 0.332733 -0.013903 -0.216526 0.006100 0.064384 0.058649 0.031423 -0.067665 0.032664 0.237414 0.006728 -0.295575 -0.075258 0.164630
vb-s---1p-aa--- 0.038433 -0.019510 0.293732 -0.172657 0.444143 -0.338663 -0.193690 -0.179453 -0.398045 0.264825 0.554383 0.707581 -0.082153 -0.288612 0.768891 -0.301112 0.767389 0.231523 0.876201 -1.071139 0.673284 -0.281947 0.442271 -0.323470 -0.462307
x -0.271086 1.041390 0.226585 0.258449 0.045270 0.519616 0.369219 0.746752 0.086662 -1.648568 -0.392178 2.607684 0.711197 -1.112218 -0.082637 0.245120 -0.905130 -0.865943 0.180196 0.726901 0.059121 -0.421646 -0.199745 0.838227 0.318354
noun+definite=ind+gender=com+number=plur 0.671500 -0.459152 -0.898579 -0.047276 -0.154789 1.264939 -0.004253 1.545303 -0.292240 -0.392229 -0.890213 0.503805 -0.296692 -0.319673 0.109584 -0.789582 -0.455113 0.445483 -0.020872 -0.309398 0.045039 1.170688 0.335984 -0.399523 1.040540
dg-------2a---- 0.511473 0.306543 0.013312 -0.279611 0.147366 0.366552 -0.290872 -0.010343 -0.527383 -0.542155 0.447637 0.091996 0.010806 0.284367 0.249100 -0.001702 0.365021 -0.211759 0.525811 -0.395035 0.739472 -0.300421 0.526800 -0.361106 -0.313182
sym -1.006738 -0.076565 -0.256481 0.266480 0.639106 0.665999 0.156944 0.939322 -0.022218 -1.020242 -1.093755 2.562406 -0.403915 -0.357123 0.158927 -0.542365 -0.017292 -0.676807 -0.541030 0.496762 0.513708 0.281257 0.395874 1.567383 -0.158360
det+definite=def+prontype=art 0.010895 -0.182860 -0.466929 0.570496 0.562314 0.190180 0.184338 0.528197 0.627655 -0.488521 0.209688 1.470037 -0.607679 -0.559082 0.232586 -0.102516 0.273191 -0.200658 0.051776 0.161115 1.516743 -0.020988 -0.974457 0.284235 0.470060
intj -0.321277 0.134109 0.037941 0.594170 -0.219670 0.284399 -0.436795 0.788605 -0.337019 -0.046329 0.298269 1.523277 -0.405166 -0.423486 0.854066 -0.051785 -0.045273 -0.620494 -0.470205 0.222819 0.579131 0.433630 -0.357168 1.001762 -0.736616
nnip6-----a---- 0.903161 0.835570 -0.008317 -0.208285 0.226868 0.346559 0.155683 0.739436 -0.672820 -0.622802 0.133673 -0.562774 -0.932001 -0.336974 -0.552316 0.099189 1.131654 -0.058813 0.284741 -0.529516 0.284531 -1.062886 0.191622 1.235679 0.066281
vb-s---3f-aa--- 0.475415 0.178579 0.366456 0.091106 0.958281 0.078721 0.415527 0.043563 -1.123333 0.098683 0.447297 0.221888 -0.633366 0.091272 -0.006035 -0.413045 0.439338 0.048771 0.651452 0.015718 0.481075 0.324709 0.758330 -0.790092 0.266357
vsys---xx-ap--- 0.274279 -0.473767 0.409885 -0.158580 0.771640 0.261598 0.294794 0.033877 -0.175694 0.064385 -0.035529 -0.382996 0.103281 -0.072529 0.099258 -0.225524 1.056849 0.304756 0.258043 -0.622543 0.589667 -0.762338 0.114578 -0.708545 -0.249714
pdns4---------- 0.560775 0.171547 0.414189 0.109538 0.233978 -0.149355 -0.532085 -0.264487 -0.158858 -0.181572 -0.227264 0.393645 0.105017 0.100875 -0.003474 -0.096658 0.879703 0.414366 0.838732 -0.699189 1.195861 -0.203698 0.246873 -0.889461 -0.469019
ncnsi 0.562926 -0.647241 -0.441778 -0.134176 -0.272909 0.443564 -0.087839 0.289733 0.737289 -0.715781 -0.312276 0.766397 -1.196683 -1.573422 -0.390421 -0.409496 -0.469113 1.056583 0.584137 -0.049926 -0.302128 0.532717 -0.574723 -0.139379 -0.073312
noun+definite=ind+gender=neut+number=sing 0.729607 0.620535 -0.663738 0.412978 -0.007152 1.517128 -0.254411 1.359502 -0.358909 -0.033197 -0.839836 0.525152 -0.622504 0.257830 -0.290026 -0.518359 0.117976 0.079988 0.075956 -0.714306 -0.206614 0.987350 0.018517 -0.618858 0.721008
noun+definite=def+gender=com+number=sing 0.869154 -0.050574 -0.729504 -0.125430 -0.354975 0.929964 0.020962 0.944469 0.095364 -0.194300 -0.650327 0.381458 -0.457569 0.361352 -0.604195 -0.217109 -0.078087 0.848303 -0.559115 -0.703890 -0.213377 1.020591 0.272397 -0.719068 0.503104
nnis3-----a---- 0.593220 -0.472203 -0.071190 -0.797092 0.625384 0.697161 0.280876 1.062703 -0.948103 -0.141569 -0.407477 0.065515 0.456913 -0.265268 0.026007 0.863704 -0.080401 0.754349 0.604091 -0.626525 0.948980 -0.611845 -0.717844 -0.350347 0.445388
adp+case=acc 0.304507 -0.378665 -0.792026 0.554875 0.732599 0.004248 0.225258 0.199518 -0.748892 -0.252917 0.251179 0.625317 -1.349828 -0.307988 -0.583449 0.227571 0.087189 0.801476 -0.123503 -0.986089 0.529383 0.000087 -0.188984 -1.311118 0.868297
aais7----1a---- 0.355075 -0.898127 0.208718 -1.083628 0.224218 0.600798 -0.175413 -0.011708 -0.876658 -0.258073 0.453383 -0.296085 0.670304 -0.314652 0.498654 -1.062952 0.683831 1.125753 -0.370034 -0.742012 0.731050 -1.015768 -0.075389 0.030868 1.631811
nnis6-----a---1 -0.066389 0.667680 -0.177922 -0.260799 0.549898 -0.128883 0.307905 0.221701 -1.359132 -0.347765 -0.047762 0.308692 -0.908101 0.005088 -0.879845 1.104829 1.207136 0.010114 0.827032 -0.772487 -0.142550 -0.728095 0.623674 0.199014 -0.065008
psxxxzs3------- 0.190589 -0.096032 0.078896 -0.365717 0.047180 -0.083988 0.096422 -0.228136 -0.631327 -0.041214 0.023615 -0.435423 0.046871 0.290654 -0.215975 -0.164424 0.144065 0.485472 0.772550 -0.044114 0.446909 -0.582055 0.267216 -0.485181 0.136319
nnmxx-----a---8 0.425719 -1.006075 1.093966 -0.836919 -0.819271 -0.680664 1.299239 0.097606 -0.459559 0.454536 -0.247251 0.909272 -0.180433 0.375793 0.325966 -0.165688 0.661673 0.838060 -0.083719 -0.159218 0.638834 -0.902746 -0.351462 0.066591 -0.429907
nnns3-----a---- 0.791442 0.021799 -0.150472 -0.822485 0.197239 0.768210 -0.254556 0.829843 -1.075349 0.219360 -0.430624 -0.450203 0.318976 -0.317761 0.027259 0.517872 -0.262940 0.512326 0.582557 -0.457913 0.239403 -1.166950 -0.543652 -0.193708 0.390349
aans6----1a---- 0.299308 1.012946 -0.106459 0.260171 0.498998 -1.435444 1.414145 -0.274128 -1.107935 -0.635323 0.359867 -1.218368 -0.893565 -0.606587 -1.036761 0.468864 1.108209 -0.223972 0.672187 -0.504715 -0.126526 -0.257581 0.051155 0.506974 0.296332
aamp2----1a---- 1.065011 -0.701579 -0.309372 -1.041639 0.239409 -0.253271 0.030434 0.618552 -0.494851 -0.862466 -0.549518 -0.112076 0.060153 0.230521 0.003056 0.790019 -0.504195 -0.022766 0.193821 0.374017 0.763619 -0.990175 0.226274 -0.789261 0.318308
verb+verbform=inf+voice=act 0.776521 0.700820 -0.948279 -0.287550 0.021194 1.147788 -0.282449 0.973779 -0.328811 -0.185579 0.607413 0.387694 -0.707085 0.059188 -0.346624 -0.138287 -0.357708 0.569679 -0.481915 -0.510201 0.316313 1.500081 0.365877 -0.216058 0.786501
aamp1----1a---- 0.429997 0.723170 0.171505 -0.500347 -0.364933 -0.710338 -1.537255 -0.894701 -1.305879 -1.112976 -0.186249 1.069738 0.350954 0.022909 0.692219 0.136517 0.138013 0.898650 0.996347 -0.429464 0.813180 -0.114807 0.184212 -0.096333 -0.317962
propn+case=nom+gender=masc+number=sing 0.189797 0.199050 -0.325774 0.058934 -0.462698 -0.834888 0.005218 0.505502 -0.592327 -0.553102 0.363091 0.591241 0.042588 -0.433646 -0.698344 0.596339 -0.806166 0.637216 0.642770 -1.389549 -0.908933 -0.155362 -0.290928 -1.593363 0.324461
nnmp4-----a---- 0.194500 0.172168 0.211223 -0.011448 -0.107929 -0.058261 -0.976499 0.221737 -0.344361 -0.287588 0.005988 0.491604 0.250027 0.356805 -0.097411 -0.029900 0.735930 0.711091 1.059963 0.478072 0.595770 -0.295992 -0.415809 -0.692205 0.016029
clitic -0.345724 -0.515782 -0.411789 0.235164 0.118863 0.255884 0.050393 0.117648 0.902473 0.023730 0.126779 0.709066 0.103335 0.105783 0.253515 0.020325 -0.185587 -0.220807 0.195298 0.104777 0.510699 0.379774 -0.600404 -0.001994 0.050331
aaxxx----1a---- 0.436775 -0.696901 0.126220 -0.304042 0.136928 0.097935 1.602217 -0.929197 -0.391521 -0.457652 0.536623 0.610412 -0.834647 0.367575 -0.261655 0.623730 0.263434 0.927568 0.745529 -0.077761 -0.350960 -0.081785 -0.348807 -0.071734 0.245786
v,act,infa,lat -0.551944 0.305680 -0.241479 0.260161 0.290255 0.269369 -0.264720 0.689748 0.341417 -1.049469 0.468286 1.493567 -0.970590 -0.302941 0.347842 -0.524615 0.391418 -0.149153 -0.165752 -0.318711 0.343685 0.190493 -0.037931 1.203434 -0.602116
ncfsd 0.267967 -0.252873 -0.174546 0.184223 -0.163516 0.028071 -0.564029 -0.245219 0.368014 -0.674531 -0.291694 0.141387 -1.251938 -1.289495 -0.224661 -0.197817 -0.394859 0.706790 0.921426 -0.000033 -0.540569 0.270108 -0.704355 -0.175140 -0.356793
v_sub -0.375722 -0.359312 -0.724603 0.084146 -0.060715 0.142755 0.169651 0.053726 0.806003 0.095298 0.256726 0.803013 0.080017 0.083312 0.056118 0.231542 -0.256727 -0.289422 0.076410 0.167908 0.661490 0.185545 -0.475937 0.117535 0.135627
vb+inf+akt -0.099285 -0.169953 -0.328605 0.168166 0.263950 0.094192 0.007042 0.081383 0.385131 -0.110027 -0.025015 0.323791 -0.043819 -0.179316 0.068044 -0.011904 0.026534 -0.002864 -0.062673 0.004149 0.187607 0.022769 -0.273727 -0.134106 0.145451
p4ys1---------- 0.393494 -0.951199 0.620992 0.111886 -0.059515 -0.364893 0.308408 -0.033200 -0.290239 0.311301 0.347322 0.306464 0.294059 0.326644 0.406004 0.190567 1.150311 0.794312 0.253667 -0.614311 0.494520 -0.858323 -0.102681 0.091578 -0.700657
noun+case=gen+gender=masc+number=sing 0.222039 -0.764053 -0.291354 0.358662 0.173060 -0.099459 0.303149 0.538262 -0.072637 -1.132015 0.782391 0.340229 -1.010831 -0.635252 -0.226200 0.358902 0.123520 0.592906 0.590738 -0.858248 -0.246935 0.349365 0.432666 -0.862246 0.272058
npmsi 0.013908 0.339845 -0.557462 0.535182 -0.064059 0.055543 0.272939 -0.296169 0.479100 -0.350362 -0.178501 -0.497682 -1.874976 -1.336504 0.143276 0.545871 -0.169769 0.489657 0.498875 -0.175808 -1.106988 0.261026 -1.097889 -0.330837 -0.181217
nn+neu+sin+ind+nom -0.087663 -0.154331 -0.342319 0.140863 0.225417 0.082119 0.027553 0.153799 0.423161 -0.114098 -0.017989 0.310900 -0.038463 -0.224998 0.042227 0.037635 0.068976 0.021685 -0.017304 -0.023649 0.151565 0.030784 -0.287201 -0.088841 0.163372
ppxta -0.172470 -0.371073 -0.204230 0.251405 -0.587337 0.238446 -1.010332 -0.059246 -0.424636 -0.550515 0.116996 -0.276737 -0.979484 -1.530347 0.409034 -0.183283 0.275571 0.879987 0.896589 -0.662123 0.161209 0.403109 -0.704531 -0.734986 -0.645668
num+numtype=card 0.868624 -0.658608 -1.166570 0.258044 -0.203105 0.481307 0.054095 1.316959 -0.087363 -0.537346 -0.067656 0.835970 -0.894028 0.321527 -0.252797 -0.227984 -0.507662 -0.015282 -0.565626 -0.133967 -0.009226 1.055573 0.449105 -0.646048 0.561101
noun+case=gen+gender=fem+number=sing -0.471742 -0.745864 -0.748412 0.484527 -0.129713 -0.156674 0.268079 0.450407 0.233480 -0.750074 0.708373 0.554605 -1.043025 -0.796174 -0.510578 0.010558 0.208810 0.734619 -0.287757 -0.983974 -0.344359 -0.090905 0.349468 -0.930954 0.391717
nnfxx-----a---- 0.535996 -0.658265 0.302794 -0.554329 0.148651 -0.003902 0.926968 -0.334983 -0.483689 -0.399476 0.409915 1.053641 -0.520735 0.490172 -0.327503 0.713031 0.400825 0.630551 0.893593 0.236188 0.081623 -0.262196 0.270623 -0.190046 -0.022399
v_pp -0.389769 -0.420607 -0.492643 0.133896 0.090395 0.064459 0.089972 0.103034 0.752231 0.022409 0.184550 0.795735 0.045358 0.001055 0.030543 0.168811 -0.167057 -0.297812 0.023409 0.050785 0.633137 0.256558 -0.495337 0.029618 0.114939
adp+case=gen 0.571018 -1.052827 -0.576941 0.188147 0.211171 -0.252977 0.292598 0.340337 0.057682 -1.090877 0.575701 0.544138 -1.393837 -0.206954 -0.477602 0.190324 -0.085068 0.478207 0.118559 -0.921830 0.317727 -0.446239 -0.319325 -0.806720 0.130369
noun+case=nom+gender=masc+number=sing -0.074518 -0.124977 -0.355147 -0.190703 -0.356238 -0.824079 0.117237 0.092353 0.001798 -1.172482 0.815279 0.242887 -0.898096 0.122503 -0.236164 0.487573 -0.443998 0.686451 0.404337 -1.347633 -1.018311 -0.880181 0.370053 -0.874146 -0.241129
vsqw---xx-ap--- 1.229195 -0.100828 -0.133844 -0.108461 0.654364 0.235716 -0.182015 -0.531383 -0.320934 -0.062293 0.100639 -0.272620 -0.351665 0.601132 -0.443619 0.396413 0.667392 0.231312 0.736294 0.353150 0.595771 0.140237 0.515939 -0.353796 0.443479
bn -0.244299 -0.200940 -0.618340 0.384010 0.209997 -0.105967 -0.242722 0.461795 0.682666 0.099496 0.164495 0.827644 -0.478447 -0.318107 0.451396 -0.713466 -0.237781 -0.139569 -0.194428 -0.104474 0.668199 0.367382 -0.384393 0.295193 -0.269949
nnfp7-----a---- 0.616150 0.329486 -0.260522 -1.039765 -0.068213 0.701748 -0.111868 -0.008405 -0.101133 -0.566907 1.049336 -0.000899 -0.273974 0.093027 0.853726 -0.961439 1.085320 0.516396 0.867251 0.418256 0.491643 -0.092877 -0.242975 0.436716 0.771556
adj+case=nom+degree=pos+number=sing+number[psed]=none+number[psor]=none+numtype=none+person[psor]=none+verbform=none 0.266715 -0.122670 -0.632924 0.686211 0.700949 0.293421 0.104172 0.433699 0.743112 -0.460568 0.216214 1.612994 -0.745411 -0.316914 0.280553 -0.134604 0.160702 -0.231348 -0.179758 0.198648 1.267019 -0.172040 -0.684506 0.179839 0.472414
a,sg,nom -0.392333 0.446741 -0.173128 0.387089 -0.037992 0.382852 -0.329012 1.000486 -0.020081 -1.044659 0.184742 1.249579 -1.244663 -0.548403 0.542634 -0.222596 0.365090 -0.712741 -0.103090 -0.197934 0.197225 0.214025 0.214300 0.992426 -0.236863
verb+mood=ind+tense=past+verbform=fin+voice=act 0.745872 0.313958 -0.664062 0.054545 0.594080 0.783250 -0.076615 0.660007 -0.794742 -0.067760 0.118813 0.651447 -0.385529 -0.230725 -0.063850 -0.165583 -0.376531 0.828517 -0.728232 -0.905880 -0.152688 1.108856 0.016589 -0.210464 0.696728
nnip7-----a---- 0.245683 0.292438 -0.164219 -0.539056 0.062783 0.396453 -0.033210 0.610554 -0.479885 -0.206017 0.757697 0.271786 0.017526 -0.223653 0.637577 -1.174818 1.264380 0.387770 -0.069093 -0.186268 0.567530 -0.537311 -0.815848 -0.049155 0.885709
n,prop,sg,nom -0.675764 0.083854 -0.055118 0.514593 0.096359 0.223035 -0.212127 0.698486 -0.114353 -1.021959 0.617002 1.328267 -1.087092 -0.417816 0.267964 -0.153843 0.424896 -0.561406 -0.169481 -0.229952 0.283683 0.287232 -0.204862 0.981360 0.100873
ap -0.485804 -0.301695 -0.551676 0.701077 -0.194981 0.255147 -0.026336 0.417337 0.608260 0.226046 0.366564 1.102940 -0.018091 -0.334060 0.423176 -0.278012 0.325357 0.010147 0.183111 -0.402353 -0.028703 0.196164 -0.499785 0.329493 -0.658264
rv--2---------- -0.005833 0.032094 -0.102862 -0.588852 0.309590 0.189769 -0.161730 0.438417 -1.096898 -0.466769 0.212537 0.135365 -0.290691 0.002472 -0.205576 0.060093 -0.110856 0.205542 0.283160 0.618883 0.669506 -0.528861 -0.097662 -0.242613 -0.830535
vm -0.295973 -0.004087 -0.553911 0.409754 0.062650 0.009863 -0.209047 0.446170 0.598522 0.168820 0.061276 0.813995 -0.487643 -0.143648 0.527206 -0.511439 -0.066164 0.040899 -0.177505 0.060310 0.659204 0.337741 -0.454971 0.229075 -0.540658
ncmpi 0.963033 -0.672068 0.097792 0.250352 -0.477991 0.074085 -0.654553 0.183097 0.595877 -0.730570 0.085284 0.282529 -0.734997 -1.049878 -0.147845 -0.296743 -0.612981 0.612126 0.902573 0.119374 -0.702381 0.514311 -0.711926 -0.359940 -0.609734
ncfpi 1.294309 -0.562595 0.154406 0.214569 -0.402637 0.213045 -0.584385 0.250172 0.550543 -0.564422 0.089221 0.403069 -0.544194 -0.979986 -0.263286 -0.217271 -0.629334 0.611576 1.073283 0.314760 -0.703289 0.578395 -0.758274 -0.351779 -0.626160
n,pl,nom -0.270356 0.119961 -0.227165 0.761625 0.494291 0.398302 -0.019651 0.501063 0.068483 -1.369278 0.677148 1.098810 -0.719780 -0.463126 0.713497 -0.545205 -0.007014 -0.411779 0.024081 -0.093678 0.139676 0.054142 -0.175574 1.066706 -0.122714
nnnxx-----a---- 0.279768 -0.149189 0.241964 -0.306352 -0.127955 -0.100036 0.995400 -0.085272 -0.604374 -0.281635 0.086075 0.457123 -0.392616 0.443061 -0.033737 0.556452 0.714882 0.583864 0.727026 -0.045253 0.261469 -0.574030 0.145868 0.141040 0.029563
aafp6----1a---- 0.261680 0.015621 -0.384894 -0.376483 0.281469 -0.846475 0.045317 0.553522 -1.879325 -1.294711 -1.215903 -1.445841 -0.658630 -0.183896 -0.518683 1.063942 0.836067 0.269778 -0.344108 -0.771929 0.842543 -0.864503 0.510424 0.618515 0.756440
npfsi 0.309826 0.161210 -0.049678 0.110796 -0.498435 -0.306807 -0.088019 -0.154155 0.482419 -0.435895 -0.190587 -0.245713 -1.110152 -1.111373 0.031531 0.584091 -0.436133 0.374861 0.625028 -0.258100 -1.387646 0.005358 -0.881941 -0.124671 -0.573495
det+gender=com+number=sing+prontype=ind 0.259695 -0.204319 -1.033197 -0.047855 0.369666 0.724421 -0.316781 0.848152 -0.257597 -0.314542 -0.392045 0.431574 -0.381923 0.018470 -0.930347 0.283373 -0.444192 0.015035 -0.730613 -0.838561 0.207058 1.365438 0.577300 -1.055101 0.200120
rv--7---------- 0.085526 -0.432018 -0.272779 -0.830194 0.855382 0.506213 -0.219150 -0.530294 -0.707712 -0.209187 0.729689 0.067049 -0.075274 -0.043135 0.275163 -1.039224 0.364912 0.723247 -0.166174 0.119876 0.292654 -0.914345 0.069192 0.111193 0.514414
verb+number=sing+person=3+tense=pres 0.189642 -0.247152 -0.202308 -0.405885 0.452473 0.139577 0.228384 0.157844 -0.769666 -0.362959 0.646604 0.659072 -0.996575 -0.708056 0.149293 0.114061 -0.264650 0.642466 0.249938 -1.363960 0.288600 0.095431 0.067900 -1.010547 0.031939
ncmsh 0.327501 -0.088849 -0.026265 -0.161836 -0.121097 0.041659 -0.260329 -0.180894 0.509539 -0.613107 -0.317511 0.416268 -1.435885 -1.318561 -0.333897 -0.300868 -0.592725 0.773011 0.905094 -0.008383 -0.664877 0.296752 -0.719522 -0.044858 -0.563268
dd -0.037179 -0.245714 -0.262455 0.393160 -0.409525 0.097142 -0.589101 -0.176690 0.908525 0.040467 0.157861 0.660032 -0.383756 -0.772869 0.523886 -0.370683 -0.625066 0.127620 0.423982 0.009427 -0.215126 0.322796 -0.816458 0.246964 -0.410588
psxxxxp3------- 0.204525 0.315276 -0.166314 -0.293193 0.039060 0.150331 0.042038 -0.392465 -0.784263 -0.331592 0.282691 -0.362265 0.163490 0.412288 -0.188183 0.140733 0.074556 0.446181 0.491446 -0.191940 0.580612 -0.514183 0.154811 -0.780527 0.308363
ncnsd 0.304884 -0.233700 -0.065221 -0.067557 -0.217632 -0.022165 -0.451419 -0.108422 0.349261 -0.608409 -0.316920 0.369680 -1.270072 -1.293381 -0.419407 -0.346837 -0.648021 0.779010 0.882267 0.034155 -0.575968 0.255758 -0.750460 -0.170223 -0.515881
p4fs1---------- 0.861535 -0.917755 0.243614 0.359297 0.043107 -0.332380 -0.103313 -0.055287 -0.221138 0.063603 0.294881 0.254078 0.316945 0.989343 -0.123802 0.811133 0.704148 0.482052 0.670504 -0.185643 0.284466 0.145871 0.384198 -0.114998 -0.263241
vpitf-r3s 0.733509 0.079203 -0.758999 -0.032051 0.035632 0.710559 -0.762742 -0.611687 0.732772 -0.267954 -0.214057 0.176143 -0.650032 -0.989661 0.166528 -0.116022 -0.704419 0.941692 0.294774 -0.443780 -0.878862 0.369597 -0.633144 0.022604 0.011421
vsns---xx-ap--- 0.953656 -0.381232 -0.029445 -0.371212 0.025967 0.847698 0.081216 0.119364 -0.448771 -0.691705 0.614726 -0.351005 -0.105108 -0.139250 0.009383 -0.268607 0.540582 0.142164 0.422724 -0.206666 0.693926 -0.258214 0.707138 -0.063953 -0.535786
adj+degree=pos+number=plur+variant=long 0.748130 0.108612 -1.503610 0.132790 -0.317245 0.621622 -0.031412 1.127792 -0.238696 -0.731302 -0.330520 0.734531 -0.974760 0.308133 -0.047842 -0.343484 -0.762852 0.170648 -0.269595 -0.041092 0.100888 0.759177 0.356796 -0.449215 0.993576
vxitf-r3s 0.589483 -0.278873 -0.597635 -0.163669 -0.006270 0.330832 -0.701007 -0.611953 0.392380 -0.344540 0.268252 0.465536 -0.794894 -0.856969 0.052315 -0.199510 -0.648282 0.723559 0.306340 -0.725905 -0.558016 0.008746 -0.384928 -0.458240 -0.211407
nnxxx-----a---8 0.654868 -1.157459 0.669971 -0.148531 -0.922448 0.018581 1.289422 -0.339356 -0.751994 0.099601 -0.146932 1.038693 -0.262212 1.062971 0.217934 0.967960 0.861722 0.820563 0.479254 0.169106 0.275956 -0.037614 0.064876 -0.551221 -0.301720
nnis2-----a---1 -0.503247 -0.587684 -0.265870 -0.285279 0.974549 -0.163582 0.295891 0.622504 -0.236983 -0.518770 0.385702 0.430419 -0.851071 0.531381 -0.303621 -0.067311 0.249835 0.422806 0.778913 0.319819 0.901908 -0.888246 0.762261 0.120719 -0.371015
vpys---xr-na--- 0.387078 -0.142351 0.639194 0.339957 0.214935 -0.200084 0.245826 0.197275 -0.862746 -0.113345 0.324215 0.310178 0.009282 0.180160 0.381606 -0.560033 0.131411 0.461595 0.301729 -0.602492 0.350321 -0.172064 0.301569 -0.261684 -0.188187
verb+definite=ind+number=sing+tense=past+verbform=part,trans 0.731634 0.504569 -1.007816 -0.000239 0.181072 0.843416 -0.351288 0.677624 -0.197602 -0.317246 -0.145131 0.418994 -0.406210 0.208163 -0.169899 -0.291638 -0.167610 0.661478 -0.562592 -0.363870 0.202841 1.356578 0.170315 -0.396391 0.624980
nnmp7-----a---- 0.004295 0.004612 -0.374251 -0.732544 -0.128229 0.327979 0.133773 0.245676 -0.103527 -0.552315 1.086832 0.447125 -0.110048 0.157433 0.325986 -0.535058 0.928780 0.877933 0.191578 0.006697 0.189385 -0.701068 -0.124526 0.054853 0.306073
jj+pos+utr/neu+plu+ind/def+nom -0.086726 -0.120116 -0.336962 0.130762 0.123820 0.065663 0.028529 0.127112 0.281578 -0.083980 -0.019030 0.222904 -0.048036 -0.116662 0.039672 -0.023771 0.057552 0.065151 -0.003282 -0.042824 0.128867 0.036455 -0.182355 -0.091704 0.090305
noun+case=nom+number=sing+number[psed]=none+number[psor]=none+person[psor]=none 0.338091 -0.410345 -0.494028 0.682846 0.742488 0.277196 0.010792 0.541938 0.570914 -0.449211 0.162346 1.418216 -0.822119 -0.125464 0.385277 -0.300940 0.047401 -0.279857 -0.127484 0.216745 0.899568 -0.044130 -0.748592 -0.006597 0.403088
dq 0.053047 -0.370809 -0.342850 0.552100 -0.468945 0.015504 -0.801319 -0.091604 0.785008 0.059155 0.193763 0.572936 -0.297561 -0.943249 0.412068 -0.235770 -0.604431 0.054482 0.411481 0.013279 -0.281890 0.353265 -0.906433 0.123898 -0.367937
nnmp3-----a---- 0.581539 0.260301 0.023210 -0.181501 0.299721 0.130290 -0.155754 0.093107 -0.297162 -0.222037 0.168667 0.415532 -0.031930 0.081664 -0.029387 0.060540 0.338028 0.548893 0.686880 -0.038339 0.552319 -0.354514 -0.262297 -0.277493 0.190631
noun+case=gen+gender=masc+number=plur 0.330193 -1.315427 -0.016560 -0.096385 0.101532 -0.259103 0.166646 0.569338 0.094338 -1.425785 0.539900 0.453408 -0.905729 -0.809826 -0.267556 0.090135 -0.103813 0.833613 0.565790 -0.592980 0.099170 0.115906 0.230244 -0.837842 0.195286
noun+case=acc+gender=fem+number=sing 0.482449 -0.364324 -0.755883 -0.180256 -0.067980 0.292290 0.313508 0.291438 -0.153535 -0.884405 0.251546 0.252163 -0.545990 -0.726423 0.026866 0.651718 0.031913 1.138444 0.642565 -1.007040 -0.221380 0.125358 0.364601 -0.824245 0.782197
hmsi 0.368659 0.500949 -0.436529 0.065430 -0.189958 0.106525 0.262362 0.103667 0.468108 -0.152225 -0.359591 0.206802 -1.319124 -1.365150 -0.016812 0.539956 -0.114488 0.469841 0.204597 -0.460969 -1.388446 -0.167659 -1.226217 0.154329 -0.403288
noun+case=nom+gender=fem+number=sing 0.037198 0.053184 -0.819152 -0.228718 -0.317526 0.039368 0.039719 0.910752 -0.189369 -0.630958 0.602900 0.572070 -1.165826 -0.798901 -0.223342 0.497855 -0.001656 0.496947 0.580557 -1.299329 -0.021952 -0.359500 -0.108072 -0.877652 -0.440058
nnnxx-----a---8 0.228033 -0.463204 0.081940 -0.315963 -0.083023 0.094006 0.838881 0.131100 -0.737538 -0.249049 0.018795 0.462966 -0.301670 0.387835 0.026904 0.230202 0.641012 0.243496 0.437898 -0.056028 0.418636 -0.635885 0.250145 -0.248370 -0.070511
vstp---xx-ap--- 0.159389 0.556808 -0.273705 -0.368736 0.061062 -0.474159 -0.334728 -0.072414 -0.610891 -0.699212 0.224182 -0.485615 -0.125351 0.747470 0.585976 -0.053495 0.434718 0.504263 -0.027888 -0.447450 1.310259 0.045377 -0.349336 -0.467764 0.323081
verb+gender=masc+number=sing+verbform=part 0.324644 0.157808 -0.078657 0.200871 -0.136583 -0.610016 0.237738 0.186583 -1.028406 -0.339278 0.435950 -0.204454 -1.019520 -0.358124 -0.180926 0.756497 -0.101365 0.744821 0.654494 -1.104306 -0.483695 -0.215384 -0.404063 -1.626395 0.036159
di -0.367310 -0.022030 -0.356194 0.651694 -0.291983 0.246463 -0.201917 0.205263 0.542082 0.183971 0.303987 0.921865 -0.282020 -0.294079 0.478174 -0.564828 -0.099609 -0.068844 0.261999 -0.017769 0.250282 0.131413 -0.597833 0.318828 -0.195345
pdzs6---------- 0.174789 0.720588 -0.135734 0.237662 -0.018848 -0.426847 0.609890 -0.283441 -1.129461 -0.449811 0.262718 -0.662722 -0.720953 0.023412 -0.686298 0.678264 0.953482 0.153922 0.589239 -1.279976 0.211576 -0.149467 0.745801 0.108210 -0.305643
aaxxx----1a---8 0.495980 -0.467296 0.127076 -0.337377 -0.527656 0.130915 1.130083 0.087845 -0.685104 -0.351707 0.165810 0.596763 -0.495684 0.776413 0.099611 0.387862 0.467465 0.502824 0.501358 0.110335 0.185610 -0.460433 0.049256 -0.357093 -0.070105
a-pi 0.967861 -0.661792 -0.096377 0.816400 -0.259633 -0.456149 -1.319904 -0.140690 0.218663 -0.835880 -0.215311 -0.127301 -0.741810 -0.746215 -0.612934 0.254163 -0.935302 0.464194 0.759044 0.032553 -0.962074 0.055446 -0.967910 -0.444264 -0.114934
aanp2----1a---- 0.675708 -0.378024 -0.715657 -0.640236 0.194985 -0.917105 0.684129 0.171605 -0.285323 -0.593002 0.412344 0.404778 -0.060900 -0.497670 1.104409 0.317125 0.252805 -0.771481 0.868591 0.824542 0.724090 -0.908782 0.410390 -0.372913 0.019405
vb-p---3p-na--- 0.448939 0.584856 0.150391 -0.158466 0.146238 -0.218949 -0.327934 0.111410 -1.059398 -0.699357 0.407665 0.131195 -0.165547 0.412033 0.649722 -0.042590 0.025732 0.532141 0.433556 -0.279080 0.338440 -0.132241 0.077410 -0.465272 0.390297
pdzs2---------- -0.416590 -0.471274 -0.080428 0.144584 0.066138 -0.318631 0.165122 0.122787 -0.854492 -0.129801 0.114483 -0.171107 -0.246284 0.225234 -0.086598 0.234738 0.110027 0.499972 0.829315 0.460163 0.869990 -0.734288 0.676867 -0.339170 -0.411115
rg+nom -0.106464 -0.133115 -0.309691 0.131961 0.156575 0.059243 0.047414 0.118989 0.311415 -0.109976 0.007040 0.274864 -0.053397 -0.160808 0.046640 -0.008073 0.042145 0.063468 -0.041135 -0.018004 0.162730 0.022938 -0.243579 -0.079876 0.098826
noun+definite=ind+gender=neut+number=plur 0.620634 -0.211443 -0.808698 0.009326 -0.242566 0.981416 -0.091804 1.327280 -0.215469 -0.285943 -0.646771 0.445774 -0.329784 -0.226537 -0.065062 -0.580165 -0.405444 0.471135 -0.047257 -0.295853 0.074987 1.045818 0.245009 -0.500825 0.770769
nnnp4-----a---- 0.865566 0.558479 -0.284471 -0.219035 -0.554463 0.430020 -0.467037 0.377743 -0.412649 -0.733046 0.404661 0.443972 -0.220355 -0.025475 -0.084921 -0.453457 0.230127 0.233242 1.238701 -0.255840 0.137763 -0.593542 -0.234186 -0.614074 -0.354233
verb+verbform=inf 0.239696 -0.045104 -0.688188 -0.110402 0.262156 0.311844 -0.282104 0.252084 -0.820169 -0.362385 0.323341 0.291238 -0.914316 -0.516444 -0.139338 0.335670 0.057737 0.962518 0.535716 -0.923741 0.464833 -0.013949 -0.028025 -1.096965 0.216927
n,pl,par -0.349944 0.135918 -0.154483 0.600153 0.420360 0.279364 -0.076829 0.737792 -0.054246 -1.064559 0.460714 1.201781 -0.768827 -0.326707 0.447945 -0.271821 0.146353 -0.275011 -0.168826 -0.226796 0.000341 0.126976 -0.038786 0.893441 -0.294907
vpptf-o3s 0.435918 0.298419 -0.680696 0.033872 -0.110275 0.426326 -0.293784 -0.569540 0.642697 -0.173013 -0.230735 -0.019148 -0.878890 -1.109693 0.199873 0.304523 -0.349141 0.879026 0.217605 -0.550036 -1.309928 -0.005566 -0.719263 0.077167 -0.045858
noun+animacy=inan+case=acc+gender=masc+number=sing 0.755667 -0.258028 -0.649799 0.178704 -0.066334 0.230794 0.668821 0.281474 -0.175662 -0.867498 0.537307 0.088607 -0.477230 -0.487514 0.144355 0.588380 0.359703 0.833838 0.714186 -1.269440 -0.013109 -0.003930 0.255781 -1.088020 0.455882
aans7----1a---- -0.187947 -0.256234 -0.129605 -0.499049 0.033808 0.530533 0.328567 -0.836510 -0.179366 -0.177576 1.470012 -0.376042 0.014281 -0.066924 0.521555 -1.082373 0.792927 1.147164 0.161818 0.373553 -0.178080 -0.661288 0.177545 -0.157106 0.576975
nn+neu+sin+def+nom -0.058890 -0.130926 -0.238096 0.120994 0.139196 0.075299 0.039055 0.106503 0.254054 -0.060866 -0.022193 0.188091 -0.085201 -0.148957 0.020512 0.036421 0.021554 0.023916 -0.002350 -0.033604 0.104331 0.043635 -0.200270 -0.063794 0.096878
v,neg,act,sg3 -0.761788 0.198471 -0.612020 0.374189 0.320572 0.224079 -0.115873 0.555577 0.256326 -0.519565 0.134217 1.373456 -0.801773 -0.377711 0.374946 -0.611725 0.381963 0.099912 0.047255 -0.393725 0.443238 0.045225 0.055057 0.959039 -0.631411
db------------1 0.283376 0.060717 0.234296 -0.275448 0.374598 -0.075145 -0.061910 -0.295260 -0.427754 -0.137846 0.292230 0.195315 -0.034964 0.179289 -0.031303 0.346613 0.776084 0.405179 0.391884 -0.587493 0.872129 -0.069021 0.289986 -0.348255 -0.260763
fc -0.306458 0.012920 -0.345841 0.426065 -0.159171 0.149683 -0.170326 0.210136 0.458855 0.066344 0.140858 0.805987 -0.184126 -0.421242 0.329849 -0.446394 0.050375 0.041615 -0.082743 -0.161820 0.109365 0.107687 -0.509720 0.385027 -0.095819
aams2----1a---- 0.418162 -0.504291 0.389584 -1.018870 0.598622 -0.457011 1.295693 0.149203 -0.623949 0.181128 0.112936 -0.095311 0.191796 -0.456698 0.506096 -0.254768 0.138732 0.180797 1.231230 0.674655 0.241962 -0.147904 -0.068847 0.032604 -0.682030
pdzs7---------- 0.373677 -0.170677 0.250752 -0.213255 -0.115887 0.342453 -0.170217 -0.308575 -0.391499 -0.175149 0.499406 0.237461 0.311193 0.244052 0.353500 -0.304318 0.661441 0.849665 0.022005 -0.817762 0.966312 0.038749 0.372448 -0.199696 0.357570
nnnp1-----a---- 1.325680 0.794883 -0.475678 -0.493181 0.174523 0.064953 0.140070 -0.301993 -0.113311 -0.540547 0.389983 0.045162 -0.434452 0.648717 0.302373 0.095739 0.168712 0.706390 1.018601 0.215872 0.621542 0.464623 -0.187095 0.037654 -0.259159
aaip6----1a---- 0.587231 0.236992 -0.084061 0.028926 -0.335571 0.185921 0.234708 0.072252 -1.374280 -0.503169 0.403257 -1.400482 -0.907874 -0.587957 -0.419370 0.166365 1.576597 -0.636606 -0.160151 -0.562983 -0.278918 -0.515710 0.941473 0.279940 0.004185
jj+pos+utr+sin+ind+nom -0.012208 -0.103489 -0.193227 0.105131 0.190282 0.052541 0.061816 0.048537 0.235288 -0.098906 0.007856 0.261501 -0.042663 -0.156986 0.081640 0.006354 0.058518 0.041074 -0.089702 0.028269 0.147560 -0.006896 -0.161514 -0.101809 0.164549
pron+case=acc+gender=neut+number=sing+person=3+prontype=prs 0.771144 0.266336 -0.750933 -0.189250 -0.201888 0.566574 -0.610984 0.613847 -0.005951 -0.406882 -0.475039 0.002406 -0.173152 0.403499 -0.054677 -0.376997 -0.036108 0.964527 -0.623226 -0.662464 0.449568 1.114621 -0.114401 -0.711458 0.326319
noun+definite=def+gender=neut+number=sing 0.764125 -0.102792 -0.849512 -0.024078 -0.367580 0.707881 -0.128970 0.964441 -0.048107 -0.180342 -0.528344 0.298476 -0.228971 0.233883 -0.504077 -0.091398 -0.138024 0.669457 -0.425907 -0.511206 -0.180144 0.834030 0.193219 -0.914216 0.412895
dt+utr+sin+ind -0.014583 -0.088672 -0.190108 0.109770 0.159100 0.075140 0.047468 0.034644 0.206578 -0.095761 -0.009174 0.234295 -0.048262 -0.141856 0.063500 0.006698 0.003657 0.029491 -0.037061 0.027982 0.142719 -0.017279 -0.179258 -0.088642 0.124087
n,sg,ill -0.321392 -0.096434 -0.348503 0.519969 0.466523 0.312829 -0.231926 0.609986 0.073770 -1.138616 0.448743 1.090665 -0.692648 -0.366134 0.144296 -0.079771 0.167171 -0.389507 -0.032724 -0.254822 0.102227 0.023607 0.114853 1.008162 -0.489225
afsi 0.467219 -0.264654 -0.051074 -0.126216 -0.530403 0.038228 -0.915932 -0.735248 0.276594 -0.214361 -0.091137 0.197098 -0.300301 -1.174075 -0.446334 -0.265242 -0.575014 0.835750 0.798241 0.046653 -1.300914 -0.320372 -0.640804 0.053305 -0.582327
propn+case=nom+number=sing+number[psed]=none+number[psor]=none+person[psor]=none 0.024613 -0.229618 -0.195170 0.754044 0.383849 -0.048918 -0.159719 0.283484 0.576637 -0.901832 -0.036311 1.545957 -0.370678 -0.411464 0.129228 -0.152144 0.250881 -0.334279 -0.007308 0.142622 1.022421 0.068904 -0.471445 -0.151386 0.019662
nnms3-----a---- 0.391922 -0.106325 0.753575 -0.147961 0.317212 -0.008269 0.396353 -0.165108 -0.426088 0.195675 -0.315006 0.361035 0.194120 0.150918 -0.182786 0.080216 0.133246 0.365228 0.940342 -0.450247 0.667188 -0.293521 -0.231445 0.156939 -0.325035
n,prop,sg,gen -0.371552 0.322084 -0.306883 0.459387 0.250287 0.467525 -0.293431 0.593009 0.028763 -1.097097 0.255461 0.995695 -0.911475 -0.549003 0.354658 0.090716 0.355085 -0.518193 -0.147437 -0.097899 0.391020 0.082885 0.054445 1.074813 -0.167071
aafs3----1a---- 0.917690 -0.233167 0.173804 -0.544778 0.787783 0.071139 -0.187855 0.241164 -1.333946 0.112199 -0.262484 -0.020796 0.530613 -0.021910 -0.590332 1.466474 -0.487104 0.456722 1.065714 -1.074026 0.830561 -0.577761 -0.935560 -0.824316 1.018687
nnnp6-----a---- -0.016546 0.380338 -0.545610 0.165702 0.287002 0.178687 0.060188 0.420128 -0.388575 -0.464177 0.391837 -0.051953 -0.987089 0.047354 0.070159 -0.232354 1.253405 -0.171451 0.476941 -0.405699 0.430092 -0.459560 0.094172 0.710365 0.249145
v,act,pcpnut,sg,nom -0.279816 0.200117 -0.272977 0.258586 0.214527 0.273308 -0.260686 0.596470 0.093370 -0.818623 0.475339 1.234318 -0.983354 -0.260644 0.121186 -0.337351 0.379039 -0.308133 -0.126862 -0.219757 0.238380 0.104888 -0.003840 1.023319 -0.425987
cn-s4---------- 0.761781 -0.197340 -0.499025 -0.345067 -0.243675 -0.486679 0.115478 0.355770 -0.172300 -0.822524 -0.075857 0.425097 -0.257372 0.086890 0.417324 -0.114620 0.330188 -0.734901 0.628599 0.470678 1.035043 -0.795168 0.144270 -0.854728 -0.016493
n,sg,ine -0.256023 0.051590 -0.226725 0.442330 0.377854 0.275246 -0.272760 0.643310 0.080656 -1.168077 0.451739 0.976828 -0.780772 -0.298946 0.313606 -0.238441 0.169907 -0.365056 -0.108155 -0.231513 0.150697 0.163009 0.104462 0.901234 -0.449810
nn+neu+plu+ind+nom -0.045268 -0.092903 -0.240001 0.089728 0.098177 0.075939 0.030820 0.114326 0.216903 -0.079232 -0.006444 0.198118 -0.048988 -0.133968 -0.008250 0.011459 -0.002545 0.040483 0.003852 -0.037054 0.115616 0.045935 -0.168499 -0.055415 0.085598
adj+definite=def+degree=pos+number=sing+variant=long 0.709603 0.037933 -0.398854 0.326193 0.130305 0.786870 -0.323030 0.485196 -0.795229 -0.564088 -1.108676 0.172397 -0.671086 -0.024073 -0.889364 0.239746 -0.046001 0.207767 -0.410625 -0.625408 -0.476301 1.297691 -0.068796 -0.196624 0.846562
v,act,ind,pres,conneg -0.341079 0.108913 -0.506541 0.338904 0.433206 0.307977 -0.432387 0.431628 0.290778 -0.561327 0.377021 1.171567 -0.770175 -0.124997 0.263543 -0.633576 0.244263 -0.156339 -0.276039 -0.609887 0.338783 -0.024452 0.231468 0.813457 -0.266084
pron,dem,sg,nom -0.359202 0.150439 -0.099719 0.205291 0.074166 0.224405 -0.249040 0.689948 -0.039814 -0.762190 0.421958 1.147273 -0.982580 -0.263194 0.104598 -0.397843 0.181555 -0.421478 -0.133175 -0.480158 0.236689 0.232595 0.130995 0.798168 -0.353430
-rrb- 0.309571 0.141903 -0.644566 0.179195 -0.153514 0.507490 -0.334104 0.730061 -0.323658 -0.232525 -0.516364 0.323322 -0.544540 -0.471734 -0.548037 -0.127435 -0.511226 0.048235 -0.481987 -0.401713 -0.370941 0.567952 0.066400 0.229489 0.566546
amsi 0.652476 0.186080 -0.131903 0.086649 0.226381 0.036016 -0.749817 -0.538489 0.116142 -0.108341 -0.443195 0.020500 -1.170143 -0.746752 -0.605416 0.153132 -0.705962 0.579209 0.777461 0.298304 -0.790872 -0.070769 -1.145877 0.004971 -0.486282
pron+case=acc+number=sing+reflex=yes 0.271608 0.219290 -0.628389 -0.067807 -0.067534 0.090053 -0.899286 0.322893 -0.359443 -0.836809 0.082847 0.241502 -0.434157 -0.451968 0.130880 0.061270 -0.061037 0.832562 0.941085 -1.437902 0.583323 0.135522 -0.356087 -0.873386 -0.196569
-lrb- 0.299514 -0.005540 -0.551239 0.333227 0.276757 0.681952 -0.386161 0.857390 -0.312133 -0.444811 -0.735739 0.244433 -0.413210 -0.255700 -0.645553 0.159960 -0.701991 0.136128 -0.307136 -0.527198 -0.495111 0.891877 0.053812 0.332543 0.351130
pm+nom -0.037093 -0.054066 -0.219874 0.092518 0.115728 0.110738 0.035346 0.127753 0.185181 -0.068547 0.002027 0.199214 -0.076752 -0.187894 0.049017 0.021380 0.047228 0.029946 -0.030068 -0.003452 0.109829 -0.007773 -0.201589 -0.041423 0.074293
ncmpd 0.280413 -0.297278 0.065095 0.002145 -0.269604 -0.137826 -0.566822 -0.110671 0.212537 -0.625782 -0.179382 0.188432 -1.166826 -1.061827 -0.289487 -0.203257 -0.572038 0.647279 0.885403 -0.041518 -0.395773 0.311150 -0.649408 -0.321988 -0.516085
mc-pi 0.753706 -0.936263 -0.049138 0.858168 -0.306769 -0.656359 -1.085006 -0.233927 0.542676 -1.015800 0.241279 -0.348779 -1.319209 -0.414409 -0.099363 0.094694 -0.991703 -0.134513 0.522342 0.095375 -0.684211 0.301066 -0.738151 -0.762406 -0.215123
nnfp3-----a---- 0.684851 0.243486 -0.124768 -0.733910 0.418859 0.243647 0.109662 0.560013 -0.623600 -0.035298 -0.273918 -0.300010 0.253233 -0.277250 0.513330 0.258052 0.151989 0.850046 0.505069 -0.372350 0.633926 -0.398343 -0.353590 -0.192633 0.220226
wdt 0.204401 0.092971 -0.744912 0.144919 0.019181 0.514374 -0.387666 0.924884 -0.023340 -0.269999 -0.012906 0.097069 -0.124956 -0.315076 -0.647941 -0.081385 -0.379672 0.204674 -0.685110 -0.899051 -0.429345 0.937473 0.144386 0.122542 0.149865
tn 0.174606 -0.233355 -0.652273 0.281797 -0.470621 0.426258 -0.920437 0.077529 -0.095398 -0.281120 -0.040231 0.071793 -0.450215 -1.433867 0.250341 0.246088 -0.173276 0.755595 0.275589 -0.837534 -0.389963 0.281488 -0.804449 -0.501372 -0.134839
aux+number=plur+person=3+tense=pres 0.364204 -0.522321 -0.892367 -0.263806 0.456428 0.390613 -0.845653 -0.227136 -0.001724 -0.677882 0.429894 0.570195 -0.981994 -0.297187 0.416773 0.282708 -0.451006 0.574739 0.382984 -1.553005 0.681720 0.474589 0.201532 -0.453041 0.188661
pi -0.389583 -0.052968 -0.364348 0.430868 0.012915 0.277303 -0.043357 0.213802 0.647072 0.164074 0.030994 0.757614 -0.334543 -0.095416 0.334897 -0.321045 -0.108472 -0.114356 0.295131 -0.004172 0.352601 0.388143 -0.340598 0.251060 -0.217367
sn -0.042722 -0.080824 -0.202657 0.067085 0.101111 0.093884 -0.019868 0.066655 0.195591 -0.054034 -0.001958 0.198756 -0.050731 -0.129217 -0.004076 -0.026253 0.007186 0.053629 0.009775 -0.062093 0.111999 0.040838 -0.163457 -0.086900 0.108823
aux+mood=ind+tense=past+verbform=fin+voice=act 0.689923 0.246502 -0.912033 -0.376857 0.506195 0.498638 -0.204340 0.627291 -0.521874 -0.124532 -0.049271 0.643094 -0.137059 -0.201490 -0.107098 -0.498863 -0.462288 0.223702 -0.540516 -0.966646 0.041591 1.069226 -0.016941 -0.618952 0.467637
propn+case=nom+gender=fem+number=sing -0.174614 -0.180315 -0.376917 0.191752 -0.637716 -0.346929 -0.440593 1.046299 -0.697450 -0.433768 0.107005 0.372805 -0.505351 -1.001506 0.004779 0.467081 -0.106092 0.845861 -0.004912 -1.486318 -0.053734 0.029385 -0.427004 -1.310200 -0.094074
aaip7----1a---- 0.603321 -0.171268 -0.779349 -0.957780 0.032966 0.623395 -0.337814 -0.169284 -1.105644 -0.012602 0.130807 -0.051380 -0.010997 -0.537105 0.885239 -0.437696 0.567731 1.085913 -0.463981 -0.124220 0.289999 -1.024848 -0.974078 -0.682155 1.417796
vb-p---3f-aa--- 0.221125 0.834043 -0.070397 -0.300283 0.435890 -0.419483 -0.042379 -0.004100 -1.094030 -0.692969 0.253684 0.173750 -0.310480 0.475874 0.546876 -0.230544 0.030950 0.270866 0.582767 -0.438764 0.541453 0.262177 0.180189 -0.616308 0.138730
adv+degree=none+prontype=default 0.067498 -0.259790 -0.524555 0.529815 0.485513 0.132508 -0.072277 0.517932 0.580105 -0.424767 0.182481 1.169843 -0.686814 -0.355549 0.348274 -0.295156 0.081735 -0.110884 -0.029763 0.015140 0.867091 -0.034625 -0.655467 0.044961 0.139900
p4mp1---------- 0.720502 -0.214795 -0.334553 -0.189008 -0.236829 -0.403169 -0.659495 -0.117655 -0.577162 -0.479712 0.195368 0.822053 0.052462 0.309591 0.417981 0.246521 0.503848 0.664557 0.580992 -0.539673 0.561446 -0.404991 -0.014253 -0.035566 -0.254270
aafp7----1a---- 0.639037 -0.593603 -0.007441 -0.814766 0.240955 0.491934 -0.095120 -0.684352 -0.080330 -0.243963 0.986101 -0.698632 -0.626966 0.350049 1.148364 -1.116007 0.762054 0.379409 0.566802 0.324116 0.712445 -0.290598 -0.708439 0.552047 0.931764
afsd 0.150375 -0.242730 0.158098 -0.226965 -0.388107 -0.186463 -0.839137 -0.800580 0.069549 -0.271975 -0.367411 0.260699 -0.573978 -1.167309 -0.816296 -0.689086 -0.701601 0.967903 0.645878 0.274654 -1.147484 -0.613351 -0.669430 0.077580 -0.594342
dm 0.358301 -0.202155 -0.509453 0.271360 -0.242684 0.350852 -0.738555 0.073555 0.070030 -0.306519 0.001834 0.059123 -0.705608 -1.217376 0.127715 0.348753 -0.254068 0.610019 0.708309 -0.540800 -0.300132 0.516186 -0.763743 -0.416968 -0.205630
a-pd 0.367340 -0.614496 -0.186377 0.672815 -0.187560 -0.595255 -1.230973 -0.278199 0.055129 -0.862719 -0.290834 -0.071118 -1.114493 -0.795644 -0.620210 0.056807 -0.832751 0.435526 0.555012 -0.222913 -0.614915 -0.140739 -0.867026 -0.524155 -0.074576
vb-p---3p-aa--1 0.238071 0.538444 0.135947 0.171476 0.517927 -0.321915 -0.262802 -0.118320 -1.089470 -0.469616 0.196294 0.225080 -0.236362 0.308557 0.250582 -0.237528 0.175233 0.386262 0.694969 -0.645488 0.472765 0.096213 0.313809 -0.657337 0.150600
adj+case=nom+degree=pos+gender=masc+number=sing 0.020477 -0.584354 -0.142082 -0.224471 -0.465349 -0.727720 -0.755567 -0.185240 -0.044102 -0.551952 1.143642 0.186559 -0.365517 0.078030 -0.321804 -0.130303 -1.144061 1.065724 0.688604 -0.997211 -0.872071 0.318528 0.101752 -1.810808 -0.161726
noun+case=gen+gender=fem+number=plur 0.118223 -0.968124 -0.383900 0.015750 -0.193392 -0.048111 -0.212025 0.924425 0.071167 -1.338340 0.454265 0.166819 -1.185397 -0.260416 0.132530 0.308595 0.239248 1.030844 0.355874 -0.462984 0.242770 0.233905 0.569214 -0.803876 0.121577
ncmsf 0.089303 0.011214 -0.380870 0.264169 -0.304121 0.117134 -0.290291 0.040806 0.186066 -0.469906 -0.218027 -0.134317 -1.348669 -1.404083 0.186505 0.253924 -0.105537 0.651535 0.413973 -0.467399 -0.670669 0.209653 -0.957308 -0.313195 -0.368669
vpys---xr-aa--1 0.085510 0.055003 0.690581 -0.080691 0.264670 -0.243423 0.554454 0.202992 -0.757979 -0.100415 0.185275 0.260320 -0.199767 0.116980 0.220218 -0.309298 0.286613 0.519458 0.295250 -0.437155 0.435101 -0.223994 0.446892 -0.485055 0.071966
wrb 0.382380 0.171678 -0.725015 0.311520 -0.222412 0.449912 -0.460929 0.768912 0.168986 -0.083600 -0.192878 0.151756 -0.029424 -0.083708 -0.301988 -0.025703 -0.415169 0.614845 -0.478864 -0.778088 -0.188924 0.973483 0.073604 0.150825 0.367037
pn+neu+sin+def+sub/obj -0.061315 -0.082215 -0.214860 0.100522 0.070000 0.066536 -0.011865 0.031444 0.202534 -0.069873 -0.008723 0.150863 -0.056536 -0.095000 -0.022927 -0.020140 0.012143 0.054318 -0.001267 -0.070192 0.074667 0.067225 -0.142734 -0.056232 0.062563
vpitf-r3p 0.813236 -0.133250 -0.744552 0.251851 -0.019936 0.551080 -1.148959 -0.568940 0.677818 -0.435979 -0.246904 -0.060487 -0.707941 -0.896683 0.131026 0.036368 -0.790474 0.871689 0.437466 -0.414408 -0.792760 0.519149 -0.703279 -0.035746 0.062227
: 0.046569 -0.137434 -0.640163 0.282119 0.264681 0.624852 -0.253717 0.967985 -0.265170 -0.413103 -0.576662 0.313025 -0.349087 -0.408669 -0.662086 0.228234 -0.625838 0.167169 -0.393552 -0.576353 -0.503657 0.863098 0.075524 0.306359 0.214640
pdzs3---------- 0.707537 0.002123 0.059906 -0.388486 0.080359 0.346192 -0.200303 0.176200 -0.723305 0.136555 -0.249477 -0.348492 0.320490 -0.301505 0.234224 0.419270 0.006965 0.972247 0.245811 -1.243495 0.782133 -0.435142 -0.062519 -0.626751 0.010587
adv,dem -0.299107 0.079685 -0.235444 0.341203 0.235921 0.245459 -0.289720 0.616214 0.064504 -0.816104 0.374143 1.032078 -0.837562 -0.225316 0.125364 -0.410470 0.038821 -0.320052 -0.131408 -0.244311 0.153723 0.202243 0.138514 0.798258 -0.340321
adj+definite=ind+degree=pos+gender=com+number=sing+variant=long 0.548069 -0.112816 -0.849240 -0.136399 0.029285 0.740838 -0.507174 0.760483 -0.583723 -0.200697 -0.617717 0.144902 -0.370273 -0.297744 -0.730048 0.467746 -0.285646 0.394023 -0.563007 -0.257382 0.013315 1.257867 0.138446 -0.871953 0.703503
pdys1---------- 0.359095 -0.305939 0.509859 0.129959 0.293294 0.716119 0.293891 -0.103099 -0.402084 0.251634 0.246644 -0.146504 0.092359 0.064569 0.258712 0.308513 0.356967 0.511176 -0.231784 -0.606076 0.581472 -0.241037 0.435145 -0.893898 -0.499234
propn+case=gen+gender=fem+number=sing -0.048629 -0.810752 -0.264942 0.049467 -0.252886 -0.375074 0.136613 0.378432 -0.132013 -0.806717 0.437156 0.534526 -1.017083 -0.897803 -0.437119 0.055704 -0.119716 1.004921 0.170715 -0.835785 -0.282913 0.018229 0.266915 -1.032107 0.353400
pq -0.172169 0.020468 -0.271192 0.188959 0.082386 -0.017091 -0.157288 0.391551 0.487617 0.135604 -0.046081 0.499882 -0.254461 -0.032587 0.223510 -0.275685 -0.147380 0.031363 -0.115833 -0.007757 0.331125 0.408559 -0.285445 0.056883 -0.285018
no -0.348409 -0.171325 -0.467958 0.522678 -0.073056 0.231879 0.005407 0.325298 0.503557 0.144344 0.183931 0.854555 -0.051463 -0.271260 0.309176 -0.174143 0.230088 -0.020429 0.150719 -0.247918 0.127400 0.121413 -0.421211 0.305711 -0.380017
`` 0.340100 0.116258 -0.649010 0.194499 -0.162090 0.435639 -0.493398 0.681312 -0.041787 -0.224538 -0.314577 0.156346 -0.191631 -0.092389 -0.502984 -0.033974 -0.368512 0.197218 -0.455912 -0.678569 -0.256907 0.880119 0.026512 0.402295 0.693416
v,act,ind,pres,pl3 -0.073342 0.167019 -0.532540 0.648826 0.446917 0.128952 -0.274211 0.289454 0.512695 -0.955847 -0.060133 0.923908 -0.569013 -0.774037 0.256810 -0.051941 0.362099 -0.167470 -0.104887 -0.296538 0.395075 -0.109660 -0.022056 1.104510 -0.345120
rv--3---------- 0.535032 -0.082237 -0.000281 -0.234029 0.631510 0.110939 -0.077313 -0.122636 -0.885378 0.007892 -0.079445 -0.217642 0.285505 -0.281285 -0.395994 0.603214 -0.340256 0.106836 0.752606 -0.360693 0.387121 -0.656548 -0.512950 -0.233046 0.309602
pron+case=nom+gender=com+number=sing+person=3+prontype=prs 0.746918 -0.022240 -0.519868 -0.134399 -0.485967 0.451942 -0.430298 0.722336 0.012780 -0.482273 -0.630275 0.182003 -0.176222 0.312641 -0.217979 -0.462409 -0.210690 0.816422 -0.773296 -0.701451 0.341068 0.997594 -0.114095 -0.772818 0.235376
verb+number=plur+person=3+tense=pres 0.204137 -0.274044 -0.531268 -0.170326 0.351724 0.215143 -0.218932 -0.002147 -0.373797 -0.637289 0.386253 0.380114 -1.251729 -0.479411 0.418354 0.103525 -0.197680 0.724043 0.301678 -1.268041 0.626415 0.375239 0.160235 -0.990713 0.174240
n,sg,ela -0.211858 -0.046903 -0.231526 0.436370 0.326768 0.329780 -0.371943 0.552621 0.004083 -1.081196 0.417219 0.957750 -0.674434 -0.262599 0.172547 -0.216984 0.082130 -0.311074 -0.186596 -0.279609 0.090176 0.134748 0.013731 0.895835 -0.348757
'' 0.265256 0.171847 -0.734787 0.122388 -0.055356 0.529381 -0.321041 0.837452 -0.369088 -0.090941 -0.402177 0.267517 -0.502813 -0.425850 -0.467009 -0.217092 -0.394643 0.119524 -0.379157 -0.561107 -0.465060 0.619337 -0.205978 0.204982 0.527862
vb-p---2p-aa--- 0.263037 0.220356 0.198001 0.032077 0.238647 -0.211851 -0.149682 -0.015319 -0.769072 -0.332010 0.350081 0.406735 -0.293505 0.048584 0.231354 -0.155274 0.448483 0.350838 0.724727 -0.868014 0.619738 -0.146288 0.467994 -0.509211 -0.205975
det+gender=com+number=sing+prontype=dem 0.143416 -0.119407 -0.754903 0.067092 0.395285 0.615742 0.094771 0.850341 -0.497048 -0.047052 -0.765668 0.645994 -0.478333 0.245073 -0.910728 -0.217643 -0.168193 0.205553 -0.032741 -0.515201 -0.218716 0.986832 0.260082 -0.775719 0.246207
aais3----1a---- 0.606892 -0.378195 -0.026378 -0.576744 0.548276 0.547257 0.292479 0.384731 -0.738233 -0.437356 -0.591747 -0.615014 0.185032 -0.830159 0.017480 0.917702 -0.223430 0.760203 0.410127 -0.916908 0.370112 -0.918907 -0.385635 -0.189944 0.894655
clxp2---------- 0.675448 -0.085248 -0.566853 -0.494697 -0.400807 -0.383602 0.486358 0.387514 -0.500342 -0.718847 0.194002 -0.025083 -0.310291 0.081319 0.112849 -0.067261 -0.185072 -0.199802 0.191195 0.636230 0.882538 -1.166888 0.064408 -0.675124 -0.058123
pd -0.267101 -0.053620 -0.336385 0.399863 -0.015883 0.161808 -0.058281 0.281190 0.605859 0.119827 0.078744 0.666464 -0.366857 -0.052381 0.287908 -0.378417 -0.175612 -0.074073 0.270147 0.010516 0.377118 0.383506 -0.333089 0.256318 -0.169637
aamp4----1a---- 0.320439 -0.017221 0.212539 -0.125021 -0.363755 -0.517979 -1.315550 -0.527312 0.012102 -0.742869 0.035173 0.366179 0.321922 0.254331 0.151374 -0.382152 0.103245 0.536911 1.146685 0.426165 0.283120 -0.586175 0.062809 -0.513650 0.254737
hp+-+-+- -0.032991 -0.064199 -0.226264 0.092576 0.056612 0.079899 0.009519 0.048609 0.182485 -0.074986 -0.002442 0.173029 -0.042713 -0.095249 0.013041 -0.008597 -0.010189 0.038642 0.005507 -0.057646 0.082828 0.022779 -0.134371 -0.074307 0.055925
wp 0.322777 0.276165 -0.695084 0.093166 -0.275419 0.442655 -0.177256 0.977404 0.091291 0.092003 0.095781 0.179811 -0.235019 -0.124267 -0.526206 -0.266796 -0.200928 0.450502 -0.635746 -0.854914 -0.107906 0.875176 -0.073277 0.042653 0.369372
nn+utr+plu+def+nom -0.024262 -0.108157 -0.169900 0.066886 0.109062 0.062781 0.003612 0.102783 0.185835 -0.057857 -0.006635 0.149878 -0.047338 -0.115392 -0.008683 -0.005883 0.018230 0.015641 -0.001745 -0.046953 0.070934 0.018488 -0.112240 -0.054939 0.052743
rp 0.506638 0.136082 -0.816928 0.039566 -0.312325 0.488138 -0.349295 0.800822 0.314817 -0.030352 -0.215798 0.199579 -0.295960 -0.124669 -0.210595 -0.316266 -0.254147 0.408700 -0.319597 -0.504806 -0.305118 0.865533 0.152664 -0.199328 0.572183
a,sg,par -0.288694 0.098859 -0.480649 0.139250 0.149660 0.269695 -0.145767 0.711765 0.114584 -0.884473 0.712458 0.822435 -0.615076 -0.229510 0.037730 -0.095083 0.032360 -0.256081 -0.112339 -0.380485 0.163129 0.367424 0.296290 1.010113 -0.446114
pad -0.005086 -0.082980 -0.188454 0.082160 0.099171 0.070730 0.016034 0.087193 0.112849 -0.082525 -0.007883 0.175437 -0.069016 -0.079735 0.024758 0.011294 0.016064 0.051542 0.000117 -0.015613 0.082595 0.031884 -0.156422 -0.074063 0.068585
noun+case=acc+gender=neut+number=sing 0.657536 -0.684863 -0.390837 -0.088361 -0.140253 0.228412 0.490267 0.261648 -0.063194 -1.034140 0.280254 0.137192 -0.746367 -0.576005 -0.103063 0.074081 0.009475 1.057957 0.493796 -0.577715 0.017350 0.037130 0.348510 -0.972497 0.354083
ie -0.017938 -0.066291 -0.165367 0.084332 0.116182 0.046011 -0.011421 0.091780 0.183821 -0.075541 0.007859 0.147047 -0.055710 -0.095856 0.050087 0.008291 0.012632 0.051146 0.007073 -0.062590 0.071601 0.045769 -0.115501 -0.068934 0.059972
adv_time -0.218482 -0.212647 -0.334635 0.145419 0.028263 0.178492 0.030827 0.138033 0.601968 0.059256 0.043718 0.437313 -0.025286 0.025068 0.154873 0.071814 -0.157630 -0.162060 0.086577 0.096297 0.290944 0.224125 -0.372278 0.096250 0.012571
vb+prs+sfo -0.008861 -0.053837 -0.183970 0.060591 0.093523 0.086811 -0.002093 0.083667 0.171388 -0.087649 0.005062 0.185548 -0.043623 -0.119062 0.019041 -0.006892 0.025639 0.044587 0.001258 -0.013937 0.111269 0.030241 -0.140781 -0.069929 0.094134
n,sg,ade -0.185353 0.042259 -0.289337 0.383570 0.272842 0.285202 -0.270503 0.556306 0.026884 -0.918332 0.380221 0.955028 -0.764801 -0.206786 0.080315 -0.166729 0.137613 -0.392258 -0.035815 -0.120246 0.099733 0.136052 0.118674 0.763928 -0.231316
db------------8 0.465209 -0.513473 0.107759 -0.051992 -0.568572 -0.001909 0.481445 0.222600 -0.480319 -0.194014 0.327960 0.459527 -0.001268 0.774620 0.227323 0.324174 0.700019 0.470493 0.233387 -0.205260 0.502738 -0.402535 0.019367 -0.429594 -0.232361
nnip3-----a---- 0.613897 0.085898 -0.050777 -0.275308 0.472943 0.146704 -0.510165 0.799127 -0.872617 -0.318665 -0.273721 -0.207301 0.013984 -0.021494 -0.109726 0.379782 0.177982 0.752909 0.282006 -0.049360 0.823703 -0.455869 -0.159747 -0.228417 0.179029
noun+case=loc+gender=masc+number=sing 0.115718 -0.645616 -0.095095 0.187178 0.024935 0.080898 0.222918 0.324565 -0.140134 -1.277330 0.181945 0.452535 -0.828589 -0.896923 -0.488136 -0.042632 0.593654 0.899592 1.376834 -0.662238 0.249586 -0.094081 0.525629 -0.254461 0.120132
p4fp1---------- 0.297819 -0.152618 -0.305823 -0.147728 -0.348498 -0.369611 -0.328803 0.161627 -0.417607 -0.585958 0.508441 0.129106 0.085923 0.678289 0.519007 0.287405 0.422568 0.613118 -0.026576 -0.556309 0.980712 -0.291706 -0.312566 -0.462074 -0.171270
n,pl,gen -0.248221 0.249266 -0.193472 0.283096 0.211606 0.419666 -0.222950 0.647158 -0.005374 -1.010644 0.264880 0.845360 -0.689122 -0.266580 0.281063 -0.143207 0.179925 -0.347117 -0.060802 -0.160929 0.308596 0.174065 0.061538 0.847614 -0.214184
propn+case=gen+gender=masc+number=sing -0.075245 -0.680984 -0.086943 0.093911 -0.234808 -0.539930 0.314420 0.382416 -0.187955 -0.641464 0.510659 0.540674 -0.964139 -0.923307 -0.585311 0.094556 -0.175211 0.654626 0.570109 -0.689057 -0.347004 0.046610 -0.089767 -1.038250 0.078923
vpns---xr-na--- 0.666030 0.025550 0.209353 0.295877 0.336461 0.176718 -0.028390 0.324127 -1.114070 -0.297294 0.303301 0.048230 -0.084538 0.106262 0.228267 -0.169692 0.121569 0.388637 0.623972 -0.397809 0.442874 0.028773 0.399803 -0.477496 -0.190350
noun+case=gen+gender=neut+number=sing 0.148181 -0.857633 -0.308798 0.152073 -0.021921 -0.162780 0.160711 0.195912 0.068889 -1.022379 0.522965 0.591710 -1.061123 -0.802418 -0.363069 -0.335745 -0.012975 0.690293 0.483579 -0.521700 -0.089895 -0.150636 0.119271 -0.859094 0.170388
nnixx-----a---- 0.416955 -0.762016 0.251665 -0.370999 -0.000578 -0.041455 1.130758 -0.236580 -0.374006 -0.210612 0.218957 0.776046 -0.531393 0.158569 0.016545 0.454859 0.357941 0.641959 0.633292 -0.047782 0.145565 -0.423772 0.054704 -0.342847 0.009692
dg-------2a---1 0.283917 0.143066 0.036068 -0.112198 0.313888 0.226882 -0.092608 0.021323 -0.473689 -0.539785 0.297379 0.092781 -0.012236 0.276542 0.098372 0.205971 0.233375 0.223272 0.466332 -0.488307 0.727051 -0.029999 0.394704 -0.609130 -0.158128
adp+case=ins -0.271431 -1.094405 -0.430467 0.365099 0.170034 -0.216923 -0.722045 -0.037614 -0.327892 -0.816933 0.238302 0.290758 -0.648353 -0.505017 -0.662224 -0.025682 -0.015482 0.646313 0.322137 -0.722494 0.627007 0.038363 0.023667 -0.631960 0.469894
verb+gender=fem+number=sing+verbform=part 0.197082 -0.055100 -0.406550 0.067093 -0.111192 0.007688 0.018409 0.238229 -0.701231 -0.220362 0.409616 -0.042541 -1.115866 -0.558806 0.014106 0.456539 0.035936 0.820603 0.312035 -1.023958 0.031470 0.004709 -0.247560 -1.313965 -0.096961
pdfs1---------- 0.803208 -0.411737 0.195576 0.101452 0.483917 0.365846 0.059287 -0.486227 -0.524820 0.048584 -0.009966 0.082269 -0.172842 0.677971 -0.583661 0.789977 0.181288 0.504784 0.583139 0.095458 0.635299 0.261177 0.483112 -0.833826 0.056061
ab+pos -0.020767 -0.086575 -0.169690 0.070661 0.084992 0.070719 0.009615 0.081380 0.159404 -0.084465 -0.004475 0.154846 -0.043561 -0.109381 -0.003729 -0.046211 0.026136 0.042858 -0.003688 -0.039786 0.077386 0.034884 -0.129642 -0.069203 0.066615
uh 0.415040 0.142900 -0.506761 0.201120 -0.084330 0.342613 -0.044588 0.802559 -0.200750 0.299653 -0.391877 0.542224 -0.186820 -0.233790 -0.316909 -0.059650 -0.227447 0.421863 -0.390028 -0.435051 -0.242773 0.921176 -0.082721 -0.068078 0.217313
pos 0.163924 -0.047921 -0.763686 0.405151 0.097066 0.468376 -0.646671 0.520260 -0.141286 -0.475638 -0.604313 -0.098842 -0.292949 -0.584159 -0.765200 0.290920 -0.459582 -0.090595 -0.547214 -0.482321 -0.616518 0.803974 -0.155030 0.370273 0.430952
ncnpi 0.813425 -0.469312 -0.084330 0.048046 -0.222139 0.081281 -0.372846 0.030379 0.535860 -0.652967 0.030491 0.447515 -0.935227 -1.007367 -0.297087 -0.195531 -0.621629 0.610371 0.932730 -0.002273 -0.603303 0.393058 -0.570557 -0.296905 -0.393610
noun+case=loc+gender=fem+number=sing 0.197382 -0.741637 -0.098601 0.333661 -0.025906 -0.047611 0.057455 0.341557 0.009232 -1.128460 0.151235 0.509157 -1.125018 -0.997314 -0.369309 0.114941 0.369898 0.879720 1.328262 -0.774159 0.013549 0.193514 0.281909 -0.323812 0.033208
aams4----1a---- 0.035495 -0.273597 0.654816 -0.308182 -0.602832 0.070786 0.176938 -0.265820 -0.250790 -0.010079 -0.294505 1.032930 0.145060 -0.278964 0.090537 -1.015766 1.017838 0.081920 0.971059 0.036766 0.893521 -0.214875 -0.128136 0.015024 0.064801
aanp4----1a---- 1.001760 0.073190 -0.194299 -0.204376 -0.159204 -0.217571 -0.425996 -0.038429 -0.205083 -1.435658 0.380761 0.027558 -0.699047 0.554242 -0.258466 -0.391865 -0.137070 0.498493 1.070082 0.434962 0.300490 -0.292642 0.208520 -0.694152 -0.178448
hyph 0.234278 -0.159673 -0.739939 0.148616 0.154598 0.475599 -0.518677 0.657893 -0.058285 -0.539666 -0.744089 -0.008045 -0.377135 -0.536878 -0.582297 0.233225 -0.370844 0.160140 -0.442959 -0.434941 -0.410968 0.810049 0.044393 0.280310 0.531430
jj+pos+utr/neu+sin+def+nom -0.017755 -0.031776 -0.185551 0.033441 0.072609 0.084339 0.005465 0.046798 0.086124 -0.115606 -0.022148 0.147947 -0.064022 -0.095236 0.011567 0.023416 0.028715 0.011163 0.025859 -0.054113 0.060340 0.018104 -0.120540 -0.074750 0.093122
noun+case=nom+gender=masc+number=plur 0.486476 -0.194222 -0.536762 -0.109415 -0.036723 0.252039 -0.754410 0.056719 -0.106046 -0.986127 -0.147034 -0.029879 -0.827911 -0.448906 0.249703 0.250035 -0.023460 1.216025 0.433203 -1.134775 0.197276 -0.107018 -0.252618 -0.427407 -0.042816
det+number=plur+prontype=dem 0.275549 -0.301867 -1.055998 0.196026 -0.038058 0.507219 -0.030517 1.102120 -0.067900 -0.643855 -0.418025 0.558613 -0.439328 0.040565 -0.045351 -0.521196 -0.508338 0.161042 0.066193 -0.248310 0.107823 0.880941 0.480606 -0.384838 0.671980
dt+utr+sin+def -0.023974 -0.042609 -0.164285 0.028292 0.069917 0.074062 -0.010041 0.061214 0.083071 -0.063677 -0.003867 0.120575 -0.083301 -0.074701 0.005706 0.003295 -0.005632 0.019289 0.017820 -0.026293 0.035528 0.051070 -0.122925 -0.029262 0.082175
ansi 0.662529 -0.315058 -0.221058 0.176296 -0.016292 0.052337 -0.836239 -0.816373 0.215912 -0.131216 -0.105331 0.106151 -0.902358 -0.980739 -0.567032 0.144414 -0.564651 0.651030 1.065556 0.205220 -0.848338 -0.027517 -0.842933 -0.171993 -0.280284
dg-------3a---- 0.367310 0.039345 -0.053732 -0.202323 0.398154 -0.113748 -0.180186 0.022158 -0.543892 -0.446899 0.192584 0.044072 -0.014032 0.178753 0.117112 0.042118 0.433210 0.110790 0.458832 -0.280024 0.726050 -0.355383 0.414201 -0.356444 -0.047544
