153 50
noun -0.453985 -0.171049 -0.707687 0.063966 0.849820 -0.028673 0.885271 -0.147227 -0.124026 -0.320493 0.211735 -0.497471 -0.152887 0.031342 -0.050952 -0.379142 0.415551 -1.087813 -0.003446 0.162632 0.103695 0.068849 0.790891 0.210988 -0.108998 0.276414 -0.185361 0.239924 0.227407 -0.090418 0.223374 -0.508336 0.202063 0.607841 0.397879 0.115303 0.326800 0.266888 0.060573 0.205449 -0.648973 0.543671 0.407170 0.389881 -0.687727 0.284836 0.115942 -0.244354 0.097485 -0.544589
. -0.128626 -0.229060 -0.750124 -0.353016 0.337100 -0.190115 0.898660 -0.252975 0.225481 -0.175134 0.450372 -0.366840 -0.201244 0.125008 0.094731 0.167432 0.331362 -0.937102 -0.061819 0.607198 0.081600 0.385300 0.382745 0.479116 0.099607 -0.058440 -0.017893 0.359884 0.190917 -0.147921 0.261079 -0.531804 0.874411 0.445479 0.140868 0.071707 0.101289 0.261355 -0.068642 -0.553260 -0.332035 0.562936 0.209478 0.067287 -0.885754 -0.173870 -0.066880 -0.319759 0.252793 -0.602482
det -0.206585 -0.369451 -0.297968 -0.271190 0.742502 -0.150067 1.080592 -0.031439 0.058594 0.042138 0.647945 -0.889004 0.238934 -0.264142 -0.148747 0.254218 0.409163 -0.913691 0.183943 0.243424 -0.362107 0.035640 0.677551 0.757465 0.317238 0.209337 -0.108742 0.512594 0.241723 -0.302977 0.228404 -0.117122 0.347417 0.386856 0.295065 0.073419 0.009200 0.228273 -0.166839 -0.132195 -0.326895 0.222825 -0.053210 0.295961 -0.569399 -0.430434 0.240670 -0.621669 0.028281 -0.615824
adj -0.152714 -0.142313 -0.788453 -0.010063 0.484403 0.281387 0.963469 -0.148541 0.103862 -0.381900 -0.158976 -0.692152 -0.068359 0.156731 0.086312 -0.151938 0.166988 -0.678262 0.008339 0.315031 0.290580 0.085355 0.649500 -0.030844 -0.211819 0.299799 -0.006460 0.192855 0.175512 0.096116 0.195300 -0.323547 0.346051 0.380241 0.307863 -0.067700 0.056421 0.132802 -0.259925 -0.038797 -0.435759 0.586618 0.324782 0.355228 -0.831149 0.034363 0.231688 -0.424922 0.139345 -0.778286
verb -0.735953 0.135135 -0.506819 -0.085361 0.612045 -0.068635 1.026323 -0.213761 0.259929 -0.098675 0.274432 -0.834924 -0.251858 -0.024358 -0.016022 -0.080767 0.127835 -0.505465 0.163736 0.124929 0.166215 -0.079822 1.006986 0.353022 -0.183225 0.334036 -0.135116 0.211075 0.264798 -0.010426 0.217398 -0.316864 0.242809 0.579587 0.164564 -0.221827 0.198273 0.174931 -0.008454 0.123811 -0.055712 0.493332 0.173205 0.177855 -0.685401 -0.084057 0.234779 -0.046870 0.041342 -0.531191
adp -0.143572 0.016036 -0.413336 -0.160241 0.025706 0.161833 1.051231 -0.245417 -0.217786 -0.312717 0.029960 -0.449263 -0.404533 -0.066942 0.276802 -0.109611 -0.046137 -0.299976 -0.100365 0.352743 0.348418 0.293742 0.578821 -0.023511 0.040571 0.068436 0.033919 0.373993 0.096403 0.025230 0.484922 -0.063326 0.085033 0.269058 0.120626 0.070886 -0.288820 0.030259 -0.311927 -0.136279 -0.184162 0.571715 0.288125 -0.046734 -1.072037 -0.345095 0.078229 -0.652841 0.113253 -0.618261
adv -0.487204 -0.011988 -0.498340 -0.295997 0.434309 0.248020 0.936109 -0.257065 -0.146184 -0.041866 0.163417 -0.507808 -0.311746 -0.207525 -0.054620 -0.151181 0.139368 -0.464176 -0.113217 0.232068 0.228741 0.237451 0.953465 0.481582 -0.016927 0.011944 -0.296423 0.006614 0.176114 -0.078589 0.217420 -0.419048 0.623360 0.689441 0.251070 -0.155912 0.343117 0.172692 -0.107010 0.076276 -0.097225 0.415023 0.072640 0.061141 -0.922875 -0.415503 0.264006 -0.401333 0.183433 -0.478686
nn -0.310995 -0.512341 0.021727 0.001187 0.339595 0.221351 0.661613 -0.428701 -0.026551 -0.789961 0.109751 -0.641574 -0.202159 0.216810 0.303746 -0.250350 0.505952 -0.173050 -0.290985 0.441366 0.271903 -0.174118 0.641255 -0.146227 -0.087505 0.254366 -0.338665 -0.344984 0.123031 0.124395 0.342147 -0.137868 0.341505 0.576786 0.270636 0.419585 -0.358376 0.062390 -0.567066 -0.020258 -0.037094 0.315144 0.485111 0.466215 -0.752404 -0.296690 0.465167 -0.418992 0.057669 -0.649436
nc 0.055454 -0.007261 -0.089159 -0.197335 -0.191087 0.085057 -0.063512 0.333692 -0.306158 -0.048851 -0.105441 0.396657 -0.007510 0.039713 -0.140504 -0.390944 -0.122919 -0.040327 -0.618469 -0.216403 0.166203 -0.453049 0.388718 -0.011199 -0.041824 -0.773694 -0.278011 -0.393022 0.179226 -0.112217 -0.284495 -0.179687 -0.159701 0.141479 -0.070248 0.184690 -0.092440 0.051988 0.289279 -0.477908 -0.729287 0.118532 0.230847 0.042513 0.009096 -0.296596 0.129977 -0.123738 -0.214181 -0.117195
n -0.395540 -0.223815 -0.552984 0.031797 0.630338 0.132701 0.779479 -0.070342 -0.278979 -0.288427 0.080332 -0.557614 -0.143039 0.034215 -0.004353 -0.441722 0.352734 -0.784466 -0.143600 0.171237 0.248408 0.112775 0.872864 0.183926 -0.120826 0.166455 -0.139800 0.177733 0.178494 0.028958 0.196786 -0.410730 0.230895 0.561914 0.270817 0.092841 0.204462 0.167585 -0.012602 0.190427 -0.470669 0.499901 0.350470 0.284784 -0.712764 0.087299 0.166172 -0.330858 0.082123 -0.558080
p -0.363121 0.101390 -0.436649 -0.181582 0.202605 0.378757 0.997476 -0.169532 0.043787 -0.217626 -0.074746 -0.551580 -0.098397 0.018157 0.138889 -0.032690 -0.070536 -0.254019 -0.148422 0.305014 0.123979 0.031903 0.729420 0.208421 -0.192158 0.145933 -0.218404 0.016535 0.309318 0.137618 0.090545 -0.188038 0.413282 0.407445 0.118243 -0.255208 -0.070466 -0.000672 -0.248414 -0.049114 -0.025239 0.542057 0.066126 0.283724 -0.842767 -0.420722 0.186675 -0.415122 0.017894 -0.685676
pron -0.450128 -0.154371 -0.513899 -0.242528 0.494914 0.329157 0.923096 -0.166329 0.194212 -0.006496 0.159288 -0.786016 -0.112222 0.013240 -0.033975 -0.075031 0.182170 -0.396810 -0.103638 0.218683 0.268309 0.004048 1.161993 0.367615 -0.162085 0.127298 -0.335288 0.152001 0.281375 0.306112 0.084186 -0.452084 0.702905 0.731031 0.095370 -0.468079 0.237134 0.228791 -0.231138 -0.155314 0.006451 0.366953 0.047407 0.145300 -0.642926 -0.507056 0.446289 -0.375342 -0.078769 -0.696698
conj -0.141735 -0.176700 -0.351239 -0.284406 0.533715 0.291312 1.079822 -0.315607 0.094640 -0.223293 0.175963 -0.722122 -0.315324 -0.262421 -0.025692 -0.191363 0.119474 -0.327806 -0.143571 -0.045167 0.243567 -0.150369 1.066808 0.182902 0.020006 0.268609 -0.203225 -0.043870 0.232192 -0.069542 0.323299 -0.254068 0.100314 0.518952 0.228468 -0.037413 -0.157207 0.476008 -0.018585 0.120949 -0.264836 0.400110 0.237326 0.164968 -0.941771 -0.426209 0.680819 -0.496404 0.096552 -0.676738
ponct -0.093832 0.182560 -0.272587 -0.261147 -0.234416 0.021131 -0.116640 0.224462 -0.216353 0.236957 0.027044 0.443800 0.092521 0.147084 -0.453010 0.214513 -0.266735 -0.175647 -0.235579 -0.372825 -0.128714 -0.425886 0.088113 -0.000085 0.143760 -0.673829 -0.142855 -0.117833 0.091476 -0.112193 -0.245083 0.054294 -0.041147 0.064086 0.311675 -0.109045 0.353492 -0.235248 0.077687 -0.375371 -0.809991 0.257284 0.135879 -0.030293 0.310019 -0.249849 0.050228 -0.042886 -0.142286 -0.047361
v -0.604190 -0.134903 -0.478663 -0.252587 0.544363 0.021900 0.780846 -0.202778 0.189772 -0.097987 0.075187 -0.977356 -0.247501 0.086065 -0.099893 -0.005605 0.040147 -0.268464 0.211250 -0.129553 0.222566 -0.097715 0.998488 0.175155 -0.076729 0.448099 -0.023373 0.153926 0.083199 0.070232 0.239639 -0.249670 0.234437 0.480224 0.381248 -0.129960 0.212592 0.070065 -0.084131 0.310813 -0.121776 0.470735 0.166689 0.085323 -0.692037 -0.152105 0.511117 -0.026400 0.137797 -0.548101
subst -0.237841 -0.618423 0.309612 -0.301486 -0.161142 0.006314 0.213182 -0.444691 -0.157336 -0.664502 0.196361 -0.426156 -0.376166 0.517570 0.179695 0.067313 0.501481 0.452431 -0.497881 0.244635 0.417402 -0.342307 0.431476 -0.366884 0.102534 0.026209 -0.278030 -0.400756 -0.128492 0.086537 0.289584 -0.030089 0.499240 0.559487 0.255884 0.414315 -0.325831 -0.119448 -0.724744 -0.312917 0.147820 0.208320 0.645216 0.082750 -0.570401 -0.475744 0.669550 -0.154894 0.000739 -0.398526
a -0.060799 -0.337823 -0.554404 -0.092654 0.425439 0.277984 0.839615 -0.161369 0.081556 -0.336525 -0.048746 -0.709682 -0.111444 0.092065 0.073768 -0.149414 0.231578 -0.538489 -0.070701 0.232789 0.313709 0.085944 0.742013 -0.007227 -0.048302 0.270533 -0.004831 0.222023 0.116903 0.173697 0.221835 -0.250698 0.325027 0.359737 0.209028 0.007418 -0.138939 0.191520 -0.190450 -0.044592 -0.317152 0.529987 0.304257 0.245055 -0.753079 -0.111681 0.348932 -0.447829 0.129880 -0.778660
t -0.177144 -0.355547 -0.327589 -0.326124 0.443097 0.146070 0.896341 -0.046456 0.043535 -0.012724 0.239804 -0.918251 0.219458 -0.083851 -0.111329 0.243006 0.224495 -0.588955 0.105224 0.205849 -0.100324 0.011760 0.736857 0.529957 0.200846 0.206609 -0.014716 0.308000 0.166667 -0.044465 0.110146 -0.047811 0.395344 0.267014 0.289609 -0.056017 -0.066437 0.019718 -0.249905 0.012918 -0.190325 0.422553 -0.062145 0.264372 -0.571914 -0.421561 0.355221 -0.533876 0.144267 -0.708827
vb -0.763673 -0.187635 -0.044865 -0.054496 0.073130 -0.047804 0.698124 -0.199896 -0.008664 -0.390041 0.150274 -1.033452 -0.070389 0.354232 0.339993 0.068078 0.345661 -0.041297 0.067515 0.713799 0.365166 -0.026281 0.815880 0.171656 -0.242705 0.093059 -0.143638 -0.024844 0.114359 0.227965 0.295607 -0.060306 0.569388 0.535513 0.158306 -0.019593 -0.032545 -0.377143 -0.872116 -0.181117 0.434912 0.388731 0.159073 0.195853 -0.630423 -0.407324 0.142035 -0.219978 0.041783 -0.538931
art -0.143181 -0.004002 0.460588 0.283550 0.226312 -0.411266 -0.223017 -0.440091 0.491032 -0.280007 0.492776 0.329068 0.124872 -0.223140 0.157336 0.364179 0.226996 -0.323020 0.487360 0.366751 -0.531502 -0.450363 -0.714975 0.110390 0.021922 -0.055752 -0.436914 -0.782566 0.165814 -0.547847 0.331242 0.149382 -0.088208 -0.018504 0.355429 0.387017 0.121277 0.080577 -0.521181 -0.090739 -0.015464 -0.562733 -0.133424 0.448879 0.461429 -0.047410 -0.025504 0.088323 0.090508 0.418083
r -0.378390 -0.161745 -0.462905 -0.369753 0.334769 0.131635 0.788357 -0.260305 0.016720 -0.080297 0.156935 -0.548943 -0.305339 -0.081499 -0.049907 -0.046712 0.104416 -0.437698 -0.049262 0.123633 0.260777 0.134255 0.894903 0.359508 0.092829 0.042966 -0.157625 0.031620 0.102172 -0.038955 0.249685 -0.341953 0.512106 0.506161 0.262325 -0.035464 0.160991 0.147768 -0.046288 0.019865 -0.200735 0.483931 0.134328 0.018008 -0.819098 -0.363835 0.367870 -0.303311 0.220884 -0.542904
pp -0.384729 -0.186618 -0.037288 -0.077364 -0.237647 -0.027980 0.601100 -0.458566 -0.056844 -0.565696 0.196391 -0.444312 -0.423843 0.261964 0.438243 0.120039 0.208842 -0.023378 -0.040887 0.723443 0.452150 0.035309 0.402293 -0.190796 -0.037244 -0.161797 -0.147776 -0.103572 0.047659 0.140922 0.619033 0.025649 0.405775 0.410933 0.252145 0.238993 -0.239836 -0.245132 -0.951530 -0.462032 0.114600 0.386195 0.376339 -0.004689 -0.761886 -0.548462 0.124393 -0.465624 0.113829 -0.458977
interp -0.532203 -0.657796 0.076427 -0.300898 -0.218665 -0.013062 0.068762 -0.523235 -0.047950 -0.533832 0.229380 -0.278755 -0.380484 0.428246 0.318838 0.113174 0.423451 -0.046042 -0.195578 0.731763 0.501274 0.009797 0.551501 0.023431 0.133100 -0.406302 -0.471688 -0.383855 -0.107735 0.277992 0.385738 -0.254921 1.029598 0.678397 0.320097 0.310960 0.016643 -0.327990 -0.942760 -0.551709 0.177100 0.281846 0.289368 -0.016187 -0.494456 -0.736911 0.336127 -0.245128 0.168276 -0.397545
, -0.238631 -0.394030 -0.519371 -0.382963 0.160475 -0.127454 0.678378 0.028786 -0.084299 -0.140752 0.080563 -0.628078 -0.099653 0.170363 0.204278 -0.079667 0.199578 -0.516300 -0.096929 0.501831 0.322448 0.333541 0.697871 0.409824 0.014466 -0.129369 -0.008129 0.312123 0.039998 0.007684 0.130222 -0.478871 0.688093 0.341838 0.041874 0.113407 0.024758 -0.004421 -0.175991 -0.435724 -0.133539 0.401014 0.088109 -0.032819 -0.847175 -0.307013 0.078579 -0.312172 0.164179 -0.546502
appr -0.214156 0.051139 0.612934 0.240547 -0.217520 0.127549 -0.173747 -0.501695 0.123590 -0.617037 0.075068 0.494862 -0.057784 -0.076004 0.468229 0.017506 0.123101 0.152790 -0.093012 0.655302 -0.172683 -0.353741 -0.497874 -0.074786 -0.220992 -0.341607 -0.679029 -1.229274 0.259923 -0.200520 0.270818 0.100501 0.195586 0.163780 0.161490 0.377105 -0.159106 -0.156729 -0.784112 -0.167702 0.250000 -0.366502 -0.061189 0.525618 0.040176 -0.411696 -0.083021 -0.159148 0.052300 0.220054
num -0.036184 -0.655880 -0.515813 -0.275393 0.319408 0.651469 0.463262 -0.240198 -0.002627 -0.403243 -0.438357 -0.597293 0.095583 0.021954 0.023528 -0.171375 0.133513 -0.610530 -0.133139 0.315517 0.252739 0.276422 0.731675 0.313914 0.116741 0.109637 -0.150526 -0.346828 0.004152 0.213061 -0.021040 -0.331840 0.789770 0.201500 0.324250 0.149474 -0.016923 -0.041180 -0.158314 0.314243 -0.249799 0.594706 -0.015910 0.416138 -0.718671 -0.258992 0.435008 -0.470546 0.497634 -0.800424
c -0.092244 -0.215203 -0.399022 -0.259153 0.483076 0.242723 0.938240 -0.253992 0.189630 -0.236906 0.076578 -0.707544 -0.209734 -0.133833 -0.018549 -0.121624 0.120489 -0.318968 -0.070484 -0.007900 0.231632 -0.150204 0.864018 0.108820 0.022448 0.276529 -0.147486 -0.024866 0.147327 -0.061975 0.235679 -0.230145 0.163310 0.400187 0.198359 -0.004119 -0.166385 0.384503 -0.027869 0.037277 -0.283798 0.347757 0.230108 0.195170 -0.808898 -0.306153 0.613146 -0.405940 0.119438 -0.659038
npp -0.166049 0.347345 0.213969 0.307743 -0.250296 -0.326961 -0.194809 0.546916 -0.321084 0.197612 0.540073 0.440205 0.334155 0.303843 -0.211049 0.043018 0.135362 -0.194092 -0.303574 0.014178 -0.339378 -0.606227 -0.137374 -0.024725 -0.098253 -0.809410 -0.056686 0.274101 0.435476 0.132360 -0.235114 0.326985 -0.375120 0.113657 -0.071787 -0.077218 -0.024596 -0.276905 -0.115049 -0.872838 -0.568392 0.060667 0.196044 0.070668 0.735982 -0.212916 -0.570090 -0.060055 -0.663200 0.099909
ne -0.277017 0.171705 0.763960 0.389402 -0.010265 -0.585931 -0.474886 -0.257091 0.166608 -0.299524 0.591264 0.379041 0.014769 0.299982 0.157483 0.193796 0.522674 0.402470 -0.075693 0.266505 -0.385736 -0.533862 -0.821134 -0.194981 -0.255652 0.136737 -0.257845 -0.624318 0.140621 -0.381810 0.043472 0.144074 -0.087602 0.169632 -0.022618 0.309694 0.050058 0.016466 -0.360491 -0.137619 0.485543 -0.570075 0.258817 0.309866 0.539998 0.324922 -0.202878 0.600139 -0.231833 0.653981
adja -0.130006 -0.047016 0.315672 0.237570 -0.107292 -0.167707 -0.266176 -0.392730 0.377607 -0.679974 -0.248316 0.217082 0.075006 0.124113 0.423546 0.092514 0.007937 0.095591 0.263105 0.414810 -0.077715 -0.535513 -0.621369 -0.388337 -0.283723 -0.005588 -0.365812 -1.127214 0.021120 -0.404197 0.206184 0.102736 -0.171609 -0.198306 0.316549 0.529541 -0.067296 -0.216697 -0.691726 0.056616 -0.017656 -0.309813 0.121942 0.545183 0.172210 0.148119 0.098137 0.193298 0.217480 0.231605
jj -0.198459 -0.276239 -0.200056 -0.053293 0.020434 0.286878 0.613950 -0.603512 0.348638 -0.674498 -0.150408 -0.629646 -0.254617 0.279011 0.369160 0.166756 0.184892 -0.014597 0.092085 0.584436 0.411785 -0.016017 0.295929 -0.303800 -0.144050 0.308984 -0.139602 -0.360965 0.002149 0.159245 0.463008 -0.050725 0.528871 0.325315 0.321778 0.099445 -0.190608 -0.089581 -0.877355 -0.110644 0.212298 0.338443 0.306642 0.290885 -0.742983 -0.275360 0.417476 -0.338271 0.273983 -0.602219
prep -0.724100 -0.345275 0.192579 -0.343948 -0.465224 -0.213678 0.174325 -0.384948 -0.320830 -0.538975 0.060776 -0.232720 -0.452501 0.454518 0.453271 0.053269 0.152323 0.238349 -0.208423 0.687032 0.512815 -0.025863 0.479354 -0.069104 -0.009451 -0.394555 -0.437312 -0.372750 -0.111875 0.082596 0.355489 -0.177207 0.675564 0.522940 0.230378 0.337539 -0.037356 -0.564856 -0.984173 -0.444317 0.295765 0.273990 0.301452 -0.106106 -0.653128 -0.641130 0.171734 -0.115983 0.134905 -0.225174
ab -0.586824 -0.345988 0.107711 -0.078603 0.168891 0.071479 0.459955 -0.370075 -0.108544 -0.401768 0.241192 -0.594832 -0.307489 0.162410 0.238894 -0.114729 0.416857 0.040483 -0.138228 0.474402 0.371626 -0.036419 0.772334 0.078311 -0.089247 0.017302 -0.392747 -0.191851 0.051074 0.197585 0.335603 -0.177243 0.588451 0.716728 0.203150 0.095752 0.007898 -0.103080 -0.680006 -0.148660 0.308656 0.148880 0.230261 0.090938 -0.577801 -0.508241 0.351534 -0.264036 0.005110 -0.361345
p+d 0.431795 0.024234 -0.367483 -0.277581 -0.335470 0.618555 -0.003224 0.117384 -0.245592 0.170042 -0.247910 0.501961 0.215778 -0.094621 -0.437773 0.313470 -0.380828 -0.322738 -0.217772 -0.265703 -0.225779 0.025908 -0.149099 -0.015236 0.375348 -0.610782 -0.014504 -0.088428 0.049406 0.097134 -0.151617 0.276061 0.109755 -0.161146 0.368330 -0.134849 0.106969 -0.223932 -0.021118 -0.212173 -0.839619 0.389547 -0.052949 0.051306 0.102720 -0.446678 0.005282 -0.632791 0.086716 -0.315075
mad -0.200513 -0.555658 -0.097514 -0.191407 -0.038786 -0.006290 0.299323 -0.455511 0.224246 -0.413807 0.163670 -0.458913 -0.128481 0.100479 0.356813 0.212332 0.276167 -0.435786 0.210831 0.827986 0.288906 0.230703 0.302569 0.222578 0.180937 -0.210077 -0.207013 -0.217994 -0.071335 0.096003 0.446795 -0.136222 0.778481 0.241425 0.267194 0.300887 -0.084164 -0.196445 -0.822405 -0.370692 0.100014 0.226187 -0.007534 0.099122 -0.476629 -0.522885 0.162808 -0.435636 0.363037 -0.453669
$. -0.463547 -0.218292 0.367216 0.306668 -0.353875 -0.743948 -1.033002 -0.152740 0.196063 -0.159020 0.431952 0.380644 0.054767 0.449973 0.124158 0.333157 0.393773 -0.211227 0.440976 0.588264 0.102229 -0.376979 -0.487638 -0.168537 -0.011713 -0.777241 -0.242219 -0.467156 -0.146427 0.008329 0.259565 0.089963 0.221905 0.060323 0.287912 0.386782 0.497991 -0.531574 -0.903826 -0.647670 -0.054474 -0.356464 0.121549 -0.062830 1.032832 0.026924 -0.329601 0.394517 -0.008175 0.556266
$, -0.206857 -0.498602 0.341145 0.034024 -0.143185 -0.525543 -0.686738 -0.431368 0.158876 -0.405913 0.406225 0.457922 -0.276947 0.218837 0.260427 -0.007298 0.560960 -0.169114 -0.023605 0.613526 0.276003 -0.141005 -0.295417 -0.052857 0.073641 -0.592324 -0.485033 -0.778910 -0.179440 -0.250208 0.280825 -0.358466 0.599236 0.340690 0.141440 0.599957 0.257105 -0.027279 -0.576665 -0.585066 0.039069 -0.436597 0.264370 0.002137 0.307724 -0.057017 0.053928 0.225914 0.172624 0.407563
vpp -0.355304 0.073151 -0.176679 -0.223904 0.064262 -0.189229 0.027234 0.081526 0.184544 -0.087969 0.053286 0.324553 0.058499 -0.016805 -0.136075 -0.054276 -0.179488 -0.356775 -0.165907 -0.039382 -0.075321 -0.783596 0.300822 0.204058 -0.133029 -0.766542 -0.602299 -0.851843 0.309351 -0.428673 -0.194291 -0.298883 -0.000389 0.217247 0.249487 0.165796 0.319363 0.008179 -0.009371 -0.486768 -0.785553 -0.035337 0.093115 0.326621 0.174865 -0.362955 0.238924 0.073337 -0.069456 -0.010076
dt -0.177914 -0.617146 0.080486 -0.115842 0.378191 0.006735 0.527099 -0.401791 0.273154 -0.356536 0.424146 -0.650570 -0.045893 -0.154377 0.239593 0.100404 0.460543 -0.475075 0.176274 0.584935 0.063828 -0.005302 0.530226 0.335474 0.208358 -0.001260 -0.367073 -0.147151 0.081296 0.024961 0.458832 -0.123138 0.551403 0.424644 0.246782 0.280449 -0.177497 0.145801 -0.656288 -0.273324 0.057361 -0.032572 -0.005464 0.241761 -0.431404 -0.634692 0.388988 -0.587529 0.147416 -0.481452
pn -0.456556 -0.287783 0.079943 -0.164380 0.281151 0.123954 0.416759 -0.511274 0.196184 -0.239972 0.413535 -0.468026 -0.489977 0.119629 0.097461 -0.100953 0.466105 0.179879 -0.251765 0.217507 0.402143 -0.089451 0.826486 0.084498 -0.078467 0.153805 -0.444304 -0.213012 0.088226 0.276016 0.288137 -0.364659 0.751027 0.878982 0.041050 -0.166124 0.070449 0.278271 -0.357547 -0.181854 0.458745 0.043215 0.257290 -0.041047 -0.516573 -0.511013 0.575862 -0.054209 -0.082935 -0.324270
vvfin -0.652723 0.243710 0.647138 0.266279 -0.020511 -0.306012 0.087633 -0.462528 0.101783 -0.438380 0.540596 -0.010118 -0.251826 0.149811 0.283702 0.188668 0.266113 0.320806 0.052018 0.376511 -0.167261 -0.587861 -0.156711 -0.092692 -0.232106 -0.008365 -0.451171 -0.648585 0.299686 -0.215540 0.431567 0.231964 -0.091766 0.436877 0.261676 0.247013 -0.084210 -0.145284 -0.736996 -0.173877 0.390044 -0.236288 0.141331 0.281406 -0.005959 -0.361215 0.015471 0.133749 -0.221858 0.233730
m -0.032877 -0.401421 -0.350373 -0.153930 0.318523 0.271328 0.642004 -0.132672 -0.064159 -0.256513 -0.032151 -0.601907 0.039133 0.007392 0.038414 -0.068347 0.244009 -0.479289 -0.053878 0.274076 0.164815 0.133131 0.591229 0.183688 0.085515 0.143792 -0.039317 0.087481 0.053803 0.075037 0.149695 -0.165136 0.381097 0.255045 0.217616 0.093932 -0.105827 0.055749 -0.234140 0.041015 -0.243254 0.379791 0.113635 0.242477 -0.591406 -0.219584 0.293707 -0.495204 0.193195 -0.623234
praet -0.805072 -0.393934 0.207071 0.032115 -0.003137 0.016792 0.224990 -0.333159 -0.161748 -0.580836 0.305181 -0.672557 0.036986 0.693128 0.064009 0.357826 0.529210 0.015580 -0.072055 0.438526 0.045155 -0.334922 0.407266 -0.175824 0.019342 0.060375 -0.261887 -0.111499 0.040619 0.382086 0.263040 0.267970 0.538755 0.594367 0.558000 0.216434 0.023560 -0.659616 -1.087728 -0.157761 0.117118 0.447887 0.431999 0.381746 -0.128773 -0.415624 0.213809 -0.187290 -0.112539 -0.508176
cc -0.047285 0.318205 -0.164776 -0.207849 -0.300817 0.162960 0.083815 0.302825 -0.320981 0.231827 0.018894 0.398662 0.082922 0.060123 -0.408309 0.128107 -0.366040 -0.024986 -0.348803 -0.412497 -0.175378 -0.467037 0.162849 -0.025217 0.097494 -0.651136 -0.126993 -0.051246 0.242966 -0.047203 -0.223523 0.206516 -0.245602 0.067722 0.222765 -0.178280 0.116769 -0.197596 0.087365 -0.384290 -0.757909 0.298684 0.122564 -0.007770 0.173306 -0.421645 0.007188 -0.205570 -0.269441 -0.131598
kn -0.217607 -0.481591 -0.033357 -0.132266 -0.021088 0.079844 0.392760 -0.512314 0.129406 -0.422763 0.265349 -0.495959 -0.235784 0.183756 0.252924 0.232088 0.363269 -0.210818 0.086920 0.600196 0.287705 0.148917 0.364732 0.003636 0.185632 -0.001623 -0.126944 -0.023531 -0.053023 0.244653 0.506942 -0.000471 0.658443 0.387806 0.299817 0.196551 -0.164263 -0.140308 -0.784091 -0.278162 0.152972 0.310672 0.185153 0.044544 -0.506160 -0.506506 0.276500 -0.455259 0.202401 -0.500604
prt -0.710033 -0.295986 0.037337 0.310208 0.421995 -0.036524 0.427112 -0.473456 0.241565 -0.409999 0.242758 -0.761721 -0.489093 -0.035626 0.454662 -0.320823 0.343114 -0.204982 0.406935 0.506091 0.632520 -0.099951 0.958414 -0.127848 -0.225845 0.090551 -0.442526 0.007909 0.057102 0.460825 0.720300 -0.209789 0.176228 0.707632 0.194980 0.014879 0.019273 0.064427 -0.851018 -0.131867 0.248048 -0.083135 0.134171 0.001479 -0.365916 -0.463397 0.374484 -0.342090 -0.098384 -0.346157
$lrb -0.521037 0.002286 0.684736 0.540098 -0.194589 -0.432866 -0.614678 -0.155453 -0.141234 -0.365543 0.463984 0.211061 0.024030 0.415831 0.201233 0.080756 0.489314 0.118543 0.096561 0.457190 -0.089428 -0.404034 -0.446007 -0.275503 -0.137174 -0.317543 -0.198257 -0.360800 0.083095 0.111648 0.265859 0.351234 -0.136346 0.193571 0.193974 0.391685 0.057177 -0.458434 -0.750935 -0.251405 0.196876 -0.264604 0.225582 0.177881 0.676923 0.018483 -0.383713 0.227801 -0.254465 0.402087
vinf -0.412857 0.196094 -0.341192 -0.171090 0.214013 -0.319964 0.146165 0.375710 0.244348 0.024337 -0.120535 0.070676 0.155606 0.010084 -0.074205 -0.279349 -0.326073 -0.283739 -0.126249 -0.164409 -0.019472 -0.815967 0.509600 0.260038 -0.371355 -0.557515 -0.438420 -0.606286 0.364676 -0.404903 -0.432938 -0.453681 -0.255056 0.087597 -0.028848 0.032903 0.240595 0.099124 0.354087 -0.367035 -0.714093 -0.012514 0.037447 0.311704 0.118857 -0.075357 0.176263 0.325181 -0.162708 -0.021612
k -0.124399 -0.189588 -0.358914 -0.166170 0.280171 0.189078 0.614181 -0.214885 0.022741 -0.129651 0.162373 -0.428645 -0.149493 0.029790 -0.040000 0.027276 0.181490 -0.359759 -0.096334 0.139513 0.111356 0.155996 0.512302 0.151865 0.098679 0.130908 -0.028901 0.182717 0.091298 0.102239 0.190629 -0.153322 0.411979 0.364664 0.190980 -0.043161 0.020062 0.121266 -0.093869 -0.034604 -0.145368 0.408242 0.160458 0.078467 -0.566851 -0.222842 0.210004 -0.334917 0.112301 -0.508455
qub -0.396165 -0.450557 0.344592 -0.160544 -0.120152 0.242768 -0.058840 -0.531735 0.002019 -0.287971 0.331577 -0.300132 -0.425718 0.277668 0.092162 0.042347 0.459217 0.427859 -0.328536 0.299980 0.457829 -0.176648 0.612323 -0.087632 0.029902 -0.199281 -0.448042 -0.485559 -0.046259 0.423158 0.321371 -0.093832 0.805368 0.755506 0.162812 -0.015864 0.061985 -0.050723 -0.761148 -0.280854 0.459566 -0.005765 0.248913 -0.106333 -0.192942 -0.725280 0.563883 -0.168115 -0.052575 -0.228593
mid -0.312134 -0.381878 -0.158052 -0.267421 0.023357 -0.045692 0.475777 -0.463434 0.216943 -0.314367 0.278287 -0.516374 -0.304213 0.180355 0.237861 0.216705 0.293838 -0.190219 0.055486 0.564074 0.354170 0.119205 0.491936 0.123275 0.109080 -0.031590 -0.182805 -0.069743 -0.043724 0.096658 0.431051 -0.203581 0.749993 0.451392 0.206668 0.103072 -0.016962 -0.026102 -0.635373 -0.367999 0.184731 0.266006 0.169318 -0.034435 -0.610076 -0.489140 0.320001 -0.281419 0.231361 -0.445279
fin -0.622924 -0.405863 0.096559 -0.081507 -0.086948 0.062673 0.321811 -0.383529 -0.074235 -0.603765 0.167639 -0.661117 0.008709 0.658467 0.081595 0.446441 0.366574 0.015389 -0.030796 0.382321 0.076639 -0.331653 0.322009 -0.268455 0.053549 0.092359 -0.206810 -0.136618 -0.012588 0.304555 0.270607 0.279610 0.476765 0.457205 0.606935 0.226706 -0.064868 -0.635743 -1.081896 -0.165314 0.007359 0.497389 0.454014 0.351256 -0.233005 -0.430133 0.322228 -0.250714 -0.004494 -0.578286
vafin -0.571876 0.063186 0.596571 0.267339 -0.078394 -0.292958 -0.227256 -0.308922 0.236218 -0.368617 0.260063 -0.118660 -0.156305 0.140465 0.267685 0.090021 0.105044 0.375428 0.240482 0.252767 0.046895 -0.744620 -0.000333 -0.239207 -0.248369 -0.174855 -0.392246 -0.771796 0.161029 -0.096879 0.378164 0.243416 -0.291022 0.202901 0.258304 0.272511 -0.047511 -0.206745 -0.744610 -0.133334 0.212700 -0.344322 0.077642 0.190968 0.273812 -0.361714 0.182980 0.177850 -0.157912 0.233448
x 0.000118 -0.385888 -0.100540 0.000720 0.024029 0.331553 0.401164 -0.057806 -0.576296 -0.362952 0.126354 -0.623364 -0.066985 0.525642 -0.199029 -0.006023 0.544471 -0.026211 -0.440802 -0.108585 0.264954 0.077593 0.484180 -0.400377 0.243367 0.264347 0.382176 0.585031 -0.151864 0.423518 0.220368 0.348757 0.108758 0.340757 0.371084 0.229194 -0.317171 -0.286535 -0.319752 0.114591 -0.323767 0.749464 0.648482 0.058498 -0.419932 0.012578 0.261074 -0.447781 -0.105702 -0.701485
kon -0.309606 0.015922 0.676841 0.295843 -0.182491 -0.396586 -0.514557 -0.336979 0.171098 -0.346075 0.339270 0.364491 -0.094440 0.030865 0.253092 0.136188 0.149062 0.211963 0.217192 0.297433 -0.116976 -0.619431 -0.459461 -0.207046 -0.102384 -0.376577 -0.423156 -0.878747 0.089822 -0.280666 0.358644 0.248319 -0.264217 0.054637 0.250591 0.442551 -0.002267 -0.172725 -0.675770 -0.232305 0.073830 -0.514071 0.045652 0.184160 0.515236 -0.242023 0.003567 0.177179 -0.069855 0.489637
vvpp -1.004478 0.070805 0.363026 0.454215 0.085597 -0.534672 -0.126440 -0.368990 0.016149 -0.724650 0.351600 -0.084031 -0.036112 0.552930 0.277045 0.136962 0.490756 -0.205868 0.244400 0.560750 -0.100291 -0.641636 -0.219066 -0.273939 -0.343146 -0.064819 -0.446679 -0.642073 0.157847 -0.147756 0.308331 0.147634 0.018694 0.450292 0.590165 0.464131 0.256128 -0.573878 -0.968621 -0.124120 -0.007492 0.055228 0.432970 0.576772 0.237517 0.179079 -0.173102 0.376030 -0.068651 0.127238
s 0.010834 -0.308382 -0.310048 -0.150107 0.257710 0.207078 0.567003 -0.124364 -0.012834 -0.196066 -0.002566 -0.511902 -0.086123 -0.012132 0.065118 -0.089560 0.189063 -0.333887 -0.073585 0.170503 0.207699 0.169299 0.501276 0.096224 0.069796 0.195920 0.030389 0.187360 0.020927 0.074318 0.170919 -0.167573 0.293719 0.220131 0.111046 0.046877 -0.137961 0.135806 -0.108369 0.008599 -0.128446 0.329140 0.131498 0.103615 -0.587578 -0.143170 0.265436 -0.375143 0.141613 -0.512192
cls -0.778477 0.232097 0.232516 0.110604 -0.032396 -0.285600 0.003687 -0.223767 0.240382 -0.271536 0.387968 0.164161 0.020099 0.203591 0.065116 0.229147 0.047802 -0.109703 0.064834 0.331750 -0.187232 -0.928712 0.105741 0.051334 -0.285958 -0.608683 -0.703559 -0.904122 0.414163 -0.212476 0.104272 0.014797 0.069788 0.434768 0.407570 0.072990 0.321592 -0.281624 -0.753159 -0.523727 -0.280192 -0.131273 0.103672 0.433399 0.354187 -0.511211 0.075107 0.104230 -0.243819 0.089679
adjd -0.460415 -0.156172 0.433556 0.223207 0.091327 -0.301456 -0.365315 -0.367242 0.182702 -0.447285 0.288585 0.092215 -0.024030 0.286474 0.063036 0.166212 0.395524 0.034712 0.113528 0.174937 -0.100026 -0.638007 -0.232275 -0.241792 -0.104258 -0.090762 -0.411796 -0.779403 0.022391 -0.183990 0.181475 0.086735 0.052237 0.288784 0.425403 0.364404 0.207380 -0.200409 -0.633738 -0.057365 -0.027414 -0.248622 0.280618 0.377232 0.423345 0.047825 0.215402 0.306643 -0.012219 0.232222
apprart -0.218224 0.134713 0.498824 0.339627 -0.110374 -0.235677 -0.186835 -0.459483 0.254980 -0.466046 0.272213 0.440540 0.048099 -0.076691 0.352067 0.322236 0.107603 -0.159777 0.356062 0.584088 -0.385244 -0.342444 -0.801281 -0.049057 -0.076816 -0.213215 -0.427826 -0.837873 0.202355 -0.372660 0.404214 0.293403 -0.063127 -0.054523 0.350193 0.431544 -0.024416 -0.230840 -0.792004 -0.167878 0.051922 -0.352078 -0.091931 0.452735 0.266731 -0.189299 -0.263051 -0.060241 0.080925 0.320798
prorel -0.438315 0.410561 0.034373 -0.104485 -0.356016 -0.052577 0.094060 -0.154895 0.045841 -0.032702 0.164088 0.440692 -0.037253 0.035494 -0.023419 0.407201 -0.324588 -0.053759 0.051872 0.216469 -0.221273 -0.493737 -0.148461 0.061203 -0.075171 -0.665649 -0.484720 -0.593998 0.312170 -0.218018 0.087447 0.145870 0.100510 0.169900 0.369750 -0.104296 0.287459 -0.356778 -0.576510 -0.493333 -0.301191 0.055497 -0.042200 0.165225 0.130494 -0.607159 -0.087536 -0.113166 -0.094012 0.085124
card -0.165184 -0.013219 0.445980 0.259549 0.048289 0.051772 -0.416867 -0.454484 0.492072 -0.341493 -0.016419 0.105610 0.228820 -0.031394 0.064777 0.431517 0.005523 0.084523 0.471623 0.155899 -0.382382 -0.590353 -0.583015 -0.155511 -0.094453 0.076395 -0.342412 -1.077433 0.078800 -0.235102 0.189070 0.340799 -0.102994 -0.172613 0.503853 0.242581 0.127944 -0.229356 -0.687619 0.302817 0.085643 -0.367963 -0.175571 0.538197 0.561895 -0.073456 0.197085 0.130059 0.192474 0.247785
pper -0.500434 -0.148824 0.318102 -0.136216 0.024819 -0.477176 -0.449834 -0.495780 0.130951 -0.250470 0.312414 0.358794 -0.363122 0.216785 -0.067280 0.177861 0.298029 0.188552 0.012638 -0.028965 0.062722 -0.457991 -0.165586 -0.169813 0.015316 -0.107575 -0.512251 -0.826364 -0.183370 -0.442725 0.153058 -0.245990 0.288442 0.440594 0.399953 0.287736 0.540515 -0.026417 -0.360640 -0.007383 0.054355 -0.345112 0.332883 0.052136 0.235530 0.121254 0.390793 0.578951 0.129812 0.489476
rg -0.117171 -0.476617 -0.118020 -0.062414 0.098615 0.317722 0.299746 -0.465167 0.163842 -0.468979 -0.018034 -0.404233 -0.104926 0.111851 0.215017 0.063679 0.283013 -0.283422 0.047529 0.518722 0.257872 0.177310 0.323446 0.018617 0.079647 0.069938 -0.196962 -0.242665 -0.036728 0.253281 0.316240 -0.087122 0.662172 0.314307 0.287302 0.164389 -0.095452 -0.091982 -0.629406 -0.056505 0.082706 0.263117 0.100052 0.245536 -0.457925 -0.360995 0.274199 -0.420760 0.267036 -0.504581
cs -0.431492 0.363830 -0.128830 -0.270946 -0.197454 0.029846 0.148187 -0.034053 0.008813 0.089303 -0.015755 0.157668 -0.106523 0.003909 -0.247392 0.289222 -0.469588 0.067469 0.038577 -0.279768 -0.077580 -0.662176 0.277376 -0.020890 -0.043471 -0.490676 -0.346837 -0.482878 0.198731 -0.215512 0.016333 0.126229 -0.183503 0.168548 0.464158 -0.158330 0.325530 -0.271986 -0.249966 -0.204516 -0.536141 0.175337 0.033507 0.059295 0.059238 -0.536348 0.288289 -0.022866 -0.106112 -0.036957
vvinf -1.023755 0.172359 0.190734 0.301568 0.055982 -0.597533 0.030800 -0.283936 0.045568 -0.512425 0.264241 -0.197289 -0.118719 0.524389 0.281462 0.151451 0.276394 -0.082169 0.306483 0.463913 0.018395 -0.505172 -0.025474 -0.261418 -0.373913 0.051706 -0.378079 -0.340082 0.106439 -0.100789 0.273731 0.001989 0.001734 0.430948 0.432061 0.222061 0.351206 -0.534410 -0.864525 -0.141387 0.120992 0.062975 0.380605 0.334021 0.107694 0.185183 -0.168423 0.421636 -0.111839 0.153775
pc -0.167593 -0.365228 -0.069793 -0.043901 0.120417 0.166770 0.393671 -0.489318 0.265530 -0.456143 -0.011210 -0.491938 -0.198160 0.075976 0.316405 0.067813 0.238829 -0.113279 0.124665 0.525200 0.306272 0.096027 0.307399 -0.058782 -0.026045 0.189771 -0.182860 -0.258679 -0.035955 0.146791 0.393598 -0.110632 0.525367 0.295979 0.204321 0.130820 -0.131778 -0.010723 -0.641271 -0.069766 0.227952 0.137901 0.119333 0.192577 -0.542911 -0.291498 0.314774 -0.309848 0.242221 -0.410018
pm -0.072448 -0.592174 -0.162722 -0.184551 0.171310 0.207061 0.318935 -0.466779 0.071457 -0.466782 0.144262 -0.371427 -0.307099 0.243550 0.132283 -0.037705 0.452892 -0.241747 -0.226522 0.329197 0.333759 0.181962 0.476208 -0.060682 0.169076 0.157093 -0.156082 -0.016442 -0.078480 0.275113 0.279947 -0.251355 0.710481 0.483231 0.210171 0.215538 -0.154295 0.116686 -0.321693 -0.126917 0.008402 0.351220 0.341346 0.079596 -0.597081 -0.251671 0.391128 -0.281272 0.187167 -0.547741
sn -0.367412 -0.203096 0.089965 -0.026859 0.001278 0.126239 0.368665 -0.353594 -0.011267 -0.238996 0.183526 -0.538704 -0.214790 0.093800 0.260658 0.074936 0.260565 0.076342 0.040037 0.496691 0.286238 0.164932 0.472982 0.065320 -0.023038 0.086953 -0.170679 0.019396 0.022060 0.293360 0.375485 -0.016748 0.510508 0.423413 0.104006 -0.039112 -0.042580 -0.146563 -0.675586 -0.115555 0.454544 0.131330 0.040553 -0.022984 -0.442165 -0.468391 0.150420 -0.314280 0.035577 -0.311766
hp -0.264836 -0.251551 0.093269 -0.006401 0.073200 0.156592 0.289604 -0.447008 0.134769 -0.254584 0.187635 -0.409462 -0.288930 -0.005419 0.265425 0.024634 0.267266 0.061244 0.061699 0.456879 0.316078 0.151064 0.408470 0.031100 -0.023232 0.086519 -0.251064 -0.101307 -0.000212 0.254289 0.423068 -0.091582 0.524267 0.448681 0.086173 -0.027283 -0.035637 0.034727 -0.618570 -0.109987 0.422252 -0.002856 0.030198 -0.027787 -0.397146 -0.466703 0.262711 -0.289551 0.063809 -0.232058
pro -0.355169 0.024742 0.095822 0.030524 -0.004821 -0.296670 -0.248212 0.187839 0.010869 -0.127092 0.180451 0.271477 0.094328 0.209979 -0.109832 -0.134056 0.059636 -0.120408 -0.228116 -0.052979 -0.022458 -0.822589 0.207417 -0.035729 -0.184713 -0.683620 -0.437023 -0.612128 0.241194 -0.201150 -0.189129 -0.116634 -0.191688 0.237839 0.137072 0.205944 0.179053 -0.088486 -0.091419 -0.506924 -0.609840 -0.093106 0.244235 0.250000 0.446238 -0.170852 0.100457 0.196472 -0.272917 0.107045
clr -0.514660 0.201224 -0.069788 -0.201978 -0.015671 -0.273370 0.016457 -0.041069 0.076661 -0.017087 0.342542 0.425588 0.057455 0.179906 -0.204442 0.267727 0.002954 -0.278093 -0.190756 0.070097 -0.290573 -0.694908 0.026137 0.213707 -0.087897 -0.674170 -0.598102 -0.658988 0.311190 -0.378639 -0.181651 -0.198417 0.289580 0.372521 0.340730 0.009157 0.499462 -0.163743 -0.222599 -0.542738 -0.543887 0.010851 0.156845 0.296712 0.282361 -0.322880 0.056061 0.179731 -0.142033 0.093336
ie -0.211816 -0.391504 0.264951 0.050702 0.236792 0.049376 0.212457 -0.456170 0.185864 -0.292500 0.332052 -0.391692 -0.319501 -0.106884 0.318205 -0.149287 0.444047 0.051323 0.022891 0.464106 0.321309 0.036629 0.491011 0.102640 -0.017233 0.062760 -0.376524 -0.225800 0.017776 0.198126 0.425760 -0.198828 0.473241 0.516181 -0.014803 0.101434 -0.121700 0.246139 -0.521883 -0.174798 0.467667 -0.240514 0.030644 -0.007794 -0.347915 -0.472462 0.355425 -0.257899 0.004907 -0.157460
vmfin -0.642135 0.128044 0.414522 0.319629 -0.079253 -0.350574 -0.110870 -0.260662 0.130238 -0.477232 0.236749 0.007164 -0.121403 0.187271 0.329795 0.016566 0.124696 0.068701 0.215922 0.419310 0.011223 -0.617291 -0.055358 -0.182660 -0.294189 -0.273996 -0.429490 -0.685221 0.212037 -0.140809 0.346426 0.152565 -0.210793 0.240881 0.301376 0.330788 0.012468 -0.303281 -0.752520 -0.252050 0.031183 -0.171249 0.141238 0.310741 0.178707 -0.222422 -0.052355 0.141674 -0.129112 0.184790
pad -0.193863 -0.386727 -0.036325 -0.040394 -0.030009 0.063633 0.195701 -0.339350 0.064588 -0.428828 0.018273 -0.304872 -0.145577 0.155916 0.282274 0.015829 0.226132 -0.218347 0.049740 0.538723 0.271993 0.121021 0.246229 -0.005821 0.038201 -0.081528 -0.158894 -0.212482 -0.049731 0.160131 0.310887 -0.083451 0.473134 0.227294 0.202060 0.267619 -0.111100 -0.168312 -0.585672 -0.168090 0.077206 0.221527 0.118365 0.129271 -0.387159 -0.293855 0.133257 -0.289546 0.220152 -0.351778
inf -0.329981 -0.373887 0.273205 -0.035734 -0.024666 0.108094 0.002160 -0.417460 0.087269 -0.408235 0.236106 -0.328061 -0.194976 0.337020 0.120626 0.118424 0.413567 0.271660 -0.195559 0.318723 0.239279 -0.260706 0.321647 -0.152964 -0.030102 -0.024120 -0.312696 -0.433093 0.008776 0.240987 0.223773 -0.011908 0.512089 0.504340 0.202390 0.124806 -0.046086 -0.098868 -0.682472 -0.176688 0.288544 0.018441 0.282518 0.137598 -0.131207 -0.406618 0.417315 -0.086975 -0.023929 -0.214578
ppron3 -0.230726 -0.494164 0.226831 -0.062356 0.068678 0.043333 0.003738 -0.453001 0.123215 -0.431579 0.189929 -0.304328 -0.221718 0.239000 0.169749 0.042560 0.432847 0.150163 -0.094823 0.299156 0.260146 -0.198588 0.288498 -0.162327 0.038399 0.034968 -0.338499 -0.410378 -0.085477 0.148843 0.283958 -0.099734 0.496399 0.448395 0.219065 0.223720 -0.041782 -0.014324 -0.610798 -0.147372 0.227500 -0.066709 0.277386 0.105054 -0.174181 -0.329916 0.484378 -0.087167 0.049927 -0.202644
kous -0.610084 0.356327 0.480797 0.114374 -0.139676 -0.429554 0.057056 -0.290834 0.182342 -0.384949 0.279183 0.112464 -0.238504 0.169223 0.332539 0.095597 0.003116 0.394368 0.012763 0.284752 -0.068968 -0.737957 -0.149375 -0.148673 -0.397542 -0.150411 -0.473944 -0.811633 0.289806 -0.395787 0.227450 0.034566 -0.203597 0.273144 0.131256 0.215830 -0.006624 -0.125523 -0.546860 -0.265462 0.227131 -0.273326 0.173625 0.240137 -0.012795 -0.218693 0.054131 0.342536 -0.177244 0.319399
comp -0.172916 -0.207737 0.379774 -0.036070 -0.185780 0.173485 0.103656 -0.457970 -0.009295 -0.480832 0.163544 -0.286679 -0.218723 0.387654 0.154573 0.188101 0.396172 0.546245 -0.316896 0.274154 0.195073 -0.229668 0.062277 -0.343114 -0.080047 0.190185 -0.178487 -0.431092 -0.014445 0.170053 0.249690 0.152619 0.414311 0.406687 0.161137 0.108692 -0.210069 -0.121850 -0.718457 -0.102427 0.456596 0.063433 0.370860 0.154621 -0.276986 -0.313820 0.380819 -0.065966 -0.043553 -0.189762
clo -0.614957 0.256429 -0.017006 -0.146165 0.009292 -0.289970 0.048292 -0.072938 0.171837 -0.035382 0.286323 0.251712 0.024371 0.121146 -0.182231 0.279238 -0.109208 -0.167048 -0.007633 -0.032836 -0.238191 -0.812157 0.142843 0.144495 -0.138859 -0.555634 -0.576379 -0.683439 0.318173 -0.364286 -0.067057 -0.098822 0.069398 0.335893 0.412666 -0.020125 0.469274 -0.180833 -0.316858 -0.407591 -0.499828 -0.011748 0.119063 0.281497 0.274174 -0.373638 0.156856 0.194330 -0.171431 0.086701
et -0.292427 -0.001914 0.491681 0.099379 -0.432447 0.040745 -0.541491 -0.083683 -0.635781 -0.344778 0.276127 0.552802 -0.065756 0.568058 -0.386496 0.185520 0.254639 0.325002 -0.558185 -0.381063 -0.104751 -0.851638 -0.177722 -0.635223 0.185118 -0.588200 -0.249502 -0.514219 0.007141 0.029813 0.059609 0.565093 -0.306338 0.329894 0.654489 0.409341 0.065515 -0.556677 -0.546542 -0.223714 -0.696209 0.205081 0.666798 0.198550 0.581942 -0.240155 0.193836 -0.012451 -0.359560 0.074045
piat -0.202152 0.018081 0.366508 0.198351 0.026361 -0.224953 -0.240795 -0.414435 0.436993 -0.347093 0.138551 0.183512 0.064311 -0.062397 0.202861 0.314952 0.043180 -0.056258 0.417140 0.297146 -0.275454 -0.486877 -0.534372 -0.092111 -0.085724 -0.051596 -0.357515 -0.898821 0.095951 -0.374067 0.286613 0.167840 -0.079854 -0.065716 0.395557 0.323569 0.103397 -0.112102 -0.614257 0.001812 0.022049 -0.388025 -0.077215 0.414731 0.329814 -0.074565 0.084862 0.127432 0.149196 0.284757
pposat -0.162528 0.080887 0.341606 0.232705 0.069514 -0.317768 -0.208226 -0.415921 0.474310 -0.278011 0.208904 0.199733 0.052152 -0.106623 0.211335 0.345548 0.056602 -0.077615 0.490693 0.322137 -0.320491 -0.363970 -0.639832 -0.037756 -0.084422 0.057575 -0.312835 -0.733161 0.077345 -0.407341 0.295734 0.148306 -0.094094 -0.107105 0.309290 0.265191 0.119352 -0.030330 -0.557864 0.025297 0.141808 -0.441877 -0.129324 0.351479 0.319745 0.010607 0.001883 0.159989 0.140406 0.357690
prels -0.489595 0.313796 0.445524 0.087666 0.027045 -0.423698 0.002830 -0.334754 0.409227 -0.260597 0.237299 0.076271 -0.182372 -0.020897 0.251625 0.149545 -0.056218 0.385358 0.218308 0.129781 -0.154401 -0.717167 -0.199108 -0.066839 -0.354395 0.051171 -0.466598 -0.892090 0.222647 -0.498228 0.201894 -0.016717 -0.252637 0.161659 0.148453 0.121775 0.073565 0.065752 -0.389055 -0.040390 0.300621 -0.443903 0.008247 0.257900 0.089445 -0.118745 0.195631 0.448436 -0.070237 0.415133
pl -0.235254 -0.285029 0.073302 0.005418 0.129783 0.071037 0.277042 -0.400950 0.149717 -0.330960 0.154869 -0.379787 -0.301504 0.015043 0.297582 -0.104070 0.279685 -0.010378 0.028942 0.421074 0.337201 0.077821 0.425386 0.006191 -0.063169 0.094190 -0.247798 -0.149976 0.013929 0.180554 0.375504 -0.175423 0.415597 0.405486 0.044558 0.078002 -0.105774 0.107122 -0.470580 -0.123726 0.329128 -0.024012 0.085819 0.016053 -0.433730 -0.343099 0.257778 -0.226585 0.061904 -0.249488
vpr -0.047974 0.134656 -0.196923 -0.125279 -0.038171 0.032830 0.043660 0.427641 -0.146215 0.104727 -0.113054 0.176664 0.143819 0.022229 -0.253522 -0.227258 -0.262894 -0.128115 -0.344807 -0.365352 0.002871 -0.599998 0.422836 0.024980 -0.096904 -0.602616 -0.168910 -0.227037 0.251599 -0.104266 -0.326245 -0.068754 -0.377644 0.035946 0.038129 0.005767 0.016831 0.001661 0.312016 -0.354512 -0.815526 0.156672 0.126970 0.110627 0.172365 -0.228141 0.126854 -0.050058 -0.255696 -0.153225
ptkvz -0.607503 0.217007 0.407198 0.301244 0.010036 -0.424781 -0.108810 -0.223697 0.071957 -0.404075 0.222288 0.026756 -0.108027 0.237623 0.263025 0.037407 0.179360 0.184918 0.166403 0.233138 -0.094471 -0.545342 -0.235120 -0.236231 -0.324678 0.035607 -0.306688 -0.535956 0.151856 -0.213267 0.209183 0.118532 -0.253028 0.211786 0.220553 0.261625 0.078060 -0.239654 -0.529204 -0.018833 0.175511 -0.189227 0.224444 0.286002 0.176684 0.092518 -0.083367 0.348902 -0.144830 0.300843
ha -0.274900 -0.197272 0.064327 -0.038985 -0.022399 0.085400 0.224824 -0.354781 0.069694 -0.203132 0.153622 -0.336745 -0.228152 0.078793 0.217081 0.120192 0.204964 0.039949 0.081347 0.436431 0.223394 0.160252 0.273612 0.061950 0.020056 0.037583 -0.153681 -0.062843 -0.026401 0.207553 0.343037 -0.028859 0.484461 0.333101 0.107659 0.004373 0.002804 -0.096809 -0.557569 -0.103158 0.361842 0.089692 0.030218 -0.033997 -0.323640 -0.372324 0.137047 -0.219138 0.112039 -0.208708
: -0.074067 -0.151309 -0.221086 -0.154483 0.128572 0.098146 0.367188 -0.127226 0.012472 -0.113244 0.040384 -0.308501 -0.122743 0.041214 0.044614 -0.018072 0.107147 -0.169285 -0.040825 0.146415 0.149541 0.134383 0.333693 0.076692 0.042203 0.073121 -0.010510 0.099477 0.002715 0.056112 0.131015 -0.142175 0.280402 0.198840 0.077770 0.010953 -0.036087 0.059199 -0.095349 -0.052310 -0.052565 0.252980 0.105006 0.009168 -0.426274 -0.153077 0.151843 -0.203516 0.097659 -0.320294
prf -0.231155 -0.163135 0.405773 0.017321 0.038605 -0.249260 -0.385159 -0.430358 0.206937 -0.252097 0.220603 0.245263 -0.202490 0.034203 0.085709 0.098464 0.228574 0.172552 0.076285 0.090853 0.010126 -0.364283 -0.215003 -0.123029 -0.008279 -0.071964 -0.415848 -0.774721 -0.092006 -0.267848 0.203024 -0.085354 0.136968 0.219046 0.232536 0.275755 0.213393 0.046598 -0.373074 0.025636 0.164029 -0.410522 0.106909 0.118922 0.238087 -0.025733 0.294272 0.298673 0.114327 0.362841
ppas -0.263793 -0.431246 0.245496 -0.027630 0.023909 -0.085936 0.043615 -0.404368 0.113226 -0.510884 0.109872 -0.284724 -0.191955 0.229856 0.300729 0.032495 0.341645 0.111468 -0.008442 0.394714 0.230682 -0.182242 0.166733 -0.187916 -0.005027 0.071831 -0.295763 -0.416961 -0.075177 0.021507 0.293229 -0.080921 0.356149 0.323103 0.211748 0.334863 -0.122237 -0.099532 -0.648906 -0.149702 0.199348 -0.048212 0.262310 0.168607 -0.238333 -0.246174 0.339583 -0.059645 0.110348 -0.158334
ps -0.096687 -0.359738 0.017007 -0.014535 0.095850 0.061054 0.227699 -0.431233 0.312010 -0.324075 0.128614 -0.349751 -0.138570 -0.035946 0.286485 0.124925 0.231426 -0.205613 0.222982 0.508841 0.177009 0.121269 0.159778 0.052296 0.074976 0.087794 -0.180422 -0.184275 -0.037828 0.112591 0.398916 -0.078924 0.461959 0.198582 0.161199 0.140702 -0.119813 0.037414 -0.560450 -0.138939 0.222650 0.010000 -0.024762 0.104636 -0.305570 -0.328059 0.199325 -0.304030 0.229126 -0.271824
ptkneg -0.449602 -0.082949 0.315347 0.128128 0.024757 -0.234544 -0.307420 -0.355519 0.228459 -0.276850 0.124909 0.021370 -0.125612 0.087327 0.158811 0.094546 0.136865 0.093692 0.259802 0.212123 0.057518 -0.383862 -0.066274 -0.110284 -0.117885 -0.098895 -0.362392 -0.675185 -0.015735 -0.116198 0.242542 -0.004560 0.070054 0.187554 0.283716 0.210617 0.217764 -0.160952 -0.527225 0.007042 0.156421 -0.275393 0.022501 0.175090 0.259897 -0.095719 0.172219 0.238935 0.077339 0.247175
pis -0.344406 -0.069672 0.316072 0.090513 0.041218 -0.353103 -0.327484 -0.283166 0.220296 -0.294589 0.202911 0.184702 -0.092783 0.138986 0.114142 0.083980 0.207839 0.071349 0.112051 0.139953 -0.044575 -0.487081 -0.223912 -0.138920 -0.125366 -0.116363 -0.377801 -0.719260 -0.001848 -0.297583 0.123991 -0.090737 0.029551 0.180416 0.231184 0.289796 0.213114 -0.061815 -0.377349 -0.075714 0.039146 -0.312721 0.166450 0.207074 0.300458 0.066790 0.163726 0.346973 0.041991 0.332705
proav -0.401548 0.060484 0.313566 0.008894 -0.077208 -0.353909 -0.249337 -0.306044 0.115016 -0.233714 0.245215 0.291759 -0.209513 0.143480 0.106239 0.119130 0.134168 0.167540 0.031421 0.166052 -0.015171 -0.408591 -0.191086 -0.106235 -0.128341 -0.182132 -0.411826 -0.669699 0.025854 -0.301773 0.157720 -0.097535 0.097272 0.251230 0.201086 0.203883 0.247537 -0.086893 -0.385605 -0.151179 0.099503 -0.288243 0.161890 0.111144 0.181409 -0.041681 0.111550 0.347413 -0.004910 0.354684
ptkzu -0.422947 -0.004040 0.382629 0.407562 -0.066142 -0.456879 -0.373954 -0.092352 0.099714 -0.377611 0.331993 0.215281 0.046585 0.187753 0.235782 -0.013581 0.228044 -0.202601 0.223740 0.390347 -0.060602 -0.608721 -0.219044 -0.177409 -0.178856 -0.516735 -0.348277 -0.532708 0.185087 -0.107067 0.280700 0.188700 -0.301819 0.109687 0.269522 0.463249 0.034918 -0.288619 -0.654172 -0.427028 -0.278506 -0.250456 0.159989 0.264379 0.540959 -0.132840 -0.198355 0.069982 -0.182274 0.239557
aglt -0.293928 -0.329657 0.285097 -0.073608 -0.062864 0.069676 -0.064865 -0.425675 0.036535 -0.294185 0.191665 -0.194164 -0.280900 0.213535 0.085982 0.092996 0.322331 0.313510 -0.128296 0.211676 0.262074 -0.154697 0.265769 -0.143993 0.035380 -0.012755 -0.298444 -0.406108 -0.089484 0.169858 0.271481 -0.032097 0.477553 0.448523 0.186345 0.094823 0.053160 -0.065504 -0.589228 -0.087518 0.322987 -0.052048 0.225830 -0.009918 -0.105396 -0.380800 0.427135 -0.050286 0.019668 -0.073454
ger -0.295457 -0.412894 0.221897 -0.068557 -0.059356 -0.135765 0.026031 -0.370634 0.047555 -0.513548 0.101860 -0.211749 -0.180735 0.277725 0.281318 0.031479 0.297818 0.098531 -0.030283 0.397761 0.218866 -0.175607 0.132182 -0.166904 -0.005645 -0.009185 -0.306151 -0.414950 -0.090574 0.006330 0.261427 -0.080685 0.348325 0.285572 0.212642 0.364462 -0.117427 -0.175441 -0.636527 -0.160546 0.168540 -0.011924 0.272907 0.154110 -0.243174 -0.232186 0.284986 -0.037724 0.097054 -0.129496
pds -0.257037 -0.130390 0.360563 0.063550 -0.021192 -0.251144 -0.361198 -0.342216 0.091489 -0.290801 0.213606 0.249370 -0.146598 0.167114 0.080271 0.088975 0.284022 0.142102 -0.016060 0.146958 -0.027128 -0.305868 -0.265633 -0.148786 -0.031373 -0.060504 -0.317938 -0.620882 -0.064022 -0.212924 0.137391 -0.057569 0.151960 0.225596 0.218556 0.285088 0.182869 -0.061381 -0.368527 -0.024092 0.120239 -0.287358 0.192387 0.159369 0.237497 0.067584 0.142834 0.284970 0.066105 0.311570
vainf -0.661865 0.049884 0.251491 0.179694 -0.033039 -0.496749 -0.191088 -0.112152 0.051361 -0.271388 0.202272 -0.148519 -0.143148 0.389597 0.142943 0.043020 0.183024 0.181942 0.169284 0.158340 0.123467 -0.525433 0.073537 -0.247843 -0.259862 -0.058823 -0.218776 -0.314054 0.015797 -0.060022 0.169715 0.023471 -0.136665 0.252504 0.219676 0.172992 0.195522 -0.300199 -0.518159 -0.114393 0.095993 -0.099305 0.270208 0.084855 0.236929 0.083891 0.031535 0.421502 -0.131276 0.218770
pred -0.346624 -0.240852 0.207346 -0.046621 -0.084992 -0.064921 -0.008564 -0.316564 0.026111 -0.342927 0.148299 -0.161706 -0.161980 0.270118 0.160531 0.108726 0.248290 0.137030 -0.058165 0.333013 0.158702 -0.161118 0.130628 -0.099841 -0.024006 -0.063281 -0.260359 -0.329444 -0.038806 0.080326 0.222426 -0.021652 0.377130 0.337080 0.205767 0.174420 0.017643 -0.192955 -0.579589 -0.164738 0.207777 0.029111 0.204607 0.103263 -0.122267 -0.273432 0.203666 -0.009534 0.037786 -0.080226
ppron12 -0.238924 -0.325312 0.278439 0.002800 0.033986 0.010244 -0.069559 -0.400619 0.125122 -0.329078 0.222115 -0.196481 -0.196964 0.189164 0.135253 0.072000 0.353656 0.199089 -0.061057 0.252753 0.172915 -0.196325 0.151380 -0.122789 -0.008615 0.045190 -0.295565 -0.408062 -0.035216 0.107661 0.241227 -0.045767 0.397597 0.371849 0.179982 0.151274 0.002948 -0.020158 -0.542447 -0.102982 0.269735 -0.106744 0.195440 0.096043 -0.070743 -0.261960 0.343267 0.004716 0.022595 -0.061557
pdat -0.181988 0.099759 0.235161 0.164624 0.005691 -0.197140 -0.113711 -0.344806 0.352515 -0.239209 0.096059 0.128776 0.030155 -0.084167 0.192539 0.274779 -0.039957 -0.062594 0.401296 0.295504 -0.214871 -0.285522 -0.449926 -0.030478 -0.088928 -0.010844 -0.249187 -0.600705 0.081608 -0.296529 0.254836 0.124671 -0.073201 -0.089397 0.287385 0.187458 0.092718 -0.108020 -0.492084 0.019036 0.077648 -0.282868 -0.124206 0.283273 0.194207 -0.062058 0.006872 0.078735 0.148023 0.231395
kokom -0.234467 -0.000058 0.374133 0.169301 -0.045492 -0.112098 -0.174382 -0.260872 0.163074 -0.360976 0.077596 0.159756 -0.040531 0.031098 0.210832 0.019305 0.086068 0.116659 0.067095 0.245636 -0.073337 -0.425083 -0.217196 -0.116938 -0.165044 -0.133717 -0.360678 -0.734339 0.125032 -0.176499 0.165908 0.074316 -0.058653 0.087395 0.180391 0.289407 -0.043792 -0.098127 -0.451360 -0.054114 0.056191 -0.234768 0.054671 0.300100 0.154324 -0.129620 0.064147 0.086278 0.010233 0.182967
pwav -0.361319 0.134729 0.368588 0.134140 -0.069009 -0.243860 -0.070792 -0.238363 0.114036 -0.293456 0.205399 0.129816 -0.132057 0.054040 0.217595 0.052746 0.063052 0.188705 0.063454 0.221571 -0.059024 -0.421055 -0.166836 -0.098933 -0.191317 -0.093104 -0.341892 -0.575419 0.136511 -0.236320 0.198434 0.051246 -0.114791 0.159099 0.145467 0.208382 -0.006970 -0.074844 -0.413628 -0.110189 0.143626 -0.242189 0.076287 0.199886 0.077487 -0.129518 0.030858 0.174881 -0.064410 0.234673
vapp -0.456140 0.023861 0.291468 0.271073 -0.042623 -0.338646 -0.257579 -0.121561 0.060212 -0.324755 0.122679 -0.024263 -0.016927 0.283726 0.200281 0.045128 0.162086 0.072531 0.183469 0.239253 0.034060 -0.420663 -0.148982 -0.240636 -0.215150 -0.099144 -0.176280 -0.409074 0.046111 -0.057591 0.169298 0.104543 -0.160744 0.090941 0.217224 0.262934 0.074767 -0.293653 -0.509646 -0.083104 0.031233 -0.114341 0.185925 0.204675 0.268247 0.085724 -0.071878 0.255583 -0.075677 0.177204
vvizu -0.308217 0.056275 0.247993 0.221664 -0.025373 -0.191721 -0.093797 -0.194513 0.080949 -0.317723 0.084115 0.033194 -0.016865 0.141934 0.190531 0.065502 0.105671 0.059274 0.152415 0.230763 -0.062473 -0.311325 -0.223940 -0.182484 -0.161563 0.009619 -0.189892 -0.396846 0.066375 -0.109060 0.179426 0.114502 -0.107428 0.081309 0.195496 0.224527 0.013051 -0.186190 -0.446140 -0.013122 0.081370 -0.116697 0.115624 0.232109 0.125550 0.029402 -0.035471 0.124122 -0.021007 0.145283
pact -0.252099 -0.270567 0.231176 0.030673 0.019478 -0.168048 -0.042170 -0.331571 0.125600 -0.372897 0.114157 -0.156594 -0.131927 0.170514 0.250706 0.063618 0.249450 0.068047 0.087303 0.338741 0.121069 -0.144538 -0.007829 -0.115080 -0.035617 0.068076 -0.224322 -0.362498 -0.066033 -0.030119 0.241589 -0.053563 0.231736 0.182949 0.150424 0.263868 -0.036790 -0.101193 -0.502790 -0.070209 0.242833 -0.106318 0.142273 0.135088 -0.102695 -0.102290 0.159155 0.054442 0.081117 0.008535
brev -0.099349 -0.214459 0.215001 -0.007297 -0.098294 0.015695 0.005519 -0.225330 -0.009321 -0.343394 0.085919 -0.138620 -0.108480 0.240071 0.117028 0.078771 0.228660 0.223645 -0.145047 0.168180 0.118144 -0.199907 0.012420 -0.245109 -0.003645 0.044383 -0.121059 -0.292059 -0.032336 0.036452 0.149022 0.088015 0.155710 0.172212 0.145804 0.197205 -0.159719 -0.104129 -0.432935 -0.109317 0.104732 0.038247 0.269791 0.111128 -0.104365 -0.141156 0.220106 -0.040535 -0.000375 -0.104679
bedzie -0.276950 -0.188373 0.173123 -0.015958 -0.065946 -0.037407 -0.005588 -0.257364 0.010248 -0.266566 0.103723 -0.118624 -0.134583 0.174022 0.131230 0.082669 0.185441 0.099584 -0.022779 0.250509 0.131332 -0.128982 0.121800 -0.091551 -0.020071 -0.074495 -0.222567 -0.303647 -0.017932 0.047436 0.173348 -0.011485 0.261367 0.252166 0.170403 0.138024 0.019581 -0.156362 -0.473677 -0.105716 0.145614 0.007050 0.143150 0.079114 -0.085505 -0.216908 0.165566 -0.017172 0.029381 -0.055586
? -0.032835 -0.055272 -0.062532 -0.044678 0.046981 0.039639 0.136318 -0.031171 -0.004773 -0.035259 0.023048 -0.094675 -0.028196 0.009005 -0.007919 0.002903 0.045657 -0.075267 -0.021939 0.042327 0.035030 0.006855 0.126915 0.025552 0.016531 0.008010 -0.009892 0.018109 0.017666 0.012859 0.046795 -0.030010 0.087193 0.067411 0.047713 0.009486 -0.013329 0.016684 -0.047966 -0.016234 -0.036169 0.090351 0.045833 0.016773 -0.114080 -0.062461 0.063589 -0.078110 0.028199 -0.114341
imps -0.237661 -0.198348 0.192828 0.002075 -0.028484 -0.077001 -0.008245 -0.242512 0.039323 -0.302193 0.105926 -0.149121 -0.090760 0.178905 0.163106 0.061329 0.215389 0.084462 0.014905 0.274985 0.097918 -0.104799 0.051436 -0.081514 -0.015342 0.027104 -0.170666 -0.237470 -0.032199 0.037103 0.179760 -0.001175 0.217912 0.200850 0.147502 0.178263 -0.044281 -0.145499 -0.441922 -0.079653 0.172446 -0.004153 0.127163 0.098996 -0.095715 -0.151287 0.118032 -0.007333 0.039230 -0.041876
vs -0.139660 0.155554 -0.152815 -0.104981 -0.034496 0.091571 0.090819 0.096132 0.006749 0.057246 -0.049224 0.086010 0.106046 0.015470 -0.201110 0.126864 -0.232917 -0.096342 -0.041979 -0.204228 -0.118573 -0.380393 0.141406 0.017792 -0.027996 -0.283343 -0.159601 -0.222531 0.153640 -0.066067 -0.118178 0.071900 -0.118931 0.046855 0.235478 -0.099697 0.158527 -0.136303 -0.036511 -0.105717 -0.442660 0.153192 0.022673 0.148252 0.102240 -0.222186 0.129056 -0.076610 -0.081398 -0.121759
o -0.050791 -0.073315 -0.060615 -0.028986 0.070516 0.042348 0.165775 -0.039942 0.001674 -0.058327 0.015366 -0.155988 -0.029333 0.021721 0.015749 -0.017683 0.068874 -0.087071 -0.003394 0.063531 0.043662 0.021871 0.165277 0.027688 0.001330 0.039841 -0.008417 0.025416 0.013101 0.039539 0.060149 -0.034345 0.073214 0.080570 0.044415 0.001608 -0.015047 0.027161 -0.053934 0.004081 -0.012659 0.084233 0.034431 0.052111 -0.152056 -0.056549 0.073449 -0.088316 0.019454 -0.141348
trunc -0.137417 -0.026785 0.283097 0.167575 0.015978 -0.078631 -0.166524 -0.246491 0.158453 -0.342004 0.053195 0.109326 0.059575 0.115419 0.117834 0.120123 0.150337 0.078338 0.064491 0.168487 -0.155075 -0.316801 -0.359333 -0.187953 -0.116853 0.077213 -0.200262 -0.533653 0.042491 -0.166672 0.092407 0.114940 -0.032125 0.015629 0.205473 0.233585 -0.000052 -0.106317 -0.369293 0.045196 0.053864 -0.163450 0.116403 0.334910 0.195793 0.083917 0.041969 0.131932 0.017315 0.135378
xy -0.183132 -0.060348 0.300671 0.198894 -0.129962 -0.123851 -0.370900 -0.140679 -0.037529 -0.186839 0.132798 0.090776 0.003951 0.257456 0.044614 0.124523 0.226255 0.155989 0.048666 0.128101 -0.021311 -0.156705 -0.293381 -0.217485 -0.026335 -0.029553 -0.048336 -0.216329 -0.068000 0.062452 0.095946 0.192601 0.015726 0.059412 0.156839 0.178063 0.066460 -0.255719 -0.382314 -0.009369 0.131603 -0.095451 0.152487 0.081709 0.331068 0.076915 -0.068530 0.164470 -0.054313 0.185813
ro -0.103962 -0.180154 0.048749 -0.006702 0.042110 0.018014 0.101899 -0.217668 0.087754 -0.217707 0.073472 -0.182517 -0.091935 0.068420 0.122375 0.034976 0.161376 -0.038003 0.032619 0.225956 0.106622 -0.020970 0.113360 -0.037333 0.008085 0.026538 -0.131203 -0.148222 -0.011025 0.055209 0.185549 -0.021453 0.217223 0.176309 0.111464 0.105706 -0.050858 -0.017451 -0.324960 -0.072638 0.084556 0.026208 0.073173 0.086780 -0.168170 -0.156006 0.128773 -0.117064 0.064054 -0.139621
impt -0.185887 -0.136744 0.161495 0.016452 -0.010048 0.016072 0.006001 -0.207475 0.028523 -0.215171 0.106702 -0.133129 -0.073330 0.179680 0.082121 0.098884 0.197062 0.120572 -0.049599 0.162475 0.040822 -0.128106 0.054005 -0.093602 -0.024951 0.046039 -0.140473 -0.218634 -0.003760 0.067768 0.130228 0.040043 0.205909 0.209282 0.146486 0.101008 -0.019911 -0.114678 -0.357849 -0.036856 0.146127 0.018407 0.140923 0.114154 -0.051959 -0.130706 0.146619 -0.017169 -0.008786 -0.059247
pref 0.104895 0.043015 -0.102066 -0.067974 -0.150160 0.080377 -0.101934 0.214534 -0.155996 0.063991 -0.032793 0.290699 0.108062 0.036546 -0.192913 -0.039738 -0.125288 -0.121662 -0.225258 -0.153083 -0.044085 -0.234596 0.042399 -0.021626 0.052329 -0.460991 -0.072928 -0.095984 0.099393 -0.017098 -0.162286 0.035503 -0.108865 -0.033105 0.068911 0.027186 0.030958 -0.065961 0.107295 -0.277742 -0.507603 0.116171 0.071662 0.023445 0.182375 -0.143483 -0.032920 -0.113377 -0.112137 -0.057919
siebie -0.131605 -0.196660 0.197764 0.030884 0.016922 -0.061628 -0.042757 -0.242731 0.090616 -0.265833 0.130193 -0.097364 -0.114591 0.134310 0.123686 0.034593 0.228565 0.139904 -0.030097 0.171372 0.079723 -0.174836 0.004324 -0.138925 -0.026927 0.063656 -0.158924 -0.289896 -0.023646 -0.000491 0.148192 -0.020312 0.152739 0.183823 0.106363 0.166920 -0.049520 -0.009452 -0.331832 -0.069879 0.160215 -0.088910 0.156775 0.111771 -0.038644 -0.093990 0.189280 0.038705 0.015857 0.002273
koui -0.246625 0.103341 0.266306 0.123032 -0.019410 -0.160968 -0.044334 -0.172697 0.123750 -0.262514 0.096408 0.097925 -0.033671 0.071596 0.167816 0.054313 0.029699 0.118518 0.050196 0.153650 -0.099001 -0.369748 -0.179978 -0.099131 -0.184559 -0.044377 -0.256722 -0.502418 0.124098 -0.188784 0.100513 0.056960 -0.126726 0.072025 0.125644 0.172133 -0.011835 -0.086930 -0.307338 -0.034519 0.058415 -0.173365 0.061294 0.239204 0.077109 -0.040483 0.013498 0.154406 -0.045804 0.163039
i -0.039104 -0.047862 -0.055316 -0.048952 0.020614 0.039550 0.102247 0.002627 -0.020727 -0.040939 0.027451 -0.059787 0.000668 0.019702 -0.032052 -0.014373 0.031821 -0.084798 -0.052849 0.025042 0.011194 -0.071788 0.130685 0.016996 0.015731 -0.081431 -0.045381 -0.027677 0.046335 0.009073 0.005929 -0.014455 0.041939 0.091834 0.053626 0.014483 -0.008172 0.000809 -0.045389 -0.072490 -0.127561 0.079898 0.052976 0.042701 -0.076502 -0.114052 0.072400 -0.096271 -0.016799 -0.110777
z -0.042201 -0.047065 -0.038492 -0.031830 0.024438 0.012001 0.077905 -0.036163 -0.007355 -0.043141 0.028895 -0.070658 -0.014367 0.021713 0.008861 0.002105 0.046279 -0.038545 -0.009188 0.046291 0.024364 -0.000989 0.093451 0.023572 0.006159 -0.010239 -0.025675 -0.005555 0.008051 0.010734 0.032736 -0.026556 0.062009 0.055050 0.033077 0.012711 0.000437 0.003374 -0.048567 -0.029173 -0.009999 0.045569 0.033934 0.022159 -0.059192 -0.039592 0.033656 -0.043114 0.004568 -0.071167
hd -0.069192 -0.100426 0.049585 0.025623 0.001099 0.003881 0.043049 -0.164543 0.072169 -0.132103 0.071257 -0.098531 -0.058608 0.011478 0.098102 0.069908 0.093360 -0.025148 0.063831 0.187193 0.042183 -0.001034 0.010744 0.004246 0.010765 0.015078 -0.080562 -0.122512 -0.004787 0.025480 0.151116 0.007530 0.136503 0.086367 0.080344 0.073315 -0.020190 -0.032351 -0.252174 -0.054365 0.089535 -0.005902 0.005699 0.048229 -0.070327 -0.121325 0.054704 -0.079226 0.068106 -0.066626
pws -0.202098 0.042433 0.186978 0.088260 0.006117 -0.160741 -0.072780 -0.144850 0.094529 -0.173674 0.109405 0.063509 -0.046021 0.070121 0.107609 0.043230 0.065664 0.080213 0.059798 0.110470 -0.045676 -0.244069 -0.128075 -0.073331 -0.106307 -0.019641 -0.178921 -0.326441 0.053320 -0.123266 0.087291 0.024149 -0.043591 0.089623 0.106054 0.134448 0.035533 -0.042330 -0.230653 -0.039047 0.062875 -0.137060 0.065945 0.130144 0.083352 -0.009295 0.038187 0.138277 -0.018432 0.138053
vminf -0.231947 -0.004505 0.176737 0.135324 -0.006259 -0.192509 -0.153716 -0.081223 0.044434 -0.176245 0.141509 0.065732 -0.013879 0.121077 0.076834 0.006610 0.119700 -0.004602 0.044159 0.113046 -0.031032 -0.295066 -0.072198 -0.099183 -0.089866 -0.141164 -0.185890 -0.293375 0.051705 -0.080758 0.070641 0.039206 -0.065755 0.103570 0.109563 0.166466 0.049575 -0.089163 -0.255654 -0.113614 -0.044764 -0.116779 0.109436 0.140159 0.175216 -0.008769 -0.015862 0.104341 -0.074237 0.117341
; -0.006911 -0.020727 -0.017497 -0.013435 0.012052 0.012039 0.046939 -0.007336 0.000494 -0.011660 0.007088 -0.049272 -0.019709 0.006261 -0.002825 0.002552 0.015262 -0.016964 0.001255 0.013548 0.015957 0.003342 0.048283 0.012979 0.003186 0.005344 -0.011607 0.013928 -0.003609 0.014404 0.011004 -0.010586 0.031654 0.039330 0.009723 -0.002264 0.001967 0.006160 -0.025922 -0.020453 -0.018624 0.025560 0.011305 0.019021 -0.042786 -0.019072 0.023395 -0.022384 0.009568 -0.049044
uo -0.174837 -0.078038 0.069205 0.008670 -0.023337 -0.052421 -0.002052 -0.096538 -0.007874 -0.129055 0.077152 -0.092801 -0.020242 0.130142 0.054114 0.043867 0.134768 -0.001201 -0.013844 0.161638 0.058976 -0.098191 0.090286 -0.008682 -0.039406 -0.072146 -0.097405 -0.135697 0.019189 0.051095 0.068519 -0.003799 0.139502 0.133827 0.084415 0.068133 0.030602 -0.115612 -0.251179 -0.091372 0.034402 0.046267 0.081068 0.065475 -0.002850 -0.105846 0.037588 0.002884 -0.010558 -0.057354
advwh -0.077275 0.075289 -0.052582 -0.072695 -0.048702 0.013423 0.013872 0.055929 -0.035789 0.032403 0.024585 0.112391 0.032815 0.028179 -0.115888 0.071844 -0.097236 -0.039438 -0.052233 -0.093953 -0.062689 -0.203686 0.062055 -0.005688 0.001843 -0.206327 -0.090093 -0.106503 0.079334 -0.052792 -0.059697 0.031444 -0.040234 0.043179 0.111623 -0.026156 0.091812 -0.074936 -0.028709 -0.113763 -0.248191 0.062974 0.048677 0.032710 0.090711 -0.129427 0.039108 -0.018349 -0.066685 -0.018342
appo -0.089786 -0.020977 0.152597 0.085816 -0.014091 -0.085508 -0.091280 -0.152070 0.093528 -0.148899 0.051706 0.076895 -0.006892 0.007340 0.105339 0.054788 0.055412 0.006539 0.083667 0.139781 -0.051726 -0.138317 -0.176510 -0.045227 -0.047826 -0.029894 -0.128954 -0.285793 0.028235 -0.096504 0.115744 0.037461 -0.010485 0.008274 0.090225 0.136167 0.002182 -0.054591 -0.228141 -0.021465 0.042735 -0.128202 0.000144 0.128421 0.088807 -0.019162 0.002629 0.047577 0.035054 0.104698
! -0.012464 -0.005781 -0.020139 -0.011373 0.013113 0.013712 0.025588 -0.008912 0.000231 -0.007623 0.010554 -0.022917 0.002731 0.001790 0.002714 -0.003346 0.013585 -0.021737 -0.015861 0.007423 0.007300 0.002503 0.026293 0.003630 0.008344 -0.002993 -0.016800 -0.008316 -0.000366 0.004630 0.006115 -0.004252 0.016552 0.016044 0.023087 -0.001156 0.007246 -0.003350 -0.004184 -0.016274 -0.006809 0.032697 0.012082 0.008980 -0.036996 -0.017276 0.010700 -0.015691 0.002705 -0.035954
prowh -0.062446 0.040455 -0.046328 -0.044004 -0.009473 -0.049401 -0.028445 0.057379 0.011067 0.029805 0.026756 0.099858 0.034517 0.024061 -0.099470 0.013976 -0.055827 -0.078889 -0.039894 -0.072368 -0.050626 -0.214043 0.064193 0.012891 -0.006656 -0.199718 -0.103151 -0.126970 0.068682 -0.074785 -0.057304 -0.007728 -0.055946 0.032748 0.085026 0.007469 0.091612 -0.022912 0.018661 -0.127611 -0.230251 0.016338 0.031530 0.044648 0.107726 -0.075795 0.052270 0.025655 -0.055733 -0.005083
fm -0.133624 0.006681 0.104557 0.051910 -0.053340 -0.099872 -0.141229 -0.047434 0.028195 -0.104534 0.040103 0.077054 0.029068 0.102133 0.004106 0.054736 0.032752 0.036868 0.003197 0.033274 -0.040403 -0.237944 -0.090452 -0.082506 -0.050834 -0.111706 -0.101485 -0.237499 0.033629 -0.060549 0.012632 0.056857 -0.045116 0.031833 0.104207 0.087880 0.053279 -0.112912 -0.160614 -0.048064 -0.054748 -0.057219 0.078593 0.090691 0.166513 -0.008296 0.004528 0.100300 -0.030401 0.091257
vimp -0.050187 0.060746 -0.028638 -0.035624 -0.039949 0.016407 -0.007531 0.080411 -0.042063 0.008427 -0.000094 0.084679 0.034132 0.034552 -0.066221 -0.004295 -0.074273 -0.044632 -0.069593 -0.062356 -0.036379 -0.176394 0.052802 -0.001592 -0.010545 -0.201120 -0.079676 -0.111981 0.079854 -0.021426 -0.068361 0.024010 -0.064602 0.015963 0.053737 0.005902 0.027909 -0.058604 -0.011479 -0.114541 -0.218566 0.054268 0.034769 0.054520 0.079429 -0.094345 0.007431 -0.023587 -0.058820 -0.027759
winien -0.160447 -0.079784 0.090270 0.000645 -0.022643 -0.042273 -0.028515 -0.128936 0.023654 -0.148346 0.064021 -0.042964 -0.048337 0.107451 0.078150 0.041425 0.097745 0.029570 -0.004654 0.145294 0.048547 -0.098252 0.035317 -0.047376 -0.013976 -0.063342 -0.131502 -0.172543 -0.002281 0.018030 0.096229 -0.000921 0.124400 0.124757 0.100215 0.091551 0.030963 -0.081272 -0.240822 -0.085612 0.045869 -0.009164 0.076258 0.062900 -0.007274 -0.099390 0.075727 0.003829 0.012137 -0.006690
ptka -0.116465 -0.017397 0.131095 0.069067 -0.001662 -0.099359 -0.098817 -0.103303 0.060171 -0.116428 0.080694 0.083688 -0.001360 0.047583 0.053766 0.037316 0.066114 -0.017794 0.037391 0.085928 -0.052976 -0.202540 -0.080588 -0.045989 -0.039217 -0.090723 -0.163366 -0.282110 0.054694 -0.093524 0.061550 0.012736 -0.006931 0.052149 0.095598 0.109150 0.052055 -0.048788 -0.198531 -0.076825 -0.033646 -0.105095 0.033694 0.108856 0.132550 -0.051762 0.014397 0.051081 -0.017301 0.086619
p+pro -0.042593 0.064660 -0.066575 -0.068386 -0.038295 0.013142 -0.003384 0.048620 -0.012006 0.031385 0.032271 0.163609 0.080983 0.013707 -0.137383 0.086737 -0.089352 -0.121382 -0.058031 -0.070809 -0.105780 -0.224476 0.002885 0.046091 0.036157 -0.264249 -0.121887 -0.149145 0.095753 -0.088632 -0.071447 0.014589 -0.013907 0.026880 0.145725 -0.008402 0.107820 -0.052411 -0.022442 -0.157184 -0.318153 0.046711 0.015243 0.080713 0.124952 -0.133689 0.020468 -0.060692 -0.048078 -0.036869
prelat -0.142584 0.027147 0.147498 0.074115 0.005495 -0.126105 -0.072007 -0.088389 0.080466 -0.124434 0.081966 0.067238 -0.008206 0.029163 0.062242 0.045251 0.056634 0.041063 0.051501 0.070681 -0.056823 -0.224297 -0.104967 -0.066486 -0.077319 -0.051902 -0.139923 -0.282690 0.052955 -0.107784 0.067305 0.038076 -0.067825 0.055694 0.076240 0.118306 0.021633 -0.028298 -0.162359 -0.033632 0.012168 -0.117816 0.056573 0.116206 0.101653 -0.024337 0.032931 0.088452 -0.018264 0.115186
apzr -0.085619 -0.016069 0.128212 0.064509 0.017313 -0.106920 -0.094486 -0.097453 0.081332 -0.098642 0.071641 0.044646 -0.021354 0.015355 0.065484 0.042076 0.072943 0.018065 0.057734 0.080496 -0.032329 -0.137792 -0.095589 -0.027757 -0.042217 -0.033666 -0.123672 -0.234269 0.012576 -0.075619 0.056387 -0.005216 0.002331 0.040577 0.051239 0.093164 0.036260 -0.008385 -0.151556 -0.035178 0.041557 -0.125673 0.026457 0.076720 0.092217 -0.008132 0.024404 0.080107 0.005073 0.099370
vvimp -0.072337 -0.004812 0.077090 0.033327 -0.010462 -0.034983 -0.051693 -0.059013 0.030343 -0.078907 0.027854 0.041355 0.001954 0.018191 0.028090 0.010432 0.018464 0.022351 0.015921 0.035469 -0.019624 -0.096952 -0.051793 -0.039172 -0.032099 -0.035553 -0.070157 -0.150267 0.022919 -0.032984 0.027594 0.014276 -0.002763 0.033546 0.055844 0.046991 0.022493 -0.028471 -0.108213 -0.018156 0.017222 -0.057421 0.018114 0.050983 0.067131 -0.019985 0.020593 0.041256 -0.006986 0.058863
pwat -0.075311 0.026061 0.076107 0.042053 -0.000168 -0.056922 -0.040062 -0.065453 0.060119 -0.070722 0.050563 0.065919 0.008253 0.021422 0.026018 0.045273 0.024063 -0.009348 0.037448 0.065565 -0.044167 -0.142877 -0.085157 -0.013858 -0.036358 -0.059632 -0.102797 -0.183379 0.035175 -0.078770 0.043852 0.023574 -0.019699 0.022384 0.082612 0.055381 0.040897 -0.031614 -0.123639 -0.042258 -0.030162 -0.053947 0.006967 0.082923 0.074401 -0.041015 0.013260 0.019966 0.002334 0.061122
in -0.055339 -0.052726 0.030572 -0.000408 0.011684 0.002716 0.022910 -0.062271 0.005065 -0.060784 0.041548 -0.047277 -0.024627 0.039358 0.037823 0.015333 0.063169 0.012744 -0.003091 0.074554 0.019237 -0.024498 0.035503 -0.020687 -0.003545 0.003379 -0.048212 -0.055500 0.001766 0.013275 0.055636 0.003388 0.062417 0.058425 0.029711 0.035809 0.000920 -0.030888 -0.113489 -0.011698 0.043995 0.003624 0.025572 0.035477 -0.042538 -0.043665 0.027281 -0.013452 -0.000650 -0.031535
adjp -0.074187 -0.085221 0.084878 0.011643 0.020287 -0.024522 -0.024847 -0.099037 0.050433 -0.106800 0.046312 -0.063393 -0.033409 0.064038 0.045705 0.003407 0.096791 0.038231 0.004850 0.076255 0.028619 -0.052098 0.016381 -0.046828 -0.008904 0.042825 -0.064370 -0.115909 -0.023319 0.002911 0.067520 -0.012227 0.074738 0.069476 0.043323 0.080582 -0.023326 -0.005706 -0.141131 0.000129 0.064256 -0.045272 0.066487 0.055793 -0.004166 -0.020449 0.071230 0.011069 0.014121 0.000299
y 0.003087 -0.012674 -0.007182 -0.004201 0.012498 0.005423 0.008199 -0.008248 0.006048 -0.006437 0.005147 -0.008666 -0.011141 -0.004964 -0.003814 -0.000136 0.008732 -0.010688 0.005713 0.013893 0.000109 -0.000699 0.027089 -0.007266 -0.008336 0.000922 0.004703 -0.000755 -0.007021 0.006362 0.001104 -0.009953 0.000044 0.016086 -0.005073 0.001084 -0.003349 -0.006110 -0.014285 0.004092 -0.011928 0.016131 -0.001338 0.014853 -0.015715 -0.007656 0.000904 -0.019899 -0.003997 -0.023007
ptkant -0.054686 0.011554 0.048008 0.016812 0.000018 -0.036818 -0.024957 -0.050790 0.024512 -0.035418 0.036925 0.016201 -0.015893 0.004600 0.032889 0.023601 0.008592 0.020040 0.033067 0.032574 -0.019717 -0.072923 -0.043111 -0.010093 -0.028903 -0.010853 -0.049982 -0.095785 0.020248 -0.047433 0.032957 0.011294 -0.023894 0.018100 0.032504 0.036462 0.000052 -0.012091 -0.063514 -0.008413 0.009288 -0.034679 0.013390 0.045129 0.020385 -0.015334 0.015637 0.037491 -0.007827 0.031057
hs -0.019718 -0.005466 0.007180 0.010804 -0.005206 -0.003302 0.012033 -0.006858 0.006791 -0.018087 0.012849 -0.015791 -0.005623 -0.001183 0.011945 0.009123 0.007736 -0.006799 -0.005231 0.007228 0.005456 -0.002252 -0.000325 -0.008752 0.004678 -0.004375 -0.008402 -0.005496 0.006564 -0.005032 0.000762 0.007189 0.006565 0.016230 0.009346 0.002531 -0.006777 0.000658 -0.014160 -0.005902 0.008553 0.002660 0.001698 0.004479 -0.006816 -0.012298 0.010000 -0.009625 -0.002578 0.001651
adjwh -0.027169 0.049589 -0.030682 -0.023910 -0.039194 0.018484 -0.019258 0.066027 -0.025109 0.027969 0.006972 0.092909 0.040874 0.022971 -0.069002 0.021654 -0.054746 -0.045684 -0.059227 -0.065297 -0.041319 -0.159371 0.037981 -0.002899 -0.009454 -0.164568 -0.070947 -0.093323 0.060795 -0.015614 -0.068265 0.013426 -0.035583 0.021218 0.072051 -0.008240 0.045296 -0.052922 -0.001885 -0.096295 -0.194932 0.048473 0.030967 0.042855 0.077509 -0.083107 0.005870 -0.023674 -0.047356 -0.021854
detwh 0.014408 -0.011738 -0.020271 -0.000735 0.009141 0.000414 -0.003056 0.023618 -0.003664 -0.000195 -0.004350 0.023328 0.017106 -0.002900 -0.027124 0.001012 -0.003387 -0.029885 -0.022111 -0.016648 -0.010696 -0.035509 -0.004128 0.015923 0.009080 -0.036372 -0.020195 -0.029529 0.021325 -0.025015 -0.024406 0.002232 -0.007274 -0.007054 0.001942 0.012231 0.014770 0.014499 0.015152 -0.021697 -0.057643 -0.004782 0.013666 0.013165 0.030993 -0.015912 0.004255 -0.015429 -0.003436 -0.012933
itj -0.025341 0.003222 0.013270 0.005511 -0.006422 -0.024079 -0.021139 -0.016091 0.008176 -0.009204 0.001598 0.011723 0.004969 0.009128 -0.003926 0.006910 0.012056 0.005045 0.013421 0.012900 0.003865 -0.031688 -0.023805 -0.002892 -0.008460 -0.020747 -0.006828 -0.035366 0.007739 -0.002879 0.012443 0.007329 0.002982 0.001248 0.005760 0.021442 0.006319 -0.001892 -0.020961 -0.007141 -0.007850 -0.004897 0.005401 0.012234 0.022156 -0.005811 0.006457 0.014721 -0.013004 0.018509
pposs -0.031779 0.004672 0.033097 0.017936 -0.011246 -0.028694 -0.031438 -0.037497 0.009100 -0.034470 0.031106 0.020839 -0.019009 0.019936 0.018186 -0.006181 0.014740 0.001206 0.008392 0.042944 -0.004032 -0.037824 -0.014708 -0.020076 -0.027707 -0.022334 -0.041891 -0.075957 0.016063 -0.021679 0.027013 0.009494 0.003244 0.019140 0.008297 0.030526 0.009206 -0.018904 -0.052297 -0.019264 0.004634 -0.018493 0.005563 0.031328 0.027199 -0.004819 -0.003847 0.009238 -0.001331 0.028237
depr -0.014066 -0.003867 0.011476 -0.006384 -0.004830 0.000675 0.007629 -0.004876 0.006998 -0.016082 0.006132 -0.010150 -0.003702 0.007936 -0.004575 0.010721 0.005273 0.012962 0.004340 0.015028 0.003570 0.002079 0.006106 0.004438 0.007127 -0.002573 -0.011724 -0.010372 -0.003957 0.009470 -0.001391 0.004677 0.012952 0.013575 0.007213 -0.000022 -0.001778 -0.013473 -0.030492 0.000444 0.014659 -0.003518 0.001044 0.000115 0.000734 -0.018208 0.010051 -0.001705 -0.002406 -0.010228
adjc 0.009558 -0.004985 -0.003328 0.009084 0.006174 0.008007 -0.009768 -0.002405 -0.005290 -0.004081 0.004760 0.004482 -0.000764 -0.002695 0.001694 0.000674 0.001012 0.002310 -0.002087 0.005434 -0.004976 0.003115 0.009208 -0.009929 0.004467 -0.007820 0.000876 0.002538 -0.005141 0.008277 0.002446 -0.005366 0.005403 -0.007890 0.001105 -0.008101 0.001620 -0.004940 0.002989 0.004317 0.000484 0.003150 0.006266 0.006150 0.002394 -0.000978 -0.001841 0.007495 0.004059 -0.006301
- -0.012474 -0.004131 0.001481 -0.009190 0.006057 0.005066 0.005987 -0.002638 -0.008661 -0.001052 -0.000035 -0.011479 -0.004876 0.000132 0.011671 0.007639 0.002276 -0.013210 -0.001546 0.000002 0.006486 -0.005204 0.004053 -0.006946 0.006446 -0.005342 -0.006011 -0.008503 -0.004986 0.000297 -0.002113 0.000714 0.003071 0.015022 0.011976 -0.007457 -0.008743 -0.000689 -0.006627 0.001379 -0.001409 0.008423 0.005562 0.008794 -0.018505 -0.015931 0.005116 0.002682 -0.008333 -0.008468
