153 50
noun 0.146281 -0.058066 0.173114 0.064892 0.142451 -0.183254 -0.514862 0.572470 0.354661 -0.199323 -0.329538 -0.134918 0.395322 -0.479494 0.118647 -0.305134 0.358321 -0.345215 0.425248 -0.538127 -0.200674 0.270748 0.086526 -0.617342 0.310304 0.070165 -0.818634 0.468022 -0.218695 0.271893 0.396858 -0.478819 0.575191 0.171201 0.738503 -0.327298 1.006006 0.376692 -0.322028 -0.167126 -0.132388 -0.548370 0.007237 -0.649682 0.476557 0.148941 -0.377313 -0.445036 -0.531920 -0.333730
. 0.039166 -0.211042 0.289267 0.050849 0.013718 -0.189121 -0.347524 0.524589 0.542981 -0.426333 -0.474803 -0.159777 0.484314 -0.337296 0.170327 -0.188878 0.551436 -0.355128 0.525459 -0.382925 0.107497 0.562544 0.448952 -0.088411 0.604884 0.460413 -0.402666 0.226245 -0.160944 0.058787 0.286808 -0.422524 0.684908 0.099772 0.550973 -0.103512 0.567567 0.515663 -0.078411 -0.532885 -0.129874 -0.464466 -0.067025 -0.156305 -0.642567 0.091983 -0.273301 -0.602468 -0.701161 -0.647008
det 0.064243 -0.201194 0.505528 -0.344932 0.381373 -0.190450 -0.342439 -0.010755 0.596054 0.013923 -0.042733 -0.279721 0.189324 -0.304264 -0.202014 -0.087703 0.309605 -0.235566 0.631498 -0.505129 -0.422760 0.394350 0.094730 -0.257915 0.896505 0.627240 -0.996887 0.146935 -0.290825 0.298911 0.313727 -0.231199 0.664014 0.275819 0.644888 -0.223597 0.562248 0.387739 -0.103864 -0.461655 0.063520 -0.665762 -0.404103 -0.095972 -0.114867 -0.392018 0.097077 -0.701402 -0.444107 -0.479697
adj 0.312579 0.031658 0.096033 -0.115422 -0.124801 0.174524 -0.199247 0.667736 0.349214 -0.408633 -0.405021 -0.294030 0.372481 -0.407562 0.233169 0.021857 0.269396 0.027090 0.295813 -0.245727 -0.214157 0.534411 0.215259 -0.652586 0.501053 0.142925 -0.435119 0.539531 -0.133752 0.395334 0.216720 -0.416985 0.670915 0.029306 0.722546 -0.443868 0.661341 0.143104 -0.384705 -0.222157 0.046452 -0.274728 0.080777 -0.534343 0.105908 0.056583 -0.234175 -0.602136 -0.467336 -0.572193
verb 0.058378 0.196550 0.429133 -0.083530 -0.172402 -0.291815 -0.287439 0.466008 0.474442 -0.175729 -0.233643 -0.199763 0.117022 -0.421400 -0.291001 -0.125831 0.233755 0.012288 0.423152 -0.617970 -0.087167 0.417903 0.143654 -0.490117 0.613204 0.362563 -0.766632 0.674522 -0.100190 0.344375 0.434603 -0.129304 0.239440 0.188397 0.613135 -0.378691 0.534668 0.326637 -0.453432 0.190191 0.043481 -0.293385 0.179250 -0.472846 0.068930 -0.228818 -0.466799 -0.588567 -0.554988 -0.277523
adp -0.033569 0.229576 0.242221 0.112784 -0.167646 0.237124 -0.111098 0.369208 0.141686 -0.342016 -0.512423 -0.113436 0.291365 -0.177815 0.564596 0.151028 -0.041142 0.105061 0.376112 -0.239748 -0.183688 0.336724 0.229776 -0.680414 0.385627 0.348671 -0.479057 0.325606 -0.051096 0.238655 0.289541 -0.076286 0.342550 -0.014774 0.491744 -0.246970 0.305893 -0.121527 -0.249887 -0.335525 -0.079514 0.027928 -0.228294 -0.540976 -0.450379 -0.183282 -0.174875 -0.741598 -0.735399 -0.846072
adv -0.313156 0.115665 0.419683 0.097099 -0.149573 -0.210199 -0.317476 0.221806 0.389356 -0.316951 -0.255461 0.234426 0.241114 -0.456863 0.173632 -0.199194 0.167201 0.135075 0.335820 -0.597345 -0.131219 0.534495 0.192608 -0.254037 0.607472 0.554331 -0.610823 0.414477 -0.115441 0.355070 0.436297 -0.400133 0.478844 -0.122135 0.602578 -0.133118 0.597537 0.262990 -0.169351 -0.039112 0.183982 -0.287051 0.324566 -0.569348 -0.071942 -0.289649 -0.258926 -0.711826 -0.783175 -0.488484
nn 0.181510 -0.072248 0.011280 -0.198614 -0.042656 0.276007 0.054809 0.195561 0.305912 -0.786843 -0.109774 0.327743 0.742261 -0.636243 0.067423 -0.142897 -0.296576 0.045846 0.057831 -0.234924 -0.348771 0.276624 0.375629 -0.590327 0.546105 -0.010610 -0.625750 0.388827 0.090969 -0.044132 0.135005 -0.452002 0.651561 0.178991 0.553848 -0.522244 0.237649 -0.150161 -0.486610 -0.109435 -0.482899 0.139765 0.060365 -0.505289 0.110356 -0.635253 -0.139374 -0.347356 -0.510698 -0.750495
nc -0.222043 0.059887 0.315806 -0.110774 -0.199963 -0.157286 -0.002093 0.344292 -0.327325 -0.140661 -0.026627 0.357120 -0.156600 0.119341 0.318126 -0.254245 0.146949 0.338736 -0.640556 -0.205744 -0.042121 -0.429940 0.198284 -0.220616 0.004196 -0.565029 -0.155233 -0.430107 0.196618 0.116128 -0.183027 -0.453557 -0.130281 -0.067105 0.128249 0.197265 0.053903 0.078505 0.351100 -0.651488 -0.237596 -0.260648 0.384958 -0.168400 0.165086 -0.083527 0.266597 0.005337 -0.355192 0.035627
n -0.007888 -0.024570 0.170897 0.106657 0.029695 -0.072644 -0.466116 0.509177 0.229668 -0.228559 -0.293837 -0.022129 0.398721 -0.350484 0.138133 -0.266741 0.183375 -0.134993 0.288221 -0.406249 -0.167149 0.303959 0.175641 -0.615765 0.371026 0.103124 -0.740989 0.436318 -0.161429 0.381056 0.302400 -0.417399 0.557192 0.115931 0.631795 -0.318980 0.799098 0.187362 -0.254476 -0.217280 -0.049535 -0.334165 0.106836 -0.710617 0.424112 -0.050725 -0.286262 -0.426617 -0.540537 -0.473630
p 0.011727 0.227991 0.400237 -0.074403 -0.247956 0.139071 0.052267 0.361551 0.187626 -0.446559 -0.227136 -0.022348 0.166924 -0.324963 0.125326 -0.023439 0.083821 0.321149 0.333442 -0.398403 -0.129474 0.595124 0.360943 -0.508202 0.604243 0.218668 -0.380118 0.358226 -0.063034 0.409107 0.115070 -0.192960 0.410394 0.002475 0.665125 -0.377135 0.415505 0.075129 -0.260767 -0.036467 0.210266 -0.152301 0.203668 -0.433355 -0.232476 -0.332125 -0.146105 -0.681069 -0.606861 -0.435010
pron -0.147760 -0.006448 0.397278 -0.153375 -0.202084 -0.251466 -0.161469 0.476296 0.559199 -0.326751 -0.059466 0.094617 0.173355 -0.334208 -0.102545 -0.279973 0.222709 0.253568 0.274866 -0.435564 -0.151559 0.665535 0.358063 -0.238061 0.849931 0.311633 -0.662562 0.684154 -0.072435 0.710699 0.287002 -0.446545 0.469810 -0.032241 0.540169 -0.391889 0.355504 0.196276 -0.356276 -0.055576 0.249644 -0.299508 0.410196 -0.317287 -0.022806 -0.409476 -0.260939 -0.785448 -0.782120 -0.512604
conj 0.112196 0.086026 0.446232 -0.034906 0.000874 -0.045164 -0.214792 0.356164 0.534888 -0.402596 -0.079363 0.149668 0.214052 -0.533406 0.188419 0.083027 0.042822 0.136132 0.109930 -0.459663 -0.522475 0.198989 -0.027877 -0.746132 0.834577 0.341847 -0.744665 0.540727 0.072055 0.385886 0.406526 -0.312480 0.169734 -0.060213 0.675437 -0.314267 0.241191 0.313644 -0.293203 -0.151634 0.020904 -0.251327 0.117025 -0.701851 0.144391 -0.401695 0.003895 -0.792531 -0.715670 -0.656422
ponct -0.334866 -0.086161 0.210591 -0.329255 -0.312078 -0.327913 0.210571 0.151773 -0.208817 0.312493 -0.275731 0.026165 -0.277276 0.100379 0.169767 0.014544 0.161079 0.203059 -0.391511 -0.532601 -0.083594 -0.248917 0.012154 0.124137 -0.135135 -0.384444 0.089918 -0.447543 0.261271 0.265206 0.031271 -0.428576 -0.072020 -0.175771 0.123674 0.049252 0.336573 0.058265 0.217455 -0.600980 0.046278 -0.408901 0.105854 0.239584 -0.004874 0.206336 0.319925 0.163218 -0.217569 0.386347
v 0.022854 -0.000848 0.308717 -0.186070 -0.269089 -0.250422 -0.318142 0.414996 0.516913 -0.096362 -0.358562 -0.219794 0.214860 -0.446138 -0.303859 0.151137 0.001159 0.097350 0.187713 -0.573568 -0.209547 0.307475 -0.041656 -0.485125 0.681280 0.512180 -0.612339 0.740128 0.016063 0.444117 0.481651 -0.207308 0.243013 0.015100 0.591405 -0.445812 0.402452 0.191337 -0.461666 0.111693 0.075468 -0.119081 0.173333 -0.591542 0.208006 -0.258601 -0.286034 -0.391109 -0.325635 -0.347210
subst -0.123587 -0.271684 -0.220147 -0.276374 -0.389871 0.058357 0.186338 -0.019028 0.303700 -0.733321 -0.204624 0.535210 0.776002 -0.495866 -0.023384 -0.028832 -0.673431 0.074654 -0.354517 -0.403782 -0.140059 -0.025407 0.413975 -0.195375 0.386520 0.006408 -0.192038 0.363736 0.326987 -0.170522 0.118309 -0.401799 0.350894 0.083577 0.183368 -0.511423 -0.206743 -0.282498 -0.535694 -0.414437 -0.597792 0.389413 0.167812 -0.217106 -0.179238 -0.739295 0.072414 -0.040242 -0.563038 -0.813718
a 0.213415 -0.122887 0.130066 -0.077891 -0.042167 0.129474 -0.192491 0.548605 0.375140 -0.391000 -0.318063 -0.154404 0.367968 -0.330649 0.198054 0.021486 0.164830 -0.008810 0.203233 -0.148745 -0.252628 0.432933 0.222129 -0.660412 0.626547 0.202809 -0.499212 0.526127 -0.051068 0.458246 0.244798 -0.381811 0.544588 0.011665 0.626886 -0.427861 0.383749 0.137596 -0.303021 -0.284453 -0.013375 -0.148738 0.019030 -0.516015 0.091341 -0.125472 -0.129715 -0.526128 -0.443278 -0.714446
t 0.037078 -0.234418 0.413246 -0.311038 0.061027 -0.033247 -0.150691 0.096336 0.440416 -0.099116 -0.135302 -0.257804 0.215620 -0.231182 -0.148275 0.102494 0.189406 0.040161 0.397369 -0.381301 -0.344427 0.488513 0.191371 -0.317370 0.887945 0.545531 -0.660302 0.191290 -0.143837 0.498489 0.247891 -0.211596 0.613864 0.098843 0.691425 -0.355412 0.423497 0.199398 -0.148754 -0.284598 0.259506 -0.343380 -0.151954 -0.237240 -0.054198 -0.400516 0.122764 -0.512404 -0.327333 -0.595643
vb -0.073526 0.122136 0.091151 -0.357496 -0.457001 0.060102 0.000920 0.169822 0.326470 -0.394799 -0.206950 -0.061019 0.540617 -0.325666 -0.340368 -0.123248 -0.180359 0.344988 0.346881 -0.407507 0.092625 0.578415 0.673665 -0.046476 0.524787 0.307009 -0.620043 0.420329 -0.074112 0.157896 0.157912 -0.067355 0.730383 0.284445 0.420220 -0.559505 0.313681 -0.378481 -0.632770 0.100175 -0.119496 0.310116 0.146954 -0.197009 -0.280803 -0.750353 -0.428641 -0.368461 -0.543094 -0.787733
art 0.500156 0.092051 0.023008 -0.460937 0.354919 0.017643 0.423774 -0.550318 0.294442 -0.113877 0.455251 0.194754 0.224723 -0.619607 -0.186070 0.055846 0.124984 -0.229857 0.176861 -0.202473 -0.301898 -0.183705 -0.163056 0.679913 -0.285873 -0.236763 -0.201935 -0.618943 0.131385 -1.071506 0.103909 -0.122639 0.232504 0.167687 -0.050727 0.169671 0.178694 -0.011845 -0.154647 0.484439 -0.577506 -0.185938 -0.301209 0.688272 -0.053018 -0.121720 -0.006176 0.177668 0.235659 0.392071
r -0.177709 -0.050829 0.409045 0.007293 -0.203719 -0.227647 -0.274059 0.318187 0.434456 -0.274939 -0.353191 0.097175 0.287146 -0.400450 0.124090 -0.010455 0.157297 0.047269 0.212349 -0.510307 -0.143336 0.371980 0.161202 -0.311032 0.654089 0.503607 -0.552955 0.379409 0.015789 0.337923 0.448726 -0.366870 0.368183 -0.125560 0.580598 -0.191200 0.415806 0.260229 -0.166997 -0.141655 0.066559 -0.210168 0.197919 -0.522250 -0.089599 -0.256837 -0.172236 -0.518718 -0.606732 -0.569486
pp -0.067154 0.138438 0.000340 -0.252746 -0.399032 0.225290 0.209257 0.186097 0.270134 -0.525057 -0.429072 0.131051 0.638042 -0.384865 0.286407 0.075794 -0.243652 0.219359 0.190089 -0.283247 -0.077838 0.342634 0.548855 -0.096779 0.274295 0.141358 -0.408900 0.167944 0.195144 -0.149171 0.260894 -0.233423 0.592182 0.065012 0.268566 -0.350535 0.150701 -0.497072 -0.507320 -0.195417 -0.483687 0.394564 -0.134994 -0.081035 -0.658706 -0.520216 -0.303918 -0.411395 -0.732350 -0.929624
interp -0.398516 -0.359336 0.032499 -0.320350 -0.472508 -0.127624 0.184400 0.050920 0.372479 -0.653539 -0.334152 0.585502 0.817214 -0.492653 0.137474 -0.206372 -0.200901 0.166460 -0.033949 -0.343022 0.101218 0.378051 0.778976 0.422943 0.427603 0.151194 -0.364146 0.111520 0.248884 -0.107921 0.352441 -0.670834 0.783238 -0.084397 0.256286 -0.284170 0.124177 -0.391530 -0.383018 -0.177842 -0.555211 0.369943 0.249266 0.017169 -0.517051 -0.720727 -0.283432 -0.054285 -0.629846 -0.931794
 -0.121767 -0.141679 0.269843 -0.045987 -0.234631 -0.133494 -0.475518 0.474729 0.300681 -0.332824 -0.428041 -0.109239 0.411051 -0.112670 0.089082 -0.148683 0.261906 0.021659 0.235167 -0.207359 0.183097 0.416770 0.495965 -0.093025 0.602705 0.497798 -0.511610 0.245943 -0.241212 0.229902 0.126636 -0.304949 0.656952 0.062642 0.438372 -0.106433 0.358375 0.140835 -0.074480 -0.495157 -0.030902 -0.144920 0.131867 -0.363944 -0.384300 -0.238113 -0.240714 -0.486568 -0.507293 -0.835295
appr 0.211172 0.286910 0.055110 -0.254510 0.009373 0.373276 0.706812 -0.495874 -0.096681 -0.692231 0.450157 0.698082 0.417777 -0.600384 0.202785 -0.109091 -0.188089 0.269419 -0.008448 -0.097583 -0.172508 0.080328 0.323614 0.467592 -0.252290 -0.468731 -0.020357 -0.683654 0.236527 -0.951568 -0.135560 -0.238508 0.373817 0.027288 0.060907 0.114624 0.052118 -0.407297 -0.136996 0.532651 -0.560497 0.207681 0.144476 0.339157 -0.225364 -0.505864 -0.024086 0.073375 -0.141458 0.047585
num 0.050092 -0.447279 0.284703 -0.004816 -0.133491 0.172995 -0.082956 0.321707 0.239567 -0.582215 -0.292849 0.153400 0.540653 -0.456135 0.302147 0.096723 0.209478 0.107326 0.109805 0.007358 -0.236844 0.687275 0.326770 -0.352675 0.817976 0.360282 -0.288901 0.121850 -0.029143 0.441887 0.201816 -0.634360 0.881117 -0.312971 0.851458 -0.252485 0.521509 0.135331 0.002101 -0.012192 0.309390 -0.090495 0.356762 -0.714471 0.287199 -0.269740 0.039625 -0.169490 -0.062663 -0.745231
c 0.211864 0.005075 0.343005 -0.125075 -0.035975 -0.012520 -0.165001 0.375943 0.483626 -0.412730 -0.123397 0.027763 0.214350 -0.471293 0.131878 0.102712 0.100758 0.094587 0.074094 -0.336786 -0.423622 0.227815 0.010564 -0.664055 0.766304 0.298920 -0.604754 0.504587 0.032406 0.324658 0.336299 -0.326261 0.222965 -0.046646 0.618366 -0.315138 0.188781 0.308438 -0.256490 -0.171006 -0.008974 -0.239485 0.117945 -0.566588 0.132495 -0.297080 -0.007898 -0.657862 -0.517897 -0.595358
npp -0.288633 0.210571 0.059888 -0.427165 0.099880 -0.125101 0.234681 0.101166 -0.403834 0.434405 0.070130 -0.105832 -0.346430 0.535994 -0.208993 -0.523041 0.170228 0.105721 -0.128517 -0.314972 0.109767 -0.379123 0.432952 0.099806 -0.385702 -0.946916 -0.170903 -0.650687 0.162359 0.190797 -0.321350 -0.039660 -0.104829 0.491993 -0.242227 -0.013919 0.252358 -0.213564 0.115389 -0.771409 -0.422269 -0.297431 -0.317950 0.756806 -0.246833 0.035941 0.123254 0.156787 -0.381645 0.517845
ne 0.279112 0.157847 -0.467588 -0.146899 0.182311 0.006444 0.316810 -0.546000 0.038955 -0.228721 0.546869 0.341175 0.291633 -0.334187 -0.647569 -0.340615 -0.376735 -0.334367 -0.047354 -0.257111 0.174826 -0.356269 0.073702 0.539995 -0.606890 -0.534028 0.205120 -0.241212 0.108232 -1.048875 -0.275127 0.241409 -0.150427 0.528066 -0.453865 -0.051975 -0.124007 -0.028876 -0.362660 0.369328 -0.636983 0.112810 -0.038091 0.622308 -0.009416 -0.149195 -0.108486 0.452169 0.075741 0.563827
adja 0.710010 0.190938 -0.180596 -0.432259 -0.204438 0.352768 0.505428 -0.214305 -0.043006 -0.487360 0.167865 0.172278 0.442931 -0.671972 0.046661 0.289434 -0.137509 0.112633 -0.178569 -0.027876 -0.205062 -0.236389 -0.044697 0.325982 -0.439959 -0.449041 0.063517 -0.465477 0.172518 -1.108434 -0.167922 -0.135747 0.310178 0.037655 0.098710 -0.021301 0.088447 -0.345887 -0.307170 0.520322 -0.530909 0.192235 0.084751 0.206070 0.161694 -0.147299 -0.043000 0.368074 0.358709 0.101584
jj 0.352925 0.011764 -0.111152 -0.276967 -0.369066 0.363086 0.327551 0.225099 0.449202 -0.759965 -0.272012 0.054829 0.672060 -0.650785 0.184085 0.251507 -0.185618 0.179549 0.163379 -0.130054 -0.210100 0.551838 0.327661 -0.226823 0.440659 0.196846 -0.159987 0.434365 0.148741 -0.123217 0.237524 -0.317486 0.646221 -0.062145 0.469149 -0.518738 0.102033 -0.264951 -0.619813 0.173878 -0.231054 0.327787 0.085928 -0.210588 -0.291197 -0.392180 -0.228031 -0.370214 -0.372363 -0.790237
prep -0.419079 -0.039038 0.066201 -0.267814 -0.746398 -0.060451 0.155195 -0.019601 0.056932 -0.599095 -0.436063 0.471095 0.693338 -0.370763 0.166527 -0.084460 -0.433057 0.312154 -0.038999 -0.505174 0.251954 0.168525 0.747188 0.330770 0.102134 0.167442 -0.314973 0.034422 0.145027 -0.315526 0.205955 -0.303826 0.557752 -0.021977 0.206046 -0.250655 0.122836 -0.581682 -0.435605 -0.119449 -0.499205 0.492420 0.267743 -0.145011 -0.575733 -0.738200 -0.345308 -0.050932 -0.602561 -0.891800
ab -0.261599 0.001508 0.067362 -0.186665 -0.232931 -0.049567 -0.008887 0.011528 0.366039 -0.494987 -0.069935 0.426636 0.538506 -0.443484 -0.090156 -0.259307 -0.285997 0.220219 0.123922 -0.369792 -0.063588 0.367946 0.479926 -0.025400 0.455833 0.228565 -0.586771 0.427634 0.062479 0.072100 0.289445 -0.332788 0.535140 0.088350 0.283740 -0.354583 0.159245 -0.282894 -0.493061 0.057818 -0.330816 0.243278 0.229367 -0.247681 -0.128953 -0.715596 -0.318693 -0.363102 -0.632045 -0.673265
p+d -0.300864 -0.236001 0.201221 -0.224186 -0.053608 0.116965 0.460783 0.012347 -0.244621 0.184786 -0.329929 0.004779 -0.241666 0.152981 0.693563 0.270738 0.189937 0.240166 -0.185379 -0.123395 -0.382527 0.155816 -0.059417 -0.055179 0.071602 -0.169629 0.318973 -0.638034 0.272505 0.522361 0.017521 -0.527226 0.200569 -0.462324 0.277497 0.065985 0.287686 -0.060589 0.450231 -0.640224 0.329185 -0.340896 -0.155772 0.182336 -0.219248 0.265568 0.600929 -0.037968 -0.114568 0.123467
mad 0.026623 -0.265853 0.138800 -0.301214 -0.188107 0.062098 0.122118 0.053484 0.448074 -0.457226 -0.258365 0.120705 0.660615 -0.430436 0.210588 0.072900 0.136310 0.047430 0.294924 -0.033386 -0.066128 0.517131 0.512403 0.361172 0.507469 0.366843 -0.430879 -0.062068 0.054597 -0.184916 0.288652 -0.431301 0.880360 -0.100899 0.348322 -0.128825 0.200721 -0.267067 -0.235987 -0.048487 -0.303655 0.211418 -0.082641 0.053221 -0.518522 -0.458104 -0.217813 -0.202228 -0.308887 -0.931003
$. -0.094909 -0.216400 -0.384396 -0.590878 -0.263287 -0.361299 0.294448 -0.168528 0.078285 0.302141 0.002466 0.096278 0.365003 -0.119304 -0.317517 -0.199633 0.146624 -0.083706 -0.154246 -0.107565 0.271735 -0.267359 0.384773 1.328342 -0.689632 -0.554630 -0.127723 -0.614611 0.299205 -0.743690 0.084168 -0.369363 0.476506 0.156995 -0.511294 0.121036 0.145371 -0.602574 -0.265556 0.098089 -0.782231 0.279335 -0.120083 1.032570 -0.186117 -0.018588 -0.382836 0.802299 0.132806 0.123021
$ -0.031989 -0.317696 -0.261180 -0.199158 -0.095290 -0.325415 0.080511 -0.184131 0.271848 -0.417307 0.120109 0.650274 0.647393 -0.448273 0.045638 -0.354275 0.086026 -0.269890 -0.265033 -0.087947 0.225811 -0.239690 0.339531 0.990530 -0.340498 -0.271122 -0.147508 -0.389905 0.203483 -0.948217 0.138965 -0.556776 0.454960 0.017408 -0.328204 0.274158 -0.022732 -0.169806 -0.139829 0.013464 -0.889541 0.181672 0.235312 0.457111 -0.165473 -0.187940 -0.282182 0.419860 -0.156946 -0.285245
vpp 0.067662 0.111066 0.521061 -0.511216 -0.324363 -0.398765 0.173371 0.269404 -0.010470 -0.147766 0.077460 0.300907 -0.082782 -0.396743 0.052729 -0.134201 0.393134 0.359364 -0.481526 -0.608534 -0.158646 -0.330073 0.117099 0.285037 0.011427 -0.529979 -0.358580 -0.580788 0.229725 -0.319803 -0.017382 -0.627092 0.110375 -0.062144 0.304257 0.199218 0.377285 0.191311 0.127045 -0.241644 -0.318793 -0.526768 0.506438 0.136064 0.192771 -0.128202 0.094261 0.022025 -0.237037 0.319738
dt 0.101715 -0.204231 0.285526 -0.367848 0.173067 0.001101 0.013721 -0.062229 0.610459 -0.415214 0.081863 0.228638 0.523932 -0.530302 0.008157 -0.069304 0.095392 0.003220 0.325823 -0.115559 -0.380023 0.387783 0.305616 0.110003 0.739994 0.365104 -0.818197 0.101695 0.002843 -0.085435 0.319011 -0.441241 0.749761 0.069113 0.363344 -0.169809 0.123438 -0.083163 -0.259571 -0.064691 -0.391293 -0.040217 -0.165317 0.033791 -0.232945 -0.661579 -0.093513 -0.460233 -0.388519 -0.784037
pn -0.272872 -0.069202 0.074493 -0.031511 -0.159649 -0.275760 -0.028679 0.084278 0.606580 -0.592741 0.116267 0.618638 0.426977 -0.472715 -0.208767 -0.373567 -0.230995 0.077011 0.002651 -0.392910 -0.046423 0.360934 0.342801 0.004322 0.614472 0.231385 -0.426586 0.741650 0.180060 0.176984 0.372181 -0.387209 0.170440 0.001340 0.142305 -0.312250 -0.135565 0.065538 -0.503582 0.173569 -0.286101 0.130200 0.435488 -0.192347 -0.145623 -0.637231 -0.299245 -0.461144 -0.768826 -0.537057
vvfin 0.076037 0.412898 0.008210 -0.385592 -0.063783 0.091793 0.466788 -0.450359 0.126526 -0.357791 0.289786 0.370519 0.324441 -0.513426 -0.386207 -0.146064 -0.460992 0.141025 0.079238 -0.544512 -0.099622 -0.091851 0.241266 0.253709 -0.173218 -0.304488 -0.271617 -0.161233 0.276858 -0.728024 0.131150 0.063157 0.003040 0.365718 -0.029684 -0.216972 0.050310 -0.332145 -0.505984 0.465532 -0.683502 0.179370 -0.105825 0.375558 -0.259839 -0.610372 -0.244979 0.001546 -0.357883 0.135758
m 0.080960 -0.194913 0.162124 -0.098218 0.007985 0.110666 -0.133294 0.238283 0.276813 -0.306373 -0.205956 -0.046758 0.373689 -0.264396 0.175270 0.036371 0.117110 0.021283 0.224350 -0.113822 -0.254107 0.415333 0.219280 -0.391142 0.588890 0.288924 -0.449389 0.226975 -0.087855 0.347104 0.180701 -0.352200 0.611586 -0.023506 0.555013 -0.284455 0.365727 0.061977 -0.136377 -0.238384 0.063801 -0.148749 -0.020323 -0.419855 0.090772 -0.236516 0.010044 -0.381635 -0.296889 -0.653911
praet -0.224908 -0.239973 -0.219641 -0.643372 -0.383319 0.082358 0.416757 -0.099160 0.174565 -0.286561 -0.328829 0.087637 0.692712 -0.415063 -0.426893 -0.114959 -0.536456 0.141135 0.144199 -0.570632 -0.138960 0.425010 0.589158 -0.015765 0.305738 -0.098480 -0.415547 0.226955 0.233557 0.158502 0.173068 -0.407333 0.813973 0.274642 0.352318 -0.808727 0.404155 -0.574718 -0.692948 -0.113535 -0.407097 0.280779 -0.134564 0.142738 -0.128843 -0.703689 -0.168692 0.164833 -0.369863 -0.385081
cc -0.350915 0.121450 0.321926 -0.310209 -0.243686 -0.145163 0.289968 0.131142 -0.312195 0.270205 -0.210323 0.020477 -0.403563 0.212315 0.239151 0.014768 0.050741 0.356209 -0.357624 -0.516354 -0.170256 -0.257942 0.042181 -0.151692 -0.071480 -0.439492 0.053111 -0.459282 0.288124 0.395005 -0.034440 -0.282757 -0.215706 -0.113207 0.151127 0.014581 0.250505 -0.023056 0.240286 -0.639683 0.052983 -0.368541 0.033869 0.169453 -0.100730 0.074875 0.393962 -0.036774 -0.353335 0.362990
kn -0.074209 -0.244680 -0.016227 -0.247445 -0.155564 0.097650 0.178462 0.026014 0.468057 -0.427043 -0.279724 0.151336 0.641586 -0.406257 0.141635 0.059719 -0.109516 0.004291 0.270145 -0.126564 -0.157157 0.471228 0.440875 0.066584 0.508177 0.309575 -0.359922 0.214491 0.161576 0.034026 0.355381 -0.369543 0.691041 -0.030679 0.293964 -0.342717 0.097330 -0.287270 -0.375715 -0.102961 -0.321728 0.273125 -0.181370 0.012605 -0.469137 -0.471006 -0.161238 -0.269293 -0.454843 -0.859547
prt -0.037419 0.232920 0.104747 -0.312074 -0.101714 -0.079636 -0.055191 0.268510 0.560518 -0.255345 0.029025 0.228666 0.387280 -0.466145 0.006702 -0.191985 -0.055077 0.282193 0.241798 -0.084619 -0.233837 0.314725 0.301551 -0.026104 0.378501 0.099970 -1.035875 0.691448 0.105024 0.128696 0.605068 -0.385794 0.472922 0.059872 0.132698 -0.313406 0.087957 -0.546273 -0.718562 0.495640 -0.624642 0.361034 0.045395 -0.143067 0.043198 -0.627844 -0.731226 -0.538679 -0.570362 -0.741175
$lrb -0.098526 0.095226 -0.412449 -0.360189 0.028205 0.059641 0.387887 -0.370173 -0.149948 0.076268 0.195021 0.211580 0.355507 -0.071457 -0.407127 -0.314878 -0.309656 -0.051340 -0.005021 -0.119026 0.107517 -0.196156 0.371250 0.548167 -0.595922 -0.645422 -0.159314 -0.392233 0.256433 -0.565362 -0.056946 -0.035694 0.259107 0.439088 -0.374632 -0.172004 0.121927 -0.626179 -0.363894 0.225508 -0.757309 0.370326 -0.296249 0.657879 -0.043736 -0.281384 -0.301146 0.584018 -0.015090 0.235100
vinf 0.228650 0.273061 0.608301 -0.395427 -0.368256 -0.430635 -0.145403 0.562426 -0.092418 -0.054655 0.115596 0.020293 -0.299989 -0.209214 -0.201116 -0.166221 0.504121 0.400922 -0.472890 -0.481349 0.031350 -0.439151 0.086741 0.017537 0.056717 -0.521790 -0.427607 -0.340990 0.023647 -0.175467 -0.197757 -0.338378 -0.100119 0.103087 0.323410 0.188516 0.337526 0.352586 0.118333 -0.181754 -0.134572 -0.558487 0.667287 -0.112721 0.415931 -0.039113 -0.030417 -0.037695 -0.064066 0.418079
k -0.083467 -0.119845 0.152011 0.006806 -0.012650 -0.027325 -0.112076 0.232176 0.331320 -0.240055 -0.260314 0.001863 0.259878 -0.236088 0.108837 -0.032657 0.077743 -0.062447 0.231300 -0.250338 -0.169742 0.380014 0.159790 -0.333039 0.509195 0.307575 -0.316643 0.344994 0.006295 0.343809 0.277530 -0.293902 0.354634 -0.017542 0.426426 -0.260552 0.297793 0.165523 -0.164565 -0.210721 0.033411 -0.164452 -0.022138 -0.289421 -0.115837 -0.126338 -0.075700 -0.403030 -0.436011 -0.438432
qub -0.480080 -0.207897 -0.101662 -0.197346 -0.306715 -0.163260 0.295332 -0.126167 0.454066 -0.517054 0.093956 0.772565 0.551580 -0.405640 -0.133830 -0.250815 -0.428088 0.267300 -0.229681 -0.288127 -0.084962 0.310773 0.482213 0.333639 0.459671 0.030529 -0.241616 0.375144 0.419456 0.127148 0.315710 -0.528881 0.326242 -0.115162 -0.049489 -0.313129 -0.244694 -0.342719 -0.457208 0.074160 -0.364960 0.435507 0.397660 0.056076 -0.215997 -0.755913 -0.149610 -0.109600 -0.680551 -0.601002
mid -0.062911 -0.175842 0.101619 -0.209863 -0.290698 -0.090814 0.027383 0.139496 0.538429 -0.471130 -0.272765 0.167566 0.569647 -0.443087 0.049311 0.012772 0.000607 0.025663 0.194601 -0.268310 -0.022388 0.437453 0.426110 0.157395 0.539735 0.409224 -0.382771 0.311344 0.099430 -0.030966 0.349363 -0.347894 0.570379 -0.041649 0.292114 -0.264151 0.082697 -0.086782 -0.367448 -0.100387 -0.257495 0.165260 0.059551 -0.037125 -0.518109 -0.441277 -0.246438 -0.352765 -0.532315 -0.832029
fin -0.095392 -0.260288 -0.184306 -0.665895 -0.457805 0.152044 0.461007 -0.033817 0.199392 -0.327927 -0.418014 0.009907 0.664963 -0.475580 -0.241029 0.110450 -0.506161 0.155433 0.084754 -0.546943 -0.220418 0.372252 0.488174 -0.084670 0.327237 -0.031589 -0.294582 0.215467 0.253364 0.114572 0.182078 -0.405756 0.779204 0.173805 0.434748 -0.801364 0.342425 -0.538724 -0.674728 -0.203909 -0.345876 0.287282 -0.176424 0.100370 -0.200875 -0.624980 -0.065043 0.089392 -0.306965 -0.475938
vafin 0.167459 0.350120 0.010426 -0.558315 -0.227528 0.034302 0.435849 -0.242886 0.128879 -0.148043 0.284150 0.269742 0.226732 -0.430571 -0.374454 0.058148 -0.357751 0.350882 -0.211270 -0.310094 -0.196829 -0.265930 0.133469 0.354137 -0.188527 -0.398884 -0.345452 -0.226736 0.367336 -0.626041 0.113346 -0.045958 -0.009811 0.206686 -0.119626 -0.139338 -0.121576 -0.491019 -0.463748 0.498877 -0.673210 0.309956 0.013342 0.373598 0.014327 -0.564837 -0.228026 0.186748 -0.090759 0.076403
x -0.262038 -0.366259 -0.444649 -0.044555 -0.039315 0.260644 -0.008351 0.171586 0.016993 -0.067673 -0.573956 -0.153290 0.498662 0.093412 0.020895 0.014583 -0.505119 -0.142451 -0.036859 -0.178698 -0.236807 0.207768 0.225235 -0.884726 0.344587 -0.005623 -0.164974 0.534693 0.185778 0.749939 0.164811 -0.259261 0.429771 0.155882 0.348192 -0.747626 0.233856 -0.267137 -0.338019 -0.712592 -0.114263 0.231576 -0.443814 -0.426149 0.126732 -0.180109 0.202964 0.067518 -0.432486 -0.613161
kon 0.171090 0.218077 -0.084063 -0.460180 -0.024457 0.021334 0.485420 -0.450025 0.021814 -0.113284 0.351740 0.381701 0.243773 -0.391879 -0.154801 0.013967 -0.219273 0.130830 -0.226773 -0.184091 -0.156971 -0.410667 0.058918 0.641973 -0.460856 -0.501240 -0.174768 -0.592223 0.353238 -0.929415 0.057948 -0.090741 0.018300 0.152792 -0.265269 0.126601 -0.093951 -0.434779 -0.229413 0.388755 -0.766031 0.232249 -0.109017 0.597762 -0.059974 -0.349518 -0.087813 0.383269 0.046347 0.212148
vvpp 0.200330 0.192398 -0.275110 -0.631444 -0.253141 0.036057 0.382190 -0.187501 -0.008630 -0.233034 -0.076984 0.095282 0.608489 -0.621231 -0.468881 -0.251035 -0.257784 -0.040169 0.112334 -0.660782 0.060561 -0.077241 0.388477 0.324473 -0.484118 -0.581720 -0.342237 -0.168917 0.161371 -0.799433 0.127183 -0.228543 0.576235 0.478441 0.165161 -0.448753 0.673762 -0.495553 -0.718808 0.401529 -0.872556 0.180684 -0.083384 0.351317 0.141988 -0.326235 -0.486966 0.478997 -0.061205 0.230467
s 0.064850 -0.133382 0.120011 0.026301 0.023115 0.090705 -0.187305 0.258311 0.281718 -0.272155 -0.192015 -0.047431 0.284958 -0.195108 0.168633 0.032250 0.076207 -0.033415 0.177762 -0.057245 -0.172683 0.309646 0.150091 -0.407182 0.501351 0.304594 -0.349921 0.316523 -0.067633 0.310618 0.174768 -0.229992 0.395613 -0.015116 0.412207 -0.228521 0.190404 0.102216 -0.130184 -0.207180 0.043529 -0.065103 -0.020308 -0.398266 -0.009560 -0.163243 -0.035096 -0.375128 -0.293176 -0.586235
cls 0.043185 0.325311 0.296804 -0.768876 -0.367777 -0.239603 0.554768 -0.066941 0.093619 -0.160695 0.203002 0.331888 0.128880 -0.537219 -0.295507 -0.192347 0.049076 0.409737 -0.158289 -0.789688 -0.153874 -0.130325 0.349265 0.556152 -0.155699 -0.645974 -0.426386 -0.509204 0.348737 -0.520680 0.054265 -0.432475 0.257616 0.185049 0.160836 -0.108691 0.411224 -0.270057 -0.352457 0.155706 -0.573485 -0.191952 0.233423 0.569431 -0.099913 -0.434964 -0.150442 0.066500 -0.403423 0.357551
adjd 0.193208 -0.067062 -0.247817 -0.499966 -0.104117 -0.101150 0.371819 -0.285249 0.175506 -0.205938 0.202206 0.320356 0.406796 -0.569031 -0.354154 -0.085323 -0.240408 -0.066944 -0.207766 -0.390757 -0.139862 -0.235832 0.065244 0.442769 -0.281694 -0.462439 -0.157871 -0.198884 0.278164 -0.673477 0.093907 -0.318771 0.263168 0.185806 -0.027879 -0.199424 0.173482 -0.243736 -0.452602 0.288123 -0.633437 0.102137 0.070821 0.373417 0.255601 -0.278541 -0.092481 0.442569 0.062044 0.226286
apprart 0.366685 0.243450 -0.017485 -0.415636 0.137285 0.304121 0.629126 -0.536974 -0.007563 -0.263153 0.261179 0.234392 0.312424 -0.533951 0.047864 0.074836 -0.042065 0.001743 0.219369 -0.152077 -0.195437 -0.019427 0.109770 0.584571 -0.424527 -0.367561 -0.058636 -0.758296 0.178532 -1.046348 0.010201 -0.075413 0.357598 0.143347 0.005670 0.103353 0.235904 -0.360368 -0.175904 0.492043 -0.595593 0.052016 -0.319284 0.634045 -0.297704 -0.199598 -0.070730 0.200279 0.105533 0.239577
prorel -0.155358 0.315281 0.352668 -0.525881 -0.400335 -0.097680 0.601529 -0.123163 -0.091071 -0.027537 -0.073670 0.191509 -0.100250 -0.293288 0.160713 0.066596 0.068417 0.425851 -0.060239 -0.673556 -0.089028 -0.000592 0.237635 0.496451 -0.210467 -0.329561 -0.015268 -0.625187 0.306900 -0.322505 0.071362 -0.279652 0.112199 -0.083526 0.147627 0.036935 0.350879 -0.238008 -0.074585 -0.029184 -0.190211 -0.191477 0.073815 0.536978 -0.484123 -0.172893 0.052241 -0.076637 -0.387673 0.303930
card 0.502372 0.043434 -0.081512 -0.587780 0.004087 0.218157 0.697032 -0.522067 0.158403 -0.135031 0.371829 0.147625 0.221414 -0.665170 -0.267652 0.367720 -0.150603 0.150549 -0.075010 -0.109601 -0.415494 -0.001565 -0.213516 0.541592 -0.212867 -0.293744 0.094490 -0.517856 0.312449 -0.749633 0.020393 -0.164245 0.259401 -0.058510 0.063470 -0.083947 0.089233 -0.280687 -0.255442 0.737838 -0.228293 0.097404 -0.055629 0.509240 0.254110 -0.210810 0.109319 0.454180 0.487915 0.433270
pper -0.020286 -0.182620 -0.224274 -0.210662 -0.312722 -0.479662 0.135368 -0.320146 0.291549 -0.238586 0.076620 0.573542 0.413287 -0.668841 -0.222868 -0.106532 -0.270452 -0.216248 -0.354319 -0.640208 0.067830 -0.399847 -0.117463 0.688188 -0.389104 -0.143034 0.033305 -0.008486 0.247385 -0.829634 0.270114 -0.351233 -0.028793 -0.066604 -0.163892 0.023946 0.064257 0.039654 -0.381497 0.293215 -0.549446 0.020033 0.382994 0.221088 0.219849 -0.119615 -0.143873 0.425533 -0.069128 0.231025
rg 0.056426 -0.251189 -0.005555 -0.178629 -0.082603 0.191691 0.187254 0.077948 0.347479 -0.525985 -0.186782 0.194098 0.593574 -0.463042 0.194603 0.027265 -0.008797 0.045718 0.192827 0.013955 -0.199020 0.548410 0.354397 -0.011320 0.479776 0.220825 -0.268822 0.174319 0.093098 0.059759 0.250351 -0.463236 0.732004 -0.132127 0.390664 -0.286660 0.182374 -0.189129 -0.267345 0.078879 -0.159821 0.182298 0.022418 -0.130128 -0.182055 -0.372592 -0.127585 -0.188504 -0.245647 -0.685059
cs -0.166734 0.257665 0.426400 -0.538177 -0.519867 -0.264362 0.404828 0.056958 -0.050263 0.153104 -0.176642 0.066869 -0.260611 -0.252411 0.085220 0.260123 -0.015040 0.524044 -0.335090 -0.771424 -0.252103 -0.195849 -0.065322 0.131174 -0.038333 -0.237309 -0.120525 -0.328785 0.354205 0.038187 0.205549 -0.306856 -0.160986 -0.193224 0.262694 -0.043629 0.277699 -0.114347 -0.078277 -0.082693 -0.032233 -0.254724 0.198140 0.156252 -0.068700 -0.135764 0.147603 -0.054840 -0.285735 0.310309
vvinf 0.139029 0.248369 -0.207245 -0.527172 -0.427312 -0.101925 0.218222 -0.028595 0.041028 -0.111215 -0.153502 -0.039976 0.422190 -0.500599 -0.442430 -0.194240 -0.261006 0.010733 0.179493 -0.670631 0.169786 -0.065689 0.325055 0.323029 -0.465153 -0.356743 -0.342845 0.090661 0.033389 -0.620268 0.131076 -0.054303 0.375256 0.413271 0.089945 -0.420197 0.555674 -0.459419 -0.772952 0.380787 -0.636609 0.177058 0.015788 0.259838 0.033135 -0.248795 -0.581653 0.257302 -0.140461 0.145606
pc 0.187846 -0.090167 -0.005593 -0.171283 -0.136920 0.185219 0.136807 0.077173 0.414734 -0.571444 -0.119944 0.145874 0.543063 -0.510999 0.124468 0.093789 -0.067956 0.063604 0.197369 -0.015990 -0.150162 0.439713 0.266245 -0.016713 0.426523 0.265823 -0.282523 0.305226 0.070173 -0.107023 0.239433 -0.289851 0.570873 -0.070635 0.308512 -0.281639 0.062267 -0.181664 -0.389193 0.193117 -0.214886 0.248269 0.059802 -0.153525 -0.217819 -0.404694 -0.216098 -0.290621 -0.264418 -0.687358
pm -0.073171 -0.400582 -0.070388 0.008014 -0.054598 0.031596 -0.034098 0.199630 0.426638 -0.595138 -0.268135 0.308591 0.636814 -0.406489 0.162011 -0.116788 -0.100146 -0.188358 0.065921 -0.071569 -0.119128 0.380109 0.358047 -0.234756 0.555546 0.217590 -0.253193 0.446973 0.122254 0.167528 0.286936 -0.502654 0.530999 -0.073113 0.347214 -0.341982 0.079069 0.030097 -0.261613 -0.189410 -0.285402 0.120900 0.065023 -0.303351 -0.147195 -0.292514 -0.130953 -0.187891 -0.417210 -0.758536
sn -0.199528 0.028436 -0.001526 -0.119730 -0.172037 0.079121 0.085139 -0.059230 0.315267 -0.302229 -0.078127 0.189653 0.405401 -0.257962 -0.039445 -0.082685 -0.227696 0.192367 0.273323 -0.124164 -0.039045 0.492740 0.397135 0.086007 0.393638 0.321349 -0.362034 0.356127 0.052099 0.136714 0.240356 -0.131288 0.457434 0.019863 0.127196 -0.286447 0.025716 -0.342590 -0.391870 0.152071 -0.109762 0.318361 0.002745 -0.047477 -0.342561 -0.535530 -0.288006 -0.335219 -0.471771 -0.625436
hp -0.139349 0.007310 -0.002685 -0.080704 -0.081395 0.050656 0.103073 -0.054717 0.418976 -0.378011 0.013364 0.311144 0.401117 -0.344817 0.041053 -0.087042 -0.163377 0.140410 0.198537 -0.037066 -0.100120 0.442447 0.290181 0.139953 0.381785 0.293465 -0.350583 0.375125 0.094500 0.034032 0.301822 -0.221965 0.396422 -0.051813 0.068710 -0.190389 -0.079216 -0.251296 -0.367938 0.240060 -0.200901 0.292776 0.067721 -0.017853 -0.294803 -0.487619 -0.269713 -0.355911 -0.449232 -0.583232
pro 0.002119 0.091189 0.201178 -0.483019 -0.223110 -0.311608 0.140469 0.206561 -0.116806 -0.010197 0.129524 0.243394 -0.037728 -0.150970 -0.172097 -0.271224 0.156178 0.251274 -0.515729 -0.457240 -0.046423 -0.487748 0.203203 0.212040 -0.188037 -0.755697 -0.329262 -0.465813 0.244177 -0.262987 -0.127331 -0.432182 -0.003874 0.178244 0.032112 0.049121 0.232098 -0.023320 -0.006524 -0.310653 -0.507745 -0.270498 0.307235 0.259191 0.273892 -0.158155 0.042613 0.239138 -0.199283 0.346568
clr -0.134975 0.064835 0.310543 -0.497342 -0.317131 -0.453443 0.321463 0.014210 0.025811 -0.086454 0.031212 0.307429 -0.006734 -0.380374 -0.129958 -0.261985 0.237559 0.158703 -0.229852 -0.850605 -0.012329 -0.158293 0.221065 0.511989 -0.134316 -0.491205 -0.156654 -0.509973 0.212316 -0.346966 -0.009975 -0.531325 0.158544 0.054239 0.197119 0.049748 0.495992 0.162640 -0.040718 -0.237351 -0.294002 -0.528935 0.352953 0.446349 -0.079470 -0.076382 0.050047 0.080620 -0.387579 0.483242
ie -0.068562 -0.004265 0.042766 -0.048093 0.104130 -0.026035 -0.013944 -0.101095 0.500036 -0.469824 0.243783 0.504564 0.437580 -0.393919 -0.037716 -0.242474 -0.121308 0.068594 0.128280 0.035427 -0.142787 0.259544 0.274240 0.176003 0.444986 0.223812 -0.542765 0.365907 0.075164 -0.110711 0.280122 -0.252267 0.322344 0.014947 -0.004867 -0.079525 -0.214512 -0.169851 -0.352681 0.258253 -0.404977 0.251534 0.121115 -0.028193 -0.168838 -0.608004 -0.287575 -0.385140 -0.464867 -0.623260
vmfin 0.178505 0.362668 0.032304 -0.522272 -0.232052 0.069425 0.373232 -0.141191 -0.007310 -0.205958 0.132340 0.202409 0.273167 -0.427479 -0.233319 -0.079457 -0.183649 0.274795 -0.062249 -0.368715 -0.077382 -0.184114 0.278972 0.312519 -0.291326 -0.476911 -0.385434 -0.321670 0.240798 -0.676591 0.090992 -0.108391 0.195373 0.270178 0.029869 -0.130809 0.202408 -0.477424 -0.416384 0.372225 -0.722272 0.206474 -0.017793 0.347575 -0.050738 -0.431062 -0.322750 0.180362 -0.139265 0.086912
pad 0.024955 -0.145368 0.008678 -0.156182 -0.163962 0.132262 0.100415 0.087160 0.229339 -0.410818 -0.218250 0.157418 0.534098 -0.333877 0.162228 0.010654 -0.034198 0.052741 0.149139 -0.021385 -0.054333 0.330434 0.380502 0.070659 0.274208 0.123025 -0.277678 0.033483 0.066457 -0.101315 0.175725 -0.319621 0.604723 -0.043400 0.264395 -0.184536 0.167673 -0.263421 -0.242034 0.006632 -0.279196 0.239402 -0.020144 -0.094992 -0.235391 -0.344361 -0.190195 -0.105528 -0.226829 -0.652805
inf -0.121908 -0.163917 -0.160797 -0.285425 -0.222379 -0.000395 0.277598 -0.093821 0.332945 -0.472018 0.063431 0.446204 0.522433 -0.415160 -0.208287 -0.113510 -0.369761 0.147853 -0.145413 -0.230025 -0.120199 0.213986 0.363553 0.169450 0.307479 -0.080850 -0.199848 0.246708 0.292455 -0.065174 0.127330 -0.372932 0.368801 0.056169 0.063367 -0.365436 -0.103126 -0.274587 -0.457088 0.067565 -0.373234 0.299786 0.198846 0.084928 -0.103801 -0.581089 -0.086187 -0.004602 -0.380245 -0.408965
ppron3 -0.031553 -0.225009 -0.133493 -0.238333 -0.143380 -0.031313 0.178420 -0.081480 0.391329 -0.487588 0.039321 0.455822 0.553727 -0.486382 -0.093034 -0.085401 -0.289188 0.020424 -0.124956 -0.164186 -0.150010 0.128397 0.244762 0.161255 0.306615 0.007614 -0.263923 0.270162 0.214662 -0.179999 0.194472 -0.396199 0.391492 -0.001884 0.068382 -0.278768 -0.118986 -0.227065 -0.417780 0.059940 -0.432224 0.274410 0.165555 0.001960 -0.025755 -0.511216 -0.088665 -0.015709 -0.284793 -0.492400
kous 0.228141 0.511799 0.110429 -0.390207 -0.324069 -0.000956 0.372527 -0.209259 0.015137 -0.384869 0.257254 0.324846 0.182265 -0.485771 -0.309997 -0.056341 -0.319043 0.269735 -0.151675 -0.582209 0.029346 -0.311011 0.187448 0.287642 -0.313555 -0.404127 -0.160103 -0.226388 0.209564 -0.863670 -0.041504 0.100205 -0.165203 0.293196 -0.028967 -0.065130 0.002734 -0.221055 -0.424160 0.402203 -0.621766 0.103672 0.195365 0.275507 -0.188758 -0.447035 -0.236396 0.034758 -0.276810 0.221479
comp -0.032074 -0.058215 -0.319197 -0.169701 -0.240841 0.210235 0.415575 -0.200740 0.228699 -0.577099 0.055803 0.406805 0.560687 -0.404260 -0.163871 -0.013423 -0.600057 0.111860 -0.131560 -0.230730 -0.109474 0.196563 0.309822 -0.012334 0.186474 -0.069470 0.103464 0.301603 0.296887 -0.160636 0.013882 -0.127836 0.228288 0.087167 0.025289 -0.459384 -0.224005 -0.309354 -0.525150 0.041390 -0.299539 0.425039 0.110047 0.038356 -0.211899 -0.549683 0.016768 -0.016132 -0.406985 -0.403963
clo -0.039326 0.181727 0.359170 -0.614838 -0.382291 -0.414786 0.349460 0.024175 0.071209 0.009870 0.044112 0.226987 -0.066465 -0.438229 -0.218972 -0.087868 0.146780 0.277226 -0.253258 -0.873665 -0.120211 -0.217371 0.112148 0.440626 -0.099597 -0.455237 -0.257135 -0.424076 0.274519 -0.330034 0.084030 -0.427986 0.067554 0.049921 0.218196 -0.024443 0.446534 0.052043 -0.159337 -0.071811 -0.307473 -0.422638 0.306290 0.402946 -0.001199 -0.173416 0.006711 0.051041 -0.313872 0.479025
et -0.421344 -0.167522 -0.383126 -0.518710 -0.255193 -0.021228 0.649789 -0.312561 -0.389116 0.101493 -0.192342 0.445426 0.208500 -0.092271 0.007265 -0.086407 -0.659414 0.143176 -0.706449 -0.684232 -0.296361 -0.550970 0.122340 -0.061336 -0.500153 -0.943884 0.136140 -0.475343 0.645811 -0.033814 0.041551 -0.534153 -0.011294 0.064906 -0.051323 -0.390225 0.223016 -0.526889 -0.197592 -0.574297 -0.644849 0.097170 -0.179784 0.368896 0.240224 -0.195580 0.431890 0.711850 -0.299317 0.379607
piat 0.469883 0.129904 -0.012846 -0.483798 0.001493 0.107468 0.493923 -0.381841 0.173940 -0.191191 0.282490 0.152239 0.256078 -0.616509 -0.123975 0.221378 -0.032008 0.027132 -0.009353 -0.187065 -0.265870 -0.121656 -0.101865 0.546998 -0.255112 -0.245824 -0.043738 -0.492575 0.219197 -0.893351 0.068162 -0.129299 0.226722 0.043258 0.032635 0.050555 0.104073 -0.196806 -0.239884 0.535167 -0.442246 0.022103 -0.080228 0.483328 0.011023 -0.170145 -0.032664 0.256135 0.256323 0.250292
pposat 0.488536 0.164337 -0.052785 -0.394557 0.093871 0.091234 0.411800 -0.425953 0.213171 -0.133373 0.302336 0.080258 0.211641 -0.557638 -0.165204 0.206313 0.012844 -0.073224 0.139175 -0.125949 -0.199229 -0.110437 -0.164445 0.583774 -0.306109 -0.159559 -0.025893 -0.423267 0.125468 -0.931750 0.069729 0.003383 0.172732 0.075225 -0.053979 0.100584 0.081017 -0.123914 -0.236050 0.587137 -0.402303 0.008152 -0.161200 0.518523 -0.056943 -0.095154 -0.071745 0.190913 0.267596 0.290553
prels 0.389389 0.468217 0.135366 -0.363336 -0.207904 -0.075874 0.322691 -0.274115 0.170195 -0.299740 0.403856 0.277771 0.087032 -0.586989 -0.398339 0.078465 -0.227421 0.194838 -0.128255 -0.490146 -0.081887 -0.338753 -0.078133 0.374428 -0.252755 -0.221896 -0.125051 -0.168923 0.183271 -0.931500 0.022706 0.157275 -0.277170 0.190363 -0.057982 0.028806 -0.096630 -0.044279 -0.389198 0.621633 -0.460412 0.021452 0.246081 0.276244 -0.003513 -0.356447 -0.172935 0.033115 -0.045444 0.340618
pl -0.016254 0.015973 0.025286 -0.050707 -0.046857 0.044648 -0.004145 0.046801 0.387318 -0.430880 0.025751 0.311197 0.409716 -0.354570 0.044597 -0.121992 -0.110946 0.080930 0.146417 -0.011164 -0.078399 0.293050 0.268894 0.021186 0.351771 0.205928 -0.377140 0.340447 0.061937 -0.056894 0.251468 -0.218053 0.336735 -0.010726 0.112760 -0.164289 -0.058016 -0.172248 -0.342465 0.196825 -0.307013 0.234575 0.100659 -0.119283 -0.181607 -0.439197 -0.296480 -0.329944 -0.386696 -0.601362
vpr -0.076627 0.126939 0.395428 -0.292172 -0.195919 -0.200937 0.012828 0.399771 -0.268063 0.140604 -0.045157 0.017895 -0.351819 0.138479 0.093997 -0.097531 0.236366 0.383634 -0.529748 -0.295833 -0.132843 -0.410440 0.051858 -0.262073 0.037157 -0.540008 -0.221701 -0.366500 0.169204 0.265636 -0.150730 -0.335810 -0.192981 0.000884 0.198796 0.084601 0.177332 0.112716 0.256765 -0.544609 -0.089914 -0.382266 0.261413 -0.076315 0.276077 0.002001 0.253762 0.000957 -0.174910 0.265137
ptkvz 0.214671 0.334819 -0.148090 -0.344487 -0.156587 0.035294 0.266320 -0.201297 -0.042118 -0.164185 0.145552 0.123619 0.237823 -0.393572 -0.350620 -0.106878 -0.289679 0.054576 -0.002044 -0.402641 0.028111 -0.245320 0.102973 0.206185 -0.432090 -0.404329 -0.162888 -0.115268 0.128108 -0.690491 -0.002055 0.082627 0.016054 0.340527 -0.060554 -0.182815 0.176611 -0.306872 -0.465831 0.439001 -0.569338 0.175251 0.008534 0.236063 0.081349 -0.264352 -0.305605 0.234518 -0.022577 0.279952
ha -0.151957 -0.036500 -0.017703 -0.080223 -0.140537 0.041849 0.116614 -0.067562 0.305173 -0.281350 -0.083529 0.198176 0.362288 -0.252110 0.014409 -0.023879 -0.147356 0.108237 0.222835 -0.084401 -0.025863 0.390882 0.295952 0.188357 0.283672 0.274179 -0.223767 0.232728 0.072609 0.012124 0.246106 -0.142737 0.383435 -0.031562 0.084418 -0.178300 0.013683 -0.241546 -0.300989 0.167759 -0.137475 0.272718 0.025554 0.014457 -0.320153 -0.397346 -0.228707 -0.218874 -0.333179 -0.510281
: -0.019571 -0.079141 0.092812 0.017102 -0.058581 -0.007744 -0.101091 0.176502 0.211046 -0.202812 -0.180850 0.005445 0.203372 -0.156217 0.085269 -0.001538 0.047951 -0.019131 0.122632 -0.119911 -0.057088 0.230920 0.133642 -0.193522 0.335428 0.233808 -0.194503 0.225301 -0.010365 0.179607 0.157112 -0.162958 0.240419 -0.037231 0.250352 -0.142318 0.127214 0.067259 -0.093424 -0.123972 0.008458 -0.026928 0.039064 -0.231741 -0.102029 -0.116260 -0.066060 -0.244685 -0.266896 -0.382684
prf 0.113909 -0.076032 -0.145209 -0.197074 -0.072086 -0.190034 0.217670 -0.352672 0.241647 -0.247091 0.275921 0.488355 0.311226 -0.516046 -0.135009 -0.027310 -0.195307 -0.075829 -0.236481 -0.254416 -0.087146 -0.244380 -0.082946 0.541941 -0.236320 -0.142085 -0.026273 -0.130374 0.225791 -0.701156 0.148133 -0.216520 0.033508 -0.036768 -0.151631 0.081295 -0.084946 -0.075887 -0.251809 0.388426 -0.454494 0.117208 0.214308 0.222958 0.155361 -0.223091 -0.065832 0.289817 0.043037 0.112629
ppas 0.104662 -0.133599 -0.117828 -0.276541 -0.172366 0.060728 0.154078 -0.068860 0.280051 -0.498217 -0.013567 0.317071 0.569815 -0.476018 -0.034298 -0.017509 -0.280132 0.024276 -0.046397 -0.128131 -0.109479 0.069658 0.251283 0.125183 0.165517 0.004090 -0.266056 0.153209 0.131183 -0.371554 0.132651 -0.282484 0.400545 0.051690 0.104890 -0.245177 -0.056544 -0.273262 -0.419855 0.090146 -0.491034 0.298891 0.088609 -0.028110 -0.081223 -0.489202 -0.148085 -0.003149 -0.184624 -0.499996
ps 0.145560 -0.111263 0.046491 -0.168710 -0.010344 0.103771 0.140286 -0.017507 0.409717 -0.382301 -0.016252 0.137300 0.431105 -0.402982 0.098379 0.084664 0.034529 -0.005905 0.231530 0.070159 -0.166775 0.374143 0.221500 0.173416 0.374099 0.263804 -0.300380 0.121724 0.061947 -0.167609 0.249041 -0.241235 0.503195 -0.072950 0.178108 -0.128854 -0.012272 -0.163578 -0.254045 0.197745 -0.241841 0.187314 -0.063205 0.050661 -0.284046 -0.330736 -0.194575 -0.235358 -0.162135 -0.584204
ptkneg 0.111289 0.050874 -0.060715 -0.344387 -0.176480 -0.124317 0.259773 -0.222434 0.170713 -0.144947 0.169510 0.283402 0.274442 -0.466308 -0.220171 0.014170 -0.132311 0.103557 -0.115595 -0.244343 -0.062105 -0.102892 0.040419 0.497711 -0.176453 -0.171503 -0.170760 -0.129810 0.199528 -0.557991 0.176686 -0.188745 0.160394 0.015543 -0.052110 -0.032046 0.050928 -0.269253 -0.322406 0.487436 -0.429544 0.185698 0.148614 0.256831 0.126554 -0.281782 -0.226706 0.263057 0.072729 0.079482
pis 0.192876 0.018016 -0.118755 -0.302741 -0.133192 -0.160614 0.202816 -0.194491 0.148624 -0.198224 0.206960 0.307219 0.279789 -0.478425 -0.223828 -0.063513 -0.111479 -0.055377 -0.203044 -0.315191 -0.027750 -0.298458 -0.007585 0.476481 -0.295731 -0.303532 -0.084905 -0.193448 0.168418 -0.722866 0.050436 -0.199207 0.072431 0.095686 -0.097388 0.007644 0.053056 -0.099230 -0.278396 0.301764 -0.491451 0.054115 0.183190 0.262113 0.172814 -0.163138 -0.127361 0.309482 0.068500 0.203524
proav 0.040576 0.096319 -0.066160 -0.232333 -0.214243 -0.200602 0.216477 -0.242103 0.097369 -0.208035 0.152152 0.387430 0.231506 -0.429601 -0.163457 -0.089612 -0.160127 0.003709 -0.178353 -0.430240 0.059281 -0.258702 0.060790 0.513313 -0.332926 -0.244566 -0.026350 -0.180571 0.177147 -0.693029 0.086695 -0.158183 -0.010165 0.060532 -0.114456 0.048635 0.040527 -0.108541 -0.274258 0.277344 -0.464871 0.061414 0.219520 0.263633 -0.014276 -0.177362 -0.160804 0.222951 -0.104426 0.180709
ptkzu 0.148187 0.200544 -0.037226 -0.565589 -0.025554 -0.003671 0.332192 -0.078613 -0.080269 0.036237 0.141920 0.118425 0.203678 -0.227471 -0.159318 -0.171534 0.039545 0.108513 -0.119334 -0.177532 -0.089405 -0.349827 0.266702 0.433140 -0.435466 -0.685201 -0.422036 -0.573939 0.246749 -0.640854 0.028297 -0.241995 0.263410 0.294026 -0.117395 0.017394 0.223225 -0.474642 -0.233059 0.108037 -0.820750 0.086302 -0.195984 0.549249 0.022777 -0.223765 -0.229520 0.337399 -0.023917 0.162922
aglt -0.189192 -0.155671 -0.145859 -0.164752 -0.231858 -0.088763 0.222365 -0.157040 0.321471 -0.372876 0.049300 0.490945 0.447910 -0.388834 -0.118023 -0.067272 -0.369291 0.110843 -0.143129 -0.217902 -0.098095 0.144327 0.211570 0.255353 0.201490 0.034530 -0.134331 0.243932 0.262367 -0.111479 0.219938 -0.309885 0.253447 -0.065653 -0.033866 -0.235290 -0.148536 -0.261367 -0.393211 0.130717 -0.300928 0.328418 0.218712 0.043565 -0.065940 -0.495723 -0.086557 0.002043 -0.341555 -0.361789
ger 0.062324 -0.126461 -0.099014 -0.261162 -0.232724 0.047414 0.145231 -0.076468 0.198474 -0.475398 -0.072538 0.311608 0.566754 -0.442258 -0.022715 -0.021107 -0.295329 0.021860 -0.073584 -0.170368 -0.049246 0.033706 0.293388 0.154641 0.107904 -0.016470 -0.228438 0.081597 0.134011 -0.381540 0.099527 -0.269853 0.397355 0.056108 0.128871 -0.238210 -0.008772 -0.297574 -0.374187 0.049339 -0.493359 0.283427 0.079550 -0.013048 -0.101695 -0.462629 -0.131329 0.046627 -0.164693 -0.485823
pds 0.063342 -0.092051 -0.216549 -0.167891 -0.083660 -0.128924 0.211143 -0.293517 0.120644 -0.234802 0.173953 0.402610 0.341634 -0.411925 -0.164972 -0.103273 -0.205750 -0.137173 -0.170083 -0.242172 0.001634 -0.200726 0.028119 0.446749 -0.282592 -0.232852 0.036089 -0.134058 0.162769 -0.632191 0.072589 -0.188405 0.088889 0.042563 -0.136882 -0.012982 0.010944 -0.097698 -0.238408 0.258974 -0.445266 0.119659 0.139771 0.232626 0.110870 -0.163350 -0.079074 0.342637 0.014707 0.119420
vainf 0.047769 0.161980 -0.156676 -0.392903 -0.361908 -0.187208 0.107372 0.007725 0.055959 -0.002267 -0.021090 0.044450 0.225629 -0.261221 -0.445162 -0.083332 -0.254524 0.098630 -0.128510 -0.406566 0.129806 -0.260212 0.165924 0.292912 -0.311048 -0.321825 -0.236121 0.070270 0.143706 -0.413809 0.077286 -0.011543 0.032261 0.271941 -0.104981 -0.235321 0.122482 -0.337782 -0.512551 0.242540 -0.514320 0.216409 0.098948 0.203332 0.123148 -0.249198 -0.352129 0.310445 -0.055475 0.104026
pred -0.070669 -0.086208 -0.092833 -0.230014 -0.243779 -0.009796 0.197405 -0.101418 0.184697 -0.333202 -0.040519 0.294291 0.425472 -0.345581 -0.106382 -0.067541 -0.268491 0.078813 -0.029068 -0.237810 -0.006887 0.111276 0.299641 0.224251 0.080925 -0.030439 -0.159403 0.081107 0.167671 -0.213496 0.126194 -0.238376 0.330644 0.039590 0.068012 -0.234500 0.032098 -0.258090 -0.343829 0.066555 -0.337663 0.241923 0.098678 0.072735 -0.146353 -0.404291 -0.150536 0.059164 -0.238962 -0.304449
ppron12 -0.025304 -0.132826 -0.143741 -0.190554 -0.112836 -0.025393 0.187811 -0.140593 0.312069 -0.372646 0.115612 0.400974 0.442165 -0.415352 -0.155382 -0.094266 -0.283938 0.031134 -0.090211 -0.159667 -0.106284 0.103251 0.191444 0.230403 0.172148 -0.015624 -0.171374 0.190132 0.216001 -0.216262 0.150552 -0.276838 0.268310 0.014173 0.000117 -0.223125 -0.112234 -0.198150 -0.374906 0.154471 -0.368566 0.243925 0.138432 0.089933 -0.043867 -0.428481 -0.112994 0.037094 -0.235087 -0.294626
pdat 0.363164 0.176832 0.023235 -0.351754 -0.008884 0.109890 0.370899 -0.291434 0.130163 -0.125560 0.181855 0.044799 0.157197 -0.448377 -0.060543 0.211870 0.001296 0.033391 0.109008 -0.138728 -0.179625 -0.025950 -0.089462 0.446820 -0.211306 -0.108066 -0.033886 -0.357203 0.119174 -0.697849 0.069135 -0.019704 0.172031 0.009322 0.020117 0.059944 0.104081 -0.171052 -0.200732 0.480015 -0.285007 0.028996 -0.105458 0.376268 -0.087156 -0.099850 -0.087163 0.124819 0.194670 0.184037
kokom 0.212426 0.171203 -0.008141 -0.286295 -0.061365 0.113653 0.348803 -0.220810 0.008224 -0.286366 0.244410 0.305110 0.242734 -0.401407 -0.072105 -0.004819 -0.136186 0.139816 -0.131615 -0.157248 -0.134411 -0.146960 0.088362 0.266494 -0.179252 -0.327159 -0.114313 -0.325056 0.185945 -0.604414 -0.017661 -0.123141 0.137011 0.081951 0.009384 0.003118 0.032474 -0.221349 -0.194068 0.335061 -0.436509 0.122628 0.084015 0.207687 0.048345 -0.299218 -0.060319 0.164243 0.033039 0.096230
pwav 0.147766 0.261649 0.012717 -0.250470 -0.110811 0.014400 0.280957 -0.220440 0.031289 -0.241447 0.203830 0.254402 0.170957 -0.351247 -0.148111 -0.033565 -0.200412 0.131430 -0.069931 -0.288985 -0.045344 -0.183744 0.085904 0.259347 -0.221621 -0.260303 -0.123617 -0.205080 0.163752 -0.613465 0.004113 -0.004680 -0.025553 0.150624 -0.047527 -0.010890 0.002816 -0.193599 -0.252780 0.321287 -0.442818 0.111278 0.058066 0.229486 -0.071127 -0.284886 -0.129270 0.093043 -0.102609 0.138116
vapp 0.146633 0.139947 -0.161374 -0.345457 -0.174620 0.014911 0.198599 -0.072836 -0.043173 -0.045372 0.046733 0.035386 0.248601 -0.243125 -0.272966 -0.032998 -0.175885 0.064846 -0.075392 -0.201538 0.047995 -0.191822 0.154444 0.245657 -0.337835 -0.381527 -0.149210 -0.157453 0.148026 -0.473863 0.012272 -0.049213 0.147695 0.225925 -0.057889 -0.163308 0.152404 -0.350787 -0.360592 0.260877 -0.501671 0.204484 -0.015640 0.250342 0.101464 -0.188656 -0.252075 0.329336 0.067117 0.111938
vvizu 0.195140 0.155532 -0.120739 -0.252796 -0.087769 0.109353 0.251349 -0.150331 -0.018637 -0.137250 0.074795 0.083054 0.228271 -0.292269 -0.144801 0.007712 -0.173035 0.042603 0.019705 -0.165332 -0.047969 -0.093741 0.074190 0.158137 -0.248850 -0.256810 -0.081951 -0.142655 0.099996 -0.469570 0.004161 -0.019726 0.147901 0.168702 0.001220 -0.115963 0.130990 -0.254840 -0.286868 0.280785 -0.367482 0.136258 -0.053299 0.177126 0.033434 -0.169625 -0.144356 0.171944 0.045417 0.114383
pact 0.132742 -0.066219 -0.120600 -0.198735 -0.112899 0.041621 0.119019 -0.132875 0.192021 -0.326228 0.030793 0.217623 0.420921 -0.377526 -0.110246 -0.006184 -0.206116 -0.039334 0.019745 -0.107280 -0.011550 0.014769 0.176475 0.213742 0.020974 -0.004856 -0.165551 0.051399 0.065236 -0.413380 0.090648 -0.128475 0.292037 0.076445 0.028841 -0.154474 -0.008639 -0.209502 -0.325749 0.197728 -0.378476 0.231837 0.031865 0.052552 -0.062773 -0.335137 -0.180741 0.072268 -0.058702 -0.272421
brev 0.040019 -0.079856 -0.182641 -0.173883 -0.137865 0.121014 0.212745 -0.072918 0.101103 -0.316653 -0.007688 0.202137 0.350924 -0.254160 -0.050068 0.023675 -0.314255 0.036726 -0.134423 -0.121879 -0.088890 -0.005758 0.166138 -0.021854 0.061241 -0.107842 -0.022949 0.064330 0.177162 -0.191954 -0.000984 -0.131818 0.183887 0.058885 0.040411 -0.243485 -0.092148 -0.206731 -0.287086 -0.062450 -0.301001 0.230778 0.025234 0.011381 -0.050994 -0.298843 0.025630 0.069628 -0.156849 -0.251478
bedzie -0.070886 -0.050598 -0.057913 -0.202519 -0.189675 -0.007624 0.179514 -0.099379 0.135405 -0.249495 -0.021768 0.256476 0.316832 -0.284536 -0.041736 -0.035655 -0.198093 0.087650 -0.025644 -0.177385 -0.019435 0.074443 0.209211 0.172856 0.047932 -0.021086 -0.146899 0.045012 0.137476 -0.184540 0.101171 -0.199841 0.253284 0.024710 0.057060 -0.173016 0.025284 -0.233902 -0.275241 0.090795 -0.265103 0.186020 0.092393 0.055063 -0.100772 -0.315169 -0.099412 0.039070 -0.172854 -0.228085
? -0.020608 -0.027926 0.032853 -0.014991 -0.026681 -0.005608 -0.024440 0.053733 0.066147 -0.059691 -0.048386 0.000976 0.064919 -0.047194 0.025196 0.000830 0.007932 0.007396 0.033517 -0.064450 -0.046393 0.067744 0.051915 -0.074907 0.118651 0.043984 -0.083223 0.056294 -0.000490 0.065676 0.040503 -0.064000 0.095095 -0.007510 0.086896 -0.062670 0.057860 0.025691 -0.041719 -0.058325 -0.000646 -0.030659 0.004057 -0.054090 -0.035444 -0.047804 -0.016705 -0.089479 -0.105209 -0.115008
imps 0.014971 -0.055645 -0.083420 -0.176917 -0.124391 0.042393 0.138182 -0.097371 0.131336 -0.258488 -0.016556 0.177311 0.347275 -0.265737 -0.093430 -0.035775 -0.192113 0.022228 0.017768 -0.123105 -0.008976 0.069701 0.207719 0.146870 0.047755 0.003066 -0.120214 0.055174 0.086754 -0.225966 0.074336 -0.126845 0.248750 0.071487 0.054025 -0.177237 0.009758 -0.205578 -0.260192 0.093434 -0.283431 0.201298 0.016006 0.041593 -0.087236 -0.305969 -0.120290 0.053622 -0.107716 -0.229359
vs -0.028319 0.073470 0.239558 -0.310612 -0.193109 -0.104901 0.215785 0.111651 -0.072122 0.110670 -0.072012 -0.029898 -0.171899 -0.090280 0.048378 0.106230 0.092457 0.263211 -0.193150 -0.358105 -0.180579 -0.080735 -0.037122 -0.026387 0.020213 -0.233360 -0.055670 -0.230744 0.163213 0.148402 0.014678 -0.233436 -0.012327 -0.076651 0.207356 -0.058187 0.236546 -0.005114 0.038754 -0.164135 0.052021 -0.242608 0.097467 0.081602 0.065871 -0.001202 0.182019 -0.016508 -0.091367 0.242457
o 0.003943 -0.018181 0.027739 -0.014621 -0.005626 0.009225 -0.023072 0.071845 0.074024 -0.087741 -0.045451 -0.009326 0.084032 -0.066555 0.017978 -0.017305 0.011299 0.005223 0.064645 -0.036350 -0.045991 0.098285 0.050086 -0.105139 0.129959 0.061100 -0.122997 0.099085 -0.009028 0.072559 0.050291 -0.072606 0.115566 0.013821 0.117600 -0.077511 0.063254 0.011841 -0.070126 -0.039706 -0.006118 -0.022233 0.013327 -0.088888 -0.005540 -0.064228 -0.033335 -0.095587 -0.097443 -0.136609
trunc 0.283954 0.039165 -0.173519 -0.249109 0.006165 0.136621 0.310513 -0.221785 0.034411 -0.231737 0.173969 0.154804 0.260850 -0.362641 -0.135795 0.045264 -0.164828 -0.037614 -0.043357 -0.117757 -0.133260 -0.074573 -0.008830 0.171649 -0.206281 -0.271782 0.042004 -0.185919 0.118099 -0.510467 -0.062678 -0.074615 0.159670 0.111933 0.014937 -0.110708 0.075519 -0.136907 -0.225279 0.251402 -0.301334 0.068815 -0.025568 0.212836 0.105291 -0.116403 0.012576 0.230309 0.133131 0.161368
xy -0.008959 -0.067751 -0.314765 -0.164969 -0.051948 0.048122 0.227774 -0.212779 -0.045107 0.012759 0.033125 0.092683 0.224183 -0.094315 -0.193961 -0.051699 -0.236444 -0.058020 -0.051239 -0.045242 0.029104 -0.069111 0.086770 0.273103 -0.296623 -0.242442 0.104102 -0.099230 0.143589 -0.272149 -0.023198 -0.026186 0.123319 0.120534 -0.173328 -0.139928 0.006836 -0.297080 -0.202399 0.127543 -0.274617 0.223875 -0.095784 0.286853 0.026291 -0.090143 -0.056599 0.377494 0.071501 0.115110
ro 0.050395 -0.055161 -0.019015 -0.117624 -0.034953 0.047828 0.097221 -0.018736 0.179982 -0.224907 -0.015051 0.125493 0.263447 -0.224214 0.025040 -0.003239 -0.067350 0.005362 0.054792 -0.050437 -0.070692 0.133101 0.146654 0.042814 0.155249 0.043591 -0.160072 0.079378 0.053320 -0.092298 0.113158 -0.150914 0.251275 0.009380 0.096146 -0.128049 0.023920 -0.103564 -0.191885 0.052065 -0.174415 0.105248 -0.009381 -0.008565 -0.098834 -0.213639 -0.080455 -0.071646 -0.132406 -0.278111
impt -0.011325 -0.056614 -0.108146 -0.148372 -0.089617 0.046479 0.168607 -0.100332 0.127527 -0.199938 0.008465 0.171579 0.262046 -0.220319 -0.107570 -0.028159 -0.209806 0.033641 -0.016411 -0.144740 -0.059383 0.093194 0.158075 0.081270 0.061955 -0.030997 -0.066600 0.072445 0.112586 -0.111593 0.059519 -0.128778 0.200543 0.065730 0.047987 -0.193135 -0.000917 -0.164378 -0.235835 0.073475 -0.190705 0.154353 0.033022 0.065501 -0.054693 -0.251546 -0.042117 0.042680 -0.133233 -0.134426
pref -0.127395 -0.023128 0.118252 -0.148601 -0.074699 -0.070782 0.097318 0.125774 -0.209898 0.111938 -0.070758 0.054712 -0.168270 0.145701 0.180542 -0.061926 0.124026 0.133496 -0.272068 -0.113847 -0.075911 -0.181215 0.063907 -0.049192 -0.074573 -0.339872 0.013955 -0.359257 0.138300 0.148321 -0.088912 -0.245664 -0.022169 -0.066386 0.047927 0.082329 0.127096 -0.000644 0.228816 -0.422651 -0.051128 -0.201413 0.034318 0.093843 0.043425 0.095932 0.225340 0.067444 -0.102786 0.154282
siebie 0.086082 -0.059369 -0.128931 -0.140187 -0.065235 0.029542 0.123939 -0.094013 0.163459 -0.258824 0.082295 0.222508 0.287600 -0.285973 -0.111686 -0.036346 -0.193452 -0.009245 -0.076612 -0.092662 -0.066658 -0.009703 0.091719 0.100584 0.047771 -0.056861 -0.080177 0.091290 0.115800 -0.249097 0.043654 -0.130123 0.142022 0.062346 -0.009359 -0.139152 -0.076794 -0.120800 -0.244311 0.092476 -0.284953 0.162767 0.051031 0.063689 -0.006122 -0.255188 -0.072033 0.046763 -0.090412 -0.155609
koui 0.194285 0.201360 -0.001085 -0.228006 -0.082728 0.073981 0.239019 -0.146439 -0.005364 -0.195603 0.168027 0.148673 0.125835 -0.304154 -0.128958 -0.007441 -0.137204 0.098348 -0.055040 -0.221477 -0.053680 -0.135114 0.041409 0.160939 -0.195458 -0.253170 -0.066708 -0.191785 0.104200 -0.488921 -0.050448 -0.002335 0.017120 0.138862 0.015062 -0.033001 0.051094 -0.140875 -0.196539 0.257892 -0.319869 0.051873 0.065940 0.159674 0.018401 -0.198701 -0.069398 0.108330 -0.010822 0.160026
i -0.023845 -0.021980 0.071966 -0.080455 -0.035824 -0.018258 0.016014 0.075677 0.025105 -0.051048 -0.046224 0.024819 0.038383 -0.047399 0.026589 -0.030080 0.035069 0.045736 -0.016967 -0.085904 -0.070904 0.026181 0.059317 -0.076736 0.107714 -0.040327 -0.092236 -0.010674 0.035186 0.070807 0.021996 -0.114917 0.072150 0.008157 0.100639 -0.049309 0.079087 0.007687 -0.012765 -0.103621 -0.044866 -0.065750 0.018441 -0.036042 -0.015320 -0.069923 0.037082 -0.069776 -0.121794 -0.062297
z -0.002723 -0.028788 0.012263 -0.023169 -0.014058 -0.006772 -0.001868 0.026118 0.056078 -0.041101 -0.029307 -0.000480 0.065367 -0.040932 0.000492 -0.006539 -0.004063 0.012097 0.009530 -0.046566 -0.028589 0.051413 0.048881 -0.028810 0.074011 0.019496 -0.057329 0.027178 0.017204 0.037340 0.029548 -0.047074 0.082273 0.007585 0.057467 -0.051337 0.054968 -0.006946 -0.032682 -0.034619 -0.014642 -0.001383 0.000614 -0.024809 -0.012095 -0.051198 -0.026337 -0.043205 -0.060296 -0.086422
hd 0.042264 -0.016801 -0.024263 -0.077290 -0.026943 0.048414 0.078045 -0.049721 0.114849 -0.126857 0.008940 0.072839 0.163142 -0.164330 0.002255 0.026599 -0.040078 0.016949 0.066127 -0.019330 -0.057664 0.104899 0.080252 0.102294 0.079356 0.052120 -0.094745 0.003633 0.040783 -0.105272 0.077142 -0.079040 0.172107 0.003223 0.045013 -0.058438 0.017987 -0.100495 -0.116397 0.073853 -0.122875 0.093278 -0.040133 0.044346 -0.090629 -0.147703 -0.070006 -0.038206 -0.059447 -0.175744
pws 0.115200 0.104425 -0.040380 -0.159202 -0.054150 -0.006381 0.152341 -0.122220 0.035674 -0.121961 0.120642 0.133491 0.117480 -0.213663 -0.120543 -0.021633 -0.105431 0.024964 -0.047180 -0.158845 -0.021543 -0.103006 0.017590 0.164610 -0.141906 -0.159162 -0.056509 -0.090343 0.077606 -0.346866 -0.001226 -0.016071 0.022261 0.100771 -0.019896 -0.019515 0.027030 -0.084413 -0.164496 0.183861 -0.257221 0.054081 0.045801 0.131189 0.014488 -0.129224 -0.072537 0.098896 0.001007 0.099676
vminf 0.074608 0.060340 -0.054897 -0.206141 -0.053692 -0.041450 0.138914 -0.050909 -0.004259 -0.059617 0.082308 0.116778 0.119110 -0.161971 -0.131290 -0.090264 -0.050311 0.019961 -0.090652 -0.148785 -0.029064 -0.157951 0.080957 0.169735 -0.171064 -0.254974 -0.139213 -0.151857 0.105355 -0.300004 0.010412 -0.096245 0.068236 0.117910 -0.033205 -0.039909 0.080988 -0.136458 -0.158619 0.092893 -0.331592 0.029123 0.006425 0.180989 0.060797 -0.116882 -0.098135 0.148756 -0.020988 0.101047
; -0.004318 -0.001223 0.010344 -0.009680 -0.014451 0.009415 -0.009018 0.020052 0.030317 -0.034099 -0.029789 0.007190 0.033293 -0.022010 0.004187 0.002163 0.007414 -0.000529 0.003238 -0.012385 -0.014095 0.034073 0.016138 -0.025205 0.042150 0.016847 -0.038704 0.020328 -0.006780 0.018711 0.023689 -0.025510 0.040630 -0.010432 0.041413 -0.024514 0.016718 -0.001131 -0.024305 -0.013301 0.004531 0.001359 -0.000110 -0.019670 -0.008464 -0.013228 -0.007019 -0.029549 -0.030174 -0.055313
uo -0.030522 -0.021744 -0.032323 -0.134093 -0.100756 -0.027555 0.082426 -0.017043 0.048239 -0.092979 -0.032028 0.085927 0.169631 -0.114348 -0.085397 -0.055867 -0.059384 0.044443 -0.008836 -0.111183 0.009723 0.054443 0.162814 0.103758 0.026974 -0.054342 -0.100517 -0.002996 0.069959 -0.050851 0.034479 -0.115293 0.163278 0.046971 0.036419 -0.110424 0.068771 -0.118335 -0.140663 0.009416 -0.151216 0.084770 0.035127 0.058736 -0.040249 -0.172723 -0.076861 0.048625 -0.109810 -0.109298
advwh -0.064815 0.021897 0.102510 -0.164272 -0.101960 -0.079337 0.118682 0.046685 -0.052991 0.059846 -0.044475 0.031199 -0.077711 -0.028439 0.026466 0.015673 0.030097 0.112971 -0.116467 -0.208867 -0.068936 -0.081964 0.020689 0.023439 -0.032127 -0.151104 -0.014091 -0.146886 0.106767 0.042731 0.006607 -0.133696 -0.020067 -0.036391 0.063021 -0.002160 0.111875 -0.004618 0.027123 -0.135935 -0.031306 -0.129774 0.056324 0.075563 0.010256 -0.002853 0.088191 0.020897 -0.094605 0.136857
appo 0.110014 0.046561 -0.038733 -0.119562 0.012129 0.049909 0.152805 -0.136017 0.026288 -0.095592 0.089871 0.096484 0.124821 -0.190672 -0.031588 0.019966 -0.047601 0.012792 -0.000387 -0.035906 -0.046977 -0.051323 0.029544 0.161049 -0.113985 -0.111446 -0.026953 -0.145484 0.062162 -0.300140 0.012225 -0.031520 0.086181 0.039235 -0.020544 0.006145 0.020406 -0.112346 -0.097335 0.169723 -0.206093 0.058601 -0.011328 0.141914 -0.017116 -0.086656 -0.048331 0.084749 0.042626 0.042281
! -0.006574 -0.000013 0.006589 -0.008047 -0.004094 0.001402 -0.006792 0.015986 0.015998 -0.013312 -0.010328 0.004078 0.026042 -0.021643 0.010103 -0.008528 0.004945 -0.001544 0.000064 -0.021499 -0.010557 0.023008 0.010663 -0.019284 0.033875 0.005087 -0.027212 0.004212 -0.003086 0.016098 0.009239 -0.018655 0.015764 -0.007758 0.035208 -0.018436 0.025297 -0.000667 -0.000875 -0.023779 0.002977 0.001271 0.003020 -0.013528 -0.013920 -0.011452 -0.005745 -0.015971 -0.028093 -0.029897
prowh -0.016802 0.012953 0.099206 -0.143209 -0.076895 -0.115669 0.052049 0.055779 -0.021565 0.053126 -0.009055 0.035935 -0.073575 -0.032147 -0.007669 -0.026033 0.073679 0.071250 -0.128564 -0.158306 -0.054523 -0.114774 0.012482 0.040735 -0.022273 -0.162616 -0.059134 -0.142875 0.076037 -0.005029 0.003868 -0.130240 -0.021299 -0.013608 0.053891 0.023454 0.100594 0.035205 0.042924 -0.127800 -0.049183 -0.139033 0.063317 0.063984 0.055337 0.008439 0.072904 0.044720 -0.053105 0.122439
fm 0.043315 0.018022 -0.049146 -0.173953 -0.090464 -0.031757 0.138520 -0.055115 -0.032574 -0.020521 0.040797 0.062232 0.063730 -0.105021 -0.095059 -0.000668 -0.055633 0.042544 -0.115632 -0.118573 -0.025459 -0.113646 0.031306 0.135419 -0.123763 -0.210634 -0.001934 -0.130469 0.101118 -0.184341 -0.022491 -0.067789 0.038376 0.052297 -0.019411 -0.038871 0.047301 -0.106761 -0.081417 0.053356 -0.158825 0.021853 0.043173 0.124486 0.053142 -0.059174 -0.016415 0.156367 0.032254 0.126604
vimp -0.041462 0.040696 0.082214 -0.126762 -0.065238 -0.042308 0.084536 0.066793 -0.067814 0.037407 -0.022465 0.020266 -0.064902 0.004144 0.028282 -0.016702 0.037552 0.105752 -0.120309 -0.132883 -0.051499 -0.097686 0.046318 -0.007248 -0.027263 -0.165153 -0.038331 -0.153173 0.078894 0.029833 -0.034349 -0.118369 -0.014724 -0.005745 0.058497 0.000983 0.089664 -0.009938 0.051273 -0.128552 -0.054031 -0.096401 0.050359 0.051659 0.025774 -0.005119 0.075985 0.024291 -0.063717 0.086150
winien -0.012313 -0.019151 -0.021815 -0.129478 -0.104766 -0.020661 0.089669 -0.032394 0.073745 -0.123560 -0.012050 0.127615 0.167974 -0.142723 -0.050412 -0.032864 -0.086424 0.046211 -0.032876 -0.100584 -0.010335 0.023856 0.108201 0.128365 0.003182 -0.053141 -0.072623 -0.005355 0.065295 -0.120140 0.056520 -0.113502 0.142750 0.026520 0.026084 -0.074587 0.031761 -0.114693 -0.129842 0.038688 -0.159851 0.087205 0.052560 0.069133 -0.039869 -0.158295 -0.062176 0.045143 -0.078255 -0.084825
ptka 0.077051 0.027391 -0.010329 -0.157869 -0.024545 -0.019681 0.133545 -0.090828 0.017825 -0.060249 0.077791 0.114125 0.088061 -0.151763 -0.054250 -0.030745 -0.026293 0.017568 -0.058670 -0.113904 -0.053957 -0.079535 0.044033 0.153528 -0.088398 -0.153568 -0.074601 -0.153956 0.091120 -0.252116 0.007161 -0.102381 0.074543 0.040147 -0.017239 -0.006557 0.059517 -0.080698 -0.094245 0.083060 -0.207388 0.002359 0.010445 0.135527 0.031144 -0.096827 -0.035912 0.090858 -0.005413 0.078489
p+pro -0.050790 -0.000699 0.132960 -0.186081 -0.069746 -0.098668 0.138364 0.028499 -0.045613 0.049997 -0.033195 0.040911 -0.077896 -0.040256 0.059020 -0.004891 0.091371 0.094238 -0.113970 -0.201019 -0.089678 -0.074982 0.006739 0.079048 -0.012042 -0.186269 -0.018389 -0.229885 0.104548 0.014586 0.000295 -0.204526 0.024616 -0.053655 0.096955 0.032572 0.147789 0.033773 0.073424 -0.176162 -0.030964 -0.201389 0.029974 0.128281 0.000397 0.035525 0.122134 0.016527 -0.078215 0.157841
prelat 0.094605 0.073550 -0.023191 -0.147942 -0.027420 -0.006322 0.135464 -0.086145 0.020185 -0.071142 0.098675 0.093573 0.079066 -0.176207 -0.094064 -0.002977 -0.052529 0.020549 -0.053024 -0.117746 -0.040361 -0.108770 0.011687 0.123008 -0.119878 -0.164161 -0.047061 -0.123176 0.075036 -0.273120 -0.001452 -0.023446 0.008580 0.081803 -0.031751 -0.000288 0.020334 -0.062577 -0.099975 0.132559 -0.200525 0.018988 0.030755 0.127371 0.025528 -0.101646 -0.028129 0.080148 0.019394 0.106519
apzr 0.081819 0.028119 -0.032292 -0.086738 0.001596 -0.020530 0.087890 -0.083859 0.046597 -0.071093 0.091268 0.088693 0.089683 -0.152394 -0.063006 -0.004868 -0.030472 -0.013253 -0.026417 -0.064499 -0.025741 -0.068760 0.013390 0.159523 -0.084796 -0.093484 -0.042698 -0.090493 0.048915 -0.237149 0.000352 -0.045931 0.038732 0.041576 -0.044678 0.005686 0.006162 -0.046804 -0.086581 0.115813 -0.167213 0.026562 0.026117 0.105930 0.021119 -0.075968 -0.044595 0.084482 0.018015 0.044977
vvimp 0.023766 0.029338 -0.011825 -0.072384 -0.033685 0.005598 0.076850 -0.045169 -0.003210 -0.043920 0.041041 0.064824 0.058249 -0.086240 -0.031503 -0.012655 -0.048190 0.019227 -0.023691 -0.040912 -0.022980 -0.025625 0.026980 0.073729 -0.055268 -0.077252 -0.022800 -0.072890 0.042484 -0.130764 0.002236 -0.028151 0.019539 0.027974 -0.017738 -0.015254 0.006829 -0.062777 -0.061118 0.078406 -0.102841 0.031905 0.011798 0.051137 0.018091 -0.048899 -0.011713 0.054406 -0.003260 0.045973
pwat 0.046599 0.038159 0.016255 -0.109826 -0.029604 0.006615 0.105598 -0.051470 0.004217 -0.049559 0.058629 0.057649 0.044046 -0.120746 -0.025409 -0.005030 -0.011084 0.025161 -0.018925 -0.083269 -0.034423 -0.031432 0.020956 0.111369 -0.065363 -0.088579 -0.039484 -0.109599 0.051792 -0.165710 0.007501 -0.058874 0.040244 0.024567 0.015912 0.005037 0.040851 -0.041103 -0.052252 0.072980 -0.114358 -0.021194 -0.002193 0.113897 -0.002593 -0.043915 -0.012291 0.047953 0.002812 0.068236
in 0.000137 -0.019736 -0.016730 -0.044999 -0.018085 0.011859 0.037072 -0.014005 0.038076 -0.058728 0.006342 0.046876 0.083524 -0.066591 -0.014139 -0.014327 -0.033646 0.016490 0.011794 -0.028631 -0.020095 0.035334 0.055454 0.015417 0.034201 -0.001319 -0.045533 0.022660 0.022169 -0.037407 0.033853 -0.037481 0.068237 0.007780 0.014147 -0.041627 0.018125 -0.052041 -0.074589 0.030279 -0.052332 0.033664 0.001166 0.014500 -0.030764 -0.071956 -0.037481 -0.002735 -0.056367 -0.064270
adjp 0.042661 -0.032014 -0.043006 -0.056852 -0.018160 0.007310 0.042568 -0.038943 0.083398 -0.092511 0.028715 0.089735 0.122072 -0.123293 -0.062459 -0.015380 -0.085437 -0.005829 -0.009008 -0.039934 -0.034084 0.001945 0.033794 0.048654 0.022492 -0.006030 -0.051117 0.049999 0.045613 -0.089151 0.025795 -0.051786 0.082253 0.025756 0.003210 -0.060922 -0.030372 -0.049609 -0.107358 0.057755 -0.120133 0.073644 0.018638 0.010290 0.019944 -0.104667 -0.042641 0.025522 -0.019737 -0.063583
y 0.008764 -0.006890 0.004977 -0.006163 0.003296 0.001954 -0.009880 0.003982 0.012787 -0.008329 -0.000699 0.007340 -0.001067 -0.014368 -0.003544 0.001570 0.004939 0.000626 0.010326 0.002288 -0.012689 0.009488 0.016850 -0.019593 0.007285 0.002916 -0.005439 0.006269 -0.008955 0.011536 0.001251 -0.015584 0.004299 0.007991 0.003094 -0.008885 0.006899 -0.007783 -0.012888 0.001466 -0.009551 0.005087 -0.005351 0.001674 -0.001530 -0.008035 -0.009773 -0.020275 -0.017075 -0.023201
ptkant 0.037864 0.027012 -0.008049 -0.060322 -0.015216 0.007002 0.040741 -0.049051 0.002522 -0.017579 0.042690 0.027892 0.016549 -0.068560 -0.024389 0.008617 -0.027719 0.011524 -0.003570 -0.040625 -0.013786 -0.027250 -0.007008 0.051360 -0.039945 -0.051196 -0.015034 -0.033595 0.025112 -0.103616 0.007629 -0.006814 0.001903 0.024973 -0.005454 -0.002621 0.000646 -0.023687 -0.041977 0.053095 -0.068337 0.013147 0.006637 0.045009 -0.001567 -0.041212 -0.009471 0.026990 0.001669 0.030343
hs -0.003586 0.000798 0.001684 0.000479 -0.013585 0.000921 0.010355 0.001079 0.011413 -0.016650 0.005929 0.001067 0.011270 -0.019056 -0.003062 0.003480 -0.005992 -0.003094 -0.003364 -0.016462 0.000904 0.009562 0.002402 -0.002497 0.013539 -0.003434 -0.011277 0.007152 0.006487 -0.014028 -0.003652 0.004528 0.009036 0.009607 0.007975 -0.009119 -0.003531 -0.002024 -0.007310 0.005524 -0.010587 0.008495 0.000349 0.001960 -0.005919 -0.018885 -0.002629 -0.011503 -0.012225 -0.005001
adjwh -0.042493 0.007926 0.078194 -0.100646 -0.068443 -0.049105 0.082158 0.049717 -0.065091 0.043234 -0.022933 0.019142 -0.065194 0.004472 0.028982 -0.013675 0.037932 0.085447 -0.096096 -0.110772 -0.055751 -0.066653 0.013390 0.005992 -0.013420 -0.142740 -0.018225 -0.131039 0.077406 0.035947 -0.015560 -0.097035 -0.009516 -0.014825 0.054055 0.003342 0.080298 -0.000732 0.035863 -0.126681 -0.021865 -0.102432 0.039464 0.064209 0.027492 0.011643 0.067364 0.033409 -0.043125 0.097426
detwh -0.002234 -0.017494 0.015234 -0.012307 0.013115 -0.016340 0.012609 0.015056 -0.013730 0.000653 0.001325 -0.001966 -0.022114 0.006099 0.013534 -0.000996 0.033018 0.007220 -0.031034 -0.006727 -0.010810 -0.026601 -0.007028 0.004758 0.001843 -0.028815 -0.012527 -0.051841 0.017568 -0.003123 -0.013508 -0.029840 0.007595 -0.006491 0.006170 0.017806 0.026867 0.025216 0.022498 -0.039209 0.003331 -0.046861 0.016758 0.005482 0.024744 0.007110 0.031463 0.004197 0.003698 0.018328
itj 0.002207 0.003059 0.000038 -0.022057 0.001214 -0.001072 0.008193 -0.002307 0.002777 0.006149 0.002967 0.005168 0.019492 -0.010756 -0.019967 0.000796 -0.000548 0.011104 -0.006435 -0.018833 -0.009966 -0.022351 -0.003157 0.021352 -0.012678 -0.023915 -0.000486 -0.013123 0.004557 -0.035373 -0.000959 0.000357 0.007535 -0.002546 -0.002307 -0.005762 0.009857 -0.016156 -0.003689 0.015391 -0.024159 -0.002054 -0.005781 0.015313 -0.005859 -0.015906 -0.009883 0.025107 0.004535 0.003876
pposs 0.013592 0.017744 -0.006623 -0.039298 -0.000756 0.001025 0.026812 -0.014177 0.003417 -0.032933 0.024709 0.028410 0.034850 -0.037429 -0.015307 -0.010353 -0.012916 0.013180 -0.002242 -0.028887 -0.005506 -0.024881 0.016082 0.042764 -0.034583 -0.044402 -0.011371 -0.029954 0.012937 -0.067715 0.006495 -0.023867 0.023305 0.022036 0.001231 -0.008194 0.010610 -0.034555 -0.036536 0.033836 -0.069013 0.007112 -0.000219 0.027311 0.003678 -0.022411 -0.024670 0.027721 -0.000797 0.012665
depr 0.002856 -0.005596 -0.002178 -0.007334 -0.002680 0.002606 0.000938 -0.009922 0.008469 -0.019032 -0.003776 0.005395 0.023863 -0.015598 -0.013201 -0.005365 -0.009062 -0.007362 -0.003517 -0.004719 0.002784 0.013688 0.018748 -0.001332 0.013376 0.011896 -0.012734 0.003531 0.006560 -0.003251 0.009703 -0.017424 0.007876 0.006351 0.013266 -0.004742 0.009218 -0.016464 -0.021248 -0.004357 -0.006494 0.016907 0.002635 0.007706 -0.010734 -0.010226 -0.010384 -0.008056 -0.011253 -0.010600
adjc 0.001315 0.008176 -0.006986 0.006910 0.006404 -0.000013 -0.009248 -0.007050 0.008453 -0.009117 -0.002550 0.002381 -0.006061 0.009622 -0.006880 0.000794 0.002360 -0.005380 -0.000674 -0.000180 0.005337 0.002686 -0.000649 0.003339 -0.000932 0.000514 0.003171 -0.006376 0.005761 0.002057 0.009607 -0.005552 -0.000675 0.007913 0.002029 0.004519 -0.001727 0.003686 0.008921 -0.005996 0.006147 0.009391 -0.009709 -0.005696 -0.007652 0.005348 -0.008376 0.009968 -0.002208 0.008104
- -0.006163 -0.000437 0.008614 -0.010386 -0.001953 0.002342 -0.006721 0.007139 -0.001913 -0.002322 -0.007684 0.001699 0.006633 -0.011309 0.009397 0.004981 -0.004430 -0.005629 0.004976 -0.014292 0.000230 0.003498 -0.000812 -0.013981 0.017340 -0.003594 -0.011242 -0.001517 -0.007231 0.001754 -0.002221 -0.003166 0.004147 0.006279 0.016137 -0.015917 -0.001671 -0.000600 -0.004904 0.001121 -0.002918 -0.000214 0.002618 -0.000724 -0.009024 -0.016941 -0.003421 0.001826 -0.019857 -0.008226
